%YAML:1.0
---
opencv_ml_svm:
   format: 3
   svmType: C_SVC
   kernel:
      type: CHI2
      gamma: 5.0625000000000009e-01
   C: 3.1250000000000000e+02
   term_criteria: { iterations:100 }
   var_count: 50
   class_count: 2
   class_labels: !!opencv-matrix
      rows: 2
      cols: 1
      dt: i
      data: [ 0, 1 ]
   sv_total: 128
   support_vectors:
      - [ 3.64583358e-02, 3.12500000e-02, 1.04166670e-02, 2.08333340e-02,
          3.12500000e-02, 2.60416679e-02, 2.60416679e-02, 1.56250000e-02,
          0., 1.04166670e-02, 2.60416679e-02, 1.04166670e-02,
          5.20833349e-03, 1.04166670e-02, 4.16666679e-02, 1.04166670e-02,
          1.04166670e-02, 1.56250000e-02, 1.56250000e-02, 2.08333340e-02,
          1.56250000e-02, 5.20833349e-03, 3.12500000e-02, 3.12500000e-02,
          2.60416679e-02, 5.72916679e-02, 1.56250000e-02, 3.64583358e-02,
          1.04166670e-02, 2.08333340e-02, 2.08333340e-02, 5.20833349e-03,
          1.56250000e-02, 5.20833349e-03, 5.20833349e-03, 2.08333340e-02,
          0., 1.56250000e-02, 2.08333340e-02, 1.56250000e-02,
          2.08333340e-02, 2.60416679e-02, 1.56250000e-02, 5.20833349e-03,
          3.64583358e-02, 4.16666679e-02, 2.60416679e-02, 3.12500000e-02,
          3.12500000e-02, 1.56250000e-02 ]
      - [ 2.80373823e-02, 1.86915882e-02, 4.67289705e-03, 3.27102803e-02,
          1.40186911e-02, 1.86915882e-02, 4.20560725e-02, 2.80373823e-02,
          0., 2.80373823e-02, 1.86915882e-02, 4.67289705e-03,
          9.34579410e-03, 3.27102803e-02, 2.33644843e-02, 1.86915882e-02,
          1.40186911e-02, 1.40186911e-02, 4.67289705e-03, 4.67289705e-03,
          1.86915882e-02, 2.33644843e-02, 0., 2.33644843e-02,
          4.67289686e-02, 3.73831764e-02, 3.27102803e-02, 4.67289686e-02,
          3.73831764e-02, 1.40186911e-02, 2.80373823e-02, 4.67289705e-03,
          4.67289705e-03, 1.40186911e-02, 1.40186911e-02, 1.86915882e-02,
          1.40186911e-02, 2.80373823e-02, 9.34579410e-03, 3.27102803e-02,
          9.34579410e-03, 2.33644843e-02, 9.34579410e-03, 2.33644843e-02,
          1.86915882e-02, 9.34579410e-03, 0., 5.14018685e-02,
          2.33644843e-02, 2.33644843e-02 ]
      - [ 1.89573467e-02, 2.84360200e-02, 9.47867334e-03, 2.84360200e-02,
          0., 2.84360200e-02, 5.21327034e-02, 3.31753567e-02,
          4.73933667e-03, 1.42180100e-02, 1.42180100e-02, 9.47867334e-03,
          1.89573467e-02, 1.42180100e-02, 2.84360200e-02, 3.79146934e-02,
          1.89573467e-02, 1.89573467e-02, 1.89573467e-02, 4.73933667e-03,
          1.89573467e-02, 9.47867334e-03, 1.42180100e-02, 4.73933667e-03,
          1.42180100e-02, 3.79146934e-02, 1.89573467e-02, 9.47867334e-03,
          1.42180100e-02, 1.42180100e-02, 3.31753567e-02, 4.73933667e-03,
          4.73933667e-03, 0., 9.47867334e-03, 2.84360200e-02,
          3.79146934e-02, 3.31753567e-02, 1.89573467e-02, 3.31753567e-02,
          0., 1.42180100e-02, 2.84360200e-02, 3.79146934e-02,
          2.84360200e-02, 3.31753567e-02, 4.73933667e-03, 5.68720400e-02,
          2.36966833e-02, 9.47867334e-03 ]
      - [ 3.82165611e-02, 1.27388537e-02, 6.36942685e-03, 6.36942685e-03,
          1.27388537e-02, 1.91082805e-02, 4.45859879e-02, 6.36942685e-03,
          0., 1.91082805e-02, 6.36942685e-03, 3.18471342e-02,
          6.36942685e-03, 0., 5.09554148e-02, 2.54777074e-02,
          1.27388537e-02, 2.54777074e-02, 6.36942685e-03, 1.27388537e-02,
          1.27388537e-02, 0., 4.45859879e-02, 1.91082805e-02,
          1.91082805e-02, 3.82165611e-02, 0., 1.91082805e-02,
          1.27388537e-02, 6.36942685e-02, 5.09554148e-02, 0.,
          6.36942685e-03, 0., 1.27388537e-02, 1.91082805e-02,
          8.91719759e-02, 2.54777074e-02, 1.91082805e-02, 6.36942685e-03,
          0., 2.54777074e-02, 3.18471342e-02, 3.18471342e-02,
          1.91082805e-02, 1.27388537e-02, 0., 1.91082805e-02,
          2.54777074e-02, 3.18471342e-02 ]
      - [ 2.17391308e-02, 2.17391308e-02, 2.17391308e-02, 1.63043477e-02,
          1.63043477e-02, 2.71739140e-02, 2.17391308e-02, 1.08695654e-02,
          0., 5.43478271e-03, 3.26086953e-02, 1.08695654e-02,
          5.43478271e-03, 1.08695654e-02, 3.80434804e-02, 3.80434804e-02,
          1.08695654e-02, 2.71739140e-02, 1.63043477e-02, 0.,
          1.63043477e-02, 1.63043477e-02, 5.43478271e-03, 2.71739140e-02,
          5.97826093e-02, 2.71739140e-02, 2.71739140e-02, 3.80434804e-02,
          1.08695654e-02, 3.26086953e-02, 2.71739140e-02, 5.43478271e-03,
          1.08695654e-02, 5.43478271e-03, 0., 2.17391308e-02,
          2.71739140e-02, 2.71739140e-02, 1.63043477e-02, 1.08695654e-02,
          3.80434804e-02, 2.71739140e-02, 5.43478271e-03, 1.08695654e-02,
          2.17391308e-02, 3.26086953e-02, 5.43478271e-03, 2.71739140e-02,
          4.34782617e-02, 2.17391308e-02 ]
      - [ 1.66666675e-02, 2.22222228e-02, 5.55555569e-03, 2.77777780e-02,
          1.11111114e-02, 0., 3.88888903e-02, 1.66666675e-02,
          1.11111114e-02, 1.66666675e-02, 4.44444455e-02, 5.55555569e-03,
          1.11111114e-02, 5.55555569e-03, 6.66666701e-02, 1.66666675e-02,
          1.11111114e-02, 6.11111112e-02, 1.11111114e-02, 1.11111114e-02,
          5.55555569e-03, 1.66666675e-02, 4.44444455e-02, 1.11111114e-02,
          0., 3.88888903e-02, 5.55555569e-03, 3.33333351e-02,
          5.55555569e-03, 7.77777806e-02, 1.11111114e-02, 1.66666675e-02,
          0., 1.66666675e-02, 0., 1.11111114e-02, 1.66666675e-02,
          2.22222228e-02, 1.66666675e-02, 0., 5.55555569e-03,
          2.22222228e-02, 3.33333351e-02, 3.88888903e-02, 1.11111114e-02,
          1.66666675e-02, 1.66666675e-02, 4.44444455e-02, 2.77777780e-02,
          2.22222228e-02 ]
      - [ 3.52941193e-02, 2.35294122e-02, 1.17647061e-02, 1.76470596e-02,
          5.88235306e-03, 2.35294122e-02, 3.52941193e-02, 2.35294122e-02,
          0., 1.17647061e-02, 2.35294122e-02, 1.76470596e-02,
          5.88235306e-03, 1.76470596e-02, 4.70588244e-02, 1.76470596e-02,
          2.35294122e-02, 2.35294122e-02, 2.35294122e-02, 0.,
          1.76470596e-02, 2.35294122e-02, 0., 1.76470596e-02,
          2.35294122e-02, 4.70588244e-02, 2.35294122e-02, 5.88235306e-03,
          2.35294122e-02, 4.11764719e-02, 2.35294122e-02, 5.88235306e-03,
          1.17647061e-02, 1.76470596e-02, 5.88235306e-03, 2.35294122e-02,
          3.52941193e-02, 2.35294122e-02, 1.76470596e-02, 1.17647061e-02,
          1.17647061e-02, 2.94117648e-02, 1.17647061e-02, 3.52941193e-02,
          1.17647061e-02, 1.76470596e-02, 1.17647061e-02, 4.11764719e-02,
          1.76470596e-02, 2.35294122e-02 ]
      - [ 1.87500007e-02, 1.87500007e-02, 0., 0., 2.50000004e-02,
          6.25000009e-03, 4.37499993e-02, 0., 3.12500000e-02,
          6.25000009e-03, 1.87500007e-02, 6.25000009e-03, 6.25000009e-03,
          6.25000009e-03, 4.37499993e-02, 2.50000004e-02, 1.87500007e-02,
          4.37499993e-02, 6.25000009e-03, 6.25000009e-03, 6.25000009e-03,
          2.50000004e-02, 1.87500007e-02, 1.25000002e-02, 3.75000015e-02,
          5.00000007e-02, 6.25000009e-03, 4.37499993e-02, 1.25000002e-02,
          3.12500000e-02, 1.25000002e-02, 1.25000002e-02, 1.25000002e-02,
          0., 1.25000002e-02, 3.12500000e-02, 7.50000030e-02,
          1.25000002e-02, 1.87500007e-02, 1.87500007e-02, 6.25000009e-03,
          6.25000009e-03, 1.87500007e-02, 2.50000004e-02, 3.75000015e-02,
          1.25000002e-02, 3.12500000e-02, 3.75000015e-02, 1.87500007e-02,
          2.50000004e-02 ]
      - [ 2.09205020e-02, 2.92887017e-02, 8.36820062e-03, 8.36820062e-03,
          2.92887017e-02, 1.67364012e-02, 2.09205020e-02, 2.51046009e-02,
          0., 0., 4.60251048e-02, 4.18410031e-03, 8.36820062e-03,
          1.67364012e-02, 2.51046009e-02, 3.34728025e-02, 1.25523005e-02,
          2.51046009e-02, 4.60251048e-02, 1.67364012e-02, 4.18410031e-03,
          2.09205020e-02, 4.18410040e-02, 0., 1.67364012e-02,
          2.09205020e-02, 1.25523005e-02, 1.25523005e-02, 2.51046009e-02,
          5.02092019e-02, 1.67364012e-02, 4.18410031e-03, 4.18410031e-03,
          2.09205020e-02, 2.92887017e-02, 1.25523005e-02, 2.51046009e-02,
          1.67364012e-02, 1.25523005e-02, 1.25523005e-02, 2.51046009e-02,
          2.92887017e-02, 2.92887017e-02, 3.34728025e-02, 2.09205020e-02,
          3.34728025e-02, 2.51046009e-02, 2.09205020e-02, 1.67364012e-02,
          1.25523005e-02 ]
      - [ 1.65745858e-02, 2.20994484e-02, 5.52486209e-03, 5.52486209e-03,
          5.52486209e-03, 5.52486209e-03, 4.41988967e-02, 2.76243109e-02,
          1.65745858e-02, 5.52486209e-03, 3.31491716e-02, 2.20994484e-02,
          1.65745858e-02, 1.10497242e-02, 3.86740342e-02, 3.31491716e-02,
          1.10497242e-02, 4.41988967e-02, 1.65745858e-02, 2.20994484e-02,
          5.52486209e-03, 1.65745858e-02, 3.86740342e-02, 1.65745858e-02,
          1.10497242e-02, 4.41988967e-02, 1.10497242e-02, 2.20994484e-02,
          5.52486209e-03, 6.07734844e-02, 1.65745858e-02, 1.65745858e-02,
          0., 0., 3.86740342e-02, 1.65745858e-02, 4.97237593e-02,
          5.52486209e-03, 3.86740342e-02, 1.65745858e-02, 0.,
          1.65745858e-02, 2.20994484e-02, 1.65745858e-02, 1.10497242e-02,
          1.10497242e-02, 2.20994484e-02, 3.86740342e-02, 1.65745858e-02,
          1.10497242e-02 ]
      - [ 3.70370373e-02, 1.58730149e-02, 1.58730149e-02, 1.05820103e-02,
          1.05820103e-02, 1.58730149e-02, 2.64550261e-02, 1.58730149e-02,
          5.29100513e-03, 1.05820103e-02, 1.58730149e-02, 1.05820103e-02,
          5.29100513e-03, 1.05820103e-02, 3.17460299e-02, 4.23280410e-02,
          5.29100513e-03, 4.23280410e-02, 2.64550261e-02, 3.17460299e-02,
          0., 1.58730149e-02, 4.76190448e-02, 5.29100513e-03,
          5.29100522e-02, 3.70370373e-02, 5.29100513e-03, 2.64550261e-02,
          0., 5.82010560e-02, 2.11640205e-02, 1.58730149e-02,
          5.29100513e-03, 5.29100513e-03, 2.64550261e-02, 2.11640205e-02,
          2.64550261e-02, 3.17460299e-02, 1.05820103e-02, 2.11640205e-02,
          1.05820103e-02, 3.17460299e-02, 0., 1.05820103e-02,
          1.58730149e-02, 1.05820103e-02, 1.05820103e-02, 4.23280410e-02,
          3.17460299e-02, 1.58730149e-02 ]
      - [ 2.93398537e-02, 3.91198061e-02, 1.22249397e-02, 2.93398537e-02,
          3.66748199e-02, 1.46699268e-02, 1.71149150e-02, 1.46699268e-02,
          0., 1.95599031e-02, 1.46699268e-02, 9.77995154e-03,
          7.33496342e-03, 1.71149150e-02, 2.93398537e-02, 4.88997577e-03,
          1.71149150e-02, 1.22249397e-02, 4.64547686e-02, 7.33496342e-03,
          1.46699268e-02, 2.44498793e-02, 1.71149150e-02, 1.71149150e-02,
          2.44498788e-03, 5.13447449e-02, 2.44498793e-02, 2.20048912e-02,
          9.77995154e-03, 1.46699268e-02, 1.46699268e-02, 9.77995154e-03,
          1.71149150e-02, 2.93398537e-02, 1.95599031e-02, 1.22249397e-02,
          2.93398537e-02, 7.33496342e-03, 1.71149150e-02, 1.71149150e-02,
          1.46699268e-02, 7.33496342e-03, 2.68948674e-02, 2.44498793e-02,
          2.68948674e-02, 4.64547686e-02, 2.44498793e-02, 2.44498793e-02,
          3.66748199e-02, 1.71149150e-02 ]
      - [ 3.68098170e-02, 1.22699384e-02, 2.45398767e-02, 1.22699384e-02,
          1.22699384e-02, 2.45398767e-02, 6.13496918e-03, 4.29447852e-02,
          2.45398767e-02, 3.06748450e-02, 2.45398767e-02, 6.13496918e-03,
          6.13496918e-03, 3.06748450e-02, 1.84049085e-02, 1.22699384e-02,
          1.84049085e-02, 1.84049085e-02, 1.22699384e-02, 0.,
          2.45398767e-02, 6.13496918e-03, 6.13496918e-03, 9.81595069e-02,
          4.29447852e-02, 4.29447852e-02, 6.13496918e-03, 4.29447852e-02,
          2.45398767e-02, 2.45398767e-02, 3.06748450e-02, 2.45398767e-02,
          0., 0., 2.45398767e-02, 1.22699384e-02, 1.22699384e-02,
          2.45398767e-02, 1.22699384e-02, 6.13496918e-03, 0.,
          2.45398767e-02, 1.22699384e-02, 1.84049085e-02, 1.84049085e-02,
          1.22699384e-02, 6.13496918e-03, 3.68098170e-02, 1.22699384e-02,
          1.84049085e-02 ]
      - [ 3.50877196e-02, 2.33918130e-02, 5.84795326e-03, 1.16959065e-02,
          5.84795326e-03, 3.50877196e-02, 7.60233924e-02, 2.33918130e-02,
          3.50877196e-02, 1.75438598e-02, 5.84795326e-02, 1.75438598e-02,
          1.75438598e-02, 5.84795326e-03, 3.50877196e-02, 1.16959065e-02,
          1.16959065e-02, 1.16959065e-02, 0., 2.33918130e-02,
          1.75438598e-02, 1.16959065e-02, 2.33918130e-02, 2.92397663e-02,
          4.67836261e-02, 2.33918130e-02, 5.84795326e-03, 2.33918130e-02,
          2.33918130e-02, 1.75438598e-02, 2.92397663e-02, 0.,
          1.16959065e-02, 1.16959065e-02, 1.16959065e-02, 5.84795326e-03,
          1.16959065e-02, 2.33918130e-02, 2.33918130e-02, 0.,
          1.16959065e-02, 3.50877196e-02, 2.92397663e-02, 5.84795326e-03,
          1.16959065e-02, 1.16959065e-02, 1.75438598e-02, 1.75438598e-02,
          2.92397663e-02, 1.75438598e-02 ]
      - [ 2.72373538e-02, 1.16731515e-02, 3.89105058e-03, 1.94552522e-02,
          2.72373538e-02, 2.33463030e-02, 3.11284047e-02, 1.55642023e-02,
          7.78210117e-03, 3.11284047e-02, 1.94552522e-02, 1.55642023e-02,
          0., 1.55642023e-02, 2.72373538e-02, 1.16731515e-02,
          1.94552522e-02, 1.16731515e-02, 2.33463030e-02, 2.33463030e-02,
          3.50194536e-02, 1.94552522e-02, 7.78210117e-03, 3.89105044e-02,
          1.94552522e-02, 3.89105044e-02, 2.33463030e-02, 3.50194536e-02,
          2.33463030e-02, 7.78210117e-03, 2.72373538e-02, 7.78210117e-03,
          3.89105058e-03, 1.94552522e-02, 1.94552522e-02, 7.78210117e-03,
          7.78210117e-03, 3.50194536e-02, 1.55642023e-02, 3.50194536e-02,
          1.16731515e-02, 3.89105044e-02, 1.94552522e-02, 1.16731515e-02,
          3.89105058e-03, 7.78210117e-03, 3.50194536e-02, 3.11284047e-02,
          2.72373538e-02, 1.94552522e-02 ]
      - [ 1.96629222e-02, 3.08988765e-02, 8.42696615e-03, 1.40449442e-02,
          1.68539323e-02, 1.40449442e-02, 4.21348326e-02, 8.42696615e-03,
          2.80898879e-03, 1.68539323e-02, 2.24719103e-02, 2.80898884e-02,
          1.12359552e-02, 1.40449442e-02, 2.80898884e-02, 1.12359552e-02,
          2.80898884e-02, 1.68539323e-02, 1.96629222e-02, 2.52808984e-02,
          8.42696615e-03, 5.61797759e-03, 1.68539323e-02, 5.05617969e-02,
          3.08988765e-02, 3.65168527e-02, 1.68539323e-02, 2.52808984e-02,
          8.42696615e-03, 1.96629222e-02, 4.77528088e-02, 1.68539323e-02,
          1.12359552e-02, 8.42696615e-03, 1.12359552e-02, 1.68539323e-02,
          1.68539323e-02, 3.93258445e-02, 2.24719103e-02, 1.12359552e-02,
          1.40449442e-02, 2.52808984e-02, 2.80898879e-03, 1.40449442e-02,
          2.52808984e-02, 8.42696615e-03, 2.24719103e-02, 2.52808984e-02,
          4.49438207e-02, 1.68539323e-02 ]
      - [ 1.58730168e-02, 3.96825420e-03, 2.38095261e-02, 1.98412705e-02,
          4.36507948e-02, 1.98412705e-02, 1.19047631e-02, 1.19047631e-02,
          1.19047631e-02, 3.57142873e-02, 1.58730168e-02, 7.93650839e-03,
          2.38095261e-02, 1.98412705e-02, 2.77777798e-02, 1.58730168e-02,
          1.98412705e-02, 1.19047631e-02, 1.98412705e-02, 1.19047631e-02,
          1.98412705e-02, 3.96825410e-02, 3.96825420e-03, 1.58730168e-02,
          3.57142873e-02, 3.17460336e-02, 3.96825410e-02, 1.58730168e-02,
          3.57142873e-02, 7.93650839e-03, 1.98412705e-02, 1.58730168e-02,
          7.93650839e-03, 2.77777798e-02, 1.58730168e-02, 1.19047631e-02,
          3.96825420e-03, 1.98412705e-02, 1.19047631e-02, 2.38095261e-02,
          2.38095261e-02, 1.19047631e-02, 0., 1.58730168e-02,
          1.58730168e-02, 7.93650839e-03, 2.38095261e-02, 5.55555597e-02,
          4.76190522e-02, 1.98412705e-02 ]
      - [ 3.35820876e-02, 7.46268639e-03, 3.73134315e-02, 7.46268639e-03,
          1.86567158e-02, 3.73134315e-02, 1.86567158e-02, 2.61194017e-02,
          3.73134320e-03, 2.23880596e-02, 1.11940298e-02, 2.61194017e-02,
          1.11940298e-02, 2.61194017e-02, 2.61194017e-02, 3.73134315e-02,
          1.86567158e-02, 1.86567158e-02, 3.73134315e-02, 2.23880596e-02,
          1.86567158e-02, 1.86567158e-02, 2.23880596e-02, 3.35820876e-02,
          1.49253728e-02, 2.98507456e-02, 2.23880596e-02, 1.49253728e-02,
          1.86567158e-02, 7.46268639e-03, 2.23880596e-02, 3.73134320e-03,
          3.73134320e-03, 3.73134315e-02, 1.49253728e-02, 1.49253728e-02,
          1.49253728e-02, 1.11940298e-02, 2.61194017e-02, 2.23880596e-02,
          1.11940298e-02, 1.49253728e-02, 3.73134315e-02, 2.98507456e-02,
          1.49253728e-02, 7.46268639e-03, 1.86567158e-02, 1.49253728e-02,
          1.86567158e-02, 1.11940298e-02 ]
      - [ 1.49253728e-02, 7.46268639e-03, 9.95024852e-03, 9.95024852e-03,
          2.98507456e-02, 1.99004970e-02, 2.73631830e-02, 1.49253728e-02,
          1.49253728e-02, 1.99004970e-02, 1.99004970e-02, 2.48756222e-02,
          3.48258689e-02, 1.99004970e-02, 2.48756222e-02, 2.73631830e-02,
          1.24378111e-02, 1.74129345e-02, 3.48258689e-02, 1.24378111e-02,
          2.48756222e-02, 2.23880596e-02, 9.95024852e-03, 6.71641752e-02,
          1.24378111e-02, 2.48756222e-02, 1.74129345e-02, 2.23880596e-02,
          1.74129345e-02, 1.74129345e-02, 2.48756222e-02, 2.73631830e-02,
          1.99004970e-02, 3.23383063e-02, 1.49253728e-02, 7.46268639e-03,
          1.24378111e-02, 3.48258689e-02, 9.95024852e-03, 2.23880596e-02,
          1.99004970e-02, 1.74129345e-02, 4.97512426e-03, 1.99004970e-02,
          1.24378111e-02, 2.73631830e-02, 1.49253728e-02, 1.74129345e-02,
          1.49253728e-02, 9.95024852e-03 ]
      - [ 1.05932206e-02, 2.96610165e-02, 3.17796618e-02, 1.48305083e-02,
          1.69491526e-02, 1.69491526e-02, 1.05932206e-02, 1.27118640e-02,
          1.69491526e-02, 6.35593198e-03, 1.27118640e-02, 3.38983051e-02,
          1.05932206e-02, 1.90677959e-02, 2.11864412e-02, 2.75423732e-02,
          2.96610165e-02, 2.11864412e-02, 1.90677959e-02, 2.54237279e-02,
          1.05932206e-02, 2.96610165e-02, 2.11864412e-02, 3.81355919e-02,
          2.11864412e-02, 2.54237279e-02, 6.35593198e-03, 6.35593198e-03,
          1.90677959e-02, 2.75423732e-02, 6.35593198e-03, 1.05932206e-02,
          1.05932206e-02, 4.44915257e-02, 1.05932206e-02, 6.35593198e-03,
          2.33050846e-02, 6.35593198e-03, 4.23728814e-03, 1.05932206e-02,
          5.93220331e-02, 6.35593198e-03, 4.23728824e-02, 2.54237279e-02,
          1.90677959e-02, 6.14406765e-02, 1.27118640e-02, 1.05932206e-02,
          1.69491526e-02, 1.90677959e-02 ]
      - [ 2.53164563e-02, 1.89873427e-02, 2.53164563e-02, 6.32911408e-03,
          2.53164563e-02, 1.26582282e-02, 2.53164563e-02, 2.53164563e-02,
          6.32911408e-03, 1.26582282e-02, 0., 1.89873427e-02,
          1.26582282e-02, 1.26582282e-02, 1.89873427e-02, 4.43037972e-02,
          1.26582282e-02, 2.53164563e-02, 3.16455700e-02, 1.89873427e-02,
          0., 1.26582282e-02, 1.26582282e-02, 3.16455700e-02,
          2.53164563e-02, 3.79746854e-02, 6.32911408e-03, 3.16455700e-02,
          3.16455700e-02, 3.16455700e-02, 2.53164563e-02, 6.32911408e-03,
          1.89873427e-02, 1.89873427e-02, 1.89873427e-02, 1.26582282e-02,
          4.43037972e-02, 1.89873427e-02, 0., 1.26582282e-02, 0.,
          1.26582282e-02, 3.79746854e-02, 1.26582282e-02, 2.53164563e-02,
          4.43037972e-02, 1.89873427e-02, 4.43037972e-02, 1.26582282e-02,
          1.26582282e-02 ]
      - [ 4.06976752e-02, 0., 0., 5.23255803e-02, 1.16279069e-02,
          1.16279069e-02, 4.65116277e-02, 1.74418613e-02, 1.74418613e-02,
          1.74418613e-02, 3.48837227e-02, 1.74418613e-02, 5.81395347e-03,
          2.32558139e-02, 1.74418613e-02, 3.48837227e-02, 5.81395347e-03,
          9.30232555e-02, 3.48837227e-02, 5.81395347e-03, 0.,
          5.81395347e-03, 5.23255803e-02, 2.90697664e-02, 4.65116277e-02,
          1.74418613e-02, 1.74418613e-02, 4.06976752e-02, 1.16279069e-02,
          3.48837227e-02, 2.32558139e-02, 1.74418613e-02, 0., 0.,
          1.74418613e-02, 4.06976752e-02, 2.32558139e-02, 1.16279069e-02,
          1.16279069e-02, 1.74418613e-02, 0., 1.16279069e-02, 0.,
          2.32558139e-02, 1.16279069e-02, 0., 0., 5.81395347e-03,
          2.90697664e-02, 1.16279069e-02 ]
      - [ 1.06382975e-02, 3.19148935e-02, 5.31914877e-03, 4.25531901e-02,
          3.72340418e-02, 5.31914877e-03, 2.12765951e-02, 5.31914877e-03,
          5.31914877e-03, 1.59574468e-02, 2.12765951e-02, 1.06382975e-02,
          2.12765951e-02, 1.59574468e-02, 2.12765951e-02, 3.72340418e-02,
          1.06382975e-02, 2.65957434e-02, 1.59574468e-02, 2.65957434e-02,
          5.31914877e-03, 4.25531901e-02, 3.19148935e-02, 4.78723384e-02,
          4.78723384e-02, 1.59574468e-02, 1.06382975e-02, 2.65957434e-02,
          2.12765951e-02, 1.06382975e-02, 2.12765951e-02, 5.31914877e-03,
          1.59574468e-02, 1.06382975e-02, 5.31914877e-03, 1.59574468e-02,
          1.06382975e-02, 2.65957434e-02, 3.72340418e-02, 1.06382975e-02,
          1.06382975e-02, 2.65957434e-02, 5.31914877e-03, 5.31914877e-03,
          2.12765951e-02, 2.12765951e-02, 1.59574468e-02, 1.59574468e-02,
          2.12765951e-02, 4.78723384e-02 ]
      - [ 2.46305410e-02, 2.95566507e-02, 9.85221658e-03, 2.95566507e-02,
          4.92610829e-03, 9.85221658e-03, 6.89655170e-02, 2.46305410e-02,
          9.85221658e-03, 2.46305410e-02, 2.95566507e-02, 9.85221658e-03,
          1.47783253e-02, 9.85221658e-03, 2.95566507e-02, 2.95566507e-02,
          1.47783253e-02, 1.97044332e-02, 9.85221658e-03, 1.47783253e-02,
          1.47783253e-02, 9.85221658e-03, 9.85221658e-03, 2.46305410e-02,
          2.95566507e-02, 3.44827585e-02, 1.47783253e-02, 2.95566507e-02,
          0., 9.85221658e-03, 3.44827585e-02, 9.85221658e-03,
          4.92610829e-03, 3.44827585e-02, 2.46305410e-02, 1.97044332e-02,
          0., 2.95566507e-02, 1.47783253e-02, 2.95566507e-02,
          4.92610829e-03, 3.94088663e-02, 1.47783253e-02, 2.46305410e-02,
          1.47783253e-02, 2.95566507e-02, 1.47783253e-02, 2.46305410e-02,
          1.47783253e-02, 1.97044332e-02 ]
      - [ 2.32558139e-02, 2.90697664e-02, 5.81395347e-03, 1.74418613e-02,
          1.16279069e-02, 5.81395347e-03, 6.39534891e-02, 1.16279069e-02,
          1.16279069e-02, 1.74418613e-02, 2.90697664e-02, 1.74418613e-02,
          1.16279069e-02, 1.74418613e-02, 4.65116277e-02, 6.39534891e-02,
          5.81395347e-03, 1.16279069e-02, 1.16279069e-02, 1.16279069e-02,
          5.81395347e-03, 1.74418613e-02, 5.81395347e-03, 2.90697664e-02,
          2.32558139e-02, 2.90697664e-02, 5.81395347e-03, 2.90697664e-02,
          0., 0., 5.23255803e-02, 1.16279069e-02, 0., 3.48837227e-02,
          1.74418613e-02, 2.32558139e-02, 1.74418613e-02, 5.81395328e-02,
          5.81395347e-03, 0., 0., 2.90697664e-02, 1.16279069e-02,
          3.48837227e-02, 1.74418613e-02, 3.48837227e-02, 1.74418613e-02,
          3.48837227e-02, 1.74418613e-02, 1.16279069e-02 ]
      - [ 6.02409616e-03, 3.01204808e-02, 1.80722885e-02, 6.02409616e-03,
          0., 6.02409616e-03, 5.42168655e-02, 6.02409616e-03,
          1.20481923e-02, 1.20481923e-02, 1.80722885e-02, 3.61445770e-02,
          1.20481923e-02, 6.02409616e-03, 2.40963846e-02, 3.61445770e-02,
          3.61445770e-02, 1.20481923e-02, 6.02409616e-03, 0.,
          6.02409616e-03, 2.40963846e-02, 4.21686731e-02, 3.01204808e-02,
          5.42168655e-02, 3.01204808e-02, 1.20481923e-02, 2.40963846e-02,
          1.20481923e-02, 4.21686731e-02, 4.21686731e-02, 1.20481923e-02,
          1.20481923e-02, 1.20481923e-02, 4.21686731e-02, 1.20481923e-02,
          2.40963846e-02, 4.21686731e-02, 2.40963846e-02, 1.20481923e-02,
          1.80722885e-02, 3.01204808e-02, 1.20481923e-02, 1.20481923e-02,
          1.20481923e-02, 2.40963846e-02, 6.02409616e-03, 1.20481923e-02,
          6.02409616e-03, 1.80722885e-02 ]
      - [ 3.17460299e-02, 2.64550261e-02, 1.05820103e-02, 1.58730149e-02,
          3.17460299e-02, 2.11640205e-02, 3.17460299e-02, 2.64550261e-02,
          3.70370373e-02, 1.05820103e-02, 1.58730149e-02, 1.05820103e-02,
          1.58730149e-02, 0., 1.58730149e-02, 1.58730149e-02,
          1.58730149e-02, 2.11640205e-02, 4.23280410e-02, 2.11640205e-02,
          1.58730149e-02, 2.11640205e-02, 1.58730149e-02, 1.58730149e-02,
          1.05820103e-02, 5.29100522e-02, 3.70370373e-02, 5.29100513e-03,
          3.17460299e-02, 3.17460299e-02, 5.29100513e-03, 5.29100513e-03,
          5.29100513e-03, 1.58730149e-02, 2.11640205e-02, 2.11640205e-02,
          0., 3.17460299e-02, 5.29100513e-03, 1.58730149e-02,
          1.58730149e-02, 5.29100513e-03, 2.11640205e-02, 1.05820103e-02,
          5.29100513e-03, 1.58730149e-02, 4.76190448e-02, 4.76190448e-02,
          1.05820103e-02, 3.70370373e-02 ]
      - [ 1.79640725e-02, 1.19760484e-02, 5.98802418e-03, 1.19760484e-02,
          2.39520967e-02, 1.19760484e-02, 5.98802418e-03, 5.98802418e-03,
          1.19760484e-02, 2.39520967e-02, 2.99401209e-02, 5.98802418e-03,
          4.79041934e-02, 5.98802418e-03, 1.19760484e-02, 4.19161692e-02,
          1.19760484e-02, 1.19760484e-02, 2.99401209e-02, 5.98802418e-03,
          2.39520967e-02, 1.19760484e-02, 1.19760484e-02, 2.39520967e-02,
          4.19161692e-02, 1.79640725e-02, 4.19161692e-02, 2.39520967e-02,
          1.19760484e-02, 2.39520967e-02, 3.59281451e-02, 2.39520967e-02,
          1.79640725e-02, 3.59281451e-02, 5.98802418e-03, 1.19760484e-02,
          1.19760484e-02, 2.39520967e-02, 1.79640725e-02, 5.98802418e-03,
          1.19760484e-02, 4.79041934e-02, 3.59281451e-02, 1.19760484e-02,
          1.19760484e-02, 2.99401209e-02, 1.79640725e-02, 5.38922176e-02,
          1.79640725e-02, 0. ]
      - [ 1.32890362e-02, 2.32558139e-02, 3.98671106e-02, 2.99003311e-02,
          3.98671106e-02, 4.31893691e-02, 9.96677764e-03, 6.64451811e-03,
          3.32225906e-03, 9.96677764e-03, 1.66112948e-02, 1.99335553e-02,
          1.66112948e-02, 1.66112948e-02, 3.32225906e-03, 2.65780725e-02,
          6.64451811e-03, 9.96677764e-03, 1.99335553e-02, 1.66112948e-02,
          2.32558139e-02, 2.65780725e-02, 9.96677764e-03, 2.32558139e-02,
          1.99335553e-02, 1.66112948e-02, 2.65780725e-02, 6.64451811e-03,
          3.32225906e-03, 1.32890362e-02, 1.66112948e-02, 1.99335553e-02,
          6.64451811e-03, 9.30232555e-02, 0., 6.64451811e-03, 0.,
          1.66112948e-02, 1.32890362e-02, 1.66112948e-02, 7.97342211e-02,
          9.96677764e-03, 2.65780725e-02, 1.32890362e-02, 1.32890362e-02,
          4.65116277e-02, 2.65780725e-02, 2.65780725e-02, 1.66112948e-02,
          9.96677764e-03 ]
      - [ 2.30179019e-02, 3.58056277e-02, 3.58056277e-02, 1.27877239e-02,
          2.30179019e-02, 1.79028139e-02, 1.02301789e-02, 1.27877239e-02,
          5.11508947e-03, 2.30179019e-02, 2.30179019e-02, 2.04603579e-02,
          2.30179019e-02, 2.55754478e-02, 1.79028139e-02, 3.32480818e-02,
          1.27877239e-02, 7.67263398e-03, 2.04603579e-02, 1.27877239e-02,
          4.09207158e-02, 1.53452680e-02, 1.27877239e-02, 3.06905359e-02,
          3.83631699e-02, 7.67263398e-03, 1.79028139e-02, 7.67263398e-03,
          2.04603579e-02, 5.11508947e-03, 4.34782617e-02, 1.79028139e-02,
          2.30179019e-02, 3.83631699e-02, 2.04603579e-02, 1.79028139e-02,
          2.55754474e-03, 1.79028139e-02, 2.30179019e-02, 1.53452680e-02,
          3.58056277e-02, 1.53452680e-02, 4.34782617e-02, 1.53452680e-02,
          2.55754474e-03, 1.53452680e-02, 3.06905359e-02, 1.02301789e-02,
          1.27877239e-02, 5.11508947e-03 ]
      - [ 3.12500000e-02, 5.00000007e-02, 0., 1.25000002e-02,
          6.25000009e-03, 2.50000004e-02, 1.25000002e-02, 2.50000004e-02,
          6.25000009e-03, 0., 4.37499993e-02, 6.25000009e-03,
          1.87500007e-02, 1.25000002e-02, 1.87500007e-02, 4.37499993e-02,
          1.25000002e-02, 4.37499993e-02, 1.25000002e-02, 1.25000002e-02,
          1.87500007e-02, 1.87500007e-02, 3.75000015e-02, 2.50000004e-02,
          6.25000000e-02, 3.12500000e-02, 6.25000009e-03, 6.25000009e-03,
          6.25000009e-03, 3.12500000e-02, 2.50000004e-02, 6.25000009e-03,
          6.25000009e-03, 1.87500007e-02, 1.25000002e-02, 1.25000002e-02,
          1.25000002e-02, 6.25000009e-03, 1.87500007e-02, 1.25000002e-02,
          0., 2.50000004e-02, 1.25000002e-02, 1.25000002e-02, 0.,
          4.37499993e-02, 2.50000004e-02, 5.00000007e-02, 3.75000015e-02,
          2.50000004e-02 ]
      - [ 6.77200919e-03, 1.12866815e-02, 2.03160271e-02, 1.35440184e-02,
          4.51467261e-02, 3.16027105e-02, 0., 2.03160271e-02,
          2.25733630e-02, 1.35440184e-02, 2.48307008e-02, 2.70880368e-02,
          1.12866815e-02, 2.70880368e-02, 4.51467279e-03, 3.16027105e-02,
          2.03160271e-02, 4.51467279e-03, 2.93453727e-02, 6.77200919e-03,
          2.25733630e-02, 2.03160271e-02, 1.12866815e-02, 5.64334095e-02,
          9.02934559e-03, 1.35440184e-02, 5.19187376e-02, 2.48307008e-02,
          2.93453727e-02, 1.80586912e-02, 1.80586912e-02, 1.12866815e-02,
          1.58013552e-02, 7.67494366e-02, 1.58013552e-02, 6.77200919e-03,
          9.02934559e-03, 1.80586912e-02, 9.02934559e-03, 9.02934559e-03,
          3.83747183e-02, 1.58013552e-02, 1.58013552e-02, 1.12866815e-02,
          1.35440184e-02, 1.80586912e-02, 1.35440184e-02, 2.03160271e-02,
          1.80586912e-02, 1.58013552e-02 ]
      - [ 2.97029689e-02, 0., 1.98019799e-02, 1.98019799e-02,
          4.45544533e-02, 2.97029689e-02, 0., 0., 2.47524753e-02,
          1.98019799e-02, 2.97029689e-02, 4.95049497e-03, 1.48514844e-02,
          9.40594077e-02, 4.95049497e-03, 1.48514844e-02, 9.90098994e-03,
          4.95049497e-03, 2.97029689e-02, 2.47524753e-02, 2.97029689e-02,
          1.48514844e-02, 1.48514844e-02, 0., 9.90098994e-03,
          1.48514844e-02, 4.45544533e-02, 9.90098994e-03, 3.46534662e-02,
          0., 4.95049497e-03, 9.90098994e-03, 2.47524753e-02,
          5.94059378e-02, 2.47524753e-02, 4.95049497e-03, 0.,
          4.95049497e-03, 4.95049497e-03, 4.95049497e-03, 9.90099013e-02,
          1.48514844e-02, 2.97029689e-02, 0., 0., 6.93069324e-02,
          4.95049497e-03, 9.90098994e-03, 2.47524753e-02, 9.90098994e-03 ]
      - [ 1.21212117e-02, 1.81818176e-02, 2.42424235e-02, 1.81818176e-02,
          1.81818176e-02, 3.63636352e-02, 3.03030293e-02, 2.42424235e-02,
          6.06060587e-03, 2.42424235e-02, 1.81818176e-02, 6.06060587e-03,
          6.06060587e-03, 6.06060587e-03, 3.03030293e-02, 5.45454547e-02,
          1.81818176e-02, 3.63636352e-02, 2.42424235e-02, 0.,
          1.81818176e-02, 1.21212117e-02, 4.24242392e-02, 2.42424235e-02,
          3.63636352e-02, 3.63636352e-02, 6.06060587e-03, 3.03030293e-02,
          1.81818176e-02, 4.84848469e-02, 1.81818176e-02, 6.06060587e-03,
          1.81818176e-02, 6.06060587e-03, 1.21212117e-02, 3.03030293e-02,
          3.63636352e-02, 0., 3.03030293e-02, 1.21212117e-02, 0.,
          1.21212117e-02, 3.03030293e-02, 2.42424235e-02, 1.21212117e-02,
          1.21212117e-02, 1.81818176e-02, 1.81818176e-02, 1.21212117e-02,
          6.06060587e-03 ]
      - [ 1.44230779e-02, 1.92307699e-02, 2.40384620e-02, 1.44230779e-02,
          3.36538479e-02, 2.40384620e-02, 0., 4.80769249e-03,
          2.88461559e-02, 1.44230779e-02, 1.92307699e-02, 4.80769249e-03,
          1.92307699e-02, 5.28846160e-02, 4.80769249e-03, 9.61538497e-03,
          9.61538497e-03, 1.44230779e-02, 4.80769239e-02, 1.44230779e-02,
          3.84615399e-02, 1.44230779e-02, 9.61538497e-03, 0., 0.,
          9.61538497e-03, 2.88461559e-02, 9.61538497e-03, 9.61538497e-03,
          0., 1.44230779e-02, 3.36538479e-02, 4.32692319e-02,
          3.84615399e-02, 1.92307699e-02, 3.84615399e-02, 4.80769249e-03,
          4.80769249e-03, 0., 3.36538479e-02, 1.39423087e-01,
          4.80769249e-03, 2.88461559e-02, 4.80769249e-03, 0.,
          4.80769239e-02, 1.44230779e-02, 9.61538497e-03, 1.92307699e-02,
          4.80769249e-03 ]
      - [ 3.47222239e-02, 3.47222239e-02, 6.94444450e-03, 2.08333340e-02,
          1.38888890e-02, 2.08333340e-02, 3.47222239e-02, 2.08333340e-02,
          0., 2.77777780e-02, 2.08333340e-02, 2.08333340e-02,
          1.38888890e-02, 2.08333340e-02, 6.25000000e-02, 1.38888890e-02,
          2.77777780e-02, 3.47222239e-02, 2.08333340e-02, 6.94444450e-03,
          1.38888890e-02, 2.08333340e-02, 4.16666679e-02, 3.47222239e-02,
          2.08333340e-02, 3.47222239e-02, 6.94444450e-03, 2.77777780e-02,
          0., 3.47222239e-02, 2.08333340e-02, 0., 2.08333340e-02, 0.,
          6.94444450e-03, 6.94444450e-03, 2.08333340e-02, 1.38888890e-02,
          1.38888890e-02, 2.77777780e-02, 0., 3.47222239e-02,
          6.94444450e-03, 3.47222239e-02, 1.38888890e-02, 0.,
          6.94444450e-03, 3.47222239e-02, 1.38888890e-02, 2.77777780e-02 ]
      - [ 2.09424086e-02, 2.09424086e-02, 0., 1.04712043e-02,
          5.23560196e-02, 2.61780098e-02, 5.23560215e-03, 3.14136147e-02,
          3.66492160e-02, 3.66492160e-02, 5.23560215e-03, 1.04712043e-02,
          1.04712043e-02, 5.75916246e-02, 1.57068074e-02, 5.23560215e-03,
          0., 5.23560215e-03, 3.66492160e-02, 1.04712043e-02,
          3.14136147e-02, 1.57068074e-02, 1.57068074e-02, 2.09424086e-02,
          0., 1.04712043e-02, 4.71204184e-02, 5.23560215e-03,
          4.18848172e-02, 0., 3.14136147e-02, 3.14136147e-02,
          2.61780098e-02, 9.42408368e-02, 1.57068074e-02, 5.23560215e-03,
          0., 1.57068074e-02, 5.23560215e-03, 5.23560215e-03,
          7.32984319e-02, 5.23560215e-03, 1.57068074e-02, 5.23560215e-03,
          1.04712043e-02, 4.18848172e-02, 0., 0., 1.57068074e-02,
          1.57068074e-02 ]
      - [ 2.61437912e-02, 1.96078438e-02, 6.53594779e-03, 1.96078438e-02,
          2.61437912e-02, 1.30718956e-02, 4.57516350e-02, 2.61437912e-02,
          1.30718956e-02, 1.96078438e-02, 3.92156877e-02, 1.30718956e-02,
          1.30718956e-02, 1.96078438e-02, 5.22875823e-02, 1.30718956e-02,
          3.92156877e-02, 3.26797403e-02, 2.61437912e-02, 0.,
          6.53594779e-03, 1.30718956e-02, 3.92156877e-02, 1.30718956e-02,
          3.92156877e-02, 2.61437912e-02, 6.53594779e-03, 1.96078438e-02,
          1.30718956e-02, 5.22875823e-02, 1.30718956e-02, 6.53594779e-03,
          6.53594779e-03, 6.53594779e-03, 6.53594779e-03, 3.92156877e-02,
          5.22875823e-02, 1.30718956e-02, 1.96078438e-02, 1.96078438e-02,
          0., 1.30718956e-02, 6.53594779e-03, 1.30718956e-02, 0.,
          6.53594779e-03, 0., 3.26797403e-02, 3.26797403e-02,
          1.96078438e-02 ]
      - [ 6.53594779e-03, 2.61437912e-02, 6.53594779e-03, 1.96078438e-02,
          1.30718956e-02, 1.30718956e-02, 3.92156877e-02, 1.30718956e-02,
          1.30718956e-02, 2.61437912e-02, 4.57516350e-02, 3.26797403e-02,
          1.30718956e-02, 6.53594779e-03, 3.92156877e-02, 3.26797403e-02,
          6.53594807e-02, 1.30718956e-02, 2.61437912e-02, 1.30718956e-02,
          1.30718956e-02, 1.96078438e-02, 3.26797403e-02, 1.96078438e-02,
          2.61437912e-02, 3.26797403e-02, 6.53594779e-03, 3.92156877e-02,
          1.30718956e-02, 5.22875823e-02, 0., 0., 0., 0., 6.53594779e-03,
          6.53594779e-03, 5.22875823e-02, 6.53594779e-03, 1.96078438e-02,
          6.53594779e-03, 6.53594779e-03, 3.26797403e-02, 1.30718956e-02,
          1.30718956e-02, 1.30718956e-02, 1.30718956e-02, 6.53594779e-03,
          3.92156877e-02, 1.96078438e-02, 2.61437912e-02 ]
      - [ 9.85221658e-03, 1.47783253e-02, 9.85221658e-03, 4.92610829e-03,
          7.38916248e-02, 2.95566507e-02, 0., 0., 1.97044332e-02,
          1.97044332e-02, 2.46305410e-02, 0., 1.47783253e-02,
          3.94088663e-02, 4.92610829e-03, 1.97044332e-02, 9.85221658e-03,
          4.92610829e-03, 4.43349741e-02, 2.46305410e-02, 2.46305410e-02,
          1.97044332e-02, 4.92610829e-03, 4.92610829e-03, 0., 0.,
          4.43349741e-02, 2.46305410e-02, 3.44827585e-02, 0.,
          1.97044332e-02, 9.85221658e-03, 2.46305410e-02, 5.41871898e-02,
          2.95566507e-02, 2.95566507e-02, 0., 4.92610829e-03,
          4.92610829e-03, 2.95566507e-02, 1.18226603e-01, 3.44827585e-02,
          0., 0., 4.92610829e-03, 3.44827585e-02, 2.95566507e-02,
          1.47783253e-02, 1.97044332e-02, 9.85221658e-03 ]
      - [ 5.71428565e-03, 5.71428565e-03, 5.71428565e-03, 2.28571426e-02,
          3.99999991e-02, 2.85714287e-02, 5.71428565e-03, 1.71428565e-02,
          3.42857130e-02, 2.28571426e-02, 1.14285713e-02, 5.71428565e-03,
          0., 1.02857143e-01, 0., 0., 1.14285713e-02, 0., 3.99999991e-02,
          2.85714287e-02, 3.99999991e-02, 2.28571426e-02, 0.,
          1.14285713e-02, 5.71428565e-03, 1.71428565e-02, 3.42857130e-02,
          0., 3.99999991e-02, 0., 0., 1.71428565e-02, 1.14285713e-02,
          1.14285715e-01, 1.14285713e-02, 5.71428565e-03, 0., 0., 0.,
          2.28571426e-02, 1.14285715e-01, 5.71428565e-03, 5.71428565e-03,
          5.71428565e-03, 1.71428565e-02, 6.28571436e-02, 1.14285713e-02,
          1.71428565e-02, 1.14285713e-02, 5.71428565e-03 ]
      - [ 2.68817209e-02, 1.61290318e-02, 2.15053763e-02, 1.61290318e-02,
          1.61290318e-02, 3.76344100e-02, 3.22580636e-02, 0.,
          1.07526882e-02, 5.37634408e-03, 2.68817209e-02, 1.61290318e-02,
          5.37634408e-03, 2.15053763e-02, 2.68817209e-02, 3.76344100e-02,
          2.68817209e-02, 1.07526882e-02, 0., 1.61290318e-02,
          2.15053763e-02, 2.15053763e-02, 1.61290318e-02, 3.22580636e-02,
          4.30107526e-02, 2.15053763e-02, 3.22580636e-02, 2.68817209e-02,
          4.83870953e-02, 1.61290318e-02, 2.15053763e-02, 0.,
          1.61290318e-02, 1.61290318e-02, 1.61290318e-02, 1.61290318e-02,
          2.15053763e-02, 1.61290318e-02, 2.15053763e-02, 2.68817209e-02,
          2.68817209e-02, 4.30107526e-02, 1.61290318e-02, 1.07526882e-02,
          1.07526882e-02, 2.68817209e-02, 5.37634408e-03, 5.37634408e-03,
          1.07526882e-02, 2.15053763e-02 ]
      - [ 1.86170209e-02, 7.97872338e-03, 5.31914877e-03, 2.92553175e-02,
          1.59574468e-02, 2.65957434e-02, 1.86170209e-02, 1.06382975e-02,
          2.39361692e-02, 5.31914877e-03, 2.39361692e-02, 2.39361692e-02,
          1.32978717e-02, 2.65957434e-02, 1.32978717e-02, 1.06382975e-02,
          1.86170209e-02, 1.59574468e-02, 1.86170209e-02, 2.12765951e-02,
          2.12765951e-02, 0., 1.59574468e-02, 4.25531901e-02,
          2.39361692e-02, 1.86170209e-02, 2.65957434e-02, 2.12765951e-02,
          5.31914867e-02, 2.12765951e-02, 3.72340418e-02, 5.31914877e-03,
          1.06382975e-02, 4.25531901e-02, 1.59574468e-02, 1.32978717e-02,
          2.39361692e-02, 3.72340418e-02, 1.86170209e-02, 2.39361692e-02,
          4.25531901e-02, 1.86170209e-02, 1.86170209e-02, 1.06382975e-02,
          1.06382975e-02, 2.12765951e-02, 7.97872338e-03, 2.12765951e-02,
          1.86170209e-02, 7.97872338e-03 ]
      - [ 9.68523044e-03, 3.38983051e-02, 2.42130756e-02, 2.42130756e-02,
          1.93704609e-02, 2.90556923e-02, 1.45278461e-02, 2.90556923e-02,
          4.84261522e-03, 4.84261522e-03, 1.69491526e-02, 9.68523044e-03,
          2.66343839e-02, 2.90556923e-02, 1.45278461e-02, 1.69491526e-02,
          1.21065378e-02, 1.93704609e-02, 2.42130756e-02, 1.69491526e-02,
          2.66343839e-02, 1.21065378e-02, 4.84261522e-03, 2.90556923e-02,
          1.93704609e-02, 2.42130756e-02, 2.66343839e-02, 3.38983051e-02,
          1.93704609e-02, 3.38983051e-02, 1.93704609e-02, 2.66343839e-02,
          1.93704609e-02, 3.38983051e-02, 7.26392306e-03, 1.93704609e-02,
          9.68523044e-03, 1.69491526e-02, 1.93704609e-02, 1.69491526e-02,
          1.45278461e-02, 2.17917692e-02, 3.63196135e-02, 1.69491526e-02,
          1.21065378e-02, 2.42130761e-03, 3.87409218e-02, 1.69491526e-02,
          1.45278461e-02, 2.66343839e-02 ]
      - [ 1.05263162e-02, 5.26315812e-03, 1.05263162e-02, 5.26315793e-02,
          3.15789506e-02, 3.68421078e-02, 5.26315812e-03, 1.05263162e-02,
          3.15789506e-02, 2.10526325e-02, 1.05263162e-02, 2.10526325e-02,
          0., 4.73684222e-02, 0., 3.15789506e-02, 1.57894753e-02,
          1.05263162e-02, 3.15789506e-02, 2.10526325e-02, 2.63157897e-02,
          5.26315812e-03, 1.05263162e-02, 4.21052650e-02, 0.,
          5.26315812e-03, 1.57894753e-02, 1.57894753e-02, 3.15789506e-02,
          0., 3.68421078e-02, 1.57894753e-02, 1.57894753e-02,
          4.73684222e-02, 2.63157897e-02, 2.10526325e-02, 1.05263162e-02,
          2.63157897e-02, 1.05263162e-02, 4.73684222e-02, 4.73684222e-02,
          1.57894753e-02, 5.26315812e-03, 2.10526325e-02, 1.05263162e-02,
          1.05263162e-02, 2.63157897e-02, 5.26315812e-03, 1.57894753e-02,
          2.63157897e-02 ]
      - [ 1.86046511e-02, 4.65116277e-03, 1.86046511e-02, 1.39534883e-02,
          1.86046511e-02, 1.86046511e-02, 9.30232555e-03, 4.65116277e-03,
          1.86046511e-02, 9.30232555e-03, 2.32558139e-02, 2.79069766e-02,
          0., 2.32558139e-02, 3.72093022e-02, 1.86046511e-02,
          9.30232555e-03, 9.30232555e-03, 3.25581394e-02, 9.30232555e-03,
          2.79069766e-02, 3.72093022e-02, 1.39534883e-02, 2.79069766e-02,
          2.32558139e-02, 2.32558139e-02, 4.65116277e-03, 3.25581394e-02,
          1.86046511e-02, 4.65116277e-02, 1.86046511e-02, 1.39534883e-02,
          1.86046511e-02, 5.11627905e-02, 1.39534883e-02, 1.39534883e-02,
          1.39534883e-02, 1.86046511e-02, 2.32558139e-02, 1.86046511e-02,
          2.79069766e-02, 1.86046511e-02, 1.86046511e-02, 2.79069766e-02,
          3.25581394e-02, 4.18604650e-02, 1.39534883e-02, 9.30232555e-03,
          1.86046511e-02, 4.65116277e-03 ]
      - [ 4.10256423e-02, 1.02564106e-02, 1.02564106e-02, 4.61538471e-02,
          3.07692327e-02, 1.02564106e-02, 5.12820529e-03, 0.,
          1.02564106e-02, 1.53846163e-02, 1.53846163e-02, 2.05128212e-02,
          5.12820529e-03, 5.12820520e-02, 1.02564106e-02, 1.53846163e-02,
          1.53846163e-02, 1.53846163e-02, 2.05128212e-02, 0.,
          1.02564106e-02, 2.05128212e-02, 2.05128212e-02, 4.10256423e-02,
          1.53846163e-02, 2.05128212e-02, 1.02564106e-02, 2.56410260e-02,
          1.02564106e-02, 4.10256423e-02, 3.07692327e-02, 0.,
          1.02564106e-02, 5.64102568e-02, 4.10256423e-02, 2.05128212e-02,
          1.02564106e-02, 4.10256423e-02, 1.02564106e-02, 1.53846163e-02,
          2.56410260e-02, 2.05128212e-02, 3.07692327e-02, 2.56410260e-02,
          1.53846163e-02, 2.05128212e-02, 2.05128212e-02, 1.02564106e-02,
          1.02564106e-02, 2.05128212e-02 ]
      - [ 1.72684453e-02, 1.09890113e-02, 4.70957626e-03, 2.19780225e-02,
          2.66875997e-02, 2.66875997e-02, 1.09890113e-02, 1.56985875e-02,
          3.13971750e-02, 1.09890113e-02, 9.41915251e-03, 1.72684453e-02,
          3.29670347e-02, 2.82574575e-02, 1.41287288e-02, 2.35478804e-02,
          1.09890113e-02, 9.41915251e-03, 2.66875997e-02, 2.35478804e-02,
          2.66875997e-02, 1.72684453e-02, 2.35478804e-02, 2.98273154e-02,
          3.61067504e-02, 2.19780225e-02, 2.35478804e-02, 2.82574575e-02,
          1.72684453e-02, 7.84929376e-03, 1.72684453e-02, 1.09890113e-02,
          1.56985875e-02, 3.76766101e-02, 2.35478804e-02, 1.72684453e-02,
          1.09890113e-02, 6.27943501e-03, 2.35478804e-02, 1.56985875e-02,
          4.39560451e-02, 1.41287288e-02, 7.84929376e-03, 1.25588700e-02,
          1.09890113e-02, 2.82574575e-02, 2.66875997e-02, 1.41287288e-02,
          3.76766101e-02, 1.88383050e-02 ]
      - [ 3.38164233e-02, 2.65700482e-02, 1.93236712e-02, 7.24637695e-03,
          1.93236712e-02, 2.41545886e-02, 1.93236712e-02, 4.83091781e-03,
          2.17391308e-02, 3.14009674e-02, 1.20772943e-02, 2.17391308e-02,
          1.69082116e-02, 3.86473425e-02, 4.83091781e-03, 2.17391308e-02,
          3.14009674e-02, 2.65700482e-02, 1.20772943e-02, 1.44927539e-02,
          1.44927539e-02, 1.93236712e-02, 2.17391308e-02, 3.86473425e-02,
          4.10628021e-02, 2.41545886e-02, 2.89855078e-02, 1.69082116e-02,
          2.89855078e-02, 2.65700482e-02, 2.17391308e-02, 1.20772943e-02,
          1.20772943e-02, 1.69082116e-02, 1.44927539e-02, 9.66183562e-03,
          2.89855078e-02, 2.65700482e-02, 4.83091781e-03, 4.83091781e-03,
          4.83091781e-03, 2.65700482e-02, 4.10628021e-02, 2.17391308e-02,
          9.66183562e-03, 2.41545886e-02, 7.24637695e-03, 1.20772943e-02,
          1.69082116e-02, 1.44927539e-02 ]
      - [ 2.62582060e-02, 1.53172873e-02, 1.53172873e-02, 2.18818374e-02,
          1.09409187e-02, 2.84463894e-02, 1.31291030e-02, 1.09409187e-02,
          1.31291030e-02, 2.62582060e-02, 1.53172873e-02, 2.18818383e-03,
          1.09409187e-02, 2.18818374e-02, 1.96936540e-02, 3.06345746e-02,
          1.31291030e-02, 2.40700226e-02, 1.96936540e-02, 2.18818374e-02,
          1.75054707e-02, 2.62582060e-02, 1.96936540e-02, 2.62582060e-02,
          2.84463894e-02, 2.62582060e-02, 1.75054707e-02, 1.96936540e-02,
          3.06345746e-02, 1.96936540e-02, 2.40700226e-02, 1.75054707e-02,
          2.40700226e-02, 1.53172873e-02, 2.18818374e-02, 1.96936540e-02,
          1.31291030e-02, 1.96936540e-02, 1.96936540e-02, 1.96936540e-02,
          8.75273533e-03, 1.53172873e-02, 3.06345746e-02, 1.53172873e-02,
          1.96936540e-02, 1.09409187e-02, 2.62582060e-02, 3.06345746e-02,
          3.50109413e-02, 1.96936540e-02 ]
      - [ 2.27272715e-02, 1.81818176e-02, 6.81818184e-03, 6.81818184e-03,
          3.63636352e-02, 1.36363637e-02, 2.49999985e-02, 2.04545446e-02,
          6.81818184e-03, 6.81818184e-03, 1.36363637e-02, 2.27272715e-02,
          2.04545446e-02, 1.59090906e-02, 2.04545446e-02, 4.54545431e-02,
          3.63636352e-02, 1.81818176e-02, 2.49999985e-02, 2.27272715e-02,
          1.36363637e-02, 2.95454543e-02, 1.59090906e-02, 3.86363640e-02,
          9.09090880e-03, 2.04545446e-02, 1.81818176e-02, 2.27272715e-02,
          1.59090906e-02, 9.09090880e-03, 2.27272715e-02, 9.09090880e-03,
          2.49999985e-02, 2.95454543e-02, 1.81818176e-02, 1.81818176e-02,
          1.59090906e-02, 2.95454543e-02, 4.54545440e-03, 2.27272715e-02,
          1.36363637e-02, 1.59090906e-02, 1.59090906e-02, 9.09090880e-03,
          2.04545446e-02, 3.18181813e-02, 2.72727273e-02, 2.04545446e-02,
          2.27272715e-02, 2.95454543e-02 ]
      - [ 1.40515212e-02, 1.40515212e-02, 2.10772827e-02, 1.87353622e-02,
          2.57611237e-02, 1.87353622e-02, 2.10772827e-02, 1.40515212e-02,
          1.63934417e-02, 7.02576060e-03, 1.87353622e-02, 1.63934417e-02,
          3.27868834e-02, 2.10772827e-02, 2.10772827e-02, 1.17096016e-02,
          3.04449629e-02, 2.34192032e-02, 1.40515212e-02, 1.87353622e-02,
          7.02576060e-03, 2.10772827e-02, 1.87353622e-02, 3.74707244e-02,
          2.10772827e-02, 1.87353622e-02, 1.63934417e-02, 2.81030424e-02,
          1.40515212e-02, 1.87353622e-02, 3.74707244e-02, 1.17096016e-02,
          2.10772827e-02, 3.74707244e-02, 1.87353622e-02, 1.40515212e-02,
          1.63934417e-02, 3.27868834e-02, 3.04449629e-02, 1.63934417e-02,
          1.87353622e-02, 1.87353622e-02, 1.63934417e-02, 9.36768111e-03,
          1.87353622e-02, 3.27868834e-02, 3.04449629e-02, 1.17096016e-02,
          1.63934417e-02, 9.36768111e-03 ]
      - [ 2.74999999e-02, 7.49999983e-03, 2.24999990e-02, 3.50000001e-02,
          2.24999990e-02, 2.24999990e-02, 9.99999978e-03, 9.99999978e-03,
          2.99999993e-02, 2.24999990e-02, 1.24999993e-02, 7.49999983e-03,
          1.49999997e-02, 1.99999996e-02, 9.99999978e-03, 1.49999997e-02,
          1.99999996e-02, 1.24999993e-02, 9.99999978e-03, 9.99999978e-03,
          2.99999993e-02, 2.24999990e-02, 2.49999985e-02, 4.49999981e-02,
          2.99999993e-02, 3.24999988e-02, 2.24999990e-02, 1.75000001e-02,
          2.24999990e-02, 1.49999997e-02, 2.24999990e-02, 1.99999996e-02,
          1.99999996e-02, 4.25000004e-02, 1.49999997e-02, 2.49999985e-02,
          4.49999981e-02, 1.75000001e-02, 1.24999993e-02, 1.75000001e-02,
          2.74999999e-02, 1.99999996e-02, 1.75000001e-02, 1.24999993e-02,
          7.49999983e-03, 1.75000001e-02, 1.49999997e-02, 7.49999983e-03,
          1.99999996e-02, 1.24999993e-02 ]
      - [ 2.40000002e-02, 1.86666660e-02, 1.86666660e-02, 2.40000002e-02,
          2.40000002e-02, 1.33333337e-02, 1.59999989e-02, 2.13333331e-02,
          0., 7.99999945e-03, 1.33333337e-02, 2.93333326e-02,
          7.99999945e-03, 1.33333337e-02, 2.93333326e-02, 3.73333320e-02,
          2.40000002e-02, 2.66666673e-02, 5.33333328e-03, 7.99999945e-03,
          1.33333337e-02, 1.86666660e-02, 2.66666673e-02, 7.73333311e-02,
          2.66666673e-02, 2.13333331e-02, 2.93333326e-02, 3.73333320e-02,
          1.33333337e-02, 2.13333331e-02, 2.13333331e-02, 1.06666666e-02,
          5.33333328e-03, 2.66666673e-02, 1.06666666e-02, 1.33333337e-02,
          1.86666660e-02, 3.46666649e-02, 1.86666660e-02, 2.40000002e-02,
          1.06666666e-02, 1.59999989e-02, 2.13333331e-02, 2.66666673e-02,
          1.33333337e-02, 5.33333328e-03, 2.40000002e-02, 1.59999989e-02,
          1.33333337e-02, 2.13333331e-02 ]
      - [ 1.59574468e-02, 1.06382975e-02, 0., 1.59574468e-02,
          4.25531901e-02, 3.72340418e-02, 5.31914877e-03, 1.06382975e-02,
          2.12765951e-02, 1.59574468e-02, 3.19148935e-02, 1.59574468e-02,
          0., 5.85106350e-02, 5.31914877e-03, 2.65957434e-02,
          2.12765951e-02, 0., 4.78723384e-02, 3.72340418e-02,
          3.72340418e-02, 1.06382975e-02, 0., 3.19148935e-02, 0.,
          1.59574468e-02, 4.25531901e-02, 1.59574468e-02, 6.38297871e-02,
          5.31914877e-03, 1.59574468e-02, 2.12765951e-02, 1.59574468e-02,
          4.25531901e-02, 1.06382975e-02, 5.31914877e-03, 0.,
          4.25531901e-02, 5.31914877e-03, 3.19148935e-02, 4.25531901e-02,
          0., 5.31914877e-03, 5.31914877e-03, 2.12765951e-02,
          3.19148935e-02, 1.59574468e-02, 1.59574468e-02, 2.12765951e-02,
          5.31914877e-03 ]
      - [ 3.47957611e-02, 1.66414510e-02, 1.36157330e-02, 1.21028740e-02,
          1.81543119e-02, 1.51285920e-02, 3.02571841e-02, 1.36157330e-02,
          1.21028740e-02, 1.36157330e-02, 2.26928890e-02, 2.87443250e-02,
          1.81543119e-02, 3.32829021e-02, 2.42057480e-02, 1.96671709e-02,
          2.87443250e-02, 1.51285920e-02, 2.57186070e-02, 1.51285920e-02,
          1.51285920e-02, 1.81543119e-02, 1.81543119e-02, 2.11800300e-02,
          3.93343419e-02, 2.26928890e-02, 2.26928890e-02, 3.02571841e-02,
          1.36157330e-02, 1.96671709e-02, 3.78214829e-02, 1.21028740e-02,
          1.81543119e-02, 3.78214829e-02, 1.96671709e-02, 2.87443250e-02,
          1.51285920e-02, 2.42057480e-02, 1.81543119e-02, 1.05900150e-02,
          6.05143700e-03, 1.81543119e-02, 1.81543119e-02, 1.36157330e-02,
          9.07715596e-03, 1.05900150e-02, 1.66414510e-02, 1.96671709e-02,
          1.66414510e-02, 1.66414510e-02 ]
      - [ 2.02127658e-02, 2.65957434e-02, 3.40425521e-02, 2.55319141e-02,
          2.02127658e-02, 2.55319141e-02, 1.27659570e-02, 1.06382975e-02,
          2.12765951e-02, 1.48936165e-02, 6.38297852e-03, 2.02127658e-02,
          3.19148935e-02, 1.80851053e-02, 5.31914877e-03, 2.12765951e-02,
          1.91489346e-02, 2.12765951e-02, 1.70212761e-02, 1.48936165e-02,
          2.02127658e-02, 1.70212761e-02, 1.27659570e-02, 2.55319141e-02,
          1.80851053e-02, 1.27659570e-02, 1.59574468e-02, 1.48936165e-02,
          1.48936165e-02, 1.80851053e-02, 2.23404244e-02, 1.91489346e-02,
          1.17021278e-02, 3.08510624e-02, 1.48936165e-02, 1.48936165e-02,
          2.23404244e-02, 7.44680827e-03, 9.57446732e-03, 2.76595727e-02,
          4.46808487e-02, 1.17021278e-02, 3.72340418e-02, 1.06382975e-02,
          8.51063803e-03, 9.14893597e-02, 2.12765951e-02, 1.27659570e-02,
          1.59574468e-02, 7.44680827e-03 ]
      - [ 1.83486231e-02, 1.83486231e-02, 9.17431153e-03, 3.66972461e-02,
          1.83486231e-02, 9.17431153e-03, 1.83486231e-02, 2.75229346e-02,
          1.83486231e-02, 1.83486231e-02, 1.83486231e-02, 4.58715558e-02,
          1.83486231e-02, 0., 2.75229346e-02, 4.58715558e-02,
          4.58715558e-02, 1.83486231e-02, 1.83486231e-02, 9.17431153e-03,
          1.83486231e-02, 9.17431153e-03, 9.17431153e-03, 1.83486231e-02,
          1.83486231e-02, 6.42201826e-02, 9.17431153e-03, 5.50458692e-02,
          0., 9.17431153e-03, 2.75229346e-02, 9.17431153e-03, 0.,
          1.83486231e-02, 0., 0., 6.42201826e-02, 5.50458692e-02,
          9.17431153e-03, 0., 4.58715558e-02, 0., 2.75229346e-02,
          1.83486231e-02, 1.83486231e-02, 9.17431153e-03, 0.,
          1.83486231e-02, 1.83486231e-02, 9.17431153e-03 ]
      - [ 3.13653126e-02, 1.29151288e-02, 9.22509283e-03, 1.66051667e-02,
          1.47601478e-02, 1.84501857e-02, 1.29151288e-02, 1.66051667e-02,
          1.10701108e-02, 1.29151288e-02, 1.84501857e-02, 9.22509283e-03,
          1.10701108e-02, 3.13653126e-02, 1.10701108e-02, 4.42804433e-02,
          2.02952027e-02, 9.22509283e-03, 2.76752766e-02, 1.10701108e-02,
          2.02952027e-02, 2.58302577e-02, 7.38007389e-03, 5.71955740e-02,
          1.10701108e-02, 2.39852406e-02, 3.32103334e-02, 1.84501857e-02,
          2.58302577e-02, 5.53505542e-03, 3.32103334e-02, 9.22509283e-03,
          1.47601478e-02, 3.50553505e-02, 2.02952027e-02, 1.47601478e-02,
          1.84501847e-03, 2.39852406e-02, 1.10701108e-02, 2.58302577e-02,
          2.58302577e-02, 2.95202956e-02, 7.38007389e-03, 2.76752766e-02,
          1.84501857e-02, 1.84501857e-02, 2.39852406e-02, 2.58302577e-02,
          1.84501857e-02, 3.50553505e-02 ]
      - [ 2.09790207e-02, 3.26340348e-02, 3.72960381e-02, 4.66200477e-03,
          1.63170174e-02, 3.26340348e-02, 3.26340348e-02, 6.99300691e-03,
          2.33100238e-03, 1.86480191e-02, 1.39860138e-02, 2.33100243e-02,
          2.33100238e-03, 2.33100243e-02, 1.39860138e-02, 1.63170174e-02,
          2.33100243e-02, 1.86480191e-02, 6.99300691e-03, 4.66200477e-03,
          2.33100243e-02, 4.66200477e-03, 1.39860138e-02, 3.03030312e-02,
          1.16550121e-02, 1.86480191e-02, 9.32400953e-03, 1.39860138e-02,
          1.16550121e-02, 6.99300691e-03, 3.49650346e-02, 1.16550121e-02,
          1.86480191e-02, 3.72960381e-02, 6.99300691e-03, 1.16550121e-02,
          1.16550121e-02, 2.33100243e-02, 0., 9.32400953e-03,
          2.79720277e-02, 1.63170174e-02, 3.96270417e-02, 1.16550121e-02,
          1.63170174e-02, 1.67832166e-01, 0., 2.56410260e-02,
          1.86480191e-02, 1.39860138e-02 ]
      - [ 1.94931775e-02, 9.74658877e-03, 9.74658877e-03, 3.31384018e-02,
          3.50877196e-02, 3.70370373e-02, 1.94931775e-03, 1.16959065e-02,
          2.14424953e-02, 1.55945420e-02, 2.33918130e-02, 1.36452243e-02,
          5.84795326e-03, 4.67836261e-02, 1.55945420e-02, 1.94931775e-02,
          3.11890841e-02, 1.16959065e-02, 2.14424953e-02, 2.14424953e-02,
          1.75438598e-02, 1.36452243e-02, 1.55945420e-02, 5.26315793e-02,
          4.09356728e-02, 1.94931775e-02, 3.50877196e-02, 1.75438598e-02,
          4.09356728e-02, 1.75438598e-02, 5.84795326e-03, 1.36452243e-02,
          2.14424953e-02, 2.14424953e-02, 2.72904485e-02, 1.94931775e-02,
          1.94931775e-03, 1.55945420e-02, 1.75438598e-02, 3.50877196e-02,
          2.72904485e-02, 5.84795326e-03, 7.79727101e-03, 1.36452243e-02,
          1.36452243e-02, 1.55945420e-02, 1.55945420e-02, 1.16959065e-02,
          1.94931775e-02, 1.36452243e-02 ]
      - [ 1.29870130e-02, 2.27272734e-02, 0., 3.24675329e-02,
          2.59740259e-02, 1.29870130e-02, 3.57142873e-02, 9.74025950e-03,
          1.29870130e-02, 2.27272734e-02, 2.27272734e-02, 3.89610380e-02,
          3.24675324e-03, 3.24675324e-03, 5.51948063e-02, 3.89610380e-02,
          3.89610380e-02, 1.29870130e-02, 1.94805190e-02, 3.57142873e-02,
          2.27272734e-02, 1.62337665e-02, 9.74025950e-03, 1.94805190e-02,
          3.24675324e-03, 2.27272734e-02, 9.74025950e-03, 2.27272734e-02,
          6.49350649e-03, 1.94805190e-02, 4.22077924e-02, 6.49350649e-03,
          3.24675324e-03, 1.94805190e-02, 1.29870130e-02, 6.49350649e-03,
          5.19480519e-02, 4.22077924e-02, 1.29870130e-02, 9.74025950e-03,
          1.94805190e-02, 3.24675324e-03, 2.59740259e-02, 1.62337665e-02,
          1.94805190e-02, 2.59740259e-02, 1.94805190e-02, 2.92207785e-02,
          9.74025950e-03, 1.29870130e-02 ]
      - [ 2.76816618e-02, 2.07612459e-02, 4.15224917e-02, 6.92041544e-03,
          1.03806229e-02, 3.46020772e-03, 6.92041516e-02, 1.73010379e-02,
          1.03806229e-02, 1.03806229e-02, 1.73010379e-02, 2.07612459e-02,
          2.07612459e-02, 1.38408309e-02, 1.38408309e-02, 2.07612459e-02,
          3.46020758e-02, 1.73010379e-02, 1.03806229e-02, 3.46020772e-03,
          3.46020772e-03, 0., 1.73010379e-02, 5.19031174e-02,
          5.53633235e-02, 1.38408309e-02, 3.46020772e-03, 2.07612459e-02,
          0., 6.92041544e-03, 7.26643652e-02, 3.46020772e-03,
          6.92041544e-03, 3.46020758e-02, 1.38408309e-02, 1.03806229e-02,
          3.46020772e-03, 5.19031174e-02, 0., 1.38408309e-02,
          1.03806229e-02, 3.11418697e-02, 5.88235296e-02, 3.46020772e-03,
          1.38408309e-02, 2.07612459e-02, 6.92041544e-03, 5.88235296e-02,
          6.92041544e-03, 1.38408309e-02 ]
      - [ 1.32714007e-02, 1.99071001e-02, 3.18513587e-02, 2.65428014e-02,
          2.72063706e-02, 1.52621102e-02, 1.65892504e-02, 1.45985400e-02,
          1.32714007e-02, 9.28997993e-03, 1.99071001e-02, 1.65892504e-02,
          1.52621102e-02, 1.45985400e-02, 2.58792304e-02, 1.39349699e-02,
          1.85799599e-02, 1.06171202e-02, 2.91970801e-02, 3.91506292e-02,
          1.85799599e-02, 2.05706712e-02, 1.79163907e-02, 2.91970801e-02,
          2.45520901e-02, 3.18513587e-02, 2.12342404e-02, 1.59256794e-02,
          1.52621102e-02, 6.63570035e-03, 2.85335109e-02, 1.06171202e-02,
          1.19442604e-02, 2.18978096e-02, 1.39349699e-02, 1.32714007e-02,
          1.99071001e-02, 3.18513587e-02, 2.52156612e-02, 1.59256794e-02,
          3.78234908e-02, 1.19442604e-02, 3.25149298e-02, 1.99071001e-02,
          1.39349699e-02, 2.78699398e-02, 2.25613806e-02, 1.79163907e-02,
          1.59256794e-02, 1.32714007e-02 ]
      - [ 3.20000015e-02, 0., 0., 4.00000028e-02, 4.80000004e-02,
          3.20000015e-02, 2.40000002e-02, 0., 8.00000038e-03,
          4.00000028e-02, 1.60000008e-02, 3.20000015e-02, 2.40000002e-02,
          2.40000002e-02, 3.20000015e-02, 1.60000008e-02, 4.00000028e-02,
          1.60000008e-02, 1.60000008e-02, 1.60000008e-02, 2.40000002e-02,
          8.00000038e-03, 8.00000038e-03, 0., 8.00000038e-03,
          8.00000038e-03, 1.60000008e-02, 1.60000008e-02, 1.60000008e-02,
          8.00000038e-03, 3.20000015e-02, 0., 2.40000002e-02,
          8.80000070e-02, 8.00000038e-03, 2.40000002e-02, 0.,
          5.60000017e-02, 8.00000038e-03, 4.00000028e-02, 1.60000008e-02,
          3.20000015e-02, 8.00000038e-03, 0., 0., 8.00000038e-03,
          1.60000008e-02, 5.60000017e-02, 8.00000038e-03, 8.00000038e-03 ]
      - [ 2.48390064e-02, 3.21987122e-02, 1.56393740e-02, 1.74793005e-02,
          1.56393740e-02, 2.11591534e-02, 1.93192270e-02, 1.56393740e-02,
          2.11591534e-02, 1.93192270e-02, 1.83992628e-02, 2.75988951e-02,
          2.20791157e-02, 1.56393740e-02, 2.39190422e-02, 1.83992628e-02,
          2.75988951e-02, 2.66789328e-02, 9.19963140e-03, 2.20791157e-02,
          2.02391893e-02, 9.19963140e-03, 2.94388216e-02, 3.77184898e-02,
          3.67985256e-02, 2.02391893e-02, 1.01195946e-02, 1.83992628e-02,
          1.10395579e-02, 2.39190422e-02, 8.27966817e-03, 1.65593363e-02,
          2.02391893e-02, 2.20791157e-02, 1.10395579e-02, 1.74793005e-02,
          3.12787481e-02, 1.28794843e-02, 2.11591534e-02, 2.11591534e-02,
          1.83992628e-02, 1.37994476e-02, 2.66789328e-02, 8.27966817e-03,
          2.57589687e-02, 3.49586010e-02, 1.56393740e-02, 1.28794843e-02,
          1.47194108e-02, 1.56393740e-02 ]
      - [ 1.23456791e-02, 3.35096978e-02, 2.46913582e-02, 1.23456791e-02,
          4.93827164e-02, 1.41093470e-02, 1.76366828e-02, 1.41093470e-02,
          0., 1.23456791e-02, 1.94003526e-02, 3.88007052e-02,
          1.23456791e-02, 3.52733675e-03, 2.82186940e-02, 1.76366828e-02,
          2.64550261e-02, 3.88007052e-02, 3.52733657e-02, 1.58730149e-02,
          1.05820103e-02, 2.11640205e-02, 2.29276884e-02, 7.05467351e-03,
          1.58730149e-02, 3.17460299e-02, 1.23456791e-02, 1.05820103e-02,
          8.81834142e-03, 3.35096978e-02, 2.11640205e-02, 1.94003526e-02,
          1.05820103e-02, 2.82186940e-02, 1.76366838e-03, 1.23456791e-02,
          1.58730149e-02, 1.76366828e-02, 1.41093470e-02, 1.58730149e-02,
          2.11640205e-02, 1.05820103e-02, 5.29100522e-02, 2.29276884e-02,
          2.46913582e-02, 4.40917090e-02, 2.46913582e-02, 1.23456791e-02,
          1.58730149e-02, 1.23456791e-02 ]
      - [ 1.10905729e-02, 1.10905729e-02, 7.39371544e-03, 2.95748618e-02,
          4.25138623e-02, 4.62107211e-02, 5.54528646e-03, 1.10905729e-02,
          4.80591506e-02, 5.54528646e-03, 1.29390024e-02, 1.29390024e-02,
          3.69685772e-03, 2.77264323e-02, 1.84842888e-02, 2.03327183e-02,
          1.66358594e-02, 0., 3.32717188e-02, 2.03327183e-02,
          3.88170071e-02, 2.95748618e-02, 5.54528646e-03, 4.62107211e-02,
          1.10905729e-02, 3.14232893e-02, 3.69685777e-02, 2.21811458e-02,
          3.14232893e-02, 0., 9.24214441e-03, 3.32717188e-02,
          2.03327183e-02, 5.73012941e-02, 1.84842888e-02, 5.54528646e-03,
          1.84842886e-03, 5.54528646e-03, 2.03327183e-02, 1.10905729e-02,
          7.02402964e-02, 1.10905729e-02, 7.39371544e-03, 1.10905729e-02,
          5.54528646e-03, 1.66358594e-02, 2.58780047e-02, 5.54528646e-03,
          2.21811458e-02, 3.69685772e-03 ]
      - [ 2.64765806e-02, 1.22199599e-02, 1.83299407e-02, 2.03665998e-02,
          3.46232206e-02, 1.01832999e-02, 2.44399197e-02, 1.22199599e-02,
          8.14663991e-03, 2.85132397e-02, 1.22199599e-02, 4.48065177e-02,
          1.42566198e-02, 1.01832999e-02, 1.42566198e-02, 4.68431786e-02,
          3.25865597e-02, 2.24032588e-02, 5.09165004e-02, 2.24032588e-02,
          0., 6.10997993e-03, 2.24032588e-02, 4.07331996e-02,
          4.48065177e-02, 1.62932798e-02, 1.01832999e-02, 4.07331996e-02,
          1.42566198e-02, 2.64765806e-02, 3.46232206e-02, 1.01832999e-02,
          2.03665998e-03, 1.01832999e-02, 8.14663991e-03, 1.42566198e-02,
          2.03665998e-02, 2.64765806e-02, 2.24032588e-02, 1.42566198e-02,
          6.10997993e-03, 2.44399197e-02, 1.62932798e-02, 3.05498987e-02,
          2.24032588e-02, 0., 6.10997993e-03, 1.83299407e-02,
          1.42566198e-02, 1.01832999e-02 ]
      - [ 2.35294122e-02, 2.05882359e-02, 2.64705885e-02, 1.47058824e-02,
          2.05882359e-02, 8.82352982e-03, 2.94117648e-02, 1.76470596e-02,
          1.47058824e-02, 1.17647061e-02, 2.05882359e-02, 2.64705885e-02,
          1.76470596e-02, 1.47058824e-02, 2.94117648e-02, 2.64705885e-02,
          2.64705885e-02, 2.05882359e-02, 2.05882359e-02, 2.35294122e-02,
          2.35294122e-02, 1.47058824e-02, 2.94117648e-02, 1.76470596e-02,
          1.17647061e-02, 2.35294122e-02, 5.88235306e-03, 2.64705885e-02,
          5.88235306e-03, 0., 3.82352956e-02, 8.82352982e-03,
          2.05882359e-02, 1.17647061e-02, 1.17647061e-02, 1.47058824e-02,
          1.17647061e-02, 2.94117648e-02, 3.23529430e-02, 1.76470596e-02,
          4.70588244e-02, 1.47058824e-02, 2.64705885e-02, 2.05882359e-02,
          8.82352982e-03, 3.52941193e-02, 2.64705885e-02, 8.82352982e-03,
          1.47058824e-02, 2.64705885e-02 ]
      - [ 2.67857164e-02, 2.23214291e-02, 4.46428591e-03, 1.78571437e-02,
          2.23214291e-02, 3.12500000e-02, 3.12500000e-02, 4.46428591e-03,
          4.46428591e-03, 2.23214291e-02, 2.23214291e-02, 1.78571437e-02,
          4.91071455e-02, 4.46428591e-03, 8.92857183e-03, 1.78571437e-02,
          2.67857164e-02, 1.33928582e-02, 3.57142873e-02, 8.92857183e-03,
          1.78571437e-02, 2.23214291e-02, 4.46428591e-03, 4.91071455e-02,
          3.57142873e-02, 8.92857183e-03, 2.23214291e-02, 8.92857183e-03,
          1.33928582e-02, 0., 6.25000000e-02, 8.92857183e-03,
          4.46428591e-03, 3.57142873e-02, 2.23214291e-02, 4.46428591e-03,
          2.23214291e-02, 2.67857164e-02, 4.46428591e-03, 1.33928582e-02,
          2.67857164e-02, 4.46428582e-02, 8.92857183e-03, 4.46428591e-03,
          2.23214291e-02, 2.23214291e-02, 1.33928582e-02, 4.91071455e-02,
          8.92857183e-03, 1.78571437e-02 ]
      - [ 2.03045681e-02, 2.79187821e-02, 2.79187821e-02, 2.28426382e-02,
          2.28426382e-02, 2.28426382e-02, 1.01522841e-02, 1.01522841e-02,
          2.03045681e-02, 1.77664980e-02, 2.53807101e-02, 7.61421304e-03,
          2.53807101e-02, 3.29949223e-02, 1.26903551e-02, 4.56852764e-02,
          2.28426382e-02, 2.03045681e-02, 1.77664980e-02, 1.26903551e-02,
          1.26903551e-02, 1.26903551e-02, 1.52284261e-02, 1.26903551e-02,
          4.56852764e-02, 2.53807101e-02, 2.53807101e-02, 2.53807101e-02,
          2.53807101e-02, 5.07614203e-03, 1.26903551e-02, 1.26903551e-02,
          1.01522841e-02, 2.28426382e-02, 3.29949223e-02, 2.28426382e-02,
          1.26903551e-02, 1.26903551e-02, 1.77664980e-02, 3.29949223e-02,
          0., 2.03045681e-02, 2.79187821e-02, 1.26903551e-02,
          1.01522841e-02, 2.53807101e-02, 7.61421304e-03, 3.04568522e-02,
          2.03045681e-02, 2.28426382e-02 ]
      - [ 2.14592274e-02, 0., 8.58369097e-03, 8.58369097e-03,
          4.29184549e-02, 1.71673819e-02, 2.57510729e-02, 0.,
          8.58369097e-03, 1.28755365e-02, 2.14592274e-02, 1.71673819e-02,
          3.00429184e-02, 8.58369097e-03, 8.58369097e-03, 4.29184549e-02,
          1.28755365e-02, 2.14592274e-02, 5.57939932e-02, 2.14592274e-02,
          1.71673819e-02, 3.00429184e-02, 1.28755365e-02, 3.00429184e-02,
          3.86266112e-02, 8.58369097e-03, 8.58369097e-03, 3.00429184e-02,
          8.58369097e-03, 3.43347639e-02, 4.72102985e-02, 8.58369097e-03,
          1.28755365e-02, 2.57510729e-02, 2.14592274e-02, 1.28755365e-02,
          0., 4.29184549e-02, 1.71673819e-02, 2.14592274e-02,
          5.57939932e-02, 1.28755365e-02, 8.58369097e-03, 8.58369097e-03,
          4.29184549e-03, 4.29184549e-02, 1.71673819e-02, 2.14592274e-02,
          4.29184549e-03, 8.58369097e-03 ]
      - [ 1.17187500e-02, 9.76562500e-03, 2.53906250e-02, 9.76562500e-03,
          3.51562500e-02, 2.73437500e-02, 1.36718750e-02, 1.75781250e-02,
          2.34375000e-02, 2.14843750e-02, 4.49218750e-02, 1.56250000e-02,
          1.36718750e-02, 1.75781250e-02, 1.36718750e-02, 3.90625000e-02,
          1.17187500e-02, 3.90625000e-03, 2.92968750e-02, 4.29687500e-02,
          2.14843750e-02, 1.56250000e-02, 1.56250000e-02, 1.75781250e-02,
          1.17187500e-02, 1.75781250e-02, 3.51562500e-02, 2.34375000e-02,
          3.12500000e-02, 1.17187500e-02, 1.36718750e-02, 1.56250000e-02,
          1.17187500e-02, 4.49218750e-02, 3.12500000e-02, 1.56250000e-02,
          1.17187500e-02, 2.73437500e-02, 1.56250000e-02, 1.95312500e-02,
          9.76562500e-03, 5.85937500e-03, 2.34375000e-02, 1.17187500e-02,
          9.76562500e-03, 2.34375000e-02, 1.56250000e-02, 1.75781250e-02,
          2.34375000e-02, 2.34375000e-02 ]
      - [ 2.39234436e-02, 4.78468882e-03, 9.56937764e-03, 3.58851664e-02,
          3.82775106e-02, 2.39234436e-02, 1.67464111e-02, 1.19617218e-02,
          1.67464111e-02, 2.15310995e-02, 1.91387553e-02, 1.67464111e-02,
          9.56937764e-03, 4.54545431e-02, 1.67464111e-02, 5.26315756e-02,
          2.39234436e-02, 9.56937764e-03, 1.19617218e-02, 1.43540669e-02,
          4.54545431e-02, 1.19617218e-02, 1.43540669e-02, 5.50239198e-02,
          2.15310995e-02, 1.91387553e-02, 1.91387553e-02, 9.56937764e-03,
          2.39234436e-02, 9.56937764e-03, 1.19617218e-02, 1.67464111e-02,
          1.91387553e-02, 5.26315756e-02, 1.91387553e-02, 1.19617218e-02,
          0., 2.39234436e-02, 7.17703346e-03, 1.67464111e-02,
          1.91387553e-02, 3.82775106e-02, 1.43540669e-02, 1.19617218e-02,
          2.15310995e-02, 1.91387553e-02, 9.56937764e-03, 1.67464111e-02,
          7.17703346e-03, 9.56937764e-03 ]
      - [ 4.25531901e-02, 2.65957434e-02, 2.12765951e-02, 0.,
          1.59574468e-02, 2.12765951e-02, 4.25531901e-02, 3.19148935e-02,
          2.65957434e-02, 2.65957434e-02, 2.12765951e-02, 1.59574468e-02,
          3.72340418e-02, 1.59574468e-02, 1.59574468e-02, 1.59574468e-02,
          3.72340418e-02, 3.72340418e-02, 1.59574468e-02, 5.31914877e-03,
          1.06382975e-02, 1.06382975e-02, 3.19148935e-02, 0.,
          2.65957434e-02, 5.31914877e-03, 1.06382975e-02, 3.72340418e-02,
          1.06382975e-02, 3.19148935e-02, 3.19148935e-02, 5.31914877e-03,
          1.06382975e-02, 1.06382975e-02, 1.06382975e-02, 1.59574468e-02,
          0., 3.19148935e-02, 1.59574468e-02, 1.59574468e-02,
          5.31914877e-03, 1.59574468e-02, 2.65957434e-02, 2.12765951e-02,
          2.65957434e-02, 4.25531901e-02, 2.65957434e-02, 2.12765951e-02,
          0., 1.59574468e-02 ]
      - [ 1.02827763e-02, 1.28534706e-02, 1.79948583e-02, 1.79948583e-02,
          2.82776356e-02, 1.79948583e-02, 1.02827763e-02, 2.05655526e-02,
          5.14138816e-03, 1.02827763e-02, 1.02827763e-02, 2.82776356e-02,
          1.54241640e-02, 2.31362469e-02, 4.37017977e-02, 1.28534706e-02,
          2.31362469e-02, 2.05655526e-02, 3.59897166e-02, 3.34190242e-02,
          1.79948583e-02, 5.14138816e-03, 2.31362469e-02, 2.57069413e-02,
          1.79948583e-02, 2.57069413e-02, 7.71208201e-03, 4.11311053e-02,
          7.71208201e-03, 7.71208201e-03, 3.85604128e-02, 2.31362469e-02,
          3.85604128e-02, 1.02827763e-02, 5.14138816e-03, 7.71208201e-03,
          1.02827763e-02, 3.08483280e-02, 2.31362469e-02, 1.02827763e-02,
          2.57069408e-03, 1.54241640e-02, 3.34190242e-02, 2.82776356e-02,
          2.82776356e-02, 3.59897166e-02, 1.02827763e-02, 1.02827763e-02,
          2.31362469e-02, 3.59897166e-02 ]
      - [ 1.63934417e-02, 1.96721312e-02, 2.29508206e-02, 2.29508206e-02,
          1.63934417e-02, 3.60655747e-02, 2.62295082e-02, 2.29508206e-02,
          6.55737706e-03, 1.63934417e-02, 4.91803288e-02, 2.29508206e-02,
          6.55737706e-03, 9.83606558e-03, 2.29508206e-02, 2.29508206e-02,
          2.95081958e-02, 1.31147541e-02, 6.55737706e-03, 6.55737706e-03,
          2.29508206e-02, 2.95081958e-02, 1.63934417e-02, 1.96721312e-02,
          2.62295082e-02, 1.31147541e-02, 2.95081958e-02, 2.29508206e-02,
          3.27868834e-02, 1.31147541e-02, 2.95081958e-02, 1.31147541e-02,
          6.55737706e-03, 9.83606558e-03, 2.29508206e-02, 1.63934417e-02,
          6.55737706e-03, 1.96721312e-02, 1.96721312e-02, 9.83606558e-03,
          1.63934417e-02, 3.27868834e-02, 2.95081958e-02, 1.96721312e-02,
          3.27868853e-03, 1.96721312e-02, 1.31147541e-02, 2.95081958e-02,
          1.31147541e-02, 4.59016412e-02 ]
      - [ 4.92424257e-02, 1.89393945e-02, 1.89393945e-02, 3.78787890e-03,
          1.89393945e-02, 1.13636367e-02, 1.51515156e-02, 1.89393945e-02,
          3.78787890e-03, 3.78787890e-02, 1.51515156e-02, 1.13636367e-02,
          3.03030312e-02, 3.03030312e-02, 2.65151523e-02, 7.19697028e-02,
          3.40909101e-02, 1.89393945e-02, 7.57575780e-03, 7.57575780e-03,
          1.51515156e-02, 2.27272734e-02, 1.51515156e-02, 5.30303046e-02,
          2.65151523e-02, 2.65151523e-02, 0., 2.27272734e-02,
          2.27272734e-02, 1.89393945e-02, 2.27272734e-02, 1.51515156e-02,
          0., 7.57575780e-03, 1.89393945e-02, 7.57575780e-03,
          1.13636367e-02, 1.89393945e-02, 3.03030312e-02, 3.78787890e-03,
          7.57575780e-03, 2.65151523e-02, 2.65151523e-02, 2.65151523e-02,
          3.78787890e-03, 3.78787890e-03, 7.57575780e-03, 3.78787890e-02,
          1.89393945e-02, 3.03030312e-02 ]
      - [ 6.52090553e-03, 1.30418111e-02, 1.18910624e-02, 1.26582282e-02,
          3.52896042e-02, 2.95358654e-02, 2.68507865e-03, 1.61104724e-02,
          3.06866132e-02, 3.83582665e-03, 1.72612201e-02, 1.41925588e-02,
          8.05523619e-03, 1.34253930e-02, 1.87955499e-02, 1.76448021e-02,
          1.99462995e-02, 7.28807040e-03, 3.03030312e-02, 2.99194474e-02,
          1.91791337e-02, 2.87686996e-02, 1.26582282e-02, 6.52090553e-03,
          2.68507865e-03, 2.49328725e-02, 2.64672041e-02, 2.68507861e-02,
          3.41388583e-02, 2.07134634e-02, 8.05523619e-03, 1.72612201e-02,
          1.30418111e-02, 6.36747256e-02, 1.45761408e-02, 1.03567317e-02,
          3.14537771e-02, 9.20598395e-03, 3.18373628e-02, 1.49597237e-02,
          4.90985811e-02, 4.98657487e-03, 3.45224403e-02, 1.49597237e-02,
          1.76448021e-02, 4.21940945e-02, 3.37552726e-02, 8.05523619e-03,
          1.68776363e-02, 2.14806292e-02 ]
      - [ 3.23624606e-03, 1.94174759e-02, 6.47249212e-03, 1.94174759e-02,
          1.94174759e-02, 3.55987065e-02, 2.26537231e-02, 1.61812305e-02,
          3.23624606e-03, 1.61812305e-02, 3.55987065e-02, 3.23624606e-03,
          1.29449842e-02, 2.91262139e-02, 2.91262139e-02, 9.70873795e-03,
          9.70873795e-03, 3.88349518e-02, 1.29449842e-02, 1.29449842e-02,
          1.61812305e-02, 2.58899685e-02, 3.55987065e-02, 6.47249212e-03,
          9.70873795e-03, 3.23624611e-02, 2.91262139e-02, 3.55987065e-02,
          2.58899685e-02, 5.82524277e-02, 9.70873795e-03, 9.70873795e-03,
          2.26537231e-02, 1.94174759e-02, 6.47249212e-03, 1.29449842e-02,
          3.88349518e-02, 0., 1.61812305e-02, 9.70873795e-03,
          1.94174759e-02, 1.94174759e-02, 2.91262139e-02, 1.61812305e-02,
          1.94174759e-02, 1.61812305e-02, 1.29449842e-02, 3.23624611e-02,
          4.53074463e-02, 1.29449842e-02 ]
      - [ 1.94552522e-02, 1.81582365e-02, 7.78210117e-03, 1.55642023e-02,
          1.94552522e-02, 3.63164730e-02, 7.78210117e-03, 2.98313871e-02,
          1.29701681e-02, 1.42671857e-02, 1.81582365e-02, 1.29701681e-02,
          1.16731515e-02, 2.46433206e-02, 2.20492873e-02, 1.68612190e-02,
          2.07522698e-02, 2.98313871e-02, 2.20492873e-02, 1.68612190e-02,
          1.55642023e-02, 2.46433206e-02, 3.11284047e-02, 3.37224379e-02,
          1.03761349e-02, 2.98313871e-02, 1.68612190e-02, 2.85343714e-02,
          2.46433206e-02, 2.07522698e-02, 2.46433206e-02, 1.55642023e-02,
          1.42671857e-02, 1.55642023e-02, 2.98313871e-02, 2.46433206e-02,
          3.24254222e-02, 1.16731515e-02, 1.29701681e-02, 2.07522698e-02,
          1.94552522e-02, 1.68612190e-02, 1.42671857e-02, 1.94552522e-02,
          1.55642023e-02, 2.07522698e-02, 1.94552522e-02, 1.68612190e-02,
          2.20492873e-02, 1.94552522e-02 ]
      - [ 1.64502170e-02, 2.25108229e-02, 5.19480556e-03, 2.85714287e-02,
          1.12554114e-02, 2.59740259e-02, 1.90476198e-02, 2.16450226e-02,
          1.81818195e-02, 1.64502170e-02, 2.85714287e-02, 1.21212127e-02,
          1.47186154e-02, 1.55844158e-02, 3.20346318e-02, 2.59740259e-02,
          1.81818195e-02, 2.25108229e-02, 1.38528142e-02, 2.42424253e-02,
          1.73160173e-02, 2.85714287e-02, 1.55844158e-02, 7.79220788e-03,
          1.99134201e-02, 5.19480519e-02, 1.90476198e-02, 2.68398281e-02,
          1.38528142e-02, 1.99134201e-02, 1.64502170e-02, 1.99134201e-02,
          1.55844158e-02, 8.65800865e-03, 2.16450226e-02, 1.12554114e-02,
          3.29004340e-02, 1.38528142e-02, 5.62770590e-02, 1.73160173e-02,
          1.29870130e-02, 8.65800865e-03, 1.99134201e-02, 1.12554114e-02,
          2.07792222e-02, 7.79220788e-03, 2.51082256e-02, 2.07792222e-02,
          3.72294374e-02, 7.79220788e-03 ]
      - [ 0., 1.20481923e-02, 0., 1.20481923e-02, 2.40963846e-02,
          2.40963846e-02, 0., 1.20481923e-02, 2.40963846e-02, 0., 0., 0.,
          1.20481923e-02, 1.20481923e-02, 3.61445770e-02, 1.20481923e-02,
          0., 0., 1.20481923e-02, 1.20481923e-02, 8.43373463e-02, 0., 0.,
          0., 0., 7.22891539e-02, 1.20481923e-02, 2.40963846e-02,
          1.20481923e-02, 1.20481923e-02, 0., 3.61445770e-02, 0., 0., 0.,
          0., 1.32530123e-01, 0., 4.81927693e-02, 1.20481923e-02,
          6.02409616e-02, 1.20481923e-02, 4.81927693e-02, 3.61445770e-02,
          1.20481923e-02, 1.32530123e-01, 0., 0., 2.40963846e-02,
          2.40963846e-02 ]
      - [ 2.43902430e-02, 4.06504050e-03, 4.06504050e-03, 2.03252025e-02,
          1.21951215e-02, 3.25203240e-02, 1.21951215e-02, 1.62601620e-02,
          1.62601620e-02, 1.62601620e-02, 5.28455265e-02, 1.62601620e-02,
          1.21951215e-02, 1.62601620e-02, 4.06504050e-03, 2.43902430e-02,
          1.62601620e-02, 2.03252025e-02, 2.84552835e-02, 1.62601620e-02,
          1.21951215e-02, 2.03252025e-02, 1.21951215e-02, 1.21951215e-02,
          8.13008100e-03, 5.28455265e-02, 3.65853645e-02, 4.06504050e-02,
          4.87804860e-02, 4.06504050e-03, 2.84552835e-02, 2.43902430e-02,
          1.62601620e-02, 2.84552835e-02, 1.62601620e-02, 2.43902430e-02,
          8.13008100e-03, 1.21951215e-02, 2.03252025e-02, 4.06504050e-02,
          2.84552835e-02, 1.21951215e-02, 0., 4.06504050e-03,
          2.03252025e-02, 8.13008100e-03, 2.84552835e-02, 2.84552835e-02,
          1.62601620e-02, 2.03252025e-02 ]
      - [ 2.15982716e-03, 1.51187899e-02, 1.29589625e-02, 2.37580985e-02,
          2.80777533e-02, 3.67170610e-02, 6.47948124e-03, 1.07991360e-02,
          8.63930862e-03, 2.15982716e-03, 1.94384437e-02, 1.51187899e-02,
          1.29589625e-02, 4.31965431e-03, 2.80777533e-02, 1.51187899e-02,
          1.07991360e-02, 6.47948124e-03, 2.15982720e-02, 1.94384437e-02,
          2.80777533e-02, 4.31965431e-03, 2.59179249e-02, 0.,
          8.63930862e-03, 4.53563705e-02, 1.51187899e-02, 1.94384437e-02,
          2.15982720e-02, 5.18358499e-02, 1.07991360e-02, 1.51187899e-02,
          1.29589625e-02, 4.53563705e-02, 2.15982720e-02, 8.63930862e-03,
          3.23974080e-02, 6.47948124e-03, 2.80777533e-02, 2.37580985e-02,
          6.47948161e-02, 2.15982716e-03, 2.59179249e-02, 1.29589625e-02,
          2.80777533e-02, 6.47948161e-02, 1.94384437e-02, 6.47948124e-03,
          3.02375797e-02, 1.94384437e-02 ]
      - [ 5.31914877e-03, 8.86524841e-03, 1.95035450e-02, 9.75177251e-03,
          4.78723384e-02, 1.68439709e-02, 1.77304959e-03, 3.54609918e-03,
          2.48226933e-02, 2.65957438e-03, 1.24113467e-02, 1.06382975e-02,
          4.43262421e-03, 2.65957438e-03, 1.15248226e-02, 1.24113467e-02,
          7.09219836e-03, 8.86524795e-04, 5.67375869e-02, 3.01418435e-02,
          1.68439709e-02, 1.59574468e-02, 4.43262421e-03, 1.68439709e-02,
          1.32978717e-02, 1.59574468e-02, 2.57092193e-02, 1.41843967e-02,
          2.21631192e-02, 1.41843967e-02, 8.86524841e-03, 9.75177251e-03,
          1.32978717e-02, 1.81737587e-01, 5.31914877e-03, 5.31914877e-03,
          8.86524795e-04, 7.09219836e-03, 6.20567333e-03, 7.09219836e-03,
          1.67553186e-01, 5.31914877e-03, 2.39361692e-02, 7.97872338e-03,
          4.43262421e-03, 4.25531901e-02, 3.54609936e-02, 4.43262421e-03,
          8.86524841e-03, 4.43262421e-03 ]
      - [ 1.86602864e-02, 3.73205729e-02, 2.00956929e-02, 1.62679423e-02,
          2.63157897e-02, 2.05741618e-02, 1.29186604e-02, 1.29186604e-02,
          9.09090880e-03, 2.05741618e-02, 1.43540669e-02, 1.33971293e-02,
          2.05741618e-02, 1.29186604e-02, 1.96172241e-02, 3.63636352e-02,
          1.43540669e-02, 1.53110046e-02, 2.44019143e-02, 1.24401916e-02,
          1.48325358e-02, 2.10526306e-02, 1.43540669e-02, 4.44976054e-02,
          3.34928222e-02, 2.44019143e-02, 1.38755981e-02, 1.00478465e-02,
          7.17703346e-03, 2.34449767e-02, 2.44019143e-02, 9.56937764e-03,
          9.09090880e-03, 6.65071756e-02, 9.09090880e-03, 7.17703346e-03,
          2.63157897e-02, 2.10526306e-02, 1.24401916e-02, 1.19617227e-02,
          4.25837301e-02, 1.53110046e-02, 3.15789469e-02, 8.61243997e-03,
          1.19617227e-02, 4.49760742e-02, 1.81818176e-02, 1.00478465e-02,
          2.15310995e-02, 1.19617227e-02 ]
      - [ 1.59786940e-02, 6.65778946e-03, 2.66311574e-03, 2.26364844e-02,
          1.46471364e-02, 3.32889482e-02, 1.19840205e-02, 1.99733675e-02,
          4.66045253e-02, 1.73102524e-02, 3.72836217e-02, 7.98934698e-03,
          1.06524630e-02, 5.85885458e-02, 1.19840205e-02, 1.33155789e-02,
          1.46471364e-02, 1.46471364e-02, 2.13049259e-02, 2.26364844e-02,
          2.39680409e-02, 1.86418109e-02, 1.59786940e-02, 9.32090543e-03,
          5.32623148e-03, 2.39680409e-02, 1.99733675e-02, 3.32889482e-02,
          5.05991988e-02, 3.99467349e-03, 1.06524630e-02, 3.32889482e-02,
          3.32889482e-02, 1.33155789e-02, 2.13049259e-02, 3.19573879e-02,
          1.46471364e-02, 9.32090543e-03, 3.86151783e-02, 2.66311578e-02,
          1.46471364e-02, 2.13049259e-02, 6.65778946e-03, 1.73102524e-02,
          1.33155789e-02, 9.32090543e-03, 1.73102524e-02, 1.19840205e-02,
          2.79627144e-02, 1.73102524e-02 ]
      - [ 2.44210530e-02, 1.22105265e-02, 1.76842101e-02, 1.85263157e-02,
          2.18947362e-02, 4.12631556e-02, 3.36842099e-03, 1.76842101e-02,
          5.59999980e-02, 1.51578942e-02, 7.99999945e-03, 1.17894737e-02,
          2.69473679e-02, 4.92631570e-02, 8.42105225e-03, 1.38947368e-02,
          1.47368414e-02, 7.99999945e-03, 1.76842101e-02, 1.81052629e-02,
          4.37894724e-02, 2.27368418e-02, 9.26315784e-03, 1.81052629e-02,
          1.09473681e-02, 1.13684209e-02, 2.69473679e-02, 2.94736843e-03,
          2.56842095e-02, 4.21052612e-03, 7.57894712e-03, 1.97894741e-02,
          2.52631567e-02, 8.33684206e-02, 1.17894737e-02, 1.30526312e-02,
          3.78947356e-03, 3.78947356e-03, 3.36842099e-03, 1.81052629e-02,
          7.03157857e-02, 2.44210530e-02, 2.61052623e-02, 8.84210505e-03,
          1.26315784e-02, 2.31578946e-02, 2.02105269e-02, 1.64210517e-02,
          1.05263153e-02, 1.64210517e-02 ]
      - [ 8.06823466e-03, 2.48962659e-02, 2.58183498e-02, 6.68510841e-03,
          3.01982481e-02, 1.15260491e-02, 7.60719227e-03, 1.06039653e-02,
          5.99354552e-03, 4.61041974e-03, 1.08344862e-02, 1.42923007e-02,
          1.19870910e-02, 1.26786539e-02, 1.84416790e-02, 2.25910563e-02,
          1.38312588e-02, 1.56754274e-02, 3.31950225e-02, 1.24481330e-02,
          8.75979755e-03, 2.21300144e-02, 2.25910563e-02, 2.14384515e-02,
          1.75195951e-02, 2.85846014e-02, 1.79806370e-02, 1.03734443e-02,
          1.29091749e-02, 5.80912866e-02, 9.45136044e-03, 5.07146167e-03,
          6.91562938e-03, 9.35915187e-02, 6.68510841e-03, 6.68510841e-03,
          8.64453688e-02, 7.60719227e-03, 1.01429233e-02, 5.99354552e-03,
          7.44582787e-02, 9.45136044e-03, 2.99677271e-02, 1.47533426e-02,
          1.70585532e-02, 3.66528369e-02, 2.16689724e-02, 1.06039653e-02,
          1.54449055e-02, 8.99031851e-03 ]
      - [ 8.06451589e-03, 1.32488478e-02, 5.29953912e-02, 6.33640541e-03,
          3.85944694e-02, 1.61290318e-02, 4.03225794e-03, 1.03686638e-02,
          3.16820294e-02, 7.48847937e-03, 1.72811057e-02, 1.26728108e-02,
          1.90092158e-02, 1.78571437e-02, 1.32488478e-02, 4.32027653e-02,
          1.38248848e-02, 5.76036889e-03, 5.01152091e-02, 1.78571437e-02,
          1.55529957e-02, 1.44009218e-02, 4.03225794e-03, 4.37788032e-02,
          2.41935477e-02, 1.09447008e-02, 1.78571437e-02, 1.32488478e-02,
          1.49769587e-02, 2.07373276e-02, 1.03686638e-02, 1.78571437e-02,
          1.26728108e-02, 1.20967738e-01, 1.55529957e-02, 6.91244239e-03,
          6.91244239e-03, 1.55529957e-02, 2.01612897e-02, 9.21658985e-03,
          4.55069132e-02, 1.32488478e-02, 1.32488478e-02, 1.26728108e-02,
          1.09447008e-02, 3.28341015e-02, 2.24654377e-02, 1.26728108e-02,
          9.79262684e-03, 1.09447008e-02 ]
      - [ 1.96850393e-02, 2.36220472e-02, 3.93700786e-03, 2.36220472e-02,
          3.93700786e-02, 5.11811003e-02, 0., 1.18110236e-02,
          3.54330689e-02, 3.14960629e-02, 3.14960629e-02, 7.87401572e-03,
          3.93700786e-03, 3.93700786e-02, 4.33070883e-02, 1.18110236e-02,
          7.87401572e-03, 7.87401572e-03, 2.36220472e-02, 3.14960629e-02,
          1.96850393e-02, 4.33070883e-02, 3.93700786e-03, 0., 0.,
          3.14960629e-02, 4.33070883e-02, 2.75590550e-02, 3.93700786e-02,
          0., 0., 1.57480314e-02, 1.96850393e-02, 2.36220472e-02,
          1.96850393e-02, 7.87401572e-03, 0., 0., 3.14960629e-02,
          7.87401572e-03, 5.90551198e-02, 7.87401572e-03, 7.87401572e-03,
          7.87401572e-03, 7.87401572e-03, 3.14960629e-02, 3.93700786e-02,
          1.96850393e-02, 2.36220472e-02, 1.18110236e-02 ]
      - [ 1.08019635e-02, 1.76759399e-02, 1.47299506e-02, 1.35842878e-02,
          6.71031093e-03, 1.48936165e-02, 1.14566283e-02, 1.78396069e-02,
          2.42225863e-02, 9.81996674e-03, 8.34697206e-03, 8.18330608e-03,
          2.92962343e-02, 1.40752858e-02, 2.04582643e-02, 6.05564658e-03,
          6.87397690e-03, 2.09492631e-02, 1.06382975e-02, 5.18821590e-02,
          1.17839603e-02, 2.78232396e-02, 2.35679206e-02, 3.06055639e-02,
          2.65139118e-02, 3.06055639e-02, 1.80032738e-02, 1.06382975e-02,
          1.70212761e-02, 3.40425521e-02, 8.18330608e-03, 1.34206219e-02,
          1.70212761e-02, 1.53846154e-02, 9.32896882e-03, 5.56464819e-03,
          3.33878882e-02, 6.21931255e-03, 4.09165286e-02, 1.12929624e-02,
          1.03109656e-02, 1.44026186e-02, 4.94271666e-02, 3.87888700e-02,
          4.15711924e-02, 2.86415704e-02, 4.33715209e-02, 9.32896882e-03,
          3.15875597e-02, 2.27495898e-02 ]
      - [ 2.55754474e-03, 2.55754478e-02, 1.53452680e-02, 2.04603579e-02,
          3.06905359e-02, 1.53452680e-02, 1.53452680e-02, 1.27877239e-02,
          7.67263398e-03, 1.02301789e-02, 2.04603579e-02, 1.27877239e-02,
          1.53452680e-02, 1.53452680e-02, 3.32480818e-02, 2.30179019e-02,
          1.27877239e-02, 1.53452680e-02, 3.58056277e-02, 2.04603579e-02,
          1.53452680e-02, 3.32480818e-02, 5.11508947e-03, 1.27877239e-02,
          5.11508947e-03, 3.32480818e-02, 3.58056277e-02, 1.79028139e-02,
          2.30179019e-02, 7.67263398e-03, 2.55754478e-02, 1.27877239e-02,
          1.53452680e-02, 4.34782617e-02, 1.27877239e-02, 1.27877239e-02,
          1.53452680e-02, 1.02301789e-02, 3.32480818e-02, 7.67263398e-03,
          6.64961636e-02, 7.67263398e-03, 2.81329919e-02, 1.79028139e-02,
          7.67263398e-03, 3.58056277e-02, 2.30179019e-02, 2.55754478e-02,
          2.55754478e-02, 2.30179019e-02 ]
      - [ 3.85852084e-02, 3.85852084e-02, 2.57234722e-02, 4.18006405e-02,
          9.64630209e-03, 1.60771701e-02, 1.28617361e-02, 1.92926042e-02,
          3.21543403e-03, 3.53697762e-02, 3.21543403e-03, 3.21543403e-02,
          6.43086806e-03, 2.57234722e-02, 2.25080382e-02, 3.53697762e-02,
          2.89389063e-02, 2.25080382e-02, 3.21543403e-03, 1.28617361e-02,
          1.28617361e-02, 1.28617361e-02, 2.57234722e-02, 5.14469445e-02,
          3.85852084e-02, 1.60771701e-02, 1.60771701e-02, 2.57234722e-02,
          9.64630209e-03, 3.21543403e-02, 1.92926042e-02, 0.,
          9.64630209e-03, 0., 2.25080382e-02, 1.60771701e-02,
          1.60771701e-02, 1.92926042e-02, 1.28617361e-02, 1.28617361e-02,
          3.21543403e-03, 1.92926042e-02, 1.60771701e-02, 3.53697762e-02,
          2.25080382e-02, 3.21543403e-02, 3.21543403e-03, 9.64630209e-03,
          2.25080382e-02, 3.21543403e-02 ]
      - [ 0., 1.40186911e-02, 1.86915882e-02, 0., 8.87850448e-02,
          2.80373823e-02, 2.80373823e-02, 4.67289705e-03, 9.34579410e-03,
          4.67289705e-03, 1.40186911e-02, 3.27102803e-02, 9.34579410e-03,
          0., 3.27102803e-02, 1.86915882e-02, 2.33644843e-02, 0.,
          6.54205605e-02, 1.86915882e-02, 1.86915882e-02, 1.40186911e-02,
          9.34579410e-03, 5.14018685e-02, 4.67289686e-02, 1.40186911e-02,
          1.86915882e-02, 1.86915882e-02, 1.40186911e-02, 9.34579410e-03,
          2.33644843e-02, 9.34579410e-03, 0., 5.60747646e-02,
          4.67289705e-03, 4.67289705e-03, 0., 2.33644843e-02,
          4.67289705e-03, 9.34579410e-03, 6.54205605e-02, 1.40186911e-02,
          9.34579410e-03, 2.33644843e-02, 1.40186911e-02, 2.33644843e-02,
          1.86915882e-02, 3.27102803e-02, 1.40186911e-02, 2.33644843e-02 ]
      - [ 3.40909101e-02, 0., 1.70454551e-02, 1.70454551e-02,
          5.68181835e-03, 5.68181835e-03, 3.97727266e-02, 1.70454551e-02,
          5.68181835e-03, 0., 3.97727266e-02, 1.13636367e-02,
          2.84090918e-02, 1.13636367e-02, 3.97727266e-02, 5.68181835e-03,
          5.11363670e-02, 7.38636404e-02, 5.68181835e-03, 0., 0.,
          2.27272734e-02, 3.40909101e-02, 1.13636367e-02, 3.97727266e-02,
          3.40909101e-02, 5.68181835e-03, 5.68181835e-03, 0.,
          5.68181835e-02, 2.27272734e-02, 0., 0., 5.68181835e-03,
          2.27272734e-02, 5.68181835e-03, 9.65909138e-02, 2.27272734e-02,
          2.27272734e-02, 2.84090918e-02, 0., 1.70454551e-02,
          3.40909101e-02, 1.70454551e-02, 2.27272734e-02, 0.,
          2.27272734e-02, 5.68181835e-03, 1.70454551e-02, 1.70454551e-02 ]
      - [ 2.29276884e-02, 2.29276884e-02, 2.11640205e-02, 2.46913582e-02,
          3.70370373e-02, 2.82186940e-02, 1.58730149e-02, 1.76366828e-02,
          2.64550261e-02, 1.05820103e-02, 2.11640205e-02, 1.58730149e-02,
          1.58730149e-02, 1.41093470e-02, 7.05467351e-03, 1.94003526e-02,
          1.76366828e-02, 1.76366828e-02, 2.82186940e-02, 5.29100513e-03,
          3.35096978e-02, 1.58730149e-02, 1.76366828e-02, 2.46913582e-02,
          3.35096978e-02, 1.76366828e-02, 1.58730149e-02, 1.41093470e-02,
          1.58730149e-02, 3.17460299e-02, 1.41093470e-02, 7.05467351e-03,
          1.94003526e-02, 3.70370373e-02, 1.05820103e-02, 1.58730149e-02,
          1.23456791e-02, 2.46913582e-02, 5.29100513e-03, 1.23456791e-02,
          4.76190448e-02, 2.82186940e-02, 2.46913582e-02, 1.23456791e-02,
          7.05467351e-03, 4.40917090e-02, 1.23456791e-02, 3.17460299e-02,
          1.58730149e-02, 7.05467351e-03 ]
      - [ 3.01204808e-02, 1.80722885e-02, 0., 2.40963846e-02,
          3.01204808e-03, 9.03614424e-03, 3.01204808e-02, 9.03614424e-03,
          3.01204808e-03, 3.01204808e-02, 3.91566232e-02, 2.10843366e-02,
          3.01204808e-03, 1.20481923e-02, 3.31325307e-02, 2.10843366e-02,
          1.50602404e-02, 7.22891539e-02, 0., 9.03614424e-03,
          3.01204808e-03, 1.20481923e-02, 6.92771077e-02, 9.03614424e-03,
          3.01204808e-02, 3.91566232e-02, 3.01204808e-03, 4.21686731e-02,
          1.50602404e-02, 7.53012002e-02, 3.61445770e-02, 6.02409616e-03,
          3.01204808e-03, 0., 2.40963846e-02, 1.50602404e-02,
          4.81927693e-02, 2.10843366e-02, 2.10843366e-02, 1.20481923e-02,
          0., 9.03614424e-03, 1.20481923e-02, 1.20481923e-02,
          1.20481923e-02, 9.03614424e-03, 3.01204808e-03, 2.71084327e-02,
          4.81927693e-02, 0. ]
      - [ 3.91459055e-02, 4.27046269e-02, 7.11743766e-03, 1.77935939e-02,
          1.06761567e-02, 7.11743766e-03, 2.49110311e-02, 1.42348753e-02,
          0., 2.13523135e-02, 3.91459055e-02, 7.11743766e-03,
          1.77935939e-02, 1.42348753e-02, 4.27046269e-02, 2.49110311e-02,
          1.77935939e-02, 4.62633446e-02, 7.11743766e-03, 0.,
          7.11743766e-03, 0., 5.33807836e-02, 2.84697507e-02,
          2.84697507e-02, 3.91459055e-02, 3.55871883e-03, 2.84697507e-02,
          3.55871883e-03, 6.40569404e-02, 3.55871879e-02, 3.55871883e-03,
          7.11743766e-03, 3.55871883e-03, 1.77935939e-02, 1.06761567e-02,
          3.91459055e-02, 2.49110311e-02, 2.84697507e-02, 3.55871879e-02,
          0., 1.06761567e-02, 1.77935939e-02, 2.13523135e-02,
          1.06761567e-02, 7.11743766e-03, 7.11743766e-03, 1.77935939e-02,
          3.20284702e-02, 1.06761567e-02 ]
      - [ 1.66858453e-02, 1.84119679e-02, 2.12888382e-02, 2.53164563e-02,
          1.55350976e-02, 2.53164563e-02, 6.90448796e-03, 1.15074795e-02,
          9.78135783e-03, 1.15074795e-02, 1.49597237e-02, 8.05523619e-03,
          3.27963196e-02, 2.30149589e-02, 1.38089759e-02, 1.61104724e-02,
          4.60299198e-03, 2.01380905e-02, 1.89873427e-02, 3.68239358e-02,
          1.43843498e-02, 2.70425770e-02, 2.53164563e-02, 2.35903338e-02,
          2.81933267e-02, 2.41657086e-02, 2.53164563e-02, 7.47986184e-03,
          1.61104724e-02, 2.01380905e-02, 5.75373974e-03, 1.61104724e-02,
          1.03567317e-02, 4.48791720e-02, 1.20828543e-02, 8.05523619e-03,
          3.10701951e-02, 2.30149599e-03, 1.09321056e-02, 1.78365931e-02,
          6.09896444e-02, 1.89873427e-02, 4.25776765e-02, 1.32336020e-02,
          1.49597237e-02, 5.23590334e-02, 1.49597237e-02, 1.38089759e-02,
          2.70425770e-02, 1.84119679e-02 ]
      - [ 5.75815700e-03, 5.75815700e-03, 9.59692895e-03, 6.71784999e-03,
          4.51055653e-02, 1.82341654e-02, 2.87907850e-03, 6.71784999e-03,
          2.01535504e-02, 4.79846448e-03, 1.43953934e-02, 1.43953934e-02,
          4.79846448e-03, 1.24760075e-02, 1.24760075e-02, 2.49520149e-02,
          1.34357000e-02, 3.83877149e-03, 4.60652560e-02, 1.72744710e-02,
          2.11132430e-02, 2.11132430e-02, 3.83877149e-03, 1.43953934e-02,
          1.34357000e-02, 1.05566215e-02, 1.63147785e-02, 1.53550860e-02,
          1.63147785e-02, 1.05566215e-02, 6.71784999e-03, 1.24760075e-02,
          8.63723550e-03, 2.06333965e-01, 5.75815700e-03, 7.67754298e-03,
          2.87907850e-03, 9.59692895e-03, 3.83877149e-03, 4.79846448e-03,
          1.60268709e-01, 5.75815700e-03, 2.01535504e-02, 9.59692895e-03,
          8.63723550e-03, 4.79846448e-02, 2.20729355e-02, 2.87907850e-03,
          8.63723550e-03, 1.24760075e-02 ]
      - [ 2.88461559e-02, 1.92307699e-02, 4.80769249e-03, 1.44230779e-02,
          1.92307699e-02, 1.44230779e-02, 1.44230779e-02, 1.92307699e-02,
          0., 2.88461559e-02, 3.36538479e-02, 2.88461559e-02, 0.,
          3.36538479e-02, 2.40384620e-02, 1.44230779e-02, 1.92307699e-02,
          2.88461559e-02, 9.61538497e-03, 9.61538497e-03, 4.80769249e-03,
          3.36538479e-02, 4.80769239e-02, 2.40384620e-02, 1.44230779e-02,
          4.32692319e-02, 1.92307699e-02, 3.84615399e-02, 3.36538479e-02,
          5.28846160e-02, 2.40384620e-02, 1.44230779e-02, 2.88461559e-02,
          1.44230779e-02, 0., 4.80769249e-03, 2.40384620e-02,
          9.61538497e-03, 3.84615399e-02, 9.61538497e-03, 0.,
          4.80769249e-03, 1.92307699e-02, 1.44230779e-02, 2.88461559e-02,
          0., 2.88461559e-02, 1.92307699e-02, 2.40384620e-02,
          1.44230779e-02 ]
      - [ 1.35593219e-02, 1.69491526e-02, 3.38983047e-03, 3.38983047e-03,
          6.77966094e-03, 0., 6.77966103e-02, 1.01694912e-02,
          3.38983047e-03, 1.01694912e-02, 1.01694912e-02, 1.01694912e-02,
          1.01694912e-02, 6.77966094e-03, 4.06779647e-02, 1.01694912e-02,
          2.71186437e-02, 4.06779647e-02, 0., 1.01694912e-02,
          3.38983047e-03, 3.38983047e-03, 2.37288140e-02, 2.71186437e-02,
          8.13559294e-02, 3.72881368e-02, 3.38983047e-03, 1.69491526e-02,
          6.77966094e-03, 2.30508476e-01, 1.35593219e-02, 0.,
          6.77966094e-03, 0., 1.69491526e-02, 1.01694912e-02,
          2.37288140e-02, 1.69491526e-02, 2.71186437e-02, 1.69491526e-02,
          0., 3.38983051e-02, 1.35593219e-02, 0., 1.01694912e-02,
          2.03389823e-02, 3.38983047e-03, 1.35593219e-02, 2.37288140e-02,
          1.35593219e-02 ]
      - [ 2.40641721e-02, 3.20855603e-02, 2.13903747e-02, 1.60427801e-02,
          1.33689847e-02, 2.13903747e-02, 3.47593576e-02, 2.13903747e-02,
          8.02139007e-03, 1.33689847e-02, 2.67379694e-02, 2.13903747e-02,
          1.87165774e-02, 3.74331549e-02, 2.40641721e-02, 2.13903747e-02,
          1.06951874e-02, 1.60427801e-02, 1.60427801e-02, 2.13903747e-02,
          1.87165774e-02, 2.94117648e-02, 2.40641721e-02, 3.47593576e-02,
          2.67379694e-02, 2.40641721e-02, 1.33689847e-02, 1.33689847e-02,
          8.02139007e-03, 5.61497323e-02, 2.40641721e-02, 2.67379684e-03,
          2.67379694e-02, 2.13903747e-02, 8.02139007e-03, 1.33689847e-02,
          2.40641721e-02, 2.67379694e-02, 8.02139007e-03, 1.60427801e-02,
          8.02139007e-03, 1.33689847e-02, 1.06951874e-02, 8.02139007e-03,
          8.02139007e-03, 3.47593576e-02, 8.02139007e-03, 2.67379694e-02,
          1.87165774e-02, 2.40641721e-02 ]
      - [ 4.26666662e-02, 2.13333331e-02, 2.66666673e-02, 2.66666673e-02,
          1.86666660e-02, 5.33333328e-03, 3.99999991e-02, 2.93333326e-02,
          1.06666666e-02, 2.13333331e-02, 1.06666666e-02, 1.59999989e-02,
          3.19999978e-02, 1.86666660e-02, 2.40000002e-02, 3.19999978e-02,
          2.13333331e-02, 1.59999989e-02, 7.99999945e-03, 2.66666664e-03,
          7.99999945e-03, 1.06666666e-02, 1.33333337e-02, 4.80000004e-02,
          1.59999989e-02, 2.66666673e-02, 1.06666666e-02, 1.33333337e-02,
          2.40000002e-02, 2.13333331e-02, 3.46666649e-02, 1.06666666e-02,
          1.33333337e-02, 1.33333337e-02, 3.73333320e-02, 1.86666660e-02,
          4.80000004e-02, 3.99999991e-02, 1.33333337e-02, 2.93333326e-02,
          1.59999989e-02, 3.46666649e-02, 7.99999945e-03, 2.66666664e-03,
          1.06666666e-02, 1.33333337e-02, 1.59999989e-02, 1.33333337e-02,
          5.33333328e-03, 5.33333328e-03 ]
      - [ 2.82258056e-02, 5.24193533e-02, 2.01612897e-02, 4.03225794e-03,
          4.03225794e-03, 8.06451589e-03, 8.46774131e-02, 8.06451589e-03,
          1.61290318e-02, 2.01612897e-02, 8.06451589e-03, 3.22580636e-02,
          8.06451589e-03, 8.06451589e-03, 2.01612897e-02, 1.20967738e-02,
          4.03225794e-02, 2.01612897e-02, 1.20967738e-02, 8.06451589e-03,
          0., 4.03225794e-03, 2.41935477e-02, 6.04838692e-02,
          4.03225794e-02, 3.62903215e-02, 4.03225794e-03, 2.82258056e-02,
          4.03225794e-03, 8.46774131e-02, 3.22580636e-02, 0.,
          4.03225794e-03, 1.61290318e-02, 4.03225794e-03, 1.61290318e-02,
          6.45161271e-02, 3.22580636e-02, 4.03225794e-03, 0., 0.,
          1.61290318e-02, 1.61290318e-02, 1.61290318e-02, 1.20967738e-02,
          1.61290318e-02, 1.20967738e-02, 4.03225794e-03, 1.61290318e-02,
          1.61290318e-02 ]
      - [ 3.44827585e-02, 9.85221658e-03, 1.47783253e-02, 4.92610829e-03,
          0., 3.44827585e-02, 1.97044332e-02, 0., 1.97044332e-02,
          1.97044332e-02, 1.47783253e-02, 1.47783253e-02, 4.92610829e-03,
          6.40394092e-02, 0., 4.92610829e-03, 9.85221658e-03, 0.,
          1.97044332e-02, 1.47783253e-02, 3.94088663e-02, 3.94088663e-02,
          9.85221658e-03, 8.86699483e-02, 6.40394092e-02, 0.,
          3.44827585e-02, 2.46305410e-02, 1.97044332e-02, 0.,
          3.94088663e-02, 4.92610829e-03, 4.92610829e-03, 6.89655170e-02,
          1.47783253e-02, 1.47783253e-02, 4.92610829e-03, 2.95566507e-02,
          0., 1.47783253e-02, 5.41871898e-02, 2.46305410e-02,
          1.97044332e-02, 9.85221658e-03, 0., 1.97044332e-02,
          4.92610829e-03, 2.46305410e-02, 9.85221658e-03, 9.85221658e-03 ]
      - [ 2.56739408e-02, 2.69576386e-02, 2.31065471e-02, 2.31065471e-02,
          1.15532735e-02, 1.15532735e-02, 2.95250323e-02, 1.02695767e-02,
          7.70218251e-03, 2.05391534e-02, 1.41206682e-02, 1.41206682e-02,
          1.79717597e-02, 2.05391534e-02, 2.82413363e-02, 3.72272171e-02,
          1.54043650e-02, 2.05391534e-02, 1.02695767e-02, 1.02695767e-02,
          1.54043650e-02, 1.15532735e-02, 2.31065471e-02, 4.74967919e-02,
          4.87804897e-02, 2.95250323e-02, 1.15532735e-02, 1.66880619e-02,
          2.31065471e-02, 2.95250323e-02, 2.43902449e-02, 1.28369704e-02,
          1.15532735e-02, 2.31065471e-02, 2.05391534e-02, 2.18228512e-02,
          2.18228512e-02, 2.18228512e-02, 2.05391534e-02, 1.79717597e-02,
          3.85109126e-03, 1.92554556e-02, 2.05391534e-02, 1.28369704e-02,
          1.92554556e-02, 2.69576386e-02, 3.85109126e-03, 2.56739408e-02,
          2.18228512e-02, 1.41206682e-02 ]
      - [ 3.89610380e-02, 1.29870130e-02, 0., 6.49350649e-03,
          1.94805190e-02, 1.94805190e-02, 1.03896104e-01, 1.94805190e-02,
          1.94805190e-02, 3.89610380e-02, 2.59740259e-02, 1.94805190e-02,
          0., 5.84415570e-02, 1.29870130e-02, 3.89610380e-02,
          1.94805190e-02, 6.49350649e-03, 0., 6.49350649e-03,
          1.29870130e-02, 1.29870130e-02, 6.49350649e-03, 1.03896104e-01,
          1.03896104e-01, 1.29870130e-02, 0., 6.49350649e-03,
          6.49350649e-03, 1.94805190e-02, 3.89610380e-02, 6.49350649e-03,
          0., 0., 1.94805190e-02, 1.29870130e-02, 6.49350649e-03,
          3.89610380e-02, 1.29870130e-02, 1.29870130e-02, 0.,
          3.24675329e-02, 0., 6.49350649e-03, 0., 0., 6.49350649e-03,
