%YAML:1.0
---
opencv_ml_svm:
   format: 3
   svmType: C_SVC
   kernel:
      type: LINEAR
   C: 6.2500000000000000e+01
   term_criteria: { iterations:100 }
   var_count: 50
   class_count: 2
   class_labels: !!opencv-matrix
      rows: 2
      cols: 1
      dt: i
      data: [ 0, 1 ]
   sv_total: 1
   support_vectors:
      - [ -2.58835173e+00, 2.47628355e+00, 3.98529857e-01,
          -3.36469698e+00, -4.52629900e+00, 3.08334851e+00,
          4.63229752e+00, 1.54366648e+00, -1.43328738e+00,
          -1.06236973e+01, 1.54587579e+00, -1.37386160e+01,
          -3.16661620e+00, 9.30963707e+00, 5.70471907e+00,
          -1.55862296e+00, -1.03277330e+01, 6.88384652e-01,
          -5.03443670e+00, -6.00080252e+00, -4.88582706e+00,
          2.64814544e+00, 1.13099396e+00, 6.25648308e+00, 5.00290543e-02,
          5.15615606e+00, 2.71289849e+00, -2.69129962e-01,
          8.83955097e+00, 6.15477180e+00, -5.63427353e+00,
          -1.89380252e+00, -5.10164881e+00, 5.70340300e+00,
          2.70461297e+00, 4.94405174e+00, 5.32750845e+00,
          -8.05224991e+00, -7.32003868e-01, -1.55858707e+00,
          2.24091625e+00, 4.65244627e+00, -4.60299301e+00,
          2.18009019e+00, -1.98920831e-01, -2.61309338e+00,
          6.24488592e-02, 1.70734918e+00, 6.64483261e+00,
          -5.93745530e-01 ]
   uncompressed_sv_total: 158
   uncompressed_support_vectors:
      - [ 1.81818176e-02, 4.99999970e-02, 9.09090880e-03, 1.81818176e-02,
          3.18181813e-02, 1.36363637e-02, 2.27272715e-02, 9.09090880e-03,
          0., 9.09090880e-03, 1.81818176e-02, 9.09090880e-03,
          2.72727273e-02, 4.54545440e-03, 2.27272715e-02, 3.18181813e-02,
          9.09090880e-03, 2.72727273e-02, 1.36363637e-02, 1.36363637e-02,
          1.36363637e-02, 1.36363637e-02, 2.72727273e-02, 2.27272715e-02,
          1.36363637e-02, 4.54545431e-02, 9.09090880e-03, 3.18181813e-02,
          1.36363637e-02, 4.99999970e-02, 2.72727273e-02, 1.36363637e-02,
          1.81818176e-02, 9.09090880e-03, 4.54545440e-03, 1.36363637e-02,
          1.81818176e-02, 1.81818176e-02, 2.27272715e-02, 2.27272715e-02,
          9.09090880e-03, 4.54545431e-02, 2.27272715e-02, 1.81818176e-02,
          1.81818176e-02, 2.72727273e-02, 4.54545440e-03, 2.72727273e-02,
          4.09090891e-02, 1.81818176e-02 ]
      - [ 2.74509825e-02, 3.92156886e-03, 0., 1.56862754e-02,
          7.84313772e-03, 2.35294141e-02, 3.92156877e-02, 1.17647070e-02,
          3.92156886e-03, 3.13725509e-02, 1.56862754e-02, 0.,
          3.92156886e-03, 1.56862754e-02, 5.49019650e-02, 3.52941193e-02,
          3.13725509e-02, 1.96078438e-02, 1.96078438e-02, 1.17647070e-02,
          2.35294141e-02, 1.17647070e-02, 1.96078438e-02, 1.96078438e-02,
          1.96078438e-02, 6.66666701e-02, 1.17647070e-02, 3.13725509e-02,
          1.17647070e-02, 3.92156886e-03, 4.31372561e-02, 7.84313772e-03,
          7.84313772e-03, 3.92156886e-03, 2.35294141e-02, 2.74509825e-02,
          2.35294141e-02, 3.92156877e-02, 7.84313772e-03, 2.35294141e-02,
          3.92156886e-03, 2.74509825e-02, 1.96078438e-02, 3.52941193e-02,
          1.96078438e-02, 2.35294141e-02, 1.17647070e-02, 3.52941193e-02,
          1.56862754e-02, 7.84313772e-03 ]
      - [ 1.89573467e-02, 2.84360200e-02, 9.47867334e-03, 2.84360200e-02,
          0., 2.84360200e-02, 5.21327034e-02, 3.31753567e-02,
          4.73933667e-03, 1.42180100e-02, 1.42180100e-02, 9.47867334e-03,
          1.89573467e-02, 1.42180100e-02, 2.84360200e-02, 3.79146934e-02,
          1.89573467e-02, 1.89573467e-02, 1.89573467e-02, 4.73933667e-03,
          1.89573467e-02, 9.47867334e-03, 1.42180100e-02, 4.73933667e-03,
          1.42180100e-02, 3.79146934e-02, 1.89573467e-02, 9.47867334e-03,
          1.42180100e-02, 1.42180100e-02, 3.31753567e-02, 4.73933667e-03,
          4.73933667e-03, 0., 9.47867334e-03, 2.84360200e-02,
          3.79146934e-02, 3.31753567e-02, 1.89573467e-02, 3.31753567e-02,
          0., 1.42180100e-02, 2.84360200e-02, 3.79146934e-02,
          2.84360200e-02, 3.31753567e-02, 4.73933667e-03, 5.68720400e-02,
          2.36966833e-02, 9.47867334e-03 ]
      - [ 1.99004970e-02, 2.48756222e-02, 4.97512426e-03, 2.48756222e-02,
          1.49253728e-02, 1.99004970e-02, 3.48258689e-02, 3.98009941e-02,
          0., 2.48756222e-02, 1.99004970e-02, 1.99004970e-02,
          2.48756222e-02, 1.49253728e-02, 3.48258689e-02, 3.98009941e-02,
          1.99004970e-02, 3.48258689e-02, 1.49253728e-02, 2.48756222e-02,
          4.97512426e-03, 9.95024852e-03, 3.48258689e-02, 9.95024852e-03,
          4.97512426e-03, 3.98009941e-02, 0., 3.48258689e-02,
          9.95024852e-03, 2.98507456e-02, 1.99004970e-02, 4.97512426e-03,
          1.49253728e-02, 1.49253728e-02, 9.95024852e-03, 4.97512426e-03,
          2.48756222e-02, 2.98507456e-02, 1.99004970e-02, 4.97512426e-03,
          9.95024852e-03, 3.48258689e-02, 1.49253728e-02, 1.99004970e-02,
          9.95024852e-03, 1.99004970e-02, 1.99004970e-02, 2.48756222e-02,
          3.98009941e-02, 1.99004970e-02 ]
      - [ 1.42857153e-02, 1.90476198e-02, 1.90476198e-02, 4.76190494e-03,
          2.85714306e-02, 1.42857153e-02, 1.90476198e-02, 3.33333351e-02,
          4.76190494e-03, 1.42857153e-02, 4.76190485e-02, 1.42857153e-02,
          9.52380989e-03, 9.52380989e-03, 2.85714306e-02, 5.23809530e-02,
          9.52380989e-03, 2.85714306e-02, 4.76190485e-02, 1.42857153e-02,
          4.76190494e-03, 1.90476198e-02, 5.23809530e-02, 1.90476198e-02,
          3.33333351e-02, 2.38095243e-02, 1.42857153e-02, 1.90476198e-02,
          9.52380989e-03, 2.85714306e-02, 2.38095243e-02, 9.52380989e-03,
          1.42857153e-02, 1.90476198e-02, 2.38095243e-02, 4.76190494e-03,
          4.76190494e-03, 2.38095243e-02, 4.76190494e-03, 1.90476198e-02,
          2.38095243e-02, 1.90476198e-02, 0., 2.38095243e-02,
          9.52380989e-03, 3.80952395e-02, 2.38095243e-02, 4.28571440e-02,
          1.42857153e-02, 0. ]
      - [ 1.84049085e-02, 4.90797535e-02, 3.68098170e-02, 6.13496918e-03,
          1.22699384e-02, 1.22699384e-02, 4.29447852e-02, 6.13496918e-03,
          4.29447852e-02, 6.13496918e-03, 6.13496918e-03, 0.,
          8.58895704e-02, 2.45398767e-02, 3.68098170e-02, 3.68098170e-02,
          0., 2.45398767e-02, 1.22699384e-02, 1.22699384e-02,
          6.13496918e-03, 1.22699384e-02, 3.06748450e-02, 2.45398767e-02,
          3.68098170e-02, 3.06748450e-02, 1.84049085e-02, 1.84049085e-02,
          1.22699384e-02, 3.68098170e-02, 1.22699384e-02, 1.22699384e-02,
          6.13496918e-03, 1.84049085e-02, 1.22699384e-02, 1.84049085e-02,
          0., 1.22699384e-02, 6.13496918e-03, 1.84049085e-02, 0.,
          1.84049085e-02, 2.45398767e-02, 1.22699384e-02, 1.22699384e-02,
          2.45398767e-02, 3.68098170e-02, 2.45398767e-02, 1.22699384e-02,
          1.84049085e-02 ]
      - [ 3.50877196e-02, 2.33918130e-02, 5.84795326e-03, 1.16959065e-02,
          5.84795326e-03, 3.50877196e-02, 7.60233924e-02, 2.33918130e-02,
          3.50877196e-02, 1.75438598e-02, 5.84795326e-02, 1.75438598e-02,
          1.75438598e-02, 5.84795326e-03, 3.50877196e-02, 1.16959065e-02,
          1.16959065e-02, 1.16959065e-02, 0., 2.33918130e-02,
          1.75438598e-02, 1.16959065e-02, 2.33918130e-02, 2.92397663e-02,
          4.67836261e-02, 2.33918130e-02, 5.84795326e-03, 2.33918130e-02,
          2.33918130e-02, 1.75438598e-02, 2.92397663e-02, 0.,
          1.16959065e-02, 1.16959065e-02, 1.16959065e-02, 5.84795326e-03,
          1.16959065e-02, 2.33918130e-02, 2.33918130e-02, 0.,
          1.16959065e-02, 3.50877196e-02, 2.92397663e-02, 5.84795326e-03,
          1.16959065e-02, 1.16959065e-02, 1.75438598e-02, 1.75438598e-02,
          2.92397663e-02, 1.75438598e-02 ]
      - [ 1.96629222e-02, 3.08988765e-02, 8.42696615e-03, 1.40449442e-02,
          1.68539323e-02, 1.40449442e-02, 4.21348326e-02, 8.42696615e-03,
          2.80898879e-03, 1.68539323e-02, 2.24719103e-02, 2.80898884e-02,
          1.12359552e-02, 1.40449442e-02, 2.80898884e-02, 1.12359552e-02,
          2.80898884e-02, 1.68539323e-02, 1.96629222e-02, 2.52808984e-02,
          8.42696615e-03, 5.61797759e-03, 1.68539323e-02, 5.05617969e-02,
          3.08988765e-02, 3.65168527e-02, 1.68539323e-02, 2.52808984e-02,
          8.42696615e-03, 1.96629222e-02, 4.77528088e-02, 1.68539323e-02,
          1.12359552e-02, 8.42696615e-03, 1.12359552e-02, 1.68539323e-02,
          1.68539323e-02, 3.93258445e-02, 2.24719103e-02, 1.12359552e-02,
          1.40449442e-02, 2.52808984e-02, 2.80898879e-03, 1.40449442e-02,
          2.52808984e-02, 8.42696615e-03, 2.24719103e-02, 2.52808984e-02,
          4.49438207e-02, 1.68539323e-02 ]
      - [ 3.35820876e-02, 7.46268639e-03, 3.73134315e-02, 7.46268639e-03,
          1.86567158e-02, 3.73134315e-02, 1.86567158e-02, 2.61194017e-02,
          3.73134320e-03, 2.23880596e-02, 1.11940298e-02, 2.61194017e-02,
          1.11940298e-02, 2.61194017e-02, 2.61194017e-02, 3.73134315e-02,
          1.86567158e-02, 1.86567158e-02, 3.73134315e-02, 2.23880596e-02,
          1.86567158e-02, 1.86567158e-02, 2.23880596e-02, 3.35820876e-02,
          1.49253728e-02, 2.98507456e-02, 2.23880596e-02, 1.49253728e-02,
          1.86567158e-02, 7.46268639e-03, 2.23880596e-02, 3.73134320e-03,
          3.73134320e-03, 3.73134315e-02, 1.49253728e-02, 1.49253728e-02,
          1.49253728e-02, 1.11940298e-02, 2.61194017e-02, 2.23880596e-02,
          1.11940298e-02, 1.49253728e-02, 3.73134315e-02, 2.98507456e-02,
          1.49253728e-02, 7.46268639e-03, 1.86567158e-02, 1.49253728e-02,
          1.86567158e-02, 1.11940298e-02 ]
      - [ 1.96850393e-02, 1.18110236e-02, 1.18110236e-02, 1.57480314e-02,
          3.14960629e-02, 3.14960629e-02, 0., 2.36220472e-02,
          7.87401572e-03, 7.87401572e-03, 1.57480314e-02, 2.36220472e-02,
          0., 3.14960629e-02, 1.96850393e-02, 1.57480314e-02,
          1.96850393e-02, 2.75590550e-02, 4.33070883e-02, 1.96850393e-02,
          2.36220472e-02, 1.96850393e-02, 2.75590550e-02, 3.14960629e-02,
          2.75590550e-02, 2.36220472e-02, 3.14960629e-02, 1.96850393e-02,
          3.93700786e-02, 7.87401572e-03, 2.36220472e-02, 1.18110236e-02,
          7.87401572e-03, 6.69291317e-02, 1.18110236e-02, 1.96850393e-02,
          7.87401572e-03, 1.57480314e-02, 1.96850393e-02, 1.57480314e-02,
          1.57480314e-02, 1.57480314e-02, 1.18110236e-02, 7.87401572e-03,
          1.96850393e-02, 1.18110236e-02, 3.54330689e-02, 1.96850393e-02,
          1.57480314e-02, 1.57480314e-02 ]
      - [ 1.05932206e-02, 2.96610165e-02, 3.17796618e-02, 1.48305083e-02,
          1.69491526e-02, 1.69491526e-02, 1.05932206e-02, 1.27118640e-02,
          1.69491526e-02, 6.35593198e-03, 1.27118640e-02, 3.38983051e-02,
          1.05932206e-02, 1.90677959e-02, 2.11864412e-02, 2.75423732e-02,
          2.96610165e-02, 2.11864412e-02, 1.90677959e-02, 2.54237279e-02,
          1.05932206e-02, 2.96610165e-02, 2.11864412e-02, 3.81355919e-02,
          2.11864412e-02, 2.54237279e-02, 6.35593198e-03, 6.35593198e-03,
          1.90677959e-02, 2.75423732e-02, 6.35593198e-03, 1.05932206e-02,
          1.05932206e-02, 4.44915257e-02, 1.05932206e-02, 6.35593198e-03,
          2.33050846e-02, 6.35593198e-03, 4.23728814e-03, 1.05932206e-02,
          5.93220331e-02, 6.35593198e-03, 4.23728824e-02, 2.54237279e-02,
          1.90677959e-02, 6.14406765e-02, 1.27118640e-02, 1.05932206e-02,
          1.69491526e-02, 1.90677959e-02 ]
      - [ 2.53164563e-02, 1.89873427e-02, 2.53164563e-02, 6.32911408e-03,
          2.53164563e-02, 1.26582282e-02, 2.53164563e-02, 2.53164563e-02,
          6.32911408e-03, 1.26582282e-02, 0., 1.89873427e-02,
          1.26582282e-02, 1.26582282e-02, 1.89873427e-02, 4.43037972e-02,
          1.26582282e-02, 2.53164563e-02, 3.16455700e-02, 1.89873427e-02,
          0., 1.26582282e-02, 1.26582282e-02, 3.16455700e-02,
          2.53164563e-02, 3.79746854e-02, 6.32911408e-03, 3.16455700e-02,
          3.16455700e-02, 3.16455700e-02, 2.53164563e-02, 6.32911408e-03,
          1.89873427e-02, 1.89873427e-02, 1.89873427e-02, 1.26582282e-02,
          4.43037972e-02, 1.89873427e-02, 0., 1.26582282e-02, 0.,
          1.26582282e-02, 3.79746854e-02, 1.26582282e-02, 2.53164563e-02,
          4.43037972e-02, 1.89873427e-02, 4.43037972e-02, 1.26582282e-02,
          1.26582282e-02 ]
      - [ 4.06976752e-02, 0., 0., 5.23255803e-02, 1.16279069e-02,
          1.16279069e-02, 4.65116277e-02, 1.74418613e-02, 1.74418613e-02,
          1.74418613e-02, 3.48837227e-02, 1.74418613e-02, 5.81395347e-03,
          2.32558139e-02, 1.74418613e-02, 3.48837227e-02, 5.81395347e-03,
          9.30232555e-02, 3.48837227e-02, 5.81395347e-03, 0.,
          5.81395347e-03, 5.23255803e-02, 2.90697664e-02, 4.65116277e-02,
          1.74418613e-02, 1.74418613e-02, 4.06976752e-02, 1.16279069e-02,
          3.48837227e-02, 2.32558139e-02, 1.74418613e-02, 0., 0.,
          1.74418613e-02, 4.06976752e-02, 2.32558139e-02, 1.16279069e-02,
          1.16279069e-02, 1.74418613e-02, 0., 1.16279069e-02, 0.,
          2.32558139e-02, 1.16279069e-02, 0., 0., 5.81395347e-03,
          2.90697664e-02, 1.16279069e-02 ]
      - [ 2.32558139e-02, 2.90697664e-02, 5.81395347e-03, 1.74418613e-02,
          1.16279069e-02, 5.81395347e-03, 6.39534891e-02, 1.16279069e-02,
          1.16279069e-02, 1.74418613e-02, 2.90697664e-02, 1.74418613e-02,
          1.16279069e-02, 1.74418613e-02, 4.65116277e-02, 6.39534891e-02,
          5.81395347e-03, 1.16279069e-02, 1.16279069e-02, 1.16279069e-02,
          5.81395347e-03, 1.74418613e-02, 5.81395347e-03, 2.90697664e-02,
          2.32558139e-02, 2.90697664e-02, 5.81395347e-03, 2.90697664e-02,
          0., 0., 5.23255803e-02, 1.16279069e-02, 0., 3.48837227e-02,
          1.74418613e-02, 2.32558139e-02, 1.74418613e-02, 5.81395328e-02,
          5.81395347e-03, 0., 0., 2.90697664e-02, 1.16279069e-02,
          3.48837227e-02, 1.74418613e-02, 3.48837227e-02, 1.74418613e-02,
          3.48837227e-02, 1.74418613e-02, 1.16279069e-02 ]
      - [ 6.02409616e-03, 3.01204808e-02, 1.80722885e-02, 6.02409616e-03,
          0., 6.02409616e-03, 5.42168655e-02, 6.02409616e-03,
          1.20481923e-02, 1.20481923e-02, 1.80722885e-02, 3.61445770e-02,
          1.20481923e-02, 6.02409616e-03, 2.40963846e-02, 3.61445770e-02,
          3.61445770e-02, 1.20481923e-02, 6.02409616e-03, 0.,
          6.02409616e-03, 2.40963846e-02, 4.21686731e-02, 3.01204808e-02,
          5.42168655e-02, 3.01204808e-02, 1.20481923e-02, 2.40963846e-02,
          1.20481923e-02, 4.21686731e-02, 4.21686731e-02, 1.20481923e-02,
          1.20481923e-02, 1.20481923e-02, 4.21686731e-02, 1.20481923e-02,
          2.40963846e-02, 4.21686731e-02, 2.40963846e-02, 1.20481923e-02,
          1.80722885e-02, 3.01204808e-02, 1.20481923e-02, 1.20481923e-02,
          1.20481923e-02, 2.40963846e-02, 6.02409616e-03, 1.20481923e-02,
          6.02409616e-03, 1.80722885e-02 ]
      - [ 3.17460299e-02, 2.64550261e-02, 1.05820103e-02, 1.58730149e-02,
          3.17460299e-02, 2.11640205e-02, 3.17460299e-02, 2.64550261e-02,
          3.70370373e-02, 1.05820103e-02, 1.58730149e-02, 1.05820103e-02,
          1.58730149e-02, 0., 1.58730149e-02, 1.58730149e-02,
          1.58730149e-02, 2.11640205e-02, 4.23280410e-02, 2.11640205e-02,
          1.58730149e-02, 2.11640205e-02, 1.58730149e-02, 1.58730149e-02,
          1.05820103e-02, 5.29100522e-02, 3.70370373e-02, 5.29100513e-03,
          3.17460299e-02, 3.17460299e-02, 5.29100513e-03, 5.29100513e-03,
          5.29100513e-03, 1.58730149e-02, 2.11640205e-02, 2.11640205e-02,
          0., 3.17460299e-02, 5.29100513e-03, 1.58730149e-02,
          1.58730149e-02, 5.29100513e-03, 2.11640205e-02, 1.05820103e-02,
          5.29100513e-03, 1.58730149e-02, 4.76190448e-02, 4.76190448e-02,
          1.05820103e-02, 3.70370373e-02 ]
      - [ 1.79640725e-02, 1.19760484e-02, 5.98802418e-03, 1.19760484e-02,
          2.39520967e-02, 1.19760484e-02, 5.98802418e-03, 5.98802418e-03,
          1.19760484e-02, 2.39520967e-02, 2.99401209e-02, 5.98802418e-03,
          4.79041934e-02, 5.98802418e-03, 1.19760484e-02, 4.19161692e-02,
          1.19760484e-02, 1.19760484e-02, 2.99401209e-02, 5.98802418e-03,
          2.39520967e-02, 1.19760484e-02, 1.19760484e-02, 2.39520967e-02,
          4.19161692e-02, 1.79640725e-02, 4.19161692e-02, 2.39520967e-02,
          1.19760484e-02, 2.39520967e-02, 3.59281451e-02, 2.39520967e-02,
          1.79640725e-02, 3.59281451e-02, 5.98802418e-03, 1.19760484e-02,
          1.19760484e-02, 2.39520967e-02, 1.79640725e-02, 5.98802418e-03,
          1.19760484e-02, 4.79041934e-02, 3.59281451e-02, 1.19760484e-02,
          1.19760484e-02, 2.99401209e-02, 1.79640725e-02, 5.38922176e-02,
          1.79640725e-02, 0. ]
      - [ 1.32890362e-02, 2.32558139e-02, 3.98671106e-02, 2.99003311e-02,
          3.98671106e-02, 4.31893691e-02, 9.96677764e-03, 6.64451811e-03,
          3.32225906e-03, 9.96677764e-03, 1.66112948e-02, 1.99335553e-02,
          1.66112948e-02, 1.66112948e-02, 3.32225906e-03, 2.65780725e-02,
          6.64451811e-03, 9.96677764e-03, 1.99335553e-02, 1.66112948e-02,
          2.32558139e-02, 2.65780725e-02, 9.96677764e-03, 2.32558139e-02,
          1.99335553e-02, 1.66112948e-02, 2.65780725e-02, 6.64451811e-03,
          3.32225906e-03, 1.32890362e-02, 1.66112948e-02, 1.99335553e-02,
          6.64451811e-03, 9.30232555e-02, 0., 6.64451811e-03, 0.,
          1.66112948e-02, 1.32890362e-02, 1.66112948e-02, 7.97342211e-02,
          9.96677764e-03, 2.65780725e-02, 1.32890362e-02, 1.32890362e-02,
          4.65116277e-02, 2.65780725e-02, 2.65780725e-02, 1.66112948e-02,
          9.96677764e-03 ]
      - [ 2.30179019e-02, 3.58056277e-02, 3.58056277e-02, 1.27877239e-02,
          2.30179019e-02, 1.79028139e-02, 1.02301789e-02, 1.27877239e-02,
          5.11508947e-03, 2.30179019e-02, 2.30179019e-02, 2.04603579e-02,
          2.30179019e-02, 2.55754478e-02, 1.79028139e-02, 3.32480818e-02,
          1.27877239e-02, 7.67263398e-03, 2.04603579e-02, 1.27877239e-02,
          4.09207158e-02, 1.53452680e-02, 1.27877239e-02, 3.06905359e-02,
          3.83631699e-02, 7.67263398e-03, 1.79028139e-02, 7.67263398e-03,
          2.04603579e-02, 5.11508947e-03, 4.34782617e-02, 1.79028139e-02,
          2.30179019e-02, 3.83631699e-02, 2.04603579e-02, 1.79028139e-02,
          2.55754474e-03, 1.79028139e-02, 2.30179019e-02, 1.53452680e-02,
          3.58056277e-02, 1.53452680e-02, 4.34782617e-02, 1.53452680e-02,
          2.55754474e-03, 1.53452680e-02, 3.06905359e-02, 1.02301789e-02,
          1.27877239e-02, 5.11508947e-03 ]
      - [ 2.97029689e-02, 0., 1.98019799e-02, 1.98019799e-02,
          4.45544533e-02, 2.97029689e-02, 0., 0., 2.47524753e-02,
          1.98019799e-02, 2.97029689e-02, 4.95049497e-03, 1.48514844e-02,
          9.40594077e-02, 4.95049497e-03, 1.48514844e-02, 9.90098994e-03,
          4.95049497e-03, 2.97029689e-02, 2.47524753e-02, 2.97029689e-02,
          1.48514844e-02, 1.48514844e-02, 0., 9.90098994e-03,
          1.48514844e-02, 4.45544533e-02, 9.90098994e-03, 3.46534662e-02,
          0., 4.95049497e-03, 9.90098994e-03, 2.47524753e-02,
          5.94059378e-02, 2.47524753e-02, 4.95049497e-03, 0.,
          4.95049497e-03, 4.95049497e-03, 4.95049497e-03, 9.90099013e-02,
          1.48514844e-02, 2.97029689e-02, 0., 0., 6.93069324e-02,
          4.95049497e-03, 9.90098994e-03, 2.47524753e-02, 9.90098994e-03 ]
      - [ 1.44230779e-02, 1.92307699e-02, 2.40384620e-02, 1.44230779e-02,
          3.36538479e-02, 2.40384620e-02, 0., 4.80769249e-03,
          2.88461559e-02, 1.44230779e-02, 1.92307699e-02, 4.80769249e-03,
          1.92307699e-02, 5.28846160e-02, 4.80769249e-03, 9.61538497e-03,
          9.61538497e-03, 1.44230779e-02, 4.80769239e-02, 1.44230779e-02,
          3.84615399e-02, 1.44230779e-02, 9.61538497e-03, 0., 0.,
          9.61538497e-03, 2.88461559e-02, 9.61538497e-03, 9.61538497e-03,
          0., 1.44230779e-02, 3.36538479e-02, 4.32692319e-02,
          3.84615399e-02, 1.92307699e-02, 3.84615399e-02, 4.80769249e-03,
          4.80769249e-03, 0., 3.36538479e-02, 1.39423087e-01,
          4.80769249e-03, 2.88461559e-02, 4.80769249e-03, 0.,
          4.80769239e-02, 1.44230779e-02, 9.61538497e-03, 1.92307699e-02,
          4.80769249e-03 ]
      - [ 6.53594779e-03, 2.61437912e-02, 6.53594779e-03, 1.96078438e-02,
          1.30718956e-02, 1.30718956e-02, 3.92156877e-02, 1.30718956e-02,
          1.30718956e-02, 2.61437912e-02, 4.57516350e-02, 3.26797403e-02,
          1.30718956e-02, 6.53594779e-03, 3.92156877e-02, 3.26797403e-02,
          6.53594807e-02, 1.30718956e-02, 2.61437912e-02, 1.30718956e-02,
          1.30718956e-02, 1.96078438e-02, 3.26797403e-02, 1.96078438e-02,
          2.61437912e-02, 3.26797403e-02, 6.53594779e-03, 3.92156877e-02,
          1.30718956e-02, 5.22875823e-02, 0., 0., 0., 0., 6.53594779e-03,
          6.53594779e-03, 5.22875823e-02, 6.53594779e-03, 1.96078438e-02,
          6.53594779e-03, 6.53594779e-03, 3.26797403e-02, 1.30718956e-02,
          1.30718956e-02, 1.30718956e-02, 1.30718956e-02, 6.53594779e-03,
          3.92156877e-02, 1.96078438e-02, 2.61437912e-02 ]
      - [ 1.05263162e-02, 5.26315812e-03, 1.05263162e-02, 5.26315793e-02,
          3.15789506e-02, 3.68421078e-02, 5.26315812e-03, 1.05263162e-02,
          3.15789506e-02, 2.10526325e-02, 1.05263162e-02, 2.10526325e-02,
          0., 4.73684222e-02, 0., 3.15789506e-02, 1.57894753e-02,
          1.05263162e-02, 3.15789506e-02, 2.10526325e-02, 2.63157897e-02,
          5.26315812e-03, 1.05263162e-02, 4.21052650e-02, 0.,
          5.26315812e-03, 1.57894753e-02, 1.57894753e-02, 3.15789506e-02,
          0., 3.68421078e-02, 1.57894753e-02, 1.57894753e-02,
          4.73684222e-02, 2.63157897e-02, 2.10526325e-02, 1.05263162e-02,
          2.63157897e-02, 1.05263162e-02, 4.73684222e-02, 4.73684222e-02,
          1.57894753e-02, 5.26315812e-03, 2.10526325e-02, 1.05263162e-02,
          1.05263162e-02, 2.63157897e-02, 5.26315812e-03, 1.57894753e-02,
          2.63157897e-02 ]
      - [ 3.38164233e-02, 2.65700482e-02, 1.93236712e-02, 7.24637695e-03,
          1.93236712e-02, 2.41545886e-02, 1.93236712e-02, 4.83091781e-03,
          2.17391308e-02, 3.14009674e-02, 1.20772943e-02, 2.17391308e-02,
          1.69082116e-02, 3.86473425e-02, 4.83091781e-03, 2.17391308e-02,
          3.14009674e-02, 2.65700482e-02, 1.20772943e-02, 1.44927539e-02,
          1.44927539e-02, 1.93236712e-02, 2.17391308e-02, 3.86473425e-02,
          4.10628021e-02, 2.41545886e-02, 2.89855078e-02, 1.69082116e-02,
          2.89855078e-02, 2.65700482e-02, 2.17391308e-02, 1.20772943e-02,
          1.20772943e-02, 1.69082116e-02, 1.44927539e-02, 9.66183562e-03,
          2.89855078e-02, 2.65700482e-02, 4.83091781e-03, 4.83091781e-03,
          4.83091781e-03, 2.65700482e-02, 4.10628021e-02, 2.17391308e-02,
          9.66183562e-03, 2.41545886e-02, 7.24637695e-03, 1.20772943e-02,
          1.69082116e-02, 1.44927539e-02 ]
      - [ 2.27272715e-02, 1.81818176e-02, 6.81818184e-03, 6.81818184e-03,
          3.63636352e-02, 1.36363637e-02, 2.49999985e-02, 2.04545446e-02,
          6.81818184e-03, 6.81818184e-03, 1.36363637e-02, 2.27272715e-02,
          2.04545446e-02, 1.59090906e-02, 2.04545446e-02, 4.54545431e-02,
          3.63636352e-02, 1.81818176e-02, 2.49999985e-02, 2.27272715e-02,
          1.36363637e-02, 2.95454543e-02, 1.59090906e-02, 3.86363640e-02,
          9.09090880e-03, 2.04545446e-02, 1.81818176e-02, 2.27272715e-02,
          1.59090906e-02, 9.09090880e-03, 2.27272715e-02, 9.09090880e-03,
          2.49999985e-02, 2.95454543e-02, 1.81818176e-02, 1.81818176e-02,
          1.59090906e-02, 2.95454543e-02, 4.54545440e-03, 2.27272715e-02,
          1.36363637e-02, 1.59090906e-02, 1.59090906e-02, 9.09090880e-03,
          2.04545446e-02, 3.18181813e-02, 2.72727273e-02, 2.04545446e-02,
          2.27272715e-02, 2.95454543e-02 ]
      - [ 1.40515212e-02, 1.40515212e-02, 2.10772827e-02, 1.87353622e-02,
          2.57611237e-02, 1.87353622e-02, 2.10772827e-02, 1.40515212e-02,
          1.63934417e-02, 7.02576060e-03, 1.87353622e-02, 1.63934417e-02,
          3.27868834e-02, 2.10772827e-02, 2.10772827e-02, 1.17096016e-02,
          3.04449629e-02, 2.34192032e-02, 1.40515212e-02, 1.87353622e-02,
          7.02576060e-03, 2.10772827e-02, 1.87353622e-02, 3.74707244e-02,
          2.10772827e-02, 1.87353622e-02, 1.63934417e-02, 2.81030424e-02,
          1.40515212e-02, 1.87353622e-02, 3.74707244e-02, 1.17096016e-02,
          2.10772827e-02, 3.74707244e-02, 1.87353622e-02, 1.40515212e-02,
          1.63934417e-02, 3.27868834e-02, 3.04449629e-02, 1.63934417e-02,
          1.87353622e-02, 1.87353622e-02, 1.63934417e-02, 9.36768111e-03,
          1.87353622e-02, 3.27868834e-02, 3.04449629e-02, 1.17096016e-02,
          1.63934417e-02, 9.36768111e-03 ]
      - [ 0., 0., 1.41843967e-02, 1.41843967e-02, 7.09219873e-02,
          4.96453866e-02, 7.09219836e-03, 0., 2.83687934e-02, 0.,
          7.09219836e-03, 3.54609936e-02, 0., 2.83687934e-02, 0., 0.,
          2.83687934e-02, 7.09219836e-03, 1.41843967e-02, 4.96453866e-02,
          2.12765951e-02, 2.83687934e-02, 0., 3.54609936e-02, 0.,
          2.12765951e-02, 7.09219873e-02, 7.09219836e-03, 4.25531901e-02,
          0., 4.96453866e-02, 2.12765951e-02, 2.12765951e-02,
          4.96453866e-02, 2.83687934e-02, 7.09219836e-03, 0.,
          3.54609936e-02, 0., 1.41843967e-02, 7.80141801e-02,
          2.12765951e-02, 7.09219836e-03, 7.09219836e-03, 0.,
          3.54609936e-02, 2.12765951e-02, 7.09219836e-03, 7.09219836e-03,
          7.09219836e-03 ]
      - [ 1.59574468e-02, 1.06382975e-02, 0., 1.59574468e-02,
          4.25531901e-02, 3.72340418e-02, 5.31914877e-03, 1.06382975e-02,
          2.12765951e-02, 1.59574468e-02, 3.19148935e-02, 1.59574468e-02,
          0., 5.85106350e-02, 5.31914877e-03, 2.65957434e-02,
          2.12765951e-02, 0., 4.78723384e-02, 3.72340418e-02,
          3.72340418e-02, 1.06382975e-02, 0., 3.19148935e-02, 0.,
          1.59574468e-02, 4.25531901e-02, 1.59574468e-02, 6.38297871e-02,
          5.31914877e-03, 1.59574468e-02, 2.12765951e-02, 1.59574468e-02,
          4.25531901e-02, 1.06382975e-02, 5.31914877e-03, 0.,
          4.25531901e-02, 5.31914877e-03, 3.19148935e-02, 4.25531901e-02,
          0., 5.31914877e-03, 5.31914877e-03, 2.12765951e-02,
          3.19148935e-02, 1.59574468e-02, 1.59574468e-02, 2.12765951e-02,
          5.31914877e-03 ]
      - [ 8.03212821e-03, 1.60642564e-02, 4.01606411e-03, 4.01606411e-03,
          5.22088334e-02, 2.00803205e-02, 0., 1.20481923e-02,
          1.60642564e-02, 4.01606411e-03, 1.60642564e-02, 2.40963846e-02,
          1.60642564e-02, 6.82730898e-02, 1.20481923e-02, 2.40963846e-02,
          3.21285129e-02, 4.01606411e-03, 2.40963846e-02, 2.81124488e-02,
          4.01606411e-02, 2.00803205e-02, 0., 2.81124488e-02,
          4.01606411e-03, 1.20481923e-02, 4.01606411e-02, 2.81124488e-02,
          1.60642564e-02, 0., 4.41767052e-02, 2.00803205e-02,
          2.00803205e-02, 6.02409616e-02, 2.40963846e-02, 8.03212821e-03,
          4.01606411e-03, 3.61445770e-02, 8.03212821e-03, 2.40963846e-02,
          4.81927693e-02, 4.01606411e-03, 4.01606411e-03, 1.60642564e-02,
          4.01606411e-03, 3.21285129e-02, 2.81124488e-02, 8.03212821e-03,
          2.40963846e-02, 8.03212821e-03 ]
      - [ 3.21285129e-02, 4.41767052e-02, 1.60642564e-02, 2.40963846e-02,
          2.00803205e-02, 1.60642564e-02, 4.01606411e-03, 3.61445770e-02,
          8.03212821e-03, 8.03212821e-03, 1.60642564e-02, 2.00803205e-02,
          8.03212821e-03, 8.03212821e-03, 3.61445770e-02, 3.61445770e-02,
          1.60642564e-02, 2.81124488e-02, 2.81124488e-02, 2.40963846e-02,
          1.20481923e-02, 3.61445770e-02, 4.01606411e-03, 2.00803205e-02,
          1.60642564e-02, 3.21285129e-02, 2.40963846e-02, 2.40963846e-02,
          2.00803205e-02, 1.60642564e-02, 3.21285129e-02, 4.01606411e-03,
          1.60642564e-02, 1.60642564e-02, 3.61445770e-02, 1.20481923e-02,
          0., 2.81124488e-02, 2.00803205e-02, 2.00803205e-02,
          8.03212821e-03, 1.20481923e-02, 2.00803205e-02, 2.40963846e-02,
          1.20481923e-02, 8.03212821e-03, 3.21285129e-02, 2.00803205e-02,
          2.40963846e-02, 2.00803205e-02 ]
      - [ 1.26366112e-02, 1.02459015e-02, 1.36612020e-02, 3.24453525e-02,
          2.15163920e-02, 1.53688518e-02, 7.51366094e-03, 9.56284162e-03,
          2.86885239e-02, 1.09289614e-02, 3.44945341e-02, 1.84426233e-02,
          1.16120214e-02, 1.91256832e-02, 2.11748630e-02, 1.94672123e-02,
          1.74180325e-02, 1.02459015e-02, 3.00546438e-02, 2.42486335e-02,
          1.50273219e-02, 1.57103818e-02, 1.16120214e-02, 2.90300529e-02,
          2.28825137e-02, 2.97131147e-02, 3.10792346e-02, 3.65437157e-02,
          3.21038254e-02, 1.63934417e-02, 2.28825137e-02, 2.18579229e-02,
          2.18579229e-02, 3.85928936e-02, 3.24453525e-02, 1.29781421e-02,
          1.09289614e-02, 1.74180325e-02, 3.38114761e-02, 2.52732225e-02,
          1.81010924e-02, 1.16120214e-02, 1.53688518e-02, 1.36612020e-02,
          1.29781421e-02, 1.19535513e-02, 1.87841523e-02, 1.19535513e-02,
          2.62978133e-02, 1.22950813e-02 ]
      - [ 3.02222222e-02, 2.31111106e-02, 3.73333320e-02, 1.15555553e-02,
          2.75555551e-02, 1.68888886e-02, 3.20000015e-02, 8.88888910e-03,
          1.33333337e-02, 1.60000008e-02, 2.04444453e-02, 2.31111106e-02,
          1.33333337e-02, 1.06666666e-02, 1.60000008e-02, 2.48888899e-02,
          2.40000002e-02, 7.11111119e-03, 2.66666673e-02, 1.33333337e-02,
          1.24444449e-02, 8.00000038e-03, 9.77777783e-03, 4.08888906e-02,
          3.46666686e-02, 1.33333337e-02, 1.33333337e-02, 1.24444449e-02,
          1.24444449e-02, 2.66666673e-02, 3.46666686e-02, 7.11111119e-03,
          7.11111119e-03, 3.20000015e-02, 1.95555557e-02, 2.04444453e-02,
          3.37777771e-02, 2.31111106e-02, 4.44444455e-03, 2.31111106e-02,
          4.35555577e-02, 2.13333331e-02, 2.48888899e-02, 8.88888910e-03,
          1.42222224e-02, 3.64444442e-02, 1.42222224e-02, 2.31111106e-02,
          1.42222224e-02, 1.33333337e-02 ]
      - [ 2.82258056e-02, 8.06451589e-03, 6.04838692e-03, 2.41935477e-02,
          2.41935477e-02, 2.62096766e-02, 1.61290318e-02, 2.01612897e-02,
          1.81451607e-02, 2.01612897e-02, 2.41935477e-02, 2.82258056e-02,
          1.61290318e-02, 2.21774187e-02, 2.01612897e-02, 1.81451607e-02,
          2.41935477e-02, 2.01612897e-02, 2.01612897e-02, 3.02419346e-02,
          1.61290318e-02, 1.61290318e-02, 1.41129028e-02, 3.62903215e-02,
          1.61290318e-02, 3.83064523e-02, 1.20967738e-02, 1.41129028e-02,
          2.21774187e-02, 1.61290318e-02, 3.02419346e-02, 2.41935477e-02,
          2.01612897e-02, 3.42741907e-02, 2.01612897e-02, 1.41129028e-02,
          1.00806449e-02, 2.41935477e-02, 1.81451607e-02, 2.01612897e-02,
          1.00806449e-02, 1.20967738e-02, 2.01612897e-02, 2.21774187e-02,
          6.04838692e-03, 8.06451589e-03, 2.01612897e-02, 2.01612897e-02,
          3.02419346e-02, 1.81451607e-02 ]
      - [ 3.47957611e-02, 1.66414510e-02, 1.36157330e-02, 1.21028740e-02,
          1.81543119e-02, 1.51285920e-02, 3.02571841e-02, 1.36157330e-02,
          1.21028740e-02, 1.36157330e-02, 2.26928890e-02, 2.87443250e-02,
          1.81543119e-02, 3.32829021e-02, 2.42057480e-02, 1.96671709e-02,
          2.87443250e-02, 1.51285920e-02, 2.57186070e-02, 1.51285920e-02,
          1.51285920e-02, 1.81543119e-02, 1.81543119e-02, 2.11800300e-02,
          3.93343419e-02, 2.26928890e-02, 2.26928890e-02, 3.02571841e-02,
          1.36157330e-02, 1.96671709e-02, 3.78214829e-02, 1.21028740e-02,
          1.81543119e-02, 3.78214829e-02, 1.96671709e-02, 2.87443250e-02,
          1.51285920e-02, 2.42057480e-02, 1.81543119e-02, 1.05900150e-02,
          6.05143700e-03, 1.81543119e-02, 1.81543119e-02, 1.36157330e-02,
          9.07715596e-03, 1.05900150e-02, 1.66414510e-02, 1.96671709e-02,
          1.66414510e-02, 1.66414510e-02 ]
      - [ 2.79741772e-02, 1.19889332e-02, 1.75222866e-02, 2.05963720e-02,
          1.13741159e-02, 3.10482625e-02, 2.12111901e-02, 1.99815556e-02,
          1.87519211e-02, 2.64371336e-02, 2.02889629e-02, 1.62926521e-02,
          1.22963414e-02, 3.07408534e-02, 1.78296957e-02, 2.12111901e-02,
          2.09037811e-02, 1.29111586e-02, 1.29111586e-02, 1.50630185e-02,
          1.75222866e-02, 1.44482013e-02, 1.32185668e-02, 5.37964962e-02,
          2.61297263e-02, 2.73593608e-02, 1.47556104e-02, 1.50630185e-02,
          1.99815556e-02, 1.16815241e-02, 2.39778664e-02, 2.27482319e-02,
          1.90593302e-02, 2.18260065e-02, 2.88964026e-02, 2.55149081e-02,
          2.05963720e-02, 1.35259759e-02, 2.98186280e-02, 2.73593608e-02,
          1.22963414e-02, 2.79741772e-02, 7.99262244e-03, 1.38333840e-02,
          1.59852449e-02, 1.22963414e-02, 1.50630185e-02, 2.64371336e-02,
          1.81371029e-02, 1.53704267e-02 ]
      - [ 2.02127658e-02, 2.65957434e-02, 3.40425521e-02, 2.55319141e-02,
          2.02127658e-02, 2.55319141e-02, 1.27659570e-02, 1.06382975e-02,
          2.12765951e-02, 1.48936165e-02, 6.38297852e-03, 2.02127658e-02,
          3.19148935e-02, 1.80851053e-02, 5.31914877e-03, 2.12765951e-02,
          1.91489346e-02, 2.12765951e-02, 1.70212761e-02, 1.48936165e-02,
          2.02127658e-02, 1.70212761e-02, 1.27659570e-02, 2.55319141e-02,
          1.80851053e-02, 1.27659570e-02, 1.59574468e-02, 1.48936165e-02,
          1.48936165e-02, 1.80851053e-02, 2.23404244e-02, 1.91489346e-02,
          1.17021278e-02, 3.08510624e-02, 1.48936165e-02, 1.48936165e-02,
          2.23404244e-02, 7.44680827e-03, 9.57446732e-03, 2.76595727e-02,
          4.46808487e-02, 1.17021278e-02, 3.72340418e-02, 1.06382975e-02,
          8.51063803e-03, 9.14893597e-02, 2.12765951e-02, 1.27659570e-02,
          1.59574468e-02, 7.44680827e-03 ]
      - [ 1.87258683e-02, 1.19691119e-02, 1.21621620e-02, 2.81853285e-02,
          2.10424699e-02, 2.50965245e-02, 1.40926642e-02, 1.69884171e-02,
          4.18918915e-02, 1.64092667e-02, 2.49034744e-02, 1.44787645e-02,
          1.52509650e-02, 3.76447886e-02, 1.29343625e-02, 1.75675675e-02,
          1.96911190e-02, 1.15830116e-02, 1.93050187e-02, 2.14285702e-02,
          2.04633195e-02, 2.04633195e-02, 1.02316597e-02, 1.98841691e-02,
          2.04633195e-02, 1.40926642e-02, 3.14671807e-02, 2.23938227e-02,
          3.62934358e-02, 2.72200760e-02, 1.66023169e-02, 2.56756749e-02,
          2.85714287e-02, 2.49034744e-02, 2.81853285e-02, 2.52895746e-02,
          1.11969113e-02, 1.35135129e-02, 1.44787645e-02, 2.68339757e-02,
          1.94980688e-02, 1.58301163e-02, 1.58301163e-02, 1.19691119e-02,
          1.50579149e-02, 1.33204628e-02, 2.02702694e-02, 1.67953670e-02,
          1.62162166e-02, 1.56370662e-02 ]
      - [ 1.86542310e-02, 2.73151249e-02, 2.03197878e-02, 1.39906732e-02,
          1.69886742e-02, 2.19853446e-02, 1.29913390e-02, 1.36575624e-02,
          1.66555643e-02, 1.63224526e-02, 1.53231183e-02, 1.43237840e-02,
          1.89873427e-02, 1.73217859e-02, 1.59893408e-02, 3.79746854e-02,
          1.49900075e-02, 1.13257831e-02, 2.16522329e-02, 1.76548976e-02,
          1.96535643e-02, 2.09860094e-02, 1.19920056e-02, 3.96402404e-02,
          4.86342460e-02, 2.53164563e-02, 1.43237840e-02, 1.89873427e-02,
          1.46568958e-02, 1.69886742e-02, 2.06528977e-02, 1.79880075e-02,
          1.86542310e-02, 2.83144582e-02, 1.23251174e-02, 1.56562291e-02,
          2.36508995e-02, 1.69886742e-02, 1.93204544e-02, 1.93204544e-02,
          3.96402404e-02, 1.59893408e-02, 2.16522329e-02, 1.69886742e-02,
          1.43237840e-02, 1.89873427e-02, 2.13191211e-02, 1.93204544e-02,
          2.63157897e-02, 1.69886742e-02 ]
      - [ 1.56062422e-02, 1.92076825e-02, 1.68067217e-02, 1.80072021e-02,
          1.74069628e-02, 1.74069628e-02, 1.08043216e-02, 1.86074432e-02,
          1.26050413e-02, 1.32052815e-02, 1.74069628e-02, 2.52100825e-02,
          2.22088825e-02, 1.56062422e-02, 2.76110433e-02, 4.44177650e-02,
          2.28091236e-02, 1.32052815e-02, 1.74069628e-02, 1.56062422e-02,
          1.62064824e-02, 1.74069628e-02, 2.40096040e-02, 3.00120041e-02,
          4.14165668e-02, 3.42136845e-02, 1.32052815e-02, 2.10084021e-02,
          1.44057618e-02, 2.58103237e-02, 1.44057618e-02, 1.68067217e-02,
          1.38055217e-02, 1.56062422e-02, 1.50060020e-02, 1.38055217e-02,
          2.82112844e-02, 1.62064824e-02, 3.12124845e-02, 1.26050413e-02,
          1.38055217e-02, 1.74069628e-02, 2.94117630e-02, 1.68067217e-02,
          2.10084021e-02, 2.10084021e-02, 2.10084021e-02, 1.50060020e-02,
          3.18127237e-02, 1.62064824e-02 ]
      - [ 1.83486231e-02, 1.83486231e-02, 9.17431153e-03, 3.66972461e-02,
          1.83486231e-02, 9.17431153e-03, 1.83486231e-02, 2.75229346e-02,
          1.83486231e-02, 1.83486231e-02, 1.83486231e-02, 4.58715558e-02,
          1.83486231e-02, 0., 2.75229346e-02, 4.58715558e-02,
          4.58715558e-02, 1.83486231e-02, 1.83486231e-02, 9.17431153e-03,
          1.83486231e-02, 9.17431153e-03, 9.17431153e-03, 1.83486231e-02,
          1.83486231e-02, 6.42201826e-02, 9.17431153e-03, 5.50458692e-02,
          0., 9.17431153e-03, 2.75229346e-02, 9.17431153e-03, 0.,
          1.83486231e-02, 0., 0., 6.42201826e-02, 5.50458692e-02,
          9.17431153e-03, 0., 4.58715558e-02, 0., 2.75229346e-02,
          1.83486231e-02, 1.83486231e-02, 9.17431153e-03, 0.,
          1.83486231e-02, 1.83486231e-02, 9.17431153e-03 ]
      - [ 3.13653126e-02, 1.29151288e-02, 9.22509283e-03, 1.66051667e-02,
          1.47601478e-02, 1.84501857e-02, 1.29151288e-02, 1.66051667e-02,
          1.10701108e-02, 1.29151288e-02, 1.84501857e-02, 9.22509283e-03,
          1.10701108e-02, 3.13653126e-02, 1.10701108e-02, 4.42804433e-02,
          2.02952027e-02, 9.22509283e-03, 2.76752766e-02, 1.10701108e-02,
          2.02952027e-02, 2.58302577e-02, 7.38007389e-03, 5.71955740e-02,
          1.10701108e-02, 2.39852406e-02, 3.32103334e-02, 1.84501857e-02,
          2.58302577e-02, 5.53505542e-03, 3.32103334e-02, 9.22509283e-03,
          1.47601478e-02, 3.50553505e-02, 2.02952027e-02, 1.47601478e-02,
          1.84501847e-03, 2.39852406e-02, 1.10701108e-02, 2.58302577e-02,
          2.58302577e-02, 2.95202956e-02, 7.38007389e-03, 2.76752766e-02,
          1.84501857e-02, 1.84501857e-02, 2.39852406e-02, 2.58302577e-02,
          1.84501857e-02, 3.50553505e-02 ]
      - [ 2.06896551e-02, 3.44827585e-02, 1.51724145e-02, 1.93103459e-02,
          1.93103459e-02, 1.37931034e-02, 2.75862068e-02, 1.65517256e-02,
          9.65517294e-03, 1.79310348e-02, 1.51724145e-02, 2.20689662e-02,
          2.34482773e-02, 1.37931034e-02, 2.06896551e-02, 1.93103459e-02,
          2.75862068e-02, 2.06896551e-02, 1.93103459e-02, 1.10344831e-02,
          1.37931034e-02, 1.24137932e-02, 2.89655179e-02, 1.93103459e-02,
          2.75862068e-02, 3.17241400e-02, 1.24137932e-02, 1.51724145e-02,
          1.93103459e-02, 3.44827585e-02, 1.37931034e-02, 9.65517294e-03,
          4.13793139e-03, 3.31034511e-02, 1.51724145e-02, 1.51724145e-02,
          2.89655179e-02, 2.75862068e-02, 2.48275865e-02, 2.06896551e-02,
          3.17241400e-02, 1.93103459e-02, 4.68965545e-02, 1.65517256e-02,
          9.65517294e-03, 3.17241400e-02, 1.10344831e-02, 1.93103459e-02,
          1.10344831e-02, 6.89655170e-03 ]
      - [ 2.09790207e-02, 3.26340348e-02, 3.72960381e-02, 4.66200477e-03,
          1.63170174e-02, 3.26340348e-02, 3.26340348e-02, 6.99300691e-03,
          2.33100238e-03, 1.86480191e-02, 1.39860138e-02, 2.33100243e-02,
          2.33100238e-03, 2.33100243e-02, 1.39860138e-02, 1.63170174e-02,
          2.33100243e-02, 1.86480191e-02, 6.99300691e-03, 4.66200477e-03,
          2.33100243e-02, 4.66200477e-03, 1.39860138e-02, 3.03030312e-02,
          1.16550121e-02, 1.86480191e-02, 9.32400953e-03, 1.39860138e-02,
          1.16550121e-02, 6.99300691e-03, 3.49650346e-02, 1.16550121e-02,
          1.86480191e-02, 3.72960381e-02, 6.99300691e-03, 1.16550121e-02,
          1.16550121e-02, 2.33100243e-02, 0., 9.32400953e-03,
          2.79720277e-02, 1.63170174e-02, 3.96270417e-02, 1.16550121e-02,
          1.63170174e-02, 1.67832166e-01, 0., 2.56410260e-02,
          1.86480191e-02, 1.39860138e-02 ]
      - [ 3.60520110e-02, 1.71394795e-02, 1.65484641e-02, 1.89125296e-02,
          1.30023640e-02, 2.83687934e-02, 2.12765951e-02, 1.35933803e-02,
          2.24586297e-02, 2.60047279e-02, 1.59574468e-02, 1.18203312e-02,
          3.13238762e-02, 3.36879417e-02, 1.77304968e-02, 2.42316779e-02,
          1.30023640e-02, 2.60047279e-02, 1.30023640e-02, 1.24113476e-02,
          2.18676124e-02, 8.86524841e-03, 2.24586297e-02, 3.72340418e-02,
          3.78250591e-02, 2.30496451e-02, 1.59574468e-02, 1.00472812e-02,
          2.18676124e-02, 4.01891246e-02, 2.65957452e-02, 8.86524841e-03,
          1.59574468e-02, 1.95035469e-02, 2.18676124e-02, 1.59574468e-02,
          1.35933803e-02, 1.65484641e-02, 1.18203312e-02, 1.77304968e-02,
          2.00945623e-02, 3.66430245e-02, 2.60047279e-02, 1.12293148e-02,
          1.06382975e-02, 1.77304968e-02, 1.18203312e-02, 2.18676124e-02,
          9.45626479e-03, 1.41843967e-02 ]
      - [ 4.08602171e-02, 2.79569905e-02, 1.29032265e-02, 1.93548389e-02,
          2.15053763e-02, 8.60215072e-03, 2.36559138e-02, 1.29032265e-02,
          1.72043014e-02, 3.01075280e-02, 1.72043014e-02, 3.01075280e-02,
          1.07526882e-02, 6.45161327e-03, 6.45161327e-03, 4.08602171e-02,
          3.01075280e-02, 2.15053763e-02, 1.93548389e-02, 1.07526882e-02,
          4.30107536e-03, 4.30107536e-03, 2.79569905e-02, 4.73118275e-02,
          2.58064531e-02, 1.93548389e-02, 6.45161327e-03, 1.50537640e-02,
          4.30107536e-03, 3.65591422e-02, 3.22580636e-02, 2.15053763e-02,
          1.93548389e-02, 1.72043014e-02, 1.07526882e-02, 2.79569905e-02,
          2.15053763e-02, 2.36559138e-02, 1.07526882e-02, 2.15053763e-02,
          3.22580636e-02, 1.29032265e-02, 2.15053763e-02, 1.50537640e-02,
          1.93548389e-02, 3.65591422e-02, 8.60215072e-03, 3.01075280e-02,
          1.07526882e-02, 6.45161327e-03 ]
      - [ 4.00843844e-02, 1.89873409e-02, 1.26582272e-02, 2.32067499e-02,
          2.10970454e-02, 2.32067499e-02, 1.26582272e-02, 1.05485227e-02,
          1.26582272e-02, 2.95358635e-02, 1.47679318e-02, 2.32067499e-02,
          1.47679318e-02, 2.53164545e-02, 6.32911362e-03, 1.47679318e-02,
          4.00843844e-02, 1.26582272e-02, 1.89873409e-02, 2.10970454e-02,
          1.47679318e-02, 1.89873409e-02, 3.16455662e-02, 2.74261590e-02,
          1.68776363e-02, 1.68776363e-02, 1.47679318e-02, 2.32067499e-02,
          1.89873409e-02, 1.68776363e-02, 1.05485227e-02, 1.47679318e-02,
          1.26582272e-02, 4.43037972e-02, 1.68776363e-02, 2.10970454e-02,
          6.32911362e-03, 1.05485227e-02, 2.10970454e-02, 2.95358635e-02,
          2.74261590e-02, 2.10970454e-02, 3.58649790e-02, 1.05485227e-02,
          2.10970454e-02, 2.10970454e-02, 1.26582272e-02, 1.26582272e-02,
          3.16455662e-02, 2.10970454e-02 ]
      - [ 1.71122998e-02, 1.28342248e-02, 1.06951874e-02, 2.56684497e-02,
          1.17647061e-02, 3.63636389e-02, 7.48663116e-03, 1.92513373e-02,
          2.67379694e-02, 2.67379694e-02, 1.81818195e-02, 2.03208551e-02,
          1.49732623e-02, 3.31550799e-02, 1.60427801e-02, 2.45989300e-02,
          2.24598944e-02, 2.35294122e-02, 2.35294122e-02, 7.48663116e-03,
          2.13903747e-02, 2.13903747e-02, 2.35294122e-02, 4.59893048e-02,
          3.63636389e-02, 1.39037436e-02, 2.45989300e-02, 8.55614990e-03,
          1.92513373e-02, 3.31550799e-02, 8.55614990e-03, 1.81818195e-02,
          2.88770050e-02, 3.52941193e-02, 2.24598944e-02, 1.39037436e-02,
          2.13903747e-02, 8.55614990e-03, 1.49732623e-02, 1.49732623e-02,
          2.13903747e-02, 1.81818195e-02, 2.35294122e-02, 1.06951874e-02,
          8.55614990e-03, 1.92513373e-02, 2.67379694e-02, 1.28342248e-02,
          1.17647061e-02, 1.28342248e-02 ]
      - [ 1.94931775e-02, 9.74658877e-03, 9.74658877e-03, 3.31384018e-02,
          3.50877196e-02, 3.70370373e-02, 1.94931775e-03, 1.16959065e-02,
          2.14424953e-02, 1.55945420e-02, 2.33918130e-02, 1.36452243e-02,
          5.84795326e-03, 4.67836261e-02, 1.55945420e-02, 1.94931775e-02,
          3.11890841e-02, 1.16959065e-02, 2.14424953e-02, 2.14424953e-02,
          1.75438598e-02, 1.36452243e-02, 1.55945420e-02, 5.26315793e-02,
          4.09356728e-02, 1.94931775e-02, 3.50877196e-02, 1.75438598e-02,
          4.09356728e-02, 1.75438598e-02, 5.84795326e-03, 1.36452243e-02,
          2.14424953e-02, 2.14424953e-02, 2.72904485e-02, 1.94931775e-02,
          1.94931775e-03, 1.55945420e-02, 1.75438598e-02, 3.50877196e-02,
          2.72904485e-02, 5.84795326e-03, 7.79727101e-03, 1.36452243e-02,
          1.36452243e-02, 1.55945420e-02, 1.55945420e-02, 1.16959065e-02,
          1.94931775e-02, 1.36452243e-02 ]
      - [ 1.13493064e-02, 1.63934417e-02, 1.00882724e-02, 1.00882724e-02,
          2.26986129e-02, 1.63934417e-02, 1.00882724e-02, 1.38713745e-02,
          7.56620429e-03, 1.38713745e-02, 6.30517025e-03, 1.63934417e-02,
          2.26986129e-02, 2.26986129e-02, 1.38713745e-02, 2.77427491e-02,
          1.38713745e-02, 2.39596479e-02, 2.90037841e-02, 2.01765448e-02,
          1.51324086e-02, 1.51324086e-02, 1.26103405e-02, 9.33165178e-02,
          5.80075681e-02, 1.51324086e-02, 2.14375779e-02, 1.13493064e-02,
          1.13493064e-02, 3.65699865e-02, 7.56620429e-03, 1.26103405e-02,
          1.00882724e-02, 7.81841129e-02, 1.76544767e-02, 1.26103405e-02,
          2.90037841e-02, 1.38713745e-02, 1.00882724e-02, 1.13493064e-02,
          3.02648172e-02, 1.26103405e-02, 2.52206810e-02, 1.38713745e-02,
          2.01765448e-02, 3.15258503e-02, 1.00882724e-02, 8.82723834e-03,
          1.00882724e-02, 1.51324086e-02 ]
      - [ 2.97691394e-02, 9.41676833e-03, 3.64520075e-03, 2.24787369e-02,
          1.24544352e-02, 3.12879719e-02, 2.46051047e-02, 1.57958698e-02,
          3.52369398e-02, 1.85297690e-02, 3.00729051e-02, 1.54921031e-02,
          2.27825046e-02, 3.18955071e-02, 2.43013371e-02, 1.45808030e-02,
          2.12636702e-02, 8.20170157e-03, 1.21506685e-02, 2.09599044e-02,
          2.12636702e-02, 2.64277048e-02, 1.06318351e-02, 1.30619686e-02,
          6.98663434e-03, 2.15674378e-02, 2.76427716e-02, 2.73390040e-02,
          3.40218730e-02, 2.73390044e-03, 2.09599044e-02, 3.34143378e-02,
          3.43256406e-02, 1.18469018e-02, 3.43256406e-02, 3.37181054e-02,
          3.64520075e-03, 1.36695020e-02, 1.48845697e-02, 2.55164038e-02,
          6.07533427e-03, 3.21992710e-02, 1.82260037e-03, 1.42770354e-02,
          1.94410700e-02, 3.94896744e-03, 3.03766727e-02, 3.00729051e-02,
          2.09599044e-02, 1.79222357e-02 ]
      - [ 1.37082608e-02, 1.26537792e-02, 2.00351495e-02, 2.21441127e-02,
          2.53075585e-02, 2.14411262e-02, 1.01933219e-02, 1.65202115e-02,
          1.93321630e-02, 1.23022851e-02, 1.75746921e-02, 1.12478035e-02,
          1.58172231e-02, 1.40597541e-02, 2.70650275e-02, 1.26537792e-02,
          1.51142357e-02, 1.72231998e-02, 2.60105450e-02, 3.93673107e-02,
          2.07381379e-02, 2.31985953e-02, 2.00351495e-02, 2.07381379e-02,
          2.21441127e-02, 2.91739907e-02, 2.10896321e-02, 2.03866437e-02,
          2.56590508e-02, 1.37082608e-02, 1.89806689e-02, 1.44112483e-02,
          1.68717057e-02, 3.02284714e-02, 1.65202115e-02, 1.30052725e-02,
          1.54657299e-02, 1.93321630e-02, 3.47978920e-02, 1.68717057e-02,
          2.24956069e-02, 1.40597541e-02, 3.02284714e-02, 2.14411262e-02,
          2.35500876e-02, 2.46045701e-02, 1.96836554e-02, 1.30052725e-02,
          2.91739907e-02, 1.86291747e-02 ]
      - [ 9.85221658e-03, 1.31362891e-02, 1.64203607e-02, 1.80623978e-02,
          3.77668329e-02, 1.97044332e-02, 3.11986860e-02, 9.85221658e-03,
          4.92610829e-03, 1.64203607e-02, 1.80623978e-02, 2.13464703e-02,
          1.14942528e-02, 1.31362891e-02, 1.80623978e-02, 1.64203607e-02,
          1.80623978e-02, 1.80623978e-02, 4.10509035e-02, 1.31362891e-02,
          9.85221658e-03, 1.80623978e-02, 9.85221658e-03, 3.77668329e-02,
          1.97044332e-02, 1.97044332e-02, 2.46305428e-02, 3.61247957e-02,
          1.47783253e-02, 9.85221658e-03, 3.11986860e-02, 1.64203607e-02,
          2.29885057e-02, 4.92610857e-02, 1.80623978e-02, 2.13464703e-02,
          2.29885057e-02, 3.44827585e-02, 1.31362891e-02, 2.46305428e-02,
          2.46305428e-02, 2.95566507e-02, 1.64203607e-02, 1.31362891e-02,
          1.31362891e-02, 1.14942528e-02, 2.46305428e-02, 1.80623978e-02,
          2.13464703e-02, 6.56814454e-03 ]
      - [ 3.43137272e-02, 3.92156877e-02, 2.69607846e-02, 1.47058833e-02,
          2.20588241e-02, 1.71568636e-02, 1.47058833e-02, 7.35294167e-03,
          1.71568636e-02, 3.43137272e-02, 1.96078438e-02, 2.45098043e-02,
          1.47058833e-02, 9.80392192e-03, 2.20588241e-02, 5.14705889e-02,
          2.20588241e-02, 1.71568636e-02, 1.96078438e-02, 7.35294167e-03,
          9.80392192e-03, 1.22549022e-02, 1.22549022e-02, 2.69607846e-02,
          1.96078438e-02, 2.45098043e-02, 1.71568636e-02, 2.69607846e-02,
          1.22549022e-02, 2.45098048e-03, 2.20588241e-02, 1.71568636e-02,
          1.22549022e-02, 9.80392192e-03, 2.20588241e-02, 9.80392192e-03,
          1.96078438e-02, 2.20588241e-02, 1.96078438e-02, 1.47058833e-02,
          1.71568636e-02, 3.18627469e-02, 1.47058833e-02, 1.47058833e-02,
          1.22549022e-02, 4.90196086e-02, 1.71568636e-02, 3.43137272e-02,
          2.69607846e-02, 1.22549022e-02 ]
      - [ 2.76816618e-02, 2.07612459e-02, 4.15224917e-02, 6.92041544e-03,
          1.03806229e-02, 3.46020772e-03, 6.92041516e-02, 1.73010379e-02,
          1.03806229e-02, 1.03806229e-02, 1.73010379e-02, 2.07612459e-02,
          2.07612459e-02, 1.38408309e-02, 1.38408309e-02, 2.07612459e-02,
          3.46020758e-02, 1.73010379e-02, 1.03806229e-02, 3.46020772e-03,
          3.46020772e-03, 0., 1.73010379e-02, 5.19031174e-02,
          5.53633235e-02, 1.38408309e-02, 3.46020772e-03, 2.07612459e-02,
          0., 6.92041544e-03, 7.26643652e-02, 3.46020772e-03,
          6.92041544e-03, 3.46020758e-02, 1.38408309e-02, 1.03806229e-02,
          3.46020772e-03, 5.19031174e-02, 0., 1.38408309e-02,
          1.03806229e-02, 3.11418697e-02, 5.88235296e-02, 3.46020772e-03,
          1.38408309e-02, 2.07612459e-02, 6.92041544e-03, 5.88235296e-02,
          6.92041544e-03, 1.38408309e-02 ]
      - [ 4.52127643e-02, 1.59574468e-02, 1.32978717e-02, 2.39361692e-02,
          7.97872338e-03, 2.65957434e-02, 1.32978717e-02, 1.59574468e-02,
          3.19148935e-02, 2.39361692e-02, 1.59574468e-02, 2.65957434e-02,
          1.59574468e-02, 3.98936160e-02, 1.59574468e-02, 2.65957434e-02,
          5.31914867e-02, 5.31914877e-03, 1.06382975e-02, 1.86170209e-02,
          3.19148935e-02, 2.39361692e-02, 5.31914877e-03, 3.72340418e-02,
          2.39361692e-02, 2.39361692e-02, 2.65957434e-02, 1.86170209e-02,
          1.86170209e-02, 7.97872338e-03, 1.32978717e-02, 2.12765951e-02,
          2.65957434e-02, 1.32978717e-02, 2.12765951e-02, 1.32978717e-02,
          2.65957438e-03, 1.32978717e-02, 1.32978717e-02, 1.59574468e-02,
          2.12765951e-02, 1.06382975e-02, 1.59574468e-02, 1.59574468e-02,
          2.92553175e-02, 2.65957434e-02, 2.12765951e-02, 1.59574468e-02,
          1.86170209e-02, 5.31914877e-03 ]
      - [ 3.25443782e-02, 2.66272202e-02, 1.47928996e-02, 1.47928996e-02,
          2.07100585e-02, 8.87573976e-03, 1.77514795e-02, 1.47928996e-02,
          1.47928996e-02, 2.66272202e-02, 5.91715984e-03, 3.84615399e-02,
          8.87573976e-03, 2.95857992e-02, 2.07100585e-02, 2.36686394e-02,
          2.66272202e-02, 2.66272202e-02, 1.18343197e-02, 2.95857992e-03,
          1.18343197e-02, 1.47928996e-02, 1.77514795e-02, 2.36686394e-02,
          8.87573976e-03, 1.77514795e-02, 1.47928996e-02, 1.77514795e-02,
          8.87573976e-03, 8.87573976e-03, 4.14201170e-02, 1.77514795e-02,
          1.47928996e-02, 1.47928996e-02, 1.77514795e-02, 8.87573976e-03,
          2.36686394e-02, 3.55029590e-02, 1.18343197e-02, 2.95857992e-02,
          8.87573976e-03, 1.18343197e-02, 2.95857992e-02, 3.84615399e-02,
          1.77514795e-02, 4.73372787e-02, 2.66272202e-02, 2.95857992e-02,
          1.47928996e-02, 2.66272202e-02 ]
      - [ 1.32714007e-02, 1.99071001e-02, 3.18513587e-02, 2.65428014e-02,
          2.72063706e-02, 1.52621102e-02, 1.65892504e-02, 1.45985400e-02,
          1.32714007e-02, 9.28997993e-03, 1.99071001e-02, 1.65892504e-02,
          1.52621102e-02, 1.45985400e-02, 2.58792304e-02, 1.39349699e-02,
          1.85799599e-02, 1.06171202e-02, 2.91970801e-02, 3.91506292e-02,
          1.85799599e-02, 2.05706712e-02, 1.79163907e-02, 2.91970801e-02,
          2.45520901e-02, 3.18513587e-02, 2.12342404e-02, 1.59256794e-02,
          1.52621102e-02, 6.63570035e-03, 2.85335109e-02, 1.06171202e-02,
          1.19442604e-02, 2.18978096e-02, 1.39349699e-02, 1.32714007e-02,
          1.99071001e-02, 3.18513587e-02, 2.52156612e-02, 1.59256794e-02,
          3.78234908e-02, 1.19442604e-02, 3.25149298e-02, 1.99071001e-02,
          1.39349699e-02, 2.78699398e-02, 2.25613806e-02, 1.79163907e-02,
          1.59256794e-02, 1.32714007e-02 ]
      - [ 3.20000015e-02, 0., 0., 4.00000028e-02, 4.80000004e-02,
          3.20000015e-02, 2.40000002e-02, 0., 8.00000038e-03,
          4.00000028e-02, 1.60000008e-02, 3.20000015e-02, 2.40000002e-02,
          2.40000002e-02, 3.20000015e-02, 1.60000008e-02, 4.00000028e-02,
          1.60000008e-02, 1.60000008e-02, 1.60000008e-02, 2.40000002e-02,
          8.00000038e-03, 8.00000038e-03, 0., 8.00000038e-03,
          8.00000038e-03, 1.60000008e-02, 1.60000008e-02, 1.60000008e-02,
          8.00000038e-03, 3.20000015e-02, 0., 2.40000002e-02,
          8.80000070e-02, 8.00000038e-03, 2.40000002e-02, 0.,
          5.60000017e-02, 8.00000038e-03, 4.00000028e-02, 1.60000008e-02,
          3.20000015e-02, 8.00000038e-03, 0., 0., 8.00000038e-03,
          1.60000008e-02, 5.60000017e-02, 8.00000038e-03, 8.00000038e-03 ]
      - [ 2.48390064e-02, 3.21987122e-02, 1.56393740e-02, 1.74793005e-02,
          1.56393740e-02, 2.11591534e-02, 1.93192270e-02, 1.56393740e-02,
          2.11591534e-02, 1.93192270e-02, 1.83992628e-02, 2.75988951e-02,
          2.20791157e-02, 1.56393740e-02, 2.39190422e-02, 1.83992628e-02,
          2.75988951e-02, 2.66789328e-02, 9.19963140e-03, 2.20791157e-02,
          2.02391893e-02, 9.19963140e-03, 2.94388216e-02, 3.77184898e-02,
          3.67985256e-02, 2.02391893e-02, 1.01195946e-02, 1.83992628e-02,
          1.10395579e-02, 2.39190422e-02, 8.27966817e-03, 1.65593363e-02,
          2.02391893e-02, 2.20791157e-02, 1.10395579e-02, 1.74793005e-02,
          3.12787481e-02, 1.28794843e-02, 2.11591534e-02, 2.11591534e-02,
          1.83992628e-02, 1.37994476e-02, 2.66789328e-02, 8.27966817e-03,
          2.57589687e-02, 3.49586010e-02, 1.56393740e-02, 1.28794843e-02,
          1.47194108e-02, 1.56393740e-02 ]
      - [ 2.37623770e-02, 9.90099087e-03, 2.37623770e-02, 4.15841602e-02,
          3.76237631e-02, 2.97029708e-02, 1.98019808e-03, 2.17821784e-02,
          1.58415847e-02, 1.98019817e-02, 1.98019817e-02, 2.97029708e-02,
          5.94059424e-03, 4.55445573e-02, 7.92079233e-03, 2.97029708e-02,
          3.16831693e-02, 1.98019817e-02, 2.97029708e-02, 1.18811885e-02,
          2.57425755e-02, 1.38613861e-02, 1.18811885e-02, 2.17821784e-02,
          3.76237631e-02, 1.98019808e-03, 2.37623770e-02, 1.98019817e-02,
          3.16831693e-02, 1.38613861e-02, 1.78217832e-02, 9.90099087e-03,
          1.78217832e-02, 3.16831693e-02, 1.38613861e-02, 1.78217832e-02,
          1.78217832e-02, 1.38613861e-02, 1.98019808e-03, 2.77227722e-02,
          4.35643569e-02, 1.98019817e-02, 5.94059424e-03, 3.96039616e-03,
          1.18811885e-02, 1.38613861e-02, 3.16831693e-02, 2.37623770e-02,
          3.96039616e-03, 1.18811885e-02 ]
      - [ 1.23456791e-02, 3.35096978e-02, 2.46913582e-02, 1.23456791e-02,
          4.93827164e-02, 1.41093470e-02, 1.76366828e-02, 1.41093470e-02,
          0., 1.23456791e-02, 1.94003526e-02, 3.88007052e-02,
          1.23456791e-02, 3.52733675e-03, 2.82186940e-02, 1.76366828e-02,
          2.64550261e-02, 3.88007052e-02, 3.52733657e-02, 1.58730149e-02,
          1.05820103e-02, 2.11640205e-02, 2.29276884e-02, 7.05467351e-03,
          1.58730149e-02, 3.17460299e-02, 1.23456791e-02, 1.05820103e-02,
          8.81834142e-03, 3.35096978e-02, 2.11640205e-02, 1.94003526e-02,
          1.05820103e-02, 2.82186940e-02, 1.76366838e-03, 1.23456791e-02,
          1.58730149e-02, 1.76366828e-02, 1.41093470e-02, 1.58730149e-02,
          2.11640205e-02, 1.05820103e-02, 5.29100522e-02, 2.29276884e-02,
          2.46913582e-02, 4.40917090e-02, 2.46913582e-02, 1.23456791e-02,
          1.58730149e-02, 1.23456791e-02 ]
      - [ 1.10905729e-02, 1.10905729e-02, 7.39371544e-03, 2.95748618e-02,
          4.25138623e-02, 4.62107211e-02, 5.54528646e-03, 1.10905729e-02,
          4.80591506e-02, 5.54528646e-03, 1.29390024e-02, 1.29390024e-02,
          3.69685772e-03, 2.77264323e-02, 1.84842888e-02, 2.03327183e-02,
          1.66358594e-02, 0., 3.32717188e-02, 2.03327183e-02,
          3.88170071e-02, 2.95748618e-02, 5.54528646e-03, 4.62107211e-02,
          1.10905729e-02, 3.14232893e-02, 3.69685777e-02, 2.21811458e-02,
          3.14232893e-02, 0., 9.24214441e-03, 3.32717188e-02,
          2.03327183e-02, 5.73012941e-02, 1.84842888e-02, 5.54528646e-03,
          1.84842886e-03, 5.54528646e-03, 2.03327183e-02, 1.10905729e-02,
          7.02402964e-02, 1.10905729e-02, 7.39371544e-03, 1.10905729e-02,
          5.54528646e-03, 1.66358594e-02, 2.58780047e-02, 5.54528646e-03,
          2.21811458e-02, 3.69685772e-03 ]
      - [ 3.76450606e-02, 1.35861877e-02, 1.61335971e-02, 2.34927833e-02,
          1.18879145e-02, 2.77384669e-02, 2.43419204e-02, 1.98131911e-02,
          1.44353248e-02, 3.08519676e-02, 1.86810084e-02, 1.66996885e-02,
          3.08519676e-02, 4.86838408e-02, 1.66996885e-02, 2.46249661e-02,
          2.29266919e-02, 1.04726860e-02, 1.10387774e-02, 1.41522791e-02,
          1.92470998e-02, 2.06623264e-02, 1.07557317e-02, 3.50976512e-02,
          3.11350133e-02, 1.44353248e-02, 2.57571470e-02, 1.18879145e-02,
          2.57571470e-02, 1.10387774e-02, 2.09453721e-02, 1.58505514e-02,
          1.41522791e-02, 3.05689219e-02, 2.34927833e-02, 2.06623264e-02,
          8.49136710e-03, 1.52844610e-02, 5.94395725e-03, 2.40588747e-02,
          2.32097376e-02, 3.62298340e-02, 1.24540050e-02, 1.44353248e-02,
          1.38692334e-02, 7.92527571e-03, 1.50014153e-02, 2.46249661e-02,
          1.72657799e-02, 1.50014153e-02 ]
      - [ 5.83941583e-03, 2.62773708e-02, 7.29926955e-03, 1.60583928e-02,
          1.75182484e-02, 1.45985396e-03, 4.08759117e-02, 1.16788317e-02,
          2.91970791e-03, 1.16788317e-02, 1.60583928e-02, 2.33576633e-02,
          1.45985391e-02, 2.91970791e-03, 2.62773708e-02, 1.75182484e-02,
          2.33576633e-02, 2.18978096e-02, 2.04379559e-02, 4.67153266e-02,
          1.45985396e-03, 2.18978096e-02, 2.77372245e-02, 1.16788317e-02,
          1.45985391e-02, 3.64963487e-02, 0., 1.02189779e-02,
          4.37956210e-03, 5.69343045e-02, 1.60583928e-02, 1.45985391e-02,
          4.37956210e-03, 3.06569338e-02, 1.60583928e-02, 2.04379559e-02,
          2.91970782e-02, 1.16788317e-02, 1.75182484e-02, 1.89781021e-02,
          2.04379559e-02, 7.29926955e-03, 4.08759117e-02, 3.21167856e-02,
          3.94160561e-02, 6.56934306e-02, 3.94160561e-02, 8.75912420e-03,
          1.16788317e-02, 1.45985391e-02 ]
      - [ 3.55329961e-02, 1.01522841e-02, 2.03045681e-02, 5.07614203e-03,
          2.53807101e-02, 1.01522841e-02, 2.03045681e-02, 1.01522841e-02,
          1.01522841e-02, 1.52284261e-02, 5.07614203e-03, 4.56852764e-02,
          1.01522841e-02, 1.52284261e-02, 1.01522841e-02, 7.61421323e-02,
          2.53807101e-02, 2.03045681e-02, 3.55329961e-02, 3.55329961e-02,
          5.07614203e-03, 1.52284261e-02, 3.04568522e-02, 1.01522841e-02,
          1.52284261e-02, 2.03045681e-02, 5.07614203e-03, 2.53807101e-02,
          2.03045681e-02, 1.01522841e-02, 5.07614203e-03, 1.01522841e-02,
          1.01522841e-02, 2.53807101e-02, 1.52284261e-02, 1.01522841e-02,
          4.06091362e-02, 1.01522841e-02, 1.01522841e-02, 3.04568522e-02,
          5.07614203e-02, 2.53807101e-02, 4.06091362e-02, 1.52284261e-02,
          1.01522841e-02, 2.03045681e-02, 3.04568522e-02, 1.52284261e-02,
          5.07614203e-03, 2.03045681e-02 ]
      - [ 2.17391290e-02, 2.17391290e-02, 6.52173907e-03, 2.17391290e-02,
          1.30434781e-02, 4.34782589e-03, 4.13043462e-02, 2.17391290e-02,
          6.52173907e-03, 1.30434781e-02, 1.73913036e-02, 3.26086953e-02,
          2.39130426e-02, 1.95652172e-02, 2.17391290e-02, 4.99999970e-02,
          4.78260852e-02, 3.26086953e-02, 1.73913036e-02, 1.52173908e-02,
          1.73913036e-02, 4.34782589e-03, 2.82608680e-02, 2.39130426e-02,
          1.73913036e-02, 1.52173908e-02, 0., 3.26086953e-02,
          6.52173907e-03, 4.34782580e-02, 2.17391290e-02, 8.69565178e-03,
          1.52173908e-02, 6.52173907e-03, 1.30434781e-02, 1.08695645e-02,
          3.04347817e-02, 3.47826071e-02, 4.34782589e-03, 1.73913036e-02,
          3.04347817e-02, 2.39130426e-02, 3.04347817e-02, 1.30434781e-02,
          1.52173908e-02, 1.95652172e-02, 1.30434781e-02, 2.60869563e-02,
          1.73913036e-02, 8.69565178e-03 ]
      - [ 1.73210166e-02, 1.67436488e-02, 1.96304843e-02, 2.13625859e-02,
          2.19399538e-02, 1.96304843e-02, 2.19399538e-02, 1.21247116e-02,
          1.61662810e-02, 1.78983826e-02, 1.50115471e-02, 2.30946876e-02,
          2.65588909e-02, 2.77136266e-02, 1.21247116e-02, 4.04157043e-02,
          2.25173216e-02, 1.32794455e-02, 2.59815250e-02, 1.38568133e-02,
          1.50115471e-02, 1.55889140e-02, 1.32794455e-02, 5.65819852e-02,
          2.82909926e-02, 1.27020786e-02, 1.84757505e-02, 1.96304843e-02,
          2.19399538e-02, 1.27020786e-02, 2.30946876e-02, 9.23787523e-03,
          1.09699769e-02, 8.02540407e-02, 1.67436488e-02, 1.27020786e-02,
          1.38568133e-02, 2.02078521e-02, 1.03926100e-02, 1.50115471e-02,
          3.46420333e-02, 2.65588909e-02, 1.67436488e-02, 7.50577357e-03,
          1.44341802e-02, 1.44341802e-02, 1.32794455e-02, 1.67436488e-02,
          1.27020786e-02, 1.09699769e-02 ]
      - [ 6.34920597e-02, 5.29100513e-03, 2.64550261e-02, 2.64550261e-02,
          5.29100513e-03, 4.23280410e-02, 5.29100513e-03, 5.29100513e-03,
          5.82010560e-02, 6.34920597e-02, 5.29100513e-03, 1.58730149e-02,
          3.70370373e-02, 2.64550261e-02, 0., 5.29100513e-03,
          2.11640205e-02, 2.64550261e-02, 1.05820103e-02, 5.29100513e-03,
          3.17460299e-02, 5.29100513e-03, 2.64550261e-02, 3.70370373e-02,
          9.52380896e-02, 5.29100513e-03, 1.58730149e-02, 0., 0.,
          1.58730149e-02, 5.29100513e-03, 2.11640205e-02, 4.23280410e-02,
          1.05820103e-02, 1.05820103e-02, 1.58730149e-02, 1.05820103e-02,
          5.29100513e-03, 0., 2.11640205e-02, 4.23280410e-02,
          3.70370373e-02, 2.64550261e-02, 5.29100513e-03, 1.05820103e-02,
          1.05820103e-02, 1.05820103e-02, 1.58730149e-02, 1.05820103e-02,
          0. ]
      - [ 2.69413646e-02, 1.34706823e-02, 1.90174337e-02, 1.42630748e-02,
          2.29793992e-02, 1.90174337e-02, 2.85261497e-02, 1.18858954e-02,
          5.54675143e-03, 1.98098272e-02, 2.13946123e-02, 1.98098272e-02,
          1.98098272e-02, 3.56576890e-02, 1.34706823e-02, 3.80348675e-02,
          1.58478618e-02, 1.50554683e-02, 3.01109366e-02, 1.10935029e-02,
          1.58478618e-02, 1.03011094e-02, 1.18858954e-02, 2.29793992e-02,
          4.67511900e-02, 1.66402534e-02, 1.34706823e-02, 1.42630748e-02,
          2.06022188e-02, 2.13946123e-02, 3.88272591e-02, 1.18858954e-02,
          1.26782889e-02, 4.43740115e-02, 2.29793992e-02, 1.66402534e-02,
          2.93185432e-02, 2.93185432e-02, 9.50871687e-03, 2.53565777e-02,
          1.82250403e-02, 3.16957235e-02, 2.06022188e-02, 8.71632341e-03,
          8.71632341e-03, 1.74326468e-02, 1.03011094e-02, 2.69413646e-02,
          1.10935029e-02, 9.50871687e-03 ]
      - [ 2.35294122e-02, 2.05882359e-02, 2.64705885e-02, 1.47058824e-02,
          2.05882359e-02, 8.82352982e-03, 2.94117648e-02, 1.76470596e-02,
          1.47058824e-02, 1.17647061e-02, 2.05882359e-02, 2.64705885e-02,
          1.76470596e-02, 1.47058824e-02, 2.94117648e-02, 2.64705885e-02,
          2.64705885e-02, 2.05882359e-02, 2.05882359e-02, 2.35294122e-02,
          2.35294122e-02, 1.47058824e-02, 2.94117648e-02, 1.76470596e-02,
          1.17647061e-02, 2.35294122e-02, 5.88235306e-03, 2.64705885e-02,
          5.88235306e-03, 0., 3.82352956e-02, 8.82352982e-03,
          2.05882359e-02, 1.17647061e-02, 1.17647061e-02, 1.47058824e-02,
          1.17647061e-02, 2.94117648e-02, 3.23529430e-02, 1.76470596e-02,
          4.70588244e-02, 1.47058824e-02, 2.64705885e-02, 2.05882359e-02,
          8.82352982e-03, 3.52941193e-02, 2.64705885e-02, 8.82352982e-03,
          1.47058824e-02, 2.64705885e-02 ]
      - [ 1.38408309e-02, 3.46020772e-03, 6.92041544e-03, 3.46020758e-02,
          3.11418697e-02, 2.76816618e-02, 1.03806229e-02, 1.03806229e-02,
          8.30449834e-02, 1.03806229e-02, 3.46020772e-03, 2.07612459e-02,
          2.76816618e-02, 6.22837394e-02, 2.07612459e-02, 1.38408309e-02,
          1.38408309e-02, 1.38408309e-02, 1.03806229e-02, 1.38408309e-02,
          2.42214538e-02, 1.38408309e-02, 1.38408309e-02, 3.11418697e-02,
          3.11418697e-02, 2.07612459e-02, 4.49827015e-02, 1.73010379e-02,
          2.07612459e-02, 1.38408309e-02, 1.03806229e-02, 1.03806229e-02,
          1.03806229e-02, 3.46020758e-02, 1.03806229e-02, 6.92041544e-03,
          3.46020758e-02, 2.42214538e-02, 1.03806229e-02, 3.11418697e-02,
          4.15224917e-02, 3.11418697e-02, 1.73010379e-02, 3.46020772e-03,
          6.92041544e-03, 1.38408309e-02, 6.92041544e-03, 1.38408309e-02,
          1.38408309e-02, 3.46020772e-03 ]
      - [ 2.67857164e-02, 2.23214291e-02, 4.46428591e-03, 1.78571437e-02,
          2.23214291e-02, 3.12500000e-02, 3.12500000e-02, 4.46428591e-03,
          4.46428591e-03, 2.23214291e-02, 2.23214291e-02, 1.78571437e-02,
          4.91071455e-02, 4.46428591e-03, 8.92857183e-03, 1.78571437e-02,
          2.67857164e-02, 1.33928582e-02, 3.57142873e-02, 8.92857183e-03,
          1.78571437e-02, 2.23214291e-02, 4.46428591e-03, 4.91071455e-02,
          3.57142873e-02, 8.92857183e-03, 2.23214291e-02, 8.92857183e-03,
          1.33928582e-02, 0., 6.25000000e-02, 8.92857183e-03,
          4.46428591e-03, 3.57142873e-02, 2.23214291e-02, 4.46428591e-03,
          2.23214291e-02, 2.67857164e-02, 4.46428591e-03, 1.33928582e-02,
          2.67857164e-02, 4.46428582e-02, 8.92857183e-03, 4.46428591e-03,
          2.23214291e-02, 2.23214291e-02, 1.33928582e-02, 4.91071455e-02,
          8.92857183e-03, 1.78571437e-02 ]
      - [ 3.18021215e-02, 2.12014131e-02, 2.12014131e-02, 7.06713786e-03,
          2.12014131e-02, 2.82685515e-02, 3.18021215e-02, 1.06007066e-02,
          3.53356893e-03, 2.12014131e-02, 2.12014131e-02, 2.82685515e-02,
          2.82685515e-02, 1.41342757e-02, 1.76678449e-02, 1.76678449e-02,
          2.82685515e-02, 3.18021215e-02, 1.76678449e-02, 1.41342757e-02,
          1.06007066e-02, 1.76678449e-02, 1.76678449e-02, 3.88692580e-02,
          2.12014131e-02, 1.76678449e-02, 1.06007066e-02, 1.41342757e-02,
          3.53356893e-03, 1.06007066e-02, 3.18021215e-02, 1.76678449e-02,
          1.41342757e-02, 4.94699664e-02, 3.18021215e-02, 2.12014131e-02,
          2.12014131e-02, 2.12014131e-02, 1.06007066e-02, 2.47349832e-02,
          3.53356893e-03, 3.18021215e-02, 2.12014131e-02, 1.06007066e-02,
          2.12014131e-02, 1.76678449e-02, 3.53356893e-03, 3.18021215e-02,
          2.47349832e-02, 1.06007066e-02 ]
      - [ 2.76243109e-02, 2.76243105e-03, 2.76243105e-03, 2.48618796e-02,
          1.38121555e-02, 1.65745858e-02, 3.03867422e-02, 1.93370171e-02,
          1.10497242e-02, 1.38121555e-02, 2.76243109e-02, 1.38121555e-02,
          1.10497242e-02, 1.10497242e-02, 2.48618796e-02, 1.38121555e-02,
          1.10497242e-02, 1.65745858e-02, 2.20994484e-02, 8.28729291e-03,
          8.28729291e-03, 2.48618796e-02, 5.52486209e-03, 3.03867422e-02,
          1.10497242e-02, 3.59116048e-02, 2.20994484e-02, 5.52486219e-02,
          8.28729291e-03, 5.52486209e-03, 1.10497242e-02, 2.76243109e-02,
          2.76243109e-02, 1.10497242e-02, 2.48618796e-02, 3.31491716e-02,
          1.93370171e-02, 3.59116048e-02, 4.41988967e-02, 2.76243109e-02,
          8.28729291e-03, 1.93370171e-02, 1.65745858e-02, 2.76243109e-02,
          2.20994484e-02, 1.10497242e-02, 3.59116048e-02, 3.86740342e-02,
          1.93370171e-02, 8.28729291e-03 ]
      - [ 2.03045681e-02, 2.79187821e-02, 2.79187821e-02, 2.28426382e-02,
          2.28426382e-02, 2.28426382e-02, 1.01522841e-02, 1.01522841e-02,
          2.03045681e-02, 1.77664980e-02, 2.53807101e-02, 7.61421304e-03,
          2.53807101e-02, 3.29949223e-02, 1.26903551e-02, 4.56852764e-02,
          2.28426382e-02, 2.03045681e-02, 1.77664980e-02, 1.26903551e-02,
          1.26903551e-02, 1.26903551e-02, 1.52284261e-02, 1.26903551e-02,
          4.56852764e-02, 2.53807101e-02, 2.53807101e-02, 2.53807101e-02,
          2.53807101e-02, 5.07614203e-03, 1.26903551e-02, 1.26903551e-02,
          1.01522841e-02, 2.28426382e-02, 3.29949223e-02, 2.28426382e-02,
          1.26903551e-02, 1.26903551e-02, 1.77664980e-02, 3.29949223e-02,
          0., 2.03045681e-02, 2.79187821e-02, 1.26903551e-02,
          1.01522841e-02, 2.53807101e-02, 7.61421304e-03, 3.04568522e-02,
          2.03045681e-02, 2.28426382e-02 ]
      - [ 2.32558139e-02, 1.00775193e-02, 1.78294573e-02, 1.55038759e-02,
          1.08527131e-02, 1.55038759e-02, 2.01550387e-02, 2.17054263e-02,
          1.78294573e-02, 2.09302325e-02, 2.63565890e-02, 2.24806201e-02,
          1.62790697e-02, 3.02325580e-02, 1.78294573e-02, 2.86821704e-02,
          2.55813953e-02, 1.39534883e-02, 1.78294573e-02, 1.86046511e-02,
          1.62790697e-02, 1.86046511e-02, 1.93798449e-02, 3.64341065e-02,
          4.57364321e-02, 2.63565890e-02, 1.55038759e-02, 2.09302325e-02,
          1.39534883e-02, 1.86046511e-02, 2.79069766e-02, 1.39534883e-02,
          1.78294573e-02, 2.40310077e-02, 1.24031007e-02, 2.17054263e-02,
          2.09302325e-02, 1.93798449e-02, 2.01550387e-02, 1.78294573e-02,
          1.47286821e-02, 2.48062015e-02, 1.24031007e-02, 1.39534883e-02,
          1.93798449e-02, 1.47286821e-02, 1.55038759e-02, 2.63565890e-02,
          2.40310077e-02, 1.47286821e-02 ]
      - [ 2.14592274e-02, 0., 8.58369097e-03, 8.58369097e-03,
          4.29184549e-02, 1.71673819e-02, 2.57510729e-02, 0.,
          8.58369097e-03, 1.28755365e-02, 2.14592274e-02, 1.71673819e-02,
          3.00429184e-02, 8.58369097e-03, 8.58369097e-03, 4.29184549e-02,
          1.28755365e-02, 2.14592274e-02, 5.57939932e-02, 2.14592274e-02,
          1.71673819e-02, 3.00429184e-02, 1.28755365e-02, 3.00429184e-02,
          3.86266112e-02, 8.58369097e-03, 8.58369097e-03, 3.00429184e-02,
          8.58369097e-03, 3.43347639e-02, 4.72102985e-02, 8.58369097e-03,
          1.28755365e-02, 2.57510729e-02, 2.14592274e-02, 1.28755365e-02,
          0., 4.29184549e-02, 1.71673819e-02, 2.14592274e-02,
          5.57939932e-02, 1.28755365e-02, 8.58369097e-03, 8.58369097e-03,
          4.29184549e-03, 4.29184549e-02, 1.71673819e-02, 2.14592274e-02,
          4.29184549e-03, 8.58369097e-03 ]
      - [ 3.83275263e-02, 2.09059231e-02, 1.39372824e-02, 1.39372824e-02,
          1.04529615e-02, 1.39372824e-02, 3.13588865e-02, 6.96864119e-03,
          2.09059231e-02, 3.13588865e-02, 3.13588865e-02, 1.39372824e-02,
          1.39372824e-02, 3.83275263e-02, 6.96864119e-03, 4.52961661e-02,
          2.78745648e-02, 3.48432059e-03, 2.43902449e-02, 1.39372824e-02,
          1.04529615e-02, 6.96864119e-03, 6.96864119e-03, 5.92334494e-02,
          1.04529615e-02, 1.39372824e-02, 2.09059231e-02, 1.04529615e-02,
          1.39372824e-02, 0., 3.13588865e-02, 1.39372824e-02,
          6.96864119e-03, 4.18118462e-02, 2.09059231e-02, 1.04529615e-02,
          1.39372824e-02, 2.78745648e-02, 1.74216032e-02, 2.09059231e-02,
          3.13588865e-02, 2.78745648e-02, 3.48432064e-02, 1.39372824e-02,
          6.96864119e-03, 1.39372824e-02, 1.74216032e-02, 3.13588865e-02,
          2.43902449e-02, 1.74216032e-02 ]
      - [ 2.41758246e-02, 1.53846163e-02, 1.97802205e-02, 1.97802205e-02,
          2.63736285e-02, 9.89011023e-03, 2.74725296e-02, 1.09890113e-02,
          8.79120920e-03, 2.41758246e-02, 1.09890113e-02, 3.29670347e-02,
          1.75824184e-02, 1.31868143e-02, 2.08791215e-02, 3.18681337e-02,
          2.74725296e-02, 2.19780225e-02, 1.53846163e-02, 1.42857153e-02,
          4.39560460e-03, 1.31868143e-02, 1.75824184e-02, 5.38461581e-02,
          4.83516492e-02, 1.53846163e-02, 8.79120920e-03, 1.09890113e-02,
          1.31868143e-02, 5.27472571e-02, 4.06593420e-02, 1.31868143e-02,
          1.42857153e-02, 3.73626389e-02, 9.89011023e-03, 1.31868143e-02,
          5.27472571e-02, 3.95604409e-02, 1.42857153e-02, 1.86813194e-02,
          8.79120920e-03, 8.79120920e-03, 3.29670347e-02, 9.89011023e-03,
          5.49450563e-03, 6.59340713e-03, 1.86813194e-02, 6.59340713e-03,
          9.89011023e-03, 6.59340713e-03 ]
      - [ 1.14449216e-02, 1.71673819e-02, 2.19361000e-02, 2.52742022e-02,
          1.62136387e-02, 2.43204590e-02, 6.19933242e-03, 1.14449216e-02,
          3.43347639e-02, 1.38292806e-02, 2.43204590e-02, 5.72246080e-03,
          1.43061522e-02, 1.66905113e-02, 1.52598955e-02, 1.81211252e-02,
          1.00143068e-02, 1.28755365e-02, 2.05054842e-02, 5.48402481e-02,
          2.14592274e-02, 2.71816887e-02, 1.57367680e-02, 9.06056259e-03,
          1.00143068e-02, 3.09966635e-02, 3.52885090e-02, 2.43204590e-02,
          3.43347639e-02, 1.47830239e-02, 9.06056259e-03, 2.43204590e-02,
          2.33667158e-02, 1.52598955e-02, 2.38435864e-02, 1.81211252e-02,
          1.76442545e-02, 2.38435855e-03, 4.86409180e-02, 1.90748684e-02,
          1.85979977e-02, 1.14449216e-02, 2.28898432e-02, 1.71673819e-02,
          1.76442545e-02, 2.57510729e-02, 3.00429184e-02, 1.33524090e-02,
          3.29041481e-02, 1.04911784e-02 ]
      - [ 3.06748450e-02, 4.08997945e-02, 2.04498973e-02, 1.22699384e-02,
          4.29447852e-02, 1.02249486e-02, 2.86298562e-02, 1.22699384e-02,
          2.04498973e-03, 1.22699384e-02, 1.84049085e-02, 1.63599178e-02,
          3.06748450e-02, 1.43149281e-02, 1.84049085e-02, 1.84049085e-02,
          1.43149281e-02, 2.45398767e-02, 4.29447852e-02, 1.22699384e-02,
          1.22699384e-02, 4.08997945e-03, 1.63599178e-02, 3.88548039e-02,
          2.65848674e-02, 1.84049085e-02, 1.22699384e-02, 3.68098170e-02,
          1.02249486e-02, 2.04498973e-02, 3.47648263e-02, 1.43149281e-02,
          1.02249486e-02, 4.49897721e-02, 1.02249486e-02, 1.43149281e-02,
          2.24948861e-02, 2.65848674e-02, 1.84049085e-02, 1.84049085e-02,
          3.68098170e-02, 2.24948861e-02, 1.63599178e-02, 2.04498973e-02,
          8.17995891e-03, 1.43149281e-02, 1.43149281e-02, 1.22699384e-02,
          1.22699384e-02, 8.17995891e-03 ]
      - [ 2.30496451e-02, 1.95035450e-02, 1.59574468e-02, 1.77304968e-02,
          1.59574468e-02, 1.95035450e-02, 3.36879417e-02, 1.24113467e-02,
          3.54609936e-02, 2.30496451e-02, 3.01418435e-02, 7.09219836e-03,
          3.90070900e-02, 2.30496451e-02, 8.86524841e-03, 2.48226933e-02,
          1.59574468e-02, 1.77304968e-02, 8.86524841e-03, 8.86524841e-03,
          1.06382975e-02, 5.31914877e-03, 1.41843967e-02, 4.07801419e-02,
          3.90070900e-02, 1.77304968e-02, 1.41843967e-02, 3.54609936e-02,
          8.86524841e-03, 6.56028315e-02, 1.95035450e-02, 1.06382975e-02,
          8.86524841e-03, 3.01418435e-02, 2.12765951e-02, 8.86524841e-03,
          4.43262383e-02, 1.95035450e-02, 8.86524841e-03, 1.06382975e-02,
          2.12765951e-02, 1.06382975e-02, 3.01418435e-02, 1.41843967e-02,
          1.06382975e-02, 1.77304968e-02, 1.24113467e-02, 1.06382975e-02,
          2.65957434e-02, 1.06382975e-02 ]
      - [ 3.25581394e-02, 4.65116277e-03, 1.39534883e-02, 1.62790697e-02,
          2.55813953e-02, 1.62790697e-02, 2.55813953e-02, 1.16279069e-02,
          1.62790697e-02, 1.39534883e-02, 1.86046511e-02, 4.18604650e-02,
          2.09302325e-02, 6.97674416e-03, 9.30232555e-03, 3.25581394e-02,
          3.72093022e-02, 1.62790697e-02, 1.62790697e-02, 1.86046511e-02,
          1.62790697e-02, 1.86046511e-02, 1.86046511e-02, 3.02325580e-02,
          1.39534883e-02, 3.02325580e-02, 1.62790697e-02, 2.32558139e-02,
          1.39534883e-02, 1.86046511e-02, 1.86046511e-02, 1.16279069e-02,
          1.86046511e-02, 2.55813953e-02, 1.86046511e-02, 2.09302325e-02,
          1.62790697e-02, 1.62790697e-02, 1.39534883e-02, 2.79069766e-02,
          3.72093022e-02, 2.79069766e-02, 1.86046511e-02, 9.30232555e-03,
          2.55813953e-02, 1.39534883e-02, 3.48837227e-02, 2.09302325e-02,
          1.39534883e-02, 1.39534883e-02 ]
      - [ 3.35078537e-02, 1.67539269e-02, 1.36125656e-02, 1.67539269e-02,
          1.04712043e-02, 1.57068074e-02, 2.51308903e-02, 2.19895281e-02,
          6.28272258e-03, 3.03664915e-02, 2.30366495e-02, 1.88481677e-02,
          2.93193720e-02, 3.03664915e-02, 3.03664915e-02, 2.19895281e-02,
          3.14136147e-02, 2.19895281e-02, 1.36125656e-02, 1.04712043e-02,
          1.46596860e-02, 1.46596860e-02, 2.19895281e-02, 2.82722525e-02,
          3.45549732e-02, 3.03664915e-02, 1.46596860e-02, 3.24607342e-02,
          1.36125656e-02, 1.46596860e-02, 3.14136147e-02, 1.57068074e-02,
          1.98952891e-02, 1.25654452e-02, 1.88481677e-02, 2.19895281e-02,
          2.09424086e-02, 1.36125656e-02, 2.82722525e-02, 1.88481677e-02,
          1.04712043e-02, 1.57068074e-02, 1.25654452e-02, 1.57068074e-02,
          1.36125656e-02, 1.36125656e-02, 2.09424086e-02, 1.46596860e-02,
          2.30366495e-02, 1.57068074e-02 ]
      - [ 2.88018435e-02, 4.37788032e-02, 3.45622115e-02, 8.06451589e-03,
          1.49769587e-02, 1.26728108e-02, 2.88018435e-02, 1.26728108e-02,
          1.49769587e-02, 2.18894016e-02, 1.49769587e-02, 2.53456216e-02,
          2.30414756e-02, 1.61290318e-02, 1.03686638e-02, 3.68663594e-02,
          2.53456216e-02, 1.03686638e-02, 2.18894016e-02, 1.15207378e-02,
          3.45622119e-03, 1.26728108e-02, 1.15207378e-02, 2.76497696e-02,
          4.60829511e-02, 1.49769587e-02, 1.49769587e-02, 1.26728108e-02,
          1.15207378e-02, 1.95852537e-02, 3.45622115e-02, 8.06451589e-03,
          9.21658985e-03, 4.14746553e-02, 1.26728108e-02, 1.49769587e-02,
          1.03686638e-02, 2.18894016e-02, 5.76036889e-03, 1.15207378e-02,
          3.68663594e-02, 2.41935477e-02, 4.37788032e-02, 1.03686638e-02,
          1.03686638e-02, 5.41474670e-02, 1.26728108e-02, 2.41935477e-02,
          4.60829493e-03, 1.61290318e-02 ]
      - [ 1.17187500e-02, 9.76562500e-03, 2.53906250e-02, 9.76562500e-03,
          3.51562500e-02, 2.73437500e-02, 1.36718750e-02, 1.75781250e-02,
          2.34375000e-02, 2.14843750e-02, 4.49218750e-02, 1.56250000e-02,
          1.36718750e-02, 1.75781250e-02, 1.36718750e-02, 3.90625000e-02,
          1.17187500e-02, 3.90625000e-03, 2.92968750e-02, 4.29687500e-02,
          2.14843750e-02, 1.56250000e-02, 1.56250000e-02, 1.75781250e-02,
          1.17187500e-02, 1.75781250e-02, 3.51562500e-02, 2.34375000e-02,
          3.12500000e-02, 1.17187500e-02, 1.36718750e-02, 1.56250000e-02,
          1.17187500e-02, 4.49218750e-02, 3.12500000e-02, 1.56250000e-02,
          1.17187500e-02, 2.73437500e-02, 1.56250000e-02, 1.95312500e-02,
          9.76562500e-03, 5.85937500e-03, 2.34375000e-02, 1.17187500e-02,
          9.76562500e-03, 2.34375000e-02, 1.56250000e-02, 1.75781250e-02,
          2.34375000e-02, 2.34375000e-02 ]
      - [ 2.11059526e-02, 3.12368087e-02, 2.74377372e-02, 1.60405245e-02,
          2.82819755e-02, 1.77289993e-02, 1.22414520e-02, 8.02026223e-03,
          1.35078095e-02, 1.98395960e-02, 1.64626427e-02, 1.68847628e-02,
          2.23723091e-02, 6.75390474e-03, 1.89953577e-02, 3.54579985e-02,
          1.68847628e-02, 8.86449963e-03, 2.87040956e-02, 2.27944292e-02,
          1.26635712e-02, 2.36386657e-02, 1.18193328e-02, 4.05234285e-02,
          2.87040956e-02, 2.15280708e-02, 2.32165474e-02, 1.85732376e-02,
          2.06838325e-02, 1.85732376e-02, 2.32165474e-02, 1.09750954e-02,
          8.86449963e-03, 4.89658080e-02, 1.22414520e-02, 1.30856903e-02,
          1.73068810e-02, 1.64626427e-02, 1.98395960e-02, 1.39299287e-02,
          3.16589288e-02, 9.70873795e-03, 3.50358821e-02, 1.13972146e-02,
          1.26635712e-02, 3.58801186e-02, 2.11059526e-02, 1.64626427e-02,
          1.51962861e-02, 1.64626427e-02 ]
      - [ 2.65095737e-02, 2.06185561e-02, 3.24005894e-02, 1.32547868e-02,
          1.91458035e-02, 1.91458035e-02, 1.62002947e-02, 5.89101622e-03,
          1.17820324e-02, 2.35640649e-02, 1.17820324e-02, 2.35640649e-02,
          1.91458035e-02, 2.79823262e-02, 1.47275403e-02, 3.53460982e-02,
          3.24005894e-02, 1.32547868e-02, 2.79823262e-02, 3.68188508e-02,
          1.47275403e-02, 5.89101622e-03, 2.50368193e-02, 4.86008823e-02,
          2.65095737e-02, 2.20913105e-02, 1.03092780e-02, 1.76730491e-02,
          1.17820324e-02, 2.50368193e-02, 3.97643596e-02, 1.17820324e-02,
          1.62002947e-02, 2.06185561e-02, 1.62002947e-02, 1.47275403e-02,
          1.17820324e-02, 4.56553772e-02, 1.03092780e-02, 2.06185561e-02,
          1.91458035e-02, 2.20913105e-02, 3.68188508e-02, 4.41826228e-03,
          4.41826228e-03, 2.50368193e-02, 1.03092780e-02, 8.83652456e-03,
          1.17820324e-02, 1.03092780e-02 ]
      - [ 1.65016502e-02, 2.80528069e-02, 2.14521457e-02, 2.72277240e-02,
          9.07590799e-03, 1.07260728e-02, 2.47524753e-02, 2.64026411e-02,
          8.25082534e-04, 2.22772285e-02, 1.07260728e-02, 2.22772285e-02,
          1.48514854e-02, 1.40264034e-02, 9.07590799e-03, 2.06270628e-02,
          2.47524753e-02, 4.95049506e-02, 8.25082511e-03, 1.81518160e-02,
          9.07590799e-03, 4.95049544e-03, 4.95049506e-02, 3.79537977e-02,
          3.30033004e-02, 2.14521457e-02, 1.23762377e-02, 1.81518160e-02,
          8.25082511e-03, 7.83828422e-02, 1.40264034e-02, 1.15511557e-02,
          9.90099087e-03, 2.06270628e-02, 1.89768989e-02, 7.42574269e-03,
          5.69306947e-02, 1.65016502e-02, 1.65016502e-02, 3.46534662e-02,
          4.12541255e-03, 9.90099087e-03, 2.64026411e-02, 2.31023114e-02,
          1.73267331e-02, 1.40264034e-02, 5.77557785e-03, 8.25082511e-03,
          2.06270628e-02, 1.07260728e-02 ]
      - [ 2.35294141e-02, 7.84313772e-03, 1.37254912e-02, 2.54901983e-02,
          1.56862754e-02, 3.52941193e-02, 1.17647070e-02, 1.37254912e-02,
          1.96078438e-02, 2.35294141e-02, 1.76470596e-02, 1.37254912e-02,
          9.80392192e-03, 2.74509825e-02, 1.17647070e-02, 2.15686280e-02,
          2.54901983e-02, 9.80392192e-03, 1.56862754e-02, 7.84313772e-03,
          3.13725509e-02, 3.92156886e-03, 1.37254912e-02, 2.74509825e-02,
          3.72549035e-02, 1.76470596e-02, 2.15686280e-02, 1.17647070e-02,
          2.54901983e-02, 1.37254912e-02, 2.74509825e-02, 3.33333351e-02,
          2.74509825e-02, 8.43137279e-02, 2.74509825e-02, 2.94117667e-02,
          0., 1.37254912e-02, 1.17647070e-02, 2.15686280e-02,
          2.74509825e-02, 2.54901983e-02, 1.96078438e-02, 1.76470596e-02,
          1.17647070e-02, 7.84313772e-03, 9.80392192e-03, 1.56862754e-02,
          1.17647070e-02, 2.15686280e-02 ]
      - [ 2.39234436e-02, 4.78468882e-03, 9.56937764e-03, 3.58851664e-02,
          3.82775106e-02, 2.39234436e-02, 1.67464111e-02, 1.19617218e-02,
          1.67464111e-02, 2.15310995e-02, 1.91387553e-02, 1.67464111e-02,
          9.56937764e-03, 4.54545431e-02, 1.67464111e-02, 5.26315756e-02,
          2.39234436e-02, 9.56937764e-03, 1.19617218e-02, 1.43540669e-02,
          4.54545431e-02, 1.19617218e-02, 1.43540669e-02, 5.50239198e-02,
          2.15310995e-02, 1.91387553e-02, 1.91387553e-02, 9.56937764e-03,
          2.39234436e-02, 9.56937764e-03, 1.19617218e-02, 1.67464111e-02,
          1.91387553e-02, 5.26315756e-02, 1.91387553e-02, 1.19617218e-02,
          0., 2.39234436e-02, 7.17703346e-03, 1.67464111e-02,
          1.91387553e-02, 3.82775106e-02, 1.43540669e-02, 1.19617218e-02,
          2.15310995e-02, 1.91387553e-02, 9.56937764e-03, 1.67464111e-02,
          7.17703346e-03, 9.56937764e-03 ]
      - [ 2.09790207e-02, 9.53591801e-03, 1.20788300e-02, 3.11506670e-02,
          1.65289249e-02, 2.73362994e-02, 9.53591801e-03, 1.33502856e-02,
          7.05657974e-02, 1.84361096e-02, 3.43293063e-02, 8.90019070e-03,
          1.46217411e-02, 6.67514279e-02, 1.20788300e-02, 1.39860138e-02,
          1.27145573e-02, 7.62873469e-03, 1.65289249e-02, 2.67005712e-02,
          2.60648429e-02, 1.58931967e-02, 5.72155090e-03, 1.14431018e-02,
          1.01716463e-02, 1.46217411e-02, 4.06865850e-02, 2.03432925e-02,
          4.83153202e-02, 4.45009535e-03, 1.46217411e-02, 2.54291147e-02,
          2.35219318e-02, 8.90019070e-03, 3.49650346e-02, 2.03432925e-02,
          1.58931967e-02, 5.08582313e-03, 1.01716463e-02, 4.19580415e-02,
          1.33502856e-02, 2.22504754e-02, 1.97075643e-02, 1.01716463e-02,
          6.35727867e-03, 1.65289249e-02, 2.22504754e-02, 2.35219318e-02,
          1.33502856e-02, 1.01716463e-02 ]
      - [ 1.30100530e-02, 3.01596671e-02, 1.12359542e-02, 1.36014186e-02,
          2.12891772e-02, 2.30632760e-02, 1.24186864e-02, 1.53755164e-02,
          2.48373728e-02, 8.87049083e-03, 2.12891772e-02, 1.00532221e-02,
          2.24719085e-02, 1.30100530e-02, 1.53755164e-02, 1.00532221e-02,
          1.59668829e-02, 1.53755164e-02, 2.36546416e-02, 3.07510328e-02,
          1.83323473e-02, 1.77409817e-02, 2.01064441e-02, 1.89237129e-02,
          1.65582485e-02, 2.89769359e-02, 2.48373728e-02, 1.95150785e-02,
          1.89237129e-02, 1.83323473e-02, 1.77409817e-02, 1.36014186e-02,
          1.36014186e-02, 2.36546416e-02, 1.59668829e-02, 1.47841508e-02,
          3.25251333e-02, 1.36014186e-02, 2.36546416e-02, 1.24186864e-02,
          5.32229431e-02, 1.59668829e-02, 3.78474258e-02, 2.24719085e-02,
          8.87049083e-03, 4.73092832e-02, 1.95150785e-02, 1.95150785e-02,
          2.66114715e-02, 1.30100530e-02 ]
      - [ 1.02827763e-02, 1.28534706e-02, 1.79948583e-02, 1.79948583e-02,
          2.82776356e-02, 1.79948583e-02, 1.02827763e-02, 2.05655526e-02,
          5.14138816e-03, 1.02827763e-02, 1.02827763e-02, 2.82776356e-02,
          1.54241640e-02, 2.31362469e-02, 4.37017977e-02, 1.28534706e-02,
          2.31362469e-02, 2.05655526e-02, 3.59897166e-02, 3.34190242e-02,
          1.79948583e-02, 5.14138816e-03, 2.31362469e-02, 2.57069413e-02,
          1.79948583e-02, 2.57069413e-02, 7.71208201e-03, 4.11311053e-02,
          7.71208201e-03, 7.71208201e-03, 3.85604128e-02, 2.31362469e-02,
          3.85604128e-02, 1.02827763e-02, 5.14138816e-03, 7.71208201e-03,
          1.02827763e-02, 3.08483280e-02, 2.31362469e-02, 1.02827763e-02,
          2.57069408e-03, 1.54241640e-02, 3.34190242e-02, 2.82776356e-02,
          2.82776356e-02, 3.59897166e-02, 1.02827763e-02, 1.02827763e-02,
          2.31362469e-02, 3.59897166e-02 ]
      - [ 3.61726955e-02, 2.33372226e-02, 2.80046687e-02, 1.75029170e-02,
          7.00116716e-03, 9.33488924e-03, 2.56709456e-02, 1.98366400e-02,
          5.83430566e-03, 3.03383898e-02, 1.16686113e-02, 2.21703611e-02,
          2.68378071e-02, 1.75029170e-02, 2.21703611e-02, 3.50058340e-02,
          3.26721109e-02, 2.21703611e-02, 9.33488924e-03, 5.83430566e-03,
          9.33488924e-03, 7.00116716e-03, 9.33488924e-03, 7.11785331e-02,
          5.13418913e-02, 1.75029170e-02, 5.83430566e-03, 1.63360555e-02,
          7.00116716e-03, 4.78413068e-02, 1.86697785e-02, 5.83430566e-03,
          8.16802774e-03, 2.80046687e-02, 9.33488924e-03, 1.63360555e-02,
          4.20070030e-02, 1.05017507e-02, 1.75029170e-02, 1.98366400e-02,
          9.33488924e-03, 3.15052494e-02, 1.98366400e-02, 1.16686113e-02,
          1.40023343e-02, 2.33372226e-02, 8.16802774e-03, 1.98366400e-02,
          1.98366400e-02, 1.51691949e-02 ]
      - [ 1.62107404e-02, 2.63424534e-02, 3.74873355e-02, 1.41843976e-02,
          1.01317130e-02, 9.11854114e-03, 1.01317130e-02, 1.72239114e-02,
          6.07902743e-03, 3.14083099e-02, 1.82370823e-02, 2.22897679e-02,
          8.10537022e-03, 1.72239114e-02, 5.67375906e-02, 3.03951371e-03,
          1.82370823e-02, 4.76190485e-02, 7.09219882e-03, 1.92502551e-02,
          7.09219882e-03, 1.41843976e-02, 3.74873355e-02, 2.43161097e-02,
          2.22897679e-02, 4.55927067e-02, 1.82370823e-02, 1.62107404e-02,
          1.11448839e-02, 4.86322194e-02, 8.10537022e-03, 1.11448839e-02,
          8.10537022e-03, 8.10537022e-03, 1.51975695e-02, 2.22897679e-02,
          3.64741646e-02, 1.31712267e-02, 2.02634260e-02, 1.62107404e-02,
          7.09219882e-03, 9.11854114e-03, 4.76190485e-02, 3.14083099e-02,
          1.92502551e-02, 2.33029388e-02, 7.09219882e-03, 7.09219882e-03,
          2.83687953e-02, 1.92502551e-02 ]
      - [ 2.07927227e-02, 1.62443146e-02, 2.20922679e-02, 9.74658877e-03,
          2.98895389e-02, 1.68940872e-02, 1.94931775e-02, 1.10461339e-02,
          1.62443146e-02, 2.14424953e-02, 9.74658877e-03, 1.42949969e-02,
          1.29954517e-02, 2.20922679e-02, 1.81936324e-02, 2.01429501e-02,
          1.75438598e-02, 8.44704360e-03, 2.40415856e-02, 1.94931775e-02,
          1.55945420e-02, 2.07927227e-02, 8.44704360e-03, 5.58804423e-02,
          3.76868099e-02, 1.29954517e-02, 1.42949969e-02, 1.23456791e-02,
          1.68940872e-02, 3.50877196e-02, 1.68940872e-02, 1.68940872e-02,
          1.36452243e-02, 5.00324890e-02, 7.14749843e-03, 1.42949969e-02,
          2.14424953e-02, 1.68940872e-02, 9.09681618e-03, 1.55945420e-02,
          3.31384018e-02, 2.20922679e-02, 4.41845357e-02, 1.10461339e-02,
          1.36452243e-02, 4.80831712e-02, 1.42949969e-02, 2.27420405e-02,
          1.10461339e-02, 1.68940872e-02 ]
      - [ 1.63934417e-02, 1.96721312e-02, 2.29508206e-02, 2.29508206e-02,
          1.63934417e-02, 3.60655747e-02, 2.62295082e-02, 2.29508206e-02,
          6.55737706e-03, 1.63934417e-02, 4.91803288e-02, 2.29508206e-02,
          6.55737706e-03, 9.83606558e-03, 2.29508206e-02, 2.29508206e-02,
          2.95081958e-02, 1.31147541e-02, 6.55737706e-03, 6.55737706e-03,
          2.29508206e-02, 2.95081958e-02, 1.63934417e-02, 1.96721312e-02,
          2.62295082e-02, 1.31147541e-02, 2.95081958e-02, 2.29508206e-02,
          3.27868834e-02, 1.31147541e-02, 2.95081958e-02, 1.31147541e-02,
          6.55737706e-03, 9.83606558e-03, 2.29508206e-02, 1.63934417e-02,
          6.55737706e-03, 1.96721312e-02, 1.96721312e-02, 9.83606558e-03,
          1.63934417e-02, 3.27868834e-02, 2.95081958e-02, 1.96721312e-02,
          3.27868853e-03, 1.96721312e-02, 1.31147541e-02, 2.95081958e-02,
          1.31147541e-02, 4.59016412e-02 ]
      - [ 4.00728583e-02, 1.45719489e-02, 3.64298723e-03, 7.28597445e-03,
          1.82149354e-02, 1.45719489e-02, 4.55373414e-02, 1.63934417e-02,
          9.10746772e-03, 2.55009104e-02, 9.10746772e-03, 2.36794166e-02,
          1.45719489e-02, 9.10746772e-03, 2.00364292e-02, 3.82513665e-02,
          2.18579229e-02, 1.82149354e-02, 2.36794166e-02, 1.27504552e-02,
          9.10746772e-03, 7.28597445e-03, 9.10746772e-03, 5.46448082e-02,
          5.82877956e-02, 1.63934417e-02, 3.64298723e-03, 1.63934417e-02,
          5.46448072e-03, 3.27868834e-02, 7.65027329e-02, 1.27504552e-02,
          9.10746772e-03, 3.09653915e-02, 9.10746772e-03, 7.28597445e-03,
          5.64663038e-02, 6.92167580e-02, 1.09289614e-02, 1.27504552e-02,
          9.10746772e-03, 9.10746772e-03, 1.09289614e-02, 1.27504552e-02,
          5.46448072e-03, 1.45719489e-02, 9.10746772e-03, 2.18579229e-02,
          1.82149361e-03, 1.09289614e-02 ]
      - [ 2.86123045e-02, 2.14592274e-02, 1.71673819e-02, 2.00286135e-02,
          1.14449216e-02, 2.43204590e-02, 1.85979977e-02, 5.72246080e-03,
          1.71673819e-02, 2.86123045e-02, 2.00286135e-02, 1.85979977e-02,
          3.14735360e-02, 5.72246080e-03, 2.00286135e-02, 2.57510729e-02,
          2.57510729e-02, 1.85979977e-02, 1.43061522e-02, 1.28755365e-02,
          1.85979977e-02, 1.43061522e-02, 2.28898432e-02, 2.28898432e-02,
          1.85979977e-02, 3.00429184e-02, 1.28755365e-02, 2.14592274e-02,
          1.28755365e-02, 3.57653797e-02, 1.57367680e-02, 1.57367680e-02,
          2.14592274e-02, 2.43204590e-02, 2.00286135e-02, 1.00143068e-02,
          1.71673819e-02, 2.28898432e-02, 3.71959955e-02, 2.28898432e-02,
          1.85979977e-02, 1.14449216e-02, 3.71959955e-02, 1.85979977e-02,
          2.28898432e-02, 2.14592274e-02, 2.86123045e-02, 7.15307612e-03,
          2.14592274e-02, 8.58369097e-03 ]
      - [ 1.61725059e-02, 1.61725059e-02, 2.15633418e-02, 2.15633418e-02,
          2.69541773e-03, 1.34770889e-02, 1.34770889e-02, 8.08625296e-03,
          1.61725059e-02, 2.96495948e-02, 1.61725059e-02, 1.07816709e-02,
          1.07816709e-02, 2.69541778e-02, 5.39083546e-03, 6.73854426e-02,
          1.88679248e-02, 2.96495948e-02, 2.42587589e-02, 2.15633418e-02,
          2.15633418e-02, 2.42587589e-02, 1.07816709e-02, 2.15633418e-02,
          2.42587589e-02, 2.15633418e-02, 2.42587589e-02, 1.61725059e-02,
          8.08625296e-03, 2.42587589e-02, 2.96495948e-02, 1.61725059e-02,
          2.69541773e-03, 1.88679248e-02, 2.15633418e-02, 1.07816709e-02,
          1.34770889e-02, 2.15633418e-02, 1.88679248e-02, 2.15633418e-02,
          1.34770889e-02, 4.31266837e-02, 1.61725059e-02, 1.07816709e-02,
          2.15633418e-02, 3.50404307e-02, 1.61725059e-02, 5.12129366e-02,
          2.69541778e-02, 2.69541773e-03 ]
      - [ 3.42261903e-02, 2.23214291e-02, 1.78571437e-02, 3.72023806e-02,
          1.78571437e-02, 1.56250000e-02, 3.86904776e-02, 1.19047621e-02,
          8.92857183e-03, 3.34821418e-02, 9.67261940e-03, 1.86011903e-02,
          2.15773806e-02, 2.38095243e-02, 1.19047621e-02, 2.30654757e-02,
          1.48809524e-02, 3.42261903e-02, 1.41369049e-02, 1.11607146e-02,
          8.18452425e-03, 1.19047621e-02, 2.00892854e-02, 2.52976194e-02,
          3.79464291e-02, 2.45535728e-02, 1.63690485e-02, 1.78571437e-02,
          1.78571437e-02, 3.72023806e-02, 1.56250000e-02, 1.71130951e-02,
          1.63690485e-02, 2.08333340e-02, 1.56250000e-02, 1.48809524e-02,
          2.52976194e-02, 1.63690485e-02, 1.04166670e-02, 2.90178582e-02,
          1.33928573e-02, 2.90178582e-02, 2.08333340e-02, 1.78571437e-02,
          2.00892854e-02, 1.41369049e-02, 1.86011903e-02, 2.08333340e-02,
          1.26488097e-02, 1.26488097e-02 ]
      - [ 2.25988701e-02, 3.38983051e-02, 5.64971752e-03, 2.25988701e-02,
          3.38983051e-02, 1.69491526e-02, 5.64971752e-03, 5.64971752e-03,
          5.64971752e-03, 3.38983051e-02, 1.12994350e-02, 2.25988701e-02,
          5.64971752e-03, 2.25988701e-02, 5.64971752e-03, 3.38983051e-02,
          2.82485876e-02, 2.82485876e-02, 3.38983051e-02, 2.25988701e-02,
          0., 2.25988701e-02, 3.38983051e-02, 3.38983051e-02,
          5.64971752e-02, 2.82485876e-02, 2.25988701e-02, 1.12994350e-02,
          0., 3.95480245e-02, 2.82485876e-02, 1.69491526e-02,
          5.64971752e-03, 2.82485876e-02, 1.12994350e-02, 5.64971752e-03,
          2.82485876e-02, 3.95480245e-02, 0., 1.69491526e-02,
          4.51977402e-02, 1.12994350e-02, 1.12994350e-02, 0.,
          5.64971752e-03, 2.25988701e-02, 1.69491526e-02, 2.25988701e-02,
          1.12994350e-02, 2.25988701e-02 ]
      - [ 3.30396444e-02, 8.81057233e-03, 2.20264308e-02, 2.42290739e-02,
          1.76211447e-02, 1.76211447e-02, 3.52422893e-02, 8.81057233e-03,
          0., 2.42290739e-02, 1.10132154e-02, 1.98237877e-02,
          1.98237877e-02, 1.98237877e-02, 2.64317170e-02, 2.42290739e-02,
          2.64317170e-02, 1.76211447e-02, 1.10132154e-02, 1.32158585e-02,
          1.10132154e-02, 2.86343601e-02, 1.98237877e-02, 3.52422893e-02,
          5.50660789e-02, 2.42290739e-02, 6.60792924e-03, 1.98237877e-02,
          8.81057233e-03, 3.08370031e-02, 1.98237877e-02, 6.60792924e-03,
          1.10132154e-02, 2.42290739e-02, 1.32158585e-02, 8.81057233e-03,
          2.20264308e-02, 2.20264308e-02, 1.98237877e-02, 1.76211447e-02,
          4.18502167e-02, 2.20264308e-02, 1.98237877e-02, 3.52422893e-02,
          1.54185016e-02, 6.60792924e-03, 1.54185016e-02, 2.64317170e-02,
          1.54185016e-02, 1.54185016e-02 ]
      - [ 2.65654642e-02, 1.51802655e-02, 1.51802655e-02, 1.32827321e-02,
          1.70777980e-02, 2.65654642e-02, 2.08728649e-02, 2.84629986e-02,
          2.27703974e-02, 1.70777980e-02, 2.65654642e-02, 1.89753324e-02,
          1.89753324e-02, 4.36432622e-02, 1.32827321e-02, 2.46679317e-02,
          1.51802655e-02, 2.27703974e-02, 5.69259934e-03, 1.70777980e-02,
          2.84629986e-02, 5.69259934e-03, 1.70777980e-02, 2.46679317e-02,
          9.48766619e-03, 2.84629986e-02, 2.46679317e-02, 3.22580636e-02,
          2.46679317e-02, 1.13851987e-02, 3.22580636e-02, 1.70777980e-02,
          1.13851987e-02, 1.32827321e-02, 2.27703974e-02, 1.89753324e-02,
          1.89753324e-02, 2.27703974e-02, 1.70777980e-02, 2.46679317e-02,
          9.48766619e-03, 2.46679317e-02, 3.41555960e-02, 1.13851987e-02,
          1.32827321e-02, 2.46679317e-02, 7.59013277e-03, 1.89753324e-02,
          2.84629986e-02, 1.13851987e-02 ]
      - [ 4.92424257e-02, 1.89393945e-02, 1.89393945e-02, 3.78787890e-03,
          1.89393945e-02, 1.13636367e-02, 1.51515156e-02, 1.89393945e-02,
          3.78787890e-03, 3.78787890e-02, 1.51515156e-02, 1.13636367e-02,
          3.03030312e-02, 3.03030312e-02, 2.65151523e-02, 7.19697028e-02,
          3.40909101e-02, 1.89393945e-02, 7.57575780e-03, 7.57575780e-03,
          1.51515156e-02, 2.27272734e-02, 1.51515156e-02, 5.30303046e-02,
          2.65151523e-02, 2.65151523e-02, 0., 2.27272734e-02,
          2.27272734e-02, 1.89393945e-02, 2.27272734e-02, 1.51515156e-02,
          0., 7.57575780e-03, 1.89393945e-02, 7.57575780e-03,
          1.13636367e-02, 1.89393945e-02, 3.03030312e-02, 3.78787890e-03,
          7.57575780e-03, 2.65151523e-02, 2.65151523e-02, 2.65151523e-02,
          3.78787890e-03, 3.78787890e-03, 7.57575780e-03, 3.78787890e-02,
          1.89393945e-02, 3.03030312e-02 ]
      - [ 0., 2.11267602e-02, 7.04225339e-03, 1.40845068e-02,
          7.04225339e-03, 2.11267602e-02, 7.04225339e-03, 0.,
          7.04225339e-03, 7.04225339e-03, 7.04225339e-03, 7.04225339e-03,
          0., 0., 2.81690136e-02, 7.04225339e-03, 7.04225339e-03, 0.,
          1.40845068e-02, 2.11267602e-02, 1.40845068e-02, 7.04225339e-03,
          2.81690136e-02, 2.81690136e-02, 1.40845068e-02, 7.04225339e-03,
          7.04225339e-03, 7.04225339e-03, 7.04225339e-03, 1.40845068e-02,
          7.04225339e-03, 1.40845068e-02, 1.40845068e-02, 0.,
          1.40845068e-02, 0., 1.76056340e-01, 0., 9.85915512e-02,
          2.11267602e-02, 5.63380271e-02, 0., 1.12676054e-01, 0.,
          7.04225339e-03, 1.05633803e-01, 7.04225339e-03, 0.,
          4.22535203e-02, 7.04225339e-03 ]
      - [ 1.29959639e-02, 1.06330616e-02, 1.39805069e-02, 2.92409193e-02,
          2.29398459e-02, 2.47120224e-02, 8.27015843e-03, 1.94939449e-02,
          2.61888355e-02, 9.15624760e-03, 2.50073858e-02, 1.52604124e-02,
          1.16176037e-02, 1.73279513e-02, 2.24475730e-02, 8.36861320e-03,
          2.06753965e-02, 1.48665952e-02, 2.51058396e-02, 3.50497216e-02,
          1.81155857e-02, 2.85517387e-02, 1.40789608e-02, 5.71034756e-03,
          4.33198782e-03, 3.41636315e-02, 3.17022763e-02, 2.87486464e-02,
          3.08161862e-02, 3.93817108e-03, 9.05779283e-03, 2.85517387e-02,
          2.64841989e-02, 1.27006005e-02, 2.38259342e-02, 2.04784889e-02,
          1.12237865e-02, 7.18716159e-03, 3.14069130e-02, 3.08161862e-02,
          1.28975092e-02, 9.15624760e-03, 2.94378269e-02, 2.40228418e-02,
