%YAML:1.0
---
opencv_ml_svm:
   format: 3
   svmType: C_SVC
   kernel:
      type: SIGMOID
      gamma: 1.0000000000000001e-05
      coef0: 1.0000000000000001e-01
   C: 1.0000000000000001e-01
   term_criteria: { iterations:100 }
   var_count: 50
   class_count: 2
   class_labels: !!opencv-matrix
      rows: 2
      cols: 1
      dt: i
      data: [ 0, 1 ]
   sv_total: 200
   support_vectors:
      - [ 1.81818176e-02, 4.99999970e-02, 9.09090880e-03, 1.81818176e-02,
          3.18181813e-02, 1.36363637e-02, 2.27272715e-02, 9.09090880e-03,
          0., 9.09090880e-03, 1.81818176e-02, 9.09090880e-03,
          2.72727273e-02, 4.54545440e-03, 2.27272715e-02, 3.18181813e-02,
          9.09090880e-03, 2.72727273e-02, 1.36363637e-02, 1.36363637e-02,
          1.36363637e-02, 1.36363637e-02, 2.72727273e-02, 2.27272715e-02,
          1.36363637e-02, 4.54545431e-02, 9.09090880e-03, 3.18181813e-02,
          1.36363637e-02, 4.99999970e-02, 2.72727273e-02, 1.36363637e-02,
          1.81818176e-02, 9.09090880e-03, 4.54545440e-03, 1.36363637e-02,
          1.81818176e-02, 1.81818176e-02, 2.27272715e-02, 2.27272715e-02,
          9.09090880e-03, 4.54545431e-02, 2.27272715e-02, 1.81818176e-02,
          1.81818176e-02, 2.72727273e-02, 4.54545440e-03, 2.72727273e-02,
          4.09090891e-02, 1.81818176e-02 ]
      - [ 1.63934417e-02, 3.82513665e-02, 1.09289614e-02, 0.,
          2.73224041e-02, 1.63934417e-02, 3.82513665e-02, 1.09289614e-02,
          0., 5.46448072e-03, 1.09289614e-02, 2.18579229e-02,
          5.46448072e-03, 1.09289614e-02, 5.46448082e-02, 3.27868834e-02,
          2.18579229e-02, 2.73224041e-02, 1.63934417e-02, 1.09289614e-02,
          1.63934417e-02, 2.18579229e-02, 4.37158458e-02, 2.73224041e-02,
          2.73224041e-02, 3.27868834e-02, 1.63934417e-02, 1.63934417e-02,
          5.46448072e-03, 2.73224041e-02, 3.27868834e-02, 5.46448072e-03,
          0., 2.18579229e-02, 1.63934417e-02, 1.09289614e-02,
          1.09289614e-02, 3.27868834e-02, 5.46448072e-03, 1.63934417e-02,
          1.09289614e-02, 4.91803251e-02, 5.46448072e-03, 3.27868834e-02,
          1.63934417e-02, 2.18579229e-02, 2.18579229e-02, 3.82513665e-02,
          1.09289614e-02, 2.73224041e-02 ]
      - [ 3.72670814e-02, 2.48447210e-02, 0., 0., 2.48447210e-02, 0.,
          5.59006222e-02, 1.86335407e-02, 1.86335407e-02, 6.21118024e-03,
          3.10559012e-02, 1.24223605e-02, 1.86335407e-02, 0.,
          7.45341629e-02, 1.24223605e-02, 2.48447210e-02, 1.86335407e-02,
          2.48447210e-02, 2.48447210e-02, 6.21118024e-03, 1.86335407e-02,
          3.10559012e-02, 6.21118024e-03, 6.21118024e-03, 6.21118024e-02,
          6.21118024e-03, 2.48447210e-02, 1.86335407e-02, 1.86335407e-02,
          1.86335407e-02, 1.24223605e-02, 6.21118024e-03, 1.24223605e-02,
          1.86335407e-02, 1.24223605e-02, 2.48447210e-02, 1.86335407e-02,
          3.10559012e-02, 1.24223605e-02, 0., 2.48447210e-02, 0.,
          2.48447210e-02, 2.48447210e-02, 3.72670814e-02, 2.48447210e-02,
          1.24223605e-02, 3.10559012e-02, 2.48447210e-02 ]
      - [ 1.32890362e-02, 2.32558139e-02, 3.98671106e-02, 2.99003311e-02,
          3.98671106e-02, 4.31893691e-02, 9.96677764e-03, 6.64451811e-03,
          3.32225906e-03, 9.96677764e-03, 1.66112948e-02, 1.99335553e-02,
          1.66112948e-02, 1.66112948e-02, 3.32225906e-03, 2.65780725e-02,
          6.64451811e-03, 9.96677764e-03, 1.99335553e-02, 1.66112948e-02,
          2.32558139e-02, 2.65780725e-02, 9.96677764e-03, 2.32558139e-02,
          1.99335553e-02, 1.66112948e-02, 2.65780725e-02, 6.64451811e-03,
          3.32225906e-03, 1.32890362e-02, 1.66112948e-02, 1.99335553e-02,
          6.64451811e-03, 9.30232555e-02, 0., 6.64451811e-03, 0.,
          1.66112948e-02, 1.32890362e-02, 1.66112948e-02, 7.97342211e-02,
          9.96677764e-03, 2.65780725e-02, 1.32890362e-02, 1.32890362e-02,
          4.65116277e-02, 2.65780725e-02, 2.65780725e-02, 1.66112948e-02,
          9.96677764e-03 ]
      - [ 2.30179019e-02, 3.58056277e-02, 3.58056277e-02, 1.27877239e-02,
          2.30179019e-02, 1.79028139e-02, 1.02301789e-02, 1.27877239e-02,
          5.11508947e-03, 2.30179019e-02, 2.30179019e-02, 2.04603579e-02,
          2.30179019e-02, 2.55754478e-02, 1.79028139e-02, 3.32480818e-02,
          1.27877239e-02, 7.67263398e-03, 2.04603579e-02, 1.27877239e-02,
          4.09207158e-02, 1.53452680e-02, 1.27877239e-02, 3.06905359e-02,
          3.83631699e-02, 7.67263398e-03, 1.79028139e-02, 7.67263398e-03,
          2.04603579e-02, 5.11508947e-03, 4.34782617e-02, 1.79028139e-02,
          2.30179019e-02, 3.83631699e-02, 2.04603579e-02, 1.79028139e-02,
          2.55754474e-03, 1.79028139e-02, 2.30179019e-02, 1.53452680e-02,
          3.58056277e-02, 1.53452680e-02, 4.34782617e-02, 1.53452680e-02,
          2.55754474e-03, 1.53452680e-02, 3.06905359e-02, 1.02301789e-02,
          1.27877239e-02, 5.11508947e-03 ]
      - [ 6.77200919e-03, 1.12866815e-02, 2.03160271e-02, 1.35440184e-02,
          4.51467261e-02, 3.16027105e-02, 0., 2.03160271e-02,
          2.25733630e-02, 1.35440184e-02, 2.48307008e-02, 2.70880368e-02,
          1.12866815e-02, 2.70880368e-02, 4.51467279e-03, 3.16027105e-02,
          2.03160271e-02, 4.51467279e-03, 2.93453727e-02, 6.77200919e-03,
          2.25733630e-02, 2.03160271e-02, 1.12866815e-02, 5.64334095e-02,
          9.02934559e-03, 1.35440184e-02, 5.19187376e-02, 2.48307008e-02,
          2.93453727e-02, 1.80586912e-02, 1.80586912e-02, 1.12866815e-02,
          1.58013552e-02, 7.67494366e-02, 1.58013552e-02, 6.77200919e-03,
          9.02934559e-03, 1.80586912e-02, 9.02934559e-03, 9.02934559e-03,
          3.83747183e-02, 1.58013552e-02, 1.58013552e-02, 1.12866815e-02,
          1.35440184e-02, 1.80586912e-02, 1.35440184e-02, 2.03160271e-02,
          1.80586912e-02, 1.58013552e-02 ]
      - [ 2.97029689e-02, 0., 1.98019799e-02, 1.98019799e-02,
          4.45544533e-02, 2.97029689e-02, 0., 0., 2.47524753e-02,
          1.98019799e-02, 2.97029689e-02, 4.95049497e-03, 1.48514844e-02,
          9.40594077e-02, 4.95049497e-03, 1.48514844e-02, 9.90098994e-03,
          4.95049497e-03, 2.97029689e-02, 2.47524753e-02, 2.97029689e-02,
          1.48514844e-02, 1.48514844e-02, 0., 9.90098994e-03,
          1.48514844e-02, 4.45544533e-02, 9.90098994e-03, 3.46534662e-02,
          0., 4.95049497e-03, 9.90098994e-03, 2.47524753e-02,
          5.94059378e-02, 2.47524753e-02, 4.95049497e-03, 0.,
          4.95049497e-03, 4.95049497e-03, 4.95049497e-03, 9.90099013e-02,
          1.48514844e-02, 2.97029689e-02, 0., 0., 6.93069324e-02,
          4.95049497e-03, 9.90098994e-03, 2.47524753e-02, 9.90098994e-03 ]
      - [ 1.44230779e-02, 1.92307699e-02, 2.40384620e-02, 1.44230779e-02,
          3.36538479e-02, 2.40384620e-02, 0., 4.80769249e-03,
          2.88461559e-02, 1.44230779e-02, 1.92307699e-02, 4.80769249e-03,
          1.92307699e-02, 5.28846160e-02, 4.80769249e-03, 9.61538497e-03,
          9.61538497e-03, 1.44230779e-02, 4.80769239e-02, 1.44230779e-02,
          3.84615399e-02, 1.44230779e-02, 9.61538497e-03, 0., 0.,
          9.61538497e-03, 2.88461559e-02, 9.61538497e-03, 9.61538497e-03,
          0., 1.44230779e-02, 3.36538479e-02, 4.32692319e-02,
          3.84615399e-02, 1.92307699e-02, 3.84615399e-02, 4.80769249e-03,
          4.80769249e-03, 0., 3.36538479e-02, 1.39423087e-01,
          4.80769249e-03, 2.88461559e-02, 4.80769249e-03, 0.,
          4.80769239e-02, 1.44230779e-02, 9.61538497e-03, 1.92307699e-02,
          4.80769249e-03 ]
      - [ 5.18134683e-02, 1.03626940e-02, 1.55440411e-02, 5.18134702e-03,
          1.55440411e-02, 1.03626940e-02, 5.69948182e-02, 1.55440411e-02,
          0., 3.62694301e-02, 1.55440411e-02, 1.55440411e-02,
          5.18134702e-03, 0., 5.69948182e-02, 2.59067342e-02,
          1.03626940e-02, 1.03626940e-02, 5.18134702e-03, 1.55440411e-02,
          0., 1.03626940e-02, 3.62694301e-02, 2.07253881e-02,
          5.69948182e-02, 4.66321222e-02, 1.03626940e-02, 2.07253881e-02,
          2.59067342e-02, 1.55440411e-02, 4.14507762e-02, 0.,
          5.18134702e-03, 5.18134702e-03, 2.07253881e-02, 1.55440411e-02,
          1.03626940e-02, 2.59067342e-02, 2.59067342e-02, 1.55440411e-02,
          5.18134702e-03, 2.59067342e-02, 1.03626940e-02, 1.03626940e-02,
          3.10880821e-02, 5.18134702e-03, 3.10880821e-02, 3.10880821e-02,
          4.14507762e-02, 2.07253881e-02 ]
      - [ 2.09424086e-02, 2.09424086e-02, 0., 1.04712043e-02,
          5.23560196e-02, 2.61780098e-02, 5.23560215e-03, 3.14136147e-02,
          3.66492160e-02, 3.66492160e-02, 5.23560215e-03, 1.04712043e-02,
          1.04712043e-02, 5.75916246e-02, 1.57068074e-02, 5.23560215e-03,
          0., 5.23560215e-03, 3.66492160e-02, 1.04712043e-02,
          3.14136147e-02, 1.57068074e-02, 1.57068074e-02, 2.09424086e-02,
          0., 1.04712043e-02, 4.71204184e-02, 5.23560215e-03,
          4.18848172e-02, 0., 3.14136147e-02, 3.14136147e-02,
          2.61780098e-02, 9.42408368e-02, 1.57068074e-02, 5.23560215e-03,
          0., 1.57068074e-02, 5.23560215e-03, 5.23560215e-03,
          7.32984319e-02, 5.23560215e-03, 1.57068074e-02, 5.23560215e-03,
          1.04712043e-02, 4.18848172e-02, 0., 0., 1.57068074e-02,
          1.57068074e-02 ]
      - [ 9.85221658e-03, 1.47783253e-02, 9.85221658e-03, 4.92610829e-03,
          7.38916248e-02, 2.95566507e-02, 0., 0., 1.97044332e-02,
          1.97044332e-02, 2.46305410e-02, 0., 1.47783253e-02,
          3.94088663e-02, 4.92610829e-03, 1.97044332e-02, 9.85221658e-03,
          4.92610829e-03, 4.43349741e-02, 2.46305410e-02, 2.46305410e-02,
          1.97044332e-02, 4.92610829e-03, 4.92610829e-03, 0., 0.,
          4.43349741e-02, 2.46305410e-02, 3.44827585e-02, 0.,
          1.97044332e-02, 9.85221658e-03, 2.46305410e-02, 5.41871898e-02,
          2.95566507e-02, 2.95566507e-02, 0., 4.92610829e-03,
          4.92610829e-03, 2.95566507e-02, 1.18226603e-01, 3.44827585e-02,
          0., 0., 4.92610829e-03, 3.44827585e-02, 2.95566507e-02,
          1.47783253e-02, 1.97044332e-02, 9.85221658e-03 ]
      - [ 5.71428565e-03, 5.71428565e-03, 5.71428565e-03, 2.28571426e-02,
          3.99999991e-02, 2.85714287e-02, 5.71428565e-03, 1.71428565e-02,
          3.42857130e-02, 2.28571426e-02, 1.14285713e-02, 5.71428565e-03,
          0., 1.02857143e-01, 0., 0., 1.14285713e-02, 0., 3.99999991e-02,
          2.85714287e-02, 3.99999991e-02, 2.28571426e-02, 0.,
          1.14285713e-02, 5.71428565e-03, 1.71428565e-02, 3.42857130e-02,
          0., 3.99999991e-02, 0., 0., 1.71428565e-02, 1.14285713e-02,
          1.14285715e-01, 1.14285713e-02, 5.71428565e-03, 0., 0., 0.,
          2.28571426e-02, 1.14285715e-01, 5.71428565e-03, 5.71428565e-03,
          5.71428565e-03, 1.71428565e-02, 6.28571436e-02, 1.14285713e-02,
          1.71428565e-02, 1.14285713e-02, 5.71428565e-03 ]
      - [ 1.05263162e-02, 5.26315812e-03, 1.05263162e-02, 5.26315793e-02,
          3.15789506e-02, 3.68421078e-02, 5.26315812e-03, 1.05263162e-02,
          3.15789506e-02, 2.10526325e-02, 1.05263162e-02, 2.10526325e-02,
          0., 4.73684222e-02, 0., 3.15789506e-02, 1.57894753e-02,
          1.05263162e-02, 3.15789506e-02, 2.10526325e-02, 2.63157897e-02,
          5.26315812e-03, 1.05263162e-02, 4.21052650e-02, 0.,
          5.26315812e-03, 1.57894753e-02, 1.57894753e-02, 3.15789506e-02,
          0., 3.68421078e-02, 1.57894753e-02, 1.57894753e-02,
          4.73684222e-02, 2.63157897e-02, 2.10526325e-02, 1.05263162e-02,
          2.63157897e-02, 1.05263162e-02, 4.73684222e-02, 4.73684222e-02,
          1.57894753e-02, 5.26315812e-03, 2.10526325e-02, 1.05263162e-02,
          1.05263162e-02, 2.63157897e-02, 5.26315812e-03, 1.57894753e-02,
          2.63157897e-02 ]
      - [ 0., 0., 1.41843967e-02, 1.41843967e-02, 7.09219873e-02,
          4.96453866e-02, 7.09219836e-03, 0., 2.83687934e-02, 0.,
          7.09219836e-03, 3.54609936e-02, 0., 2.83687934e-02, 0., 0.,
          2.83687934e-02, 7.09219836e-03, 1.41843967e-02, 4.96453866e-02,
          2.12765951e-02, 2.83687934e-02, 0., 3.54609936e-02, 0.,
          2.12765951e-02, 7.09219873e-02, 7.09219836e-03, 4.25531901e-02,
          0., 4.96453866e-02, 2.12765951e-02, 2.12765951e-02,
          4.96453866e-02, 2.83687934e-02, 7.09219836e-03, 0.,
          3.54609936e-02, 0., 1.41843967e-02, 7.80141801e-02,
          2.12765951e-02, 7.09219836e-03, 7.09219836e-03, 0.,
          3.54609936e-02, 2.12765951e-02, 7.09219836e-03, 7.09219836e-03,
          7.09219836e-03 ]
      - [ 1.59574468e-02, 1.06382975e-02, 0., 1.59574468e-02,
          4.25531901e-02, 3.72340418e-02, 5.31914877e-03, 1.06382975e-02,
          2.12765951e-02, 1.59574468e-02, 3.19148935e-02, 1.59574468e-02,
          0., 5.85106350e-02, 5.31914877e-03, 2.65957434e-02,
          2.12765951e-02, 0., 4.78723384e-02, 3.72340418e-02,
          3.72340418e-02, 1.06382975e-02, 0., 3.19148935e-02, 0.,
          1.59574468e-02, 4.25531901e-02, 1.59574468e-02, 6.38297871e-02,
          5.31914877e-03, 1.59574468e-02, 2.12765951e-02, 1.59574468e-02,
          4.25531901e-02, 1.06382975e-02, 5.31914877e-03, 0.,
          4.25531901e-02, 5.31914877e-03, 3.19148935e-02, 4.25531901e-02,
          0., 5.31914877e-03, 5.31914877e-03, 2.12765951e-02,
          3.19148935e-02, 1.59574468e-02, 1.59574468e-02, 2.12765951e-02,
          5.31914877e-03 ]
      - [ 8.03212821e-03, 1.60642564e-02, 4.01606411e-03, 4.01606411e-03,
          5.22088334e-02, 2.00803205e-02, 0., 1.20481923e-02,
          1.60642564e-02, 4.01606411e-03, 1.60642564e-02, 2.40963846e-02,
          1.60642564e-02, 6.82730898e-02, 1.20481923e-02, 2.40963846e-02,
          3.21285129e-02, 4.01606411e-03, 2.40963846e-02, 2.81124488e-02,
          4.01606411e-02, 2.00803205e-02, 0., 2.81124488e-02,
          4.01606411e-03, 1.20481923e-02, 4.01606411e-02, 2.81124488e-02,
          1.60642564e-02, 0., 4.41767052e-02, 2.00803205e-02,
          2.00803205e-02, 6.02409616e-02, 2.40963846e-02, 8.03212821e-03,
          4.01606411e-03, 3.61445770e-02, 8.03212821e-03, 2.40963846e-02,
          4.81927693e-02, 4.01606411e-03, 4.01606411e-03, 1.60642564e-02,
          4.01606411e-03, 3.21285129e-02, 2.81124488e-02, 8.03212821e-03,
          2.40963846e-02, 8.03212821e-03 ]
      - [ 8.88888910e-03, 1.77777782e-02, 8.88888910e-03, 4.44444455e-02,
          2.66666673e-02, 3.11111119e-02, 4.44444455e-03, 4.44444455e-03,
          1.33333337e-02, 4.44444455e-03, 1.77777782e-02, 4.44444455e-03,
          2.66666673e-02, 1.77777782e-02, 1.77777782e-02, 8.88888910e-03,
          4.44444455e-03, 1.33333337e-02, 5.33333346e-02, 2.66666673e-02,
          2.22222228e-02, 2.22222228e-02, 8.88888910e-03, 3.99999991e-02,
          1.33333337e-02, 1.33333337e-02, 8.44444484e-02, 2.22222228e-02,
          3.55555564e-02, 4.44444455e-03, 3.11111119e-02, 2.22222228e-02,
          1.33333337e-02, 4.44444455e-02, 2.22222228e-02, 0., 0.,
          3.55555564e-02, 8.88888910e-03, 1.77777782e-02, 3.99999991e-02,
          1.33333337e-02, 1.77777782e-02, 8.88888910e-03, 1.77777782e-02,
          2.66666673e-02, 8.88888910e-03, 1.77777782e-02, 2.22222228e-02,
          8.88888910e-03 ]
      - [ 4.92610829e-03, 2.95566507e-02, 2.95566507e-02, 4.92610829e-03,
          3.44827585e-02, 3.44827585e-02, 0., 4.92610829e-03,
          2.46305410e-02, 0., 1.47783253e-02, 4.92610829e-03, 0.,
          2.46305410e-02, 0., 1.97044332e-02, 1.97044332e-02,
          9.85221658e-03, 1.47783253e-02, 4.43349741e-02, 2.95566507e-02,
          1.47783253e-02, 1.47783253e-02, 1.47783253e-02, 0.,
          2.95566507e-02, 3.94088663e-02, 1.47783253e-02, 4.92610820e-02,
          4.92610829e-03, 3.94088663e-02, 4.92610829e-03, 9.85221658e-03,
          8.37438405e-02, 2.46305410e-02, 1.47783253e-02, 4.92610829e-03,
          2.46305410e-02, 1.47783253e-02, 2.46305410e-02, 5.41871898e-02,
          4.92610829e-03, 1.47783253e-02, 9.85221658e-03, 1.47783253e-02,
          2.95566507e-02, 2.95566507e-02, 2.46305410e-02, 2.95566507e-02,
          9.85221658e-03 ]
      - [ 3.13653126e-02, 1.29151288e-02, 9.22509283e-03, 1.66051667e-02,
          1.47601478e-02, 1.84501857e-02, 1.29151288e-02, 1.66051667e-02,
          1.10701108e-02, 1.29151288e-02, 1.84501857e-02, 9.22509283e-03,
          1.10701108e-02, 3.13653126e-02, 1.10701108e-02, 4.42804433e-02,
          2.02952027e-02, 9.22509283e-03, 2.76752766e-02, 1.10701108e-02,
          2.02952027e-02, 2.58302577e-02, 7.38007389e-03, 5.71955740e-02,
          1.10701108e-02, 2.39852406e-02, 3.32103334e-02, 1.84501857e-02,
          2.58302577e-02, 5.53505542e-03, 3.32103334e-02, 9.22509283e-03,
          1.47601478e-02, 3.50553505e-02, 2.02952027e-02, 1.47601478e-02,
          1.84501847e-03, 2.39852406e-02, 1.10701108e-02, 2.58302577e-02,
          2.58302577e-02, 2.95202956e-02, 7.38007389e-03, 2.76752766e-02,
          1.84501857e-02, 1.84501857e-02, 2.39852406e-02, 2.58302577e-02,
          1.84501857e-02, 3.50553505e-02 ]
      - [ 2.76816618e-02, 2.07612459e-02, 4.15224917e-02, 6.92041544e-03,
          1.03806229e-02, 3.46020772e-03, 6.92041516e-02, 1.73010379e-02,
          1.03806229e-02, 1.03806229e-02, 1.73010379e-02, 2.07612459e-02,
          2.07612459e-02, 1.38408309e-02, 1.38408309e-02, 2.07612459e-02,
          3.46020758e-02, 1.73010379e-02, 1.03806229e-02, 3.46020772e-03,
          3.46020772e-03, 0., 1.73010379e-02, 5.19031174e-02,
          5.53633235e-02, 1.38408309e-02, 3.46020772e-03, 2.07612459e-02,
          0., 6.92041544e-03, 7.26643652e-02, 3.46020772e-03,
          6.92041544e-03, 3.46020758e-02, 1.38408309e-02, 1.03806229e-02,
          3.46020772e-03, 5.19031174e-02, 0., 1.38408309e-02,
          1.03806229e-02, 3.11418697e-02, 5.88235296e-02, 3.46020772e-03,
          1.38408309e-02, 2.07612459e-02, 6.92041544e-03, 5.88235296e-02,
          6.92041544e-03, 1.38408309e-02 ]
      - [ 3.20000015e-02, 0., 0., 4.00000028e-02, 4.80000004e-02,
          3.20000015e-02, 2.40000002e-02, 0., 8.00000038e-03,
          4.00000028e-02, 1.60000008e-02, 3.20000015e-02, 2.40000002e-02,
          2.40000002e-02, 3.20000015e-02, 1.60000008e-02, 4.00000028e-02,
          1.60000008e-02, 1.60000008e-02, 1.60000008e-02, 2.40000002e-02,
          8.00000038e-03, 8.00000038e-03, 0., 8.00000038e-03,
          8.00000038e-03, 1.60000008e-02, 1.60000008e-02, 1.60000008e-02,
          8.00000038e-03, 3.20000015e-02, 0., 2.40000002e-02,
          8.80000070e-02, 8.00000038e-03, 2.40000002e-02, 0.,
          5.60000017e-02, 8.00000038e-03, 4.00000028e-02, 1.60000008e-02,
          3.20000015e-02, 8.00000038e-03, 0., 0., 8.00000038e-03,
          1.60000008e-02, 5.60000017e-02, 8.00000038e-03, 8.00000038e-03 ]
      - [ 1.10905729e-02, 1.10905729e-02, 7.39371544e-03, 2.95748618e-02,
          4.25138623e-02, 4.62107211e-02, 5.54528646e-03, 1.10905729e-02,
          4.80591506e-02, 5.54528646e-03, 1.29390024e-02, 1.29390024e-02,
          3.69685772e-03, 2.77264323e-02, 1.84842888e-02, 2.03327183e-02,
          1.66358594e-02, 0., 3.32717188e-02, 2.03327183e-02,
          3.88170071e-02, 2.95748618e-02, 5.54528646e-03, 4.62107211e-02,
          1.10905729e-02, 3.14232893e-02, 3.69685777e-02, 2.21811458e-02,
          3.14232893e-02, 0., 9.24214441e-03, 3.32717188e-02,
          2.03327183e-02, 5.73012941e-02, 1.84842888e-02, 5.54528646e-03,
          1.84842886e-03, 5.54528646e-03, 2.03327183e-02, 1.10905729e-02,
          7.02402964e-02, 1.10905729e-02, 7.39371544e-03, 1.10905729e-02,
          5.54528646e-03, 1.66358594e-02, 2.58780047e-02, 5.54528646e-03,
          2.21811458e-02, 3.69685772e-03 ]
      - [ 3.76450606e-02, 1.35861877e-02, 1.61335971e-02, 2.34927833e-02,
          1.18879145e-02, 2.77384669e-02, 2.43419204e-02, 1.98131911e-02,
          1.44353248e-02, 3.08519676e-02, 1.86810084e-02, 1.66996885e-02,
          3.08519676e-02, 4.86838408e-02, 1.66996885e-02, 2.46249661e-02,
          2.29266919e-02, 1.04726860e-02, 1.10387774e-02, 1.41522791e-02,
          1.92470998e-02, 2.06623264e-02, 1.07557317e-02, 3.50976512e-02,
          3.11350133e-02, 1.44353248e-02, 2.57571470e-02, 1.18879145e-02,
          2.57571470e-02, 1.10387774e-02, 2.09453721e-02, 1.58505514e-02,
          1.41522791e-02, 3.05689219e-02, 2.34927833e-02, 2.06623264e-02,
          8.49136710e-03, 1.52844610e-02, 5.94395725e-03, 2.40588747e-02,
          2.32097376e-02, 3.62298340e-02, 1.24540050e-02, 1.44353248e-02,
          1.38692334e-02, 7.92527571e-03, 1.50014153e-02, 2.46249661e-02,
          1.72657799e-02, 1.50014153e-02 ]
      - [ 1.73210166e-02, 1.67436488e-02, 1.96304843e-02, 2.13625859e-02,
          2.19399538e-02, 1.96304843e-02, 2.19399538e-02, 1.21247116e-02,
          1.61662810e-02, 1.78983826e-02, 1.50115471e-02, 2.30946876e-02,
          2.65588909e-02, 2.77136266e-02, 1.21247116e-02, 4.04157043e-02,
          2.25173216e-02, 1.32794455e-02, 2.59815250e-02, 1.38568133e-02,
          1.50115471e-02, 1.55889140e-02, 1.32794455e-02, 5.65819852e-02,
          2.82909926e-02, 1.27020786e-02, 1.84757505e-02, 1.96304843e-02,
          2.19399538e-02, 1.27020786e-02, 2.30946876e-02, 9.23787523e-03,
          1.09699769e-02, 8.02540407e-02, 1.67436488e-02, 1.27020786e-02,
          1.38568133e-02, 2.02078521e-02, 1.03926100e-02, 1.50115471e-02,
          3.46420333e-02, 2.65588909e-02, 1.67436488e-02, 7.50577357e-03,
          1.44341802e-02, 1.44341802e-02, 1.32794455e-02, 1.67436488e-02,
          1.27020786e-02, 1.09699769e-02 ]
      - [ 6.34920597e-02, 5.29100513e-03, 2.64550261e-02, 2.64550261e-02,
          5.29100513e-03, 4.23280410e-02, 5.29100513e-03, 5.29100513e-03,
          5.82010560e-02, 6.34920597e-02, 5.29100513e-03, 1.58730149e-02,
          3.70370373e-02, 2.64550261e-02, 0., 5.29100513e-03,
          2.11640205e-02, 2.64550261e-02, 1.05820103e-02, 5.29100513e-03,
          3.17460299e-02, 5.29100513e-03, 2.64550261e-02, 3.70370373e-02,
          9.52380896e-02, 5.29100513e-03, 1.58730149e-02, 0., 0.,
          1.58730149e-02, 5.29100513e-03, 2.11640205e-02, 4.23280410e-02,
          1.05820103e-02, 1.05820103e-02, 1.58730149e-02, 1.05820103e-02,
          5.29100513e-03, 0., 2.11640205e-02, 4.23280410e-02,
          3.70370373e-02, 2.64550261e-02, 5.29100513e-03, 1.05820103e-02,
          1.05820103e-02, 1.05820103e-02, 1.58730149e-02, 1.05820103e-02,
          0. ]
      - [ 2.67857164e-02, 2.23214291e-02, 4.46428591e-03, 1.78571437e-02,
          2.23214291e-02, 3.12500000e-02, 3.12500000e-02, 4.46428591e-03,
          4.46428591e-03, 2.23214291e-02, 2.23214291e-02, 1.78571437e-02,
          4.91071455e-02, 4.46428591e-03, 8.92857183e-03, 1.78571437e-02,
          2.67857164e-02, 1.33928582e-02, 3.57142873e-02, 8.92857183e-03,
          1.78571437e-02, 2.23214291e-02, 4.46428591e-03, 4.91071455e-02,
          3.57142873e-02, 8.92857183e-03, 2.23214291e-02, 8.92857183e-03,
          1.33928582e-02, 0., 6.25000000e-02, 8.92857183e-03,
          4.46428591e-03, 3.57142873e-02, 2.23214291e-02, 4.46428591e-03,
          2.23214291e-02, 2.67857164e-02, 4.46428591e-03, 1.33928582e-02,
          2.67857164e-02, 4.46428582e-02, 8.92857183e-03, 4.46428591e-03,
          2.23214291e-02, 2.23214291e-02, 1.33928582e-02, 4.91071455e-02,
          8.92857183e-03, 1.78571437e-02 ]
      - [ 3.83275263e-02, 2.09059231e-02, 1.39372824e-02, 1.39372824e-02,
          1.04529615e-02, 1.39372824e-02, 3.13588865e-02, 6.96864119e-03,
          2.09059231e-02, 3.13588865e-02, 3.13588865e-02, 1.39372824e-02,
          1.39372824e-02, 3.83275263e-02, 6.96864119e-03, 4.52961661e-02,
          2.78745648e-02, 3.48432059e-03, 2.43902449e-02, 1.39372824e-02,
          1.04529615e-02, 6.96864119e-03, 6.96864119e-03, 5.92334494e-02,
          1.04529615e-02, 1.39372824e-02, 2.09059231e-02, 1.04529615e-02,
          1.39372824e-02, 0., 3.13588865e-02, 1.39372824e-02,
          6.96864119e-03, 4.18118462e-02, 2.09059231e-02, 1.04529615e-02,
          1.39372824e-02, 2.78745648e-02, 1.74216032e-02, 2.09059231e-02,
          3.13588865e-02, 2.78745648e-02, 3.48432064e-02, 1.39372824e-02,
          6.96864119e-03, 1.39372824e-02, 1.74216032e-02, 3.13588865e-02,
          2.43902449e-02, 1.74216032e-02 ]
      - [ 2.35294141e-02, 7.84313772e-03, 1.37254912e-02, 2.54901983e-02,
          1.56862754e-02, 3.52941193e-02, 1.17647070e-02, 1.37254912e-02,
          1.96078438e-02, 2.35294141e-02, 1.76470596e-02, 1.37254912e-02,
          9.80392192e-03, 2.74509825e-02, 1.17647070e-02, 2.15686280e-02,
          2.54901983e-02, 9.80392192e-03, 1.56862754e-02, 7.84313772e-03,
          3.13725509e-02, 3.92156886e-03, 1.37254912e-02, 2.74509825e-02,
          3.72549035e-02, 1.76470596e-02, 2.15686280e-02, 1.17647070e-02,
          2.54901983e-02, 1.37254912e-02, 2.74509825e-02, 3.33333351e-02,
          2.74509825e-02, 8.43137279e-02, 2.74509825e-02, 2.94117667e-02,
          0., 1.37254912e-02, 1.17647070e-02, 2.15686280e-02,
          2.74509825e-02, 2.54901983e-02, 1.96078438e-02, 1.76470596e-02,
          1.17647070e-02, 7.84313772e-03, 9.80392192e-03, 1.56862754e-02,
          1.17647070e-02, 2.15686280e-02 ]
      - [ 2.39234436e-02, 4.78468882e-03, 9.56937764e-03, 3.58851664e-02,
          3.82775106e-02, 2.39234436e-02, 1.67464111e-02, 1.19617218e-02,
          1.67464111e-02, 2.15310995e-02, 1.91387553e-02, 1.67464111e-02,
          9.56937764e-03, 4.54545431e-02, 1.67464111e-02, 5.26315756e-02,
          2.39234436e-02, 9.56937764e-03, 1.19617218e-02, 1.43540669e-02,
          4.54545431e-02, 1.19617218e-02, 1.43540669e-02, 5.50239198e-02,
          2.15310995e-02, 1.91387553e-02, 1.91387553e-02, 9.56937764e-03,
          2.39234436e-02, 9.56937764e-03, 1.19617218e-02, 1.67464111e-02,
          1.91387553e-02, 5.26315756e-02, 1.91387553e-02, 1.19617218e-02,
          0., 2.39234436e-02, 7.17703346e-03, 1.67464111e-02,
          1.91387553e-02, 3.82775106e-02, 1.43540669e-02, 1.19617218e-02,
          2.15310995e-02, 1.91387553e-02, 9.56937764e-03, 1.67464111e-02,
          7.17703346e-03, 9.56937764e-03 ]
      - [ 2.36406624e-02, 3.45153660e-02, 2.08037831e-02, 1.08747045e-02,
          1.18203312e-02, 1.74940899e-02, 1.89125296e-02, 7.09219836e-03,
          1.22931441e-02, 2.22222228e-02, 1.22931441e-02, 9.92907770e-03,
          1.22931441e-02, 2.26950347e-02, 1.46572106e-02, 1.74940899e-02,
          1.22931441e-02, 2.17494089e-02, 7.56501174e-03, 3.78250587e-03,
          1.84397157e-02, 8.03782512e-03, 1.51300235e-02, 5.29550835e-02,
          6.43026009e-02, 2.03309692e-02, 1.08747045e-02, 7.56501174e-03,
          1.37115838e-02, 4.96453904e-02, 1.84397157e-02, 7.09219836e-03,
          4.25531901e-03, 5.10638282e-02, 8.98345187e-03, 7.56501174e-03,
          6.19385354e-02, 8.98345187e-03, 1.18203312e-02, 1.22931441e-02,
          4.11347523e-02, 2.78959814e-02, 4.39716317e-02, 1.18203312e-02,
          7.09219836e-03, 4.34988178e-02, 5.67375869e-03, 2.50591021e-02,
          1.51300235e-02, 1.08747045e-02 ]
      - [ 1.86335407e-02, 8.69565234e-02, 3.57142873e-02, 1.55279506e-02,
          3.10559012e-03, 7.76397530e-03, 2.95031071e-02, 9.31677036e-03,
          1.08695654e-02, 2.01863348e-02, 1.39751555e-02, 2.01863348e-02,
          1.39751555e-02, 6.21118024e-03, 1.70807466e-02, 1.08695654e-02,
          1.08695654e-02, 2.95031071e-02, 4.65838518e-03, 2.32919268e-02,
          3.10559012e-03, 0., 2.17391308e-02, 4.34782617e-02,
          6.83229864e-02, 2.01863348e-02, 1.55279506e-02, 9.31677036e-03,
          9.31677036e-03, 1.24223605e-01, 1.55279506e-02, 9.31677036e-03,
          3.10559012e-03, 6.21118024e-03, 9.31677036e-03, 1.08695654e-02,
          4.19254676e-02, 2.17391308e-02, 3.26086953e-02, 6.21118024e-03,
          1.55279506e-03, 2.01863348e-02, 3.10559012e-02, 1.86335407e-02,
          7.76397530e-03, 3.10559012e-02, 4.65838518e-03, 7.76397530e-03,
          1.24223605e-02, 4.65838518e-03 ]
      - [ 1.14030018e-02, 1.40011543e-02, 1.37124714e-02, 2.10739020e-02,
          2.28060037e-02, 2.17956118e-02, 7.79445702e-03, 1.71766747e-02,
          3.26212458e-02, 1.05369510e-02, 2.20842957e-02, 1.34237874e-02,
          1.40011543e-02, 2.46824473e-02, 1.57332569e-02, 1.96304843e-02,
          1.55889140e-02, 1.25577366e-02, 2.10739020e-02, 3.03117782e-02,
          1.81870665e-02, 2.22286377e-02, 1.12586608e-02, 1.28464205e-02,
          1.41454963e-02, 2.30946876e-02, 2.67032329e-02, 2.06408780e-02,
          2.59815250e-02, 2.19399538e-02, 1.18360277e-02, 1.70323327e-02,
          1.63106229e-02, 5.74480370e-02, 1.68879908e-02, 1.55889140e-02,
          1.61662810e-02, 6.78406470e-03, 2.20842957e-02, 1.84757505e-02,
          3.40646654e-02, 1.45785222e-02, 4.04157043e-02, 1.70323327e-02,
          1.47228632e-02, 3.83949205e-02, 2.36720555e-02, 1.45785222e-02,
          2.64145490e-02, 1.84757505e-02 ]
      - [ 2.20048893e-02, 4.48247753e-02, 2.44498774e-02, 2.20048893e-02,
          7.33496295e-03, 1.05949463e-02, 4.64547649e-02, 6.51996722e-03,
          0., 1.30399344e-02, 1.46699259e-02, 2.11898927e-02,
          4.31947820e-02, 1.14099430e-02, 1.62999183e-02, 1.87449064e-02,
          1.87449064e-02, 3.01548485e-02, 9.77995060e-03, 1.38549302e-02,
          4.88997530e-03, 1.14099430e-02, 2.11898927e-02, 1.62999183e-02,
          4.07497957e-02, 2.68948656e-02, 5.70497150e-03, 1.22249387e-02,
          1.22249387e-02, 8.47595707e-02, 1.46699259e-02, 8.14995915e-03,
          8.96495488e-03, 1.62999183e-02, 1.71149131e-02, 1.22249387e-02,
          4.56397720e-02, 1.54849226e-02, 2.03748979e-02, 2.68948656e-02,
          6.51996722e-03, 3.09698451e-02, 2.77098604e-02, 1.62999183e-02,
          1.54849226e-02, 2.44498774e-02, 1.22249387e-02, 1.79299098e-02,
          2.03748979e-02, 1.05949463e-02 ]
      - [ 6.52090553e-03, 1.30418111e-02, 1.18910624e-02, 1.26582282e-02,
          3.52896042e-02, 2.95358654e-02, 2.68507865e-03, 1.61104724e-02,
          3.06866132e-02, 3.83582665e-03, 1.72612201e-02, 1.41925588e-02,
          8.05523619e-03, 1.34253930e-02, 1.87955499e-02, 1.76448021e-02,
          1.99462995e-02, 7.28807040e-03, 3.03030312e-02, 2.99194474e-02,
          1.91791337e-02, 2.87686996e-02, 1.26582282e-02, 6.52090553e-03,
          2.68507865e-03, 2.49328725e-02, 2.64672041e-02, 2.68507861e-02,
          3.41388583e-02, 2.07134634e-02, 8.05523619e-03, 1.72612201e-02,
          1.30418111e-02, 6.36747256e-02, 1.45761408e-02, 1.03567317e-02,
          3.14537771e-02, 9.20598395e-03, 3.18373628e-02, 1.49597237e-02,
          4.90985811e-02, 4.98657487e-03, 3.45224403e-02, 1.49597237e-02,
          1.76448021e-02, 4.21940945e-02, 3.37552726e-02, 8.05523619e-03,
          1.68776363e-02, 2.14806292e-02 ]
      - [ 1.45808030e-02, 1.24544352e-02, 1.03280684e-02, 2.39975713e-02,
          2.39975713e-02, 1.85297690e-02, 6.98663434e-03, 1.24544352e-02,
          3.40218730e-02, 1.24544352e-02, 2.21749712e-02, 1.30619686e-02,
          9.11300164e-03, 2.85540707e-02, 1.36695020e-02, 1.51883364e-02,
          1.39732687e-02, 1.54921031e-02, 2.76427716e-02, 2.82503050e-02,
          1.79222357e-02, 1.48845697e-02, 1.09356018e-02, 3.88821401e-02,
          2.58201715e-02, 2.21749712e-02, 3.09842061e-02, 2.21749712e-02,
          3.64520065e-02, 3.85783724e-02, 1.51883364e-02, 1.82260033e-02,
          1.57958698e-02, 4.92102094e-02, 2.21749712e-02, 1.09356018e-02,
          2.27825046e-02, 1.21506685e-02, 1.85297690e-02, 2.67314706e-02,
          4.25273404e-02, 1.24544352e-02, 1.21506685e-02, 1.24544352e-02,
          9.41676833e-03, 2.61239372e-02, 1.51883364e-02, 1.39732687e-02,
          1.82260033e-02, 1.00243017e-02 ]
      - [ 3.23624606e-03, 1.94174759e-02, 6.47249212e-03, 1.94174759e-02,
          1.94174759e-02, 3.55987065e-02, 2.26537231e-02, 1.61812305e-02,
          3.23624606e-03, 1.61812305e-02, 3.55987065e-02, 3.23624606e-03,
          1.29449842e-02, 2.91262139e-02, 2.91262139e-02, 9.70873795e-03,
          9.70873795e-03, 3.88349518e-02, 1.29449842e-02, 1.29449842e-02,
          1.61812305e-02, 2.58899685e-02, 3.55987065e-02, 6.47249212e-03,
          9.70873795e-03, 3.23624611e-02, 2.91262139e-02, 3.55987065e-02,
          2.58899685e-02, 5.82524277e-02, 9.70873795e-03, 9.70873795e-03,
          2.26537231e-02, 1.94174759e-02, 6.47249212e-03, 1.29449842e-02,
          3.88349518e-02, 0., 1.61812305e-02, 9.70873795e-03,
          1.94174759e-02, 1.94174759e-02, 2.91262139e-02, 1.61812305e-02,
          1.94174759e-02, 1.61812305e-02, 1.29449842e-02, 3.23624611e-02,
          4.53074463e-02, 1.29449842e-02 ]
      - [ 1.61527172e-02, 8.81057233e-03, 1.24816447e-02, 1.98237877e-02,
          2.27606464e-02, 2.79001463e-02, 1.68869309e-02, 1.54185016e-02,
          2.42290739e-02, 1.98237877e-02, 1.68869309e-02, 1.83553603e-02,
          1.83553603e-02, 3.23054343e-02, 1.68869309e-02, 1.98237877e-02,
          2.12922171e-02, 1.61527172e-02, 2.79001463e-02, 1.54185016e-02,
          2.56975032e-02, 2.20264308e-02, 1.39500732e-02, 1.39500732e-02,
          1.32158585e-02, 2.64317170e-02, 3.96475755e-02, 1.39500732e-02,
          2.71659326e-02, 1.17474301e-02, 1.83553603e-02, 1.39500732e-02,
          1.61527172e-02, 5.50660789e-02, 1.24816447e-02, 1.24816447e-02,
          1.61527172e-02, 1.39500732e-02, 1.39500732e-02, 1.90895740e-02,
          4.40528616e-02, 1.98237877e-02, 2.12922171e-02, 1.98237877e-02,
          2.05580033e-02, 1.24816447e-02, 1.68869309e-02, 2.49632895e-02,
          1.76211447e-02, 1.54185016e-02 ]
      - [ 1.76157318e-02, 5.63293742e-03, 7.47644389e-03, 2.82671042e-02,
          2.38631703e-02, 3.41048762e-02, 8.80786590e-03, 1.15731256e-02,
          5.09012714e-02, 1.30069647e-02, 2.52970085e-02, 1.13682915e-02,
          1.18803764e-02, 6.12453893e-02, 1.47480536e-02, 1.48504712e-02,
          1.58746410e-02, 6.24743942e-03, 2.68332642e-02, 2.57066768e-02,
          3.00081931e-02, 2.33510863e-02, 5.32568619e-03, 1.03441216e-02,
          7.68127805e-03, 1.87423192e-02, 5.26423603e-02, 2.18148306e-02,
          6.20647259e-02, 3.27734533e-03, 1.18803764e-02, 2.43752562e-02,
          2.29414180e-02, 3.11347805e-02, 2.77550183e-02, 1.96640715e-02,
          3.07251117e-03, 8.29578005e-03, 1.80254001e-02, 2.99057756e-02,
          2.14051623e-02, 1.81278158e-02, 7.16919312e-03, 1.28021305e-02,
          1.31093813e-02, 8.19336344e-03, 2.33510863e-02, 1.63867269e-02,
          1.75133143e-02, 1.43383862e-02 ]
      - [ 0., 2.11267602e-02, 7.04225339e-03, 1.40845068e-02,
          7.04225339e-03, 2.11267602e-02, 7.04225339e-03, 0.,
          7.04225339e-03, 7.04225339e-03, 7.04225339e-03, 7.04225339e-03,
          0., 0., 2.81690136e-02, 7.04225339e-03, 7.04225339e-03, 0.,
          1.40845068e-02, 2.11267602e-02, 1.40845068e-02, 7.04225339e-03,
          2.81690136e-02, 2.81690136e-02, 1.40845068e-02, 7.04225339e-03,
          7.04225339e-03, 7.04225339e-03, 7.04225339e-03, 1.40845068e-02,
          7.04225339e-03, 1.40845068e-02, 1.40845068e-02, 0.,
          1.40845068e-02, 0., 1.76056340e-01, 0., 9.85915512e-02,
          2.11267602e-02, 5.63380271e-02, 0., 1.12676054e-01, 0.,
          7.04225339e-03, 1.05633803e-01, 7.04225339e-03, 0.,
          4.22535203e-02, 7.04225339e-03 ]
      - [ 2.58875750e-02, 2.14497037e-02, 1.99704152e-02, 2.36686394e-02,
          8.13609455e-03, 1.40532544e-02, 2.29289941e-02, 1.55325448e-02,
          7.39644980e-04, 3.03254444e-02, 1.03550293e-02, 6.65680505e-03,
          6.65680505e-03, 1.70118343e-02, 7.39644980e-03, 2.07100585e-02,
          6.65680505e-03, 3.62426043e-02, 8.13609455e-03, 7.39644980e-03,
          5.91715984e-03, 4.43786988e-03, 4.73372787e-02, 8.21005926e-02,
          1.07248522e-01, 2.66272202e-02, 8.13609455e-03, 5.17751463e-03,
          5.17751463e-03, 9.39349160e-02, 1.33136101e-02, 4.43786988e-03,
          8.13609455e-03, 1.99704152e-02, 1.47928996e-02, 8.13609455e-03,
          4.95562144e-02, 1.33136101e-02, 7.39644980e-03, 1.77514795e-02,
          2.95857992e-03, 2.66272202e-02, 1.10946745e-02, 1.10946745e-02,
          1.33136101e-02, 1.25739649e-02, 7.39644980e-03, 2.07100585e-02,
          2.73668636e-02, 1.40532544e-02 ]
      - [ 1.36469742e-02, 5.56652900e-03, 7.72131467e-03, 2.96282992e-02,
          2.33435091e-02, 1.79565456e-02, 1.16717545e-02, 1.32878432e-02,
          2.90896036e-02, 1.07739270e-02, 2.80122105e-02, 1.13126235e-02,
          1.66995879e-02, 2.78326459e-02, 2.24456824e-02, 1.45448018e-02,
          1.38265397e-02, 1.00556649e-02, 2.10091583e-02, 3.14239562e-02,
          1.59813259e-02, 2.19069850e-02, 1.36469742e-02, 1.72382835e-02,
          2.19069850e-02, 2.69348174e-02, 3.03465612e-02, 3.26809138e-02,
          3.30400430e-02, 2.31639426e-02, 1.38265397e-02, 2.56778598e-02,
          2.67552529e-02, 2.99874302e-02, 3.12443897e-02, 1.50834983e-02,
          8.43957625e-03, 9.87610035e-03, 3.71700488e-02, 3.41174379e-02,
          1.40061053e-02, 1.47243673e-02, 1.32878432e-02, 1.32878432e-02,
          1.47243673e-02, 1.52630638e-02, 2.83713415e-02, 1.97522007e-02,
          2.54982952e-02, 1.22104511e-02 ]
      - [ 3.33333351e-02, 2.29166672e-02, 1.56250000e-02, 1.45833343e-02,
          1.04166670e-02, 2.18750015e-02, 2.39583347e-02, 1.35416677e-02,
          1.04166672e-03, 1.35416677e-02, 1.45833343e-02, 8.33333377e-03,
          1.35416677e-02, 2.29166672e-02, 1.97916683e-02, 8.33333377e-03,
          5.20833349e-03, 1.87500007e-02, 1.14583336e-02, 1.04166670e-02,
          1.14583336e-02, 7.29166716e-03, 2.50000022e-02, 8.02083388e-02,
          9.47916731e-02, 2.08333340e-02, 1.04166670e-02, 1.04166670e-02,
          7.29166716e-03, 7.08333403e-02, 1.25000011e-02, 1.04166670e-02,
          7.29166716e-03, 3.12500000e-02, 9.37500037e-03, 1.35416677e-02,
          5.93750030e-02, 1.66666675e-02, 2.39583347e-02, 1.14583336e-02,
          2.08333340e-02, 2.50000022e-02, 2.29166672e-02, 7.29166716e-03,
          8.33333377e-03, 2.08333340e-02, 7.29166716e-03, 2.29166672e-02,
          1.25000011e-02, 1.35416677e-02 ]
      - [ 1.37142856e-02, 2.17142850e-02, 9.14285704e-03, 1.71428565e-02,
          2.05714293e-02, 1.59999989e-02, 1.71428565e-02, 1.59999989e-02,
          3.42857130e-02, 4.57142852e-03, 2.51428559e-02, 7.99999945e-03,
          1.37142856e-02, 1.94285717e-02, 1.94285717e-02, 1.94285717e-02,
          1.59999989e-02, 1.48571432e-02, 2.62857135e-02, 2.17142850e-02,
          1.25714280e-02, 2.62857135e-02, 1.48571432e-02, 1.37142856e-02,
          1.02857146e-02, 3.42857130e-02, 2.05714293e-02, 3.08571421e-02,
          2.74285711e-02, 4.11428586e-02, 1.25714280e-02, 1.48571432e-02,
          1.71428565e-02, 5.02857119e-02, 1.59999989e-02, 9.14285704e-03,
          5.59999980e-02, 9.14285704e-03, 3.99999991e-02, 1.37142856e-02,
          2.28571426e-02, 1.37142856e-02, 1.94285717e-02, 1.25714280e-02,
          1.14285713e-02, 2.17142850e-02, 1.94285717e-02, 1.37142856e-02,
          3.19999978e-02, 7.99999945e-03 ]
      - [ 2.52732225e-02, 2.66393442e-02, 1.98087431e-02, 1.22950813e-02,
          1.43442620e-02, 1.84426233e-02, 2.73224041e-02, 1.22950813e-02,
          3.68852466e-02, 2.25409828e-02, 1.09289614e-02, 1.57103818e-02,
          3.34699452e-02, 3.07377037e-02, 1.09289614e-02, 1.29781421e-02,
          1.63934417e-02, 1.84426233e-02, 1.09289614e-02, 1.84426233e-02,
          1.57103818e-02, 1.09289614e-02, 1.63934417e-02, 3.62021849e-02,
          4.71311472e-02, 1.77595615e-02, 2.18579229e-02, 2.04918031e-02,
          1.84426233e-02, 5.32786883e-02, 2.11748630e-02, 1.43442620e-02,
          1.91256832e-02, 3.14207636e-02, 1.50273219e-02, 1.57103818e-02,
          1.91256832e-02, 8.87978077e-03, 2.45901626e-02, 1.50273219e-02,
          1.50273219e-02, 2.32240427e-02, 1.43442620e-02, 1.43442620e-02,
          1.98087431e-02, 1.57103818e-02, 1.84426233e-02, 1.84426233e-02,
          8.87978077e-03, 1.43442620e-02 ]
      - [ 1.40400138e-02, 4.84380461e-02, 3.54510359e-02, 1.71990171e-02,
          8.42400827e-03, 9.47700907e-03, 1.75500177e-02, 7.72200758e-03,
          1.05300103e-03, 1.47420149e-02, 1.29870130e-02, 9.82800964e-03,
          2.24640220e-02, 1.57950148e-02, 1.36890132e-02, 1.15830116e-02,
          9.12600942e-03, 2.42190231e-02, 7.02000689e-03, 3.86100379e-03,
          7.37100746e-03, 7.37100746e-03, 2.21130215e-02, 4.84380461e-02,
          6.91470653e-02, 1.47420149e-02, 7.72200758e-03, 1.05300099e-02,
          3.15900310e-03, 1.09863110e-01, 1.29870130e-02, 8.77500884e-03,
          7.37100746e-03, 2.98350286e-02, 9.12600942e-03, 6.66900631e-03,
          1.03545099e-01, 9.47700907e-03, 1.15830116e-02, 1.50930146e-02,
          1.68480165e-02, 1.61460154e-02, 4.35240418e-02, 9.82800964e-03,
          1.19340122e-02, 3.58020365e-02, 6.31800620e-03, 1.61460154e-02,
          1.57950148e-02, 8.07300769e-03 ]
      - [ 1.94552522e-02, 1.81582365e-02, 7.78210117e-03, 1.55642023e-02,
          1.94552522e-02, 3.63164730e-02, 7.78210117e-03, 2.98313871e-02,
          1.29701681e-02, 1.42671857e-02, 1.81582365e-02, 1.29701681e-02,
          1.16731515e-02, 2.46433206e-02, 2.20492873e-02, 1.68612190e-02,
          2.07522698e-02, 2.98313871e-02, 2.20492873e-02, 1.68612190e-02,
          1.55642023e-02, 2.46433206e-02, 3.11284047e-02, 3.37224379e-02,
          1.03761349e-02, 2.98313871e-02, 1.68612190e-02, 2.85343714e-02,
          2.46433206e-02, 2.07522698e-02, 2.46433206e-02, 1.55642023e-02,
          1.42671857e-02, 1.55642023e-02, 2.98313871e-02, 2.46433206e-02,
          3.24254222e-02, 1.16731515e-02, 1.29701681e-02, 2.07522698e-02,
          1.94552522e-02, 1.68612190e-02, 1.42671857e-02, 1.94552522e-02,
          1.55642023e-02, 2.07522698e-02, 1.94552522e-02, 1.68612190e-02,
          2.20492873e-02, 1.94552522e-02 ]
      - [ 1.29959639e-02, 1.06330616e-02, 1.39805069e-02, 2.92409193e-02,
          2.29398459e-02, 2.47120224e-02, 8.27015843e-03, 1.94939449e-02,
          2.61888355e-02, 9.15624760e-03, 2.50073858e-02, 1.52604124e-02,
          1.16176037e-02, 1.73279513e-02, 2.24475730e-02, 8.36861320e-03,
          2.06753965e-02, 1.48665952e-02, 2.51058396e-02, 3.50497216e-02,
          1.81155857e-02, 2.85517387e-02, 1.40789608e-02, 5.71034756e-03,
          4.33198782e-03, 3.41636315e-02, 3.17022763e-02, 2.87486464e-02,
          3.08161862e-02, 3.93817108e-03, 9.05779283e-03, 2.85517387e-02,
          2.64841989e-02, 1.27006005e-02, 2.38259342e-02, 2.04784889e-02,
          1.12237865e-02, 7.18716159e-03, 3.14069130e-02, 3.08161862e-02,
          1.28975092e-02, 9.15624760e-03, 2.94378269e-02, 2.40228418e-02,
          2.61888355e-02, 3.02254613e-02, 3.37698162e-02, 1.11253327e-02,
          2.78625581e-02, 2.00846717e-02 ]
      - [ 2.57966612e-02, 2.12443098e-02, 1.82094090e-02, 2.57966612e-02,
          1.51745062e-02, 1.51745062e-02, 2.12443098e-02, 1.06221549e-02,
          1.21396054e-02, 1.51745062e-02, 1.82094090e-02, 9.10470448e-03,
          1.21396054e-02, 3.03490125e-02, 9.10470448e-03, 3.03490125e-02,
          2.27617603e-02, 1.51745062e-02, 1.66919567e-02, 1.51745062e-02,
          9.10470448e-03, 4.55235224e-03, 1.66919567e-02, 6.22154772e-02,
          5.61456755e-02, 2.12443098e-02, 1.66919567e-02, 7.58725312e-03,
          1.51745062e-02, 5.91805764e-02, 1.82094090e-02, 1.21396054e-02,
          6.06980268e-03, 7.28376359e-02, 1.51745062e-02, 1.06221549e-02,
          2.42792107e-02, 1.36570558e-02, 6.06980268e-03, 1.21396054e-02,
          3.94537188e-02, 2.88315620e-02, 2.73141116e-02, 7.58725312e-03,
          9.10470448e-03, 9.10470448e-03, 4.55235224e-03, 1.97268594e-02,
          1.97268594e-02, 1.51745062e-02 ]
      - [ 2.59067342e-02, 3.10880821e-02, 2.29459647e-02, 2.44263504e-02,
          5.18134702e-03, 2.14655809e-02, 1.85048115e-02, 1.40636563e-02,
          2.96076965e-02, 2.51665432e-02, 1.62842330e-02, 1.85048115e-02,
          1.03626940e-02, 2.59067342e-02, 1.40636563e-02, 1.40636563e-02,
          1.18430788e-02, 5.18134683e-02, 6.66173175e-03, 8.14211648e-03,
          1.18430788e-02, 6.66173175e-03, 4.88527007e-02, 5.03330864e-02,
          2.88675036e-02, 1.70244258e-02, 5.92153938e-03, 1.03626940e-02,
          1.03626940e-02, 8.36417452e-02, 1.03626940e-02, 8.14211648e-03,
          7.40192411e-03, 1.25832716e-02, 1.11028859e-02, 6.66173175e-03,
          5.03330864e-02, 1.25832716e-02, 8.14211648e-03, 1.62842330e-02,
          1.48038482e-02, 2.22057719e-02, 4.29311618e-02, 1.33234635e-02,
          9.62250121e-03, 3.18282731e-02, 2.96076969e-03, 1.48038482e-02,
          1.92450024e-02, 1.48038482e-02 ]
      - [ 1.64502170e-02, 2.25108229e-02, 5.19480556e-03, 2.85714287e-02,
          1.12554114e-02, 2.59740259e-02, 1.90476198e-02, 2.16450226e-02,
          1.81818195e-02, 1.64502170e-02, 2.85714287e-02, 1.21212127e-02,
          1.47186154e-02, 1.55844158e-02, 3.20346318e-02, 2.59740259e-02,
          1.81818195e-02, 2.25108229e-02, 1.38528142e-02, 2.42424253e-02,
          1.73160173e-02, 2.85714287e-02, 1.55844158e-02, 7.79220788e-03,
          1.99134201e-02, 5.19480519e-02, 1.90476198e-02, 2.68398281e-02,
          1.38528142e-02, 1.99134201e-02, 1.64502170e-02, 1.99134201e-02,
          1.55844158e-02, 8.65800865e-03, 2.16450226e-02, 1.12554114e-02,
          3.29004340e-02, 1.38528142e-02, 5.62770590e-02, 1.73160173e-02,
          1.29870130e-02, 8.65800865e-03, 1.99134201e-02, 1.12554114e-02,
          2.07792222e-02, 7.79220788e-03, 2.51082256e-02, 2.07792222e-02,
          3.72294374e-02, 7.79220788e-03 ]
      - [ 2.24719103e-02, 3.82022485e-02, 1.12359552e-02, 2.69662924e-02,
          1.57303363e-02, 1.79775283e-02, 2.24719103e-02, 2.92134844e-02,
          1.79775283e-02, 2.69662924e-02, 2.47191004e-02, 8.98876414e-03,
          6.74157310e-03, 3.14606726e-02, 2.02247202e-02, 3.82022485e-02,
          1.12359552e-02, 4.04494405e-02, 6.74157310e-03, 8.98876414e-03,
          1.12359552e-02, 8.98876414e-03, 1.57303363e-02, 1.57303363e-02,
          2.02247202e-02, 2.02247202e-02, 1.79775283e-02, 1.57303363e-02,
          1.12359552e-02, 5.16853929e-02, 2.02247202e-02, 6.74157310e-03,
          2.24719103e-03, 2.24719103e-02, 2.02247202e-02, 6.74157310e-03,
          4.94382009e-02, 2.92134844e-02, 2.02247202e-02, 2.24719103e-02,
          2.47191004e-02, 4.49438207e-03, 2.02247202e-02, 4.49438207e-03,
          1.12359552e-02, 3.37078646e-02, 1.57303363e-02, 1.57303363e-02,
          3.59550565e-02, 1.79775283e-02 ]
      - [ 0., 1.20481923e-02, 0., 1.20481923e-02, 2.40963846e-02,
          2.40963846e-02, 0., 1.20481923e-02, 2.40963846e-02, 0., 0., 0.,
          1.20481923e-02, 1.20481923e-02, 3.61445770e-02, 1.20481923e-02,
          0., 0., 1.20481923e-02, 1.20481923e-02, 8.43373463e-02, 0., 0.,
          0., 0., 7.22891539e-02, 1.20481923e-02, 2.40963846e-02,
          1.20481923e-02, 1.20481923e-02, 0., 3.61445770e-02, 0., 0., 0.,
          0., 1.32530123e-01, 0., 4.81927693e-02, 1.20481923e-02,
          6.02409616e-02, 1.20481923e-02, 4.81927693e-02, 3.61445770e-02,
          1.20481923e-02, 1.32530123e-01, 0., 0., 2.40963846e-02,
          2.40963846e-02 ]
      - [ 2.43902430e-02, 4.06504050e-03, 4.06504050e-03, 2.03252025e-02,
          1.21951215e-02, 3.25203240e-02, 1.21951215e-02, 1.62601620e-02,
          1.62601620e-02, 1.62601620e-02, 5.28455265e-02, 1.62601620e-02,
          1.21951215e-02, 1.62601620e-02, 4.06504050e-03, 2.43902430e-02,
          1.62601620e-02, 2.03252025e-02, 2.84552835e-02, 1.62601620e-02,
          1.21951215e-02, 2.03252025e-02, 1.21951215e-02, 1.21951215e-02,
          8.13008100e-03, 5.28455265e-02, 3.65853645e-02, 4.06504050e-02,
          4.87804860e-02, 4.06504050e-03, 2.84552835e-02, 2.43902430e-02,
          1.62601620e-02, 2.84552835e-02, 1.62601620e-02, 2.43902430e-02,
          8.13008100e-03, 1.21951215e-02, 2.03252025e-02, 4.06504050e-02,
          2.84552835e-02, 1.21951215e-02, 0., 4.06504050e-03,
          2.03252025e-02, 8.13008100e-03, 2.84552835e-02, 2.84552835e-02,
          1.62601620e-02, 2.03252025e-02 ]
      - [ 2.57879663e-02, 8.59598815e-03, 2.86532938e-03, 2.00573057e-02,
          1.05062081e-02, 3.15186232e-02, 2.86532957e-02, 1.33715374e-02,
          2.10124161e-02, 2.10124161e-02, 1.52817573e-02, 1.81470867e-02,
          1.52817573e-02, 1.05062081e-02, 1.91021971e-02, 1.05062081e-02,
          2.10124161e-02, 2.96084043e-02, 8.59598815e-03, 1.71919763e-02,
          1.81470867e-02, 2.00573057e-02, 1.62368678e-02, 1.43266479e-02,
          2.57879663e-02, 2.67430749e-02, 1.62368678e-02, 1.81470867e-02,
          2.48328559e-02, 2.86532957e-02, 9.55109857e-03, 3.34288441e-02,
          2.96084043e-02, 7.64087867e-03, 2.19675265e-02, 2.96084043e-02,
          2.57879663e-02, 8.59598815e-03, 5.34861498e-02, 2.10124161e-02,
          5.73065877e-03, 2.19675265e-02, 8.59598815e-03, 3.05635147e-02,
          4.77554910e-02, 2.86532938e-03, 2.57879663e-02, 1.43266479e-02,
          2.00573057e-02, 2.38777455e-02 ]
      - [ 7.21153850e-03, 1.76282059e-02, 2.00320520e-02, 1.68269239e-02,
          2.24358980e-02, 1.76282059e-02, 2.08333340e-02, 1.04166670e-02,
          1.44230770e-02, 1.28205130e-02, 2.00320520e-02, 1.52243590e-02,
          1.60256419e-02, 1.36217950e-02, 1.84294879e-02, 1.60256419e-02,
          1.20192310e-02, 2.56410260e-02, 1.92307699e-02, 2.00320520e-02,
          1.20192310e-02, 2.00320520e-02, 2.56410260e-02, 3.20512839e-02,
          3.44551280e-02, 2.64423080e-02, 2.08333340e-02, 8.81410297e-03,
          1.20192310e-02, 5.20833358e-02, 1.20192310e-02, 1.84294879e-02,
          1.60256419e-02, 3.76602560e-02, 1.28205130e-02, 8.01282097e-03,
          4.56730761e-02, 1.04166670e-02, 1.36217950e-02, 1.60256419e-02,
          3.60576920e-02, 5.60897449e-03, 4.40705121e-02, 1.36217950e-02,
          1.52243590e-02, 4.72756401e-02, 1.92307699e-02, 1.36217950e-02,
          2.00320520e-02, 1.36217950e-02 ]
      - [ 6.20911596e-03, 7.94067234e-03, 1.05817327e-02, 1.80501621e-02,
          2.20379885e-02, 2.02889424e-02, 3.97033617e-03, 2.41893157e-02,
          3.30569819e-02, 4.49504983e-03, 2.05163173e-02, 1.29779270e-02,
          7.67831504e-03, 8.76272377e-03, 2.54136492e-02, 1.43246930e-02,
          1.60912294e-02, 1.12113897e-02, 2.24402696e-02, 5.03375642e-02,
          1.95718333e-02, 3.29345502e-02, 1.41672781e-02, 9.95207578e-03,
          7.03116786e-03, 3.26721929e-02, 2.72151660e-02, 2.91915890e-02,
          2.70052813e-02, 9.67222825e-03, 5.43953525e-03, 2.64980569e-02,
          2.46790498e-02, 2.17231605e-02, 1.89771578e-02, 2.07436942e-02,
          9.16500483e-03, 4.33763582e-03, 5.24014384e-02, 1.94493998e-02,
          1.77878048e-02, 5.28212124e-03, 2.52562352e-02, 3.50858755e-02,
          3.52432914e-02, 2.20204983e-02, 4.83786315e-02, 7.24105351e-03,
          2.70402618e-02, 2.32623219e-02 ]
      - [ 2.45398767e-02, 1.43149281e-02, 1.43149281e-02, 2.04498973e-02,
          1.02249486e-02, 2.24948861e-02, 3.27198356e-02, 1.84049085e-02,
          1.02249486e-02, 1.63599178e-02, 2.45398767e-02, 2.04498973e-03,
          3.06748450e-02, 1.43149281e-02, 2.04498973e-02, 2.04498973e-03,
          1.63599178e-02, 4.90797535e-02, 1.43149281e-02, 6.13496918e-03,
          1.63599178e-02, 1.84049085e-02, 3.47648263e-02, 8.17995891e-03,
          4.29447852e-02, 3.06748450e-02, 1.22699384e-02, 1.43149281e-02,
          1.43149281e-02, 8.58895704e-02, 1.63599178e-02, 2.65848674e-02,
          2.24948861e-02, 1.22699384e-02, 1.22699384e-02, 1.84049085e-02,
          3.27198356e-02, 2.04498973e-03, 1.84049085e-02, 2.04498973e-02,
          1.22699384e-02, 1.43149281e-02, 3.47648263e-02, 2.65848674e-02,
          1.84049085e-02, 6.13496918e-03, 1.84049085e-02, 1.43149281e-02,
          2.45398767e-02, 6.13496918e-03 ]
      - [ 1.14394668e-02, 3.14585343e-02, 1.33460443e-02, 1.90657768e-02,
          1.52526218e-02, 1.62059106e-02, 1.04861772e-02, 1.42993331e-02,
          7.62631092e-03, 1.04861772e-02, 1.71591993e-02, 5.71973342e-03,
          2.47855112e-02, 9.53288842e-03, 2.95519549e-02, 5.71973342e-03,
          3.81315546e-03, 2.76453774e-02, 1.42993331e-02, 1.23927556e-02,
          1.23927556e-02, 1.90657768e-02, 2.66920887e-02, 2.19256431e-02,
          7.05433786e-02, 3.90848443e-02, 1.90657768e-02, 1.52526218e-02,
          1.23927556e-02, 5.14775999e-02, 1.04861772e-02, 1.14394668e-02,
          9.53288842e-03, 2.85986662e-02, 1.04861772e-02, 9.53288842e-03,
          5.33841774e-02, 1.62059106e-02, 1.71591993e-02, 2.66920887e-02,
          4.19447087e-02, 1.52526218e-02, 3.90848443e-02, 9.53288842e-03,
          1.42993331e-02, 4.19447087e-02, 2.00190656e-02, 8.57959967e-03,
          2.00190656e-02, 7.62631092e-03 ]
      - [ 2.44100895e-02, 3.17331143e-02, 3.33604552e-02, 1.22050447e-02,
          1.95280723e-02, 2.68510990e-02, 8.95036571e-03, 1.22050447e-02,
          2.03417409e-02, 1.13913752e-02, 2.11554114e-02, 1.05777057e-02,
          1.87144019e-02, 4.96338494e-02, 1.38323838e-02, 3.90561447e-02,
          1.54597228e-02, 8.13669618e-03, 1.54597228e-02, 1.95280723e-02,
          2.52237581e-02, 1.30187143e-02, 8.95036571e-03, 4.14971523e-02,
          3.98698114e-02, 2.03417409e-02, 1.79007314e-02, 1.54597228e-02,
          2.19690800e-02, 1.38323838e-02, 1.54597228e-02, 2.27827504e-02,
          1.38323838e-02, 3.41741256e-02, 1.30187143e-02, 8.95036571e-03,
          3.33604552e-02, 9.76403616e-03, 1.62733924e-02, 1.13913752e-02,
          2.60374285e-02, 2.11554114e-02, 3.17331143e-02, 1.46460533e-02,
          1.22050447e-02, 2.35964190e-02, 1.22050447e-02, 1.79007314e-02,
          1.95280723e-02, 1.13913752e-02 ]
      - [ 7.97607191e-03, 1.29611166e-02, 2.69192420e-02, 3.38983051e-02,
          1.79461613e-02, 2.79162526e-02, 5.98205393e-03, 1.59521438e-02,
          2.29312070e-02, 1.59521438e-02, 1.39581263e-02, 1.09670991e-02,
          6.97906315e-03, 2.39282157e-02, 1.79461613e-02, 1.19641079e-02,
          2.99102697e-03, 1.79461613e-02, 2.39282157e-02, 2.69192420e-02,
          3.58923227e-02, 2.19341982e-02, 1.59521438e-02, 1.59521438e-02,
          1.49551351e-02, 3.19042876e-02, 2.89132614e-02, 9.97008942e-03,
          2.79162526e-02, 2.89132614e-02, 4.98504471e-03, 1.89431701e-02,
          2.79162526e-02, 4.28713858e-02, 1.69491526e-02, 7.97607191e-03,
          3.09072789e-02, 2.99102697e-03, 1.79461613e-02, 1.39581263e-02,
          5.38384840e-02, 1.09670991e-02, 4.98504490e-02, 6.97906315e-03,
          1.29611166e-02, 2.89132614e-02, 2.19341982e-02, 1.29611166e-02,
          2.69192420e-02, 1.09670991e-02 ]
      - [ 2.87769791e-02, 1.43884895e-02, 0., 1.79856122e-02,
          7.19424477e-03, 3.59712238e-03, 3.23741026e-02, 1.43884895e-02,
          0., 1.79856122e-02, 1.43884895e-02, 7.19424477e-03,
          1.07913669e-02, 3.59712238e-03, 5.75539581e-02, 3.59712238e-03,
          3.59712243e-02, 3.59712243e-02, 7.19424477e-03, 7.19424477e-03,
          3.59712238e-03, 2.15827338e-02, 3.23741026e-02, 3.59712238e-03,
          3.23741026e-02, 5.03597148e-02, 0., 7.19424477e-03, 0.,
          6.83453232e-02, 3.23741026e-02, 0., 0., 1.07913669e-02,
          1.43884895e-02, 2.51798574e-02, 5.75539581e-02, 2.51798574e-02,
          7.19424486e-02, 1.79856122e-02, 1.79856122e-02, 7.19424477e-03,
          2.87769791e-02, 2.87769791e-02, 3.95683460e-02, 2.15827338e-02,
          1.43884895e-02, 3.59712238e-03, 2.51798574e-02, 1.79856122e-02 ]
      - [ 1.91938579e-02, 5.75815737e-02, 3.64683308e-02, 1.34357000e-02,
          0., 2.30326280e-02, 1.72744710e-02, 1.15163140e-02,
          3.83877149e-03, 2.11132430e-02, 1.15163140e-02, 9.59692895e-03,
          1.72744710e-02, 7.67754298e-03, 2.87907869e-02, 2.11132430e-02,
          2.30326280e-02, 5.37427999e-02, 0., 1.72744710e-02,
          1.15163140e-02, 9.59692895e-03, 4.41458710e-02, 7.67754298e-03,
          2.87907869e-02, 5.95009588e-02, 3.83877149e-03, 9.59692895e-03,
          3.83877149e-03, 9.98080596e-02, 1.15163140e-02, 0.,
          7.67754298e-03, 1.91938574e-03, 7.67754298e-03, 1.91938574e-03,
          3.83877158e-02, 1.91938574e-03, 1.72744710e-02, 9.59692895e-03,
          3.83877149e-03, 2.49520149e-02, 6.33397326e-02, 1.72744710e-02,
          9.59692895e-03, 5.18234149e-02, 7.67754298e-03, 9.59692895e-03,
          2.49520149e-02, 1.72744710e-02 ]
      - [ 2.15982716e-03, 1.51187899e-02, 1.29589625e-02, 2.37580985e-02,
          2.80777533e-02, 3.67170610e-02, 6.47948124e-03, 1.07991360e-02,
          8.63930862e-03, 2.15982716e-03, 1.94384437e-02, 1.51187899e-02,
          1.29589625e-02, 4.31965431e-03, 2.80777533e-02, 1.51187899e-02,
          1.07991360e-02, 6.47948124e-03, 2.15982720e-02, 1.94384437e-02,
          2.80777533e-02, 4.31965431e-03, 2.59179249e-02, 0.,
          8.63930862e-03, 4.53563705e-02, 1.51187899e-02, 1.94384437e-02,
          2.15982720e-02, 5.18358499e-02, 1.07991360e-02, 1.51187899e-02,
          1.29589625e-02, 4.53563705e-02, 2.15982720e-02, 8.63930862e-03,
          3.23974080e-02, 6.47948124e-03, 2.80777533e-02, 2.37580985e-02,
          6.47948161e-02, 2.15982716e-03, 2.59179249e-02, 1.29589625e-02,
          2.80777533e-02, 6.47948161e-02, 1.94384437e-02, 6.47948124e-03,
          3.02375797e-02, 1.94384437e-02 ]
      - [ 1.80995483e-02, 1.58371050e-02, 1.13122175e-02, 1.35746617e-02,
          1.13122175e-02, 1.80995483e-02, 2.94117667e-02, 1.80995483e-02,
          1.80995483e-02, 9.04977415e-03, 1.13122175e-02, 9.04977415e-03,
          2.71493234e-02, 2.26244349e-02, 3.16742100e-02, 4.52488707e-03,
          1.35746617e-02, 1.58371050e-02, 9.04977415e-03, 1.35746617e-02,
          9.04977415e-03, 1.35746617e-02, 1.58371050e-02, 4.52488698e-02,
          4.75113131e-02, 1.58371050e-02, 1.35746617e-02, 9.04977415e-03,
          9.04977415e-03, 4.97737564e-02, 1.35746617e-02, 2.26244349e-02,
          1.13122175e-02, 1.58371050e-02, 2.03619916e-02, 6.78733084e-03,
          7.01357499e-02, 1.13122175e-02, 9.04977415e-03, 1.13122175e-02,
          4.52488698e-02, 5.20361997e-02, 2.26244349e-02, 1.35746617e-02,
          1.13122175e-02, 1.58371050e-02, 9.04977415e-03, 4.75113131e-02,
          2.26244349e-02, 1.80995483e-02 ]
      - [ 5.31914877e-03, 8.86524841e-03, 1.95035450e-02, 9.75177251e-03,
          4.78723384e-02, 1.68439709e-02, 1.77304959e-03, 3.54609918e-03,
          2.48226933e-02, 2.65957438e-03, 1.24113467e-02, 1.06382975e-02,
          4.43262421e-03, 2.65957438e-03, 1.15248226e-02, 1.24113467e-02,
          7.09219836e-03, 8.86524795e-04, 5.67375869e-02, 3.01418435e-02,
          1.68439709e-02, 1.59574468e-02, 4.43262421e-03, 1.68439709e-02,
          1.32978717e-02, 1.59574468e-02, 2.57092193e-02, 1.41843967e-02,
          2.21631192e-02, 1.41843967e-02, 8.86524841e-03, 9.75177251e-03,
          1.32978717e-02, 1.81737587e-01, 5.31914877e-03, 5.31914877e-03,
          8.86524795e-04, 7.09219836e-03, 6.20567333e-03, 7.09219836e-03,
          1.67553186e-01, 5.31914877e-03, 2.39361692e-02, 7.97872338e-03,
          4.43262421e-03, 4.25531901e-02, 3.54609936e-02, 4.43262421e-03,
          8.86524841e-03, 4.43262421e-03 ]
      - [ 1.27041740e-02, 1.99637022e-02, 1.45190563e-02, 1.81488208e-02,
          1.54264970e-02, 1.72413792e-02, 8.16696882e-03, 9.07441042e-03,
          1.45190563e-02, 8.16696882e-03, 1.99637022e-02, 7.25952815e-03,
          1.08892918e-02, 1.36116156e-02, 2.45009083e-02, 1.17967334e-02,
          8.16696882e-03, 3.44827585e-02, 9.07441042e-03, 1.45190563e-02,
          1.45190563e-02, 1.17967334e-02, 2.26860251e-02, 2.54083481e-02,
          4.26497273e-02, 2.54083481e-02, 1.27041740e-02, 1.36116156e-02,
          1.36116156e-02, 6.89655170e-02, 8.16696882e-03, 7.25952815e-03,
          6.35208702e-03, 3.72050814e-02, 1.27041740e-02, 1.08892918e-02,
          7.80399293e-02, 9.07441042e-03, 1.81488208e-02, 9.98185109e-03,
          2.08711438e-02, 1.36116156e-02, 5.44464625e-02, 1.72413792e-02,
          1.08892918e-02, 6.89655170e-02, 1.36116156e-02, 1.63339376e-02,
          2.63157897e-02, 1.63339376e-02 ]
      - [ 3.78787890e-02, 3.03030312e-02, 0., 1.51515156e-02, 0., 0.,
          1.51515156e-02, 0., 0., 7.57575780e-03, 7.57575780e-03,
          1.51515156e-02, 0., 7.57575780e-03, 2.27272734e-02, 0.,
          1.51515156e-02, 9.09090936e-02, 0., 0., 0., 0., 6.06060624e-02,
          7.57575780e-03, 7.57575780e-03, 3.03030312e-02, 0.,
          1.51515156e-02, 0., 2.50000000e-01, 2.27272734e-02,
          7.57575780e-03, 0., 0., 1.51515156e-02, 7.57575780e-03,
          1.59090906e-01, 0., 2.27272734e-02, 0., 0., 7.57575780e-03,
          2.27272734e-02, 7.57575780e-03, 1.51515156e-02, 2.27272734e-02,
          0., 7.57575780e-03, 2.27272734e-02, 2.27272734e-02 ]
      - [ 1.86602864e-02, 3.73205729e-02, 2.00956929e-02, 1.62679423e-02,
          2.63157897e-02, 2.05741618e-02, 1.29186604e-02, 1.29186604e-02,
          9.09090880e-03, 2.05741618e-02, 1.43540669e-02, 1.33971293e-02,
          2.05741618e-02, 1.29186604e-02, 1.96172241e-02, 3.63636352e-02,
          1.43540669e-02, 1.53110046e-02, 2.44019143e-02, 1.24401916e-02,
          1.48325358e-02, 2.10526306e-02, 1.43540669e-02, 4.44976054e-02,
          3.34928222e-02, 2.44019143e-02, 1.38755981e-02, 1.00478465e-02,
          7.17703346e-03, 2.34449767e-02, 2.44019143e-02, 9.56937764e-03,
          9.09090880e-03, 6.65071756e-02, 9.09090880e-03, 7.17703346e-03,
          2.63157897e-02, 2.10526306e-02, 1.24401916e-02, 1.19617227e-02,
          4.25837301e-02, 1.53110046e-02, 3.15789469e-02, 8.61243997e-03,
          1.19617227e-02, 4.49760742e-02, 1.81818176e-02, 1.00478465e-02,
          2.15310995e-02, 1.19617227e-02 ]
      - [ 2.03562342e-02, 2.03562342e-02, 1.52671756e-02, 2.29007639e-02,
          2.54452927e-03, 1.27226468e-02, 2.54452936e-02, 1.78117044e-02,
          0., 5.08905854e-03, 2.54452936e-02, 1.27226468e-02,
          4.07124683e-02, 0., 2.29007639e-02, 2.54452927e-03,
          1.27226468e-02, 3.56234089e-02, 5.08905854e-03, 7.63358781e-03,
          0., 5.08905854e-03, 3.05343512e-02, 5.08905854e-03,
          2.29007639e-02, 3.81679386e-02, 0., 1.78117044e-02,
          5.08905854e-03, 1.11959286e-01, 1.27226468e-02, 5.08905854e-03,
          1.27226468e-02, 0., 2.03562342e-02, 1.27226468e-02,
          1.45038173e-01, 1.27226468e-02, 3.05343512e-02, 2.03562342e-02,
          2.54452927e-03, 1.78117044e-02, 3.81679386e-02, 4.07124683e-02,
          1.27226468e-02, 5.08905854e-03, 1.52671756e-02, 1.01781171e-02,
          2.79898215e-02, 1.27226468e-02 ]
      - [ 1.59786940e-02, 6.65778946e-03, 2.66311574e-03, 2.26364844e-02,
          1.46471364e-02, 3.32889482e-02, 1.19840205e-02, 1.99733675e-02,
          4.66045253e-02, 1.73102524e-02, 3.72836217e-02, 7.98934698e-03,
          1.06524630e-02, 5.85885458e-02, 1.19840205e-02, 1.33155789e-02,
          1.46471364e-02, 1.46471364e-02, 2.13049259e-02, 2.26364844e-02,
          2.39680409e-02, 1.86418109e-02, 1.59786940e-02, 9.32090543e-03,
          5.32623148e-03, 2.39680409e-02, 1.99733675e-02, 3.32889482e-02,
          5.05991988e-02, 3.99467349e-03, 1.06524630e-02, 3.32889482e-02,
          3.32889482e-02, 1.33155789e-02, 2.13049259e-02, 3.19573879e-02,
          1.46471364e-02, 9.32090543e-03, 3.86151783e-02, 2.66311578e-02,
          1.46471364e-02, 2.13049259e-02, 6.65778946e-03, 1.73102524e-02,
          1.33155789e-02, 9.32090543e-03, 1.73102524e-02, 1.19840205e-02,
          2.79627144e-02, 1.73102524e-02 ]
      - [ 2.44210530e-02, 1.22105265e-02, 1.76842101e-02, 1.85263157e-02,
          2.18947362e-02, 4.12631556e-02, 3.36842099e-03, 1.76842101e-02,
          5.59999980e-02, 1.51578942e-02, 7.99999945e-03, 1.17894737e-02,
          2.69473679e-02, 4.92631570e-02, 8.42105225e-03, 1.38947368e-02,
          1.47368414e-02, 7.99999945e-03, 1.76842101e-02, 1.81052629e-02,
          4.37894724e-02, 2.27368418e-02, 9.26315784e-03, 1.81052629e-02,
          1.09473681e-02, 1.13684209e-02, 2.69473679e-02, 2.94736843e-03,
          2.56842095e-02, 4.21052612e-03, 7.57894712e-03, 1.97894741e-02,
          2.52631567e-02, 8.33684206e-02, 1.17894737e-02, 1.30526312e-02,
          3.78947356e-03, 3.78947356e-03, 3.36842099e-03, 1.81052629e-02,
          7.03157857e-02, 2.44210530e-02, 2.61052623e-02, 8.84210505e-03,
          1.26315784e-02, 2.31578946e-02, 2.02105269e-02, 1.64210517e-02,
          1.05263153e-02, 1.64210517e-02 ]
      - [ 8.06823466e-03, 2.48962659e-02, 2.58183498e-02, 6.68510841e-03,
          3.01982481e-02, 1.15260491e-02, 7.60719227e-03, 1.06039653e-02,
          5.99354552e-03, 4.61041974e-03, 1.08344862e-02, 1.42923007e-02,
          1.19870910e-02, 1.26786539e-02, 1.84416790e-02, 2.25910563e-02,
          1.38312588e-02, 1.56754274e-02, 3.31950225e-02, 1.24481330e-02,
          8.75979755e-03, 2.21300144e-02, 2.25910563e-02, 2.14384515e-02,
          1.75195951e-02, 2.85846014e-02, 1.79806370e-02, 1.03734443e-02,
          1.29091749e-02, 5.80912866e-02, 9.45136044e-03, 5.07146167e-03,
          6.91562938e-03, 9.35915187e-02, 6.68510841e-03, 6.68510841e-03,
          8.64453688e-02, 7.60719227e-03, 1.01429233e-02, 5.99354552e-03,
          7.44582787e-02, 9.45136044e-03, 2.99677271e-02, 1.47533426e-02,
          1.70585532e-02, 3.66528369e-02, 2.16689724e-02, 1.06039653e-02,
          1.54449055e-02, 8.99031851e-03 ]
      - [ 2.07253881e-02, 3.10880821e-02, 5.18134702e-03, 1.55440411e-02,
          2.07253881e-02, 1.03626940e-02, 3.10880821e-02, 0.,
          5.18134702e-03, 1.55440411e-02, 1.03626940e-02, 2.59067342e-02,
          1.03626940e-02, 1.03626940e-02, 1.03626940e-02, 0.,
          1.03626940e-02, 2.59067342e-02, 1.03626940e-02, 1.03626940e-02,
          2.07253881e-02, 0., 4.66321222e-02, 5.18134702e-03,
          5.18134702e-03, 3.62694301e-02, 1.55440411e-02, 4.14507762e-02,
          1.03626940e-02, 9.32642445e-02, 2.59067342e-02, 1.03626940e-02,
          1.03626940e-02, 1.03626940e-02, 1.03626940e-02, 1.03626940e-02,
          4.66321222e-02, 2.59067342e-02, 3.10880821e-02, 2.07253881e-02,
          2.59067342e-02, 1.55440411e-02, 4.14507762e-02, 2.07253881e-02,
          2.59067342e-02, 4.14507762e-02, 1.03626940e-02, 5.18134702e-03,
          4.14507762e-02, 1.55440411e-02 ]
      - [ 2.61904765e-02, 7.02380985e-02, 7.73809552e-02, 1.07142860e-02,
          4.76190494e-03, 1.30952382e-02, 1.42857153e-02, 1.30952382e-02,
          1.19047624e-03, 2.14285720e-02, 1.30952382e-02, 1.19047621e-02,
          1.19047621e-02, 1.07142860e-02, 1.54761914e-02, 2.61904765e-02,
          5.95238106e-03, 2.97619067e-02, 4.76190494e-03, 8.33333377e-03,
          5.95238106e-03, 4.76190494e-03, 5.35714291e-02, 1.42857153e-02,
          2.61904765e-02, 1.78571437e-02, 2.38095247e-03, 9.52380989e-03,
          7.14285765e-03, 1.08333334e-01, 7.14285765e-03, 5.95238106e-03,
          9.52380989e-03, 2.38095247e-03, 1.90476198e-02, 7.14285765e-03,
          7.14285746e-02, 1.19047621e-02, 1.90476198e-02, 1.19047621e-02,
          7.14285765e-03, 2.26190481e-02, 5.35714291e-02, 1.30952382e-02,
          1.30952382e-02, 1.78571437e-02, 7.14285765e-03, 1.66666675e-02,
          3.09523828e-02, 1.19047621e-02 ]
      - [ 1.21951215e-02, 1.95121951e-02, 1.46341464e-02, 2.43902430e-02,
          7.31707318e-03, 5.12195118e-02, 4.87804879e-03, 7.31707318e-03,
          1.21951215e-02, 2.19512191e-02, 1.21951215e-02, 1.21951215e-02,
          4.87804879e-03, 1.95121951e-02, 1.46341464e-02, 1.46341464e-02,
          4.87804879e-03, 8.04878026e-02, 0., 2.43902439e-03,
          2.68292688e-02, 1.95121951e-02, 8.29268321e-02, 1.21951215e-02,
          9.75609757e-03, 3.41463424e-02, 2.43902439e-03, 1.46341464e-02,
          1.95121951e-02, 1.95121951e-02, 9.75609757e-03, 3.41463424e-02,
          1.21951215e-02, 3.17073166e-02, 2.19512191e-02, 7.31707318e-03,
          5.60975596e-02, 2.43902439e-03, 1.95121951e-02, 1.46341464e-02,
          3.17073166e-02, 7.31707318e-03, 3.90243903e-02, 9.75609757e-03,
          4.87804879e-03, 4.63414639e-02, 9.75609757e-03, 9.75609757e-03,
          3.90243903e-02, 9.75609757e-03 ]
      - [ 8.06451589e-03, 1.32488478e-02, 5.29953912e-02, 6.33640541e-03,
          3.85944694e-02, 1.61290318e-02, 4.03225794e-03, 1.03686638e-02,
          3.16820294e-02, 7.48847937e-03, 1.72811057e-02, 1.26728108e-02,
          1.90092158e-02, 1.78571437e-02, 1.32488478e-02, 4.32027653e-02,
          1.38248848e-02, 5.76036889e-03, 5.01152091e-02, 1.78571437e-02,
          1.55529957e-02, 1.44009218e-02, 4.03225794e-03, 4.37788032e-02,
          2.41935477e-02, 1.09447008e-02, 1.78571437e-02, 1.32488478e-02,
          1.49769587e-02, 2.07373276e-02, 1.03686638e-02, 1.78571437e-02,
          1.26728108e-02, 1.20967738e-01, 1.55529957e-02, 6.91244239e-03,
          6.91244239e-03, 1.55529957e-02, 2.01612897e-02, 9.21658985e-03,
          4.55069132e-02, 1.32488478e-02, 1.32488478e-02, 1.26728108e-02,
          1.09447008e-02, 3.28341015e-02, 2.24654377e-02, 1.26728108e-02,
          9.79262684e-03, 1.09447008e-02 ]
      - [ 2.06185561e-02, 1.03092780e-02, 0., 2.57731955e-02, 0.,
          2.06185561e-02, 2.06185561e-02, 3.09278332e-02, 0.,
          3.09278332e-02, 1.03092780e-02, 0., 1.03092780e-02,
          3.09278332e-02, 3.60824727e-02, 0., 1.03092780e-02,
          9.79381427e-02, 5.15463902e-03, 1.54639166e-02, 5.15463902e-03,
          0., 4.12371121e-02, 1.03092780e-02, 3.09278332e-02,
          4.63917516e-02, 0., 3.09278332e-02, 1.03092780e-02,
          1.44329891e-01, 5.15463902e-03, 1.03092780e-02, 5.15463902e-03,
          0., 5.15463902e-03, 0., 8.76288638e-02, 1.54639166e-02,
          4.12371121e-02, 1.54639166e-02, 0., 1.54639166e-02,
          1.54639166e-02, 5.15463902e-03, 1.54639166e-02, 0.,
          1.03092780e-02, 0., 3.60824727e-02, 2.06185561e-02 ]
      - [ 7.19424477e-03, 7.19424477e-03, 2.15827338e-02, 2.87769791e-02,
          3.59712238e-03, 7.19424477e-03, 1.07913669e-02, 3.59712238e-03,
          0., 2.15827338e-02, 2.51798574e-02, 7.19424477e-03,
          1.79856122e-02, 1.43884895e-02, 2.51798574e-02, 3.59712238e-03,
          7.19424477e-03, 6.47482052e-02, 0., 0., 0., 3.59712238e-03,
          4.31654677e-02, 0., 1.79856122e-02, 4.31654677e-02, 0.,
          1.79856122e-02, 3.59712238e-03, 1.83453247e-01, 3.59712238e-03,
          3.59712238e-03, 7.19424477e-03, 3.59712238e-03, 1.43884895e-02,
          7.19424477e-03, 8.99280608e-02, 7.19424477e-03, 2.51798574e-02,
          7.19424477e-03, 0., 1.43884895e-02, 1.15107916e-01,
          2.51798574e-02, 3.59712243e-02, 0., 3.59712238e-03,
          7.19424477e-03, 2.51798574e-02, 1.43884895e-02 ]
      - [ 6.97906315e-03, 1.09670991e-02, 5.98205393e-03, 2.09371895e-02,
          2.59222332e-02, 2.09371895e-02, 9.97008989e-04, 1.99401788e-02,
          3.29012983e-02, 1.19641079e-02, 1.99401788e-02, 6.97906315e-03,
          6.97906315e-03, 3.38983051e-02, 2.39282157e-02, 2.09371895e-02,
          6.97906315e-03, 8.97308066e-03, 3.48953158e-02, 7.47756734e-02,
          1.89431701e-02, 2.49252245e-02, 7.97607191e-03, 6.97906315e-03,
          4.98504471e-03, 3.88833508e-02, 3.68893333e-02, 4.18743789e-02,
          3.58923227e-02, 2.99102697e-03, 2.99102697e-03, 1.79461613e-02,
          9.97008942e-03, 3.78863402e-02, 1.99401788e-02, 6.97906315e-03,
          9.97008942e-03, 9.97008989e-04, 4.88534421e-02, 1.69491526e-02,
          3.88833508e-02, 7.97607191e-03, 1.59521438e-02, 1.29611166e-02,
          1.49551351e-02, 4.48654033e-02, 2.59222332e-02, 7.97607191e-03,
          2.69192420e-02, 1.49551351e-02 ]
      - [ 1.00824926e-02, 1.00824926e-02, 1.00824926e-02, 1.92483962e-02,
          2.10815761e-02, 2.29147561e-02, 1.00824926e-02, 1.00824926e-02,
          2.01649852e-02, 4.58295131e-03, 3.11640687e-02, 1.55820344e-02,
          1.74152143e-02, 1.92483962e-02, 1.09990835e-02, 1.64986253e-02,
          1.28322635e-02, 1.74152143e-02, 2.74977088e-02, 2.47479379e-02,
          2.47479379e-02, 1.55820344e-02, 1.55820344e-02, 8.24931264e-03,
          8.24931264e-03, 3.02474797e-02, 3.84967923e-02, 2.29147561e-02,
          3.11640687e-02, 2.84142978e-02, 1.55820344e-02, 2.29147561e-02,
          1.55820344e-02, 5.95783666e-02, 1.55820344e-02, 1.92483962e-02,
          2.65811179e-02, 7.33272219e-03, 2.29147561e-02, 2.01649852e-02,
          4.39963341e-02, 1.28322635e-02, 2.29147561e-02, 1.19156735e-02,
          1.37488544e-02, 3.48304287e-02, 2.38313470e-02, 1.37488544e-02,
          2.38313470e-02, 1.74152143e-02 ]
      - [ 1.96850393e-02, 2.36220472e-02, 3.93700786e-03, 2.36220472e-02,
          3.93700786e-02, 5.11811003e-02, 0., 1.18110236e-02,
          3.54330689e-02, 3.14960629e-02, 3.14960629e-02, 7.87401572e-03,
          3.93700786e-03, 3.93700786e-02, 4.33070883e-02, 1.18110236e-02,
          7.87401572e-03, 7.87401572e-03, 2.36220472e-02, 3.14960629e-02,
          1.96850393e-02, 4.33070883e-02, 3.93700786e-03, 0., 0.,
          3.14960629e-02, 4.33070883e-02, 2.75590550e-02, 3.93700786e-02,
          0., 0., 1.57480314e-02, 1.96850393e-02, 2.36220472e-02,
          1.96850393e-02, 7.87401572e-03, 0., 0., 3.14960629e-02,
          7.87401572e-03, 5.90551198e-02, 7.87401572e-03, 7.87401572e-03,
          7.87401572e-03, 7.87401572e-03, 3.14960629e-02, 3.93700786e-02,
          1.96850393e-02, 2.36220472e-02, 1.18110236e-02 ]
      - [ 2.10970454e-02, 8.43881816e-03, 2.10970454e-02, 1.68776363e-02,
          1.68776363e-02, 2.95358635e-02, 2.95358635e-02, 1.26582272e-02,
          1.68776363e-02, 2.10970454e-02, 1.26582272e-02, 1.68776363e-02,
          2.53164545e-02, 6.32911325e-02, 1.68776363e-02, 2.10970454e-02,
          2.95358635e-02, 1.26582272e-02, 2.10970454e-02, 0.,
          4.21940908e-03, 0., 1.26582272e-02, 4.21940908e-02,
          2.53164545e-02, 1.68776363e-02, 1.26582272e-02, 1.26582272e-02,
          1.68776363e-02, 1.68776363e-02, 1.68776363e-02, 1.26582272e-02,
          2.53164545e-02, 1.26582272e-02, 1.26582272e-02, 8.43881816e-03,
          3.37552726e-02, 2.10970454e-02, 3.37552726e-02, 2.10970454e-02,
          1.26582272e-02, 3.79746817e-02, 2.53164545e-02, 1.68776363e-02,
          1.26582272e-02, 4.21940908e-03, 2.10970454e-02, 4.21940908e-02,
          3.79746817e-02, 1.68776363e-02 ]
      - [ 1.04438644e-02, 1.82767622e-02, 5.22193220e-03, 1.82767622e-02,
          2.61096610e-03, 1.56657957e-02, 1.82767622e-02, 1.30548310e-02,
          7.83289783e-03, 2.87206266e-02, 2.61096619e-02, 2.61096610e-03,
          5.48302867e-02, 2.61096610e-03, 3.13315913e-02, 1.56657957e-02,
          1.30548310e-02, 3.91644910e-02, 0., 7.83289783e-03,
          2.61096610e-03, 1.04438644e-02, 2.61096619e-02, 1.30548310e-02,
          3.39425579e-02, 4.17754576e-02, 0., 2.87206266e-02,
          7.83289783e-03, 1.25326365e-01, 3.13315913e-02, 1.04438644e-02,
          1.30548310e-02, 2.61096610e-03, 5.22193220e-03, 2.61096610e-03,
          9.39947814e-02, 2.61096619e-02, 1.56657957e-02, 7.83289783e-03,
          2.61096610e-03, 5.22193220e-03, 3.13315913e-02, 1.82767622e-02,
          1.56657957e-02, 5.22193220e-03, 1.04438644e-02, 3.13315913e-02,
          2.87206266e-02, 2.08877288e-02 ]
      - [ 2.02669296e-02, 1.18635688e-02, 1.53237758e-02, 1.82896685e-02,
          1.48294605e-02, 3.01532354e-02, 7.90904555e-03, 1.63124073e-02,
          2.52100825e-02, 1.63124073e-02, 2.61987131e-02, 1.28521994e-02,
          2.27385052e-02, 4.25111204e-02, 1.48294605e-02, 3.46020758e-02,
          1.53237758e-02, 8.40336084e-03, 2.57043988e-02, 1.77953523e-02,
          2.52100825e-02, 2.52100825e-02, 1.33465147e-02, 2.07612440e-02,
          1.82896685e-02, 2.47157682e-02, 3.21304984e-02, 1.92782991e-02,
          3.26248147e-02, 5.43746864e-03, 1.68067217e-02, 2.27385052e-02,
          2.42214520e-02, 2.91646048e-02, 2.27385052e-02, 1.68067217e-02,
          1.38408300e-02, 1.18635688e-02, 1.77953523e-02, 1.87839828e-02,
          3.36134434e-02, 2.17498746e-02, 1.08749373e-02, 1.48294605e-02,
          1.48294605e-02, 1.68067217e-02, 2.07612440e-02, 2.12555602e-02,
          2.27385052e-02, 1.33465147e-02 ]
      - [ 1.08019635e-02, 1.76759399e-02, 1.47299506e-02, 1.35842878e-02,
          6.71031093e-03, 1.48936165e-02, 1.14566283e-02, 1.78396069e-02,
          2.42225863e-02, 9.81996674e-03, 8.34697206e-03, 8.18330608e-03,
          2.92962343e-02, 1.40752858e-02, 2.04582643e-02, 6.05564658e-03,
          6.87397690e-03, 2.09492631e-02, 1.06382975e-02, 5.18821590e-02,
          1.17839603e-02, 2.78232396e-02, 2.35679206e-02, 3.06055639e-02,
          2.65139118e-02, 3.06055639e-02, 1.80032738e-02, 1.06382975e-02,
          1.70212761e-02, 3.40425521e-02, 8.18330608e-03, 1.34206219e-02,
          1.70212761e-02, 1.53846154e-02, 9.32896882e-03, 5.56464819e-03,
          3.33878882e-02, 6.21931255e-03, 4.09165286e-02, 1.12929624e-02,
          1.03109656e-02, 1.44026186e-02, 4.94271666e-02, 3.87888700e-02,
          4.15711924e-02, 2.86415704e-02, 4.33715209e-02, 9.32896882e-03,
          3.15875597e-02, 2.27495898e-02 ]
      - [ 2.55754474e-03, 2.55754478e-02, 1.53452680e-02, 2.04603579e-02,
          3.06905359e-02, 1.53452680e-02, 1.53452680e-02, 1.27877239e-02,
          7.67263398e-03, 1.02301789e-02, 2.04603579e-02, 1.27877239e-02,
          1.53452680e-02, 1.53452680e-02, 3.32480818e-02, 2.30179019e-02,
          1.27877239e-02, 1.53452680e-02, 3.58056277e-02, 2.04603579e-02,
          1.53452680e-02, 3.32480818e-02, 5.11508947e-03, 1.27877239e-02,
          5.11508947e-03, 3.32480818e-02, 3.58056277e-02, 1.79028139e-02,
          2.30179019e-02, 7.67263398e-03, 2.55754478e-02, 1.27877239e-02,
          1.53452680e-02, 4.34782617e-02, 1.27877239e-02, 1.27877239e-02,
          1.53452680e-02, 1.02301789e-02, 3.32480818e-02, 7.67263398e-03,
          6.64961636e-02, 7.67263398e-03, 2.81329919e-02, 1.79028139e-02,
          7.67263398e-03, 3.58056277e-02, 2.30179019e-02, 2.55754478e-02,
          2.55754478e-02, 2.30179019e-02 ]
      - [ 4.12249714e-02, 2.35571265e-02, 1.17785633e-02, 1.53121324e-02,
          5.88928163e-03, 1.06007075e-02, 2.35571265e-02, 5.88928163e-03,
          1.76678449e-02, 2.47349832e-02, 1.29564200e-02, 2.35571265e-02,
          4.71142540e-03, 1.64899882e-02, 1.41342767e-02, 1.29564200e-02,
          1.41342767e-02, 3.29799764e-02, 1.17785635e-03, 9.42285080e-03,
          1.29564200e-02, 1.17785635e-03, 2.47349832e-02, 5.06478213e-02,
          4.71142530e-02, 2.35571265e-02, 1.53121324e-02, 2.70906966e-02,
          8.24499410e-03, 1.37809187e-01, 1.76678449e-02, 8.24499410e-03,
          3.53356916e-03, 4.71142540e-03, 1.17785633e-02, 2.35571270e-03,
          7.06713796e-02, 1.53121324e-02, 1.64899882e-02, 1.29564200e-02,
          2.35571270e-03, 2.59128399e-02, 2.82685533e-02, 1.29564200e-02,
          1.64899882e-02, 1.76678449e-02, 5.88928163e-03, 2.47349832e-02,
          1.41342767e-02, 1.64899882e-02 ]
      - [ 1.22574065e-02, 8.17160401e-03, 3.57507691e-02, 1.32788569e-02,
          2.55362634e-02, 2.14504600e-02, 7.15015363e-03, 7.15015363e-03,
          2.45148130e-02, 8.17160401e-03, 1.43003073e-02, 8.17160401e-03,
          6.12870324e-03, 4.59652729e-02, 1.22574065e-02, 3.06435153e-02,
          3.06435162e-03, 1.02145048e-02, 2.34933607e-02, 1.02145048e-02,
          1.63432080e-02, 1.63432080e-02, 1.43003073e-02, 6.12870324e-03,
          8.17160401e-03, 1.63432080e-02, 2.75791641e-02, 1.53217576e-02,
          2.45148130e-02, 2.86006145e-02, 1.32788569e-02, 1.53217576e-02,
          1.02145048e-02, 1.27681315e-01, 2.96220649e-02, 7.15015363e-03,
          3.16649638e-02, 2.04290100e-03, 2.34933607e-02, 2.04290096e-02,
          7.15015382e-02, 7.15015363e-03, 3.37078683e-02, 1.12359552e-02,
          6.12870324e-03, 3.77936698e-02, 1.32788569e-02, 9.19305440e-03,
          1.83861088e-02, 9.19305440e-03 ]
      - [ 2.92452835e-02, 4.43396233e-02, 2.54716985e-02, 2.54716985e-02,
          6.60377368e-03, 1.32075474e-02, 2.73584910e-02, 1.41509436e-02,
          1.88679248e-03, 2.45283023e-02, 1.98113210e-02, 1.50943398e-02,
          9.43396240e-03, 1.88679248e-02, 1.88679248e-02, 3.49056609e-02,
          1.50943398e-02, 3.77358496e-02, 8.49056616e-03, 9.43396240e-03,
          1.13207549e-02, 6.60377368e-03, 3.77358496e-02, 1.50943398e-02,
          4.05660383e-02, 2.54716985e-02, 9.43396240e-03, 1.22641511e-02,
          8.49056616e-03, 1.15094341e-01, 2.16981135e-02, 6.60377368e-03,
          2.83018872e-03, 1.03773586e-02, 6.60377368e-03, 1.22641511e-02,
          5.66037744e-02, 1.98113210e-02, 1.60377361e-02, 7.54716992e-03,
          9.43396240e-03, 1.60377361e-02, 3.86792459e-02, 8.49056616e-03,
          9.43396240e-03, 2.92452835e-02, 2.83018872e-03, 1.50943398e-02,
          1.98113210e-02, 8.49056616e-03 ]
      - [ 2.00000014e-02, 2.00000014e-02, 0., 4.00000028e-02, 0.,
          1.20000001e-02, 2.40000002e-02, 1.20000001e-02, 0.,
          1.60000008e-02, 1.60000008e-02, 1.20000001e-02, 8.00000038e-03,
          4.00000019e-03, 2.40000002e-02, 4.00000019e-03, 1.20000001e-02,
          6.40000030e-02, 0., 0., 0., 8.00000038e-03, 1.08000003e-01,
          8.00000038e-03, 2.40000002e-02, 3.60000022e-02, 0.,
          2.40000002e-02, 0., 1.84000015e-01, 2.80000009e-02,
          8.00000038e-03, 1.20000001e-02, 0., 1.20000001e-02, 0.,
          7.20000044e-02, 2.40000002e-02, 1.60000008e-02, 2.00000014e-02,
          0., 1.20000001e-02, 2.00000014e-02, 2.00000014e-02,
          2.00000014e-02, 1.20000001e-02, 0., 8.00000038e-03,
          2.00000014e-02, 1.60000008e-02 ]
      - [ 1.15606934e-02, 1.15606934e-02, 0., 4.04624268e-02, 0., 0., 0.,
          1.73410401e-02, 0., 5.78034669e-03, 1.15606934e-02,
          1.73410401e-02, 0., 0., 2.31213868e-02, 0., 1.15606934e-02,
          6.35838136e-02, 0., 0., 0., 5.78034669e-03, 8.09248537e-02,
          1.15606934e-02, 0., 2.31213868e-02, 0., 2.31213868e-02, 0.,
          1.56069368e-01, 5.78034669e-03, 0., 5.78034669e-03, 0.,
          5.78034669e-03, 0., 2.19653174e-01, 1.15606934e-02,
          6.93641603e-02, 1.15606934e-02, 0., 1.73410401e-02,
          1.73410401e-02, 5.78034669e-03, 2.31213868e-02, 1.15606934e-02,
          5.78034669e-03, 1.15606934e-02, 5.20231202e-02, 1.15606934e-02 ]
      - [ 9.83313471e-03, 9.53516085e-03, 1.90703217e-02, 2.65196655e-02,
          2.17520855e-02, 2.02622171e-02, 3.87365906e-03, 1.40047679e-02,
          4.11203802e-02, 6.25744928e-03, 1.66865308e-02, 1.31108463e-02,
          1.54946363e-02, 1.34088201e-02, 1.40047679e-02, 1.40047679e-02,
          1.16209770e-02, 1.37067940e-02, 2.56257448e-02, 3.24791409e-02,
          2.14541126e-02, 2.41358764e-02, 1.43027417e-02, 1.37067940e-02,
          6.85339700e-03, 2.65196655e-02, 2.80095357e-02, 2.89034564e-02,
          2.77115609e-02, 1.99642424e-02, 5.66150155e-03, 2.32419539e-02,
          2.65196655e-02, 4.29082252e-02, 1.75804533e-02, 1.69845056e-02,
          2.41358764e-02, 6.55542314e-03, 3.96305136e-02, 2.32419539e-02,
          2.71156132e-02, 9.53516085e-03, 2.14541126e-02, 1.54946363e-02,
          2.02622171e-02, 3.42669860e-02, 3.63528021e-02, 1.13230031e-02,
          2.59237178e-02, 1.78784262e-02 ]
      - [ 2.21606642e-02, 2.35457048e-02, 1.80055387e-02, 1.93905812e-02,
          2.07756236e-02, 6.92520756e-03, 3.46260369e-02, 2.21606642e-02,
          9.69529059e-03, 9.69529059e-03, 2.35457048e-02, 2.35457048e-02,
          2.35457048e-02, 9.69529059e-03, 2.07756236e-02, 9.69529059e-03,
          2.77008303e-02, 1.80055387e-02, 1.10803321e-02, 1.24653736e-02,
          5.54016605e-03, 1.24653736e-02, 2.21606642e-02, 2.21606642e-02,
          1.80055387e-02, 3.46260369e-02, 2.07756236e-02, 2.07756236e-02,
          1.24653736e-02, 2.49307472e-02, 2.49307472e-02, 1.93905812e-02,
          1.24653736e-02, 1.24653736e-02, 2.07756236e-02, 2.07756236e-02,
          2.90858708e-02, 2.21606642e-02, 3.18559557e-02, 1.24653736e-02,
          1.38504151e-02, 1.52354566e-02, 3.87811624e-02, 3.18559557e-02,
          3.87811624e-02, 3.18559557e-02, 2.07756236e-02, 1.66204982e-02,
          1.66204982e-02, 8.31024908e-03 ]
      - [ 6.02409616e-03, 1.80722885e-02, 6.02409616e-03, 3.01204808e-02,
          0., 0., 4.81927693e-02, 1.80722885e-02, 0., 1.20481923e-02,
          1.20481923e-02, 1.80722885e-02, 1.20481923e-02, 0.,
          1.80722885e-02, 0., 2.40963846e-02, 9.03614461e-02, 0., 0., 0.,
          0., 3.61445770e-02, 0., 0., 9.03614461e-02, 6.02409616e-03,
          4.21686731e-02, 0., 1.56626493e-01, 0., 0., 0., 6.02409616e-03,
          6.02409616e-03, 0., 1.44578308e-01, 1.80722885e-02,
          7.22891539e-02, 1.80722885e-02, 0., 1.20481923e-02,
          6.02409616e-03, 3.01204808e-02, 1.80722885e-02, 6.02409616e-03,
          6.02409616e-03, 0., 1.20481923e-02, 0. ]
      - [ 3.85852084e-02, 3.85852084e-02, 2.57234722e-02, 4.18006405e-02,
          9.64630209e-03, 1.60771701e-02, 1.28617361e-02, 1.92926042e-02,
          3.21543403e-03, 3.53697762e-02, 3.21543403e-03, 3.21543403e-02,
          6.43086806e-03, 2.57234722e-02, 2.25080382e-02, 3.53697762e-02,
          2.89389063e-02, 2.25080382e-02, 3.21543403e-03, 1.28617361e-02,
          1.28617361e-02, 1.28617361e-02, 2.57234722e-02, 5.14469445e-02,
          3.85852084e-02, 1.60771701e-02, 1.60771701e-02, 2.57234722e-02,
          9.64630209e-03, 3.21543403e-02, 1.92926042e-02, 0.,
          9.64630209e-03, 0., 2.25080382e-02, 1.60771701e-02,
          1.60771701e-02, 1.92926042e-02, 1.28617361e-02, 1.28617361e-02,
          3.21543403e-03, 1.92926042e-02, 1.60771701e-02, 3.53697762e-02,
          2.25080382e-02, 3.21543403e-02, 3.21543403e-03, 9.64630209e-03,
          2.25080382e-02, 3.21543403e-02 ]
      - [ 9.15750954e-03, 4.21245433e-02, 2.56410260e-02, 1.46520147e-02,
          5.49450563e-03, 9.15750954e-03, 1.46520147e-02, 5.49450563e-03,
          1.83150184e-03, 7.32600736e-03, 1.64835174e-02, 3.84615399e-02,
          1.28205130e-02, 3.66300368e-03, 2.01465208e-02, 1.83150191e-02,
          1.83150191e-02, 3.11355311e-02, 9.15750954e-03, 2.01465208e-02,
          3.66300368e-03, 1.83150184e-03, 3.47985364e-02, 1.09890113e-02,
          1.46520147e-02, 4.21245433e-02, 5.49450563e-03, 2.93040294e-02,
          9.15750954e-03, 8.05860832e-02, 1.28205130e-02, 9.15750954e-03,
          5.49450563e-03, 2.01465208e-02, 5.49450563e-03, 1.28205130e-02,
          1.15384616e-01, 7.32600736e-03, 1.28205130e-02, 9.15750954e-03,
          3.84615399e-02, 9.15750954e-03, 6.04395606e-02, 2.38095243e-02,
          9.15750954e-03, 4.39560451e-02, 1.09890113e-02, 5.49450563e-03,
          2.01465208e-02, 1.09890113e-02 ]
      - [ 3.72023806e-02, 3.57142873e-02, 1.63690485e-02, 2.52976194e-02,
          4.46428591e-03, 1.04166670e-02, 1.48809524e-02, 1.63690485e-02,
          0., 2.52976194e-02, 2.08333340e-02, 1.63690485e-02,
          3.42261903e-02, 1.48809524e-02, 5.95238106e-03, 1.78571437e-02,
          8.92857183e-03, 4.31547612e-02, 1.48809527e-03, 4.46428591e-03,
          5.95238106e-03, 4.46428591e-03, 5.50595261e-02, 1.93452388e-02,
          5.95238097e-02, 2.97619049e-02, 2.97619053e-03, 1.48809524e-02,
          1.04166670e-02, 1.35416672e-01, 1.48809524e-02, 7.44047621e-03,
          2.97619053e-03, 2.97619053e-03, 1.63690485e-02, 1.19047621e-02,
          5.65476194e-02, 5.95238106e-03, 1.63690485e-02, 1.48809524e-02,
          0., 1.63690485e-02, 4.61309515e-02, 1.48809524e-02,
          1.33928573e-02, 1.33928573e-02, 1.48809527e-03, 1.93452388e-02,
          1.63690485e-02, 1.63690485e-02 ]
      - [ 0., 1.40186911e-02, 1.86915882e-02, 0., 8.87850448e-02,
          2.80373823e-02, 2.80373823e-02, 4.67289705e-03, 9.34579410e-03,
          4.67289705e-03, 1.40186911e-02, 3.27102803e-02, 9.34579410e-03,
          0., 3.27102803e-02, 1.86915882e-02, 2.33644843e-02, 0.,
          6.54205605e-02, 1.86915882e-02, 1.86915882e-02, 1.40186911e-02,
          9.34579410e-03, 5.14018685e-02, 4.67289686e-02, 1.40186911e-02,
          1.86915882e-02, 1.86915882e-02, 1.40186911e-02, 9.34579410e-03,
          2.33644843e-02, 9.34579410e-03, 0., 5.60747646e-02,
          4.67289705e-03, 4.67289705e-03, 0., 2.33644843e-02,
          4.67289705e-03, 9.34579410e-03, 6.54205605e-02, 1.40186911e-02,
          9.34579410e-03, 2.33644843e-02, 1.40186911e-02, 2.33644843e-02,
          1.86915882e-02, 3.27102803e-02, 1.40186911e-02, 2.33644843e-02 ]
      - [ 3.40909101e-02, 0., 1.70454551e-02, 1.70454551e-02,
          5.68181835e-03, 5.68181835e-03, 3.97727266e-02, 1.70454551e-02,
          5.68181835e-03, 0., 3.97727266e-02, 1.13636367e-02,
          2.84090918e-02, 1.13636367e-02, 3.97727266e-02, 5.68181835e-03,
          5.11363670e-02, 7.38636404e-02, 5.68181835e-03, 0., 0.,
          2.27272734e-02, 3.40909101e-02, 1.13636367e-02, 3.97727266e-02,
          3.40909101e-02, 5.68181835e-03, 5.68181835e-03, 0.,
          5.68181835e-02, 2.27272734e-02, 0., 0., 5.68181835e-03,
          2.27272734e-02, 5.68181835e-03, 9.65909138e-02, 2.27272734e-02,
          2.27272734e-02, 2.84090918e-02, 0., 1.70454551e-02,
          3.40909101e-02, 1.70454551e-02, 2.27272734e-02, 0.,
          2.27272734e-02, 5.68181835e-03, 1.70454551e-02, 1.70454551e-02 ]
      - [ 3.61581929e-02, 1.58192087e-02, 1.69491526e-02, 1.92090403e-02,
          6.77966140e-03, 1.12994350e-02, 3.27683613e-02, 1.12994350e-02,
          7.90960435e-03, 3.38983051e-02, 1.58192087e-02, 1.01694921e-02,
          2.03389842e-02, 1.80790965e-02, 1.12994350e-02, 2.37288140e-02,
          1.46892658e-02, 3.72881368e-02, 3.38983070e-03, 1.01694921e-02,
          1.01694921e-02, 1.12994353e-03, 1.69491526e-02, 2.59887017e-02,
          5.53672314e-02, 2.37288140e-02, 5.64971752e-03, 1.01694921e-02,
          5.64971752e-03, 1.42372891e-01, 1.46892658e-02, 4.51977411e-03,
          4.51977411e-03, 4.51977411e-03, 1.69491526e-02, 6.77966140e-03,
          8.24858770e-02, 1.80790965e-02, 1.58192087e-02, 2.48587579e-02,
          3.38983070e-03, 2.48587579e-02, 3.84180807e-02, 1.24293789e-02,
          7.90960435e-03, 6.77966140e-03, 5.64971752e-03, 1.46892658e-02,
          1.80790965e-02, 2.03389842e-02 ]
      - [ 1.01694912e-02, 1.01694912e-02, 6.77966094e-03, 3.38983051e-02,
          1.69491526e-02, 3.38983047e-03, 6.10169470e-02, 1.35593219e-02,
          0., 1.69491526e-02, 2.03389823e-02, 1.69491526e-02,
          1.01694912e-02, 0., 4.06779647e-02, 6.77966094e-03,
          2.03389823e-02, 3.72881368e-02, 3.38983047e-03, 2.03389823e-02,
          3.38983047e-03, 6.77966094e-03, 3.72881368e-02, 1.01694912e-02,
          4.40677963e-02, 4.74576280e-02, 6.77966094e-03, 4.40677963e-02,
          6.77966094e-03, 1.35593221e-01, 2.03389823e-02, 6.77966094e-03,
          6.77966094e-03, 0., 6.77966094e-03, 6.77966094e-03,
          3.72881368e-02, 3.72881368e-02, 2.71186437e-02, 2.37288140e-02,
          0., 1.35593219e-02, 2.71186437e-02, 1.35593219e-02,
          2.03389823e-02, 3.38983047e-03, 1.01694912e-02, 1.01694912e-02,
          3.72881368e-02, 0. ]
      - [ 1.17647070e-02, 0., 3.92156886e-03, 1.56862754e-02,
          3.13725509e-02, 3.92156877e-02, 1.17647070e-02, 3.92156886e-03,
          3.13725509e-02, 7.84313772e-03, 3.13725509e-02, 7.84313772e-03,
          7.84313772e-03, 1.56862754e-02, 1.56862754e-02, 3.13725509e-02,
          1.17647070e-02, 7.84313772e-03, 3.52941193e-02, 7.84313772e-03,
          3.13725509e-02, 1.17647070e-02, 0., 0., 0., 1.17647070e-02,
          2.74509825e-02, 3.13725509e-02, 1.56862754e-02, 3.92156886e-03,
          7.84313772e-03, 3.92156886e-03, 2.35294141e-02, 1.45098045e-01,
          3.13725509e-02, 1.56862754e-02, 1.56862754e-02, 1.96078438e-02,
          2.74509825e-02, 1.17647070e-02, 7.84313753e-02, 1.56862754e-02,
          3.92156886e-03, 1.17647070e-02, 1.17647070e-02, 3.52941193e-02,
          2.35294141e-02, 3.52941193e-02, 1.56862754e-02, 3.92156886e-03 ]
      - [ 1.87500007e-02, 2.81250011e-02, 5.15624993e-02, 2.96874996e-02,
          4.68750019e-03, 1.87500007e-02, 2.81250011e-02, 4.68750019e-03,
          3.12500005e-03, 3.90625000e-02, 1.40625006e-02, 1.56250000e-02,
          1.71875004e-02, 1.87500007e-02, 1.56250000e-02, 1.71875004e-02,
          1.87500007e-02, 4.37499993e-02, 3.12500005e-03, 4.68750019e-03,
          1.40625006e-02, 6.25000009e-03, 4.53125015e-02, 3.43750007e-02,
          1.14062503e-01, 1.56250000e-02, 9.37500037e-03, 1.09374998e-02,
          7.81250000e-03, 6.71875030e-02, 1.56250000e-02, 6.25000009e-03,
          4.68750019e-03, 1.56250002e-03, 9.37500037e-03, 7.81250000e-03,
          2.81250011e-02, 1.09374998e-02, 1.09374998e-02, 2.03125011e-02,
          0., 2.34375000e-02, 4.68750000e-02, 1.56250000e-02,
          9.37500037e-03, 9.37500037e-03, 4.68750019e-03, 2.34375000e-02,
          1.40625006e-02, 1.71875004e-02 ]
      - [ 2.29276884e-02, 2.29276884e-02, 2.11640205e-02, 2.46913582e-02,
          3.70370373e-02, 2.82186940e-02, 1.58730149e-02, 1.76366828e-02,
          2.64550261e-02, 1.05820103e-02, 2.11640205e-02, 1.58730149e-02,
          1.58730149e-02, 1.41093470e-02, 7.05467351e-03, 1.94003526e-02,
          1.76366828e-02, 1.76366828e-02, 2.82186940e-02, 5.29100513e-03,
          3.35096978e-02, 1.58730149e-02, 1.76366828e-02, 2.46913582e-02,
          3.35096978e-02, 1.76366828e-02, 1.58730149e-02, 1.41093470e-02,
          1.58730149e-02, 3.17460299e-02, 1.41093470e-02, 7.05467351e-03,
          1.94003526e-02, 3.70370373e-02, 1.05820103e-02, 1.58730149e-02,
          1.23456791e-02, 2.46913582e-02, 5.29100513e-03, 1.23456791e-02,
          4.76190448e-02, 2.82186940e-02, 2.46913582e-02, 1.23456791e-02,
          7.05467351e-03, 4.40917090e-02, 1.23456791e-02, 3.17460299e-02,
          1.58730149e-02, 7.05467351e-03 ]
      - [ 2.22222228e-02, 2.22222228e-02, 8.88888910e-03, 1.33333337e-02,
          2.22222228e-02, 8.88888910e-03, 0., 8.88888910e-03,
          8.88888910e-03, 1.33333337e-02, 2.22222228e-02, 2.66666673e-02,
          0., 4.44444455e-03, 3.99999991e-02, 0., 2.22222228e-02,
          4.88888919e-02, 1.77777782e-02, 1.33333337e-02, 0.,
          8.88888910e-03, 4.44444455e-02, 8.88888910e-03, 4.44444455e-03,
          3.99999991e-02, 8.88888910e-03, 5.77777773e-02, 0.,
          4.88888919e-02, 8.88888910e-03, 8.88888910e-03, 4.44444455e-03,
          1.77777782e-02, 1.77777782e-02, 4.44444455e-03, 8.88888910e-02,
          1.77777782e-02, 5.77777773e-02, 2.22222228e-02, 8.88888910e-03,
          3.55555564e-02, 2.22222228e-02, 8.88888910e-03, 8.88888910e-03,
          2.66666673e-02, 2.22222228e-02, 1.33333337e-02, 4.44444455e-02,
          1.33333337e-02 ]
      - [ 3.01204808e-02, 1.80722885e-02, 0., 2.40963846e-02,
          3.01204808e-03, 9.03614424e-03, 3.01204808e-02, 9.03614424e-03,
          3.01204808e-03, 3.01204808e-02, 3.91566232e-02, 2.10843366e-02,
          3.01204808e-03, 1.20481923e-02, 3.31325307e-02, 2.10843366e-02,
          1.50602404e-02, 7.22891539e-02, 0., 9.03614424e-03,
          3.01204808e-03, 1.20481923e-02, 6.92771077e-02, 9.03614424e-03,
          3.01204808e-02, 3.91566232e-02, 3.01204808e-03, 4.21686731e-02,
          1.50602404e-02, 7.53012002e-02, 3.61445770e-02, 6.02409616e-03,
          3.01204808e-03, 0., 2.40963846e-02, 1.50602404e-02,
          4.81927693e-02, 2.10843366e-02, 2.10843366e-02, 1.20481923e-02,
          0., 9.03614424e-03, 1.20481923e-02, 1.20481923e-02,
          1.20481923e-02, 9.03614424e-03, 3.01204808e-03, 2.71084327e-02,
          4.81927693e-02, 0. ]
      - [ 3.91459055e-02, 4.27046269e-02, 7.11743766e-03, 1.77935939e-02,
          1.06761567e-02, 7.11743766e-03, 2.49110311e-02, 1.42348753e-02,
          0., 2.13523135e-02, 3.91459055e-02, 7.11743766e-03,
          1.77935939e-02, 1.42348753e-02, 4.27046269e-02, 2.49110311e-02,
          1.77935939e-02, 4.62633446e-02, 7.11743766e-03, 0.,
          7.11743766e-03, 0., 5.33807836e-02, 2.84697507e-02,
          2.84697507e-02, 3.91459055e-02, 3.55871883e-03, 2.84697507e-02,
          3.55871883e-03, 6.40569404e-02, 3.55871879e-02, 3.55871883e-03,
          7.11743766e-03, 3.55871883e-03, 1.77935939e-02, 1.06761567e-02,
          3.91459055e-02, 2.49110311e-02, 2.84697507e-02, 3.55871879e-02,
          0., 1.06761567e-02, 1.77935939e-02, 2.13523135e-02,
          1.06761567e-02, 7.11743766e-03, 7.11743766e-03, 1.77935939e-02,
          3.20284702e-02, 1.06761567e-02 ]
      - [ 2.50000004e-02, 1.25000002e-02, 9.37500037e-03, 3.43750007e-02,
          3.12500005e-03, 1.56250000e-02, 3.43750007e-02, 2.18749996e-02,
          0., 1.87500007e-02, 1.25000002e-02, 2.18749996e-02,
          1.56250000e-02, 0., 3.75000015e-02, 9.37500037e-03,
          3.12500000e-02, 8.43750015e-02, 9.37500037e-03, 3.12500005e-03,
          3.12500005e-03, 6.25000009e-03, 5.62500022e-02, 9.37500037e-03,
          1.56250000e-02, 5.00000007e-02, 9.37500037e-03, 1.25000002e-02,
          6.25000009e-03, 8.12500045e-02, 1.25000002e-02, 3.12500005e-03,
          6.25000009e-03, 0., 1.87500007e-02, 1.56250000e-02,
          5.31250015e-02, 1.56250000e-02, 2.50000004e-02, 2.81250011e-02,
          3.12500005e-03, 1.56250000e-02, 2.81250011e-02, 3.12500000e-02,
          2.50000004e-02, 3.12500005e-03, 6.25000009e-03, 1.25000002e-02,
          3.43750007e-02, 1.25000002e-02 ]
      - [ 1.66858453e-02, 1.84119679e-02, 2.12888382e-02, 2.53164563e-02,
          1.55350976e-02, 2.53164563e-02, 6.90448796e-03, 1.15074795e-02,
          9.78135783e-03, 1.15074795e-02, 1.49597237e-02, 8.05523619e-03,
          3.27963196e-02, 2.30149589e-02, 1.38089759e-02, 1.61104724e-02,
          4.60299198e-03, 2.01380905e-02, 1.89873427e-02, 3.68239358e-02,
          1.43843498e-02, 2.70425770e-02, 2.53164563e-02, 2.35903338e-02,
          2.81933267e-02, 2.41657086e-02, 2.53164563e-02, 7.47986184e-03,
          1.61104724e-02, 2.01380905e-02, 5.75373974e-03, 1.61104724e-02,
          1.03567317e-02, 4.48791720e-02, 1.20828543e-02, 8.05523619e-03,
          3.10701951e-02, 2.30149599e-03, 1.09321056e-02, 1.78365931e-02,
          6.09896444e-02, 1.89873427e-02, 4.25776765e-02, 1.32336020e-02,
          1.49597237e-02, 5.23590334e-02, 1.49597237e-02, 1.38089759e-02,
          2.70425770e-02, 1.84119679e-02 ]
      - [ 1.99999996e-02, 2.53333338e-02, 1.06666666e-02, 1.46666663e-02,
          1.06666666e-02, 2.26666667e-02, 3.33333313e-02, 2.40000002e-02,
          1.06666666e-02, 2.26666667e-02, 2.13333331e-02, 1.20000001e-02,
          1.06666666e-02, 2.40000002e-02, 2.26666667e-02, 2.13333331e-02,
          1.20000001e-02, 4.93333340e-02, 1.86666660e-02, 9.33333300e-03,
          1.33333337e-02, 1.59999989e-02, 3.19999978e-02, 1.59999989e-02,
          3.46666649e-02, 3.46666649e-02, 7.99999945e-03, 1.46666663e-02,
          1.59999989e-02, 5.86666651e-02, 1.06666666e-02, 1.46666663e-02,
          9.33333300e-03, 1.99999996e-02, 9.33333300e-03, 1.20000001e-02,
          5.06666675e-02, 6.66666683e-03, 1.86666660e-02, 1.59999989e-02,
          1.06666666e-02, 1.59999989e-02, 2.79999990e-02, 1.33333337e-02,
          1.99999996e-02, 2.26666667e-02, 1.59999989e-02, 1.86666660e-02,
          2.93333326e-02, 1.73333324e-02 ]
      - [ 1.77664980e-02, 2.03045681e-02, 7.61421304e-03, 2.79187821e-02,
          7.61421304e-03, 2.79187821e-02, 2.53807101e-02, 7.61421304e-03,
          5.07614203e-03, 2.79187821e-02, 1.01522841e-02, 7.61421304e-03,
          5.07614203e-03, 2.79187821e-02, 2.28426382e-02, 1.77664980e-02,
          2.53807101e-03, 2.53807101e-02, 1.26903551e-02, 1.01522841e-02,
          2.03045681e-02, 2.53807101e-02, 2.79187821e-02, 3.04568522e-02,
          4.56852764e-02, 2.79187821e-02, 1.26903551e-02, 1.26903551e-02,
          1.01522841e-02, 1.06598981e-01, 7.61421304e-03, 7.61421304e-03,
          2.53807101e-03, 2.53807101e-03, 7.61421304e-03, 7.61421304e-03,
          1.14213198e-01, 1.26903551e-02, 1.26903551e-02, 2.28426382e-02,
          7.61421304e-03, 1.77664980e-02, 2.03045681e-02, 1.26903551e-02,
          1.26903551e-02, 2.53807101e-02, 1.52284261e-02, 1.52284261e-02,
          2.03045681e-02, 1.77664980e-02 ]
      - [ 6.17283955e-03, 2.46913582e-02, 0., 1.23456791e-02,
          6.17283955e-03, 0., 7.40740746e-02, 1.23456791e-02, 0.,
          6.17283955e-03, 1.23456791e-02, 6.17283955e-03, 6.17283955e-03,
          0., 3.08641978e-02, 1.23456791e-02, 1.85185187e-02,
