%YAML:1.0
---
opencv_ml_svm:
   format: 3
   svmType: C_SVC
   kernel:
      type: INTER
      gamma: 1.0000000000000001e-05
   C: 1.2500000000000000e+01
   term_criteria: { iterations:100 }
   var_count: 500
   class_count: 2
   class_labels: !!opencv-matrix
      rows: 2
      cols: 1
      dt: i
      data: [ 0, 1 ]
   sv_total: 157
   support_vectors:
      - [ 7.84313772e-03, 0., 0., 0., 0., 0., 3.92156886e-03,
          3.92156886e-03, 0., 0., 0., 0., 7.84313772e-03, 0., 0., 0., 0.,
          1.17647070e-02, 0., 0., 0., 0., 7.84313772e-03, 0., 0.,
          3.92156886e-03, 3.92156886e-03, 0., 3.92156886e-03,
          7.84313772e-03, 0., 0., 3.92156886e-03, 0., 3.92156886e-03,
          3.92156886e-03, 0., 0., 3.92156886e-03, 0., 3.92156886e-03,
          3.92156886e-03, 0., 0., 0., 7.84313772e-03, 0., 0., 0., 0.,
          3.92156886e-03, 0., 0., 0., 0., 0., 0., 0., 3.92156886e-03, 0.,
          3.92156886e-03, 0., 3.92156886e-03, 3.92156886e-03, 0., 0., 0.,
          0., 0., 0., 0., 3.92156886e-03, 0., 3.92156886e-03,
          3.92156886e-03, 0., 0., 0., 0., 0., 3.92156886e-03, 0., 0., 0.,
          0., 0., 0., 0., 0., 7.84313772e-03, 0., 0., 3.92156886e-03, 0.,
          3.92156886e-03, 0., 3.92156886e-03, 3.92156886e-03,
          7.84313772e-03, 0., 0., 3.92156886e-03, 1.56862754e-02,
          7.84313772e-03, 1.56862754e-02, 0., 3.92156886e-03, 0., 0.,
          3.92156886e-03, 0., 0., 0., 3.92156886e-03, 3.92156886e-03,
          1.17647070e-02, 7.84313772e-03, 0., 3.92156886e-03, 0.,
          3.92156886e-03, 1.56862754e-02, 0., 0., 3.92156886e-03, 0.,
          3.92156886e-03, 0., 0., 3.92156886e-03, 0., 0., 0., 0.,
          7.84313772e-03, 0., 0., 0., 7.84313772e-03, 3.92156886e-03, 0.,
          7.84313772e-03, 0., 0., 0., 0., 3.92156886e-03, 0.,
          7.84313772e-03, 1.17647070e-02, 0., 0., 0., 3.92156886e-03,
          3.92156886e-03, 3.92156886e-03, 0., 3.92156886e-03, 0., 0., 0.,
          3.92156886e-03, 0., 0., 0., 3.92156886e-03, 0., 0., 0., 0.,
          3.92156886e-03, 7.84313772e-03, 0., 0., 0., 0., 0.,
          7.84313772e-03, 7.84313772e-03, 0., 3.92156886e-03,
          3.92156886e-03, 1.17647070e-02, 0., 0., 1.17647070e-02, 0.,
          3.92156886e-03, 0., 0., 3.92156886e-03, 0., 0., 3.92156886e-03,
          7.84313772e-03, 3.92156886e-03, 0., 0., 7.84313772e-03,
          7.84313772e-03, 0., 0., 3.92156886e-03, 1.17647070e-02, 0., 0.,
          0., 1.17647070e-02, 0., 0., 0., 0., 0., 0., 0., 0., 0.,
          3.92156886e-03, 0., 0., 3.92156886e-03, 3.92156886e-03,
          3.92156886e-03, 3.92156886e-03, 0., 0., 0., 0., 0., 0.,
          3.92156886e-03, 0., 0., 7.84313772e-03, 3.92156886e-03, 0.,
          3.92156886e-03, 0., 3.92156886e-03, 3.92156886e-03, 0.,
          3.92156886e-03, 0., 3.92156886e-03, 0., 7.84313772e-03, 0.,
          3.92156886e-03, 0., 0., 0., 0., 0., 0., 0., 0., 0., 0.,
          3.92156886e-03, 7.84313772e-03, 0., 0., 3.92156886e-03, 0., 0.,
          0., 0., 0., 3.92156886e-03, 3.92156886e-03, 0., 0., 0.,
          1.17647070e-02, 3.92156886e-03, 0., 7.84313772e-03,
          3.92156886e-03, 0., 1.17647070e-02, 3.92156886e-03,
          3.92156886e-03, 0., 3.92156886e-03, 0., 0., 3.92156886e-03, 0.,
          0., 3.92156886e-03, 3.92156886e-03, 3.92156886e-03, 0., 0., 0.,
          0., 0., 0., 0., 0., 0., 7.84313772e-03, 0., 0., 0.,
          7.84313772e-03, 3.92156886e-03, 0., 0., 7.84313772e-03,
          3.92156886e-03, 0., 0., 0., 0., 0., 3.92156886e-03,
          3.92156886e-03, 0., 3.92156886e-03, 0., 0., 0., 0.,
          3.92156886e-03, 0., 0., 7.84313772e-03, 3.92156886e-03,
          7.84313772e-03, 0., 0., 0., 3.92156886e-03, 3.92156886e-03, 0.,
          1.17647070e-02, 0., 0., 0., 3.92156886e-03, 0., 3.92156886e-03,
          7.84313772e-03, 0., 0., 0., 0., 0., 3.92156886e-03, 0.,
          3.92156886e-03, 0., 3.92156886e-03, 0., 0., 0., 0., 0.,
          3.92156886e-03, 0., 0., 0., 0., 0., 0., 3.92156886e-03, 0., 0.,
          0., 3.92156886e-03, 0., 0., 0., 0., 0., 0., 7.84313772e-03, 0.,
          3.92156886e-03, 3.92156886e-03, 3.92156886e-03, 0., 0., 0., 0.,
          0., 3.92156886e-03, 0., 0., 0., 7.84313772e-03, 7.84313772e-03,
          3.92156886e-03, 3.92156886e-03, 0., 3.92156886e-03, 0.,
          3.92156886e-03, 3.92156886e-03, 0., 0., 7.84313772e-03, 0., 0.,
          3.92156886e-03, 0., 0., 0., 3.92156886e-03, 7.84313772e-03, 0.,
          0., 0., 0., 0., 7.84313772e-03, 1.17647070e-02, 0., 0., 0.,
          3.92156886e-03, 3.92156886e-03, 0., 7.84313772e-03,
          7.84313772e-03, 0., 3.92156886e-03, 3.92156886e-03, 0., 0., 0.,
          3.92156886e-03, 0., 0., 0., 0., 0., 0., 0., 0., 3.92156886e-03,
          0., 3.92156886e-03, 0., 0., 3.92156886e-03, 0., 0., 0., 0.,
          3.92156886e-03, 0., 0., 3.92156886e-03, 0., 3.92156886e-03, 0.,
          3.92156886e-03, 7.84313772e-03, 0., 3.92156886e-03, 0., 0., 0.,
          3.92156886e-03, 3.92156886e-03, 0., 0., 0., 3.92156886e-03, 0.,
          0., 0., 0., 0., 0., 0., 3.92156886e-03, 0., 0., 3.92156886e-03,
          7.84313772e-03, 7.84313772e-03, 0., 0., 3.92156886e-03,
          3.92156886e-03, 0., 3.92156886e-03, 0., 3.92156886e-03, 0., 0.,
          0., 0., 0., 0., 1.56862754e-02, 0. ]
      - [ 0., 6.21118024e-03, 0., 0., 0., 0., 6.21118024e-03,
          6.21118024e-03, 6.21118024e-03, 0., 0., 0., 0., 0., 0., 0.,
          6.21118024e-03, 1.24223605e-02, 0., 0., 1.86335407e-02, 0., 0.,
          0., 0., 0., 0., 6.21118024e-03, 0., 2.48447210e-02,
          6.21118024e-03, 0., 0., 0., 0., 6.21118024e-03, 0., 0.,
          6.21118024e-03, 0., 0., 0., 6.21118024e-03, 6.21118024e-03, 0.,
          0., 0., 0., 0., 0., 6.21118024e-03, 6.21118024e-03, 0.,
          6.21118024e-03, 0., 0., 0., 6.21118024e-03, 6.21118024e-03, 0.,
          0., 0., 0., 0., 6.21118024e-03, 0., 0., 0., 0., 0., 0.,
          6.21118024e-03, 6.21118024e-03, 0., 0., 0., 0., 0., 0., 0., 0.,
          6.21118024e-03, 0., 0., 0., 0., 0., 0., 0., 0., 0.,
          6.21118024e-03, 6.21118024e-03, 6.21118024e-03, 0., 0., 0.,
          1.24223605e-02, 0., 6.21118024e-03, 0., 0., 0., 6.21118024e-03,
          0., 0., 0., 0., 0., 0., 0., 0., 0., 0., 0., 6.21118024e-03,
          3.10559012e-02, 0., 0., 0., 0., 0., 6.21118024e-03,
          6.21118024e-03, 0., 1.86335407e-02, 0., 0., 0., 0., 0., 0.,
          6.21118024e-03, 0., 6.21118024e-03, 6.21118024e-03, 0., 0., 0.,
          0., 0., 6.21118024e-03, 0., 0., 0., 0., 0., 0., 6.21118024e-03,
          0., 6.21118024e-03, 6.21118024e-03, 0., 0., 0., 0., 0., 0., 0.,
          6.21118024e-03, 6.21118024e-03, 0., 0., 0., 0., 0., 0., 0., 0.,
          0., 6.21118024e-03, 0., 0., 0., 0., 1.24223605e-02, 0.,
          6.21118024e-03, 0., 6.21118024e-03, 0., 0., 0., 0., 0.,
          1.24223605e-02, 0., 0., 1.86335407e-02, 0., 0., 0., 0.,
          6.21118024e-03, 0., 0., 6.21118024e-03, 0., 1.24223605e-02, 0.,
          0., 0., 6.21118024e-03, 0., 0., 0., 6.21118024e-03,
          6.21118024e-03, 0., 0., 0., 0., 0., 0., 2.48447210e-02, 0., 0.,
          1.86335407e-02, 0., 0., 0., 0., 1.24223605e-02, 0., 0., 0., 0.,
          0., 6.21118024e-03, 0., 0., 0., 0., 6.21118024e-03,
          1.24223605e-02, 0., 0., 1.24223605e-02, 0., 6.21118024e-03,
          6.21118024e-03, 6.21118024e-03, 0., 0., 0., 0., 0., 0., 0.,
          1.24223605e-02, 0., 0., 0., 6.21118024e-03, 0., 6.21118024e-03,
          0., 6.21118024e-03, 0., 0., 0., 0., 0., 0., 0., 0.,
          6.21118024e-03, 0., 0., 0., 6.21118024e-03, 0., 0., 0., 0., 0.,
          0., 0., 0., 6.21118024e-03, 0., 0., 6.21118024e-03, 0., 0., 0.,
          0., 0., 0., 0., 0., 1.24223605e-02, 0., 0., 0., 0., 0., 0., 0.,
          6.21118024e-03, 0., 0., 0., 6.21118024e-03, 0., 0., 0., 0., 0.,
          0., 0., 0., 0., 6.21118024e-03, 0., 0., 0., 6.21118024e-03, 0.,
          6.21118024e-03, 0., 0., 0., 1.24223605e-02, 0., 0., 0., 0., 0.,
          6.21118024e-03, 0., 0., 0., 0., 0., 6.21118024e-03, 0.,
          6.21118024e-03, 6.21118024e-03, 0., 6.21118024e-03, 0., 0., 0.,
          0., 0., 0., 0., 6.21118024e-03, 6.21118024e-03, 6.21118024e-03,
          0., 0., 0., 0., 6.21118024e-03, 0., 0., 0., 0., 0.,
          6.21118024e-03, 6.21118024e-03, 6.21118024e-03, 0., 0., 0., 0.,
          0., 0., 0., 0., 1.24223605e-02, 0., 0., 0., 0., 0., 0., 0.,
          1.24223605e-02, 0., 0., 0., 0., 0., 0., 0., 0., 0., 0.,
          1.24223605e-02, 0., 0., 0., 0., 0., 6.21118024e-03,
          6.21118024e-03, 6.21118024e-03, 0., 6.21118024e-03, 0.,
          1.24223605e-02, 0., 0., 0., 0., 0., 0., 0., 0., 0., 0., 0., 0.,
          1.24223605e-02, 1.24223605e-02, 0., 0., 0., 0., 0., 0.,
          6.21118024e-03, 0., 0., 0., 0., 0., 0., 0., 6.21118024e-03, 0.,
          0., 0., 0., 0., 0., 0., 0., 6.21118024e-03, 6.21118024e-03, 0.,
          0., 0., 1.24223605e-02, 6.21118024e-03, 6.21118024e-03, 0., 0.,
          0., 0., 6.21118024e-03, 0., 0., 0., 0., 6.21118024e-03,
          6.21118024e-03, 6.21118024e-03, 6.21118024e-03, 0., 0., 0., 0.,
          0., 0., 0., 0., 1.24223605e-02, 0., 0., 0., 0., 0., 0., 0., 0.,
          6.21118024e-03, 6.21118024e-03, 0., 0., 0., 0., 0., 0.,
          6.21118024e-03, 6.21118024e-03, 0., 0., 1.24223605e-02, 0.,
          6.21118024e-03, 0., 1.24223605e-02, 0., 0., 0., 0. ]
      - [ 0., 0., 0., 0., 0., 0., 0., 0., 5.84795326e-03, 0., 0.,
          5.84795326e-03, 0., 0., 0., 1.16959065e-02, 0., 1.16959065e-02,
          0., 0., 1.16959065e-02, 0., 5.84795326e-03, 1.75438598e-02, 0.,
          0., 0., 5.84795326e-03, 0., 0., 0., 0., 5.84795326e-03, 0., 0.,
          1.16959065e-02, 5.84795326e-03, 0., 5.84795326e-03, 0.,
          5.84795326e-03, 0., 1.16959065e-02, 0., 5.84795326e-03, 0., 0.,
          5.84795326e-03, 0., 5.84795326e-03, 0., 0., 0., 0., 0.,
          5.84795326e-03, 0., 0., 0., 0., 5.84795326e-03, 0.,
          5.84795326e-03, 0., 0., 0., 0., 0., 0., 5.84795326e-03, 0., 0.,
          0., 0., 0., 5.84795326e-03, 0., 5.84795326e-03, 0., 0., 0., 0.,
          5.84795326e-03, 1.16959065e-02, 0., 0., 5.84795326e-03, 0., 0.,
          0., 0., 5.84795326e-03, 0., 5.84795326e-03, 5.84795326e-03, 0.,
          0., 0., 0., 5.84795326e-03, 0., 0., 1.16959065e-02,
          5.84795326e-03, 0., 1.16959065e-02, 0., 5.84795326e-03, 0., 0.,
          0., 0., 0., 5.84795326e-03, 0., 0., 1.75438598e-02, 0.,
          5.84795326e-03, 5.84795326e-03, 0., 0., 0., 0., 0., 0., 0.,
          5.84795326e-03, 0., 5.84795326e-03, 0., 0., 0., 0.,
          5.84795326e-03, 5.84795326e-03, 0., 0., 0., 0., 0., 0., 0., 0.,
          0., 0., 0., 0., 0., 5.84795326e-03, 0., 0., 0., 0., 0., 0., 0.,
          0., 0., 0., 0., 5.84795326e-03, 0., 0., 0., 0., 0.,
          1.16959065e-02, 0., 0., 0., 0., 1.16959065e-02, 5.84795326e-03,
          5.84795326e-03, 1.75438598e-02, 0., 5.84795326e-03, 0., 0., 0.,
          0., 0., 0., 0., 5.84795326e-03, 5.84795326e-03, 5.84795326e-03,
          0., 0., 0., 0., 1.75438598e-02, 5.84795326e-03, 0., 0.,
          5.84795326e-03, 5.84795326e-03, 0., 0., 0., 0., 0., 0., 0.,
          5.84795326e-03, 0., 0., 0., 5.84795326e-03, 5.84795326e-03, 0.,
          0., 0., 1.16959065e-02, 0., 0., 5.84795326e-03, 0.,
          5.84795326e-03, 0., 5.84795326e-03, 0., 0., 0., 0.,
          5.84795326e-03, 0., 0., 0., 0., 0., 0., 0., 1.16959065e-02, 0.,
          0., 0., 0., 0., 0., 0., 5.84795326e-03, 0., 0., 5.84795326e-03,
          0., 0., 0., 1.16959065e-02, 0., 0., 0., 0., 0., 0., 0., 0.,
          5.84795326e-03, 1.16959065e-02, 5.84795326e-03, 0.,
          5.84795326e-03, 0., 0., 0., 0., 0., 0., 0., 0., 0., 0., 0., 0.,
          0., 0., 0., 0., 0., 5.84795326e-03, 0., 5.84795326e-03, 0., 0.,
          0., 0., 5.84795326e-03, 5.84795326e-03, 5.84795326e-03, 0., 0.,
          0., 0., 5.84795326e-03, 0., 0., 0., 0., 0., 0., 0.,
          1.16959065e-02, 0., 0., 5.84795326e-03, 0., 0., 0., 0., 0.,
          5.84795326e-03, 1.16959065e-02, 5.84795326e-03, 0.,
          5.84795326e-03, 0., 5.84795326e-03, 0., 0., 5.84795326e-03, 0.,
          1.75438598e-02, 5.84795326e-03, 5.84795326e-03, 0.,
          5.84795326e-03, 0., 0., 0., 0., 0., 0., 0., 0., 0., 0., 0., 0.,
          0., 0., 0., 0., 5.84795326e-03, 1.16959065e-02, 0.,
          5.84795326e-03, 0., 5.84795326e-03, 0., 0., 0., 1.16959065e-02,
          0., 0., 0., 5.84795326e-03, 0., 0., 5.84795326e-03, 0.,
          1.16959065e-02, 0., 0., 5.84795326e-03, 0., 1.16959065e-02,
          5.84795326e-03, 0., 0., 5.84795326e-03, 0., 0., 0.,
          5.84795326e-03, 0., 0., 0., 5.84795326e-03, 0., 5.84795326e-03,
          0., 0., 0., 0., 5.84795326e-03, 0., 0., 0., 1.16959065e-02, 0.,
          0., 0., 0., 5.84795326e-03, 0., 5.84795326e-03, 5.84795326e-03,
          0., 0., 0., 5.84795326e-03, 0., 1.16959065e-02, 0., 0., 0.,
          5.84795326e-03, 0., 0., 0., 0., 0., 0., 0., 0., 5.84795326e-03,
          5.84795326e-03, 5.84795326e-03, 0., 0., 0., 0., 0., 0., 0.,
          5.84795326e-03, 0., 5.84795326e-03, 0., 0., 0., 0., 0., 0., 0.,
          5.84795326e-03, 0., 5.84795326e-03, 0., 0., 5.84795326e-03,
          5.84795326e-03, 0., 0., 0., 0., 0., 0., 0., 0., 0., 0., 0.,
          5.84795326e-03, 0., 0., 0., 5.84795326e-03, 0., 0., 0., 0., 0.,
          0., 0., 0., 5.84795326e-03, 0., 5.84795326e-03, 0.,
          5.84795326e-03, 0., 5.84795326e-03, 0., 0., 0., 5.84795326e-03,
          0., 0., 0., 0., 5.84795326e-03, 0., 5.84795326e-03,
          5.84795326e-03, 0., 5.84795326e-03, 0., 0., 5.84795326e-03, 0.,
          0., 5.84795326e-03, 0., 0., 0., 1.16959065e-02, 5.84795326e-03,
          0. ]
      - [ 8.42696615e-03, 0., 0., 2.80898879e-03, 2.80898879e-03, 0., 0.,
          0., 5.61797759e-03, 0., 0., 0., 0., 0., 0., 5.61797759e-03, 0.,
          0., 0., 2.80898879e-03, 8.42696615e-03, 0., 0., 2.80898879e-03,
          5.61797759e-03, 0., 0., 1.40449442e-02, 0., 5.61797759e-03,
          2.80898879e-03, 0., 0., 0., 0., 0., 0., 2.80898879e-03, 0., 0.,
          0., 0., 2.80898879e-03, 0., 0., 0., 2.80898879e-03,
          2.80898879e-03, 0., 2.80898879e-03, 0., 5.61797759e-03,
          2.80898879e-03, 2.80898879e-03, 0., 0., 0., 0., 0., 0.,
          2.80898879e-03, 5.61797759e-03, 0., 5.61797759e-03,
          1.40449442e-02, 0., 0., 0., 2.80898879e-03, 0., 2.80898879e-03,
          0., 0., 0., 0., 0., 0., 0., 0., 2.80898879e-03, 2.80898879e-03,
          5.61797759e-03, 0., 2.80898879e-03, 5.61797759e-03,
          2.80898879e-03, 0., 0., 0., 2.80898879e-03, 8.42696615e-03, 0.,
          2.80898879e-03, 0., 0., 0., 0., 2.80898879e-03, 2.80898879e-03,
          8.42696615e-03, 0., 2.80898879e-03, 0., 0., 1.12359552e-02, 0.,
          0., 5.61797759e-03, 5.61797759e-03, 0., 5.61797759e-03,
          5.61797759e-03, 0., 0., 0., 5.61797759e-03, 1.12359552e-02, 0.,
          2.80898879e-03, 2.80898879e-03, 2.80898879e-03, 2.80898879e-03,
          0., 1.12359552e-02, 0., 0., 2.80898879e-03, 5.61797759e-03,
          2.80898879e-03, 0., 0., 0., 2.80898879e-03, 5.61797759e-03, 0.,
          0., 0., 0., 0., 0., 2.80898879e-03, 0., 0., 2.80898879e-03, 0.,
          5.61797759e-03, 0., 0., 0., 0., 1.12359552e-02, 0., 0., 0., 0.,
          0., 2.80898879e-03, 2.80898879e-03, 5.61797759e-03, 0.,
          2.80898879e-03, 0., 5.61797759e-03, 2.80898879e-03,
          2.80898879e-03, 2.80898879e-03, 2.80898879e-03, 2.80898879e-03,
          0., 8.42696615e-03, 2.80898879e-03, 1.12359552e-02,
          5.61797759e-03, 5.61797759e-03, 8.42696615e-03, 5.61797759e-03,
          5.61797759e-03, 5.61797759e-03, 2.80898879e-03, 5.61797759e-03,
          0., 0., 2.80898879e-03, 0., 0., 5.61797759e-03, 0.,
          2.80898879e-03, 0., 5.61797759e-03, 2.80898879e-03, 0.,
          2.80898879e-03, 2.80898879e-03, 5.61797759e-03, 2.80898879e-03,
          0., 0., 2.80898879e-03, 2.80898879e-03, 0., 0., 0., 0., 0., 0.,
          2.80898879e-03, 0., 0., 0., 0., 5.61797759e-03, 0.,
          8.42696615e-03, 0., 0., 2.80898879e-03, 5.61797759e-03,
          2.80898879e-03, 2.80898879e-03, 1.12359552e-02, 0., 0., 0., 0.,
          0., 0., 0., 0., 2.80898879e-03, 2.80898879e-03, 2.80898879e-03,
          0., 0., 0., 2.80898879e-03, 5.61797759e-03, 0., 2.80898879e-03,
          5.61797759e-03, 0., 5.61797759e-03, 2.80898879e-03, 0., 0., 0.,
          0., 5.61797759e-03, 0., 0., 0., 0., 2.80898879e-03,
          5.61797759e-03, 0., 0., 0., 0., 5.61797759e-03, 0., 0., 0.,
          5.61797759e-03, 2.80898879e-03, 0., 0., 0., 0., 0.,
          2.80898879e-03, 2.80898879e-03, 2.80898879e-03, 2.80898879e-03,
          0., 2.80898879e-03, 2.80898879e-03, 2.80898879e-03,
          2.80898879e-03, 0., 5.61797759e-03, 0., 0., 1.12359552e-02,
          5.61797759e-03, 0., 0., 0., 5.61797759e-03, 0., 2.80898879e-03,
          5.61797759e-03, 0., 0., 0., 0., 0., 0., 2.80898879e-03, 0., 0.,
          0., 0., 0., 5.61797759e-03, 0., 1.12359552e-02, 0.,
          5.61797759e-03, 0., 0., 2.80898879e-03, 0., 0., 5.61797759e-03,
          5.61797759e-03, 2.80898879e-03, 0., 0., 5.61797759e-03,
          2.80898879e-03, 0., 8.42696615e-03, 5.61797759e-03,
          8.42696615e-03, 2.80898879e-03, 0., 2.80898879e-03, 0.,
          5.61797759e-03, 2.80898879e-03, 2.80898879e-03, 5.61797759e-03,
          0., 0., 2.80898879e-03, 0., 2.80898879e-03, 0., 0., 0.,
          2.80898879e-03, 0., 2.80898879e-03, 2.80898879e-03,
          2.80898879e-03, 2.80898879e-03, 0., 0., 0., 0., 2.80898879e-03,
          5.61797759e-03, 2.80898879e-03, 2.80898879e-03, 5.61797759e-03,
          0., 0., 0., 2.80898879e-03, 2.80898879e-03, 0., 8.42696615e-03,
          2.80898879e-03, 0., 0., 5.61797759e-03, 0., 0., 0.,
          8.42696615e-03, 2.80898879e-03, 0., 0., 2.80898879e-03,
          1.12359552e-02, 2.80898879e-03, 0., 0., 2.80898879e-03, 0., 0.,
          0., 0., 0., 0., 0., 0., 2.80898879e-03, 2.80898879e-03,
          2.80898879e-03, 0., 2.80898879e-03, 2.80898879e-03,
          8.42696615e-03, 0., 2.80898879e-03, 0., 0., 2.80898879e-03, 0.,
          0., 0., 0., 2.80898879e-03, 0., 2.80898879e-03, 2.80898879e-03,
          0., 1.12359552e-02, 0., 2.80898879e-03, 0., 0., 0.,
          5.61797759e-03, 0., 2.80898879e-03, 2.80898879e-03,
          2.80898879e-03, 0., 0., 0., 0., 0., 0., 0., 0., 0., 0., 0., 0.,
          0., 2.80898879e-03, 0., 0., 0., 0., 2.80898879e-03, 0.,
          2.80898879e-03, 5.61797759e-03, 2.80898879e-03, 5.61797759e-03,
          8.42696615e-03, 2.80898879e-03, 0., 8.42696615e-03,
          2.80898879e-03, 2.80898879e-03, 2.80898879e-03, 0., 0., 0.,
          2.80898879e-03, 0., 0., 0., 0., 8.42696615e-03, 0.,
          2.80898879e-03, 0., 0., 2.80898879e-03, 0., 0., 5.61797759e-03,
          0., 1.12359552e-02, 0., 0., 2.80898879e-03, 0., 2.80898879e-03,
          0., 2.80898879e-03, 2.80898879e-03, 5.61797759e-03,
          2.80898879e-03, 0., 2.80898879e-03, 5.61797759e-03, 0.,
          2.80898879e-03, 2.80898879e-03, 2.80898879e-03, 5.61797759e-03,
          0., 2.80898879e-03, 2.80898879e-03, 0., 0., 5.61797759e-03, 0.,
          2.80898879e-03, 0., 2.80898879e-03, 2.80898879e-03, 0.,
          2.80898879e-03 ]
      - [ 0., 2.48756213e-03, 0., 2.48756213e-03, 2.48756213e-03, 0., 0.,
          0., 4.97512426e-03, 2.48756213e-03, 0., 0., 4.97512426e-03, 0.,
          0., 0., 2.48756213e-03, 4.97512426e-03, 0., 0., 0.,
          2.48756213e-03, 4.97512426e-03, 2.48756213e-03, 2.48756213e-03,
          2.48756213e-03, 0., 7.46268639e-03, 0., 0., 4.97512426e-03, 0.,
          0., 0., 0., 2.48756213e-03, 4.97512426e-03, 2.48756213e-03,
          4.97512426e-03, 4.97512426e-03, 2.48756213e-03, 4.97512426e-03,
          4.97512426e-03, 0., 0., 2.48756213e-03, 0., 0., 0., 0., 0.,
          4.97512426e-03, 0., 0., 9.95024852e-03, 0., 0., 7.46268639e-03,
          2.48756213e-03, 2.48756213e-03, 0., 4.97512426e-03,
          4.97512426e-03, 0., 2.23880596e-02, 4.97512426e-03, 0., 0.,
          7.46268639e-03, 2.48756213e-03, 0., 0., 2.48756213e-03, 0., 0.,
          0., 0., 0., 0., 2.48756213e-03, 0., 0., 7.46268639e-03,
          2.48756213e-03, 0., 2.48756213e-03, 0., 0., 0., 4.97512426e-03,
          0., 0., 2.48756213e-03, 0., 2.48756213e-03, 0., 0.,
          2.48756213e-03, 2.48756213e-03, 0., 0., 2.48756213e-03,
          4.97512426e-03, 0., 9.95024852e-03, 0., 0., 2.48756213e-03,
          2.48756213e-03, 4.97512426e-03, 2.48756213e-03, 4.97512426e-03,
          4.97512426e-03, 0., 4.97512426e-03, 7.46268639e-03,
          2.48756213e-03, 0., 2.48756213e-03, 2.48756213e-03, 0.,
          2.48756213e-03, 0., 2.48756213e-03, 2.48756213e-03, 0.,
          2.48756213e-03, 0., 2.48756213e-03, 2.48756213e-03, 0., 0.,
          2.48756213e-03, 0., 0., 0., 0., 0., 2.48756213e-03, 0., 0., 0.,
          7.46268639e-03, 0., 2.48756213e-03, 4.97512426e-03, 0., 0.,
          2.48756213e-03, 9.95024852e-03, 0., 0., 2.48756213e-03, 0.,
          2.48756213e-03, 0., 0., 7.46268639e-03, 2.48756213e-03, 0.,
          2.48756213e-03, 2.48756213e-03, 0., 0., 7.46268639e-03,
          2.48756213e-03, 2.48756213e-03, 2.48756213e-03, 4.97512426e-03,
          7.46268639e-03, 0., 4.97512426e-03, 2.48756213e-03, 0.,
          7.46268639e-03, 2.48756213e-03, 4.97512426e-03, 4.97512426e-03,
          0., 0., 2.48756213e-03, 0., 0., 2.48756213e-03, 0., 0., 0.,
          2.48756213e-03, 0., 0., 0., 4.97512426e-03, 1.74129345e-02,
          2.48756213e-03, 0., 2.48756213e-03, 0., 2.48756213e-03,
          4.97512426e-03, 2.48756213e-03, 2.48756213e-03, 0.,
          2.48756213e-03, 0., 4.97512426e-03, 4.97512426e-03,
          4.97512426e-03, 0., 0., 2.48756213e-03, 0., 0., 4.97512426e-03,
          0., 7.46268639e-03, 2.48756213e-03, 2.48756213e-03,
          2.48756213e-03, 0., 2.48756213e-03, 0., 4.97512426e-03, 0.,
          4.97512426e-03, 0., 2.48756213e-03, 0., 2.48756213e-03, 0., 0.,
          0., 0., 0., 2.48756213e-03, 4.97512426e-03, 0., 2.48756213e-03,
          0., 0., 0., 2.48756213e-03, 0., 2.48756213e-03, 0.,
          4.97512426e-03, 4.97512426e-03, 0., 4.97512426e-03,
          4.97512426e-03, 0., 0., 0., 0., 4.97512426e-03, 0., 0., 0., 0.,
          2.48756213e-03, 2.48756213e-03, 2.48756213e-03, 0.,
          2.48756213e-03, 0., 0., 0., 2.48756213e-03, 0., 2.48756213e-03,
          9.95024852e-03, 4.97512426e-03, 0., 0., 0., 4.97512426e-03, 0.,
          2.48756213e-03, 0., 2.48756213e-03, 0., 4.97512426e-03,
          2.48756213e-03, 0., 2.48756213e-03, 4.97512426e-03, 0., 0.,
          2.48756213e-03, 0., 2.48756213e-03, 0., 2.48756213e-03, 0.,
          2.48756213e-03, 4.97512426e-03, 0., 2.48756213e-03,
          4.97512426e-03, 4.97512426e-03, 0., 4.97512426e-03, 0., 0., 0.,
          0., 0., 0., 2.48756213e-03, 2.48756213e-03, 2.48756213e-03, 0.,
          0., 2.48756213e-03, 0., 0., 2.48756213e-03, 0., 4.97512426e-03,
          0., 0., 2.48756213e-03, 0., 0., 2.48756213e-03, 2.48756213e-03,
          4.97512426e-03, 4.97512426e-03, 2.48756213e-03, 0., 0., 0., 0.,
          0., 4.97512426e-03, 2.48756213e-03, 0., 4.97512426e-03,
          7.46268639e-03, 0., 4.97512426e-03, 0., 0., 0., 2.48756213e-03,
          2.48756213e-03, 2.48756213e-03, 4.97512426e-03, 0., 0.,
          2.48756213e-03, 4.97512426e-03, 0., 2.48756213e-03,
          4.97512426e-03, 2.48756213e-03, 7.46268639e-03, 2.48756213e-03,
          2.48756213e-03, 2.48756213e-03, 0., 7.46268639e-03, 0., 0., 0.,
          4.97512426e-03, 4.97512426e-03, 4.97512426e-03, 4.97512426e-03,
          2.48756213e-03, 4.97512426e-03, 0., 0., 0., 2.48756213e-03,
          2.48756213e-03, 0., 0., 4.97512426e-03, 0., 0., 2.48756213e-03,
          0., 4.97512426e-03, 2.48756213e-03, 2.48756213e-03, 0., 0.,
          2.48756213e-03, 0., 0., 4.97512426e-03, 4.97512426e-03,
          2.48756213e-03, 0., 2.48756213e-03, 0., 0., 0., 0., 0., 0., 0.,
          2.48756213e-03, 2.48756213e-03, 2.48756213e-03, 0.,
          2.48756213e-03, 0., 7.46268639e-03, 0., 0., 2.48756213e-03, 0.,
          2.48756213e-03, 0., 0., 0., 2.48756213e-03, 7.46268639e-03,
          2.48756213e-03, 0., 0., 0., 2.48756213e-03, 0., 0., 0., 0., 0.,
          0., 4.97512426e-03, 4.97512426e-03, 2.48756213e-03,
          2.48756213e-03, 0., 2.48756213e-03, 9.95024852e-03,
          2.48756213e-03, 2.48756213e-03, 4.97512426e-03, 7.46268639e-03,
          7.46268639e-03, 2.48756213e-03, 2.48756213e-03, 2.48756213e-03,
          4.97512426e-03, 2.48756213e-03, 2.48756213e-03, 2.48756213e-03,
          4.97512426e-03, 0., 2.48756213e-03, 2.48756213e-03, 0., 0.,
          4.97512426e-03, 0., 2.48756213e-03, 1.49253728e-02,
          2.48756213e-03, 0., 0., 0., 0., 0., 4.97512426e-03,
          2.48756213e-03, 2.48756213e-03, 0., 0., 4.97512426e-03,
          2.48756213e-03, 0., 0., 0., 0., 0., 2.48756213e-03,
          7.46268639e-03, 0., 2.48756213e-03, 2.48756213e-03, 0.,
          2.48756213e-03, 0., 4.97512426e-03, 7.46268639e-03, 0.,
          2.48756213e-03, 0., 0., 0., 0., 0., 0., 0., 2.48756213e-03, 0.,
          2.48756213e-03, 9.95024852e-03 ]
      - [ 0., 0., 2.11864407e-03, 0., 4.23728814e-03, 0., 0., 0.,
          2.11864407e-03, 6.35593198e-03, 4.23728814e-03, 0.,
          4.23728814e-03, 2.11864407e-03, 6.35593198e-03, 0., 0., 0., 0.,
          4.23728814e-03, 8.47457629e-03, 2.11864407e-03, 2.11864407e-03,
          4.23728814e-03, 0., 0., 2.11864407e-03, 2.11864407e-03,
          2.11864407e-03, 0., 6.35593198e-03, 6.35593198e-03,
          2.11864407e-03, 0., 0., 0., 0., 8.47457629e-03, 2.11864407e-03,
          1.48305083e-02, 0., 4.23728814e-03, 0., 0., 2.11864407e-03, 0.,
          0., 4.23728814e-03, 0., 0., 0., 2.11864407e-03, 0.,
          2.11864407e-03, 0., 2.11864407e-03, 4.23728814e-03, 0.,
          2.11864407e-03, 6.35593198e-03, 0., 0., 2.11864407e-03,
          2.11864407e-03, 1.05932206e-02, 0., 2.11864407e-03,
          4.23728814e-03, 2.11864407e-03, 6.35593198e-03, 2.11864407e-03,
          0., 2.11864407e-03, 0., 0., 0., 4.23728814e-03, 2.11864407e-03,
          0., 4.23728814e-03, 2.11864407e-03, 0., 2.11864407e-03,
          6.35593198e-03, 4.23728814e-03, 0., 0., 2.11864407e-03, 0., 0.,
          0., 0., 0., 6.35593198e-03, 4.23728814e-03, 4.23728814e-03,
          2.11864407e-03, 0., 0., 0., 2.11864407e-03, 4.23728814e-03, 0.,
          0., 0., 2.11864407e-03, 4.23728814e-03, 0., 2.11864407e-03, 0.,
          2.11864407e-03, 0., 2.11864407e-03, 0., 8.47457629e-03,
          2.11864407e-03, 0., 0., 0., 0., 2.11864407e-03, 2.11864407e-03,
          2.11864407e-03, 0., 0., 2.11864407e-03, 0., 2.11864407e-03, 0.,
          2.11864407e-03, 6.35593198e-03, 0., 0., 2.11864407e-03, 0.,
          2.11864407e-03, 0., 0., 0., 0., 0., 0., 4.23728814e-03, 0.,
          2.11864407e-03, 6.35593198e-03, 4.23728814e-03, 2.11864407e-03,
          4.23728814e-03, 0., 6.35593198e-03, 2.11864407e-03, 0.,
          2.11864407e-03, 2.11864407e-03, 2.11864407e-03, 2.11864407e-03,
          4.23728814e-03, 2.11864407e-03, 4.23728814e-03, 0.,
          1.69491526e-02, 0., 0., 2.11864407e-03, 0., 4.23728814e-03,
          6.35593198e-03, 2.11864407e-03, 8.47457629e-03, 4.23728814e-03,
          0., 0., 0., 2.11864407e-03, 0., 0., 0., 0., 2.11864407e-03,
          2.11864407e-03, 6.35593198e-03, 0., 0., 2.11864407e-03,
          2.11864407e-03, 2.11864407e-03, 0., 2.11864407e-03,
          2.11864407e-03, 2.11864407e-03, 0., 0., 0., 0., 0., 0.,
          6.35593198e-03, 2.11864407e-03, 0., 1.05932206e-02,
          2.11864407e-03, 4.23728814e-03, 2.11864407e-03, 0.,
          2.11864407e-03, 0., 4.23728814e-03, 0., 2.11864407e-03,
          2.11864407e-03, 2.11864407e-03, 2.11864407e-03, 0.,
          2.11864407e-03, 0., 0., 4.23728814e-03, 0., 0., 2.11864407e-03,
          4.23728814e-03, 8.47457629e-03, 0., 0., 2.11864407e-03, 0.,
          4.23728814e-03, 0., 2.11864407e-03, 0., 6.35593198e-03, 0., 0.,
          2.11864407e-03, 8.47457629e-03, 0., 0., 0., 2.11864407e-03, 0.,
          0., 0., 0., 2.11864407e-03, 2.11864407e-03, 2.11864407e-03,
          4.23728814e-03, 4.23728814e-03, 0., 2.11864407e-03, 0.,
          2.11864407e-03, 4.23728814e-03, 2.11864407e-03, 2.11864407e-03,
          0., 2.11864407e-03, 2.11864407e-03, 2.11864407e-03,
          2.11864407e-03, 0., 0., 2.11864407e-03, 6.35593198e-03,
          6.35593198e-03, 2.11864407e-03, 2.11864407e-03, 4.23728814e-03,
          2.11864407e-03, 0., 0., 2.11864407e-03, 0., 0., 4.23728814e-03,
          8.47457629e-03, 2.11864407e-03, 4.23728814e-03, 0., 0.,
          8.47457629e-03, 0., 1.05932206e-02, 2.11864407e-03, 0., 0.,
          2.11864407e-03, 2.11864407e-03, 0., 2.11864407e-03,
          2.11864407e-03, 2.11864407e-03, 2.11864407e-03, 2.11864407e-03,
          4.23728814e-03, 4.23728814e-03, 0., 0., 4.23728814e-03,
          4.23728814e-03, 0., 6.35593198e-03, 0., 4.23728814e-03, 0., 0.,
          0., 4.23728814e-03, 8.47457629e-03, 4.23728814e-03,
          2.11864407e-03, 2.11864407e-03, 0., 0., 2.11864407e-03,
          4.23728814e-03, 4.23728814e-03, 0., 0., 2.11864407e-03,
          4.23728814e-03, 0., 2.11864407e-03, 6.35593198e-03, 0., 0.,
          2.11864407e-03, 0., 0., 0., 0., 2.11864407e-03, 0.,
          2.11864407e-03, 6.35593198e-03, 0., 2.11864407e-03,
          2.11864407e-03, 2.11864407e-03, 4.23728814e-03, 4.23728814e-03,
          0., 0., 0., 4.23728814e-03, 6.35593198e-03, 4.23728814e-03, 0.,
          4.23728814e-03, 0., 2.11864407e-03, 4.23728814e-03,
          2.11864407e-03, 2.11864407e-03, 1.27118640e-02, 2.11864407e-03,
          0., 0., 2.11864407e-03, 0., 0., 4.23728814e-03, 0., 0., 0.,
          4.23728814e-03, 0., 0., 2.11864407e-03, 0., 2.11864407e-03, 0.,
          4.23728814e-03, 2.11864407e-03, 2.11864407e-03, 0.,
          2.11864407e-03, 0., 2.11864407e-03, 2.11864407e-03, 0., 0., 0.,
          1.05932206e-02, 0., 0., 0., 4.23728814e-03, 0., 0.,
          2.11864407e-03, 0., 0., 2.11864407e-03, 0., 2.11864407e-03,
          4.23728814e-03, 4.23728814e-03, 2.11864407e-03, 2.11864407e-03,
          0., 2.11864407e-03, 2.11864407e-03, 2.11864407e-03,
          2.11864407e-03, 0., 2.11864407e-03, 0., 4.23728814e-03,
          4.23728814e-03, 0., 0., 0., 4.23728814e-03, 2.11864407e-03,
          2.11864407e-03, 0., 4.23728814e-03, 0., 0., 2.11864407e-03,
          6.35593198e-03, 2.11864407e-03, 2.11864407e-03, 0., 0., 0., 0.,
          1.27118640e-02, 2.11864407e-03, 4.23728814e-03, 8.47457629e-03,
          0., 2.11864407e-03, 4.23728814e-03, 6.35593198e-03,
          2.11864407e-03, 0., 4.23728814e-03, 2.11864407e-03,
          4.23728814e-03, 0., 0., 2.11864407e-03, 1.05932206e-02,
          2.11864407e-03, 0., 0., 2.11864407e-03, 0., 2.11864407e-03, 0.,
          2.11864407e-03, 0., 4.23728814e-03, 0., 0., 1.05932206e-02,
          4.23728814e-03, 4.23728814e-03, 2.11864407e-03, 0., 0.,
          6.35593198e-03, 0., 0., 0., 2.11864407e-03, 2.11864407e-03, 0.,
          0., 0., 0., 2.11864407e-03, 2.11864407e-03, 0., 2.11864407e-03,
          0., 0., 2.11864407e-03, 0., 2.11864407e-03, 0., 2.11864407e-03,
          0., 0., 6.35593198e-03, 4.23728814e-03, 2.11864407e-03,
          2.11864407e-03, 4.23728814e-03, 2.11864407e-03, 2.11864407e-03,
          2.11864407e-03, 0., 0., 4.23728814e-03, 2.11864407e-03, 0. ]
      - [ 0., 1.21212117e-02, 0., 1.81818176e-02, 0., 0., 0., 0., 0., 0.,
          0., 0., 6.06060587e-03, 0., 0., 0., 1.21212117e-02,
          6.06060587e-03, 0., 0., 6.06060587e-03, 0., 0., 0., 0., 0., 0.,
          0., 6.06060587e-03, 6.06060587e-03, 0., 6.06060587e-03, 0., 0.,
          0., 6.06060587e-03, 0., 0., 0., 6.06060587e-03, 6.06060587e-03,
          0., 1.21212117e-02, 1.81818176e-02, 0., 0., 0., 0.,
          6.06060587e-03, 0., 0., 0., 0., 1.81818176e-02, 0., 0., 0., 0.,
          0., 0., 0., 0., 6.06060587e-03, 6.06060587e-03, 0., 0., 0., 0.,
          0., 0., 0., 0., 6.06060587e-03, 0., 0., 0., 6.06060587e-03, 0.,
          0., 6.06060587e-03, 0., 0., 0., 0., 0., 0., 0., 0., 0., 0., 0.,
          0., 1.81818176e-02, 0., 0., 6.06060587e-03, 0., 6.06060587e-03,
          6.06060587e-03, 0., 0., 6.06060587e-03, 0., 6.06060587e-03, 0.,
          0., 0., 0., 0., 6.06060587e-03, 0., 0., 0., 0., 2.42424235e-02,
          6.06060587e-03, 6.06060587e-03, 0., 1.21212117e-02,
          6.06060587e-03, 6.06060587e-03, 0., 0., 0., 0., 0., 0., 0., 0.,
          0., 6.06060587e-03, 0., 0., 0., 0., 0., 0., 0., 6.06060587e-03,
          0., 6.06060587e-03, 6.06060587e-03, 6.06060587e-03, 0., 0.,
          1.21212117e-02, 6.06060587e-03, 0., 0., 2.42424235e-02, 0., 0.,
          6.06060587e-03, 0., 0., 0., 6.06060587e-03, 1.21212117e-02, 0.,
          0., 0., 0., 0., 0., 0., 0., 0., 6.06060587e-03, 0., 0., 0., 0.,
          0., 0., 0., 0., 0., 0., 0., 0., 0., 0., 0., 0., 0.,
          1.21212117e-02, 0., 0., 0., 0., 0., 0., 0., 0., 6.06060587e-03,
          0., 6.06060587e-03, 0., 0., 0., 0., 0., 0., 0., 0., 0., 0., 0.,
          0., 0., 0., 0., 0., 0., 0., 0., 0., 0., 0., 6.06060587e-03, 0.,
          0., 6.06060587e-03, 0., 6.06060587e-03, 0., 6.06060587e-03,
          6.06060587e-03, 0., 0., 0., 0., 0., 6.06060587e-03,
          6.06060587e-03, 0., 0., 0., 0., 6.06060587e-03, 6.06060587e-03,
          6.06060587e-03, 0., 6.06060587e-03, 0., 1.81818176e-02, 0., 0.,
          0., 6.06060587e-03, 0., 1.21212117e-02, 0., 0., 0., 0., 0., 0.,
          6.06060587e-03, 0., 0., 0., 0., 0., 0., 0., 6.06060587e-03, 0.,
          6.06060587e-03, 0., 0., 0., 6.06060587e-03, 6.06060587e-03, 0.,
          0., 0., 0., 6.06060587e-03, 0., 0., 0., 6.06060587e-03,
          6.06060587e-03, 6.06060587e-03, 0., 0., 0., 0., 0., 0., 0., 0.,
          0., 0., 0., 0., 0., 0., 6.06060587e-03, 0., 0., 6.06060587e-03,
          1.21212117e-02, 0., 0., 0., 0., 0., 1.21212117e-02, 0., 0., 0.,
          0., 0., 0., 0., 0., 6.06060587e-03, 0., 0., 0., 6.06060587e-03,
          1.21212117e-02, 0., 0., 0., 1.21212117e-02, 0., 1.21212117e-02,
          0., 0., 6.06060587e-03, 0., 0., 0., 0., 0., 0., 0., 0., 0.,
          6.06060587e-03, 6.06060587e-03, 0., 0., 0., 0., 0., 0.,
          1.21212117e-02, 6.06060587e-03, 0., 1.21212117e-02, 0.,
          1.21212117e-02, 1.21212117e-02, 0., 0., 1.21212117e-02, 0.,
          6.06060587e-03, 0., 0., 0., 0., 0., 6.06060587e-03, 0., 0., 0.,
          1.21212117e-02, 0., 0., 6.06060587e-03, 0., 0., 0., 0., 0., 0.,
          0., 0., 0., 0., 0., 0., 6.06060587e-03, 1.21212117e-02,
          6.06060587e-03, 0., 6.06060587e-03, 0., 0., 0., 0.,
          6.06060587e-03, 0., 0., 0., 0., 6.06060587e-03, 6.06060587e-03,
          6.06060587e-03, 1.21212117e-02, 0., 0., 0., 6.06060587e-03, 0.,
          6.06060587e-03, 0., 0., 0., 0., 0., 0., 1.21212117e-02, 0., 0.,
          0., 6.06060587e-03, 0., 0., 6.06060587e-03, 0., 6.06060587e-03,
          0., 0., 0., 6.06060587e-03, 0., 0., 6.06060587e-03, 0., 0., 0.,
          0., 0., 6.06060587e-03, 0., 0., 0., 6.06060587e-03,
          6.06060587e-03, 6.06060587e-03, 6.06060587e-03, 6.06060587e-03,
          6.06060587e-03, 0., 0., 0., 0., 0., 6.06060587e-03, 0., 0., 0.,
          0., 0., 0., 6.06060587e-03, 0., 0., 0., 0., 0., 0., 0., 0.,
          1.21212117e-02, 0., 0., 0., 0., 0., 0., 6.06060587e-03, 0., 0.,
          6.06060587e-03, 0., 0., 0., 0., 0., 0., 0., 0., 0., 0., 0., 0.,
          0., 6.06060587e-03, 6.06060587e-03, 0., 0., 6.06060587e-03, 0. ]
      - [ 0., 0., 0., 5.81395347e-03, 0., 0., 5.81395347e-03, 0., 0., 0.,
          5.81395347e-03, 0., 0., 0., 0., 0., 0., 0., 0., 0., 0., 0.,
          1.16279069e-02, 0., 0., 5.81395347e-03, 0., 5.81395347e-03, 0.,
          0., 1.16279069e-02, 0., 1.16279069e-02, 0., 0., 1.16279069e-02,
          0., 5.81395347e-03, 0., 0., 0., 0., 1.16279069e-02,
          5.81395347e-03, 0., 0., 0., 5.81395347e-03, 0., 0., 0., 0., 0.,
          5.81395347e-03, 5.81395347e-03, 0., 1.16279069e-02, 0.,
          5.81395347e-03, 0., 0., 5.81395347e-03, 0., 0., 0., 0., 0., 0.,
          0., 0., 5.81395347e-03, 0., 1.16279069e-02, 0., 5.81395347e-03,
          0., 0., 0., 0., 0., 0., 0., 0., 0., 0., 0., 0., 0., 0., 0., 0.,
          0., 0., 5.81395347e-03, 0., 0., 0., 5.81395347e-03,
          1.16279069e-02, 5.81395347e-03, 0., 0., 5.81395347e-03, 0.,
          5.81395347e-03, 0., 0., 0., 5.81395347e-03, 0., 0., 0., 0., 0.,
          5.81395347e-03, 1.74418613e-02, 1.74418613e-02, 0.,
          5.81395347e-03, 0., 5.81395347e-03, 0., 0., 0., 0., 0.,
          5.81395347e-03, 0., 0., 0., 5.81395347e-03, 0., 0., 0., 0.,
          5.81395347e-03, 0., 0., 0., 0., 0., 1.16279069e-02,
          1.16279069e-02, 0., 0., 0., 0., 0., 0., 1.16279069e-02,
          5.81395347e-03, 5.81395347e-03, 0., 5.81395347e-03,
          5.81395347e-03, 5.81395347e-03, 5.81395347e-03, 0., 0., 0., 0.,
          0., 0., 0., 0., 0., 0., 0., 0., 0., 0., 1.74418613e-02,
          5.81395347e-03, 0., 5.81395347e-03, 5.81395347e-03, 0., 0., 0.,
          0., 0., 0., 5.81395347e-03, 1.16279069e-02, 5.81395347e-03,
          1.74418613e-02, 0., 5.81395347e-03, 1.16279069e-02, 0., 0., 0.,
          0., 0., 0., 0., 0., 0., 0., 5.81395347e-03, 0., 0.,
          5.81395347e-03, 5.81395347e-03, 0., 0., 0., 0., 0.,
          5.81395347e-03, 0., 0., 0., 5.81395347e-03, 5.81395347e-03, 0.,
          0., 0., 0., 0., 0., 0., 0., 0., 0., 0., 0., 0., 5.81395347e-03,
          0., 0., 0., 5.81395347e-03, 1.74418613e-02, 1.16279069e-02, 0.,
          0., 0., 0., 0., 0., 1.16279069e-02, 0., 0., 0., 5.81395347e-03,
          0., 0., 0., 0., 0., 0., 0., 0., 5.81395347e-03, 0., 0., 0.,
          5.81395347e-03, 5.81395347e-03, 0., 0., 0., 0., 0., 0., 0., 0.,
          5.81395347e-03, 0., 0., 0., 0., 0., 5.81395347e-03, 0., 0., 0.,
          0., 0., 0., 0., 0., 5.81395347e-03, 5.81395347e-03, 0., 0., 0.,
          0., 5.81395347e-03, 0., 5.81395347e-03, 0., 0., 5.81395347e-03,
          0., 0., 0., 5.81395347e-03, 0., 0., 0., 0., 0., 0.,
          1.16279069e-02, 5.81395347e-03, 0., 0., 0., 0., 0., 0., 0., 0.,
          5.81395347e-03, 0., 0., 0., 0., 0., 5.81395347e-03,
          5.81395347e-03, 0., 5.81395347e-03, 5.81395347e-03, 0., 0.,
          5.81395347e-03, 1.16279069e-02, 0., 0., 5.81395347e-03, 0., 0.,
          0., 5.81395347e-03, 0., 0., 0., 0., 0., 1.16279069e-02,
          1.74418613e-02, 0., 0., 0., 0., 0., 0., 0., 0., 0., 0., 0.,
          5.81395347e-03, 0., 0., 0., 0., 0., 5.81395347e-03, 0., 0., 0.,
          5.81395347e-03, 5.81395347e-03, 0., 0., 0., 5.81395347e-03, 0.,
          1.16279069e-02, 0., 5.81395347e-03, 0., 0., 0., 5.81395347e-03,
          0., 0., 0., 5.81395347e-03, 5.81395347e-03, 0., 0.,
          5.81395347e-03, 5.81395347e-03, 5.81395347e-03, 0., 0., 0., 0.,
          0., 0., 0., 0., 0., 0., 0., 0., 0., 0., 0., 1.16279069e-02, 0.,
          0., 5.81395347e-03, 1.16279069e-02, 0., 5.81395347e-03, 0., 0.,
          0., 0., 0., 0., 0., 0., 0., 0., 0., 0., 0., 5.81395347e-03,
          5.81395347e-03, 0., 0., 0., 5.81395347e-03, 0., 0., 0.,
          5.81395347e-03, 0., 0., 0., 0., 0., 0., 0., 5.81395347e-03,
          5.81395347e-03, 5.81395347e-03, 0., 0., 1.16279069e-02, 0.,
          5.81395347e-03, 0., 0., 0., 1.16279069e-02, 5.81395347e-03, 0.,
          0., 0., 0., 0., 1.74418613e-02, 5.81395347e-03, 0., 0., 0., 0.,
          5.81395347e-03, 0., 0., 0., 5.81395347e-03, 0., 0., 0.,
          1.16279069e-02, 0., 0., 0., 0., 0., 5.81395347e-03, 0., 0.,
          5.81395347e-03, 1.16279069e-02, 0., 0., 0., 0., 5.81395347e-03,
          0., 0., 0., 5.81395347e-03, 0., 0., 0., 0., 0., 1.74418613e-02,
          5.81395347e-03 ]
      - [ 0., 6.02409616e-03, 0., 0., 0., 6.02409616e-03, 0., 0., 0., 0.,
          0., 0., 0., 6.02409616e-03, 0., 1.20481923e-02, 0., 0., 0., 0.,
          1.20481923e-02, 0., 6.02409616e-03, 0., 6.02409616e-03, 0., 0.,
          0., 0., 0., 0., 0., 0., 0., 0., 0., 0., 0., 6.02409616e-03, 0.,
          0., 0., 6.02409616e-03, 0., 0., 6.02409616e-03, 0., 0., 0., 0.,
          1.20481923e-02, 6.02409616e-03, 0., 6.02409616e-03,
          6.02409616e-03, 0., 0., 0., 6.02409616e-03, 0., 0.,
          6.02409616e-03, 1.20481923e-02, 0., 1.20481923e-02, 0., 0., 0.,
          0., 6.02409616e-03, 0., 0., 6.02409616e-03, 0., 0., 0., 0., 0.,
          0., 6.02409616e-03, 0., 0., 0., 0., 6.02409616e-03, 0.,
          6.02409616e-03, 6.02409616e-03, 0., 0., 6.02409616e-03, 0., 0.,
          0., 0., 6.02409616e-03, 0., 0., 6.02409616e-03, 6.02409616e-03,
          0., 0., 0., 6.02409616e-03, 6.02409616e-03, 6.02409616e-03, 0.,
          0., 6.02409616e-03, 0., 0., 0., 6.02409616e-03, 0.,
          1.80722885e-02, 1.20481923e-02, 6.02409616e-03, 0., 0., 0., 0.,
          0., 0., 0., 0., 6.02409616e-03, 6.02409616e-03, 0., 0., 0., 0.,
          0., 0., 0., 6.02409616e-03, 6.02409616e-03, 0., 0., 0., 0., 0.,
          6.02409616e-03, 0., 0., 0., 0., 0., 0., 6.02409616e-03,
          1.20481923e-02, 0., 0., 0., 1.20481923e-02, 0., 0., 0., 0., 0.,
          0., 0., 0., 0., 0., 0., 0., 0., 6.02409616e-03, 0., 0., 0.,
          1.20481923e-02, 1.20481923e-02, 0., 0., 0., 0., 0., 0.,
          1.80722885e-02, 6.02409616e-03, 0., 6.02409616e-03, 0., 0.,
          6.02409616e-03, 0., 0., 0., 6.02409616e-03, 0., 0.,
          1.20481923e-02, 6.02409616e-03, 0., 0., 0., 6.02409616e-03, 0.,
          0., 0., 0., 6.02409616e-03, 0., 6.02409616e-03, 0.,
          6.02409616e-03, 1.20481923e-02, 6.02409616e-03, 0.,
          6.02409616e-03, 0., 0., 0., 0., 0., 0., 6.02409616e-03, 0., 0.,
          6.02409616e-03, 0., 0., 0., 0., 0., 0., 0., 0., 0.,
          6.02409616e-03, 0., 6.02409616e-03, 0., 0., 6.02409616e-03, 0.,
          0., 0., 0., 0., 0., 0., 0., 6.02409616e-03, 0., 0.,
          6.02409616e-03, 6.02409616e-03, 6.02409616e-03, 0.,
          6.02409616e-03, 0., 1.20481923e-02, 6.02409616e-03, 0., 0., 0.,
          1.80722885e-02, 6.02409616e-03, 0., 0., 1.80722885e-02, 0.,
          1.20481923e-02, 0., 0., 6.02409616e-03, 6.02409616e-03, 0., 0.,
          0., 0., 0., 0., 6.02409616e-03, 6.02409616e-03, 0., 0.,
          6.02409616e-03, 0., 0., 0., 0., 0., 0., 0., 0., 0., 0., 0., 0.,
          0., 0., 0., 0., 0., 6.02409616e-03, 0., 0., 0., 0.,
          6.02409616e-03, 0., 0., 1.80722885e-02, 0., 0., 0., 0.,
          6.02409616e-03, 0., 0., 1.20481923e-02, 0., 0., 0.,
          6.02409616e-03, 0., 0., 0., 0., 1.20481923e-02, 6.02409616e-03,
          0., 0., 0., 0., 0., 0., 0., 0., 0., 0., 0., 0., 6.02409616e-03,
          0., 0., 0., 6.02409616e-03, 0., 0., 1.80722885e-02, 0., 0., 0.,
          0., 0., 0., 0., 0., 0., 6.02409616e-03, 0., 0., 0., 0., 0., 0.,
          0., 0., 0., 0., 0., 0., 0., 0., 0., 0., 0., 0., 0.,
          6.02409616e-03, 0., 1.20481923e-02, 0., 0., 0., 6.02409616e-03,
          6.02409616e-03, 6.02409616e-03, 0., 0., 0., 0., 0.,
          6.02409616e-03, 1.20481923e-02, 6.02409616e-03, 0., 0., 0.,
          1.20481923e-02, 0., 0., 0., 0., 6.02409616e-03, 6.02409616e-03,
          0., 0., 0., 0., 0., 0., 0., 0., 0., 0., 6.02409616e-03, 0.,
          6.02409616e-03, 0., 0., 0., 0., 6.02409616e-03, 0., 0., 0., 0.,
          0., 0., 6.02409616e-03, 6.02409616e-03, 0., 0., 0.,
          6.02409616e-03, 0., 0., 0., 0., 0., 0., 0., 0., 0.,
          6.02409616e-03, 0., 0., 6.02409616e-03, 6.02409616e-03, 0., 0.,
          0., 0., 0., 0., 0., 6.02409616e-03, 0., 0., 0., 6.02409616e-03,
          0., 0., 0., 1.80722885e-02, 0., 6.02409616e-03, 0.,
          6.02409616e-03, 6.02409616e-03, 0., 0., 0., 0., 6.02409616e-03,
          0., 2.40963846e-02, 0., 0., 0., 0., 0., 0., 0., 0., 0.,
          6.02409616e-03, 0., 1.20481923e-02, 0., 1.20481923e-02,
          6.02409616e-03, 0., 0., 0., 0., 0., 0., 6.02409616e-03, 0., 0.,
          0., 0., 6.02409616e-03, 0. ]
      - [ 0., 2.55754474e-03, 0., 5.11508947e-03, 2.55754474e-03, 0.,
          7.67263398e-03, 5.11508947e-03, 5.11508947e-03, 0.,
          7.67263398e-03, 5.11508947e-03, 7.67263398e-03, 0.,
          5.11508947e-03, 0., 1.27877239e-02, 0., 2.55754474e-03, 0., 0.,
          0., 5.11508947e-03, 2.55754474e-03, 0., 0., 0., 2.55754474e-03,
          0., 0., 0., 0., 0., 7.67263398e-03, 0., 5.11508947e-03, 0., 0.,
          1.02301789e-02, 1.53452680e-02, 2.55754474e-03, 5.11508947e-03,
          0., 2.55754474e-03, 2.55754474e-03, 7.67263398e-03,
          2.55754474e-03, 2.55754474e-03, 0., 0., 0., 5.11508947e-03, 0.,
          7.67263398e-03, 2.55754474e-03, 0., 0., 0., 0., 1.79028139e-02,
          0., 0., 0., 0., 5.11508947e-03, 2.55754474e-03, 2.55754474e-03,
          2.55754474e-03, 0., 5.11508947e-03, 0., 2.55754474e-03, 0., 0.,
          5.11508947e-03, 0., 1.79028139e-02, 5.11508947e-03, 0., 0.,
          2.55754474e-03, 0., 0., 5.11508947e-03, 5.11508947e-03, 0., 0.,
          0., 5.11508947e-03, 0., 0., 0., 0., 2.55754474e-03, 0.,
          2.55754474e-03, 2.55754474e-03, 0., 7.67263398e-03, 0.,
          2.55754474e-03, 7.67263398e-03, 2.55754474e-03, 0.,
          1.02301789e-02, 0., 0., 0., 0., 0., 1.02301789e-02,
          2.55754474e-03, 0., 0., 0., 2.55754474e-03, 2.55754474e-03,
          5.11508947e-03, 7.67263398e-03, 0., 0., 0., 0., 2.55754474e-03,
          2.55754474e-03, 0., 0., 5.11508947e-03, 0., 5.11508947e-03, 0.,
          0., 5.11508947e-03, 0., 0., 7.67263398e-03, 0., 2.55754474e-03,
          0., 0., 0., 0., 0., 0., 2.55754474e-03, 2.55754474e-03, 0.,
          2.55754474e-03, 2.55754474e-03, 2.55754474e-03, 1.02301789e-02,
          5.11508947e-03, 2.55754474e-03, 2.55754474e-03, 2.55754474e-03,
          0., 0., 2.55754474e-03, 2.55754474e-03, 0., 0., 7.67263398e-03,
          5.11508947e-03, 0., 0., 0., 0., 2.55754474e-03, 0.,
          1.27877239e-02, 0., 1.02301789e-02, 0., 7.67263398e-03,
          5.11508947e-03, 0., 0., 0., 0., 0., 2.55754474e-03, 0., 0.,
          2.55754474e-03, 0., 0., 0., 5.11508947e-03, 2.55754474e-03,
          2.55754474e-03, 0., 2.55754474e-03, 2.55754474e-03, 0., 0.,
          2.55754474e-03, 2.55754474e-03, 2.55754474e-03, 2.55754474e-03,
          2.55754474e-03, 0., 0., 0., 0., 0., 0., 2.55754474e-03,
          5.11508947e-03, 2.55754474e-03, 0., 2.55754474e-03,
          5.11508947e-03, 5.11508947e-03, 0., 2.55754474e-03, 0., 0., 0.,
          2.55754474e-03, 0., 2.55754474e-03, 5.11508947e-03,
          7.67263398e-03, 2.55754474e-03, 7.67263398e-03, 5.11508947e-03,
          0., 2.55754474e-03, 0., 5.11508947e-03, 2.55754474e-03, 0., 0.,
          2.55754474e-03, 0., 2.55754474e-03, 2.55754474e-03,
          2.55754474e-03, 0., 0., 0., 2.55754474e-03, 2.55754474e-03, 0.,
          0., 0., 2.55754474e-03, 2.55754474e-03, 2.55754474e-03,
          2.55754474e-03, 2.55754474e-03, 5.11508947e-03, 0., 0.,
          5.11508947e-03, 2.55754474e-03, 0., 2.55754474e-03, 0., 0., 0.,
          5.11508947e-03, 2.55754474e-03, 0., 0., 0., 0., 0.,
          2.55754474e-03, 0., 2.55754474e-03, 0., 0., 2.55754474e-03, 0.,
          7.67263398e-03, 0., 2.55754474e-03, 0., 0., 0., 0., 0.,
          2.55754474e-03, 2.55754474e-03, 2.55754474e-03, 0.,
          1.02301789e-02, 0., 0., 5.11508947e-03, 5.11508947e-03, 0.,
          2.55754474e-03, 2.55754474e-03, 0., 0., 2.55754474e-03, 0., 0.,
          7.67263398e-03, 5.11508947e-03, 0., 0., 2.55754474e-03, 0., 0.,
          2.55754474e-03, 2.55754474e-03, 2.55754474e-03, 0., 0., 0., 0.,
          0., 2.55754474e-03, 2.55754474e-03, 2.55754474e-03,
          5.11508947e-03, 2.55754474e-03, 2.55754474e-03, 2.55754474e-03,
          2.55754474e-03, 0., 0., 0., 0., 0., 0., 0., 5.11508947e-03,
          2.55754474e-03, 2.55754474e-03, 5.11508947e-03, 0.,
          5.11508947e-03, 0., 2.55754474e-03, 2.55754474e-03, 0., 0., 0.,
          2.55754474e-03, 5.11508947e-03, 0., 2.55754474e-03,
          2.55754474e-03, 0., 0., 0., 5.11508947e-03, 2.55754474e-03,
          7.67263398e-03, 0., 0., 5.11508947e-03, 2.55754474e-03, 0.,
          5.11508947e-03, 0., 0., 0., 2.55754474e-03, 2.55754474e-03, 0.,
          2.55754474e-03, 0., 0., 2.55754474e-03, 0., 2.55754474e-03,
          2.55754474e-03, 0., 5.11508947e-03, 0., 2.55754474e-03, 0., 0.,
          2.55754474e-03, 0., 2.55754474e-03, 5.11508947e-03,
          7.67263398e-03, 2.55754474e-03, 5.11508947e-03, 0.,
          2.55754474e-03, 0., 5.11508947e-03, 0., 2.55754474e-03,
          2.55754474e-03, 0., 2.55754474e-03, 2.55754474e-03, 0., 0., 0.,
          0., 5.11508947e-03, 2.55754474e-03, 2.55754474e-03,
          2.55754474e-03, 0., 2.55754474e-03, 2.55754474e-03, 0.,
          2.55754474e-03, 2.55754474e-03, 0., 0., 0., 0., 0., 0.,
          2.55754474e-03, 0., 2.55754474e-03, 0., 0., 0., 0.,
          2.55754474e-03, 0., 5.11508947e-03, 0., 2.55754474e-03, 0., 0.,
          1.79028139e-02, 5.11508947e-03, 0., 2.55754474e-03,
          2.55754474e-03, 2.55754474e-03, 0., 2.55754474e-03, 0., 0.,
          5.11508947e-03, 0., 0., 2.55754474e-03, 5.11508947e-03,
          5.11508947e-03, 5.11508947e-03, 5.11508947e-03, 0., 0., 0., 0.,
          0., 0., 0., 2.55754474e-03, 0., 2.55754474e-03, 0.,
          2.55754474e-03, 2.55754474e-03, 5.11508947e-03, 2.55754474e-03,
          0., 2.55754474e-03, 7.67263398e-03, 0., 0., 0., 0.,
          2.55754474e-03, 2.55754474e-03, 0., 0., 0., 0., 0.,
          5.11508947e-03, 0., 5.11508947e-03, 2.55754474e-03,
          2.55754474e-03, 2.55754474e-03, 0., 0., 0., 0., 0., 0., 0.,
          7.67263398e-03, 0., 0., 0., 5.11508947e-03, 5.11508947e-03, 0.,
          0., 7.67263398e-03, 0., 2.55754474e-03 ]
      - [ 0., 2.25733640e-03, 2.25733640e-03, 4.51467279e-03, 0., 0., 0.,
          0., 0., 0., 6.77200919e-03, 9.02934559e-03, 2.25733640e-03, 0.,
          0., 4.51467279e-03, 0., 0., 4.51467279e-03, 6.77200919e-03, 0.,
          0., 0., 0., 2.25733640e-03, 0., 2.25733640e-03, 2.25733640e-03,
          2.25733640e-03, 0., 0., 0., 2.25733640e-03, 0., 6.77200919e-03,
          1.12866815e-02, 2.25733640e-03, 0., 2.25733640e-03, 0.,
          6.77200919e-03, 6.77200919e-03, 0., 0., 2.25733640e-03,
          2.25733640e-03, 0., 0., 0., 0., 0., 4.51467279e-03, 0., 0.,
          2.25733640e-03, 0., 2.25733640e-03, 2.25733640e-03, 0.,
          4.51467279e-03, 4.51467279e-03, 0., 0., 2.25733640e-03,
          2.93453727e-02, 2.25733640e-03, 0., 2.25733640e-03, 0.,
          2.25733640e-03, 2.25733640e-03, 2.25733640e-03, 0., 0., 0., 0.,
          2.25733640e-03, 0., 2.25733640e-03, 6.77200919e-03, 0., 0., 0.,
          9.02934559e-03, 4.51467279e-03, 2.25733640e-03, 0., 0., 0., 0.,
          0., 0., 0., 0., 0., 4.51467279e-03, 0., 0., 2.25733640e-03,
          2.25733640e-03, 2.25733640e-03, 2.25733640e-03, 4.51467279e-03,
          2.25733640e-03, 2.25733640e-03, 2.25733640e-03, 4.51467279e-03,
          4.51467279e-03, 0., 0., 0., 2.25733640e-03, 1.35440184e-02, 0.,
          4.51467279e-03, 0., 0., 4.51467279e-03, 2.25733640e-03,
          6.77200919e-03, 0., 6.77200919e-03, 0., 0., 0., 2.25733640e-03,
          2.25733640e-03, 0., 9.02934559e-03, 2.25733640e-03, 0.,
          2.25733640e-03, 0., 0., 0., 0., 6.77200919e-03, 0.,
          2.25733640e-03, 2.25733640e-03, 0., 0., 0., 0., 0.,
          4.51467279e-03, 2.25733640e-03, 0., 0., 0., 2.25733640e-03, 0.,
          0., 0., 2.25733640e-03, 0., 4.51467279e-03, 0., 0.,
          2.25733640e-03, 2.25733640e-03, 6.77200919e-03, 0., 0.,
          2.25733640e-03, 2.25733640e-03, 6.77200919e-03, 2.25733640e-03,
          0., 1.35440184e-02, 2.25733640e-03, 4.51467279e-03, 0.,
          2.25733640e-03, 2.25733640e-03, 0., 2.25733640e-03,
          2.25733640e-03, 0., 0., 4.51467279e-03, 6.77200919e-03, 0.,
          1.58013552e-02, 2.25733640e-03, 0., 2.25733640e-03, 0., 0., 0.,
          2.25733640e-03, 2.25733640e-03, 0., 2.25733640e-03, 0.,
          2.25733640e-03, 0., 0., 0., 2.25733640e-03, 9.02934559e-03, 0.,
          0., 6.77200919e-03, 6.77200919e-03, 0., 0., 4.51467279e-03,
          9.02934559e-03, 2.25733640e-03, 0., 2.25733640e-03,
          2.25733640e-03, 0., 0., 0., 2.25733640e-03, 0., 0.,
          2.25733640e-03, 0., 1.35440184e-02, 0., 2.25733640e-03, 0., 0.,
          0., 2.25733640e-03, 2.25733640e-03, 0., 0., 0., 0., 0., 0.,
          4.51467279e-03, 0., 2.25733640e-03, 0., 0., 6.77200919e-03, 0.,
          0., 2.25733640e-03, 2.25733640e-03, 2.25733640e-03, 0.,
          4.51467279e-03, 4.51467279e-03, 2.25733640e-03, 0.,
          2.25733640e-03, 0., 0., 0., 2.25733640e-03, 2.25733640e-03, 0.,
          0., 0., 2.25733640e-03, 0., 2.25733640e-03, 0., 9.02934559e-03,
          9.02934559e-03, 1.12866815e-02, 0., 0., 0., 2.25733640e-03, 0.,
          0., 2.25733640e-03, 0., 4.51467279e-03, 2.25733640e-03,
          2.25733640e-03, 4.51467279e-03, 0., 0., 4.51467279e-03, 0.,
          4.51467279e-03, 6.77200919e-03, 2.25733640e-03, 0., 0., 0.,
          6.77200919e-03, 2.25733640e-03, 1.80586912e-02, 0.,
          2.25733640e-03, 0., 0., 0., 2.25733640e-03, 0., 0.,
          6.77200919e-03, 0., 2.25733640e-03, 0., 4.51467279e-03, 0., 0.,
          0., 0., 2.25733640e-03, 2.25733640e-03, 0., 0., 0., 0., 0.,
          4.51467279e-03, 0., 0., 2.25733640e-03, 0., 0., 0., 0.,
          2.25733640e-03, 4.51467279e-03, 4.51467279e-03, 0., 0., 0.,
          6.77200919e-03, 9.02934559e-03, 0., 2.25733640e-03, 0.,
          2.25733640e-03, 0., 4.51467279e-03, 4.51467279e-03, 0., 0.,
          4.51467279e-03, 2.25733640e-03, 0., 2.25733640e-03, 0.,
          2.25733640e-03, 2.25733640e-03, 0., 2.25733640e-03,
          2.25733640e-03, 0., 0., 2.25733640e-03, 4.51467279e-03,
          6.77200919e-03, 0., 0., 0., 4.51467279e-03, 4.51467279e-03, 0.,
          2.25733640e-03, 2.25733640e-03, 2.25733640e-03, 0.,
          2.25733640e-03, 2.25733640e-03, 2.25733640e-03, 0.,
          9.02934559e-03, 0., 0., 6.77200919e-03, 2.25733640e-03,
          2.25733640e-03, 4.51467279e-03, 0., 2.25733640e-03, 0., 0.,
          2.25733640e-03, 6.77200919e-03, 0., 2.25733640e-03, 0., 0., 0.,
          2.25733640e-03, 0., 0., 2.25733640e-03, 0., 4.51467279e-03,
          2.25733640e-03, 0., 2.25733640e-03, 0., 0., 0., 1.58013552e-02,
          2.25733640e-03, 0., 0., 2.25733640e-03, 0., 0., 4.51467279e-03,
          2.25733640e-03, 2.25733640e-03, 0., 1.12866815e-02,
          4.51467279e-03, 4.51467279e-03, 0., 2.25733640e-03,
          4.51467279e-03, 4.51467279e-03, 0., 0., 0., 2.25733640e-03,
          2.25733640e-03, 0., 0., 4.51467279e-03, 9.02934559e-03, 0.,
          2.25733640e-03, 0., 2.25733640e-03, 0., 0., 0., 6.77200919e-03,
          0., 0., 2.25733640e-03, 2.25733640e-03, 0., 2.25733640e-03,
          2.25733640e-03, 2.25733640e-03, 0., 0., 1.12866815e-02, 0., 0.,
          4.51467279e-03, 0., 6.77200919e-03, 2.25733640e-03, 0.,
          4.51467279e-03, 6.77200919e-03, 4.51467279e-03, 0.,
          4.51467279e-03, 4.51467279e-03, 0., 2.25733640e-03,
          2.25733640e-03, 2.25733640e-03, 4.51467279e-03, 6.77200919e-03,
          0., 0., 2.25733640e-03, 0., 0., 0., 0., 0., 2.25733640e-03,
          6.77200919e-03, 2.25733640e-03, 0., 4.51467279e-03,
          2.25733640e-03, 4.51467279e-03, 0., 0., 0., 0., 4.51467279e-03,
          0., 2.25733640e-03, 2.25733640e-03, 2.25733640e-03,
          2.25733640e-03, 0., 2.25733640e-03, 0., 0., 0., 2.25733640e-03,
          0., 0., 2.25733640e-03, 4.51467279e-03 ]
      - [ 6.53594779e-03, 0., 0., 0., 0., 0., 0., 0., 0., 0., 0., 0., 0.,
          0., 0., 0., 0., 0., 0., 0., 0., 0., 0., 0., 0., 0., 0., 0.,
          6.53594779e-03, 0., 1.96078438e-02, 1.30718956e-02,
          6.53594779e-03, 0., 0., 0., 0., 0., 6.53594779e-03, 0., 0., 0.,
          6.53594779e-03, 0., 0., 0., 0., 0., 6.53594779e-03, 0., 0., 0.,
          0., 0., 6.53594779e-03, 0., 0., 0., 6.53594779e-03, 0.,
          6.53594779e-03, 0., 2.61437912e-02, 0., 0., 0., 0., 0., 0.,
          1.30718956e-02, 0., 6.53594779e-03, 0., 0., 0., 0., 0., 0., 0.,
          0., 0., 0., 0., 6.53594779e-03, 0., 0., 0., 0., 0.,
          6.53594779e-03, 0., 0., 1.96078438e-02, 0., 0., 0.,
          6.53594779e-03, 0., 6.53594779e-03, 6.53594779e-03, 0., 0.,
          6.53594779e-03, 0., 0., 0., 0., 6.53594779e-03, 0.,
          6.53594779e-03, 0., 0., 6.53594779e-03, 1.30718956e-02,
          6.53594779e-03, 0., 1.96078438e-02, 0., 0., 6.53594779e-03,
          6.53594779e-03, 0., 0., 0., 0., 0., 6.53594779e-03, 0., 0., 0.,
          0., 6.53594779e-03, 0., 0., 0., 0., 0., 6.53594779e-03, 0.,
          6.53594779e-03, 0., 0., 0., 0., 0., 0., 0., 0., 0.,
          1.30718956e-02, 0., 6.53594779e-03, 0., 0., 6.53594779e-03, 0.,
          0., 0., 0., 0., 0., 0., 1.30718956e-02, 0., 0., 0., 0.,
          6.53594779e-03, 0., 0., 6.53594779e-03, 6.53594779e-03, 0.,
          1.96078438e-02, 0., 0., 0., 1.30718956e-02, 0., 6.53594779e-03,
          0., 0., 0., 0., 0., 1.30718956e-02, 0., 0., 0., 0., 0., 0.,
          6.53594779e-03, 0., 0., 0., 0., 0., 0., 0., 0., 0., 0., 0.,
          6.53594779e-03, 0., 0., 6.53594779e-03, 0., 0., 0.,
          6.53594779e-03, 0., 0., 6.53594779e-03, 0., 6.53594779e-03,
          6.53594779e-03, 0., 0., 6.53594779e-03, 0., 0., 0., 0., 0., 0.,
          0., 0., 1.96078438e-02, 0., 0., 0., 0., 0., 0., 0.,
          6.53594779e-03, 0., 6.53594779e-03, 0., 0., 0., 0., 0., 0., 0.,
          0., 0., 6.53594779e-03, 0., 0., 6.53594779e-03, 6.53594779e-03,
          0., 0., 0., 1.96078438e-02, 6.53594779e-03, 1.30718956e-02,
          6.53594779e-03, 0., 6.53594779e-03, 6.53594779e-03, 0., 0., 0.,
          0., 0., 0., 0., 0., 6.53594779e-03, 6.53594779e-03, 0., 0., 0.,
          0., 0., 6.53594779e-03, 0., 0., 0., 6.53594779e-03, 0.,
          6.53594779e-03, 0., 0., 0., 0., 0., 0., 0., 0., 0.,
          6.53594779e-03, 0., 6.53594779e-03, 0., 0., 0., 6.53594779e-03,
          0., 0., 0., 0., 0., 0., 0., 0., 0., 0., 0., 0., 0., 0., 0.,
          6.53594779e-03, 0., 0., 6.53594779e-03, 0., 1.96078438e-02,
          1.96078438e-02, 0., 0., 0., 0., 0., 6.53594779e-03, 0., 0., 0.,
          0., 0., 1.30718956e-02, 1.30718956e-02, 1.30718956e-02, 0., 0.,
          0., 0., 0., 6.53594779e-03, 6.53594779e-03, 0., 0., 0., 0., 0.,
          0., 0., 0., 0., 6.53594779e-03, 0., 0., 0., 0., 6.53594779e-03,
          0., 6.53594779e-03, 0., 6.53594779e-03, 0., 6.53594779e-03, 0.,
          0., 1.30718956e-02, 0., 0., 1.30718956e-02, 0., 1.30718956e-02,
          0., 0., 0., 0., 6.53594779e-03, 0., 0., 0., 0., 0., 0., 0.,
          6.53594779e-03, 6.53594779e-03, 6.53594779e-03, 6.53594779e-03,
          0., 6.53594779e-03, 0., 0., 6.53594779e-03, 0., 0., 0., 0., 0.,
          6.53594779e-03, 0., 0., 1.30718956e-02, 0., 0., 0., 0., 0.,
          6.53594779e-03, 0., 0., 0., 0., 6.53594779e-03, 0., 0.,
          1.96078438e-02, 0., 0., 0., 0., 0., 1.30718956e-02, 0., 0., 0.,
          0., 0., 0., 0., 0., 0., 0., 0., 1.30718956e-02, 0., 0., 0., 0.,
          0., 0., 6.53594779e-03, 0., 0., 0., 0., 0., 6.53594779e-03, 0.,
          0., 0., 0., 0., 0., 0., 0., 0., 6.53594779e-03, 0., 0., 0., 0.,
          0., 0., 0., 0., 0., 0., 6.53594779e-03, 6.53594779e-03,
          6.53594779e-03, 0., 0., 6.53594779e-03, 0., 0., 0., 0., 0., 0.,
          0., 1.30718956e-02, 0., 0., 0., 0., 6.53594779e-03, 0., 0., 0.,
          6.53594779e-03, 0., 0., 0., 0., 0., 0., 0., 0. ]
      - [ 0., 6.06060587e-03, 0., 0., 0., 0., 0., 0., 0., 0., 0., 0.,
          1.21212117e-02, 0., 6.06060587e-03, 1.81818176e-02, 0.,
          6.06060587e-03, 0., 0., 6.06060587e-03, 0., 0., 0., 0., 0., 0.,
          0., 0., 1.21212117e-02, 6.06060587e-03, 6.06060587e-03, 0., 0.,
          0., 0., 6.06060587e-03, 0., 0., 6.06060587e-03, 0., 0., 0., 0.,
          0., 0., 0., 0., 6.06060587e-03, 6.06060587e-03, 6.06060587e-03,
          0., 6.06060587e-03, 0., 0., 0., 0., 0., 0., 0., 6.06060587e-03,
          0., 0., 0., 1.21212117e-02, 0., 0., 0., 0., 0., 0., 0., 0.,
          6.06060587e-03, 6.06060587e-03, 0., 6.06060587e-03, 0., 0., 0.,
          6.06060587e-03, 0., 0., 0., 0., 0., 1.21212117e-02, 0., 0.,
          6.06060587e-03, 0., 0., 0., 0., 0., 6.06060587e-03, 0., 0., 0.,
          0., 0., 0., 6.06060587e-03, 0., 0., 0., 0., 0., 0., 0., 0., 0.,
          6.06060587e-03, 6.06060587e-03, 0., 0., 1.81818176e-02, 0., 0.,
          6.06060587e-03, 0., 1.21212117e-02, 0., 0., 0., 0.,
          6.06060587e-03, 0., 0., 0., 0., 0., 6.06060587e-03,
          1.21212117e-02, 0., 0., 0., 6.06060587e-03, 0., 6.06060587e-03,
          0., 0., 0., 0., 0., 6.06060587e-03, 0., 1.21212117e-02, 0.,
          1.81818176e-02, 0., 0., 6.06060587e-03, 6.06060587e-03, 0., 0.,
          0., 0., 0., 0., 0., 0., 1.21212117e-02, 0., 6.06060587e-03, 0.,
          0., 0., 0., 6.06060587e-03, 1.21212117e-02, 0., 0.,
          1.21212117e-02, 0., 6.06060587e-03, 0., 1.21212117e-02, 0.,
          6.06060587e-03, 6.06060587e-03, 0., 0., 0., 0., 2.42424235e-02,
          6.06060587e-03, 1.81818176e-02, 0., 6.06060587e-03, 0., 0.,
          6.06060587e-03, 0., 0., 0., 0., 0., 0., 0., 0., 0., 0., 0., 0.,
          0., 0., 0., 6.06060587e-03, 0., 0., 0., 0., 0., 1.81818176e-02,
          0., 0., 1.21212117e-02, 6.06060587e-03, 0., 6.06060587e-03, 0.,
          0., 0., 0., 0., 0., 6.06060587e-03, 0., 6.06060587e-03, 0., 0.,
          0., 0., 6.06060587e-03, 0., 0., 0., 6.06060587e-03,
          6.06060587e-03, 0., 0., 6.06060587e-03, 0., 0., 0., 0., 0., 0.,
          0., 0., 0., 0., 6.06060587e-03, 0., 0., 0., 6.06060587e-03, 0.,
          0., 6.06060587e-03, 0., 0., 0., 0., 0., 0., 0., 0.,
          6.06060587e-03, 1.21212117e-02, 0., 6.06060587e-03,
          6.06060587e-03, 0., 0., 1.21212117e-02, 0., 0., 6.06060587e-03,
          0., 0., 0., 0., 0., 0., 0., 6.06060587e-03, 0., 0.,
          6.06060587e-03, 1.21212117e-02, 0., 0., 0., 6.06060587e-03, 0.,
          0., 6.06060587e-03, 0., 0., 0., 0., 0., 0., 6.06060587e-03, 0.,
          0., 0., 0., 0., 0., 6.06060587e-03, 6.06060587e-03,
          6.06060587e-03, 0., 0., 6.06060587e-03, 0., 0., 0., 0.,
          1.21212117e-02, 1.81818176e-02, 0., 0., 0., 1.81818176e-02, 0.,
          6.06060587e-03, 0., 0., 0., 0., 0., 0., 6.06060587e-03, 0., 0.,
          0., 0., 0., 0., 0., 6.06060587e-03, 0., 6.06060587e-03, 0.,
          6.06060587e-03, 0., 0., 0., 0., 0., 0., 0., 0., 0.,
          6.06060587e-03, 0., 0., 6.06060587e-03, 0., 0., 0., 0., 0., 0.,
          0., 0., 0., 6.06060587e-03, 6.06060587e-03, 0., 0.,
          6.06060587e-03, 0., 0., 1.21212117e-02, 0., 6.06060587e-03, 0.,
          0., 0., 6.06060587e-03, 0., 0., 0., 6.06060587e-03, 0., 0., 0.,
          0., 6.06060587e-03, 6.06060587e-03, 6.06060587e-03, 0., 0.,
          6.06060587e-03, 6.06060587e-03, 6.06060587e-03, 0.,
          6.06060587e-03, 6.06060587e-03, 0., 0., 6.06060587e-03, 0., 0.,
          0., 0., 0., 0., 0., 0., 0., 6.06060587e-03, 0., 0., 0., 0., 0.,
          0., 1.21212117e-02, 0., 0., 0., 6.06060587e-03, 6.06060587e-03,
          0., 0., 0., 0., 0., 0., 6.06060587e-03, 0., 0., 0., 0., 0., 0.,
          1.21212117e-02, 0., 0., 0., 0., 0., 0., 0., 0., 0.,
          6.06060587e-03, 0., 0., 6.06060587e-03, 6.06060587e-03, 0.,
          6.06060587e-03, 0., 0., 0., 0., 0., 0., 6.06060587e-03, 0., 0.,
          0., 0., 1.21212117e-02, 6.06060587e-03, 0., 0., 0., 0., 0., 0.,
          6.06060587e-03, 0., 0., 0., 0., 0., 0., 0., 0., 6.06060587e-03,
          0., 0., 0., 6.06060587e-03, 0., 0., 0., 0., 0., 0.,
          1.21212117e-02, 0. ]
      - [ 0., 1.08303251e-02, 0., 7.22021656e-03, 3.61010828e-03,
          7.22021656e-03, 0., 0., 0., 0., 0., 0., 3.61010828e-03,
          3.61010828e-03, 0., 0., 0., 3.61010828e-03, 0., 3.61010828e-03,
          0., 0., 7.22021656e-03, 0., 0., 3.61010828e-03, 0.,
          3.61010828e-03, 7.22021656e-03, 3.61010828e-03, 0., 0., 0.,
          7.22021656e-03, 0., 0., 3.61010828e-03, 0., 3.61010828e-03, 0.,
          0., 3.61010828e-03, 0., 0., 0., 7.22021656e-03, 0.,
          7.22021656e-03, 0., 0., 3.61010828e-03, 0., 0., 0.,
          3.61010828e-03, 3.61010828e-03, 0., 3.61010828e-03,
          7.22021656e-03, 0., 0., 7.22021656e-03, 3.61010828e-03,
          3.61010828e-03, 7.22021656e-03, 0., 0., 0., 0., 7.22021656e-03,
          0., 1.08303251e-02, 0., 0., 3.61010828e-03, 0., 7.22021656e-03,
          0., 0., 0., 3.61010828e-03, 0., 0., 0., 0., 3.61010828e-03, 0.,
          0., 0., 3.61010828e-03, 0., 0., 1.44404331e-02, 0., 0., 0.,
          3.61010828e-03, 3.61010828e-03, 0., 3.61010828e-03, 0., 0., 0.,
          0., 0., 3.61010828e-03, 1.44404331e-02, 0., 0., 0., 0., 0., 0.,
          0., 7.22021656e-03, 1.44404331e-02, 1.44404331e-02,
          3.61010828e-03, 3.61010828e-03, 3.61010828e-03, 3.61010828e-03,
          7.22021656e-03, 0., 3.61010828e-03, 7.22021656e-03, 0., 0.,
          7.22021656e-03, 0., 0., 0., 3.61010828e-03, 0., 0., 0.,
          3.61010828e-03, 0., 0., 7.22021656e-03, 3.61010828e-03,
          3.61010828e-03, 0., 0., 3.61010828e-03, 0., 3.61010828e-03, 0.,
          3.61010828e-03, 0., 3.61010828e-03, 0., 0., 0., 3.61010828e-03,
          0., 0., 0., 0., 0., 7.22021656e-03, 0., 7.22021656e-03, 0., 0.,
          0., 3.61010828e-03, 1.08303251e-02, 1.08303251e-02, 0.,
          3.61010828e-03, 3.61010828e-03, 7.22021656e-03, 7.22021656e-03,
          3.61010828e-03, 1.08303251e-02, 0., 0., 3.61010828e-03, 0., 0.,
          0., 0., 3.61010828e-03, 0., 0., 0., 0., 7.22021656e-03, 0.,
          3.61010828e-03, 3.61010828e-03, 3.61010828e-03, 3.61010828e-03,
          0., 0., 0., 0., 0., 0., 0., 0., 0., 0., 3.61010828e-03,
          3.61010828e-03, 0., 0., 7.22021656e-03, 7.22021656e-03, 0., 0.,
          3.61010828e-03, 0., 0., 0., 0., 0., 3.61010828e-03, 0., 0.,
          3.61010828e-03, 0., 3.61010828e-03, 0., 0., 0., 3.61010828e-03,
          3.61010828e-03, 0., 0., 3.61010828e-03, 0., 3.61010828e-03,
          3.61010828e-03, 3.61010828e-03, 0., 1.08303251e-02, 0., 0., 0.,
          0., 0., 3.61010828e-03, 0., 3.61010828e-03, 7.22021656e-03, 0.,
          0., 0., 3.61010828e-03, 0., 0., 0., 0., 7.22021656e-03, 0., 0.,
          0., 3.61010828e-03, 0., 0., 0., 1.08303251e-02, 0., 0.,
          7.22021656e-03, 3.61010828e-03, 0., 3.61010828e-03, 0., 0., 0.,
          0., 0., 0., 0., 7.22021656e-03, 0., 0., 1.08303251e-02, 0.,
          3.61010828e-03, 3.61010828e-03, 3.61010828e-03, 7.22021656e-03,
          3.61010828e-03, 3.61010828e-03, 0., 0., 0., 3.61010828e-03,
          3.61010828e-03, 0., 3.61010828e-03, 0., 3.61010828e-03,
          3.61010828e-03, 3.61010828e-03, 0., 0., 0., 7.22021656e-03,
          3.61010828e-03, 0., 7.22021656e-03, 0., 0., 0., 0., 0.,
          7.22021656e-03, 0., 1.44404331e-02, 0., 1.08303251e-02, 0., 0.,
          0., 0., 0., 3.61010828e-03, 0., 0., 0., 0., 0., 3.61010828e-03,
          1.08303251e-02, 0., 0., 7.22021656e-03, 0., 0., 0., 0.,
          7.22021656e-03, 0., 0., 0., 3.61010828e-03, 7.22021656e-03, 0.,
          0., 0., 0., 0., 3.61010828e-03, 0., 3.61010828e-03, 0., 0., 0.,
          3.61010828e-03, 0., 3.61010828e-03, 0., 3.61010828e-03,
          7.22021656e-03, 3.61010828e-03, 0., 7.22021656e-03,
          3.61010828e-03, 0., 3.61010828e-03, 3.61010828e-03, 0., 0.,
          3.61010828e-03, 0., 0., 1.08303251e-02, 3.61010828e-03, 0.,
          7.22021656e-03, 3.61010828e-03, 0., 3.61010828e-03,
          3.61010828e-03, 0., 7.22021656e-03, 0., 0., 0., 0.,
          3.61010828e-03, 0., 0., 0., 0., 3.61010828e-03, 3.61010828e-03,
          0., 0., 0., 1.08303251e-02, 0., 7.22021656e-03, 0., 0.,
          3.61010828e-03, 0., 0., 7.22021656e-03, 3.61010828e-03, 0., 0.,
          0., 7.22021656e-03, 0., 0., 0., 0., 0., 0., 0., 0.,
          3.61010828e-03, 0., 3.61010828e-03, 0., 0., 3.61010828e-03, 0.,
          0., 1.44404331e-02, 3.61010828e-03, 0., 0., 0., 0.,
          3.61010828e-03, 0., 0., 0., 0., 3.61010828e-03, 0., 0., 0., 0.,
          0., 3.61010828e-03, 0., 1.08303251e-02, 3.61010828e-03, 0.,
          3.61010828e-03, 0., 3.61010828e-03, 0., 7.22021656e-03, 0., 0.,
          7.22021656e-03, 7.22021656e-03, 0., 7.22021656e-03, 0.,
          3.61010828e-03, 0., 0., 3.61010828e-03, 3.61010828e-03, 0., 0.,
          0., 0., 0., 0., 0., 3.61010828e-03, 3.61010828e-03,
          3.61010828e-03, 3.61010828e-03, 0., 0., 0., 3.61010828e-03,
          3.61010828e-03, 0., 0., 0., 3.61010828e-03, 0., 0., 0., 0., 0.,
          0., 0., 0., 0., 0., 0., 0., 0., 0., 0., 3.61010828e-03, 0. ]
      - [ 0., 5.37634408e-03, 0., 0., 0., 0., 0., 0., 5.37634408e-03, 0.,
          5.37634408e-03, 0., 0., 0., 0., 0., 0., 5.37634408e-03,
          5.37634408e-03, 0., 0., 0., 0., 0., 0., 0., 0., 1.07526882e-02,
          0., 5.37634408e-03, 0., 0., 5.37634408e-03, 0., 0., 0., 0., 0.,
          5.37634408e-03, 5.37634408e-03, 0., 0., 0., 0., 1.07526882e-02,
          5.37634408e-03, 0., 0., 0., 0., 0., 0., 0., 0., 0., 0., 0., 0.,
          1.07526882e-02, 0., 0., 5.37634408e-03, 5.37634408e-03, 0.,
          1.61290318e-02, 0., 0., 0., 0., 5.37634408e-03, 0.,
          5.37634408e-03, 5.37634408e-03, 5.37634408e-03, 0., 0., 0., 0.,
          5.37634408e-03, 0., 5.37634408e-03, 0., 0., 0., 0.,
          1.61290318e-02, 0., 0., 0., 0., 1.07526882e-02, 0., 0., 0., 0.,
          0., 0., 0., 0., 0., 0., 0., 5.37634408e-03, 0., 5.37634408e-03,
          5.37634408e-03, 0., 0., 0., 0., 0., 0., 5.37634408e-03, 0.,
          5.37634408e-03, 0., 0., 2.15053763e-02, 0., 1.07526882e-02, 0.,
          0., 0., 5.37634408e-03, 0., 1.07526882e-02, 1.07526882e-02, 0.,
          5.37634408e-03, 5.37634408e-03, 5.37634408e-03, 0., 0.,
          1.07526882e-02, 5.37634408e-03, 5.37634408e-03, 0., 0., 0.,
          5.37634408e-03, 0., 0., 5.37634408e-03, 0., 0., 0.,
          5.37634408e-03, 0., 0., 0., 0., 0., 0., 1.07526882e-02, 0., 0.,
          5.37634408e-03, 0., 0., 0., 0., 1.07526882e-02, 5.37634408e-03,
          0., 0., 0., 5.37634408e-03, 0., 0., 0., 1.61290318e-02, 0.,
          1.61290318e-02, 1.61290318e-02, 5.37634408e-03, 5.37634408e-03,
          0., 0., 0., 0., 1.07526882e-02, 0., 0., 0., 0., 0., 0., 0.,
          5.37634408e-03, 0., 5.37634408e-03, 0., 1.07526882e-02,
          5.37634408e-03, 0., 0., 0., 0., 0., 0., 0., 0., 5.37634408e-03,
          0., 1.07526882e-02, 0., 0., 0., 5.37634408e-03, 0., 0., 0.,
          5.37634408e-03, 0., 0., 0., 0., 0., 0., 5.37634408e-03,
          5.37634408e-03, 0., 0., 0., 5.37634408e-03, 5.37634408e-03, 0.,
          0., 0., 0., 5.37634408e-03, 0., 0., 0., 0., 5.37634408e-03,
          5.37634408e-03, 5.37634408e-03, 0., 0., 0., 0., 0.,
          5.37634408e-03, 0., 1.61290318e-02, 0., 0., 0., 0., 0., 0., 0.,
          1.07526882e-02, 0., 0., 0., 0., 0., 5.37634408e-03, 0., 0.,
          1.07526882e-02, 0., 0., 0., 0., 0., 5.37634408e-03, 0.,
          5.37634408e-03, 0., 5.37634408e-03, 0., 0., 1.07526882e-02, 0.,
          5.37634408e-03, 0., 0., 5.37634408e-03, 0., 0., 0.,
          5.37634408e-03, 0., 0., 0., 5.37634408e-03, 5.37634408e-03, 0.,
          0., 0., 1.07526882e-02, 0., 0., 0., 0., 0., 0., 0.,
          1.07526882e-02, 0., 0., 0., 1.07526882e-02, 0., 5.37634408e-03,
          5.37634408e-03, 5.37634408e-03, 0., 0., 0., 5.37634408e-03, 0.,
          0., 0., 5.37634408e-03, 0., 0., 0., 0., 5.37634408e-03, 0., 0.,
          0., 0., 0., 0., 1.07526882e-02, 0., 0., 0., 5.37634408e-03,
          1.07526882e-02, 0., 0., 0., 5.37634408e-03, 0., 0., 0.,
          5.37634408e-03, 5.37634408e-03, 1.07526882e-02, 0.,
          1.07526882e-02, 0., 0., 0., 0., 0., 0., 0., 0., 0., 0.,
          5.37634408e-03, 0., 0., 0., 3.22580636e-02, 0., 0., 0., 0., 0.,
          0., 5.37634408e-03, 0., 0., 0., 0., 0., 5.37634408e-03, 0., 0.,
          5.37634408e-03, 0., 0., 0., 0., 0., 0., 0., 0., 0., 0., 0.,
          5.37634408e-03, 0., 0., 0., 5.37634408e-03, 0., 0., 0., 0., 0.,
          5.37634408e-03, 0., 0., 5.37634408e-03, 0., 1.07526882e-02,
          5.37634408e-03, 0., 0., 0., 5.37634408e-03, 0., 0., 0.,
          5.37634408e-03, 0., 0., 0., 0., 0., 5.37634408e-03, 0., 0., 0.,
          5.37634408e-03, 1.07526882e-02, 0., 0., 0., 0., 0., 0., 0., 0.,
          0., 0., 5.37634408e-03, 0., 0., 0., 0., 5.37634408e-03,
          5.37634408e-03, 0., 5.37634408e-03, 1.07526882e-02, 0., 0., 0.,
          0., 0., 0., 0., 5.37634408e-03, 1.07526882e-02, 0., 0., 0., 0.,
          0., 5.37634408e-03, 0., 5.37634408e-03, 0., 0., 5.37634408e-03,
          5.37634408e-03, 0., 0., 0., 0., 0., 1.61290318e-02, 0., 0.,
          5.37634408e-03, 0., 0., 5.37634408e-03, 1.07526882e-02, 0., 0.,
          0., 0., 0., 0., 0., 0., 0., 0., 0., 0., 0., 0., 5.37634408e-03,
          0., 0., 0., 0., 0., 1.61290318e-02 ]
      - [ 0., 6.62251655e-03, 0., 0., 0., 0., 0., 0., 0., 6.62251655e-03,
          0., 0., 0., 0., 0., 6.62251655e-03, 6.62251655e-03,
          6.62251655e-03, 0., 0., 1.32450331e-02, 6.62251655e-03, 0., 0.,
          0., 1.32450331e-02, 0., 6.62251655e-03, 0., 1.32450331e-02, 0.,
          6.62251655e-03, 0., 0., 0., 0., 0., 0., 0., 0., 0., 0., 0., 0.,
          0., 0., 0., 0., 0., 0., 0., 0., 0., 0., 6.62251655e-03, 0., 0.,
          0., 6.62251655e-03, 0., 0., 1.32450331e-02, 6.62251655e-03, 0.,
          1.32450331e-02, 0., 0., 0., 0., 0., 0., 0., 0., 0., 0., 0.,
          6.62251655e-03, 0., 0., 0., 6.62251655e-03, 0., 0., 0., 0., 0.,
          0., 0., 0., 6.62251655e-03, 0., 0., 0., 0., 0., 6.62251655e-03,
          0., 1.32450331e-02, 1.98675506e-02, 0., 0., 0., 6.62251655e-03,
          1.32450331e-02, 6.62251655e-03, 1.32450331e-02, 0.,
          6.62251655e-03, 0., 0., 0., 0., 0., 6.62251655e-03, 0.,
          6.62251655e-03, 1.98675506e-02, 0., 0., 0., 0., 0., 0.,
          6.62251655e-03, 0., 0., 6.62251655e-03, 0., 0., 6.62251655e-03,
          6.62251655e-03, 0., 0., 6.62251655e-03, 6.62251655e-03, 0., 0.,
          0., 0., 0., 0., 1.32450331e-02, 0., 6.62251655e-03, 0., 0., 0.,
          0., 0., 0., 0., 6.62251655e-03, 0., 0., 0., 0., 0., 0., 0., 0.,
          0., 6.62251655e-03, 6.62251655e-03, 0., 0., 6.62251655e-03, 0.,
          6.62251655e-03, 0., 0., 0., 0., 6.62251655e-03, 0., 0.,
          6.62251655e-03, 0., 0., 0., 0., 0., 0., 0., 6.62251655e-03, 0.,
          6.62251655e-03, 0., 6.62251655e-03, 0., 6.62251655e-03, 0., 0.,
          0., 6.62251655e-03, 0., 0., 0., 6.62251655e-03, 0., 0., 0., 0.,
          0., 0., 0., 0., 0., 0., 0., 0., 0., 0., 0., 0., 0.,
          6.62251655e-03, 0., 1.32450331e-02, 0., 0., 6.62251655e-03, 0.,
          0., 0., 0., 0., 0., 0., 0., 0., 0., 6.62251655e-03,
          6.62251655e-03, 6.62251655e-03, 6.62251655e-03, 6.62251655e-03,
          0., 0., 6.62251655e-03, 6.62251655e-03, 0., 6.62251655e-03, 0.,
          0., 0., 0., 1.32450331e-02, 0., 0., 0., 0., 6.62251655e-03, 0.,
          0., 0., 0., 0., 0., 1.98675506e-02, 0., 0., 0., 0., 0., 0., 0.,
          0., 0., 0., 0., 0., 0., 0., 0., 0., 6.62251655e-03, 0.,
          6.62251655e-03, 0., 0., 0., 0., 6.62251655e-03, 0.,
          1.32450331e-02, 0., 0., 6.62251655e-03, 0., 0., 0., 0., 0.,
          6.62251655e-03, 0., 0., 0., 0., 0., 6.62251655e-03, 0.,
          6.62251655e-03, 0., 0., 6.62251655e-03, 2.64900662e-02,
          6.62251655e-03, 0., 0., 0., 0., 0., 0., 6.62251655e-03,
          6.62251655e-03, 0., 0., 0., 6.62251655e-03, 0., 0., 0.,
          1.32450331e-02, 0., 0., 0., 0., 1.32450331e-02, 0., 0., 0., 0.,
          0., 0., 0., 0., 0., 0., 6.62251655e-03, 0., 0., 0., 0.,
          6.62251655e-03, 0., 0., 0., 6.62251655e-03, 0., 6.62251655e-03,
          6.62251655e-03, 1.32450331e-02, 0., 0., 0., 0., 6.62251655e-03,
          0., 0., 0., 0., 0., 0., 0., 0., 0., 0., 6.62251655e-03,
          6.62251655e-03, 0., 0., 0., 6.62251655e-03, 0., 0., 0., 0., 0.,
          0., 0., 0., 0., 0., 0., 0., 0., 0., 0., 6.62251655e-03, 0.,
          6.62251655e-03, 6.62251655e-03, 0., 0., 6.62251655e-03,
          6.62251655e-03, 0., 0., 0., 0., 0., 0., 0., 0., 0., 0.,
          6.62251655e-03, 0., 0., 0., 0., 0., 0., 6.62251655e-03, 0., 0.,
          6.62251655e-03, 1.98675506e-02, 0., 1.32450331e-02, 0., 0., 0.,
          0., 1.98675506e-02, 0., 0., 0., 0., 0., 0., 0., 0., 0., 0., 0.,
          0., 0., 0., 0., 0., 0., 0., 1.98675506e-02, 6.62251655e-03,
          6.62251655e-03, 0., 0., 0., 0., 0., 0., 1.32450331e-02, 0., 0.,
          0., 0., 0., 0., 0., 0., 1.32450331e-02, 0., 6.62251655e-03, 0.,
          6.62251655e-03, 0., 0., 0., 6.62251655e-03, 6.62251655e-03, 0.,
          0., 1.98675506e-02, 0., 0., 0., 6.62251655e-03, 6.62251655e-03,
          0., 0., 0., 0., 0., 0., 0., 0., 0., 0., 0., 0., 0.,
          6.62251655e-03, 0., 0., 6.62251655e-03, 0., 0., 0., 0. ]
      - [ 0., 4.83091781e-03, 0., 4.83091781e-03, 2.41545890e-03,
          2.41545890e-03, 0., 0., 0., 2.41545890e-03, 2.41545890e-03,
          2.41545890e-03, 4.83091781e-03, 4.83091781e-03, 4.83091781e-03,
          0., 0., 0., 0., 2.41545890e-03, 7.24637695e-03, 2.41545890e-03,
          0., 0., 4.83091781e-03, 2.41545890e-03, 4.83091781e-03,
          4.83091781e-03, 0., 0., 0., 2.41545890e-03, 2.41545890e-03, 0.,
          0., 2.41545890e-03, 2.41545890e-03, 0., 2.41545890e-03, 0., 0.,
          2.41545890e-03, 2.41545890e-03, 0., 0., 0., 0., 0.,
          2.41545890e-03, 0., 4.83091781e-03, 0., 0., 0., 4.83091781e-03,
          0., 4.83091781e-03, 2.41545890e-03, 2.41545890e-03,
          2.41545890e-03, 2.41545890e-03, 0., 4.83091781e-03,
          4.83091781e-03, 1.44927539e-02, 0., 0., 0., 2.41545890e-03, 0.,
          2.41545890e-03, 0., 2.41545890e-03, 4.83091781e-03, 0.,
          2.41545890e-03, 4.83091781e-03, 0., 0., 4.83091781e-03, 0., 0.,
          0., 4.83091781e-03, 2.41545890e-03, 0., 0., 0., 0., 0., 0., 0.,
          0., 0., 2.41545890e-03, 2.41545890e-03, 0., 0., 0., 0., 0., 0.,
          0., 0., 2.41545890e-03, 7.24637695e-03, 7.24637695e-03,
          4.83091781e-03, 2.41545890e-03, 4.83091781e-03, 0.,
          4.83091781e-03, 2.41545890e-03, 4.83091781e-03, 4.83091781e-03,
          2.41545890e-03, 0., 2.41545890e-03, 2.41545890e-03, 0.,
          2.41545890e-03, 4.83091781e-03, 2.41545890e-03, 4.83091781e-03,
          0., 2.41545890e-03, 2.41545890e-03, 4.83091781e-03, 0.,
          4.83091781e-03, 2.41545890e-03, 2.41545890e-03, 0.,
          2.41545890e-03, 0., 0., 2.41545890e-03, 0., 0., 2.41545890e-03,
          9.66183562e-03, 2.41545890e-03, 0., 2.41545890e-03, 0., 0., 0.,
          2.41545890e-03, 4.83091781e-03, 0., 4.83091781e-03,
          2.41545890e-03, 0., 1.20772943e-02, 4.83091781e-03,
          4.83091781e-03, 0., 2.41545890e-03, 2.41545890e-03, 0., 0.,
          2.41545890e-03, 0., 2.41545890e-03, 0., 0., 2.41545890e-03,
          4.83091781e-03, 2.41545890e-03, 2.41545890e-03, 0.,
          2.41545890e-03, 4.83091781e-03, 0., 7.24637695e-03,
          2.41545890e-03, 2.41545890e-03, 0., 0., 4.83091781e-03, 0.,
          7.24637695e-03, 2.41545890e-03, 9.66183562e-03, 0., 0.,
          2.41545890e-03, 4.83091781e-03, 0., 0., 0., 0., 2.41545890e-03,
          4.83091781e-03, 2.41545890e-03, 0., 0., 2.41545890e-03,
          2.41545890e-03, 4.83091781e-03, 0., 2.41545890e-03,
          4.83091781e-03, 2.41545890e-03, 2.41545890e-03, 0., 0.,
          2.41545890e-03, 4.83091781e-03, 2.41545890e-03, 0., 0., 0., 0.,
          0., 2.41545890e-03, 0., 4.83091781e-03, 0., 4.83091781e-03, 0.,
          0., 0., 2.41545890e-03, 2.41545890e-03, 4.83091781e-03,
          2.41545890e-03, 0., 0., 0., 2.41545890e-03, 0., 0., 0., 0.,
          2.41545890e-03, 4.83091781e-03, 0., 4.83091781e-03,
          2.41545890e-03, 0., 2.41545890e-03, 0., 0., 2.41545890e-03,
          4.83091781e-03, 0., 2.41545890e-03, 0., 0., 0., 0., 0., 0., 0.,
          0., 2.41545890e-03, 4.83091781e-03, 2.41545890e-03,
          2.41545890e-03, 2.41545890e-03, 0., 2.41545890e-03, 0., 0.,
          2.41545890e-03, 4.83091781e-03, 4.83091781e-03, 4.83091781e-03,
          0., 0., 0., 0., 2.41545886e-02, 2.41545890e-03, 7.24637695e-03,
          0., 7.24637695e-03, 2.41545890e-03, 2.41545890e-03,
          2.41545890e-03, 4.83091781e-03, 0., 0., 0., 0., 2.41545890e-03,
          0., 2.41545890e-03, 2.41545890e-03, 4.83091781e-03, 0., 0.,
          4.83091781e-03, 2.41545890e-03, 2.41545890e-03, 0., 0.,
          2.41545890e-03, 0., 2.41545890e-03, 2.41545890e-03, 0., 0., 0.,
          0., 2.41545890e-03, 0., 2.41545890e-03, 0., 2.41545890e-03,
          2.41545890e-03, 2.41545890e-03, 7.24637695e-03, 0.,
          2.41545890e-03, 0., 4.83091781e-03, 0., 0., 0., 0.,
          4.83091781e-03, 7.24637695e-03, 0., 1.20772943e-02,
          2.41545890e-03, 0., 0., 0., 2.41545890e-03, 0., 2.41545890e-03,
          0., 2.41545890e-03, 2.41545890e-03, 0., 4.83091781e-03, 0.,
          2.41545890e-03, 2.41545890e-03, 2.41545890e-03, 2.41545890e-03,
          9.66183562e-03, 2.41545890e-03, 0., 0., 0., 2.41545890e-03, 0.,
          2.41545890e-03, 2.41545890e-03, 2.41545890e-03, 0.,
          4.83091781e-03, 2.41545890e-03, 0., 0., 0., 2.41545890e-03, 0.,
          1.20772943e-02, 0., 4.83091781e-03, 2.41545890e-03,
          2.41545890e-03, 7.24637695e-03, 2.41545890e-03, 2.41545890e-03,
          0., 0., 4.83091781e-03, 0., 0., 2.41545890e-03, 4.83091781e-03,
          2.41545890e-03, 0., 0., 2.41545890e-03, 0., 4.83091781e-03,
          4.83091781e-03, 0., 0., 4.83091781e-03, 0., 0., 7.24637695e-03,
          0., 2.41545890e-03, 0., 0., 0., 7.24637695e-03, 4.83091781e-03,
          0., 0., 2.41545890e-03, 2.41545890e-03, 9.66183562e-03, 0.,
          2.41545890e-03, 0., 0., 0., 0., 0., 0., 0., 0., 0.,
          2.41545890e-03, 2.41545890e-03, 2.41545890e-03, 0., 0., 0.,
          2.41545890e-03, 0., 4.83091781e-03, 0., 0., 4.83091781e-03, 0.,
          0., 2.41545890e-03, 2.41545890e-03, 2.41545890e-03,
          2.41545890e-03, 2.41545890e-03, 2.41545890e-03, 0., 0., 0.,
          7.24637695e-03, 0., 2.41545890e-03, 0., 0., 0., 0.,
          2.41545890e-03, 7.24637695e-03, 0., 0., 0., 2.41545890e-03, 0.,
          2.41545890e-03, 2.41545890e-03, 0., 4.83091781e-03,
          4.83091781e-03, 4.83091781e-03, 4.83091781e-03, 2.41545890e-03,
          0., 2.41545890e-03, 0., 2.41545890e-03, 0., 2.41545890e-03, 0.,
          0., 0., 2.41545890e-03, 4.83091781e-03, 7.24637695e-03,
          2.41545890e-03, 0., 0., 0., 4.83091781e-03, 0., 4.83091781e-03,
          2.41545890e-03, 2.41545890e-03, 2.41545890e-03, 0.,
          7.24637695e-03, 0., 4.83091781e-03, 7.24637695e-03, 0.,
          2.41545890e-03, 2.41545890e-03, 4.83091781e-03, 4.83091781e-03,
          4.83091781e-03, 4.83091781e-03, 0., 7.24637695e-03, 0., 0., 0.,
          4.83091781e-03, 2.41545890e-03, 7.24637695e-03, 2.41545890e-03 ]
      - [ 0., 0., 0., 2.66666664e-03, 0., 0., 0., 2.66666664e-03,
          2.66666664e-03, 0., 0., 2.66666664e-03, 2.66666664e-03, 0., 0.,
          5.33333328e-03, 0., 0., 2.66666664e-03, 0., 5.33333328e-03,
          5.33333328e-03, 0., 2.66666664e-03, 0., 0., 0., 0., 0., 0., 0.,
          2.66666664e-03, 1.33333337e-02, 0., 2.66666664e-03,
          2.66666664e-03, 0., 0., 0., 0., 0., 2.66666664e-03,
          5.33333328e-03, 0., 2.66666664e-03, 0., 2.66666664e-03,
          5.33333328e-03, 0., 0., 5.33333328e-03, 5.33333328e-03, 0.,
          2.66666664e-03, 0., 2.66666664e-03, 0., 0., 2.66666664e-03, 0.,
          0., 5.33333328e-03, 7.99999945e-03, 0., 3.46666649e-02, 0.,
          2.66666664e-03, 0., 0., 0., 0., 0., 0., 0., 2.66666664e-03,
          5.33333328e-03, 2.66666664e-03, 0., 0., 0., 0., 2.66666664e-03,
          2.66666664e-03, 0., 2.66666664e-03, 0., 5.33333328e-03,
          2.66666664e-03, 0., 2.66666664e-03, 2.66666664e-03,
          2.66666664e-03, 0., 0., 0., 7.99999945e-03, 0., 0.,
          7.99999945e-03, 5.33333328e-03, 0., 0., 2.66666664e-03,
          2.66666664e-03, 5.33333328e-03, 0., 2.66666664e-03, 0.,
          2.66666664e-03, 0., 0., 2.66666664e-03, 0., 5.33333328e-03,
          2.66666664e-03, 2.66666664e-03, 7.99999945e-03, 2.66666664e-03,
          0., 5.33333328e-03, 0., 0., 2.66666664e-03, 2.66666664e-03, 0.,
          0., 0., 0., 0., 0., 2.66666664e-03, 0., 5.33333328e-03, 0.,
          5.33333328e-03, 2.66666664e-03, 2.66666664e-03, 0., 0.,
          2.66666664e-03, 0., 2.66666664e-03, 0., 0., 0., 0.,
          7.99999945e-03, 5.33333328e-03, 7.99999945e-03, 2.66666664e-03,
          0., 5.33333328e-03, 2.66666664e-03, 2.66666664e-03, 0.,
          5.33333328e-03, 0., 0., 0., 7.99999945e-03, 0., 0., 0.,
          2.66666664e-03, 5.33333328e-03, 2.66666664e-03, 5.33333328e-03,
          0., 7.99999945e-03, 7.99999945e-03, 5.33333328e-03,
          1.06666666e-02, 0., 0., 5.33333328e-03, 5.33333328e-03, 0., 0.,
          2.66666664e-03, 0., 2.66666664e-03, 2.66666664e-03, 0.,
          1.33333337e-02, 0., 0., 2.66666664e-03, 2.66666664e-03, 0., 0.,
          0., 0., 2.66666664e-03, 0., 2.66666664e-03, 2.66666664e-03,
          5.33333328e-03, 2.66666664e-03, 2.66666664e-03, 0., 0., 0.,
          2.66666664e-03, 7.99999945e-03, 0., 0., 0., 0., 0.,
          2.66666664e-03, 0., 0., 0., 0., 0., 0., 0., 0., 2.66666664e-03,
          0., 5.33333328e-03, 2.66666664e-03, 0., 0., 0., 2.66666664e-03,
          0., 5.33333328e-03, 0., 0., 0., 2.66666664e-03, 0.,
          5.33333328e-03, 2.66666664e-03, 7.99999945e-03, 0., 0., 0.,
          5.33333328e-03, 2.66666664e-03, 0., 2.66666664e-03, 0., 0.,
          2.66666664e-03, 0., 2.66666664e-03, 0., 0., 2.66666664e-03,
          5.33333328e-03, 0., 2.66666664e-03, 5.33333328e-03,
          2.66666664e-03, 5.33333328e-03, 0., 0., 0., 2.66666664e-03,
          5.33333328e-03, 0., 5.33333328e-03, 2.66666664e-03,
          5.33333328e-03, 1.06666666e-02, 2.66666664e-03, 2.66666664e-03,
          1.06666666e-02, 5.33333328e-03, 0., 0., 5.33333328e-03,
          2.66666664e-03, 7.99999945e-03, 2.66666664e-03, 2.66666664e-03,
          2.66666664e-03, 0., 5.33333328e-03, 2.66666664e-03, 0.,
          1.06666666e-02, 0., 0., 2.66666664e-03, 5.33333328e-03, 0., 0.,
          5.33333328e-03, 5.33333328e-03, 2.66666664e-03, 0., 0., 0.,
          2.66666664e-03, 0., 0., 2.66666664e-03, 2.66666664e-03,
          2.66666664e-03, 0., 2.66666664e-03, 2.66666664e-03, 0.,
          5.33333328e-03, 0., 5.33333328e-03, 0., 5.33333328e-03,
          2.66666664e-03, 2.66666664e-03, 2.66666664e-03, 2.66666664e-03,
          0., 0., 0., 0., 0., 0., 2.66666664e-03, 2.66666664e-03,
          2.66666664e-03, 0., 5.33333328e-03, 0., 2.66666664e-03,
          2.66666664e-03, 2.66666664e-03, 0., 0., 0., 0., 7.99999945e-03,
          0., 5.33333328e-03, 0., 0., 2.66666664e-03, 5.33333328e-03, 0.,
          0., 0., 2.66666664e-03, 0., 0., 0., 2.66666664e-03,
          2.66666664e-03, 5.33333328e-03, 7.99999945e-03, 0.,
          2.66666664e-03, 2.66666664e-03, 2.66666664e-03, 5.33333328e-03,
          0., 0., 2.66666664e-03, 2.66666664e-03, 2.66666664e-03, 0., 0.,
          0., 0., 0., 0., 2.66666664e-03, 0., 2.66666664e-03, 0., 0.,
          2.66666664e-03, 5.33333328e-03, 0., 0., 0., 2.66666664e-03,
          2.66666664e-03, 2.66666664e-03, 0., 2.66666664e-03,
          2.66666664e-03, 0., 2.66666664e-03, 0., 5.33333328e-03,
          5.33333328e-03, 0., 0., 0., 0., 2.66666664e-03, 0., 0.,
          5.33333328e-03, 0., 0., 2.66666664e-03, 0., 5.33333328e-03,
          2.66666664e-03, 0., 7.99999945e-03, 0., 2.66666664e-03,
          7.99999945e-03, 2.66666664e-03, 2.66666664e-03, 0., 0., 0., 0.,
          0., 0., 2.66666664e-03, 2.66666664e-03, 5.33333328e-03, 0.,
          2.66666664e-03, 0., 0., 2.66666664e-03, 0., 2.66666664e-03,
          2.66666664e-03, 0., 0., 2.66666664e-03, 5.33333328e-03,
          2.66666664e-03, 0., 0., 2.66666664e-03, 2.66666664e-03, 0.,
          5.33333328e-03, 0., 2.66666664e-03, 0., 5.33333328e-03,
          2.66666664e-03, 0., 5.33333328e-03, 0., 2.66666664e-03, 0.,
          2.66666664e-03, 0., 0., 2.66666664e-03, 2.66666664e-03, 0., 0.,
          0., 0., 0., 1.33333337e-02, 2.66666664e-03, 2.66666664e-03,
          5.33333328e-03, 0., 5.33333328e-03, 0., 0., 2.66666664e-03,
          2.66666664e-03, 2.66666664e-03, 2.66666664e-03, 0., 0.,
          1.33333337e-02, 2.66666664e-03, 0., 2.66666664e-03, 0.,
          2.66666664e-03, 5.33333328e-03, 0., 0., 0., 5.33333328e-03, 0.,
          0., 0., 0., 0., 0., 2.66666664e-03, 0., 0., 0., 0., 0.,
          5.33333328e-03, 2.66666664e-03, 0., 2.66666664e-03, 0. ]
      - [ 1.51285925e-03, 3.02571850e-03, 4.53857798e-03, 6.05143700e-03,
          0., 0., 0., 1.51285925e-03, 4.53857798e-03, 0., 7.56429601e-03,
          6.05143700e-03, 0., 0., 3.02571850e-03, 1.51285925e-03,
          3.02571850e-03, 0., 0., 1.51285925e-03, 1.51285925e-03, 0., 0.,
          3.02571850e-03, 0., 3.02571850e-03, 3.02571850e-03,
          3.02571850e-03, 1.51285925e-03, 7.56429601e-03, 3.02571850e-03,
          6.05143700e-03, 0., 1.51285925e-03, 1.51285925e-03, 0., 0.,
          4.53857798e-03, 1.51285925e-03, 0., 3.02571850e-03,
          1.05900150e-02, 0., 1.51285925e-03, 0., 4.53857798e-03,
          3.02571850e-03, 1.51285925e-03, 3.02571850e-03, 0., 0.,
          6.05143700e-03, 0., 3.02571850e-03, 9.07715596e-03,
          1.51285925e-03, 0., 0., 0., 1.51285925e-03, 0., 0.,
          4.53857798e-03, 1.51285925e-03, 6.05143700e-03, 0.,
          1.51285925e-03, 4.53857798e-03, 0., 4.53857798e-03, 0., 0.,
          1.51285925e-03, 1.51285925e-03, 0., 1.51285925e-03,
          1.51285925e-03, 1.51285925e-03, 1.51285925e-03, 1.51285925e-03,
          1.51285925e-03, 0., 3.02571850e-03, 6.05143700e-03, 0., 0., 0.,
          1.51285925e-03, 0., 1.51285925e-03, 4.53857798e-03, 0.,
          1.51285925e-03, 0., 0., 1.51285925e-03, 4.53857798e-03,
          4.53857798e-03, 0., 1.51285925e-03, 0., 0., 4.53857798e-03, 0.,
          4.53857798e-03, 6.05143700e-03, 3.02571850e-03, 0.,
          1.51285925e-03, 1.51285925e-03, 3.02571850e-03, 3.02571850e-03,
          1.51285925e-03, 0., 0., 3.02571850e-03, 0., 0., 1.51285925e-03,
          1.51285925e-03, 4.53857798e-03, 0., 1.51285925e-03,
          3.02571850e-03, 3.02571850e-03, 1.51285925e-03, 1.51285925e-03,
          3.02571850e-03, 1.51285925e-03, 1.51285925e-03, 0.,
          1.51285925e-03, 0., 3.02571850e-03, 4.53857798e-03,
          1.51285925e-03, 1.51285925e-03, 0., 1.51285925e-03, 0.,
          4.53857798e-03, 0., 1.51285925e-03, 1.51285925e-03, 0., 0.,
          1.51285925e-03, 0., 4.53857798e-03, 3.02571850e-03,
          1.51285925e-03, 3.02571850e-03, 1.51285925e-03, 0., 0., 0.,
          1.51285925e-03, 1.51285925e-03, 3.02571850e-03, 4.53857798e-03,
          0., 3.02571850e-03, 0., 3.02571850e-03, 0., 0., 1.51285925e-03,
          1.21028740e-02, 0., 6.05143700e-03, 3.02571850e-03,
          1.51285925e-03, 1.51285925e-03, 6.05143700e-03, 1.51285925e-03,
          0., 3.02571850e-03, 6.05143700e-03, 0., 1.51285925e-03,
          3.02571850e-03, 0., 1.51285925e-03, 3.02571850e-03, 0.,
          9.07715596e-03, 0., 0., 1.51285925e-03, 7.56429601e-03,
          1.51285925e-03, 0., 3.02571850e-03, 1.51285925e-03,
          1.51285925e-03, 0., 1.51285925e-03, 4.53857798e-03,
          1.51285925e-03, 1.51285925e-03, 4.53857798e-03, 0.,
          1.51285925e-03, 0., 0., 3.02571850e-03, 1.51285925e-03,
          1.51285925e-03, 0., 1.51285925e-03, 3.02571850e-03,
          1.51285925e-03, 0., 3.02571850e-03, 1.51285925e-03, 0.,
          1.51285925e-03, 4.53857798e-03, 0., 1.51285925e-03,
          3.02571850e-03, 6.05143700e-03, 0., 1.51285925e-03,
          1.51285925e-03, 3.02571850e-03, 1.51285925e-03, 0., 0.,
          3.02571850e-03, 7.56429601e-03, 4.53857798e-03, 3.02571850e-03,
          1.51285925e-03, 3.02571850e-03, 0., 4.53857798e-03,
          3.02571850e-03, 1.51285925e-03, 1.51285925e-03, 1.51285925e-03,
          0., 0., 0., 0., 3.02571850e-03, 1.51285925e-03, 1.51285925e-03,
          0., 1.51285925e-03, 0., 1.51285925e-03, 0., 1.51285925e-03,
          1.51285925e-03, 0., 1.51285925e-03, 0., 4.53857798e-03, 0.,
          3.02571850e-03, 1.51285925e-03, 6.05143700e-03, 1.51285925e-03,
          7.56429601e-03, 0., 3.02571850e-03, 4.53857798e-03,
          3.02571850e-03, 1.51285925e-03, 1.51285925e-03, 3.02571850e-03,
          3.02571850e-03, 1.51285925e-03, 0., 0., 0., 0., 4.53857798e-03,
          1.51285925e-03, 3.02571850e-03, 1.51285925e-03, 3.02571850e-03,
          6.05143700e-03, 4.53857798e-03, 1.51285925e-03, 1.51285925e-03,
          0., 1.51285925e-03, 1.51285925e-03, 9.07715596e-03, 0., 0.,
          4.53857798e-03, 3.02571850e-03, 0., 0., 3.02571850e-03, 0.,
          1.51285925e-03, 4.53857798e-03, 3.02571850e-03, 0.,
          1.51285925e-03, 4.53857798e-03, 0., 4.53857798e-03, 0.,
          3.02571850e-03, 1.51285925e-03, 3.02571850e-03, 3.02571850e-03,
          4.53857798e-03, 0., 1.51285925e-03, 3.02571850e-03,
          1.51285925e-03, 0., 0., 1.51285925e-03, 1.51285925e-03, 0.,
          3.02571850e-03, 3.02571850e-03, 1.51285925e-03, 3.02571850e-03,
          3.02571850e-03, 4.53857798e-03, 3.02571850e-03, 1.51285925e-03,
          0., 1.21028740e-02, 0., 3.02571850e-03, 0., 1.51285925e-03, 0.,
          6.05143700e-03, 3.02571850e-03, 0., 1.51285925e-03,
          1.51285925e-03, 1.51285925e-03, 1.05900150e-02, 6.05143700e-03,
          1.51285925e-03, 4.53857798e-03, 0., 3.02571850e-03,
          1.51285925e-03, 4.53857798e-03, 4.53857798e-03, 4.53857798e-03,
          1.51285925e-03, 3.02571850e-03, 0., 3.02571850e-03,
          1.51285925e-03, 0., 0., 4.53857798e-03, 6.05143700e-03,
          1.51285925e-03, 1.51285925e-03, 1.51285925e-03, 1.51285925e-03,
          0., 0., 0., 0., 1.51285925e-03, 3.02571850e-03, 3.02571850e-03,
          3.02571850e-03, 0., 0., 1.51285925e-03, 0., 7.56429601e-03,
          1.51285925e-03, 1.51285925e-03, 3.02571850e-03, 6.05143700e-03,
          0., 0., 0., 1.51285925e-03, 1.51285925e-03, 1.51285925e-03,
          7.56429601e-03, 4.53857798e-03, 0., 0., 3.02571850e-03,
          1.51285925e-03, 4.53857798e-03, 4.53857798e-03, 1.51285925e-03,
          0., 3.02571850e-03, 0., 6.05143700e-03, 0., 0., 3.02571850e-03,
          1.51285925e-03, 0., 0., 1.51285925e-03, 0., 1.51285925e-03,
          4.53857798e-03, 0., 3.02571850e-03, 0., 0., 1.51285925e-03,
          4.53857798e-03, 1.51285925e-03, 0., 3.02571850e-03,
          3.02571850e-03, 0., 3.02571850e-03, 0., 3.02571850e-03, 0.,
          1.51285925e-03, 1.51285925e-03, 4.53857798e-03, 3.02571850e-03,
          3.02571850e-03, 3.02571850e-03, 3.02571850e-03, 1.51285925e-03,
          1.51285925e-03, 1.51285925e-03, 0., 0., 6.05143700e-03,
          3.02571850e-03, 1.51285925e-03, 1.51285925e-03, 0.,
          4.53857798e-03, 6.05143700e-03, 1.51285925e-03, 3.02571850e-03,
          7.56429601e-03, 3.02571850e-03, 0., 0., 1.51285925e-03,
          4.53857798e-03, 0., 1.51285925e-03, 1.51285925e-03,
          3.02571850e-03, 0., 1.51285925e-03, 0., 3.02571850e-03,
          1.51285925e-03, 0., 0., 1.51285925e-03, 3.02571850e-03,
          1.51285925e-03, 3.02571850e-03, 0., 1.51285925e-03,
          3.02571850e-03, 6.05143700e-03, 0., 4.53857798e-03,
          1.51285925e-03, 3.02571850e-03, 1.51285925e-03, 3.02571850e-03,
          0., 0., 1.51285925e-03, 4.53857798e-03, 3.02571850e-03,
          3.02571850e-03, 1.51285925e-03, 0., 0., 1.51285925e-03, 0.,
          1.51285925e-03, 0., 1.51285925e-03, 6.05143700e-03, 0., 0.,
          6.05143700e-03, 0., 1.51285925e-03, 0. ]
      - [ 1.53704267e-03, 1.22963416e-03, 1.84445130e-03, 4.30371938e-03,
          6.14817080e-04, 1.84445130e-03, 1.22963416e-03, 1.22963416e-03,
          2.76667695e-03, 3.07408540e-04, 2.45926832e-03, 3.38149397e-03,
          3.07408534e-03, 3.07408540e-04, 6.14817080e-04, 0.,
          3.07408540e-04, 3.68890259e-03, 1.84445130e-03, 6.14817080e-04,
          6.14817080e-04, 1.22963416e-03, 2.76667695e-03, 6.14817080e-04,
          9.22225649e-04, 1.84445130e-03, 9.22225649e-04, 1.22963416e-03,
          2.15185969e-03, 1.53704267e-03, 1.53704267e-03, 1.53704267e-03,
          1.84445130e-03, 3.68890259e-03, 1.53704267e-03, 2.15185969e-03,
          2.76667695e-03, 1.84445130e-03, 2.15185969e-03, 1.53704267e-03,
          3.68890259e-03, 1.53704267e-03, 9.22225649e-04, 1.84445130e-03,
          2.76667695e-03, 3.07408534e-03, 3.38149397e-03, 9.22225649e-04,
          9.22225649e-04, 1.22963416e-03, 2.15185969e-03, 9.22225649e-04,
          0., 3.38149397e-03, 6.14817080e-04, 1.22963416e-03,
          1.22963416e-03, 6.14817080e-04, 2.76667695e-03, 3.07408540e-04,
          3.07408540e-04, 6.14817080e-04, 2.15185969e-03, 3.07408534e-03,
          1.96741465e-02, 6.14817080e-04, 5.22594526e-03, 1.53704267e-03,
          2.15185969e-03, 9.22225649e-04, 3.38149397e-03, 1.22963416e-03,
          3.99631122e-03, 3.68890259e-03, 1.22963416e-03, 9.22225649e-04,
          4.30371938e-03, 5.53335389e-03, 3.07408534e-03, 9.22225649e-04,
          9.22225649e-04, 9.22225649e-04, 3.68890259e-03, 1.22963416e-03,
          2.15185969e-03, 3.99631122e-03, 4.30371938e-03, 1.53704267e-03,
          6.14817080e-04, 1.22963416e-03, 2.76667695e-03, 1.53704267e-03,
          9.22225649e-04, 4.61112801e-03, 2.15185969e-03, 2.76667695e-03,
          6.14817080e-04, 3.99631122e-03, 6.14817080e-04, 1.22963416e-03,
          6.14817080e-04, 1.53704267e-03, 2.76667695e-03, 3.68890259e-03,
          2.15185969e-03, 1.53704267e-03, 1.22963416e-03, 1.22963416e-03,
          2.15185969e-03, 1.84445130e-03, 0., 6.14817080e-04,
          4.61112801e-03, 3.07408540e-04, 2.15185969e-03, 2.76667695e-03,
          6.14817080e-04, 6.14817080e-04, 1.84445130e-03, 3.07408540e-04,
          2.15185969e-03, 2.15185969e-03, 2.15185969e-03, 9.22225649e-04,
          1.22963416e-03, 9.22225649e-04, 2.45926832e-03, 2.15185969e-03,
          6.14817080e-04, 9.22225649e-04, 1.84445130e-03, 1.53704267e-03,
          9.22225649e-04, 2.45926832e-03, 2.76667695e-03, 1.53704267e-03,
          6.14817080e-04, 3.07408540e-04, 1.53704267e-03, 3.07408534e-03,
          9.22225649e-04, 2.45926832e-03, 1.22963416e-03, 9.22225649e-04,
          1.22963416e-03, 1.22963416e-03, 2.15185969e-03, 9.22225649e-04,
          9.22225649e-04, 3.99631122e-03, 1.22963416e-03, 2.45926832e-03,
          1.53704267e-03, 4.30371938e-03, 4.61112801e-03, 3.07408534e-03,
          1.53704267e-03, 0., 1.84445130e-03, 3.68890259e-03,
          1.53704267e-03, 2.15185969e-03, 4.30371938e-03, 1.22963416e-03,
          1.53704267e-03, 3.38149397e-03, 1.53704267e-03, 7.99262244e-03,
          1.53704267e-03, 2.15185969e-03, 3.68890259e-03, 2.15185969e-03,
          3.38149397e-03, 2.15185969e-03, 4.61112801e-03, 2.45926832e-03,
          6.14817080e-04, 1.84445130e-03, 2.15185969e-03, 2.76667695e-03,
          9.22225649e-04, 2.15185969e-03, 3.38149397e-03, 1.19889332e-02,
          0., 2.15185969e-03, 6.14817080e-04, 3.68890259e-03,
          2.45926832e-03, 2.45926832e-03, 2.15185969e-03, 3.68890259e-03,
          2.15185969e-03, 2.76667695e-03, 1.22963416e-03, 2.45926832e-03,
          1.84445130e-03, 1.84445130e-03, 3.07408534e-03, 2.45926832e-03,
          9.22225649e-04, 6.14817080e-04, 1.84445130e-03, 9.22225649e-04,
          1.22963416e-03, 2.15185969e-03, 3.38149397e-03, 2.45926832e-03,
          1.53704267e-03, 2.45926832e-03, 3.07408534e-03, 1.22963416e-03,
          3.68890259e-03, 2.15185969e-03, 6.14817080e-04, 9.22225649e-04,
          1.53704267e-03, 9.22225649e-04, 9.22225649e-04, 1.84445130e-03,
          1.22963416e-03, 1.84445130e-03, 9.22225649e-04, 2.15185969e-03,
          1.22963416e-03, 1.53704267e-03, 9.22225649e-04, 1.84445130e-03,
          1.22963416e-03, 3.38149397e-03, 3.68890259e-03, 0.,
          3.07408534e-03, 3.38149397e-03, 3.99631122e-03, 2.15185969e-03,
          4.61112801e-03, 2.15185969e-03, 2.76667695e-03, 4.30371938e-03,
          6.14817080e-04, 3.07408540e-04, 1.53704267e-03, 6.14817080e-04,
          1.84445130e-03, 2.76667695e-03, 1.22963416e-03, 3.07408540e-04,
          1.22963416e-03, 2.15185969e-03, 1.84445130e-03, 4.30371938e-03,
          3.07408540e-04, 3.07408540e-04, 1.53704267e-03, 6.14817080e-04,
          1.84445130e-03, 2.15185969e-03, 3.07408540e-04, 1.84445130e-03,
          1.22963416e-03, 1.84445130e-03, 3.07408534e-03, 1.53704267e-03,
          3.68890259e-03, 2.45926832e-03, 1.84445130e-03, 2.15185969e-03,
          1.22963416e-03, 1.22963416e-03, 2.45926832e-03, 9.22225649e-04,
          9.22225649e-04, 1.22963416e-03, 1.22963416e-03, 6.14817080e-04,
          2.15185969e-03, 2.15185969e-03, 1.22963416e-03, 1.84445130e-03,
