%YAML:1.0
---
opencv_ml_svm:
   format: 3
   svmType: C_SVC
   kernel:
      type: LINEAR
   C: 3.1250000000000000e+02
   term_criteria: { iterations:100 }
   var_count: 2500
   class_count: 2
   class_labels: !!opencv-matrix
      rows: 2
      cols: 1
      dt: i
      data: [ 0, 1 ]
   sv_total: 1
   support_vectors:
      - [ 6.15439296e-01, 2.08358383e+00, -1.63776946e+00,
          1.23521648e-01, -9.81301427e-01, -9.10845637e-01,
          -1.08144939e+00, -1.01230182e-01, -2.35947633e+00,
          4.81512964e-01, -3.50898147e+00, 2.85975242e+00,
          3.40485871e-01, -6.68778241e-01, 1.36674821e+00,
          2.11044574e+00, -8.03625286e-01, 4.33657646e+00,
          3.82998443e+00, 1.58935940e+00, 2.78099322e+00, 8.84498978e+00,
          2.61768365e+00, 5.79840899e+00, 3.06931376e+00, 1.45379052e-01,
          1.43237007e+00, -9.60592330e-02, 2.27412987e+00,
          2.61581326e+00, 5.19213009e+00, -2.10006094e+00,
          2.95708358e-01, 4.82614851e+00, 2.52039170e+00,
          -2.72699594e+00, 2.23265842e-01, -2.67695785e+00,
          -3.94246912e+00, -2.70560932e+00, -2.08130121e+00,
          1.66594893e-01, 1.16671658e+00, 4.36456919e+00,
          -6.09169066e-01, 2.67215133e+00, -2.18647051e+00,
          -2.29593182e+00, 2.24877000e+00, 3.71476245e+00,
          9.03137803e-01, -3.69736701e-01, -4.50817013e+00,
          1.96827296e-02, -4.52040815e+00, 5.73677540e+00,
          1.71100855e-01, -1.32824361e+00, -3.77400309e-01,
          -1.23088765e+00, -1.57514238e+00, -1.82496500e+00,
          -1.85346697e-02, 2.64802992e-01, -1.30130136e+00,
          -9.76485107e-03, 5.04399204e+00, -1.95962384e-01,
          -3.58618528e-01, 5.94946671e+00, -4.75362253e+00,
          3.65645111e-01, 8.18477452e-01, 1.76678276e+00, 2.56737518e+00,
          -1.86614525e+00, 4.39689189e-01, 1.27151155e+00,
          -1.05998552e+00, 4.29967731e-01, -3.14911556e+00,
          1.43540168e+00, 7.26416111e-01, -3.56294298e+00,
          1.29125059e+00, -1.35135913e+00, 4.26634169e+00,
          1.44912183e+00, -2.80987573e+00, 3.00241143e-01,
          1.52643871e+00, -7.54104778e-02, 1.46601856e+00,
          1.44610918e+00, -1.13855684e+00, 3.19303799e+00,
          -1.31796554e-01, 3.53010821e+00, 2.72806787e+00,
          2.81703186e+00, -4.77477819e-01, -7.05344582e+00,
          1.95565963e+00, -7.57363141e-01, -2.76885295e+00,
          -8.58849347e-01, 5.26782811e-01, -6.27473640e+00,
          -6.29282653e-01, 2.59241033e+00, 1.30705166e+00,
          1.75277233e+00, 2.27897668e+00, 2.24193120e+00,
          -2.34446478e+00, 1.57843733e+00, 1.62488312e-01,
          1.28954649e+00, -3.30614179e-01, 7.25292444e-01,
          1.75661421e+00, 2.25436306e+00, 2.89169097e+00,
          -7.21271372e+00, 1.03715801e+00, -3.39103389e+00,
          6.16142564e-02, 1.43954849e+00, -1.48495460e+00,
          5.38931727e-01, -3.74212050e+00, 1.98972332e+00,
          -1.11941457e+00, 1.98239064e+00, 5.54777241e+00,
          -4.49619150e+00, -5.09526920e+00, -2.81006187e-01,
          7.44174480e-01, 3.84244061e+00, -1.72724807e+00,
          1.60323218e-01, -4.21847031e-02, -1.03378487e+00,
          -3.59578669e-01, -5.07791090e+00, 7.72409260e-01,
          -4.10664511e+00, 1.28209019e+00, 2.62947774e+00,
          -3.09497237e+00, 1.08473146e+00, -2.79538488e+00,
          -2.77578926e+00, -1.98299193e+00, 5.78766227e-01,
          -4.21542072e+00, 9.18694586e-02, -4.85180759e+00,
          -3.35435438e+00, -2.76287347e-01, -5.20040631e-01,
          -2.17073011e+00, 4.85865498e+00, -1.28570199e+00,
          2.33278275e+00, 1.17988050e+00, 3.39916492e+00,
          -3.00554657e+00, 1.50403185e+01, 1.22719967e+00,
          -6.60670042e+00, 2.70967698e+00, 1.12033474e+00,
          -9.71020535e-02, 2.37921762e+00, -5.86940467e-01,
          4.78134334e-01, 2.01439834e+00, -5.64020872e+00,
          -2.34072375e+00, 1.01717162e+00, 9.87476707e-01,
          -5.45431948e+00, 1.68669200e+00, 3.33767295e-01,
          -4.35811520e+00, 2.15568948e+00, 5.08298683e+00,
          6.99520171e-01, -2.82338679e-01, -4.55949450e+00,
          1.10379183e+00, 3.47679162e+00, -3.04405975e+00,
          -4.12178230e+00, 2.71408606e+00, 9.79996800e-01,
          -1.88273752e+00, -1.21054554e+00, -1.66156805e+00,
          -2.26099873e+00, -4.91292506e-01, -1.50034678e+00,
          2.57245183e+00, 4.38542795e+00, 1.91311562e+00,
          -6.16387606e-01, 1.50470033e-01, 1.87849104e+00,
          -5.86928940e+00, -1.85523915e+00, 1.35922015e+00,
          9.10039470e-02, 3.37824559e+00, 3.31156039e+00, 6.75917804e-01,
          -1.01130700e+00, 7.15761960e-01, 3.85286450e+00,
          2.79612470e+00, 2.27315068e+00, 4.30604190e-01, 4.22467947e+00,
          -1.17605877e+00, 2.17972231e+00, -9.17575836e-01,
          3.22173214e+00, 1.85550833e+00, 2.10980034e+00,
          -2.54124508e+01, 5.78723001e+00, 1.37592137e+00,
          1.48435867e+00, -1.01615644e+00, -1.67605162e+00,
          2.24451736e-01, -4.69995642e+00, 5.42545080e-01,
          5.39763021e+00, 1.67744434e+00, 1.87026948e-01,
          -3.09349716e-01, -1.19166219e+00, -1.32723820e+00,
          8.50892603e-01, 8.97264671e+00, 2.24696660e+00, 3.36450636e-01,
          -1.83115518e+00, 2.33495688e+00, -6.56212807e+00,
          4.92576182e-01, 1.71722388e+00, 5.33584476e-01,
          -8.62031162e-01, -3.73162889e+00, -9.54255462e-01,
          -4.28631425e-01, -2.36540294e+00, -2.65814924e+00,
          -1.46605265e+00, 2.47638774e+00, 1.07649016e+00,
          8.15814734e-01, -2.61172390e+00, 5.35246015e-01,
          -1.18577790e+00, 8.41334641e-01, 3.32833797e-01,
          3.60823798e+00, 1.04742324e+00, 6.59931421e-01, 3.58341408e+00,
          1.52095687e+00, -1.24027216e+00, 9.60256010e-02,
          5.97997785e-01, -1.06270385e+00, 2.22523952e+00,
          -4.50939149e-01, -2.97168255e+00, 8.29353511e-01,
          -1.54924043e-03, -4.30794954e+00, 6.78102636e+00,
          5.17862201e-01, -8.74439657e-01, 4.32369137e+00,
          6.20534897e+00, -1.72511458e+00, -3.43260336e+00,
          -7.60657728e-01, -2.87623096e+00, -8.31054974e+00,
          -4.36381288e-02, 2.32751584e+00, 5.83079755e-01,
          4.20058995e-01, 1.11191452e+00, 2.14320588e+00,
          -1.04024494e+00, -4.74848509e+00, 1.47599828e+00,
          -8.38252008e-01, -1.71046793e+00, 6.54526591e-01,
          1.78653657e+00, 4.00290489e+00, -4.55870241e-01,
          -1.09669757e+00, -1.44853735e+00, -1.01435986e+01,
          1.63406920e+00, -6.15719271e+00, 1.79840350e+00,
          6.05420208e+00, -3.23764777e+00, -1.17396390e+00,
          3.54143047e+00, 2.60624838e+00, 3.25501728e+00, 2.65515089e+00,
          1.68318486e+00, 3.42296290e+00, 6.55562937e-01,
          -9.49174702e-01, -4.38079476e-01, -5.01766300e+00,
          1.46866560e-01, -9.38270032e-01, -5.37677333e-02,
          7.76802674e-02, 3.59180450e+00, -7.10251629e-01,
          -1.69879067e+00, 2.43678480e-01, -1.70208812e+00,
          1.52822733e+00, 4.57156092e-01, -2.99281049e+00,
          -4.00197983e+00, -5.48228741e+00, 3.02504301e+00,
          -2.93123388e+00, 4.56379764e-02, 3.41550183e+00,
          -2.19643164e+00, 2.23380923e+00, -3.12746167e+00,
          9.40250158e-01, -2.18577957e+00, -1.14742398e+00,
          8.90431023e+00, 8.29742312e-01, -3.54804254e+00,
          4.87138599e-01, 3.40145516e+00, 3.61949301e+00, 1.07789016e+00,
          1.19189668e+00, -1.09919500e+00, 6.41981697e+00,
          1.91412663e+00, -1.82686198e+00, -3.28076744e+00,
          -1.19013131e+00, -3.78139228e-01, 6.88770890e-01,
          -2.40394831e+00, 2.09190750e+00, 1.53034163e+00,
          1.72531724e+00, 3.53099322e+00, -2.56094307e-01,
          3.37086105e+00, 4.56463480e+00, -1.09867609e+00,
          -7.29363322e-01, 1.71353984e+00, -2.39106202e+00,
          9.77096140e-01, 3.89707017e+00, -6.25685990e-01,
          3.75246853e-01, 1.24564612e+00, -8.17813814e-01,
          -6.54249132e-01, 2.76242685e+00, -1.12570989e+00,
          1.15207887e+00, -1.00266838e+00, -8.89322519e-01,
          1.09895897e+00, -3.79057240e+00, 3.52269077e+00,
          -4.80235755e-01, -1.40000606e+00, -2.08715558e+00,
          8.35661054e-01, 1.58950865e+00, -1.56705451e+00,
          2.49228001e+00, -2.74117738e-01, -1.35911715e+00,
          -9.10025388e-02, 1.73368883e+00, 1.34173059e+00,
          7.79507399e-01, -1.17646897e+00, 2.69749522e+00,
          3.50363183e+00, 3.94094229e+00, 1.49167275e+00, 1.31838906e+00,
          2.14752173e+00, -2.10611153e+00, -2.46041083e+00,
          -3.87506413e+00, 2.74445701e+00, 3.04741883e+00,
          -2.63466382e+00, 1.16298115e+00, 1.23731756e+00,
          7.50879765e-01, 2.99636412e+00, 1.97575164e+00, 1.80094376e-01,
          -1.29169359e+01, -2.73837209e+00, 5.58566630e-01,
          -1.89403534e-01, -3.77287436e+00, -1.43041551e+00,
          -3.73330522e+00, 4.99584764e-01, -1.33482671e+00,
          -2.00861645e+00, -6.11495495e-01, 2.96648335e+00,
          1.04633796e+00, -1.43554658e-01, 3.79906130e+00,
          2.02689075e+00, 2.00401440e-01, 1.04301941e+00,
          -2.67202780e-02, 1.80676103e+00, -3.49049115e+00,
          1.50041652e+00, -1.30930650e+00, 1.53454733e+00,
          1.58611751e+00, -3.02079344e+00, 1.97455490e+00,
          9.95331526e-01, -7.88671374e-01, 9.77931917e-01,
          1.53680277e+00, -7.28097558e-01, -6.42496765e-01,
          4.10282403e-01, -2.71878815e+00, -4.10722256e+00,
          2.93647032e-02, 5.11613786e-01, -3.44466901e+00,
          1.48159146e+00, 9.88392889e-01, -1.82228282e-01,
          -7.57735729e-01, -1.63054562e+00, 1.18389547e+00,
          -1.80180478e+00, -9.65482593e-01, 2.61747861e+00,
          -4.38713670e-01, -4.22500134e-01, -1.02204967e+00,
          -2.19115138e+00, 1.67705369e+00, -3.35090137e+00,
          -4.06765556e+00, -2.36605811e+00, 1.55833960e+00,
          -6.39670938e-02, -6.21552169e-01, 4.97904509e-01,
          7.08010972e-01, -1.87421787e+00, 2.47307301e+00,
          4.02421713e-01, -2.12446880e+00, -4.13027108e-01,
          6.58524692e-01, 2.40110922e+00, 2.59047627e+00, 1.37566662e+00,
          1.59305727e+00, 1.48697448e+00, 2.80213761e+00, 8.37045133e-01,
          -2.46749806e+00, 1.45047569e+00, 4.45039302e-01,
          5.68493009e-01, 1.81532478e+00, -1.44817376e+00,
          1.62938905e+00, -2.78896594e+00, -1.21975936e-01,
          1.97252977e+00, -1.19974267e+00, 3.48459691e-01,
          1.54218626e+00, -5.60809135e+00, -3.32581306e+00,
          -1.94457376e+00, -1.34097910e+00, -2.30829406e+00,
          3.61455774e+00, -2.42667413e+00, -1.08251011e+00,
          3.44138050e+00, 9.06414270e-01, 5.66533899e+00, 1.23628771e+00,
          -1.24768639e+00, 1.45834649e+00, -2.81739235e+00,
          -9.23570275e-01, -1.75813162e+00, -7.63141885e-02,
          1.91975749e+00, -7.14215934e-02, -1.18149209e+00,
          -2.95956993e+00, -4.16908026e-01, 2.13102007e+00,
          8.46340656e-01, 9.62926030e-01, -9.71463859e-01,
          3.76316357e+00, -1.93664026e+00, 2.19306159e+00,
          6.32532954e-01, -9.68070984e-01, 2.78573513e+00,
          2.57297015e+00, -3.08898115e+00, -1.47467816e+00,
          -2.98804194e-01, 6.59176290e-01, -1.55598259e+00,
          -2.07718587e+00, 3.53926808e-01, -1.56563568e+00,
          -1.22481191e+00, -2.26956105e+00, 8.91402662e-02,
          -5.28185034e+00, -5.13373256e-01, 5.09691048e+00,
          -6.60095334e-01, 5.49483597e-01, 2.94817090e+00,
          -3.58150244e-01, -5.05533934e+00, 6.30264342e-01,
          3.38691354e+00, -3.59865737e+00, 5.44999242e-01,
          2.43716455e+00, -4.11487073e-01, 3.13868833e+00,
          -9.05456319e-02, 1.31816220e+00, 1.36818039e+00,
          3.32509017e+00, 1.67567873e+00, 9.51162755e-01, 6.38988614e-01,
          1.08574629e+00, -2.28318557e-01, 9.16935146e-01,
          -5.97543430e+00, 1.06603491e+00, 1.28537369e+00,
          2.87589878e-01, 1.78549016e+00, -2.99477577e+00,
          -2.53137279e+00, 1.00519884e+00, 2.95745134e-01,
          -2.04475582e-01, -1.74169564e+00, -5.60552406e+00,
          -4.05584049e+00, 9.49379683e-01, -5.57604647e+00,
          2.99913883e+00, -1.78006935e+00, 3.06703162e+00,
          -6.17095344e-02, -4.27109629e-01, -3.25166106e+00,
          -1.66998351e+00, -1.30067015e+00, -3.80940032e+00,
          3.43654728e+00, -1.22822571e+00, 1.27251387e+00,
          1.32315218e+00, -6.73105240e+00, -4.55357790e+00,
          -1.50611892e-01, 2.03795552e+00, 2.09781337e+00,
          -8.66185546e-01, -2.29932714e+00, 3.32965970e-01,
          -4.02601624e+00, -1.09215117e+00, -4.10171628e-01,
          -7.98825264e-01, -4.84158434e-02, -4.11858521e-02,
          4.36114073e+00, -1.94473159e+00, 1.59515905e+00,
          -1.83334100e+00, 3.21153450e+00, -1.72820044e+00,
          1.34659779e+00, -2.02086520e+00, -2.12034774e+00,
          1.20698595e+00, 2.63089275e+00, 1.66341588e-01, 1.05332613e+00,
          -1.36698627e+00, 8.29599380e-01, 3.13115168e+00,
          4.89310205e-01, -3.80153036e+00, -1.27232146e+00,
          4.23664904e+00, -3.18925166e+00, -7.43526161e-01,
          2.02025461e+00, -3.62601209e+00, -6.94420218e-01,
          1.85125566e+00, 5.19428492e+00, -3.03761530e+00,
          1.23118460e+00, -9.45145965e-01, 1.11743844e+00,
          -4.47518378e-01, 3.66092062e+00, -3.20654058e+00,
          -3.59450030e+00, -3.62488890e+00, 9.83832181e-01,
          -6.48188770e-01, -2.24456334e+00, 8.09278250e-01,
          -2.03128386e+00, -1.54702938e+00, -5.39832830e+00,
          4.75468606e-01, -1.79515159e+00, -1.87719345e+00,
          -1.02677333e+00, -2.19428444e+00, 1.68363762e+00,
          3.27801657e+00, -8.26222897e-01, -3.35933113e+00,
          -9.74962294e-01, 2.19891119e+00, -2.67441630e+00,
          -2.44521284e+00, 2.56155515e+00, -1.14744246e+00,
          -3.93997455e+00, -1.62492228e+00, 3.45351338e-01,
          3.71970296e+00, -1.21287465e+00, -2.89916277e+00,
          4.29036951e+00, -6.32594347e-01, 4.78239727e+00,
          -3.21010447e+00, -1.61959112e-01, 1.79613173e+00,
          -2.70240879e+00, 1.78944659e+00, 1.74168348e+00,
          3.22289252e+00, 1.94244370e-01, -1.46750259e+00,
          4.14801002e-01, -1.12266874e+00, -1.65567958e+00,
          -1.49473083e+00, -3.24866700e+00, 1.69980323e+00,
          -4.15788984e+00, 2.79314429e-01, 3.57686114e+00,
          -4.04052544e+00, 6.64196587e+00, -2.47235680e+00,
          -1.25865917e+01, -4.29317522e+00, -3.75575423e+00,
          3.15401149e+00, -2.44713688e+00, 7.75529966e-02,
          -1.47216797e-01, 2.20859027e+00, 6.55174494e+00,
          -1.89829677e-01, 3.56859279e+00, -2.76098943e+00,
          -3.42957687e+00, -1.65389884e+00, 1.75728023e+00,
          1.37569678e+00, -2.01507878e+00, 2.51888180e+00,
          1.29306543e+00, 2.81231976e+00, 1.02307010e+00, 5.62008470e-02,
          -4.06901264e+00, -1.59483349e+00, 2.76674676e+00,
          -1.58060431e+00, 3.56675297e-01, -7.56753445e-01,
          -1.57677341e+00, 5.86824939e-02, 2.25852117e-01,
          -3.07466578e+00, -1.11731648e+00, 6.11633062e-01,
          3.17713213e+00, 3.59744340e-01, 2.41063023e+00,
          -1.71413636e+00, -4.55669314e-01, 2.71238029e-01,
          2.58524060e-01, -3.03247166e+00, -2.02893448e+00,
          -7.51568413e+00, -7.67203867e-02, -1.25787532e+00,
          1.94486010e+00, 3.07830715e+00, 7.49869943e-01,
          -2.50903153e+00, 5.61168551e-01, 1.59929395e+00,
          4.31883782e-01, 1.91170707e-01, -1.23909545e+00,
          2.34069777e+00, -2.87714213e-01, 2.08832693e+00,
          -2.95739031e+00, -9.76776481e-01, 2.70450401e+00,
          3.09613794e-01, -6.45587158e+00, 5.25805664e+00,
          2.17506856e-01, 1.51233172e+00, 6.04928350e+00, 4.05195284e+00,
          1.34499896e+00, 9.57950294e-01, 1.11554062e+00,
          -6.46523952e-01, 4.88121986e-01, 3.76792979e+00,
          -5.32899320e-01, -5.64196634e+00, -2.28737712e+00,
          -2.93869585e-01, 7.59769261e-01, 3.08026814e+00,
          -1.15385609e+01, -2.08261395e+00, -1.87614608e+00,
          -1.99755955e+00, 1.53147376e+00, 5.02610064e+00,
          5.59714651e+00, 1.43315673e+00, 2.73375344e+00,
          -3.03339696e+00, -1.50102007e+00, 1.24755442e+00,
          5.21351194e+00, 2.35449934e+00, -7.83837140e-01,
          5.05175471e-01, -1.10403359e+00, 1.89976132e+00,
          -2.25495911e+00, 6.54039502e-01, -3.17038083e+00,
          -5.55756617e+00, -8.68190002e+00, 6.26215041e-01,
          1.58423305e+00, -1.35585678e+00, -2.76527673e-01,
          2.03602457e+00, -1.70471382e+01, -5.03926098e-01,
          2.39473724e+00, -2.90906858e+00, -1.15314841e-01,
          -3.69950324e-01, -3.22198331e-01, -2.02352905e+00,
          1.81984985e+00, 4.75204468e-01, 1.16029954e+00, 5.21363039e-03,
          3.86260897e-01, -1.45758176e+00, 1.90206254e+00,
          7.25883663e-01, -4.34396803e-01, 2.63286853e+00,
          -2.05662417e+00, 2.15040326e+00, -3.39402294e+00,
          9.97482717e-01, 7.10076213e-01, 3.92754745e+00, 1.68121660e+00,
          -2.08676910e+00, 9.93530929e-01, 3.10103744e-01,
          -3.36418808e-01, 9.55324829e-01, -5.46802092e+00,
          2.99693441e+00, -6.86451435e-01, 3.00700712e+00,
          4.61137390e+00, 5.15492058e+00, -2.46898103e+00,
          9.35061395e-01, 5.33349931e-01, -6.30754352e-01,
          1.29809046e+00, -2.13848710e+00, 4.50600433e+00,
          1.06255472e-01, 4.68563461e+00, 3.33921838e+00,
          -5.04154778e+00, -3.10544610e+00, 8.87412667e-01,
          1.58546400e+00, -7.24138594e+00, 2.53103948e+00,
          -6.95801795e-01, 7.43198216e-01, -9.67297852e-02,
          3.07548451e+00, -2.41413355e+00, 1.43284404e+00,
          -2.86021203e-01, 1.11949456e+00, 2.84618527e-01,
          7.89292276e-01, -5.95204830e-01, 6.88616800e+00,
          -1.71804416e+00, 4.56692982e+00, 1.41931534e+00,
          3.18140435e+00, 1.85129046e+00, -6.36996150e-01,
          1.31901521e-02, 3.35619617e+00, 2.43245173e+00,
          -5.22605479e-01, -1.31727445e+00, 8.23360920e-01,
          -5.61851025e+00, 1.17021286e+00, 1.32112336e+00,
          -2.83931756e+00, -2.08846784e+00, 1.61973035e+00,
          6.87374115e-01, 6.46393478e-01, 7.48033953e+00, 5.25894821e-01,
          6.85041070e-01, 2.31159449e+00, -3.90840709e-01,
          2.25656581e+00, -1.66236737e-03, 2.48794770e+00,
          -1.51433551e+00, 2.50808907e+00, -3.14736581e+00,
          1.01208818e+00, -5.34001160e+00, 2.59539157e-01,
          -1.28611958e+00, -1.17257919e+01, -4.79806095e-01,
          7.87927270e-01, 3.30345583e+00, 6.35457182e+00,
          -1.61200380e+00, 4.23943663e+00, 3.80233693e+00,
          1.97877872e+00, -1.55951822e+00, -2.29204679e+00,
          -9.62853968e-01, 1.00137548e+01, -2.66661906e+00,
          -6.88881826e+00, -1.19514978e+00, -9.86231089e-01,
          -6.69888878e+00, 1.94266510e+00, -3.26401091e+00,
          -1.39336228e+00, -2.15313601e+00, 1.65217113e+00,
          5.13762712e+00, -3.73144555e+00, 1.73394072e+00,
          -3.65764350e-01, -7.89038658e-01, -1.30289114e+00,
          3.23083210e+00, 6.97366521e-02, -1.35250598e-01,
          1.95345855e+00, -7.95296383e+00, 4.75606394e+00,
          1.68117082e+00, 3.18403363e+00, -2.36196685e+00,
          -9.48565960e-01, 9.12613511e-01, -7.28248477e-01,
          -2.68195653e+00, 6.90629244e-01, -1.05360255e-01,
          2.03303862e+00, -8.86048853e-01, -2.85191536e+00,
          -3.43346739e+00, 2.47924209e+00, -4.00371218e+00,
          -3.69387078e+00, 3.89039946e+00, 1.80444872e+00,
          1.30132091e+00, 4.81075287e+00, 1.50631323e-01, 1.83273166e-01,
          1.69243145e+00, -2.46750498e+00, -2.74886959e-03,
          -1.91571617e+00, 2.96539974e+00, -4.98000145e+00,
          6.21333075e+00, -1.55424321e+00, -2.98277426e+00,
          1.63012254e+00, -5.35827541e+00, 3.54534674e+00,
          1.34411800e+00, 2.16032505e+00, 6.17360783e+00,
          -6.77019060e-01, -6.04311407e-01, -5.01472282e+00,
          4.62364266e-03, -8.18377674e-01, -2.11510372e+00,
          1.58954179e+00, -1.50344443e+00, 1.26096237e+00,
          -2.42200875e+00, 2.26098508e-01, -5.20138204e-01,
          4.00371790e+00, 5.65079600e-02, -2.74823952e+00,
          -3.58058721e-01, 3.39255285e+00, -5.65507233e-01,
          2.41062760e+00, 1.89623308e+00, 1.90743637e+00, 1.62261128e-01,
          -9.30672944e-01, -2.18260264e+00, 2.77472353e+00,
          7.39604712e+00, 5.47908497e+00, -1.19815417e-01,
          -4.37127066e+00, -1.81538463e+00, -1.24444556e+00,
          -8.64609897e-01, 2.43978572e+00, 1.91270626e+00,
          -2.05577064e+00, -2.68886852e+00, 4.28765869e+00,
          1.74120057e+00, 1.51655221e+00, -6.36359072e+00,
          -6.43730283e-01, 1.28925991e+00, -1.96508908e+00,
          3.28213716e+00, -5.64383650e+00, -2.56343389e+00,
          5.93181944e+00, 3.94040346e+00, 8.79351676e-01,
          -1.37347400e-01, -7.14038253e-01, 1.71011627e+00,
          -1.87889266e+00, 8.77259791e-01, 1.00324571e+00,
          5.08876705e+00, 4.13336468e+00, 1.80026159e-01, 1.31932116e+00,
          -2.34666154e-01, -3.60111523e+00, 2.92871976e+00,
          7.36654091e+00, 2.04570246e+00, 1.93355775e+00,
          -9.20288563e-01, 9.85143185e-01, -8.41712296e-01,
          -1.31928718e+00, 1.46214330e+00, 7.24874377e-01,
          -2.36068749e+00, 1.04247367e+00, -1.86208963e+00,
          -6.41078711e-01, 7.84879029e-01, -1.63641483e-01,
          -4.26791728e-01, 2.26196194e+00, 5.90780005e-02,
          -3.84783363e+00, -1.51345325e+00, 4.08880520e+00,
          2.84186840e+00, -3.02225375e+00, -9.38851386e-02,
          -4.89143968e-01, -5.80081081e+00, -1.41837919e+00,
          6.93426943e+00, 9.69186783e-01, -2.52614355e+00,
          -4.43517208e+00, -3.00044250e+00, 2.54271835e-01,
          1.98646092e+00, -1.73659682e-01, 2.09640861e-01,
          3.06078005e+00, -3.25670600e+00, -4.83576536e+00,
          -2.47669928e-02, -1.53457594e+00, -1.78700364e+00,
          -3.84754092e-02, 3.02747655e+00, 1.32028043e+00,
          -2.09967923e+00, 3.43641782e+00, -2.66334414e-01,
          -6.09009564e-01, 1.30224541e-01, -7.33343303e-01,
          2.53216654e-01, 1.53240561e+00, -1.26869226e+00,
          -2.61069000e-01, 1.87200770e-01, -3.65374184e+00,
          -5.29111147e-01, 5.33948994e+00, 1.07520783e+00,
          3.67906141e+00, -1.74856317e+00, -1.05703485e+00,
          -2.69742227e+00, -2.32697439e+00, 2.11895323e+00,
          3.17347288e+00, -1.81541181e+00, 2.31593037e+00,
          -2.91890168e+00, -7.59543404e-02, 9.79911923e-01,
          -8.99324894e-01, 4.46428299e-01, -2.27903128e+00,
          2.20337510e+00, -1.69872606e+00, 8.01362324e+00,
          -3.38228536e+00, 3.84060407e+00, 2.61240649e+00,
          4.12565470e+00, 3.33606577e+00, -7.88126826e-01,
          3.73686790e+00, -1.19684350e+00, 6.95499241e-01,
          2.92766142e+00, 4.56810045e+00, 3.79475069e+00, 3.81981105e-01,
          9.85344887e-01, -4.34056473e+00, 4.03439808e+00,
          2.83407903e+00, -2.88746667e+00, -2.51554322e+00,
          9.92838800e-01, -1.93098259e+00, 3.35414499e-01,
          4.41877222e+00, 1.86556304e+00, -8.94465268e-01,
          6.42038679e+00, 1.71885714e-01, -1.20090570e+01,
          6.27602279e-01, -1.12709498e+00, 3.37964654e+00,
          4.36843348e+00, 1.73071325e+00, -8.87641430e-01,
          -9.07062113e-01, 1.94313622e+00, -4.54075909e+00,
          1.39246094e+00, -1.79611034e+01, 1.25544381e+00,
          -7.57581592e-01, -8.92937899e-01, 1.06902015e+00,
          -3.03546357e+00, -1.95385122e+00, -1.28677857e+00,
          1.15238333e+00, 6.15296423e-01, 3.18181562e+00, 3.38030052e+00,
          -3.65423465e+00, 4.76753235e+00, -2.11831450e-01,
          5.48915815e+00, 1.87299192e+00, 4.68511730e-01,
          -1.48487329e-01, -2.46975017e+00, 2.22957373e+00,
          -5.03136778e+00, 8.53894744e-03, -1.84132263e-01,
          1.41027582e+00, 7.63722003e-01, -1.56163609e+00,
          -4.79485846e+00, 1.12698901e+00, 2.03614831e+00,
          3.01079178e+00, -4.38850045e-01, 9.97329295e-01,
          -1.74888051e+00, 5.16581106e+00, -1.80227959e+00,
          -5.66821814e+00, -9.37559783e-01, -1.10521078e+00,
          -2.33222461e+00, 2.84079552e-01, 8.05819571e-01,
          1.66718280e+00, -6.22626591e+00, -1.01947618e+00,
          -3.01191688e+00, 1.27164304e+00, 2.65690732e+00,
          -1.52590781e-01, -1.14218786e-01, 6.53091252e-01,
          -2.23313808e+00, -1.88139647e-01, 1.58352423e+00,
          3.24476272e-01, 2.37857366e+00, -2.59953737e-01,
          -1.16850972e+00, -4.71194601e+00, 1.75915420e+00,
          1.36030591e+00, 5.85222363e-01, 3.28944969e+00,
          -8.03392947e-01, 3.03975034e+00, -1.46796727e+00,
          -2.86478972e+00, 9.97011960e-01, -8.89104843e-01,
          4.71728897e+00, -6.98612571e-01, 8.94300565e-02,
          -1.12493551e+00, 1.91465902e+00, 2.30966139e+00,
          -2.12122989e+00, 4.13246393e+00, 3.18895996e-01,
          5.56180537e-01, -4.40616578e-01, -4.40457916e+00,
          -4.15380192e+00, -2.33934355e+00, 2.09812474e+00,
          -2.89818788e+00, 1.36151627e-01, -2.06927228e+00,
          1.97976696e+00, 3.67794800e+00, 1.42930269e+00, 2.79361844e+00,
          -1.91536987e+00, -3.56370902e+00, -9.23197746e-01,
          2.32242250e+00, 3.69114709e+00, -3.14426231e+00,
          -4.42393208e+00, 1.12057500e-01, -3.12609744e+00,
          6.00966501e+00, -2.37539911e+00, 9.03382897e-01,
          -5.15445530e-01, -2.22580099e+00, 4.12351084e+00,
          -9.54304412e-02, 1.54219326e-02, -1.01601005e+00,
          9.42622840e-01, -1.30847275e-01, 3.80682260e-01,
          -1.32982922e+00, 2.11944318e+00, -4.95568085e+00,
          -9.70888957e-02, 8.59742463e-01, 1.51638937e+00,
          1.97156906e+00, -4.47352469e-01, -6.15361738e+00,
          1.76315558e+00, 9.10473228e-01, -4.20116186e+00,
          -1.43130958e+00, -2.06053925e+00, 1.44270134e+00,
          1.88401794e+00, 2.26100731e+00, -2.50717402e+00,
          -5.80337286e-01, 5.93787014e-01, -6.82744086e-01,
          1.21842265e+00, 7.53001511e-01, 2.18482637e+00,
          -4.47218752e+00, -3.74693843e-03, 2.11233854e+00,
          -1.07592201e+01, -1.08768322e-01, -6.55001783e+00,
          4.28866673e+00, -9.95468020e-01, 2.90317774e+00,
          5.08292876e-02, -1.43194914e+00, 3.22298145e+00,
          4.55787373e+00, 1.28693441e-02, 2.05924535e+00, 3.56619358e+00,
          -1.42816529e-01, -1.76712275e+00, 5.19591808e+00,
          -4.88846827e+00, -8.92425239e-01, 1.73891693e-01,
          -1.40333784e+00, -6.43465579e-01, -1.99060392e+00,
          -2.50979447e+00, -2.91582966e+00, 1.86209846e+00,
          2.15549803e+00, -6.61463881e+00, -7.16925383e-01,
          2.98801303e+00, -1.93517506e-01, -3.83263206e+00,
          -1.71594944e+01, 2.80195379e+00, 1.07887399e+00,
          5.44117868e-01, 6.41645384e+00, 2.60465592e-01, 1.99057662e+00,
          1.72365332e+00, -6.76775873e-01, 2.92161250e+00,
          -2.93776226e+00, 8.75311911e-01, 1.59256935e+00,
          1.15052843e+00, 8.19435120e-01, 8.71617496e-01,
          -2.42281818e+00, 1.22436702e-01, 3.58299160e+00,
          -2.60203576e+00, 8.41896057e-01, -5.88773042e-02,
          1.68671048e+00, 2.62210798e+00, -1.07598853e+00,
          -1.91911197e+00, -6.22361600e-01, 2.51495528e+00,
          1.73064590e-01, 9.66543770e+00, 1.72764385e+00, 7.91937530e-01,
          -1.21625071e+01, -1.01277781e+00, -4.94095862e-01,
          1.47029841e+00, -1.75129786e-01, -3.79931450e+00,
          1.55288446e+00, -4.75023687e-02, -4.52120352e+00,
          -1.44827807e+00, 2.70340109e+00, 2.35582852e+00,
          1.82225406e+00, 3.30322456e+00, -5.97066212e+00,
          -3.65398073e+00, 2.32746983e+00, 2.59947610e+00,
          6.78944290e-02, 4.11943579e+00, -3.59833539e-01,
          2.74837804e+00, -2.17760873e+00, 4.44862604e+00,
          -2.81671429e+00, 2.04172945e+00, -1.25018775e+00,
          1.72651267e+00, -1.64687479e+00, -9.69906971e-02,
          -4.53907156e+00, -6.33806407e-01, 2.37512708e+00,
          1.73116875e+00, 2.23621845e+00, 3.31110454e+00,
          -9.62279886e-02, 2.23745751e+00, -4.80764031e-01,
          1.52647507e+00, 1.48403132e+00, 2.96122462e-01, 1.49027729e+00,
          3.47589970e-01, -1.89784706e+00, 4.21164799e+00,
          -5.32382429e-01, -2.66145182e+00, 2.45632887e+00,
          4.00116920e-01, 5.92248380e-01, 3.01626414e-01, 3.20565844e+00,
          3.42432171e-01, 4.14050674e+00, 3.74688506e+00, 1.63987577e+00,
          1.03787267e+00, -1.90797281e+00, 2.19438839e+00,
          5.23026347e-01, -2.42124844e+00, 3.13286853e+00,
          3.07530463e-01, 9.23179150e-01, -3.33289599e+00,
          1.95925832e+00, -7.01067269e-01, -1.83711052e+00,
          5.85219264e-01, 6.49470329e-01, 3.57493353e+00,
          -1.30069470e+00, 1.09799492e+00, 2.96045375e+00,
          -1.13639474e+00, -1.32094216e+00, -9.91588295e-01,
          8.10782492e-01, -5.05648851e-01, 1.23244178e+00,
          2.32766151e+00, -1.07021534e+00, -6.36849582e-01,
          5.83561897e-01, -2.17716384e+00, 4.03131336e-01,
          2.77566886e+00, -2.77338552e+00, 9.17403936e-01,
          4.12153387e+00, -3.65193844e-01, -1.47950664e-01,
          7.06245124e-01, 2.98666745e-01, -8.79502773e-01,
          -7.98077941e-01, -5.97337246e+00, 5.90282619e-01,
          1.60855830e-01, -2.78851485e+00, 3.85635376e-01,
          4.43398809e+00, 5.29227436e-01, 1.10721147e+00, 1.28213036e+00,
          9.33527589e-01, 8.46124828e-01, -4.53346825e+00,
          -4.16188288e+00, 6.03981018e-01, -1.38316989e+00,
          -3.45581084e-01, 1.66374969e+00, -7.53250456e+00,
          -2.91452503e+00, 3.08604336e+00, -2.03718114e+00,
          -2.99211383e+00, 3.41765189e+00, 1.30091891e-01,
          -2.99095774e+00, -2.79078221e+00, -4.24358892e+00,
          5.01810837e+00, 1.00489569e+00, 5.65965474e-01, 1.37056291e-01,
          2.67411470e-01, -2.55832243e+00, 1.47859669e+00,
          -4.83600825e-01, -7.31540024e-01, 2.31768060e+00,
          6.81128621e-01, 1.36018658e+00, 3.91219258e+00,
          -5.39918363e-01, -2.39319444e+00, -3.00729185e-01,
          4.10788298e-01, 1.18292093e+00, 1.92220366e+00,
          -1.42012286e+00, -2.52000451e-01, 1.55910659e+00,
          1.78285971e-01, -3.87272286e+00, 1.06382132e+00,
          2.91574645e+00, -1.39755821e+00, 4.36074227e-01,
          -1.45055008e+01, 2.23714590e+00, 1.63997757e+00,
          1.74037397e+00, -1.73494816e+00, 2.41747126e-01,
          7.37903774e-01, -8.24629724e-01, 4.23348713e+00,
          -1.70573056e+00, 6.07740045e-01, 4.17064571e+00,
          -1.98544347e+00, -1.47717714e+00, -2.31801867e+00,
          2.06013966e+00, 2.31633615e+00, 2.13756490e+00, 1.17927527e+00,
          1.55314815e+00, -5.65474153e-01, 9.96665180e-01,
          -7.68766940e-01, 1.98683465e+00, -5.60068488e-01,
          3.46509457e+00, -1.70884624e-01, -3.66367865e+00,
          2.95798254e+00, 2.89083481e+00, 1.00576258e+00,
          -3.90616924e-01, -2.15475559e+00, 1.47403955e+00,
          1.51413155e+00, -3.88725114e+00, -2.04142118e+00,
          1.48239326e+00, 7.65907228e-01, 2.90364981e+00, 3.48846242e-02,
          9.59178984e-01, 1.26160467e+00, 6.70161426e-01,
          -3.42691094e-01, 2.16083956e+00, -5.72919226e+00,
          -6.14744949e+00, -2.09152508e+00, 1.32881641e+00,
          3.23782325e+00, 4.82762575e+00, 3.37697911e+00,
          -1.59274554e+00, 4.23538923e+00, -1.77571669e-01,
          9.74969119e-02, -2.34924912e+00, -3.73999417e-01,
          -1.80562842e+00, -2.39222980e+00, -5.59614658e+00,
          1.74433604e-01, 6.83583915e-01, -1.27231228e+00,
          1.16722786e+00, 2.94620490e+00, 8.47573020e-03,
          -2.19647780e-01, 1.81488967e+00, -7.36299872e-01,
          2.36029172e+00, 2.30909705e-01, -1.20033109e+00,
          3.23191786e+00, -2.59493923e+00, -1.53681052e+00,
          -8.94610286e-01, 1.42551160e+00, -1.13804650e+00,
          -2.84446144e+00, -3.99082571e-01, 1.12144697e+00,
          -1.96452558e+00, -4.35124248e-01, 1.04440999e+00,
          3.95688295e+00, 1.31262779e+00, 2.02810144e+00, 1.48222268e+00,
          -9.05946732e-01, 2.86349773e+00, -4.30684757e+00,
          -2.31850076e+00, 1.11597347e+00, 1.71994293e+00,
          3.89154363e+00, 3.86000133e+00, -4.27132368e+00,
          -1.55175991e+01, 1.02858273e-02, -1.03496420e+00,
          8.66546333e-01, 1.24497998e+00, -2.47474384e+00,
          5.46771467e-01, 2.38764501e+00, -7.62509882e-01,
          2.62019992e+00, -5.54553890e+00, 4.19098711e+00,
          -3.65580171e-01, 1.38827229e+00, 3.89841723e+00,
          2.04833388e+00, -2.26837254e+00, 1.57009506e+00,
          5.39880693e-01, -1.22177494e+00, 2.67484260e+00,
          -3.30760050e+00, -4.09924053e-02, 3.67777228e+00,
          -2.58984494e+00, 5.43446064e-01, -2.24868917e+00,
          1.61562872e+00, 2.74781609e+00, -7.22085059e-01,
          -9.60051119e-01, 1.41855073e+00, 6.83552122e+00,
          -1.51684546e+00, -3.96589220e-01, 5.97233534e-01,
          2.46006250e+00, 2.97549915e+00, 1.60827053e+00, 1.65643764e+00,
          -4.58682477e-01, -5.07689857e+00, 4.34282780e+00,
          1.78254247e+00, -4.03777361e-01, -2.77207398e+00,
          -2.43427873e+00, -5.10016298e+00, -1.39006376e+00,
          -1.26594472e+00, 2.65635324e+00, -2.70934725e+00,
          3.12424970e+00, -2.48911321e-01, 3.25790733e-01,
          -5.15573645e+00, 2.08024597e+00, -3.05182433e+00,
          2.44839716e+00, 6.47862494e-01, -9.29644763e-01,
          3.17855549e+00, 1.53648090e+00, 4.16276169e+00, 2.00456882e+00,
          1.69030607e+00, 2.52171707e+00, -3.29253101e+00,
          -1.46318650e+00, -1.23336840e+00, -4.90957832e+00,
          -3.16576421e-01, 2.87988925e+00, 4.66032076e+00,
          -1.19164646e+00, -1.75074315e+00, 1.23122013e+00,
          -3.70300189e-02, 2.54740810e+00, -2.96531677e-01,
          -1.88593018e+00, -3.12974006e-01, -2.08469915e+00,
          1.96130180e+00, 1.55447531e+00, -3.59433293e+00,
          2.36209774e+00, 3.56088948e+00, -2.09420991e+00,
          2.81700945e+00, -1.39168844e-01, -4.46870184e+00,
          1.06281720e-01, -7.86801147e+00, -1.54519367e+00,
          -2.17641234e+00, 1.88709807e+00, -1.90958440e-01,
          1.69575608e+00, -2.30297422e+00, 9.14451003e-01,
          2.07331753e+00, -5.35987258e-01, 3.30245566e+00,
          6.25017762e-01, -5.35134137e-01, -4.40124691e-01,
          -2.14120770e+00, 1.17141926e+00, 1.05231714e+00,
          1.30419636e+00, -1.38087356e+00, 7.18078554e-01,
          -4.94508266e+00, -2.71759105e+00, -6.96689665e-01,
          3.01580620e+00, 3.21259212e+00, -3.43820381e+00,
          3.81824780e+00, -2.83784389e+00, -2.89460588e+00,
          -3.14001250e+00, -7.92763412e-01, -2.70722538e-01,
          8.74239147e-01, 3.40761805e+00, -2.78542089e+00,
          9.23404098e-01, -3.32888460e+00, -1.32344162e+00,
          -1.52922261e+00, -1.26582766e+00, -2.49821767e-01,
          3.12212914e-01, -3.71234268e-01, -3.23685074e+00,
          -8.81827027e-02, 2.37951732e+00, 3.57237935e+00,
          2.24025607e+00, -1.90351081e+00, -1.61588717e+00,
          -7.08547974e+00, -2.66185474e+00, -1.50285572e-01,
          4.55189943e-01, 6.93697989e-01, -1.15973687e+00,
          2.48415923e+00, -1.25281066e-01, 3.80578369e-01,
          -1.31618512e+00, -3.27418852e+00, -2.89208698e+00,
          -2.75304969e-02, -6.55016959e-01, -1.80227757e+00,
          1.22736704e+00, 1.39349377e+00, -5.14196205e+00,
          -2.65430540e-01, 1.24184275e+00, 2.66949558e+00,
          5.64679444e-01, 3.42320776e+00, -9.50403929e-01,
          1.97650158e+00, -2.63631400e-02, -6.41215026e-01,
          -2.91946054e+00, 7.50772715e-01, -1.42772257e+00,
          -5.68366051e+00, 2.44521284e+00, -3.52098560e+00,
          1.50076643e-01, 1.21008396e+00, 6.73628747e-01, 2.90695906e-01,
          -4.64949131e+00, 3.86046243e+00, 2.30352268e-01,
          -4.63805586e-01, -3.53699811e-02, -6.42196321e+00,
          -9.05584526e+00, -2.81581521e+00, -6.26751244e-01,
          -2.77938342e+00, 2.23134971e+00, -5.58983326e-01,
          7.45643005e-02, 4.21726608e+00, 4.87619400e+00,
          -9.43565071e-01, -1.87322426e+00, -1.02704205e-01,
          3.75222826e+00, 1.48167536e-01, 5.19268870e-01,
          -1.87195230e+00, 2.71051550e+00, -2.97797036e+00,
          1.80602014e+00, 1.83830118e+00, 2.13001990e+00, 2.23179960e+00,
          -8.40322495e-01, 6.55011311e-02, -1.35684097e+00,
          1.06004190e+00, -1.27020586e+00, 3.42309403e+00,
          -6.42756510e+00, -2.72546625e+00, -2.85839415e+00,
          1.80996048e+00, 1.70260394e+00, 6.77750587e-01,
          -1.11843920e+00, 1.01956344e+00, -3.42214298e+00,
          -2.13196087e+00, -1.24389619e-01, -1.71276021e+00,
          4.06556892e+00, 1.57708240e+00, 4.15621221e-01, 1.23872852e+00,
          -8.95357704e+00, -2.45319605e+00, -1.42419565e+00,
          2.60863853e+00, -7.30381012e-01, -4.67883635e+00,
          -2.63074875e+00, 3.54529977e-01, 4.68638539e-01,
          -4.36911792e-01, 2.05872416e+00, 3.01628017e+00,
          -1.34250033e+00, -5.97338343e+00, 2.46473360e+00,
          -1.23143482e+00, 2.30652738e+00, -2.11990333e+00,
          1.46282005e+00, -1.60459173e+00, -6.03136396e+00,
          1.57723498e+00, -2.66050625e+00, -2.08738899e+00,
          -1.28532946e+00, 9.36057031e-01, -3.93416476e+00,
          -4.38713998e-01, -8.49116206e-01, 2.93145990e+00,
          1.32054436e+00, -1.93745291e+00, -2.78175449e+00,
          1.49885094e+00, 3.11444569e+00, 1.62064278e+00, 3.74209851e-01,
          -2.01743555e+00, -1.62980294e+00, -1.39843512e+00,
          8.75653684e-01, -2.63960028e+00, 3.89405632e+00,
          -6.09645271e+00, -1.07001019e+00, -9.64068353e-01,
          5.38772774e+00, -1.34447193e+00, 3.19324017e+00,
          -8.58565629e-01, 4.22640038e+00, -2.47795656e-01,
          3.34229946e+00, 6.82479668e+00, -2.86261559e+00,
          1.51626551e+00, -6.34519100e-01, -9.79686379e-01,
          -6.73651472e-02, 5.76326907e-01, -4.09996080e+00,
          -1.66082132e+00, -5.31615138e-01, 5.11624157e-01,
          -1.70370209e+00, 3.48171562e-01, -3.72314763e+00,
          -1.74343824e-01, 4.48833033e-02, 2.89283335e-01,
          -1.01651895e+00, 6.04724586e-01, 1.86116230e+00,
          1.61818039e+00, 1.50997531e+00, 2.03143692e+00,
          -2.27082705e+00, -2.85481143e+00, 4.43876696e+00,
          -3.49911356e+00, 3.86477447e+00, 2.64032388e+00,
          2.11204600e+00, -2.49760318e+00, 8.48622143e-01,
          1.21319640e+00, -7.75827408e-01, -3.03518105e+00,
          -1.43569124e+00, 1.26958883e+00, -4.09961551e-01,
          2.63923693e+00, 2.93101382e+00, -5.21799922e-01,
          -8.53599429e-01, 1.52210489e-01, 2.09759092e+00,
          -1.10532117e+00, 1.64651167e+00, -1.89527482e-01,
          2.45198941e+00, 2.47989702e+00, 1.19067085e+00, 5.21610689e+00,
          8.87789369e-01, -2.31009260e-01, 3.32888985e+00,
          -5.69827938e+00, 4.34380293e-01, 1.29240358e+00,
          -3.32736444e+00, -4.40765858e-01, -1.02827561e+00,
          3.89474177e+00, -4.42199993e+00, 2.59430647e+00,
          2.18945837e+00, 2.80676675e+00, 2.03721833e+00,
          -4.11405772e-01, 1.62207949e+00, -3.50699520e+00,
          -2.01217055e+00, 1.96411395e+00, -2.25920415e+00,
          -6.30896044e+00, 2.77389383e+00, 3.94268489e+00,
          3.23850942e+00, -9.70673621e-01, 2.99241710e+00,
          1.11666417e+00, -3.45432967e-01, 3.44601369e+00,
          -1.94203174e+00, -1.02303457e+00, -1.43237340e+00,
          2.02882934e+00, -5.85164487e-01, 1.08436739e+00,
          -3.30747199e+00, -2.01018786e+00, 3.96282434e+00,
          4.76818228e+00, -8.72651875e-01, 2.14678884e+00,
          3.28850269e+00, 1.93357277e+00, -1.28990734e+00,
          -6.09747410e-01, 1.45109129e+00, -1.03386116e+00,
          1.09494634e-01, -5.36566675e-01, 3.25336576e+00,
          1.33571875e+00, -3.85762990e-01, 1.49684238e+00,
          2.50059795e+00, -2.28998375e+00, 3.53422523e+00,
          2.37037730e+00, -2.81916571e+00, -1.84906280e+00,
          2.90635633e+00, -5.26795462e-02, -1.42314529e+00,
          1.98094201e+00, 9.24965382e-01, 7.99392045e-01,
          -1.91423905e+00, -8.90013218e-01, -1.42479205e+00,
          4.41432714e+00, 1.67441893e+00, -4.14564228e+00,
          3.53892028e-01, -5.67905426e+00, 9.19352531e-01,
          -6.41814411e-01, -4.33909750e+00, -2.20686340e+00,
          -1.25305772e+00, -5.61239064e-01, 1.27321318e-01,
          2.84661770e+00, -2.04465079e+00, -5.20714581e-01,
          4.25689101e-01, 3.42482662e+00, 1.26075935e+00, 1.19016898e+00,
          -4.73369718e-01, 1.15607345e+00, -3.96803665e+00,
          -7.72994280e-01, 2.04954839e+00, -2.66478968e+00,
          -3.45994210e+00, -3.54433393e+00, -7.24479377e-01,
          -1.99059594e+00, 4.18445259e-01, 2.62872815e+00,
          1.53568065e+00, -1.29432714e+00, -3.24635267e+00,
          -4.33744252e-01, 2.30570650e+00, -1.30745089e+00,
          1.79320383e+00, -2.33278751e-01, 2.93193817e+00,
          -1.07061720e+00, 1.36117768e+00, 3.40499967e-01,
          2.15830967e-01, 2.17972660e+00, 1.84403348e+00, 1.39250779e+00,
          1.95688713e+00, 1.97264805e-01, 1.63119447e+00, 1.32390988e+00,
          1.39450848e+00, -9.59849477e-01, -5.70092022e-01,
          6.89459622e-01, 1.69689274e+00, -9.93680716e-01,
          -1.59784663e+00, 2.84137082e+00, 1.95770001e+00,
          -3.53510809e+00, 4.18828040e-01, 2.74657041e-01,
          2.50975907e-01, 4.22573060e-01, -2.69019939e-02,
          -4.07643974e-01, -2.00644016e-01, 4.07923639e-01,
          2.99815059e+00, -6.57593906e-01, -1.93771148e+00,
          -8.84259760e-01, -1.77456760e+00, -1.37033880e+00,
          1.96031606e+00, -1.98474556e-01, -2.99839592e+00,
          -1.81581557e+00, -1.95635748e+00, 1.31073797e+00,
          9.71763551e-01, 3.82773757e+00, -8.73927021e+00,
          -1.15822017e+00, 1.61887437e-01, 3.53880703e-01,
          1.74458230e+00, 8.67155170e+00, 1.83866549e+00,
          -1.55747995e-01, 2.55941391e+00, 1.36289561e+00,
          -1.74742967e-01, 2.21601009e+00, -1.61942914e-01,
          -3.00752783e+00, -2.89691377e+00, 2.92032051e+00,
          2.69535589e+00, 1.03224564e+00, -2.46855378e+00,
          2.86903334e+00, -1.04838686e+01, -2.58641303e-01,
          7.05872357e-01, 1.61708951e+00, -4.98383850e-01,
          -1.06805313e+00, -5.88120282e-01, -6.08105659e+00,
          -2.59406638e+00, -9.39576983e-01, -1.29809007e-01,
          -1.70456305e-01, 2.40625095e+00, -6.30627036e-01,
          1.63498604e+00, -2.91545653e+00, 7.90749788e-01,
          6.10936224e-01, 2.68460512e-01, -1.91195464e+00,
          -5.28976297e+00, -1.49784088e+00, 1.57798350e+00,
          -1.21705741e-01, -4.00806665e+00, -2.93661070e+00,
          4.04810131e-01, 6.19382811e+00, -2.13488483e+00,
          8.31492901e-01, -2.01413608e+00, 1.85104787e+00,
          1.70863402e+00, -3.57127953e+00, 3.79219145e-01,
          1.96695840e+00, 3.18752813e+00, -2.39340663e+00,
          1.90030301e+00, 1.43663895e+00, 2.68736768e+00, 2.70588458e-01,
          -5.12087703e-01, 1.51689208e+00, 6.83752656e-01,
          1.90447927e+00, 1.57776606e+00, -9.04576540e-01,
          -2.13499117e+00, 1.13513410e+00, -3.23357773e+00,
          -1.59205091e+00, -2.60632539e+00, -1.40019166e+00,
          2.06827211e+00, -3.37136745e+00, 1.46770608e+00,
          -7.04038143e-01, 1.39239356e-01, -6.54092491e-01,
          -1.96890247e+00, 3.67210090e-01, -3.02932811e+00,
          -2.06015372e+00, 3.69994569e+00, -1.39869201e+00,
          4.26794767e+00, 1.99498057e+00, 1.77544177e+00,
          -4.59932327e+00, -4.26546037e-01, -1.10907269e+01,
          2.14063883e+00, 3.42834282e+00, -3.88190103e+00,
          -3.95192170e+00, 9.40221727e-01, 4.02982652e-01,
          3.31370801e-01, -1.02196240e+00, 2.07199478e+00,
          -1.59574366e+00, -5.71093678e-01, 1.82139531e-01,
          -1.29104161e+00, 1.20558691e+00, 6.52587938e+00,
          9.34505343e-01, -5.41179299e-01, 2.10896993e+00,
          5.29476881e+00, -6.35935068e-02, -1.09135199e+00,
          4.06303310e+00, 2.09111810e+00, 3.62878895e+00, 1.78168956e-02,
          -2.05150533e+00, -2.20565104e+00, 1.46946537e+00,
          2.17028213e+00, -4.47764063e+00, 2.76908064e+00,
          -2.72819734e+00, -1.83910906e+00, -3.12491727e+00,
          8.08887482e-01, 9.68887955e-02, -5.82050371e+00,
          3.39167666e+00, -3.56071591e-01, -2.16210961e+00,
          -1.96325696e+00, -2.81068659e+00, 2.25612140e+00,
          -2.39062023e+00, -3.87355757e+00, -3.29041064e-01,
          3.98630595e+00, 2.85576105e+00, 7.37627864e-01,
          -7.47288227e-01, 3.45083773e-01, 1.08763075e+00,
          5.46150386e-01, -1.58190608e+00, -3.76837164e-01,
          4.03916836e+00, 2.34885931e+00, -1.81504083e+00,
          -1.06124866e+00, -4.01391029e+00, -7.91896820e-01,
          4.09788418e+00, 2.55909371e+00, -6.97709024e-01,
          2.56789660e+00, 3.60059190e+00, 3.32924128e+00, 1.35898709e+00,
          2.93122888e+00, -1.21594405e+00, 8.43086302e-01,
          -2.12031245e+00, 3.54906964e+00, 4.80834574e-01,
          7.05737543e+00, 1.59940171e+00, 1.38026536e+00,
          -6.44444036e+00, 3.73708463e+00, 2.23032689e+00,
          -6.27940819e-02, -2.30602407e+00, -5.37842035e-01,
          -1.08204328e-01, 4.87755299e+00, 4.19557762e+00,
          -2.28228211e+00, -5.54924250e-01, 9.74152088e-01,
          2.53514141e-01, 6.03673339e-01, -5.41287422e+00,
          1.39030230e+00, 2.51454616e+00, 6.02233596e-02, 2.15463233e+00,
          1.36810935e+00, -1.04069090e+00, 1.91187978e+00,
          -4.50145388e+00, -1.59581435e+00, 3.92729282e+00,
          -5.23696579e-02, 9.71278787e-01, 3.18289971e+00,
          -3.64214033e-01, 2.15170121e+00, -6.11063540e-01,
          -1.25346899e+00, 7.89194226e-01, 4.02890015e+00,
          -3.35532188e+00, 9.39437687e-01, -7.18312120e+00,
          -4.50326157e+00, -4.40092891e-01, 8.40704381e-01,
          3.77739310e-01, 6.30126819e-02, 2.96515512e+00,
          -1.41502297e+00, 1.13725412e+00, -6.64234832e-02,
          3.23909140e+00, 2.49099255e+00, -1.87431586e+00,
          -5.70162654e-01, -1.93624389e+00, 6.23478651e+00,
          2.21712142e-01, 1.69275131e-03, 9.01529074e-01,
          -1.47810876e+00, -1.29542518e+00, 4.24839592e+00,
          1.96873736e+00, -1.42244744e+00, -5.40992856e-01,
          -7.76604295e-01, 2.73119897e-01, -2.24365544e+00,
          -2.82015395e+00, -5.01215267e+00, 5.37994325e-01,
          1.96122098e+00, 1.02085102e+00, 2.49755764e+00, 1.77614117e+00,
          -3.55864477e+00, 4.68448496e+00, 1.40012383e+00,
          -2.72717208e-01, 4.06122589e+00, -1.89899945e+00,
          -3.04663301e+00, 2.10243404e-01, 1.69964445e+00,
          -1.93525052e+00, 3.22935700e+00, -1.32784772e+00,
          1.99785233e+00, -2.55861735e+00, -1.23466754e+00,
          -3.79049969e+00, -1.97201478e+00, 1.66781199e+00,
          1.54393554e+00, 6.67243421e-01, 1.16173685e+00, 1.00527751e+00,
          -2.15695238e+00, -3.08258712e-01, 3.22075939e+00,
          8.42086613e-01, 6.64119899e-01, 2.98380971e+00,
          -7.40846574e-01, 2.40761042e+00, -6.68215528e-02,
          -3.90988135e+00, 1.03731573e+00, -2.60728240e-01,
          8.07269990e-01, 2.40024281e+00, -8.98438454e+00,
          2.93135881e+00, -1.83197153e+00, -3.42812800e+00,
          -6.17203377e-02, 2.77699304e+00, -1.18213344e+00,
          -1.18643928e+00, -1.21039951e+00, -2.79679322e+00,
          -3.38228285e-01, 2.36619329e+00, -7.91881561e-01,
          -5.26388168e-01, 1.77801287e+00, -3.18881273e-01,
          -5.47655630e+00, -2.33012462e+00, -3.79748076e-01,
          -5.31871510e+00, -6.23042703e-01, -1.08011305e+00,
          -1.33362052e-03, -1.14390850e+00, -2.05467629e+00,
          2.08705974e+00, -1.60248590e+00, -2.18568623e-01,
          -3.98689389e-01, 2.11100173e+00, -2.16592169e+00,
          -3.26609790e-01, 2.12265515e+00, 1.53670573e+00,
          -9.93833125e-01, 9.22503695e-02, 3.00007582e+00,
          6.88268840e-01, -3.60183072e+00, -8.57636154e-01,
          -6.24876070e+00, 2.37593460e+00, 1.71706533e+00,
          1.30089343e+00, -1.91978681e+00, 5.36007595e+00,
          6.68865681e-01, -8.70855153e-01, -5.43305695e-01,
          -2.60130286e+00, 1.61125755e+00, 7.23350644e-01,
          8.89288783e-01, -5.55260241e-01, 3.36211634e+00,
          3.28888559e+00, 6.29690886e-01, -4.34529495e+00,
          -1.60286474e+00, 1.11256552e+00, -4.26575005e-01,
          8.87273073e-01, 7.47173262e+00, -2.40618289e-01,
          5.10266018e+00, 7.05334783e-01, -4.71952772e+00,
          -2.33327198e+00, -3.04618001e-01, -9.16950989e+00,
          1.65786195e+00, -6.16404057e-01, -5.25304508e+00,
          -2.79908776e+00, 1.06473780e+00, 1.50951481e+00,
          1.35280526e+00, -9.37041081e-03, 1.81243896e+00,
          8.05170894e-01, -3.76833320e+00, -3.15075970e+00,
          -4.42807436e+00, -8.15746307e-01, 6.75783694e-01,
          4.60407448e+00, 3.34139538e+00, -3.35712135e-02,
          7.58380115e-01, 3.91198307e-01, 6.22818089e+00,
          -1.70423949e+00, -1.48696750e-01, -5.79255521e-01,
          -1.50715387e+00, -7.22200489e+00, -5.12226486e+00,
          -5.03557777e+00, 1.77051187e+00, -4.57887554e+00,
          -1.85714948e+00, -6.31446886e+00, -5.99363375e+00,
          8.12616765e-01, -8.27122307e+00, 4.35128641e+00,
          -1.85902730e-01, 1.95450783e-01, -8.16027701e-01,
          -1.26196146e+00, 1.34734356e+00, 2.54753923e+00,
          8.38884830e-01 ]
   uncompressed_sv_total: 148
   uncompressed_support_vectors:
      - [ 0., 0., 0., 0., 0., 0., 0., 0., 0., 0., 4.54545440e-03, 0.,
          4.54545440e-03, 0., 4.54545440e-03, 0., 0., 0., 0., 0., 0., 0.,
          0., 0., 0., 0., 0., 4.54545440e-03, 0., 0., 4.54545440e-03, 0.,
          0., 0., 0., 0., 0., 0., 0., 0., 0., 0., 0., 0., 0., 0., 0., 0.,
          0., 0., 0., 0., 0., 0., 4.54545440e-03, 0., 0., 0., 0., 0., 0.,
          0., 4.54545440e-03, 0., 0., 0., 0., 0., 0., 4.54545440e-03, 0.,
          0., 4.54545440e-03, 0., 0., 0., 0., 0., 0., 0., 0., 0.,
          4.54545440e-03, 0., 0., 0., 0., 4.54545440e-03, 0., 0., 0., 0.,
          0., 0., 0., 0., 0., 0., 0., 0., 0., 9.09090880e-03, 0., 0., 0.,
          0., 0., 0., 0., 0., 0., 0., 0., 0., 0., 0., 0., 0., 0., 0., 0.,
          9.09090880e-03, 0., 4.54545440e-03, 4.54545440e-03, 0., 0., 0.,
          0., 0., 0., 0., 0., 0., 0., 0., 0., 0., 0., 0., 0., 0., 0., 0.,
          4.54545440e-03, 0., 0., 4.54545440e-03, 0., 0., 0., 0., 0., 0.,
          0., 0., 0., 0., 0., 0., 0., 0., 0., 0., 0., 0., 0., 0., 0., 0.,
          0., 0., 0., 0., 0., 0., 0., 0., 0., 0., 0., 0., 0., 0., 0., 0.,
          0., 0., 0., 0., 0., 0., 0., 0., 0., 0., 0., 0., 0., 0., 0.,
          4.54545440e-03, 0., 0., 0., 0., 0., 4.54545440e-03, 0., 0., 0.,
          0., 0., 0., 0., 0., 4.54545440e-03, 0., 0., 0., 0., 0., 0., 0.,
          0., 0., 0., 0., 0., 0., 4.54545440e-03, 0., 0., 0., 0., 0., 0.,
          0., 0., 0., 0., 0., 0., 0., 0., 0., 0., 0., 0., 0., 0., 0., 0.,
          0., 0., 0., 0., 0., 0., 0., 0., 0., 0., 0., 0., 0., 0., 0., 0.,
          0., 0., 0., 0., 0., 0., 0., 0., 0., 0., 0., 0., 0., 0., 0., 0.,
          0., 0., 0., 0., 0., 0., 0., 0., 4.54545440e-03, 0., 0., 0., 0.,
          0., 0., 0., 0., 0., 0., 0., 0., 0., 0., 4.54545440e-03, 0., 0.,
          0., 0., 0., 0., 0., 0., 0., 0., 0., 0., 0., 0., 0., 0., 0., 0.,
          0., 4.54545440e-03, 0., 0., 0., 0., 0., 0., 0., 0., 0., 0., 0.,
          4.54545440e-03, 0., 4.54545440e-03, 0., 4.54545440e-03, 0., 0.,
          0., 0., 0., 0., 4.54545440e-03, 0., 0., 0., 4.54545440e-03, 0.,
          0., 4.54545440e-03, 0., 0., 0., 0., 0., 0., 0., 0., 0., 0., 0.,
          0., 0., 0., 0., 0., 0., 0., 0., 0., 0., 0., 0., 0., 0., 0., 0.,
          0., 0., 0., 0., 0., 0., 4.54545440e-03, 0., 0., 0., 0., 0.,
          4.54545440e-03, 0., 0., 0., 4.54545440e-03, 0., 0.,
          4.54545440e-03, 0., 0., 0., 0., 0., 0., 0., 0., 0., 0., 0., 0.,
          0., 0., 0., 0., 0., 0., 0., 4.54545440e-03, 0., 0., 0., 0., 0.,
          0., 0., 0., 4.54545440e-03, 4.54545440e-03, 0., 0., 0., 0., 0.,
          0., 0., 0., 0., 4.54545440e-03, 0., 0., 0., 0., 0., 0., 0., 0.,
          0., 0., 0., 0., 0., 0., 0., 0., 0., 0., 0., 0., 0., 0., 0., 0.,
          0., 0., 0., 0., 0., 0., 0., 0., 0., 0., 4.54545440e-03,
          4.54545440e-03, 0., 4.54545440e-03, 0., 0., 0., 0., 0., 0., 0.,
          0., 0., 0., 0., 0., 0., 0., 0., 0., 0., 0., 0., 0., 0., 0., 0.,
          0., 0., 0., 0., 0., 4.54545440e-03, 0., 0., 0., 0., 0.,
          4.54545440e-03, 0., 0., 0., 0., 0., 0., 0., 0., 0., 0., 0., 0.,
          0., 0., 0., 0., 0., 0., 0., 0., 0., 0., 4.54545440e-03, 0., 0.,
          0., 0., 0., 4.54545440e-03, 0., 9.09090880e-03, 0., 0., 0., 0.,
          4.54545440e-03, 0., 0., 0., 4.54545440e-03, 0., 0., 0., 0., 0.,
          0., 0., 0., 0., 0., 0., 0., 0., 0., 0., 0., 0., 0., 0., 0.,
          4.54545440e-03, 0., 0., 0., 0., 4.54545440e-03, 0., 0., 0., 0.,
          0., 0., 0., 0., 0., 0., 0., 0., 0., 4.54545440e-03,
          4.54545440e-03, 0., 0., 0., 4.54545440e-03, 0., 0., 0., 0., 0.,
          0., 0., 0., 4.54545440e-03, 0., 0., 0., 0., 0., 0.,
          4.54545440e-03, 0., 4.54545440e-03, 0., 0., 0., 0., 0., 0., 0.,
          0., 0., 0., 0., 0., 0., 0., 0., 0., 0., 4.54545440e-03, 0.,
          4.54545440e-03, 0., 0., 0., 0., 0., 0., 0., 0., 0., 0., 0., 0.,
          0., 0., 0., 0., 0., 0., 0., 0., 4.54545440e-03, 0., 0., 0., 0.,
          0., 0., 0., 0., 0., 0., 0., 0., 0., 0., 0., 0., 0., 0.,
          4.54545440e-03, 0., 0., 0., 0., 0., 0., 0., 0., 0., 0.,
          4.54545440e-03, 0., 0., 0., 0., 0., 0., 4.54545440e-03, 0., 0.,
          0., 0., 0., 0., 0., 0., 0., 0., 0., 0., 0., 0., 0.,
          4.54545440e-03, 0., 4.54545440e-03, 0., 0., 0., 0., 0., 0., 0.,
          0., 0., 0., 0., 0., 0., 0., 0., 0., 0., 0., 0., 4.54545440e-03,
          0., 0., 0., 0., 0., 0., 0., 0., 4.54545440e-03, 0., 0., 0., 0.,
          0., 0., 0., 0., 0., 0., 0., 0., 0., 0., 0., 0., 0., 0., 0., 0.,
          0., 0., 0., 0., 0., 0., 0., 0., 0., 0., 4.54545440e-03, 0., 0.,
          0., 0., 0., 0., 0., 0., 4.54545440e-03, 0., 0., 0., 0.,
          4.54545440e-03, 0., 0., 0., 0., 0., 0., 4.54545440e-03,
          4.54545440e-03, 0., 0., 0., 0., 0., 0., 0., 0., 0., 0., 0., 0.,
          0., 4.54545440e-03, 0., 0., 0., 0., 0., 0., 0., 0., 0., 0., 0.,
          0., 0., 0., 0., 0., 4.54545440e-03, 4.54545440e-03, 0., 0., 0.,
          0., 0., 0., 0., 0., 0., 0., 0., 0., 0., 0., 0., 0., 0., 0., 0.,
          0., 0., 0., 0., 0., 0., 0., 0., 0., 0., 0., 0., 0., 0., 0., 0.,
          0., 0., 0., 0., 0., 0., 0., 0., 0., 0., 0., 0., 0., 0., 0., 0.,
          0., 0., 4.54545440e-03, 0., 0., 0., 0., 0., 0., 0., 0., 0., 0.,
          0., 0., 0., 0., 0., 0., 0., 9.09090880e-03, 0., 0., 0., 0., 0.,
          0., 0., 4.54545440e-03, 0., 0., 0., 0., 0., 0., 0., 0., 0., 0.,
          0., 0., 0., 0., 0., 0., 0., 0., 0., 0., 0., 0., 0., 0., 0., 0.,
          0., 0., 4.54545440e-03, 9.09090880e-03, 4.54545440e-03, 0., 0.,
          0., 0., 0., 0., 0., 0., 0., 9.09090880e-03, 0., 0., 0., 0., 0.,
          0., 0., 0., 0., 0., 4.54545440e-03, 0., 0., 0., 0., 0., 0., 0.,
          0., 0., 0., 0., 0., 0., 0., 0., 0., 0., 0., 0., 0.,
          4.54545440e-03, 0., 0., 0., 0., 0., 0., 0., 0., 0., 0., 0.,
          4.54545440e-03, 4.54545440e-03, 4.54545440e-03, 0., 0., 0., 0.,
          0., 0., 0., 0., 0., 0., 0., 0., 0., 0., 0., 0., 0.,
          4.54545440e-03, 0., 0., 0., 0., 0., 0., 0., 0., 4.54545440e-03,
          0., 0., 0., 0., 0., 0., 0., 0., 4.54545440e-03, 0.,
          4.54545440e-03, 0., 0., 0., 0., 0., 0., 4.54545440e-03, 0., 0.,
          0., 0., 0., 0., 0., 4.54545440e-03, 0., 0., 0., 0., 0., 0., 0.,
          0., 0., 0., 0., 0., 0., 0., 0., 0., 0., 0., 0., 0., 0., 0.,
          4.54545440e-03, 0., 0., 0., 0., 0., 0., 0., 0., 0., 0., 0.,
          4.54545440e-03, 0., 0., 0., 0., 0., 1.36363637e-02, 0., 0., 0.,
          0., 0., 0., 0., 0., 0., 0., 0., 0., 0., 0., 0., 0., 0., 0., 0.,
          0., 0., 0., 0., 0., 0., 0., 0., 0., 0., 0., 0., 0., 0., 0., 0.,
          0., 4.54545440e-03, 0., 0., 0., 0., 0., 0., 0., 0., 0., 0., 0.,
          0., 0., 0., 0., 0., 9.09090880e-03, 0., 4.54545440e-03, 0., 0.,
          4.54545440e-03, 0., 0., 0., 0., 0., 0., 0., 0., 0.,
          4.54545440e-03, 0., 0., 0., 0., 0., 0., 0., 0., 0., 0., 0., 0.,
          0., 0., 0., 0., 0., 0., 0., 0., 0., 0., 4.54545440e-03, 0., 0.,
          0., 0., 0., 0., 0., 0., 0., 0., 0., 0., 0., 0., 0., 0., 0., 0.,
          0., 0., 0., 0., 0., 0., 0., 0., 0., 0., 0., 4.54545440e-03, 0.,
          0., 0., 0., 0., 0., 0., 0., 0., 0., 0., 0., 0., 0., 0., 0., 0.,
          0., 0., 0., 0., 0., 0., 0., 0., 0., 0., 0., 0., 0., 0., 0., 0.,
          0., 0., 4.54545440e-03, 0., 0., 0., 0., 0., 0., 0., 0., 0., 0.,
          0., 0., 0., 0., 4.54545440e-03, 0., 0., 0., 0., 0., 0., 0., 0.,
          0., 0., 0., 0., 0., 0., 0., 0., 0., 0., 4.54545440e-03, 0., 0.,
          0., 0., 0., 0., 4.54545440e-03, 0., 0., 0., 0., 0.,
          4.54545440e-03, 0., 0., 0., 0., 0., 0., 0., 0., 0., 0., 0., 0.,
          0., 0., 0., 0., 0., 0., 0., 0., 0., 4.54545440e-03, 0., 0., 0.,
          0., 0., 0., 0., 0., 0., 0., 0., 0., 0., 0., 0., 4.54545440e-03,
          0., 0., 0., 0., 0., 0., 0., 4.54545440e-03, 0., 0., 0., 0., 0.,
          0., 0., 0., 0., 0., 0., 0., 0., 0., 0., 0., 0., 4.54545440e-03,
          0., 0., 0., 4.54545440e-03, 0., 0., 0., 0., 0., 0., 0., 0., 0.,
          0., 0., 0., 0., 9.09090880e-03, 0., 0., 0., 0., 0., 0., 0., 0.,
          0., 0., 0., 0., 0., 0., 0., 0., 0., 0., 0., 4.54545440e-03, 0.,
          0., 0., 0., 0., 0., 0., 0., 0., 0., 0., 0., 0., 0., 0., 0., 0.,
          0., 0., 0., 0., 0., 0., 0., 0., 0., 0., 0., 0., 0., 0.,
          9.09090880e-03, 0., 0., 0., 4.54545440e-03, 0., 0., 0., 0., 0.,
          0., 0., 0., 4.54545440e-03, 0., 0., 0., 0., 0., 0., 0., 0., 0.,
          0., 0., 4.54545440e-03, 4.54545440e-03, 0., 0., 0., 0., 0., 0.,
          4.54545440e-03, 0., 4.54545440e-03, 0., 0., 0., 0., 0., 0., 0.,
          0., 0., 0., 0., 0., 0., 0., 0., 0., 0., 0., 0., 0., 0.,
          4.54545440e-03, 0., 0., 0., 0., 0., 0., 4.54545440e-03, 0., 0.,
          0., 0., 0., 0., 0., 0., 0., 0., 0., 0., 0., 0., 0., 0., 0., 0.,
          0., 0., 0., 0., 0., 0., 0., 0., 0., 0., 0., 0., 4.54545440e-03,
          0., 0., 0., 0., 0., 0., 0., 0., 0., 0., 0., 4.54545440e-03, 0.,
          0., 0., 0., 4.54545440e-03, 0., 4.54545440e-03, 0., 0.,
          4.54545440e-03, 0., 0., 0., 0., 0., 0., 4.54545440e-03, 0., 0.,
          0., 0., 0., 0., 0., 0., 0., 0., 0., 0., 0., 0., 0., 0.,
          4.54545440e-03, 4.54545440e-03, 0., 0., 0., 0., 0.,
          4.54545440e-03, 0., 0., 0., 0., 0., 0., 0., 0., 0., 0., 0., 0.,
          0., 0., 0., 0., 0., 0., 0., 0., 0., 0., 0., 0., 0., 0., 0., 0.,
          0., 0., 0., 0., 0., 0., 0., 0., 0., 0., 0., 0., 0., 0., 0., 0.,
          0., 4.54545440e-03, 0., 0., 0., 0., 0., 0., 0., 0., 0.,
          4.54545440e-03, 0., 0., 0., 0., 0., 0., 0., 0., 0., 0., 0., 0.,
          0., 0., 0., 0., 0., 0., 4.54545440e-03, 0., 0., 0., 0., 0., 0.,
          0., 0., 0., 0., 0., 4.54545440e-03, 0., 0., 0., 0., 0., 0., 0.,
          0., 0., 0., 0., 0., 0., 0., 0., 0., 0., 0., 0., 0., 0., 0., 0.,
          0., 0., 0., 0., 0., 0., 0., 0., 0., 0., 0., 0., 0., 0., 0., 0.,
          0., 0., 0., 0., 4.54545440e-03, 0., 0., 4.54545440e-03, 0., 0.,
          0., 0., 0., 4.54545440e-03, 0., 0., 0., 0., 0., 0., 0., 0., 0.,
          0., 0., 0., 0., 0., 0., 0., 0., 0., 9.09090880e-03, 0., 0., 0.,
          0., 0., 0., 4.54545440e-03, 0., 0., 0., 0., 0., 0., 0., 0., 0.,
          4.54545440e-03, 0., 0., 0., 4.54545440e-03, 4.54545440e-03, 0.,
          0., 0., 0., 0., 0., 0., 0., 0., 0., 0., 0., 0., 0.,
          4.54545440e-03, 0., 0., 0., 0., 0., 0., 0., 0., 4.54545440e-03,
          0., 0., 0., 0., 0., 0., 0., 0., 0., 0., 0., 4.54545440e-03, 0.,
          4.54545440e-03, 0., 0., 0., 0., 0., 0., 0., 0., 0.,
          4.54545440e-03, 4.54545440e-03, 0., 0., 0., 0., 0., 0., 0., 0.,
          0., 0., 0., 4.54545440e-03, 0., 0., 0., 0., 0., 0., 0., 0., 0.,
          0., 0., 0., 0., 0., 0., 0., 0., 0., 0., 0., 0., 0., 0., 0., 0.,
          0., 0., 0., 0., 0., 0., 0., 0., 9.09090880e-03, 0., 0., 0., 0.,
          0., 0., 0., 0., 4.54545440e-03, 0., 0., 0., 4.54545440e-03, 0.,
          0., 0., 0., 0., 0., 4.54545440e-03, 0., 0., 0., 0., 0., 0., 0.,
          0., 0., 0., 0., 0., 0., 0., 0., 0., 0., 0., 0., 0., 0., 0., 0.,
          0., 0., 0., 0., 0., 0., 0., 0., 0., 0., 0., 0., 0., 0., 0., 0.,
          0., 0., 0., 0., 4.54545440e-03, 4.54545440e-03, 0., 0.,
          4.54545440e-03, 0., 0., 0., 0., 0., 0., 0., 0., 0., 0., 0., 0.,
          0., 0., 0., 0., 0., 0., 0., 0., 0., 0., 0., 0., 4.54545440e-03,
          0., 0., 0., 0., 0., 0., 0., 0., 0., 0., 0., 0., 0., 0., 0., 0.,
          4.54545440e-03, 4.54545440e-03, 0., 4.54545440e-03,
          9.09090880e-03, 0., 0., 0., 0., 0., 0., 0., 0., 0., 0., 0., 0.,
          0., 0., 0., 0., 0., 4.54545440e-03, 0., 0., 0., 0., 0., 0., 0.,
          0., 4.54545440e-03, 0., 0., 0., 0., 0., 0., 0., 0., 0., 0., 0.,
          0., 0., 4.54545440e-03, 0., 0., 0., 0., 0., 0., 0., 0., 0., 0.,
          0., 0., 0., 0., 0., 0., 0., 0., 0., 4.54545440e-03, 0., 0., 0.,
          0., 0., 0., 0., 0., 0., 0., 0., 0., 0., 0., 4.54545440e-03, 0.,
          0., 0., 0., 0., 0., 0., 0., 0., 0., 4.54545440e-03, 0., 0., 0.,
          0., 0., 0., 0., 0., 0., 0., 0., 0., 0., 0., 0., 0., 0., 0., 0.,
          0., 0., 0., 0., 0., 0., 0., 0., 0., 0., 0., 0., 0., 0., 0., 0.,
          0., 0., 0., 0., 0., 0., 0., 0., 0., 0., 0., 0., 4.54545440e-03,
          0., 0., 0., 0., 0., 0., 4.54545440e-03, 0., 0., 0., 0., 0., 0.,
          0., 0., 0., 0., 0., 0., 0., 0., 0., 0., 0., 0., 0., 0., 0., 0.,
          0., 0., 0., 0., 0., 0., 0., 0., 0., 0., 0., 0., 0., 0., 0., 0.,
          0., 0., 0., 0., 0., 0., 0., 0., 0., 0., 0., 0., 0., 0., 0., 0.,
          0., 4.54545440e-03, 0., 0., 0., 0., 0., 0., 4.54545440e-03, 0.,
          0., 0., 0., 0., 0., 0., 0., 0., 0., 0., 0., 0., 0., 0., 0., 0.,
          0., 0., 0., 0., 4.54545440e-03, 0., 0., 0., 0., 0., 0., 0., 0.,
          0., 0., 0., 0., 0., 0., 0., 0., 0., 0., 0., 0., 0., 0., 0., 0.,
          0., 4.54545440e-03, 0., 0., 0., 0., 0., 0., 0., 0., 0., 0., 0.,
          0., 0., 0., 0., 0., 9.09090880e-03, 0., 0., 4.54545440e-03, 0.,
          0., 0., 4.54545440e-03, 0., 0., 0., 0., 0., 0., 0., 0., 0., 0.,
          0., 0., 0., 0., 0., 0., 0., 0., 0., 0., 0., 0., 0., 0., 0., 0.,
          0., 0., 0., 0., 0., 4.54545440e-03, 0., 4.54545440e-03, 0., 0.,
          0., 0., 0., 0., 0., 0., 0., 0., 0., 0., 0., 0., 0., 0., 0., 0.,
          4.54545440e-03, 0., 0., 0., 0., 0., 0., 0., 0., 0., 0., 0., 0.,
          0., 0., 0., 0., 0., 0., 0., 0., 0., 0., 0., 0., 0., 0., 0.,
          9.09090880e-03, 0., 0., 0., 0., 0., 4.54545440e-03, 0., 0., 0.,
          0., 0., 0., 0., 0., 0., 0., 0., 0., 0., 0., 0., 0., 0., 0., 0.,
          0., 0., 0., 4.54545440e-03, 0., 0., 0., 0., 0., 4.54545440e-03,
          0., 0., 0., 0., 0., 0., 0., 0., 0., 0., 0., 0., 4.54545440e-03,
          0., 0., 0., 0., 0., 0., 0., 0., 0., 4.54545440e-03, 0., 0., 0.,
          0., 4.54545440e-03, 0., 0., 0., 0., 0., 0., 0., 4.54545440e-03,
          0., 0., 0., 0., 0., 0., 0., 0., 0., 0., 0., 0., 0., 0.,
          4.54545440e-03, 0., 0., 0., 0., 0., 0., 0., 0., 0., 0., 0., 0.,
          0., 0., 0., 0., 0., 0., 0., 0., 0., 0., 0., 0., 0.,
          4.54545440e-03, 0., 0., 0., 0., 0., 0., 0., 0., 9.09090880e-03,
          0., 0., 0., 4.54545440e-03, 4.54545440e-03, 4.54545440e-03, 0.,
          4.54545440e-03, 9.09090880e-03, 0., 0., 0., 0., 0., 0., 0., 0.,
          0., 0., 4.54545440e-03, 0., 0., 0., 0., 0., 0., 0.,
          4.54545440e-03, 0., 4.54545440e-03, 0., 0., 0., 0., 0., 0., 0.,
          4.54545440e-03, 0., 0., 0., 0., 0., 0., 0., 0., 0., 0., 0., 0.,
          4.54545440e-03 ]
      - [ 0., 0., 0., 0., 0., 0., 0., 0., 0., 0., 5.20833349e-03, 0., 0.,
          0., 5.20833349e-03, 0., 0., 0., 0., 0., 0., 0., 0., 0., 0., 0.,
          0., 0., 0., 0., 0., 0., 0., 0., 0., 0., 0., 0., 0., 0., 0., 0.,
          0., 0., 0., 0., 0., 0., 0., 0., 0., 0., 5.20833349e-03, 0.,
          5.20833349e-03, 0., 0., 0., 0., 0., 0., 0., 0., 0., 0., 0., 0.,
          0., 0., 0., 0., 0., 0., 0., 0., 0., 0., 5.20833349e-03,
          5.20833349e-03, 0., 0., 0., 0., 0., 0., 0., 0., 0., 0., 0., 0.,
          0., 0., 0., 0., 0., 0., 0., 0., 0., 0., 5.20833349e-03, 0., 0.,
          0., 0., 0., 5.20833349e-03, 0., 0., 0., 0., 0., 0., 0., 0., 0.,
          0., 5.20833349e-03, 0., 0., 0., 0., 0., 0., 0., 0., 0., 0., 0.,
          0., 0., 5.20833349e-03, 0., 5.20833349e-03, 0., 0., 0., 0., 0.,
          0., 0., 0., 0., 0., 5.20833349e-03, 0., 0., 0., 0., 0., 0., 0.,
          0., 5.20833349e-03, 0., 0., 0., 0., 5.20833349e-03, 0., 0., 0.,
          0., 0., 0., 5.20833349e-03, 0., 0., 0., 0., 0., 0., 0., 0., 0.,
          0., 0., 0., 0., 0., 0., 0., 0., 0., 0., 0., 0., 0., 0., 0., 0.,
          0., 0., 0., 0., 0., 0., 0., 0., 0., 5.20833349e-03, 0., 0., 0.,
          0., 0., 0., 5.20833349e-03, 0., 0., 0., 0., 0., 0., 0., 0., 0.,
          0., 0., 0., 0., 0., 0., 0., 5.20833349e-03, 0., 0., 0., 0., 0.,
          0., 0., 0., 0., 0., 0., 0., 0., 0., 0., 0., 0., 0., 0., 0., 0.,
          0., 0., 0., 0., 0., 0., 0., 0., 0., 0., 0., 5.20833349e-03, 0.,
          0., 0., 0., 0., 0., 0., 0., 5.20833349e-03, 0., 0., 0., 0., 0.,
          0., 0., 0., 0., 0., 0., 0., 0., 0., 0., 0., 0., 0., 0., 0., 0.,
          0., 0., 0., 0., 0., 5.20833349e-03, 0., 0., 0., 0., 0., 0., 0.,
          0., 0., 0., 0., 0., 0., 0., 0., 0., 0., 0., 0., 0., 0., 0., 0.,
          0., 0., 0., 0., 0., 0., 0., 0., 0., 0., 0., 0., 0., 0., 0., 0.,
          0., 0., 0., 0., 0., 0., 0., 0., 0., 0., 5.20833349e-03, 0., 0.,
          0., 0., 0., 0., 0., 0., 0., 0., 0., 0., 0., 0., 0.,
          5.20833349e-03, 5.20833349e-03, 0., 0., 0., 5.20833349e-03, 0.,
          0., 0., 0., 0., 0., 0., 0., 0., 0., 0., 0., 5.20833349e-03, 0.,
          0., 0., 0., 0., 0., 0., 0., 0., 0., 0., 0., 0., 0., 0., 0., 0.,
          0., 0., 0., 0., 0., 0., 0., 0., 0., 5.20833349e-03, 0., 0., 0.,
          5.20833349e-03, 0., 0., 0., 5.20833349e-03, 0., 0., 0., 0., 0.,
          0., 0., 0., 0., 0., 0., 0., 0., 0., 0., 0., 0., 0., 0.,
          5.20833349e-03, 0., 0., 0., 0., 0., 0., 0., 0., 0., 0., 0., 0.,
          0., 0., 0., 0., 0., 1.04166670e-02, 0., 5.20833349e-03, 0., 0.,
          0., 0., 0., 0., 0., 0., 5.20833349e-03, 0., 0., 0., 0., 0., 0.,
          5.20833349e-03, 0., 0., 0., 0., 0., 0., 0., 0., 0., 0., 0.,
          5.20833349e-03, 0., 0., 5.20833349e-03, 0., 0., 0., 0., 0., 0.,
          0., 0., 0., 5.20833349e-03, 0., 0., 0., 0., 0., 0., 0., 0., 0.,
          0., 0., 0., 5.20833349e-03, 0., 0., 0., 0., 0., 0., 0., 0., 0.,
          0., 0., 0., 0., 5.20833349e-03, 0., 0., 0., 0., 5.20833349e-03,
          0., 0., 0., 0., 0., 0., 0., 0., 0., 0., 0., 0., 0., 0., 0., 0.,
          0., 0., 0., 0., 5.20833349e-03, 0., 0., 0., 0., 0., 0., 0., 0.,
          5.20833349e-03, 0., 0., 0., 0., 0., 0., 5.20833349e-03, 0., 0.,
          0., 0., 0., 0., 0., 0., 0., 0., 0., 0., 0., 0., 0., 0., 0., 0.,
          0., 0., 0., 0., 0., 0., 0., 0., 0., 0., 0., 0., 0., 0., 0., 0.,
          0., 0., 0., 0., 0., 0., 0., 0., 0., 0., 0., 0., 0., 0., 0.,
          5.20833349e-03, 0., 0., 0., 0., 0., 1.04166670e-02, 0., 0., 0.,
          0., 0., 0., 0., 0., 5.20833349e-03, 0., 0., 0., 0., 0.,
          5.20833349e-03, 0., 0., 0., 0., 0., 0., 0., 0., 0., 0., 0., 0.,
          0., 0., 0., 0., 0., 0., 0., 0., 0., 0., 0., 0., 0., 0., 0., 0.,
          0., 0., 0., 0., 0., 0., 0., 0., 0., 0., 0., 5.20833349e-03, 0.,
          0., 0., 5.20833349e-03, 0., 0., 0., 0., 0., 0., 0., 0., 0., 0.,
          0., 0., 0., 0., 0., 0., 0., 0., 5.20833349e-03, 0.,
          5.20833349e-03, 0., 5.20833349e-03, 0., 0., 0., 0.,
          5.20833349e-03, 5.20833349e-03, 5.20833349e-03, 0., 0., 0., 0.,
          0., 0., 0., 0., 1.04166670e-02, 0., 0., 0., 0., 0., 0., 0., 0.,
          0., 0., 0., 0., 0., 0., 0., 0., 0., 0., 0., 0., 0., 0., 0., 0.,
          0., 0., 0., 0., 0., 0., 0., 0., 0., 5.20833349e-03, 0., 0., 0.,
          0., 0., 0., 0., 0., 5.20833349e-03, 0., 0., 0., 5.20833349e-03,
          0., 0., 0., 0., 0., 0., 0., 0., 0., 0., 0., 0., 5.20833349e-03,
          0., 0., 0., 0., 0., 0., 0., 0., 0., 0., 0., 5.20833349e-03, 0.,
          0., 0., 0., 0., 0., 0., 0., 0., 0., 0., 0., 0., 0., 0., 0., 0.,
          0., 0., 0., 0., 0., 0., 0., 0., 0., 0., 0., 0., 0., 0., 0., 0.,
          0., 0., 0., 0., 0., 0., 5.20833349e-03, 0., 0., 0., 0., 0., 0.,
          0., 0., 0., 0., 5.20833349e-03, 0., 0., 0., 0., 0., 0., 0., 0.,
          0., 0., 0., 0., 0., 0., 0., 0., 0., 0., 0., 0., 0., 0., 0., 0.,
          0., 0., 0., 0., 0., 0., 0., 0., 0., 0., 0., 0., 0., 0., 0.,
          5.20833349e-03, 0., 0., 0., 0., 0., 0., 0., 0., 0., 0., 0., 0.,
          0., 0., 0., 0., 5.20833349e-03, 0., 0., 0., 0., 0., 0., 0., 0.,
          0., 0., 0., 0., 0., 0., 0., 0., 0., 0., 0., 0., 0., 0., 0., 0.,
          0., 0., 0., 1.04166670e-02, 0., 0., 0., 0., 0., 0., 0., 0., 0.,
          0., 0., 0., 0., 0., 5.20833349e-03, 0., 0., 0., 0., 0., 0., 0.,
          0., 5.20833349e-03, 0., 0., 1.04166670e-02, 0., 0., 0., 0., 0.,
          0., 0., 0., 0., 0., 5.20833349e-03, 0., 0., 0., 0., 0., 0., 0.,
          0., 5.20833349e-03, 0., 0., 0., 0., 0., 0., 0., 0., 0., 0., 0.,
          0., 0., 0., 0., 0., 0., 0., 0., 0., 0., 1.04166670e-02, 0., 0.,
          5.20833349e-03, 5.20833349e-03, 0., 0., 0., 0., 0., 0., 0., 0.,
          0., 0., 0., 0., 0., 0., 0., 0., 0., 0., 0., 0., 0., 0., 0.,
          5.20833349e-03, 0., 0., 0., 0., 0., 0., 0., 0., 0., 0.,
          5.20833349e-03, 5.20833349e-03, 0., 0., 0., 0., 0., 0., 0., 0.,
          5.20833349e-03, 0., 0., 0., 0., 0., 0., 0., 0., 0., 0., 0., 0.,
          0., 5.20833349e-03, 0., 0., 0., 0., 0., 0., 0., 5.20833349e-03,
          0., 0., 0., 0., 0., 0., 0., 0., 0., 0., 5.20833349e-03, 0., 0.,
          0., 0., 5.20833349e-03, 0., 0., 0., 0., 0., 0., 0., 0., 0., 0.,
          0., 0., 0., 5.20833349e-03, 0., 0., 0., 0., 0., 0., 0., 0., 0.,
          0., 0., 0., 0., 0., 0., 0., 0., 0., 0., 0., 0., 0.,
          1.04166670e-02, 0., 0., 0., 0., 0., 0., 0., 0., 0., 0., 0., 0.,
          0., 0., 0., 0., 0., 0., 0., 0., 0., 0., 0., 0., 0., 0., 0.,
          5.20833349e-03, 0., 0., 0., 0., 0., 0., 5.20833349e-03, 0., 0.,
          0., 0., 0., 0., 0., 5.20833349e-03, 0., 5.20833349e-03, 0., 0.,
          0., 0., 0., 0., 5.20833349e-03, 0., 0., 0., 0., 5.20833349e-03,
          0., 0., 0., 0., 0., 0., 0., 0., 1.04166670e-02, 0., 0., 0., 0.,
          0., 0., 0., 0., 5.20833349e-03, 0., 0., 0., 0., 0., 0., 0., 0.,
          5.20833349e-03, 0., 0., 0., 0., 0., 0., 0., 0., 0., 0., 0.,
          5.20833349e-03, 0., 0., 0., 0., 0., 0., 0., 0., 0., 0., 0., 0.,
          0., 0., 0., 0., 0., 0., 0., 0., 0., 0., 0., 0., 0.,
          5.20833349e-03, 0., 0., 0., 0., 0., 0., 0., 0., 5.20833349e-03,
          0., 0., 0., 0., 5.20833349e-03, 0., 0., 5.20833349e-03, 0., 0.,
          0., 0., 0., 0., 0., 0., 0., 5.20833349e-03, 0., 0., 0., 0., 0.,
          0., 0., 0., 0., 0., 0., 0., 0., 0., 0., 0., 0., 0., 0., 0., 0.,
          0., 0., 0., 5.20833349e-03, 0., 0., 0., 0., 0., 5.20833349e-03,
          0., 0., 0., 0., 0., 0., 0., 5.20833349e-03, 0., 0., 0., 0., 0.,
          0., 0., 0., 0., 5.20833349e-03, 0., 0., 0., 0., 0., 0., 0., 0.,
          0., 0., 5.20833349e-03, 0., 0., 0., 0., 0., 0., 0., 0., 0.,
          5.20833349e-03, 0., 0., 0., 0., 5.20833349e-03, 0., 0., 0.,
          5.20833349e-03, 0., 0., 0., 0., 0., 5.20833349e-03, 0., 0., 0.,
          0., 0., 0., 0., 0., 0., 0., 5.20833349e-03, 0., 0., 0., 0., 0.,
          0., 0., 0., 0., 0., 0., 0., 0., 0., 0., 0., 5.20833349e-03, 0.,
          0., 0., 0., 0., 0., 0., 0., 0., 0., 0., 0., 0., 0., 0., 0., 0.,
          0., 1.04166670e-02, 5.20833349e-03, 0., 0., 0., 5.20833349e-03,
          0., 0., 0., 0., 0., 5.20833349e-03, 0., 0., 0., 0., 0., 0., 0.,
          0., 0., 0., 0., 0., 0., 0., 0., 0., 0., 0., 0., 0., 0.,
          5.20833349e-03, 0., 0., 0., 0., 0., 0., 0., 0., 0., 0., 0., 0.,
          0., 0., 0., 0., 0., 0., 0., 0., 0., 0., 0., 0., 0., 0., 0., 0.,
          0., 0., 0., 0., 0., 0., 0., 0., 0., 0., 5.20833349e-03, 0., 0.,
          0., 0., 0., 0., 0., 0., 0., 0., 0., 0., 0., 0., 0., 0., 0., 0.,
          0., 0., 0., 0., 0., 0., 0., 0., 0., 5.20833349e-03, 0., 0., 0.,
          0., 0., 0., 0., 0., 0., 0., 0., 0., 5.20833349e-03, 0., 0., 0.,
          0., 0., 0., 0., 0., 0., 0., 0., 0., 0., 5.20833349e-03, 0., 0.,
          0., 0., 0., 0., 0., 0., 0., 0., 0., 1.04166670e-02, 0., 0., 0.,
          0., 0., 0., 0., 0., 0., 0., 0., 0., 0., 0., 0., 0., 0., 0., 0.,
          0., 0., 0., 0., 0., 0., 0., 0., 0., 0., 5.20833349e-03, 0., 0.,
          0., 0., 0., 0., 0., 0., 0., 0., 0., 0., 0., 0., 0., 0., 0., 0.,
          0., 0., 0., 0., 0., 0., 0., 0., 0., 0., 0., 0., 0., 0., 0., 0.,
          0., 0., 0., 0., 0., 0., 0., 0., 0., 0., 0., 0., 0., 0., 0., 0.,
          5.20833349e-03, 0., 0., 0., 0., 0., 1.04166670e-02, 0., 0., 0.,
          0., 0., 0., 0., 0., 0., 0., 0., 0., 0., 0., 0., 5.20833349e-03,
          0., 0., 1.04166670e-02, 0., 5.20833349e-03, 0., 0., 0., 0., 0.,
          0., 0., 0., 0., 0., 0., 0., 0., 0., 0., 0., 0., 0., 0., 0., 0.,
          0., 0., 5.20833349e-03, 0., 0., 0., 0., 0., 0., 0., 0., 0., 0.,
          0., 5.20833349e-03, 0., 0., 0., 0., 0., 0., 0., 0., 0., 0., 0.,
          0., 5.20833349e-03, 0., 0., 0., 0., 0., 0., 0., 0., 0., 0., 0.,
          0., 0., 0., 0., 0., 0., 0., 0., 0., 0., 0., 5.20833349e-03, 0.,
          5.20833349e-03, 0., 0., 0., 0., 5.20833349e-03, 0., 0., 0., 0.,
          0., 0., 0., 0., 0., 0., 0., 0., 5.20833349e-03, 0., 0., 0., 0.,
          0., 0., 5.20833349e-03, 0., 0., 0., 0., 0., 0., 0., 0., 0., 0.,
          0., 0., 0., 0., 0., 0., 0., 0., 0., 0., 0., 0., 0., 0., 0., 0.,
          0., 0., 0., 0., 0., 0., 0., 0., 0., 0., 0., 0., 0.,
          5.20833349e-03, 0., 0., 0., 0., 0., 0., 0., 0., 0., 0., 0., 0.,
          0., 0., 0., 0., 0., 5.20833349e-03, 0., 0., 0., 0., 0., 0., 0.,
          5.20833349e-03, 0., 0., 0., 0., 0., 0., 0., 0., 0., 0., 0., 0.,
          0., 0., 0., 0., 5.20833349e-03, 5.20833349e-03, 0., 0., 0., 0.,
          0., 0., 0., 0., 0., 0., 0., 0., 0., 0., 0., 0., 0., 0., 0., 0.,
          0., 0., 5.20833349e-03, 5.20833349e-03, 0., 5.20833349e-03, 0.,
          0., 0., 0., 0., 0., 0., 0., 0., 0., 0., 0., 5.20833349e-03, 0.,
          0., 0., 0., 0., 0., 0., 0., 0., 0., 0., 5.20833349e-03, 0., 0.,
          0., 0., 0., 0., 0., 0., 0., 0., 0., 5.20833349e-03, 0., 0., 0.,
          0., 0., 0., 0., 0., 0., 0., 0., 0., 0., 0., 0., 0., 0., 0., 0.,
          0., 0., 0., 0., 0., 0., 0., 0., 0., 0., 0., 0., 0., 0., 0., 0.,
          0., 0., 0., 0., 0., 0., 0., 0., 0., 0., 0., 0., 0., 0., 0., 0.,
          0., 0., 0., 0., 0., 0., 0., 0., 0., 0., 0., 0., 0., 0., 0., 0.,
          0., 0., 0., 0., 0., 0., 0., 0., 0., 0., 0., 0., 0., 0., 0., 0.,
          0., 0., 0., 0., 0., 0., 0., 0., 0., 0., 0., 0., 0., 0., 0., 0.,
          0., 0., 0., 0., 0., 0., 0., 0., 0., 0., 0., 0., 0., 0., 0., 0.,
          0., 0., 0., 0., 0., 0., 0., 0., 0., 0., 0., 0., 0., 0., 0., 0.,
          0., 5.20833349e-03, 0., 0., 0., 0., 0., 0., 0., 0., 0., 0., 0.,
          0., 0., 0., 0., 0., 0., 0., 0., 0., 0., 0., 0., 0., 0., 0., 0.,
          0., 0., 0., 0., 0., 0., 0., 0., 0., 0., 0., 0., 0., 0., 0., 0.,
          0., 0., 0., 0., 0., 0., 0., 0., 0., 0., 0., 0., 5.20833349e-03,
          0., 0., 0., 0., 0., 0., 0., 0., 5.20833349e-03, 0., 0., 0., 0.,
          0., 0., 0., 0., 0., 0., 0., 5.20833349e-03, 0., 0.,
          5.20833349e-03, 0., 0., 0., 0., 0., 0., 0., 0., 0., 0., 0., 0.,
          0., 0., 0., 0., 0., 0., 5.20833349e-03, 0., 0., 0., 0., 0., 0.,
          0., 0., 0., 0., 0., 0., 0., 0., 0., 0., 0., 0., 0., 0., 0., 0.,
          0., 0., 0., 0., 5.20833349e-03, 0., 0., 0., 0., 0.,
          5.20833349e-03, 0., 0., 0., 5.20833349e-03, 0., 0., 0., 0., 0.,
          0., 5.20833349e-03, 0., 0., 5.20833349e-03, 0., 0., 0., 0., 0.,
          0., 0., 0., 0., 0., 5.20833349e-03, 0., 0., 0., 0., 0., 0., 0.,
          0., 0., 0., 0., 0., 0., 0., 0., 0., 0., 0., 0., 5.20833349e-03,
          0., 0., 0., 0., 0., 0., 5.20833349e-03, 0., 0., 0., 0., 0., 0.,
          0., 0., 0., 0., 0., 0., 0., 0., 0., 0., 0., 0., 0., 0., 0., 0.,
          0., 0., 0., 0., 0., 0., 0., 0., 0., 0., 0., 0., 0., 0., 0., 0.,
          0., 0., 0., 0., 0., 0., 0., 0., 0., 5.20833349e-03, 0., 0., 0.,
          0., 0., 0., 0., 0., 0., 0., 0., 0., 0., 0., 0., 0., 0., 0., 0.,
          0., 0., 0., 0., 0., 0., 0., 0., 0., 5.20833349e-03, 0., 0.,
          5.20833349e-03, 0., 0., 0., 0., 0., 0., 0., 0., 0., 0., 0., 0.,
          5.20833349e-03, 0., 5.20833349e-03, 0., 0., 0., 0., 0., 0., 0.,
          0., 0., 0., 0., 0., 0., 0., 0., 0., 0., 0., 0., 0., 0., 0., 0.,
          0., 0., 0., 0., 0., 0., 0., 0., 0., 0., 0., 0., 0., 0., 0., 0.,
          0., 0., 0., 0., 0., 0., 0., 5.20833349e-03, 0., 0., 0., 0., 0.,
          0., 0., 0., 0., 0., 0., 0., 0., 0., 0., 0., 0., 0., 0., 0., 0.,
          0., 5.20833349e-03, 0., 0., 0., 0., 0., 0., 0., 0., 0., 0., 0.,
          0., 0., 0., 5.20833349e-03, 0., 0., 0., 0., 0., 0., 0., 0., 0.,
          0., 0., 0., 0., 5.20833349e-03, 5.20833349e-03, 0., 0., 0., 0.,
          0., 0., 0., 0., 0., 0., 0., 5.20833349e-03, 5.20833349e-03, 0.,
          0., 0., 0., 0., 0., 0., 5.20833349e-03, 0., 0., 0., 0.,
          5.20833349e-03, 0., 0., 0., 0., 0., 0., 0., 0., 0., 0., 0., 0.,
          0., 0., 5.20833349e-03, 0., 0., 0., 0., 5.20833349e-03, 0., 0.,
          0., 0., 5.20833349e-03, 0., 0., 0., 0., 0., 0., 0., 0., 0., 0.,
          5.20833349e-03, 0., 0., 0., 0., 0., 0., 0., 0., 0., 0., 0., 0.,
          0., 0., 0., 0., 0., 0., 0., 1.04166670e-02, 0., 0.,
          5.20833349e-03, 0., 0., 0., 0., 0., 0., 0., 0., 0., 0. ]
      - [ 0., 3.92156886e-03, 0., 0., 0., 3.92156886e-03, 0.,
          3.92156886e-03, 3.92156886e-03, 0., 0., 0., 0., 0., 0., 0., 0.,
          0., 0., 0., 3.92156886e-03, 0., 0., 0., 0., 0., 0., 0., 0.,
          3.92156886e-03, 3.92156886e-03, 0., 0., 0., 0., 0.,
          3.92156886e-03, 0., 3.92156886e-03, 0., 0., 0., 0., 0., 0., 0.,
          0., 0., 0., 0., 0., 0., 0., 0., 0., 0., 3.92156886e-03, 0., 0.,
          0., 0., 0., 0., 3.92156886e-03, 0., 0., 0., 0., 0., 0., 0., 0.,
          0., 0., 0., 0., 0., 0., 0., 0., 0., 0., 0., 0., 0., 0., 0., 0.,
          0., 0., 0., 0., 0., 0., 0., 0., 0., 0., 0., 0., 0.,
          1.17647070e-02, 0., 0., 0., 0., 0., 0., 0., 0., 0., 0., 0., 0.,
          0., 0., 0., 0., 0., 0., 0., 0., 0., 0., 0., 0., 0., 0., 0., 0.,
          0., 0., 3.92156886e-03, 0., 0., 0., 0., 0., 0., 0., 0.,
          3.92156886e-03, 0., 0., 0., 0., 0., 7.84313772e-03, 0., 0., 0.,
          0., 0., 0., 0., 0., 0., 0., 0., 0., 0., 0., 0., 0., 0., 0., 0.,
          0., 0., 0., 0., 3.92156886e-03, 0., 0., 0., 0., 0., 0., 0., 0.,
          0., 0., 0., 0., 0., 0., 0., 0., 0., 0., 0., 0., 0., 0.,
          3.92156886e-03, 0., 0., 0., 0., 0., 0., 0., 3.92156886e-03, 0.,
          0., 0., 0., 0., 0., 0., 0., 0., 0., 0., 0., 0., 0., 0., 0., 0.,
          0., 0., 0., 0., 0., 0., 0., 0., 0., 0., 0., 0., 0., 0., 0., 0.,
          0., 0., 3.92156886e-03, 0., 0., 0., 0., 0., 0., 0., 0., 0., 0.,
          0., 0., 0., 0., 0., 0., 0., 0., 0., 3.92156886e-03, 0.,
          3.92156886e-03, 0., 0., 0., 0., 0., 0., 3.92156886e-03, 0., 0.,
          0., 0., 0., 0., 0., 0., 0., 0., 0., 0., 0., 3.92156886e-03, 0.,
          0., 3.92156886e-03, 0., 0., 0., 0., 0., 0., 0., 0., 0., 0., 0.,
          0., 0., 3.92156886e-03, 0., 0., 0., 0., 0., 0., 0., 0., 0., 0.,
          0., 0., 0., 0., 0., 0., 0., 0., 0., 0., 0., 0., 0., 0., 0., 0.,
          0., 0., 0., 0., 0., 0., 0., 0., 0., 0., 0., 0., 0., 0., 0., 0.,
          0., 3.92156886e-03, 0., 0., 0., 0., 3.92156886e-03, 0., 0., 0.,
          0., 0., 0., 0., 0., 0., 0., 0., 0., 0., 0., 0., 0., 0., 0., 0.,
          0., 3.92156886e-03, 0., 0., 0., 0., 0., 3.92156886e-03, 0., 0.,
          0., 0., 0., 0., 0., 0., 0., 0., 3.92156886e-03, 0., 0., 0., 0.,
          0., 3.92156886e-03, 0., 0., 0., 0., 0., 0., 0., 3.92156886e-03,
          0., 0., 0., 0., 0., 0., 0., 0., 3.92156886e-03, 0., 0.,
          3.92156886e-03, 0., 0., 0., 0., 0., 0., 0., 0., 0., 0., 0., 0.,
          0., 0., 0., 0., 0., 1.17647070e-02, 0., 0., 3.92156886e-03, 0.,
          3.92156886e-03, 0., 0., 3.92156886e-03, 7.84313772e-03, 0., 0.,
          0., 0., 3.92156886e-03, 0., 0., 0., 0., 0., 0., 0., 0., 0., 0.,
          0., 0., 0., 3.92156886e-03, 0., 0., 0., 3.92156886e-03, 0.,
          7.84313772e-03, 0., 0., 0., 0., 0., 0., 0., 0., 0., 0., 0., 0.,
          3.92156886e-03, 0., 7.84313772e-03, 0., 3.92156886e-03, 0., 0.,
          3.92156886e-03, 0., 0., 0., 0., 0., 3.92156886e-03, 0.,
          3.92156886e-03, 0., 0., 0., 0., 0., 0., 0., 0., 0., 0., 0., 0.,
          0., 0., 0., 0., 0., 0., 0., 0., 0., 3.92156886e-03, 0., 0., 0.,
          0., 0., 0., 0., 0., 0., 0., 0., 0., 0., 0., 0., 0., 0., 0., 0.,
          0., 0., 0., 0., 0., 0., 0., 0., 0., 0., 0., 0., 0., 0., 0., 0.,
          0., 0., 0., 0., 3.92156886e-03, 7.84313772e-03, 0.,
          3.92156886e-03, 0., 0., 0., 0., 0., 0., 0., 3.92156886e-03, 0.,
          0., 0., 0., 0., 0., 0., 0., 0., 0., 0., 0., 0., 0., 0., 0., 0.,
          0., 0., 0., 0., 0., 0., 0., 0., 0., 0., 0., 3.92156886e-03, 0.,
          0., 0., 7.84313772e-03, 0., 3.92156886e-03, 0., 0., 0., 0., 0.,
          0., 0., 0., 0., 0., 0., 0., 0., 0., 0., 3.92156886e-03, 0., 0.,
          0., 0., 0., 0., 0., 0., 0., 0., 3.92156886e-03, 0., 0., 0., 0.,
          0., 0., 0., 0., 0., 0., 0., 0., 0., 3.92156886e-03, 0., 0., 0.,
          0., 0., 0., 0., 0., 0., 0., 0., 0., 0., 3.92156886e-03, 0., 0.,
          0., 0., 0., 0., 0., 0., 0., 0., 0., 0., 0., 0., 1.17647070e-02,
          0., 0., 0., 0., 0., 0., 0., 0., 0., 0., 0., 0., 0., 0.,
          3.92156886e-03, 0., 0., 0., 0., 0., 0., 0., 0., 0., 0., 0., 0.,
          0., 0., 0., 0., 0., 0., 0., 0., 0., 0., 3.92156886e-03, 0., 0.,
          0., 0., 0., 0., 0., 3.92156886e-03, 0., 0., 0., 0., 0., 0., 0.,
          0., 0., 0., 3.92156886e-03, 0., 0., 0., 0., 0., 0., 0., 0., 0.,
          0., 0., 0., 0., 0., 0., 0., 3.92156886e-03, 0., 0., 0.,
          3.92156886e-03, 0., 0., 0., 0., 7.84313772e-03, 0., 0., 0., 0.,
          0., 0., 0., 3.92156886e-03, 0., 0., 0., 0., 0., 0., 0., 0., 0.,
          0., 0., 0., 0., 0., 0., 0., 0., 0., 0., 0., 0., 0., 0., 0., 0.,
          0., 0., 0., 0., 3.92156886e-03, 0., 0., 0., 0., 0.,
          3.92156886e-03, 0., 0., 0., 0., 0., 0., 0., 0., 0., 0., 0., 0.,
          0., 0., 0., 0., 0., 0., 0., 0., 0., 0., 0., 3.92156886e-03, 0.,
          0., 3.92156886e-03, 0., 0., 0., 0., 0., 0., 0., 0., 0., 0., 0.,
          0., 0., 0., 0., 0., 0., 0., 0., 0., 0., 0., 0., 0., 0., 0., 0.,
          0., 0., 0., 0., 0., 0., 0., 3.92156886e-03, 0., 0., 0., 0., 0.,
          0., 0., 0., 0., 0., 0., 0., 3.92156886e-03, 0., 0., 0., 0., 0.,
          0., 3.92156886e-03, 0., 0., 0., 0., 3.92156886e-03, 0., 0., 0.,
          0., 0., 0., 0., 0., 0., 0., 0., 0., 0., 0., 0., 0., 0., 0., 0.,
          0., 0., 0., 0., 0., 0., 0., 0., 0., 0., 0., 0., 0., 0., 0.,
          3.92156886e-03, 0., 0., 0., 3.92156886e-03, 0., 0., 0., 0., 0.,
          0., 0., 0., 3.92156886e-03, 0., 0., 0., 0., 0., 0., 0., 0., 0.,
          3.92156886e-03, 0., 0., 0., 0., 0., 0., 0., 0., 0., 0., 0., 0.,
          0., 0., 0., 0., 0., 0., 0., 0., 0., 0., 0., 0., 0., 0.,
          3.92156886e-03, 0., 0., 3.92156886e-03, 3.92156886e-03, 0., 0.,
          0., 0., 0., 0., 0., 0., 0., 0., 0., 0., 0., 0., 0., 0., 0., 0.,
          0., 0., 0., 0., 0., 0., 0., 0., 0., 0., 0., 0., 0., 0., 0., 0.,
          0., 0., 0., 0., 0., 0., 0., 0., 0., 0., 0., 3.92156886e-03, 0.,
          0., 0., 0., 0., 3.92156886e-03, 0., 0., 0., 0., 0., 0., 0., 0.,
          7.84313772e-03, 0., 0., 0., 0., 0., 0., 0., 0., 0., 0., 0., 0.,
          0., 0., 0., 0., 0., 0., 3.92156886e-03, 0., 0., 0., 0.,
          3.92156886e-03, 0., 0., 0., 0., 0., 0., 0., 0., 0.,
          3.92156886e-03, 0., 0., 0., 0., 0., 3.92156886e-03, 0.,
          3.92156886e-03, 0., 0., 0., 0., 0., 0., 0., 0., 0., 0., 0., 0.,
          0., 0., 0., 0., 0., 0., 0., 0., 0., 0., 0., 0., 0., 0., 0., 0.,
          0., 0., 0., 0., 0., 0., 0., 0., 0., 0., 0., 0., 0., 0., 0., 0.,
          0., 0., 0., 0., 0., 0., 0., 0., 0., 0., 0., 0., 3.92156886e-03,
          0., 0., 0., 0., 0., 0., 0., 0., 0., 0., 0., 0., 0., 0., 0., 0.,
          0., 0., 0., 0., 0., 0., 0., 3.92156886e-03, 0., 0., 0., 0., 0.,
          0., 0., 0., 0., 0., 0., 0., 0., 0., 3.92156886e-03, 0., 0., 0.,
          0., 0., 0., 0., 0., 0., 0., 0., 0., 0., 0., 0., 0., 0.,
          3.92156886e-03, 0., 0., 0., 0., 0., 7.84313772e-03, 0., 0., 0.,
          0., 0., 0., 0., 0., 0., 0., 0., 3.92156886e-03, 0., 0., 0., 0.,
          0., 0., 3.92156886e-03, 0., 0., 0., 3.92156886e-03, 0., 0., 0.,
          0., 0., 0., 0., 0., 0., 0., 0., 0., 0., 0., 3.92156886e-03, 0.,
          0., 0., 0., 0., 0., 0., 0., 0., 0., 0., 0., 0., 0., 0., 0., 0.,
          3.92156886e-03, 0., 0., 0., 0., 0., 0., 0., 0., 0., 0., 0.,
          3.92156886e-03, 3.92156886e-03, 0., 3.92156886e-03, 0.,
          3.92156886e-03, 7.84313772e-03, 0., 0., 0., 0., 0., 0., 0., 0.,
          0., 0., 0., 0., 0., 0., 3.92156886e-03, 0., 0., 0., 0., 0.,
          3.92156886e-03, 0., 0., 0., 0., 0., 0., 0., 0., 0., 0., 0., 0.,
          0., 0., 0., 3.92156886e-03, 0., 0., 0., 0., 7.84313772e-03, 0.,
          0., 0., 0., 0., 3.92156886e-03, 0., 0., 0., 0., 0., 0., 0.,
          3.92156886e-03, 0., 0., 0., 0., 3.92156886e-03, 0., 0., 0., 0.,
          0., 0., 0., 0., 0., 0., 0., 3.92156886e-03, 0., 0., 0., 0., 0.,
          0., 0., 3.92156886e-03, 0., 3.92156886e-03, 0., 0., 0., 0., 0.,
          0., 0., 0., 0., 0., 0., 0., 0., 0., 0., 0., 0., 0., 0., 0., 0.,
          0., 0., 0., 0., 0., 0., 0., 0., 0., 0., 0., 0., 0., 0.,
          3.92156886e-03, 0., 0., 0., 0., 0., 0., 0., 0., 0., 0., 0., 0.,
          0., 0., 0., 0., 0., 0., 0., 0., 0., 0., 0., 0., 0., 0., 0., 0.,
          0., 3.92156886e-03, 0., 0., 0., 0., 0., 0., 0., 0., 0., 0., 0.,
          0., 3.92156886e-03, 0., 0., 3.92156886e-03, 0., 0., 0., 0., 0.,
          0., 3.92156886e-03, 3.92156886e-03, 0., 0., 0., 0., 0., 0., 0.,
          0., 0., 3.92156886e-03, 0., 0., 0., 3.92156886e-03, 0., 0., 0.,
          0., 0., 0., 0., 0., 0., 0., 0., 0., 0., 0., 0., 0., 0.,
          3.92156886e-03, 0., 0., 3.92156886e-03, 0., 0., 0.,
          3.92156886e-03, 3.92156886e-03, 3.92156886e-03, 0., 0., 0., 0.,
          0., 0., 0., 0., 0., 0., 0., 3.92156886e-03, 0., 3.92156886e-03,
          0., 0., 0., 0., 0., 0., 0., 0., 0., 0., 0., 0., 0., 0., 0., 0.,
          0., 0., 0., 0., 0., 0., 0., 0., 0., 0., 0., 0., 3.92156886e-03,
          0., 0., 0., 3.92156886e-03, 0., 0., 3.92156886e-03, 0., 0., 0.,
          0., 0., 0., 0., 0., 0., 0., 3.92156886e-03, 0., 0., 0., 0., 0.,
          0., 0., 0., 0., 0., 0., 0., 0., 0., 0., 0., 3.92156886e-03, 0.,
          0., 0., 0., 0., 0., 0., 0., 3.92156886e-03, 0., 0., 0., 0., 0.,
          0., 0., 0., 3.92156886e-03, 0., 0., 0., 0., 0., 0., 0., 0., 0.,
          0., 0., 0., 0., 0., 3.92156886e-03, 0., 3.92156886e-03, 0., 0.,
          0., 0., 0., 0., 0., 0., 0., 0., 0., 0., 3.92156886e-03, 0., 0.,
          0., 0., 0., 0., 0., 0., 0., 0., 0., 0., 0., 0., 0.,
          3.92156886e-03, 3.92156886e-03, 0., 0., 0., 0., 0.,
          3.92156886e-03, 7.84313772e-03, 0., 3.92156886e-03, 0., 0., 0.,
          0., 0., 0., 0., 3.92156886e-03, 0., 0., 3.92156886e-03, 0., 0.,
          0., 0., 0., 0., 0., 0., 0., 0., 0., 0., 0., 0., 0., 0., 0., 0.,
          0., 0., 0., 0., 0., 0., 0., 0., 7.84313772e-03, 0., 0., 0., 0.,
          0., 0., 0., 0., 0., 0., 0., 0., 0., 0., 0., 0., 0., 0., 0., 0.,
          0., 0., 0., 0., 0., 0., 0., 0., 0., 0., 0., 0., 0., 0., 0.,
          3.92156886e-03, 0., 0., 0., 0., 0., 0., 0., 0., 0.,
          3.92156886e-03, 0., 0., 0., 3.92156886e-03, 0., 0., 0., 0., 0.,
          0., 0., 0., 0., 0., 0., 0., 7.84313772e-03, 3.92156886e-03, 0.,
          0., 0., 0., 0., 0., 0., 0., 0., 0., 3.92156886e-03, 0., 0., 0.,
          0., 0., 0., 3.92156886e-03, 0., 0., 0., 0., 0., 0., 0., 0., 0.,
          0., 0., 0., 0., 0., 0., 0., 0., 0., 0., 0., 0., 0., 0.,
          3.92156886e-03, 0., 0., 0., 0., 0., 0., 0., 0., 0., 0., 0., 0.,
          0., 0., 0., 0., 3.92156886e-03, 0., 0., 0., 0., 0., 0., 0., 0.,
          0., 0., 0., 0., 0., 7.84313772e-03, 3.92156886e-03, 0., 0., 0.,
          0., 0., 0., 0., 0., 0., 0., 3.92156886e-03, 0., 0., 0., 0., 0.,
          0., 0., 0., 0., 0., 0., 0., 0., 0., 0., 0., 0., 0., 0., 0., 0.,
          0., 0., 0., 0., 0., 0., 0., 0., 0., 3.92156886e-03, 0.,
          3.92156886e-03, 0., 0., 0., 0., 0., 0., 0., 0., 0., 0., 0., 0.,
          3.92156886e-03, 0., 0., 0., 0., 0., 3.92156886e-03, 0.,
          7.84313772e-03, 0., 0., 0., 0., 0., 0., 0., 0., 0., 0., 0., 0.,
          0., 0., 0., 0., 0., 0., 0., 0., 0., 0., 0., 0., 0., 0., 0., 0.,
          0., 0., 0., 3.92156886e-03, 0., 0., 0., 0., 0., 0., 0., 0., 0.,
          0., 0., 0., 0., 3.92156886e-03, 0., 0., 3.92156886e-03,
          3.92156886e-03, 0., 0., 0., 0., 0., 0., 0., 0., 0., 0., 0.,
          3.92156886e-03, 0., 0., 0., 0., 0., 0., 0., 0., 0., 0., 0., 0.,
          0., 0., 0., 0., 0., 0., 0., 0., 0., 1.17647070e-02, 0., 0., 0.,
          3.92156886e-03, 0., 0., 0., 0., 0., 3.92156886e-03, 0., 0., 0.,
          0., 0., 0., 0., 0., 3.92156886e-03, 3.92156886e-03, 0., 0., 0.,
          0., 3.92156886e-03, 0., 0., 0., 0., 0., 0., 0., 0., 0., 0., 0.,
          0., 0., 0., 3.92156886e-03, 0., 0., 0., 3.92156886e-03, 0., 0.,
          0., 0., 0., 0., 0., 0., 0., 7.84313772e-03, 0., 0., 0., 0., 0.,
          0., 0., 0., 0., 0., 0., 0., 0., 0., 0., 0., 0., 0., 0., 0.,
          3.92156886e-03, 0., 0., 0., 0., 0., 3.92156886e-03, 0., 0., 0.,
          0., 0., 0., 0., 0., 0., 0., 0., 0., 0., 0., 0., 0., 0., 0., 0.,
          0., 0., 0., 0., 0., 0., 0., 0., 0., 0., 0., 0., 0., 0., 0., 0.,
          0., 0., 0., 0., 0., 0., 0., 0., 0., 0., 0., 3.92156886e-03, 0.,
          0., 3.92156886e-03, 0., 0., 0., 0., 0., 0., 0., 0., 0., 0., 0.,
          0., 0., 0., 7.84313772e-03, 0., 0., 0., 0., 0., 0., 0.,
          3.92156886e-03, 0., 0., 0., 0., 0., 0., 0., 0., 0., 0., 0., 0.,
          0., 3.92156886e-03, 0., 0., 0., 0., 0., 0., 0., 0., 0., 0., 0.,
          0., 0., 0., 0., 3.92156886e-03, 0., 0., 0., 0., 0., 0.,
          3.92156886e-03, 0., 0., 0., 3.92156886e-03, 0., 0., 0., 0., 0.,
          0., 0., 0., 0., 3.92156886e-03, 0., 0., 0., 0., 0.,
          3.92156886e-03, 0., 0., 0., 0., 0., 0., 0., 0., 0., 0., 0.,
          3.92156886e-03, 0., 0., 0., 0., 0., 0., 0., 7.84313772e-03, 0.,
          0., 7.84313772e-03, 0., 0., 0., 0., 0., 3.92156886e-03, 0., 0.,
          0., 0., 0., 0., 0., 0., 0., 3.92156886e-03, 0., 3.92156886e-03,
          0., 0., 0., 0., 0., 0., 0., 0., 0., 3.92156886e-03,
          3.92156886e-03, 0., 0., 0., 0., 0., 0., 0., 0., 0., 0., 0., 0.,
          0., 0., 0., 3.92156886e-03, 0., 0., 0., 0., 0., 0., 0.,
          3.92156886e-03, 0., 0., 0., 0., 0., 3.92156886e-03, 0., 0.,
          3.92156886e-03, 0., 0., 0., 0., 0., 0., 0., 0., 0., 0., 0., 0.,
          0., 0., 0., 0., 0., 0., 0., 0., 0., 3.92156886e-03, 0., 0., 0.,
          0., 0., 0., 0., 0., 0., 0., 3.92156886e-03, 0., 0., 0., 0., 0.,
          0., 0., 0., 0., 0., 0., 0., 0., 0., 0., 0., 0., 0., 0., 0., 0.,
          0., 0., 0., 0., 0., 3.92156886e-03, 0., 0., 0., 0.,
          3.92156886e-03, 0., 0., 0., 0., 0., 0., 0., 0., 0., 0.,
          3.92156886e-03, 0., 0., 3.92156886e-03, 0., 0., 0., 0., 0.,
          3.92156886e-03, 0., 0., 0., 3.92156886e-03, 3.92156886e-03, 0.,
          0., 0., 0., 3.92156886e-03, 0., 0., 0., 0., 0., 0., 0., 0., 0.,
          0., 0., 0., 0., 0., 0., 0., 0., 0., 0., 0., 0., 0.,
          3.92156886e-03, 0., 0., 0., 0., 0., 0., 0., 3.92156886e-03, 0.,
          0., 0., 0., 0., 0., 0., 3.92156886e-03, 0., 0., 0., 0., 0., 0.,
          0., 0., 0., 0., 0., 0., 0., 0., 0., 0., 0., 0., 0., 0., 0., 0.,
          0., 3.92156886e-03, 0., 0., 0., 0., 0., 0., 0., 0., 0., 0., 0.,
          0., 0., 0., 0., 0., 0., 0., 0., 0., 0., 0., 0., 0.,
          3.92156886e-03, 0., 0., 0., 0., 0., 0., 0., 0., 3.92156886e-03,
          0., 0., 0., 0., 0., 0., 3.92156886e-03, 0., 0., 0.,
          3.92156886e-03, 0., 0., 0., 0., 0., 0., 0., 0., 0., 0., 0., 0.,
          0., 0., 0., 0., 0., 0., 0., 0., 0., 0., 0., 0., 0., 0., 0., 0.,
          0., 3.92156886e-03, 0., 0., 0., 0., 3.92156886e-03,
          3.92156886e-03, 0., 0., 0., 0. ]
      - [ 0., 0., 0., 0., 0., 0., 0., 0., 0., 0., 0., 0., 0., 0., 0., 0.,
          0., 0., 0., 0., 0., 0., 0., 0., 0., 0., 0., 0., 0., 0., 0., 0.,
          0., 0., 0., 0., 0., 0., 0., 4.67289705e-03, 0., 0., 0., 0., 0.,
          0., 0., 0., 0., 0., 0., 0., 0., 0., 0., 0., 0., 0., 0., 0., 0.,
          0., 0., 0., 0., 4.67289705e-03, 0., 0., 0., 0., 0., 0., 0., 0.,
          0., 0., 0., 0., 0., 0., 0., 0., 0., 0., 0., 0., 0., 0., 0., 0.,
          0., 0., 0., 0., 0., 0., 0., 0., 0., 0., 0., 1.40186911e-02, 0.,
          0., 0., 0., 0., 0., 0., 0., 0., 4.67289705e-03, 0., 0., 0., 0.,
          0., 0., 0., 0., 0., 0., 4.67289705e-03, 0., 0., 0., 0., 0., 0.,
          0., 0., 0., 0., 0., 0., 0., 0., 0., 0., 0., 0., 0., 0., 0., 0.,
          0., 0., 0., 0., 0., 0., 0., 0., 0., 4.67289705e-03, 0., 0., 0.,
          0., 0., 0., 0., 0., 0., 0., 0., 0., 0., 0., 0., 0., 0., 0., 0.,
          0., 0., 0., 0., 0., 0., 0., 4.67289705e-03, 0., 0., 0.,
          4.67289705e-03, 0., 0., 0., 0., 0., 0., 0., 0., 4.67289705e-03,
          4.67289705e-03, 0., 0., 0., 0., 0., 4.67289705e-03,
          4.67289705e-03, 0., 0., 0., 0., 0., 0., 0., 0., 0., 0., 0., 0.,
          0., 0., 4.67289705e-03, 0., 0., 0., 0., 0., 0., 0., 0.,
          4.67289705e-03, 0., 0., 0., 0., 0., 0., 0., 0., 0., 0., 0., 0.,
          0., 0., 0., 4.67289705e-03, 0., 0., 0., 0., 0., 0., 0., 0., 0.,
          0., 0., 4.67289705e-03, 0., 0., 0., 9.34579410e-03, 0.,
          4.67289705e-03, 0., 0., 0., 0., 0., 0., 0., 0., 0., 0., 0., 0.,
          4.67289705e-03, 0., 0., 0., 0., 0., 0., 0., 0., 0., 0., 0., 0.,
          0., 0., 0., 0., 0., 0., 9.34579410e-03, 0., 0., 0., 0., 0., 0.,
          0., 0., 4.67289705e-03, 4.67289705e-03, 0., 0., 0., 0., 0., 0.,
          0., 0., 0., 0., 0., 0., 0., 0., 0., 0., 0., 0., 0., 0., 0., 0.,
          0., 0., 0., 0., 0., 0., 0., 0., 0., 0., 0., 0., 0., 0., 0., 0.,
          0., 4.67289705e-03, 0., 0., 0., 0., 0., 0., 0., 0., 0., 0., 0.,
          0., 0., 0., 0., 0., 0., 0., 0., 0., 0., 4.67289705e-03, 0., 0.,
          0., 4.67289705e-03, 0., 0., 0., 0., 0., 0., 0., 0., 0., 0., 0.,
          0., 4.67289705e-03, 0., 0., 0., 0., 0., 0., 0., 0., 0., 0., 0.,
          0., 0., 0., 0., 0., 0., 0., 0., 4.67289705e-03, 0., 0., 0., 0.,
          0., 0., 0., 4.67289705e-03, 0., 0., 0., 0., 0., 4.67289705e-03,
          0., 0., 0., 0., 0., 4.67289705e-03, 0., 0., 0., 0., 0., 0., 0.,
          0., 0., 0., 0., 0., 0., 0., 0., 0., 0., 0., 0., 0., 0., 0., 0.,
          0., 0., 0., 4.67289705e-03, 0., 0., 0., 4.67289705e-03, 0., 0.,
          4.67289705e-03, 0., 0., 0., 4.67289705e-03, 0., 0., 0., 0., 0.,
          0., 0., 0., 0., 0., 0., 0., 0., 0., 0., 0., 0., 0., 0., 0., 0.,
          0., 0., 0., 0., 0., 0., 0., 0., 0., 0., 0., 0., 0., 0., 0., 0.,
          0., 0., 0., 0., 0., 4.67289705e-03, 0., 0., 0., 0.,
          4.67289705e-03, 0., 0., 0., 0., 0., 0., 0., 0., 0., 0., 0., 0.,
          0., 0., 0., 0., 0., 0., 4.67289705e-03, 0., 4.67289705e-03, 0.,
          0., 0., 0., 0., 0., 0., 0., 0., 0., 0., 0., 0., 0., 0., 0., 0.,
          0., 0., 0., 0., 0., 0., 0., 0., 0., 0., 0., 0., 0., 0., 0., 0.,
          0., 0., 0., 0., 0., 0., 0., 0., 0., 0., 0., 0., 0., 0.,
          4.67289705e-03, 0., 0., 0., 0., 0., 0., 0., 0., 4.67289705e-03,
          0., 0., 0., 0., 0., 0., 0., 0., 0., 0., 0., 0., 4.67289705e-03,
          4.67289705e-03, 4.67289705e-03, 0., 0., 0., 0., 0., 0., 0., 0.,
          0., 0., 0., 0., 0., 0., 4.67289705e-03, 0., 0., 0., 0., 0., 0.,
          0., 0., 0., 0., 0., 0., 0., 0., 0., 0., 0., 0., 0., 0., 0., 0.,
          0., 0., 4.67289705e-03, 0., 0., 0., 0., 0., 0., 0., 0.,
          4.67289705e-03, 0., 0., 0., 0., 4.67289705e-03, 0., 0., 0., 0.,
          0., 0., 0., 0., 0., 0., 0., 0., 0., 0., 4.67289705e-03, 0.,
          4.67289705e-03, 0., 0., 0., 0., 0., 0., 0., 0., 0.,
          4.67289705e-03, 4.67289705e-03, 0., 0., 4.67289705e-03, 0., 0.,
          0., 0., 0., 0., 4.67289705e-03, 0., 0., 0., 0., 4.67289705e-03,
          0., 0., 0., 0., 0., 0., 0., 0., 0., 0., 0., 0., 0., 0., 0., 0.,
          0., 0., 0., 0., 0., 4.67289705e-03, 0., 0., 0., 0., 0., 0., 0.,
          0., 0., 0., 0., 0., 4.67289705e-03, 0., 0., 0., 0., 0.,
          4.67289705e-03, 0., 0., 0., 0., 0., 0., 0., 4.67289705e-03, 0.,
          0., 0., 0., 0., 0., 0., 0., 0., 0., 0., 9.34579410e-03, 0., 0.,
          0., 0., 0., 0., 0., 0., 0., 0., 0., 0., 0., 0., 0., 0., 0., 0.,
          0., 0., 0., 0., 0., 0., 0., 0., 0., 4.67289705e-03, 0., 0.,
          4.67289705e-03, 4.67289705e-03, 0., 0., 0., 0., 1.40186911e-02,
          4.67289705e-03, 4.67289705e-03, 0., 0., 0., 0., 0., 0., 0., 0.,
          0., 0., 0., 4.67289705e-03, 0., 0., 0., 0., 0., 0., 0., 0., 0.,
          0., 0., 0., 0., 0., 4.67289705e-03, 0., 0., 0., 0., 0., 0., 0.,
          0., 0., 0., 0., 0., 0., 0., 0., 0., 0., 0., 0., 0., 0., 0., 0.,
          4.67289705e-03, 0., 0., 0., 0., 0., 0., 0., 0., 0., 0.,
          4.67289705e-03, 0., 0., 0., 4.67289705e-03, 0., 0., 0., 0., 0.,
          0., 0., 0., 0., 0., 0., 0., 0., 0., 4.67289705e-03, 0., 0., 0.,
          0., 0., 0., 0., 0., 4.67289705e-03, 0., 0., 0., 4.67289705e-03,
          0., 0., 0., 0., 0., 0., 0., 0., 0., 0., 0., 0., 0., 0., 0., 0.,
          4.67289705e-03, 0., 0., 0., 0., 4.67289705e-03, 0., 0., 0., 0.,
          4.67289705e-03, 0., 0., 0., 9.34579410e-03, 0., 0., 0., 0., 0.,
          0., 0., 0., 0., 0., 0., 0., 0., 0., 0., 0., 0., 0.,
          4.67289705e-03, 0., 4.67289705e-03, 0., 0., 0., 0., 0., 0., 0.,
          0., 0., 0., 0., 0., 0., 0., 0., 0., 0., 0., 0., 0., 0., 0., 0.,
          0., 4.67289705e-03, 9.34579410e-03, 0., 4.67289705e-03,
          4.67289705e-03, 0., 0., 0., 0., 0., 0., 0., 0., 0., 0., 0., 0.,
          0., 4.67289705e-03, 0., 0., 0., 0., 4.67289705e-03, 0., 0., 0.,
          0., 0., 0., 0., 0., 0., 0., 0., 0., 0., 0., 0., 0., 0., 0., 0.,
          0., 0., 0., 4.67289705e-03, 0., 0., 4.67289705e-03, 0., 0., 0.,
          0., 0., 0., 0., 0., 0., 0., 0., 0., 0., 0., 0., 0., 0., 0., 0.,
          0., 0., 0., 0., 0., 0., 0., 0., 0., 0., 0., 0., 0., 0., 0., 0.,
          0., 0., 0., 0., 0., 0., 0., 0., 0., 0., 0., 0., 0., 0., 0., 0.,
          0., 0., 0., 0., 0., 4.67289705e-03, 0., 0., 0., 0., 0., 0., 0.,
          0., 0., 0., 0., 0., 0., 0., 0., 0., 0., 0., 0., 4.67289705e-03,
          0., 0., 4.67289705e-03, 0., 0., 0., 0., 0., 0., 0., 0., 0., 0.,
          0., 0., 0., 0., 0., 0., 0., 0., 4.67289705e-03, 0., 0., 0., 0.,
          0., 0., 0., 0., 0., 0., 0., 0., 0., 0., 0., 0., 0., 0., 0., 0.,
          0., 0., 0., 0., 0., 0., 0., 0., 0., 0., 0., 0., 0., 0., 0., 0.,
          0., 0., 0., 0., 0., 0., 0., 0., 4.67289705e-03, 0., 0., 0., 0.,
          0., 0., 0., 0., 0., 0., 0., 0., 0., 0., 0., 4.67289705e-03, 0.,
          0., 0., 0., 0., 0., 0., 0., 0., 0., 0., 0., 4.67289705e-03, 0.,
          4.67289705e-03, 0., 0., 4.67289705e-03, 4.67289705e-03, 0., 0.,
