%YAML:1.0
---
opencv_ml_svm:
   format: 3
   svmType: C_SVC
   kernel:
      type: CHI2
      gamma: 5.0625000000000009e-01
   C: 2.5000000000000000e+00
   term_criteria: { iterations:100 }
   var_count: 250
   class_count: 2
   class_labels: !!opencv-matrix
      rows: 2
      cols: 1
      dt: i
      data: [ 0, 1 ]
   sv_total: 146
   support_vectors:
      - [ 0., 9.09090880e-03, 9.09090880e-03, 0., 4.54545440e-03,
          9.09090880e-03, 0., 0., 0., 0., 4.54545440e-03, 9.09090880e-03,
          0., 0., 4.54545440e-03, 4.54545440e-03, 0., 4.54545440e-03,
          4.54545440e-03, 4.54545440e-03, 4.54545440e-03, 4.54545440e-03,
          4.54545440e-03, 4.54545440e-03, 0., 4.54545440e-03,
          1.36363637e-02, 0., 0., 9.09090880e-03, 4.54545440e-03, 0.,
          1.36363637e-02, 0., 9.09090880e-03, 0., 9.09090880e-03, 0.,
          4.54545440e-03, 0., 0., 0., 1.81818176e-02, 4.54545440e-03, 0.,
          0., 4.54545440e-03, 0., 0., 9.09090880e-03, 4.54545440e-03, 0.,
          0., 4.54545440e-03, 0., 0., 9.09090880e-03, 4.54545440e-03,
          9.09090880e-03, 0., 9.09090880e-03, 4.54545440e-03, 0., 0.,
          9.09090880e-03, 4.54545440e-03, 4.54545440e-03, 4.54545440e-03,
          0., 4.54545440e-03, 9.09090880e-03, 0., 4.54545440e-03,
          4.54545440e-03, 4.54545440e-03, 4.54545440e-03, 0.,
          4.54545440e-03, 4.54545440e-03, 0., 0., 0., 0., 0.,
          4.54545440e-03, 1.81818176e-02, 0., 4.54545440e-03, 0.,
          4.54545440e-03, 4.54545440e-03, 0., 0., 4.54545440e-03,
          9.09090880e-03, 0., 0., 4.54545440e-03, 4.54545440e-03, 0.,
          9.09090880e-03, 0., 0., 0., 9.09090880e-03, 9.09090880e-03, 0.,
          0., 0., 9.09090880e-03, 0., 0., 0., 0., 9.09090880e-03,
          4.54545440e-03, 0., 4.54545440e-03, 0., 0., 4.54545440e-03,
          9.09090880e-03, 4.54545440e-03, 4.54545440e-03, 1.36363637e-02,
          9.09090880e-03, 9.09090880e-03, 0., 1.81818176e-02, 0.,
          9.09090880e-03, 9.09090880e-03, 0., 0., 9.09090880e-03,
          2.72727273e-02, 0., 9.09090880e-03, 0., 0., 1.36363637e-02,
          9.09090880e-03, 0., 0., 0., 0., 9.09090880e-03, 0., 0., 0.,
          9.09090880e-03, 4.54545440e-03, 0., 4.54545440e-03,
          1.81818176e-02, 0., 0., 0., 9.09090880e-03, 4.54545440e-03,
          4.54545440e-03, 1.36363637e-02, 0., 4.54545440e-03, 0.,
          9.09090880e-03, 0., 9.09090880e-03, 4.54545440e-03, 0., 0.,
          1.81818176e-02, 0., 0., 4.54545440e-03, 0., 4.54545440e-03,
          4.54545440e-03, 0., 0., 0., 4.54545440e-03, 4.54545440e-03, 0.,
          4.54545440e-03, 1.36363637e-02, 0., 0., 0., 0., 0.,
          1.81818176e-02, 9.09090880e-03, 0., 4.54545440e-03,
          2.27272715e-02, 0., 4.54545440e-03, 0., 4.54545440e-03,
          4.54545440e-03, 9.09090880e-03, 9.09090880e-03, 0., 0., 0.,
          4.54545440e-03, 0., 4.54545440e-03, 0., 9.09090880e-03, 0.,
          4.54545440e-03, 4.54545440e-03, 4.54545440e-03, 4.54545440e-03,
          0., 4.54545440e-03, 9.09090880e-03, 0., 4.54545440e-03,
          9.09090880e-03, 0., 4.54545440e-03, 9.09090880e-03,
          4.54545440e-03, 9.09090880e-03, 4.54545440e-03, 0., 0.,
          9.09090880e-03, 4.54545440e-03, 4.54545440e-03, 0.,
          1.36363637e-02, 0., 9.09090880e-03, 0., 0., 4.54545440e-03, 0.,
          0., 0., 0., 0., 4.54545440e-03, 9.09090880e-03, 4.54545440e-03,
          4.54545440e-03, 1.36363637e-02 ]
      - [ 0., 6.36942685e-03, 6.36942685e-03, 6.36942685e-03, 0., 0., 0.,
          0., 0., 1.27388537e-02, 0., 1.27388537e-02, 6.36942685e-03, 0.,
          0., 0., 0., 0., 0., 6.36942685e-03, 0., 0., 0., 0.,
          1.91082805e-02, 2.54777074e-02, 0., 6.36942685e-03,
          6.36942685e-03, 0., 0., 6.36942685e-03, 0., 0., 0.,
          6.36942685e-03, 6.36942685e-03, 0., 6.36942685e-03, 0.,
          6.36942685e-03, 6.36942685e-03, 1.27388537e-02, 0., 0.,
          6.36942685e-03, 0., 0., 6.36942685e-03, 6.36942685e-03, 0., 0.,
          0., 6.36942685e-03, 0., 0., 0., 0., 6.36942685e-03,
          6.36942685e-03, 1.27388537e-02, 0., 0., 6.36942685e-03,
          6.36942685e-03, 3.18471342e-02, 0., 6.36942685e-03,
          6.36942685e-03, 6.36942685e-03, 0., 0., 0., 0., 0., 0., 0., 0.,
          3.82165611e-02, 0., 6.36942685e-03, 6.36942685e-03, 0.,
          6.36942685e-03, 0., 0., 0., 6.36942685e-03, 0., 0.,
          1.27388537e-02, 1.91082805e-02, 0., 0., 6.36942685e-03, 0.,
          1.27388537e-02, 6.36942685e-03, 0., 0., 1.91082805e-02, 0., 0.,
          0., 2.54777074e-02, 0., 0., 0., 0., 6.36942685e-03, 0., 0.,
          6.36942685e-03, 6.36942685e-03, 0., 6.36942685e-03,
          6.36942685e-03, 0., 1.27388537e-02, 6.36942685e-03, 0.,
          6.36942685e-03, 6.36942685e-03, 1.91082805e-02, 6.36942685e-03,
          1.27388537e-02, 6.36942685e-03, 0., 0., 0., 6.36942685e-03,
          6.36942685e-03, 0., 0., 0., 6.36942685e-03, 6.36942685e-03, 0.,
          0., 0., 6.36942685e-03, 6.36942685e-03, 0., 0., 0.,
          6.36942685e-03, 1.91082805e-02, 0., 0., 0., 1.91082805e-02, 0.,
          0., 0., 0., 6.36942685e-03, 0., 0., 6.36942685e-03, 0., 0.,
          6.36942685e-03, 0., 6.36942685e-03, 0., 0., 0., 6.36942685e-03,
          0., 6.36942685e-03, 0., 1.27388537e-02, 0., 0., 0., 0.,
          1.27388537e-02, 0., 0., 0., 0., 0., 1.27388537e-02, 0., 0., 0.,
          0., 0., 0., 1.27388537e-02, 0., 0., 0., 0., 0., 6.36942685e-03,
          0., 6.36942685e-03, 0., 0., 6.36942685e-03, 1.27388537e-02, 0.,
          6.36942685e-03, 0., 1.27388537e-02, 0., 0., 1.27388537e-02, 0.,
          0., 0., 6.36942685e-03, 0., 0., 0., 6.36942685e-03,
          6.36942685e-03, 1.27388537e-02, 0., 0., 0., 1.91082805e-02, 0.,
          1.91082805e-02, 2.54777074e-02, 0., 0., 1.27388537e-02,
          1.91082805e-02, 0., 0., 0., 0., 6.36942685e-03, 0.,
          3.18471342e-02, 6.36942685e-03, 6.36942685e-03, 0., 0.,
          6.36942685e-03, 0., 0., 0., 0., 0., 6.36942685e-03, 0.,
          1.91082805e-02 ]
      - [ 5.43478271e-03, 1.08695654e-02, 5.43478271e-03, 0.,
          5.43478271e-03, 5.43478271e-03, 0., 0., 5.43478271e-03, 0., 0.,
          1.63043477e-02, 0., 0., 0., 0., 2.17391308e-02, 5.43478271e-03,
          5.43478271e-03, 0., 0., 5.43478271e-03, 5.43478271e-03, 0., 0.,
          5.43478271e-03, 0., 0., 5.43478271e-03, 0., 0., 5.43478271e-03,
          5.43478271e-03, 5.43478271e-03, 5.43478271e-03, 0., 0., 0.,
          5.43478271e-03, 5.43478271e-03, 0., 1.08695654e-02,
          1.08695654e-02, 1.08695654e-02, 0., 1.63043477e-02,
          5.43478271e-03, 0., 0., 0., 5.43478271e-03, 0., 5.43478271e-03,
          0., 0., 1.63043477e-02, 2.17391308e-02, 0., 2.17391308e-02,
          1.08695654e-02, 0., 5.43478271e-03, 1.63043477e-02,
          5.43478271e-03, 1.63043477e-02, 2.17391308e-02, 1.08695654e-02,
          2.17391308e-02, 0., 0., 5.43478271e-03, 1.08695654e-02, 0., 0.,
          1.08695654e-02, 0., 1.08695654e-02, 0., 1.08695654e-02, 0.,
          1.63043477e-02, 5.43478271e-03, 0., 5.43478271e-03,
          1.08695654e-02, 5.43478271e-03, 0., 0., 0., 5.43478271e-03, 0.,
          5.43478271e-03, 0., 0., 0., 0., 5.43478271e-03, 5.43478271e-03,
          5.43478271e-03, 0., 1.08695654e-02, 5.43478271e-03, 0., 0.,
          5.43478271e-03, 5.43478271e-03, 0., 0., 1.08695654e-02, 0.,
          5.43478271e-03, 5.43478271e-03, 0., 0., 5.43478271e-03,
          5.43478271e-03, 0., 0., 0., 5.43478271e-03, 5.43478271e-03,
          5.43478271e-03, 0., 5.43478271e-03, 1.08695654e-02, 0., 0., 0.,
          1.08695654e-02, 0., 0., 0., 0., 0., 0., 0., 0., 5.43478271e-03,
          5.43478271e-03, 5.43478271e-03, 0., 0., 0., 0., 0.,
          1.08695654e-02, 0., 0., 0., 5.43478271e-03, 5.43478271e-03, 0.,
          0., 0., 0., 1.63043477e-02, 0., 0., 5.43478271e-03, 0., 0., 0.,
          5.43478271e-03, 0., 1.08695654e-02, 0., 0., 5.43478271e-03, 0.,
          0., 0., 1.08695654e-02, 5.43478271e-03, 0., 5.43478271e-03, 0.,
          0., 1.08695654e-02, 5.43478271e-03, 0., 5.43478271e-03,
          5.43478271e-03, 5.43478271e-03, 0., 5.43478271e-03,
          1.08695654e-02, 1.63043477e-02, 1.08695654e-02, 0., 0., 0.,
          5.43478271e-03, 0., 0., 5.43478271e-03, 5.43478271e-03, 0.,
          5.43478271e-03, 0., 0., 1.08695654e-02, 0., 0., 1.08695654e-02,
          0., 0., 0., 0., 5.43478271e-03, 5.43478271e-03, 0., 0.,
          1.08695654e-02, 5.43478271e-03, 0., 5.43478271e-03,
          1.08695654e-02, 0., 1.08695654e-02, 5.43478271e-03, 0., 0., 0.,
          5.43478271e-03, 0., 1.08695654e-02, 5.43478271e-03, 0., 0.,
          5.43478271e-03, 0., 5.43478271e-03, 1.08695654e-02, 0., 0.,
          5.43478271e-03, 1.08695654e-02, 5.43478271e-03, 0.,
          5.43478271e-03, 5.43478271e-03, 0., 0., 0., 1.63043477e-02,
          5.43478271e-03, 0., 5.43478271e-03, 5.43478271e-03,
          1.08695654e-02 ]
      - [ 0., 6.36942685e-03, 1.27388537e-02, 0., 6.36942685e-03, 0., 0.,
          6.36942685e-03, 0., 6.36942685e-03, 6.36942685e-03,
          2.54777074e-02, 0., 0., 0., 0., 6.36942685e-03, 6.36942685e-03,
          1.91082805e-02, 0., 6.36942685e-03, 0., 0., 6.36942685e-03,
          6.36942685e-03, 1.91082805e-02, 0., 0., 6.36942685e-03, 0., 0.,
          0., 6.36942685e-03, 0., 0., 0., 6.36942685e-03, 0., 0.,
          6.36942685e-03, 0., 0., 6.36942685e-03, 6.36942685e-03, 0., 0.,
          0., 0., 1.27388537e-02, 6.36942685e-03, 0., 0., 6.36942685e-03,
          0., 6.36942685e-03, 1.91082805e-02, 1.27388537e-02, 0., 0., 0.,
          0., 0., 6.36942685e-03, 1.27388537e-02, 0., 4.45859879e-02,
          1.91082805e-02, 6.36942685e-03, 6.36942685e-03, 0., 0., 0.,
          6.36942685e-03, 0., 6.36942685e-03, 0., 1.27388537e-02, 0., 0.,
          0., 1.91082805e-02, 0., 0., 0., 1.27388537e-02, 0., 0., 0., 0.,
          6.36942685e-03, 0., 6.36942685e-03, 0., 0., 0., 0.,
          1.27388537e-02, 1.27388537e-02, 6.36942685e-03, 2.54777074e-02,
          1.27388537e-02, 6.36942685e-03, 0., 0., 6.36942685e-03,
          2.54777074e-02, 0., 0., 0., 6.36942685e-03, 0., 0., 0., 0., 0.,
          0., 0., 0., 1.27388537e-02, 0., 6.36942685e-03, 1.27388537e-02,
          0., 0., 6.36942685e-03, 0., 0., 0., 6.36942685e-03, 0., 0.,
          6.36942685e-03, 0., 0., 6.36942685e-03, 2.54777074e-02, 0.,
          6.36942685e-03, 0., 0., 0., 6.36942685e-03, 0., 0.,
          6.36942685e-03, 1.27388537e-02, 0., 0., 0., 0., 1.91082805e-02,
          0., 0., 0., 6.36942685e-03, 1.27388537e-02, 0., 0., 0., 0., 0.,
          0., 1.27388537e-02, 6.36942685e-03, 0., 0., 0., 0.,
          1.27388537e-02, 0., 0., 0., 0., 6.36942685e-03, 6.36942685e-03,
          0., 6.36942685e-03, 0., 0., 6.36942685e-03, 0., 6.36942685e-03,
          0., 0., 0., 6.36942685e-03, 6.36942685e-03, 0., 1.27388537e-02,
          0., 6.36942685e-03, 0., 6.36942685e-03, 0., 6.36942685e-03, 0.,
          6.36942685e-03, 1.27388537e-02, 0., 0., 6.36942685e-03, 0., 0.,
          1.27388537e-02, 1.27388537e-02, 0., 0., 0., 0., 0., 0., 0.,
          1.27388537e-02, 1.91082805e-02, 6.36942685e-03, 0., 0.,
          6.36942685e-03, 0., 6.36942685e-03, 6.36942685e-03, 0., 0.,
          6.36942685e-03, 0., 1.91082805e-02, 0., 0., 3.18471342e-02, 0.,
          6.36942685e-03, 0., 0., 0., 0., 0., 6.36942685e-03, 0., 0.,
          6.36942685e-03, 0., 0., 0., 0., 1.27388537e-02, 0.,
          1.27388537e-02, 6.36942685e-03, 0., 0. ]
      - [ 0., 2.22222228e-02, 0., 0., 0., 1.11111114e-02, 0.,
          5.55555569e-03, 0., 5.55555569e-03, 0., 1.66666675e-02, 0.,
          5.55555569e-03, 5.55555569e-03, 5.55555569e-03, 5.55555569e-03,
          0., 0., 0., 0., 0., 5.55555569e-03, 5.55555569e-03, 0.,
          1.11111114e-02, 0., 0., 5.55555569e-03, 0., 0., 0., 0.,
          5.55555569e-03, 0., 5.55555569e-03, 0., 0., 1.11111114e-02, 0.,
          0., 5.55555569e-03, 5.55555569e-03, 0., 0., 0., 0.,
          5.55555569e-03, 5.55555569e-03, 5.55555569e-03, 0.,
          5.55555569e-03, 0., 5.55555569e-03, 0., 0., 0., 0.,
          5.55555569e-03, 0., 0., 0., 5.55555569e-03, 0., 2.77777780e-02,
          4.44444455e-02, 1.11111114e-02, 0., 5.55555569e-03,
          5.55555569e-03, 0., 5.55555569e-03, 5.55555569e-03,
          5.55555569e-03, 1.66666675e-02, 0., 5.55555569e-03,
          5.55555569e-03, 0., 0., 5.55555569e-03, 0., 0., 0.,
          5.55555569e-03, 5.55555569e-03, 1.11111114e-02, 0., 0.,
          5.55555569e-03, 5.55555569e-03, 5.55555569e-03, 0., 0.,
          5.55555569e-03, 5.55555569e-03, 5.55555569e-03, 2.77777780e-02,
          0., 0., 5.55555569e-03, 0., 5.55555569e-03, 5.55555569e-03,
          2.77777780e-02, 0., 5.55555569e-03, 0., 5.55555569e-03, 0.,
          5.55555569e-03, 0., 0., 0., 5.55555569e-03, 5.55555569e-03, 0.,
          0., 1.11111114e-02, 0., 0., 0., 0., 5.55555569e-03, 0.,
          1.66666675e-02, 5.55555569e-03, 1.66666675e-02, 1.11111114e-02,
          0., 5.55555569e-03, 0., 0., 5.55555569e-03, 0., 1.11111114e-02,
          0., 0., 0., 0., 5.55555569e-03, 2.22222228e-02, 0., 0., 0., 0.,
          5.55555569e-03, 0., 0., 5.55555569e-03, 6.66666701e-02, 0., 0.,
          5.55555569e-03, 5.55555569e-03, 1.66666675e-02, 0., 0.,
          5.55555569e-03, 1.66666675e-02, 0., 0., 0., 0., 0.,
          1.11111114e-02, 0., 1.11111114e-02, 0., 0., 0., 1.66666675e-02,
          5.55555569e-03, 0., 0., 0., 5.55555569e-03, 0., 0., 0., 0., 0.,
          0., 0., 5.55555569e-03, 1.66666675e-02, 0., 0., 0., 0.,
          5.55555569e-03, 0., 0., 0., 0., 5.55555569e-03, 5.55555569e-03,
          5.55555569e-03, 5.55555569e-03, 0., 0., 5.55555569e-03, 0., 0.,
          0., 5.55555569e-03, 5.55555569e-03, 1.11111114e-02,
          1.11111114e-02, 5.55555569e-03, 0., 0., 0., 0., 0., 0., 0., 0.,
          5.55555569e-03, 1.11111114e-02, 0., 5.55555569e-03,
          1.11111114e-02, 5.55555569e-03, 5.55555569e-03, 1.11111114e-02,
          0., 0., 5.55555569e-03, 0., 5.55555569e-03, 1.11111114e-02,
          5.55555569e-03, 5.55555569e-03, 5.55555569e-03, 0.,
          1.11111114e-02, 0., 5.55555569e-03, 0., 0., 5.55555569e-03, 0.,
          1.11111114e-02, 0., 0., 0., 0., 0., 0. ]
      - [ 5.52486209e-03, 1.10497242e-02, 5.52486209e-03, 0., 0.,
          2.20994484e-02, 0., 5.52486209e-03, 5.52486209e-03, 0., 0.,
          1.10497242e-02, 0., 0., 0., 0., 0., 0., 5.52486209e-03,
          5.52486209e-03, 5.52486209e-03, 0., 1.10497242e-02,
          5.52486209e-03, 5.52486209e-03, 5.52486209e-03, 0., 0., 0.,
          5.52486209e-03, 5.52486209e-03, 5.52486209e-03, 5.52486209e-03,
          0., 1.65745858e-02, 0., 0., 0., 1.10497242e-02, 0., 0., 0.,
          1.10497242e-02, 1.10497242e-02, 5.52486209e-03, 5.52486209e-03,
          0., 0., 5.52486209e-03, 0., 0., 1.10497242e-02, 0., 0.,
          5.52486209e-03, 1.10497242e-02, 5.52486209e-03, 0.,
          5.52486209e-03, 0., 0., 0., 0., 0., 0., 3.31491716e-02, 0., 0.,
          1.65745858e-02, 0., 0., 5.52486209e-03, 0., 1.10497242e-02,
          5.52486209e-03, 1.10497242e-02, 5.52486209e-03, 0.,
          1.10497242e-02, 0., 0., 1.65745858e-02, 0., 0., 5.52486209e-03,
          5.52486209e-03, 5.52486209e-03, 0., 5.52486209e-03, 0., 0.,
          1.65745858e-02, 5.52486209e-03, 0., 0., 5.52486209e-03,
          5.52486209e-03, 1.10497242e-02, 0., 0., 0., 5.52486209e-03, 0.,
          5.52486209e-03, 1.10497242e-02, 0., 5.52486209e-03, 0.,
          1.10497242e-02, 0., 5.52486209e-03, 5.52486209e-03, 0., 0., 0.,
          5.52486209e-03, 1.10497242e-02, 0., 1.10497242e-02,
          1.10497242e-02, 0., 0., 5.52486209e-03, 0., 0., 0., 0.,
          5.52486209e-03, 1.65745858e-02, 0., 0., 0., 5.52486209e-03,
          5.52486209e-03, 0., 1.10497242e-02, 0., 1.10497242e-02,
          1.10497242e-02, 0., 5.52486209e-03, 1.10497242e-02,
          5.52486209e-03, 0., 0., 0., 0., 0., 0., 1.10497242e-02,
          3.86740342e-02, 1.10497242e-02, 0., 0., 0., 2.20994484e-02, 0.,
          0., 0., 5.52486209e-03, 0., 0., 5.52486209e-03, 0., 0., 0., 0.,
          1.10497242e-02, 0., 5.52486209e-03, 0., 2.76243109e-02, 0.,
          5.52486209e-03, 0., 1.10497242e-02, 5.52486209e-03, 0., 0., 0.,
          0., 5.52486209e-03, 0., 0., 5.52486209e-03, 0., 0., 0.,
          5.52486209e-03, 1.10497242e-02, 0., 1.10497242e-02,
          5.52486209e-03, 5.52486209e-03, 0., 0., 0., 0., 1.65745858e-02,
          0., 5.52486209e-03, 1.10497242e-02, 5.52486209e-03, 0., 0.,
          5.52486209e-03, 0., 5.52486209e-03, 0., 1.65745858e-02,
          1.10497242e-02, 0., 5.52486209e-03, 0., 0., 0., 0., 0., 0., 0.,
          5.52486209e-03, 5.52486209e-03, 0., 5.52486209e-03,
          1.65745858e-02, 0., 5.52486209e-03, 2.20994484e-02, 0.,
          1.10497242e-02, 5.52486209e-03, 0., 0., 0., 0., 0.,
          5.52486209e-03, 0., 1.65745858e-02, 0., 0., 0., 0., 0., 0., 0.,
          0., 5.52486209e-03, 0., 0. ]
      - [ 7.33496342e-03, 4.88997577e-03, 1.22249397e-02, 4.88997577e-03,
          0., 1.46699268e-02, 4.88997577e-03, 0., 4.88997577e-03,
          4.88997577e-03, 4.88997577e-03, 4.88997577e-03, 0.,
          4.88997577e-03, 1.22249397e-02, 0., 9.77995154e-03,
          4.88997577e-03, 9.77995154e-03, 4.88997577e-03, 2.44498788e-03,
          4.88997577e-03, 2.44498788e-03, 7.33496342e-03, 2.44498788e-03,
          4.88997577e-03, 2.44498788e-03, 2.44498788e-03, 7.33496342e-03,
          2.44498788e-03, 7.33496342e-03, 7.33496342e-03, 1.46699268e-02,
          0., 1.46699268e-02, 2.44498788e-03, 4.88997577e-03, 0.,
          2.44498788e-03, 4.88997577e-03, 4.88997577e-03, 1.22249397e-02,
          4.88997577e-03, 2.44498788e-03, 2.44498788e-03, 0.,
          4.88997577e-03, 2.44498788e-03, 0., 2.44498788e-03,
          4.88997577e-03, 7.33496342e-03, 2.44498788e-03, 4.88997577e-03,
          4.88997577e-03, 4.88997577e-03, 0., 2.44498788e-03,
          9.77995154e-03, 4.88997577e-03, 2.44498788e-03, 4.88997577e-03,
          7.33496342e-03, 2.44498788e-03, 2.44498788e-03, 7.33496342e-03,
          9.77995154e-03, 0., 4.88997577e-03, 4.88997577e-03,
          1.22249397e-02, 0., 4.88997577e-03, 4.88997577e-03, 0.,
          7.33496342e-03, 2.44498788e-03, 9.77995154e-03, 7.33496342e-03,
          0., 4.88997577e-03, 7.33496342e-03, 2.44498788e-03, 0.,
          2.44498788e-03, 2.44498788e-03, 2.44498788e-03, 2.44498788e-03,
          0., 9.77995154e-03, 4.88997577e-03, 0., 0., 0., 4.88997577e-03,
          0., 7.33496342e-03, 4.88997577e-03, 4.88997577e-03,
          9.77995154e-03, 2.44498788e-03, 0., 0., 0., 2.44498788e-03,
          2.44498788e-03, 0., 2.44498788e-03, 4.88997577e-03,
          7.33496342e-03, 2.44498788e-03, 9.77995154e-03, 2.44498788e-03,
          7.33496342e-03, 7.33496342e-03, 0., 0., 0., 4.88997577e-03,
          2.44498788e-03, 2.44498788e-03, 2.44498788e-03, 0.,
          2.44498788e-03, 2.44498788e-03, 4.88997577e-03, 4.88997577e-03,
          2.44498788e-03, 0., 0., 4.88997577e-03, 0., 0., 4.88997577e-03,
          0., 2.44498788e-03, 4.88997577e-03, 4.88997577e-03,
          9.77995154e-03, 2.44498788e-03, 0., 2.44498788e-03,
          4.88997577e-03, 4.88997577e-03, 9.77995154e-03, 1.22249397e-02,
          0., 4.88997577e-03, 4.88997577e-03, 7.33496342e-03,
          4.88997577e-03, 2.44498788e-03, 2.44498788e-03, 0.,
          9.77995154e-03, 2.44498788e-03, 2.44498788e-03, 0.,
          2.44498788e-03, 2.44498788e-03, 7.33496342e-03, 2.44498788e-03,
          4.88997577e-03, 2.44498788e-03, 4.88997577e-03, 2.44498788e-03,
          2.44498788e-03, 2.44498788e-03, 0., 2.44498788e-03, 0., 0.,
          4.88997577e-03, 0., 2.44498788e-03, 0., 4.88997577e-03, 0.,
          4.88997577e-03, 2.44498788e-03, 7.33496342e-03, 2.44498788e-03,
          7.33496342e-03, 2.44498788e-03, 4.88997577e-03, 1.71149150e-02,
          2.44498788e-03, 7.33496342e-03, 4.88997577e-03, 0., 0.,
          2.44498788e-03, 4.88997577e-03, 0., 0., 0., 4.88997577e-03,
          2.44498788e-03, 2.44498788e-03, 2.44498788e-03, 4.88997577e-03,
          4.88997577e-03, 2.44498788e-03, 4.88997577e-03, 2.44498788e-03,
          4.88997577e-03, 0., 2.44498788e-03, 2.44498788e-03,
          4.88997577e-03, 4.88997577e-03, 0., 2.44498788e-03,
          4.88997577e-03, 4.88997577e-03, 2.44498788e-03, 4.88997577e-03,
          4.88997577e-03, 1.46699268e-02, 0., 7.33496342e-03,
          4.88997577e-03, 4.88997577e-03, 7.33496342e-03, 2.44498788e-03,
          2.44498788e-03, 0., 2.44498788e-03, 0., 7.33496342e-03, 0.,
          7.33496342e-03, 7.33496342e-03, 2.44498788e-03, 7.33496342e-03,
          0., 7.33496342e-03, 2.44498788e-03, 9.77995154e-03,
          4.88997577e-03, 2.44498788e-03, 7.33496342e-03, 0.,
          4.88997577e-03, 4.88997577e-03, 2.44498788e-03, 1.46699268e-02,
          7.33496342e-03, 4.88997577e-03, 0. ]
      - [ 0., 1.58730168e-02, 1.19047631e-02, 0., 0., 3.96825420e-03,
          3.96825420e-03, 1.19047631e-02, 0., 3.96825420e-03,
          3.96825420e-03, 0., 0., 3.96825420e-03, 0., 3.96825420e-03, 0.,
          0., 0., 0., 1.19047631e-02, 1.19047631e-02, 0., 7.93650839e-03,
          3.96825420e-03, 0., 1.58730168e-02, 3.96825420e-03,
          3.96825420e-03, 3.96825420e-03, 3.96825420e-03, 7.93650839e-03,
          7.93650839e-03, 3.96825420e-03, 3.96825420e-03, 7.93650839e-03,
          3.96825420e-03, 0., 3.96825420e-03, 0., 0., 0., 0., 0., 0., 0.,
          3.96825420e-03, 3.96825420e-03, 3.96825420e-03, 0.,
          3.96825420e-03, 0., 7.93650839e-03, 7.93650839e-03,
          3.96825420e-03, 3.96825420e-03, 7.93650839e-03, 0.,
          1.19047631e-02, 1.19047631e-02, 0., 1.58730168e-02,
          7.93650839e-03, 0., 1.19047631e-02, 1.58730168e-02, 0.,
          3.96825420e-03, 1.58730168e-02, 3.96825420e-03, 0.,
          3.96825420e-03, 7.93650839e-03, 0., 0., 0., 0., 7.93650839e-03,
          0., 0., 0., 3.96825420e-03, 0., 1.98412705e-02, 0.,
          1.19047631e-02, 3.96825420e-03, 1.19047631e-02, 3.96825420e-03,
          1.58730168e-02, 0., 3.96825420e-03, 0., 3.96825420e-03,
          7.93650839e-03, 0., 3.96825420e-03, 3.96825420e-03,
          3.96825420e-03, 1.58730168e-02, 3.96825420e-03, 3.96825420e-03,
          0., 7.93650839e-03, 7.93650839e-03, 3.96825420e-03,
          3.96825420e-03, 7.93650839e-03, 0., 0., 7.93650839e-03,
          3.96825420e-03, 0., 1.19047631e-02, 3.96825420e-03, 0., 0.,
          3.96825420e-03, 3.96825420e-03, 1.58730168e-02, 0., 0., 0.,
          3.96825420e-03, 0., 0., 0., 3.96825420e-03, 7.93650839e-03, 0.,
          3.96825420e-03, 0., 0., 3.96825420e-03, 0., 0., 0., 0.,
          3.96825420e-03, 7.93650839e-03, 3.96825420e-03, 3.96825420e-03,
          3.96825420e-03, 0., 7.93650839e-03, 0., 3.96825420e-03,
          3.96825420e-03, 3.96825420e-03, 0., 0., 0., 0., 3.96825420e-03,
          3.96825420e-03, 3.96825420e-03, 0., 0., 0., 3.96825420e-03, 0.,
          0., 7.93650839e-03, 0., 3.96825420e-03, 7.93650839e-03,
          3.96825420e-03, 0., 0., 3.96825420e-03, 7.93650839e-03, 0.,
          7.93650839e-03, 0., 0., 1.58730168e-02, 3.96825420e-03,
          1.58730168e-02, 3.96825420e-03, 7.93650839e-03, 3.96825420e-03,
          0., 0., 0., 3.96825420e-03, 7.93650839e-03, 7.93650839e-03,
          3.96825420e-03, 0., 0., 3.96825420e-03, 3.96825420e-03,
          3.96825420e-03, 7.93650839e-03, 0., 0., 0., 0., 0.,
          3.96825420e-03, 7.93650839e-03, 0., 3.96825420e-03,
          3.96825420e-03, 7.93650839e-03, 1.19047631e-02, 1.58730168e-02,
          3.96825420e-03, 0., 7.93650839e-03, 3.96825420e-03,
          3.96825420e-03, 0., 3.96825420e-03, 3.96825420e-03,
          3.96825420e-03, 3.96825420e-03, 7.93650839e-03, 3.96825420e-03,
          7.93650839e-03, 3.96825420e-03, 3.96825420e-03, 7.93650839e-03,
          7.93650839e-03, 0., 3.96825420e-03, 0., 7.93650839e-03,
          3.96825420e-03, 0., 0., 0., 0., 0., 3.96825420e-03,
          3.96825420e-03, 3.96825420e-03, 3.96825420e-03, 0.,
          3.96825420e-03, 3.96825420e-03, 0., 7.93650839e-03,
          7.93650839e-03, 3.96825420e-03, 3.96825420e-03, 7.93650839e-03,
          1.98412705e-02, 7.93650839e-03, 0. ]
      - [ 4.76190494e-03, 1.42857153e-02, 4.76190494e-03, 9.52380989e-03,
          0., 4.76190494e-03, 0., 9.52380989e-03, 0., 4.76190494e-03, 0.,
          0., 9.52380989e-03, 9.52380989e-03, 4.76190494e-03,
          4.76190494e-03, 9.52380989e-03, 4.76190494e-03, 3.80952395e-02,
          4.76190494e-03, 4.76190494e-03, 0., 4.76190494e-03, 0., 0., 0.,
          4.76190494e-03, 9.52380989e-03, 0., 0., 4.76190494e-03,
          4.76190494e-03, 4.76190494e-03, 4.76190494e-03, 4.76190494e-03,
          0., 0., 0., 0., 0., 0., 0., 0., 0., 4.76190494e-03, 0.,
          4.76190494e-03, 4.76190494e-03, 0., 4.76190494e-03, 0., 0.,
          4.76190494e-03, 4.76190494e-03, 1.90476198e-02, 0.,
          4.76190494e-03, 0., 1.42857153e-02, 0., 0., 0., 0.,
          2.38095243e-02, 4.76190494e-03, 0., 0., 0., 9.52380989e-03, 0.,
          4.76190494e-03, 4.76190494e-03, 4.76190494e-03, 4.76190494e-03,
          9.52380989e-03, 0., 0., 4.76190494e-03, 1.90476198e-02,
          4.76190494e-03, 4.76190494e-03, 0., 4.76190494e-03, 0.,
          9.52380989e-03, 0., 0., 4.76190494e-03, 0., 9.52380989e-03,
          9.52380989e-03, 4.76190494e-03, 4.76190494e-03, 4.76190494e-03,
          4.76190494e-03, 1.42857153e-02, 0., 1.42857153e-02, 0., 0.,
          9.52380989e-03, 4.76190494e-03, 4.76190494e-03, 0.,
          1.42857153e-02, 0., 4.76190494e-03, 4.76190494e-03,
          4.76190494e-03, 0., 0., 4.76190494e-03, 0., 0., 4.76190494e-03,
          9.52380989e-03, 0., 0., 0., 4.76190494e-03, 0., 4.76190494e-03,
          0., 0., 4.76190494e-03, 2.85714306e-02, 2.38095243e-02, 0., 0.,
          0., 4.76190494e-03, 9.52380989e-03, 4.76190494e-03,
          4.76190494e-03, 4.76190494e-03, 0., 0., 4.76190494e-03,
          4.76190494e-03, 4.76190494e-03, 4.76190494e-03, 0., 0.,
          4.76190494e-03, 0., 1.90476198e-02, 0., 9.52380989e-03, 0.,
          4.76190494e-03, 0., 0., 0., 4.76190494e-03, 4.76190494e-03,
          1.42857153e-02, 0., 4.76190494e-03, 0., 9.52380989e-03,
          4.76190494e-03, 0., 4.76190494e-03, 4.76190494e-03, 0.,
          9.52380989e-03, 0., 0., 4.76190494e-03, 0., 0., 0., 0., 0., 0.,
          9.52380989e-03, 0., 4.76190494e-03, 4.76190494e-03, 0.,
          1.90476198e-02, 9.52380989e-03, 0., 0., 4.76190494e-03,
          4.76190494e-03, 0., 0., 4.76190494e-03, 9.52380989e-03, 0.,
          4.76190494e-03, 0., 9.52380989e-03, 0., 0., 0., 4.76190494e-03,
          0., 0., 4.76190494e-03, 4.76190494e-03, 4.76190494e-03, 0., 0.,
          4.76190494e-03, 4.76190494e-03, 0., 0., 0., 0., 0.,
          9.52380989e-03, 1.42857153e-02, 9.52380989e-03, 1.42857153e-02,
          4.76190494e-03, 0., 4.76190494e-03, 9.52380989e-03,
          9.52380989e-03, 9.52380989e-03, 0., 0., 0., 4.76190494e-03, 0.,
          4.76190494e-03, 0., 9.52380989e-03, 4.76190494e-03,
          9.52380989e-03, 0., 0., 0., 0., 9.52380989e-03, 0., 0.,
          4.76190494e-03, 0., 9.52380989e-03, 4.76190494e-03, 0., 0.,
          4.76190494e-03, 0., 0., 4.76190494e-03, 4.76190494e-03 ]
      - [ 0., 5.81395347e-03, 5.81395347e-03, 0., 0., 0., 0., 0.,
          5.81395347e-03, 0., 0., 1.74418613e-02, 0., 0., 0.,
          1.16279069e-02, 0., 0., 0., 5.81395347e-03, 1.16279069e-02, 0.,
          0., 5.81395347e-03, 0., 0., 5.81395347e-03, 0., 0., 0., 0., 0.,
          0., 1.16279069e-02, 5.81395347e-03, 0., 0., 5.81395347e-03, 0.,
          0., 1.16279069e-02, 5.81395347e-03, 5.81395347e-03, 0., 0., 0.,
          0., 1.74418613e-02, 1.16279069e-02, 0., 0., 0., 0.,
          5.81395347e-03, 0., 0., 0., 5.81395347e-03, 0., 0., 0., 0., 0.,
          0., 1.16279069e-02, 5.81395347e-03, 1.16279069e-02,
          5.81395347e-03, 0., 0., 0., 5.81395347e-03, 0., 0., 0.,
          5.81395347e-03, 5.81395347e-03, 0., 0., 0., 0., 5.81395347e-03,
          5.81395347e-03, 0., 5.81395347e-03, 5.81395347e-03,
          5.81395347e-03, 1.74418613e-02, 0., 0., 5.81395347e-03,
          2.32558139e-02, 5.81395347e-03, 0., 0., 1.16279069e-02,
          1.74418613e-02, 5.81395347e-03, 0., 0., 5.81395347e-03,
          1.16279069e-02, 0., 0., 1.74418613e-02, 1.74418613e-02,
          5.81395347e-03, 5.81395347e-03, 0., 0., 5.81395347e-03, 0.,
          5.81395347e-03, 0., 0., 0., 0., 5.81395347e-03, 0., 0., 0.,
          1.74418613e-02, 0., 0., 5.81395347e-03, 5.81395347e-03, 0., 0.,
          1.16279069e-02, 0., 0., 0., 5.81395347e-03, 0., 1.74418613e-02,
          5.81395347e-03, 0., 5.81395347e-03, 0., 5.81395347e-03,
          1.16279069e-02, 5.81395347e-03, 5.81395347e-03, 0., 0., 0., 0.,
          0., 5.81395347e-03, 0., 5.23255803e-02, 0., 0., 0., 0.,
          5.81395347e-03, 0., 0., 0., 0., 0., 0., 1.16279069e-02,
          2.32558139e-02, 5.81395347e-03, 0., 1.16279069e-02, 0.,
          1.74418613e-02, 1.16279069e-02, 5.81395347e-03, 5.81395347e-03,
          5.81395347e-03, 0., 1.74418613e-02, 5.81395347e-03,
          1.74418613e-02, 5.81395347e-03, 5.81395347e-03, 0., 0.,
          1.16279069e-02, 0., 5.81395347e-03, 5.81395347e-03, 0., 0., 0.,
          0., 0., 0., 1.16279069e-02, 0., 5.81395347e-03, 0.,
          5.81395347e-03, 5.81395347e-03, 0., 0., 1.16279069e-02,
          5.81395347e-03, 0., 0., 1.16279069e-02, 0., 5.81395347e-03,
          2.90697664e-02, 1.16279069e-02, 0., 5.81395347e-03,
          1.16279069e-02, 0., 0., 5.81395347e-03, 5.81395347e-03,
          5.81395347e-03, 0., 0., 5.81395347e-03, 0., 0., 1.74418613e-02,
          5.81395347e-03, 0., 5.81395347e-03, 1.74418613e-02,
          1.74418613e-02, 0., 5.81395347e-03, 0., 0., 0., 5.81395347e-03,
          0., 0., 0., 0., 0., 0., 5.81395347e-03, 0., 0., 0.,
          5.81395347e-03, 0., 0., 0., 5.81395347e-03, 0., 5.81395347e-03 ]
      - [ 5.29100513e-03, 0., 0., 0., 0., 0., 1.05820103e-02, 0., 0., 0.,
          0., 2.11640205e-02, 0., 0., 1.05820103e-02, 0., 5.29100513e-03,
          5.29100513e-03, 0., 5.29100513e-03, 0., 0., 5.29100513e-03,
          1.05820103e-02, 5.29100513e-03, 0., 0., 0., 5.29100513e-03,
          5.29100513e-03, 5.29100513e-03, 0., 1.58730149e-02,
          5.29100513e-03, 5.29100513e-03, 0., 1.05820103e-02, 0., 0., 0.,
          0., 5.29100513e-03, 5.29100513e-03, 5.29100513e-03,
          5.29100513e-03, 0., 1.05820103e-02, 0., 0., 5.29100513e-03, 0.,
          0., 0., 0., 0., 5.29100513e-03, 5.29100513e-03, 1.58730149e-02,
          0., 5.29100513e-03, 0., 0., 1.05820103e-02, 0., 0.,
          2.64550261e-02, 0., 1.58730149e-02, 1.05820103e-02, 0., 0.,
          5.29100513e-03, 1.05820103e-02, 5.29100513e-03, 0., 0.,
          1.05820103e-02, 1.58730149e-02, 1.05820103e-02, 0.,
          5.29100513e-03, 0., 0., 0., 0., 5.29100513e-03, 5.29100513e-03,
          0., 0., 0., 5.29100513e-03, 0., 0., 1.05820103e-02, 0., 0.,
          5.29100513e-03, 1.05820103e-02, 1.58730149e-02, 0.,
          5.29100513e-03, 1.05820103e-02, 0., 0., 0., 2.11640205e-02,
          5.29100513e-03, 0., 0., 5.29100513e-03, 2.11640205e-02,
          1.05820103e-02, 0., 5.29100513e-03, 5.29100513e-03, 0., 0.,
          5.29100513e-03, 1.05820103e-02, 1.58730149e-02, 0., 0., 0., 0.,
          5.29100513e-03, 5.29100513e-03, 5.29100513e-03, 0.,
          5.29100513e-03, 5.29100513e-03, 1.05820103e-02, 0., 0.,
          5.29100513e-03, 5.29100513e-03, 5.29100513e-03, 0., 0.,
          5.29100513e-03, 0., 0., 5.29100513e-03, 0., 0., 5.29100513e-03,
          1.05820103e-02, 5.29100513e-03, 0., 0., 1.58730149e-02,
          1.05820103e-02, 0., 0., 0., 0., 5.29100513e-03, 0., 0., 0., 0.,
          0., 0., 1.05820103e-02, 1.58730149e-02, 0., 5.29100513e-03,
          5.29100513e-03, 5.29100513e-03, 5.29100513e-03, 0., 0.,
          5.29100513e-03, 0., 0., 0., 5.29100513e-03, 0., 0., 0., 0., 0.,
          5.29100513e-03, 5.29100513e-03, 5.29100513e-03, 5.29100513e-03,
          1.58730149e-02, 0., 5.29100513e-03, 5.29100513e-03,
          5.29100513e-03, 0., 5.29100513e-03, 0., 5.29100513e-03, 0.,
          5.29100513e-03, 5.29100513e-03, 5.29100513e-03, 0., 0., 0.,
          5.29100513e-03, 0., 0., 0., 5.29100513e-03, 1.58730149e-02, 0.,
          5.29100513e-03, 3.17460299e-02, 5.29100513e-03, 0.,
          1.05820103e-02, 1.05820103e-02, 0., 1.58730149e-02,
          1.05820103e-02, 1.05820103e-02, 0., 0., 0., 0., 0.,
          5.29100513e-03, 0., 3.17460299e-02, 0., 0., 1.05820103e-02,
          5.29100513e-03, 5.29100513e-03, 0., 1.05820103e-02, 0., 0.,
          5.29100513e-03, 5.29100513e-03, 0., 5.29100513e-03, 0., 0., 0.,
          0., 0., 5.29100513e-03, 1.05820103e-02, 0., 0., 0.,
          5.29100513e-03 ]
      - [ 0., 2.19780225e-02, 0., 0., 5.49450563e-03, 1.09890113e-02,
          5.49450563e-03, 0., 5.49450563e-03, 1.09890113e-02, 0.,
          1.64835174e-02, 0., 5.49450563e-03, 1.09890113e-02, 0., 0., 0.,
          0., 5.49450563e-03, 0., 0., 5.49450563e-03, 5.49450563e-03, 0.,
          0., 5.49450563e-03, 5.49450563e-03, 0., 0., 5.49450563e-03, 0.,
          0., 5.49450563e-03, 1.64835174e-02, 5.49450563e-03, 0., 0., 0.,
          0., 5.49450563e-03, 5.49450563e-03, 0., 5.49450563e-03,
          5.49450563e-03, 5.49450563e-03, 0., 0., 0., 0., 0., 0.,
          5.49450563e-03, 5.49450563e-03, 1.09890113e-02, 5.49450563e-03,
          1.64835174e-02, 5.49450563e-03, 0., 0., 0., 0., 1.09890113e-02,
          0., 0., 1.09890113e-02, 0., 1.09890113e-02, 1.09890113e-02,
          5.49450563e-03, 0., 5.49450563e-03, 5.49450563e-03, 0., 0., 0.,
          5.49450563e-03, 5.49450563e-03, 0., 0., 0., 0., 0., 0.,
          1.09890113e-02, 5.49450563e-03, 0., 0., 1.09890113e-02,
          5.49450563e-03, 0., 1.09890113e-02, 0., 0., 5.49450563e-03,
          1.64835174e-02, 0., 0., 5.49450563e-03, 0., 0., 5.49450563e-03,
          5.49450563e-03, 5.49450563e-03, 5.49450563e-03, 3.29670347e-02,
          1.09890113e-02, 0., 0., 5.49450563e-03, 5.49450563e-03, 0., 0.,
          5.49450563e-03, 1.09890113e-02, 0., 5.49450563e-03,
          5.49450563e-03, 1.09890113e-02, 0., 5.49450563e-03,
          5.49450563e-03, 5.49450563e-03, 0., 0., 5.49450563e-03,
          5.49450563e-03, 0., 0., 5.49450563e-03, 0., 0., 0.,
          1.09890113e-02, 0., 5.49450563e-03, 0., 0., 0., 0., 0.,
          1.09890113e-02, 0., 5.49450563e-03, 5.49450563e-03, 0.,
          1.09890113e-02, 0., 0., 0., 2.19780225e-02, 0., 0., 0.,
          5.49450563e-03, 1.64835174e-02, 5.49450563e-03, 0.,
          1.09890113e-02, 5.49450563e-03, 5.49450563e-03, 0., 0.,
          1.64835174e-02, 0., 1.09890113e-02, 0., 5.49450563e-03,
          5.49450563e-03, 1.64835174e-02, 5.49450563e-03, 2.19780225e-02,
          0., 0., 5.49450563e-03, 0., 0., 0., 5.49450563e-03, 0., 0., 0.,
          5.49450563e-03, 5.49450563e-03, 1.09890113e-02, 5.49450563e-03,
          0., 5.49450563e-03, 0., 0., 0., 5.49450563e-03, 5.49450563e-03,
          1.09890113e-02, 0., 5.49450563e-03, 5.49450563e-03, 0.,
          1.09890113e-02, 5.49450563e-03, 0., 0., 5.49450563e-03, 0.,
          5.49450563e-03, 0., 5.49450563e-03, 0., 0., 2.19780225e-02,
          5.49450563e-03, 0., 0., 0., 0., 1.64835174e-02, 5.49450563e-03,
          5.49450563e-03, 0., 5.49450563e-03, 0., 1.09890113e-02, 0., 0.,
          0., 1.09890113e-02, 0., 5.49450563e-03, 0., 5.49450563e-03,
          5.49450563e-03, 0., 1.09890113e-02, 0., 0., 0., 5.49450563e-03,
          0., 0., 0., 5.49450563e-03, 0., 0., 0., 0., 5.49450563e-03, 0.,
          2.19780225e-02, 0., 1.64835174e-02 ]
      - [ 0., 2.32558139e-02, 0., 5.81395347e-03, 5.81395347e-03, 0.,
          5.81395347e-03, 1.16279069e-02, 0., 5.81395347e-03,
          1.16279069e-02, 0., 5.81395347e-03, 0., 5.81395347e-03, 0., 0.,
          5.81395347e-03, 5.81395347e-03, 0., 0., 5.81395347e-03, 0., 0.,
          1.16279069e-02, 5.81395347e-03, 0., 5.81395347e-03, 0., 0., 0.,
          0., 0., 0., 1.74418613e-02, 5.81395347e-03, 0., 0., 0., 0., 0.,
          0., 0., 5.81395347e-03, 0., 2.32558139e-02, 0., 0.,
          1.16279069e-02, 0., 0., 1.16279069e-02, 5.81395347e-03,
          5.81395347e-03, 0., 0., 1.16279069e-02, 0., 5.81395347e-03,
          5.81395347e-03, 5.81395347e-03, 0., 0., 0., 1.74418613e-02,
          1.16279069e-02, 1.74418613e-02, 2.32558139e-02, 1.74418613e-02,
          1.16279069e-02, 0., 0., 0., 0., 0., 0., 5.81395347e-03,
          1.16279069e-02, 0., 0., 5.81395347e-03, 5.81395347e-03,
          5.81395347e-03, 5.81395347e-03, 2.32558139e-02, 0.,
          5.81395347e-03, 5.81395347e-03, 0., 0., 5.81395347e-03, 0., 0.,
          0., 0., 0., 5.81395347e-03, 5.81395347e-03, 0., 5.81395347e-03,
          0., 0., 0., 5.81395347e-03, 0., 5.81395347e-03, 0., 0., 0., 0.,
          1.74418613e-02, 5.81395347e-03, 5.81395347e-03, 0., 0., 0.,
          5.81395347e-03, 5.81395347e-03, 5.81395347e-03, 0.,
          5.81395347e-03, 0., 0., 0., 2.32558139e-02, 0., 1.16279069e-02,
          1.16279069e-02, 2.90697664e-02, 0., 0., 0., 1.16279069e-02, 0.,
          0., 5.81395347e-03, 1.16279069e-02, 5.81395347e-03,
          1.74418613e-02, 0., 0., 1.16279069e-02, 0., 5.81395347e-03, 0.,
          5.81395347e-03, 0., 0., 0., 0., 1.74418613e-02, 0.,
          1.16279069e-02, 0., 0., 2.32558139e-02, 0., 0., 0.,
          5.81395347e-03, 0., 5.81395347e-03, 0., 0., 1.16279069e-02, 0.,
          0., 0., 5.81395347e-03, 5.81395347e-03, 5.81395347e-03, 0.,
          5.81395347e-03, 0., 0., 0., 5.81395347e-03, 0., 0., 0., 0.,
          5.81395347e-03, 0., 0., 1.16279069e-02, 1.16279069e-02, 0., 0.,
          0., 0., 0., 5.81395347e-03, 5.81395347e-03, 0., 0.,
          5.81395347e-03, 0., 0., 5.81395347e-03, 5.81395347e-03,
          1.16279069e-02, 0., 1.16279069e-02, 1.74418613e-02, 0., 0., 0.,
          0., 5.81395347e-03, 0., 0., 5.81395347e-03, 0., 1.16279069e-02,
          5.81395347e-03, 1.16279069e-02, 5.81395347e-03, 0.,
          5.81395347e-03, 0., 0., 5.81395347e-03, 5.81395347e-03, 0., 0.,
          5.81395347e-03, 5.81395347e-03, 5.81395347e-03, 1.16279069e-02,
          5.81395347e-03, 5.81395347e-03, 0., 0., 0., 0., 0.,
          1.16279069e-02, 0., 5.81395347e-03, 0., 0., 1.16279069e-02, 0.,
          0., 0., 0., 5.81395347e-03, 5.81395347e-03, 0., 0. ]
      - [ 0., 0., 3.32225906e-03, 6.64451811e-03, 3.32225906e-03, 0., 0.,
          9.96677764e-03, 0., 0., 3.32225906e-03, 0., 0., 0.,
          9.96677764e-03, 3.32225906e-03, 1.99335553e-02, 3.32225906e-03,
          3.32225906e-03, 0., 6.64451811e-03, 0., 0., 0., 3.32225906e-03,
          0., 3.32225906e-03, 0., 0., 6.64451811e-03, 0., 6.64451811e-03,
          1.66112948e-02, 3.32225906e-03, 0., 3.32225906e-03, 0.,
          3.32225906e-03, 3.32225906e-03, 3.32225906e-03, 6.64451811e-03,
          0., 3.32225906e-03, 6.64451811e-03, 0., 3.32225906e-03, 0.,
          9.96677764e-03, 1.32890362e-02, 9.96677764e-03, 3.32225906e-03,
          3.32225906e-03, 0., 0., 0., 9.96677764e-03, 0., 0.,
          3.32225906e-03, 9.96677764e-03, 6.64451811e-03, 6.64451811e-03,
          0., 6.64451811e-03, 0., 0., 6.64451811e-03, 3.32225906e-03, 0.,
          0., 2.32558139e-02, 6.64451811e-03, 1.66112948e-02,
          3.32225906e-03, 6.64451811e-03, 3.32225906e-03, 1.32890362e-02,
          3.32225906e-03, 0., 0., 6.64451811e-03, 0., 0., 3.32225906e-03,
          0., 0., 0., 0., 0., 3.32225906e-03, 3.32225906e-03, 0.,
          3.32225906e-03, 3.32225906e-03, 0., 0., 0., 6.64451811e-03,
          3.32225906e-03, 1.32890362e-02, 3.32225906e-03, 9.96677764e-03,
          0., 0., 0., 0., 6.64451811e-03, 3.32225906e-03, 6.64451811e-03,
          3.32225906e-03, 0., 0., 1.32890362e-02, 0., 0., 9.96677764e-03,
          0., 1.32890362e-02, 0., 0., 0., 0., 0., 0., 0., 0., 0., 0.,
          6.64451811e-03, 0., 3.32225906e-03, 3.32225906e-03, 0.,
          9.96677764e-03, 0., 6.64451811e-03, 3.32225906e-03, 0.,
          3.32225906e-03, 6.64451811e-03, 3.32225906e-03, 9.96677764e-03,
          3.32225906e-03, 3.32225906e-03, 3.32225906e-03, 9.96677764e-03,
          3.32225906e-03, 9.96677764e-03, 0., 3.32225906e-03,
          3.32225906e-03, 3.32225906e-03, 2.32558139e-02, 3.32225906e-03,
          3.32225906e-03, 0., 0., 0., 3.32225906e-03, 3.32225906e-03, 0.,
          0., 1.66112948e-02, 3.32225906e-03, 0., 0., 0., 3.32225906e-03,
          0., 0., 3.32225906e-03, 0., 6.64451811e-03, 6.64451811e-03, 0.,
          0., 0., 6.64451811e-03, 0., 9.96677764e-03, 0., 0.,
          9.96677764e-03, 3.32225906e-03, 6.64451811e-03, 3.32225906e-03,
          5.31561449e-02, 6.64451811e-03, 6.64451811e-03, 3.32225906e-03,
          3.32225906e-03, 0., 6.64451811e-03, 0., 6.64451811e-03,
          6.64451811e-03, 3.32225906e-03, 0., 3.32225906e-03,
          3.32225906e-03, 6.64451811e-03, 0., 0., 0., 6.64451811e-03,
          6.64451811e-03, 9.96677764e-03, 0., 0., 6.64451811e-03,
          3.32225906e-03, 3.32225906e-03, 3.32225906e-03, 3.32225906e-03,
          9.96677764e-03, 3.32225906e-03, 3.32225906e-03, 0.,
          3.32225906e-03, 2.65780725e-02, 0., 3.32225906e-03, 0.,
          3.32225906e-03, 0., 0., 0., 3.32225906e-03, 0., 3.32225906e-03,
          0., 6.64451811e-03, 3.32225906e-03, 9.96677764e-03,
          3.32225906e-03, 3.32225906e-03, 0., 3.32225906e-03, 0.,
          9.96677764e-03, 1.66112948e-02, 9.96677764e-03, 6.64451811e-03,
          0., 1.66112948e-02, 9.96677764e-03, 9.96677764e-03, 0.,
          2.65780725e-02, 3.32225906e-03 ]
      - [ 0., 0., 4.95049497e-03, 4.95049497e-03, 4.95049497e-03, 0.,
          4.95049497e-03, 0., 0., 4.95049497e-03, 0., 0., 0., 0., 0.,
          4.95049497e-03, 4.95049497e-03, 0., 0., 4.95049497e-03, 0., 0.,
          0., 0., 0., 0., 9.90098994e-03, 9.90098994e-03, 0., 0., 0., 0.,
          0., 0., 0., 0., 0., 0., 0., 0., 9.90098994e-03, 4.95049497e-03,
          4.95049497e-03, 1.48514844e-02, 0., 0., 9.90098994e-03,
          1.48514844e-02, 0., 9.90098994e-03, 4.95049497e-03, 0., 0., 0.,
          9.90098994e-03, 4.95049497e-03, 1.48514844e-02, 0.,
          9.90098994e-03, 4.95049497e-03, 1.98019799e-02, 0., 0., 0., 0.,
          0., 9.90098994e-03, 4.95049497e-03, 0., 4.95049497e-03,
          3.96039598e-02, 0., 4.95049497e-03, 0., 4.95049497e-03, 0., 0.,
          4.95049497e-03, 0., 1.98019799e-02, 4.95049497e-03, 0., 0.,
          9.90098994e-03, 0., 0., 0., 0., 1.48514844e-02, 4.95049497e-03,
          0., 0., 0., 0., 1.48514844e-02, 9.90098994e-03, 0.,
          4.95049497e-03, 4.95049497e-03, 3.46534662e-02, 4.95049497e-03,
          0., 0., 4.95049497e-03, 0., 0., 0., 0., 4.95049497e-03, 0., 0.,
          9.90098994e-03, 0., 4.95049497e-03, 4.95049497e-03, 0.,
          4.95049497e-03, 9.90098994e-03, 0., 1.48514844e-02,
          4.95049497e-03, 0., 0., 0., 0., 0., 0., 0., 4.95049497e-03,
          4.95049497e-03, 0., 0., 0., 0., 4.95049497e-03, 0.,
          4.95049497e-03, 0., 0., 4.95049497e-03, 4.95049497e-03, 0., 0.,
          0., 4.95049497e-03, 9.90098994e-03, 0., 0., 0., 0.,
          1.48514844e-02, 4.95049497e-03, 1.98019799e-02, 4.95049497e-03,
          1.48514844e-02, 0., 0., 0., 0., 4.95049497e-03, 0., 0., 0., 0.,
          3.46534662e-02, 0., 1.48514844e-02, 0., 0., 0., 4.95049497e-03,
          0., 1.48514844e-02, 4.95049497e-03, 0., 0., 0., 4.95049497e-03,
          0., 4.95049497e-03, 0., 4.95049497e-03, 0., 1.98019799e-02, 0.,
          0., 6.93069324e-02, 0., 0., 0., 0., 4.95049497e-03,
          9.90098994e-03, 0., 0., 4.95049497e-03, 9.90098994e-03, 0.,
          9.90098994e-03, 9.90098994e-03, 0., 0., 4.95049497e-03,
          9.90098994e-03, 9.90098994e-03, 9.90098994e-03, 1.98019799e-02,
          1.48514844e-02, 0., 0., 0., 4.95049497e-03, 4.95049497e-03,
          9.90098994e-03, 4.95049497e-03, 0., 0., 4.95049497e-03, 0., 0.,
          0., 0., 0., 9.90098994e-03, 0., 0., 0., 0., 0., 0., 0., 0., 0.,
          4.95049497e-03, 0., 4.95049497e-03, 0., 0., 0., 4.95049497e-03,
          9.90098994e-03, 4.95049497e-03, 4.95049497e-03, 0.,
          1.48514844e-02, 9.90098994e-03, 4.95049497e-03, 9.90098994e-03,
          9.90098994e-03, 4.95049497e-03 ]
      - [ 4.80769249e-03, 0., 0., 9.61538497e-03, 0., 0., 4.80769249e-03,
          0., 9.61538497e-03, 4.80769249e-03, 4.80769249e-03, 0., 0., 0.,
          4.80769249e-03, 0., 4.80769249e-03, 0., 0., 4.80769249e-03,
          9.61538497e-03, 0., 0., 0., 0., 0., 0., 0., 0., 4.80769249e-03,
          0., 0., 4.80769249e-03, 9.61538497e-03, 9.61538497e-03, 0., 0.,
          0., 9.61538497e-03, 0., 0., 4.80769249e-03, 9.61538497e-03,
          9.61538497e-03, 0., 0., 0., 4.80769249e-03, 0., 9.61538497e-03,
          0., 0., 4.80769249e-03, 4.80769249e-03, 4.80769249e-03, 0.,
          4.80769249e-03, 0., 0., 4.80769249e-03, 0., 9.61538497e-03, 0.,
          0., 4.80769249e-03, 0., 0., 0., 4.80769249e-03, 0.,
          2.40384620e-02, 0., 4.80769249e-03, 0., 0., 0., 0.,
          4.80769249e-03, 0., 9.61538497e-03, 0., 0., 0., 0., 0.,
          9.61538497e-03, 0., 4.80769249e-03, 3.36538479e-02,
          9.61538497e-03, 4.80769249e-03, 0., 4.80769249e-03, 0.,
          9.61538497e-03, 4.80769249e-03, 0., 4.80769249e-03, 0.,
          1.44230779e-02, 1.44230779e-02, 0., 9.61538497e-03,
          4.80769249e-03, 0., 0., 4.80769249e-03, 0., 1.44230779e-02, 0.,
          0., 4.80769249e-03, 0., 4.80769249e-03, 0., 0., 4.80769249e-03,
          4.80769249e-03, 0., 0., 0., 0., 0., 4.80769249e-03,
          4.80769249e-03, 0., 0., 1.44230779e-02, 4.80769249e-03,
          4.80769249e-03, 0., 0., 0., 0., 0., 0., 4.80769249e-03, 0., 0.,
          1.44230779e-02, 0., 0., 0., 4.80769249e-03, 4.80769249e-03,
          4.80769249e-03, 0., 4.80769249e-03, 0., 0., 4.80769249e-03, 0.,
          0., 0., 4.80769249e-03, 0., 9.61538497e-03, 0., 0.,
          1.44230779e-02, 0., 4.80769249e-03, 0., 0., 9.61538497e-03, 0.,
          0., 9.61538497e-03, 4.80769249e-03, 4.80769249e-03,
          9.61538497e-03, 0., 9.61538497e-03, 0., 0., 4.80769249e-03, 0.,
          4.80769249e-03, 4.80769249e-03, 0., 4.80769249e-03,
          9.61538497e-03, 0., 4.80769249e-03, 1.44230779e-02,
          9.61538497e-03, 9.61538479e-02, 9.61538497e-03, 9.61538497e-03,
          4.80769249e-03, 0., 0., 9.61538497e-03, 0., 0., 9.61538497e-03,
          4.80769249e-03, 0., 4.80769249e-03, 1.92307699e-02, 0., 0., 0.,
          0., 9.61538497e-03, 9.61538497e-03, 0., 9.61538497e-03, 0., 0.,
          4.80769249e-03, 4.80769249e-03, 4.80769249e-03, 4.80769249e-03,
          9.61538497e-03, 4.80769249e-03, 0., 0., 4.80769249e-03,
          4.80769249e-03, 1.44230779e-02, 4.80769249e-03, 4.80769249e-03,
          4.80769249e-03, 0., 0., 0., 4.80769249e-03, 0., 0., 0., 0., 0.,
          4.80769249e-03, 0., 9.61538497e-03, 0., 0., 0., 0.,
          1.92307699e-02, 1.92307699e-02, 9.61538497e-03, 0.,
          2.40384620e-02, 0., 9.61538497e-03, 4.80769249e-03,
          1.44230779e-02, 0. ]
      - [ 6.94444450e-03, 2.08333340e-02, 6.94444450e-03, 0., 0.,
          6.94444450e-03, 6.94444450e-03, 0., 0., 6.94444450e-03, 0.,
          6.94444450e-03, 0., 0., 0., 6.94444450e-03, 0., 0.,
          6.94444450e-03, 6.94444450e-03, 6.94444450e-03, 0., 0.,
          1.38888890e-02, 0., 0., 6.94444450e-03, 6.94444450e-03, 0.,
          6.94444450e-03, 0., 1.38888890e-02, 0., 6.94444450e-03,
          6.94444450e-03, 0., 0., 6.94444450e-03, 0., 0., 6.94444450e-03,
          6.94444450e-03, 6.94444450e-03, 0., 0., 6.94444450e-03,
          6.94444450e-03, 6.94444450e-03, 0., 0., 0., 0., 6.94444450e-03,
          0., 0., 6.94444450e-03, 1.38888890e-02, 6.94444450e-03, 0.,
          6.94444450e-03, 0., 0., 0., 0., 6.94444450e-03, 2.08333340e-02,
          0., 6.94444450e-03, 0., 6.94444450e-03, 0., 0., 0., 0., 0., 0.,
          0., 6.94444450e-03, 0., 0., 0., 0., 0., 1.38888890e-02,
          6.94444450e-03, 1.38888890e-02, 1.38888890e-02, 0., 0., 0.,
          1.38888890e-02, 1.38888890e-02, 6.94444450e-03, 0., 0., 0.,
          6.94444450e-03, 1.38888890e-02, 6.94444450e-03, 0.,
          6.94444450e-03, 6.94444450e-03, 0., 0., 0., 0., 0.,
          6.94444450e-03, 6.94444450e-03, 0., 6.94444450e-03, 0.,
          2.08333340e-02, 6.94444450e-03, 6.94444450e-03, 0.,
          6.94444450e-03, 1.38888890e-02, 6.94444450e-03, 0.,
          6.94444450e-03, 0., 0., 6.94444450e-03, 0., 1.38888890e-02, 0.,
          0., 0., 0., 0., 1.38888890e-02, 0., 6.94444450e-03,
          6.94444450e-03, 6.94444450e-03, 6.94444450e-03, 6.94444450e-03,
          0., 0., 0., 1.38888890e-02, 0., 6.94444450e-03, 6.94444450e-03,
          6.94444450e-03, 6.94444450e-03, 0., 0., 0., 2.77777780e-02, 0.,
          0., 0., 0., 2.08333340e-02, 0., 6.94444450e-03, 1.38888890e-02,
          0., 0., 0., 0., 1.38888890e-02, 6.94444450e-03, 1.38888890e-02,
          0., 0., 0., 0., 0., 1.38888890e-02, 6.94444450e-03, 0.,
          6.94444450e-03, 0., 0., 0., 1.38888890e-02, 6.94444450e-03, 0.,
          0., 0., 0., 0., 0., 0., 6.94444450e-03, 0., 0., 0., 0., 0., 0.,
          6.94444450e-03, 0., 0., 6.94444450e-03, 0., 0., 0., 0., 0., 0.,
          0., 0., 1.38888890e-02, 0., 0., 6.94444450e-03, 1.38888890e-02,
          0., 6.94444450e-03, 0., 0., 6.94444450e-03, 0., 0., 0., 0.,
          6.94444450e-03, 2.08333340e-02, 0., 0., 6.94444450e-03, 0., 0.,
          0., 6.94444450e-03, 6.94444450e-03, 0., 1.38888890e-02,
          1.38888890e-02, 6.94444450e-03, 6.94444450e-03, 0.,
          2.08333340e-02, 0., 0., 1.38888890e-02, 0., 0., 0.,
          1.38888890e-02, 0., 6.94444450e-03, 0., 6.94444450e-03,
          6.94444450e-03, 0. ]
      - [ 0., 6.53594779e-03, 0., 0., 0., 6.53594779e-03, 6.53594779e-03,
          0., 1.30718956e-02, 0., 6.53594779e-03, 0., 6.53594779e-03,
          6.53594779e-03, 0., 0., 0., 1.30718956e-02, 6.53594779e-03,
          6.53594779e-03, 0., 6.53594779e-03, 1.30718956e-02, 0., 0.,
          6.53594779e-03, 1.30718956e-02, 1.30718956e-02, 6.53594779e-03,
          0., 6.53594779e-03, 6.53594779e-03, 6.53594779e-03, 0.,
          1.30718956e-02, 0., 0., 6.53594779e-03, 6.53594779e-03,
          6.53594779e-03, 0., 6.53594779e-03, 6.53594779e-03,
          6.53594779e-03, 0., 6.53594779e-03, 1.30718956e-02, 0., 0., 0.,
          0., 0., 0., 6.53594779e-03, 6.53594779e-03, 0., 1.30718956e-02,
          0., 6.53594779e-03, 6.53594779e-03, 0., 0., 0., 0., 0.,
          1.30718956e-02, 0., 1.30718956e-02, 0., 0., 0., 0., 0., 0.,
          6.53594779e-03, 0., 6.53594779e-03, 0., 1.96078438e-02,
          6.53594779e-03, 6.53594779e-03, 0., 0., 0., 6.53594779e-03, 0.,
          0., 1.30718956e-02, 0., 0., 6.53594779e-03, 1.30718956e-02,
          6.53594779e-03, 0., 0., 0., 6.53594779e-03, 6.53594779e-03, 0.,
          0., 6.53594779e-03, 6.53594779e-03, 6.53594779e-03, 0., 0.,
          6.53594779e-03, 6.53594779e-03, 0., 1.30718956e-02, 0.,
          6.53594779e-03, 6.53594779e-03, 0., 0., 6.53594779e-03, 0.,
          6.53594779e-03, 6.53594779e-03, 0., 0., 6.53594779e-03, 0., 0.,
          6.53594779e-03, 0., 1.30718956e-02, 0., 1.30718956e-02,
          6.53594779e-03, 0., 0., 0., 0., 0., 1.30718956e-02, 0., 0., 0.,
          0., 6.53594779e-03, 1.30718956e-02, 2.61437912e-02, 0., 0.,
          6.53594779e-03, 6.53594779e-03, 6.53594779e-03, 0., 0., 0.,
          6.53594779e-03, 0., 0., 0., 6.53594779e-03, 1.30718956e-02, 0.,
          6.53594779e-03, 0., 0., 0., 0., 6.53594779e-03, 6.53594779e-03,
          0., 0., 0., 0., 0., 6.53594779e-03, 6.53594779e-03,
          1.30718956e-02, 0., 6.53594779e-03, 6.53594779e-03,
          6.53594779e-03, 0., 0., 0., 0., 0., 6.53594779e-03, 0., 0.,
          6.53594779e-03, 6.53594779e-03, 0., 0., 0., 0., 6.53594779e-03,
          6.53594779e-03, 0., 0., 0., 6.53594779e-03, 0., 1.30718956e-02,
          0., 6.53594779e-03, 0., 1.96078438e-02, 6.53594779e-03,
          6.53594779e-03, 0., 0., 1.30718956e-02, 0., 0., 2.61437912e-02,
          1.96078438e-02, 0., 0., 6.53594779e-03, 0., 1.30718956e-02,
          6.53594779e-03, 0., 6.53594779e-03, 0., 6.53594779e-03,
          1.96078438e-02, 6.53594779e-03, 0., 6.53594779e-03,
          6.53594779e-03, 0., 6.53594779e-03, 0., 0., 6.53594779e-03,
          6.53594779e-03, 1.96078438e-02, 6.53594779e-03, 0.,
          6.53594779e-03, 1.30718956e-02, 0., 0., 0., 0., 0., 0.,
          6.53594779e-03, 0., 0., 0., 0., 0., 6.53594779e-03 ]
      - [ 0., 1.31578948e-02, 0., 0., 0., 2.63157897e-02, 0., 0.,
          6.57894742e-03, 1.31578948e-02, 0., 1.31578948e-02, 0., 0.,
          6.57894742e-03, 0., 0., 0., 1.97368413e-02, 1.97368413e-02, 0.,
          6.57894742e-03, 6.57894742e-03, 6.57894742e-03, 0., 0., 0.,
          6.57894742e-03, 0., 0., 6.57894742e-03, 0., 6.57894742e-03, 0.,
          1.31578948e-02, 0., 0., 0., 6.57894742e-03, 6.57894742e-03, 0.,
          6.57894742e-03, 0., 0., 0., 0., 6.57894742e-03, 0., 0.,
          1.31578948e-02, 0., 0., 6.57894742e-03, 0., 6.57894742e-03, 0.,
          1.97368413e-02, 0., 0., 6.57894742e-03, 0., 0., 0., 0.,
          6.57894742e-03, 0., 6.57894742e-03, 1.31578948e-02, 0.,
          6.57894742e-03, 0., 6.57894742e-03, 6.57894742e-03,
          6.57894742e-03, 0., 6.57894742e-03, 6.57894742e-03,
          6.57894742e-03, 1.31578948e-02, 0., 0., 0., 0., 0.,
          6.57894742e-03, 0., 0., 0., 0., 6.57894742e-03, 1.31578948e-02,
          6.57894742e-03, 0., 0., 0., 0., 6.57894742e-03, 6.57894742e-03,
          6.57894742e-03, 0., 6.57894742e-03, 0., 0., 6.57894742e-03, 0.,
          0., 6.57894742e-03, 6.57894742e-03, 0., 6.57894742e-03,
          6.57894742e-03, 0., 0., 0., 1.31578948e-02, 0., 6.57894742e-03,
          0., 6.57894742e-03, 0., 0., 0., 6.57894742e-03, 6.57894742e-03,
          1.31578948e-02, 6.57894742e-03, 0., 6.57894742e-03, 0., 0., 0.,
          0., 0., 0., 1.31578948e-02, 1.31578948e-02, 0., 1.31578948e-02,
          0., 0., 0., 6.57894742e-03, 0., 0., 6.57894742e-03,
          6.57894742e-03, 6.57894742e-03, 0., 0., 0., 2.63157897e-02,
          6.57894742e-03, 0., 0., 6.57894742e-03, 1.31578948e-02, 0.,
          1.97368413e-02, 0., 0., 0., 6.57894742e-03, 0., 0., 0., 0., 0.,
          0., 0., 0., 6.57894742e-03, 1.31578948e-02, 0., 6.57894742e-03,
          0., 6.57894742e-03, 0., 6.57894742e-03, 6.57894742e-03, 0., 0.,
          0., 0., 6.57894742e-03, 6.57894742e-03, 6.57894742e-03, 0., 0.,
          0., 0., 0., 6.57894742e-03, 0., 0., 0., 6.57894742e-03, 0., 0.,
          0., 0., 0., 1.31578948e-02, 0., 0., 6.57894742e-03,
          6.57894742e-03, 0., 6.57894742e-03, 6.57894742e-03,
          2.63157897e-02, 0., 0., 1.97368413e-02, 1.31578948e-02,
          6.57894742e-03, 1.97368413e-02, 0., 0., 6.57894742e-03,
          6.57894742e-03, 1.31578948e-02, 6.57894742e-03, 6.57894742e-03,
          0., 6.57894742e-03, 1.31578948e-02, 0., 0., 6.57894742e-03, 0.,
          0., 0., 6.57894742e-03, 1.97368413e-02, 6.57894742e-03, 0.,
          1.31578948e-02, 0., 0., 0., 0., 0., 6.57894742e-03,
          1.97368413e-02, 0., 6.57894742e-03, 0., 6.57894742e-03,
          6.57894742e-03, 0. ]
      - [ 0., 0., 4.92610829e-03, 0., 0., 0., 4.92610829e-03, 0.,
          4.92610829e-03, 4.92610829e-03, 0., 0., 0., 9.85221658e-03,
          4.92610829e-03, 4.92610829e-03, 1.47783253e-02, 0.,
          4.92610829e-03, 9.85221658e-03, 4.92610829e-03, 0., 0.,
          1.47783253e-02, 0., 0., 0., 9.85221658e-03, 0., 4.92610829e-03,
          4.92610829e-03, 0., 1.97044332e-02, 4.92610829e-03,
          9.85221658e-03, 9.85221658e-03, 0., 0., 0., 4.92610829e-03, 0.,
          0., 4.92610829e-03, 4.92610829e-03, 0., 4.92610829e-03,
          9.85221658e-03, 4.92610829e-03, 0., 0., 0., 0., 4.92610829e-03,
          0., 4.92610829e-03, 0., 4.92610829e-03, 0., 4.92610829e-03,
          9.85221658e-03, 0., 1.47783253e-02, 4.92610829e-03, 0., 0., 0.,
          4.92610829e-03, 0., 4.92610829e-03, 0., 1.97044332e-02, 0., 0.,
          0., 0., 4.92610829e-03, 0., 1.47783253e-02, 0., 1.47783253e-02,
          4.92610829e-03, 0., 0., 0., 0., 4.92610829e-03, 0., 0.,
          4.92610829e-03, 0., 0., 0., 4.92610829e-03, 9.85221658e-03, 0.,
          4.92610829e-03, 0., 0., 4.92610829e-03, 1.47783253e-02,
          4.92610829e-03, 0., 9.85221658e-03, 4.92610829e-03, 0., 0., 0.,
          4.92610829e-03, 9.85221658e-03, 4.92610829e-03, 0., 0., 0., 0.,
          4.92610829e-03, 0., 4.92610829e-03, 4.92610829e-03, 0., 0., 0.,
          4.92610829e-03, 0., 0., 0., 0., 0., 0., 4.92610829e-03,
          4.92610829e-03, 0., 0., 9.85221658e-03, 0., 4.92610829e-03, 0.,
          0., 0., 0., 1.47783253e-02, 4.92610829e-03, 0., 0.,
          4.92610829e-03, 4.92610829e-03, 1.47783253e-02, 4.92610829e-03,
          0., 9.85221658e-03, 0., 0., 0., 4.92610829e-03, 0.,
          1.47783253e-02, 0., 0., 0., 4.92610829e-03, 4.92610829e-03,
          4.92610829e-03, 4.92610829e-03, 0., 0., 9.85221658e-03, 0.,
          4.92610829e-03, 4.92610829e-03, 0., 0., 0., 0., 9.85221658e-03,
          0., 0., 0., 4.92610829e-03, 2.46305410e-02, 0., 0.,
          9.85221658e-03, 9.85221658e-03, 0., 1.47783253e-02, 0.,
          4.92610829e-03, 7.88177326e-02, 3.44827585e-02, 1.47783253e-02,
          0., 0., 0., 4.92610829e-03, 0., 0., 9.85221658e-03,
          1.97044332e-02, 4.92610829e-03, 0., 1.97044332e-02,
          4.92610829e-03, 0., 0., 4.92610829e-03, 9.85221658e-03,
          4.92610829e-03, 0., 4.92610829e-03, 0., 0., 0., 0., 0.,
          4.92610829e-03, 2.95566507e-02, 0., 4.92610829e-03, 0., 0.,
          4.92610829e-03, 0., 0., 0., 0., 0., 0., 4.92610829e-03, 0., 0.,
          4.92610829e-03, 4.92610829e-03, 0., 0., 0., 0., 9.85221658e-03,
          0., 4.92610829e-03, 0., 1.47783253e-02, 9.85221658e-03, 0., 0.,
          0., 1.97044332e-02, 1.47783253e-02, 4.92610829e-03,
          4.92610829e-03, 0., 4.92610829e-03 ]
      - [ 0., 0., 0., 0., 0., 0., 5.71428565e-03, 0., 0., 0., 0., 0., 0.,
          1.14285713e-02, 5.71428565e-03, 0., 5.71428565e-03,
          5.71428565e-03, 0., 0., 1.71428565e-02, 0., 0., 1.14285713e-02,
          0., 0., 0., 1.71428565e-02, 0., 5.71428565e-03, 5.71428565e-03,
          5.71428565e-03, 5.71428565e-03, 5.71428565e-03, 0.,
          5.71428565e-03, 5.71428565e-03, 0., 0., 5.71428565e-03,
          5.71428565e-03, 0., 5.71428565e-03, 5.71428565e-03, 0., 0.,
          1.71428565e-02, 5.71428565e-03, 0., 5.71428565e-03, 0., 0., 0.,
          0., 0., 0., 5.71428565e-03, 0., 0., 1.14285713e-02,
          5.71428565e-03, 1.71428565e-02, 0., 0., 0., 0., 0., 0., 0., 0.,
          4.57142852e-02, 0., 0., 5.71428565e-03, 0., 1.14285713e-02, 0.,
          0., 0., 1.14285713e-02, 0., 0., 0., 0., 0., 0., 0., 0.,
          1.14285713e-02, 5.71428565e-03, 0., 0., 0., 1.14285713e-02,
          1.14285713e-02, 1.14285713e-02, 0., 0., 0., 1.14285713e-02, 0.,
          5.71428565e-03, 5.71428565e-03, 0., 0., 0., 0., 0.,
          5.71428565e-03, 0., 0., 1.71428565e-02, 1.14285713e-02, 0.,
          5.71428565e-03, 0., 0., 0., 0., 0., 5.71428565e-03, 0., 0., 0.,
          0., 0., 0., 1.14285713e-02, 0., 0., 0., 0., 5.71428565e-03, 0.,
          1.71428565e-02, 0., 5.71428565e-03, 0., 0., 2.28571426e-02, 0.,
          0., 0., 5.71428565e-03, 0., 1.71428565e-02, 0., 0.,
          1.14285713e-02, 0., 0., 5.71428565e-03, 5.71428575e-02, 0., 0.,
          0., 1.14285713e-02, 0., 0., 5.71428565e-03, 0., 0., 0., 0.,
          5.71428565e-03, 0., 1.14285713e-02, 0., 0., 1.14285713e-02, 0.,
          0., 2.28571426e-02, 0., 0., 0., 0., 5.71428565e-03, 0.,
          1.14285713e-02, 0., 2.28571426e-02, 1.71428565e-02,
          5.71428565e-03, 5.71428565e-03, 5.71428565e-03, 1.08571425e-01,
          1.14285713e-02, 0., 0., 0., 0., 5.71428565e-03, 0., 0., 0.,
          5.71428565e-03, 0., 0., 0., 0., 0., 0., 0., 1.71428565e-02,
          1.14285713e-02, 5.71428565e-03, 0., 0., 0., 0., 5.71428565e-03,
          0., 0., 1.14285713e-02, 5.71428565e-03, 0., 5.71428565e-03, 0.,
          0., 0., 0., 5.71428565e-03, 0., 0., 0., 5.71428565e-03, 0., 0.,
          0., 0., 0., 0., 0., 0., 5.71428565e-03, 0., 5.71428565e-03, 0.,
          0., 0., 1.14285713e-02, 1.71428565e-02, 0., 5.71428565e-03,
          1.14285713e-02, 1.71428565e-02, 0., 1.14285713e-02, 0. ]
      - [ 9.30232555e-03, 0., 0., 9.30232555e-03, 4.65116277e-03, 0.,
          4.65116277e-03, 9.30232555e-03, 0., 4.65116277e-03, 0., 0., 0.,
          4.65116277e-03, 4.65116277e-03, 0., 1.86046511e-02,
          4.65116277e-03, 0., 4.65116277e-03, 0., 0., 0., 0., 0.,
          1.39534883e-02, 4.65116277e-03, 0., 0., 0., 9.30232555e-03,
          4.65116277e-03, 1.39534883e-02, 0., 1.39534883e-02,
          4.65116277e-03, 0., 0., 0., 4.65116277e-03, 0., 4.65116277e-03,
          0., 4.65116277e-03, 4.65116277e-03, 9.30232555e-03, 0.,
          4.65116277e-03, 4.65116277e-03, 9.30232555e-03, 0., 0., 0.,
          4.65116277e-03, 4.65116277e-03, 9.30232555e-03, 4.65116277e-03,
          0., 4.65116277e-03, 4.65116277e-03, 0., 0., 9.30232555e-03, 0.,
          4.65116277e-03, 0., 0., 1.39534883e-02, 4.65116277e-03,
          4.65116277e-03, 0., 4.65116277e-03, 4.65116277e-03, 0.,
          4.65116277e-03, 4.65116277e-03, 4.65116277e-03, 4.65116277e-03,
          0., 0., 4.65116277e-03, 4.65116277e-03, 0., 0., 4.65116277e-03,
          0., 9.30232555e-03, 4.65116277e-03, 4.65116277e-03,
          1.39534883e-02, 1.86046511e-02, 4.65116277e-03, 0., 0.,
          4.65116277e-03, 0., 0., 0., 0., 1.86046511e-02, 0.,
          4.65116277e-03, 0., 4.65116277e-03, 0., 4.65116277e-03, 0.,
          4.65116277e-03, 0., 0., 4.65116277e-03, 9.30232555e-03,
          4.65116277e-03, 0., 4.65116277e-03, 0., 0., 0., 4.65116277e-03,
          4.65116277e-03, 1.39534883e-02, 0., 0., 4.65116277e-03, 0.,
          4.65116277e-03, 4.65116277e-03, 9.30232555e-03, 0., 0., 0., 0.,
          4.65116277e-03, 0., 0., 4.65116277e-03, 0., 0., 4.65116277e-03,
          9.30232555e-03, 0., 0., 0., 1.39534883e-02, 1.39534883e-02,
          9.30232555e-03, 1.39534883e-02, 0., 0., 0., 4.65116277e-03, 0.,
          1.39534883e-02, 4.65116277e-03, 4.65116277e-03, 4.65116277e-03,
          0., 4.65116277e-03, 9.30232555e-03, 4.65116277e-03,
          9.30232555e-03, 9.30232555e-03, 4.65116277e-03, 0.,
          4.65116277e-03, 0., 0., 4.65116277e-03, 0., 9.30232555e-03,
          4.65116277e-03, 9.30232555e-03, 0., 0., 0., 4.65116277e-03,
          9.30232555e-03, 0., 0., 9.30232555e-03, 9.30232555e-03,
          4.65116277e-03, 0., 0., 4.65116277e-03, 1.39534883e-02,
          4.65116277e-03, 4.65116277e-03, 9.30232555e-03, 0.,
          4.65116277e-03, 4.65116277e-03, 0., 0., 9.30232555e-03,
          9.30232555e-03, 4.65116277e-03, 4.65116277e-03, 0., 0., 0., 0.,
          1.86046511e-02, 4.65116277e-03, 9.30232555e-03, 9.30232555e-03,
          0., 9.30232555e-03, 0., 3.72093022e-02, 4.65116277e-03,
          4.65116277e-03, 4.65116277e-03, 0., 0., 0., 0., 0.,
          9.30232555e-03, 4.65116277e-03, 0., 0., 1.39534883e-02,
          9.30232555e-03, 4.65116277e-03, 4.65116277e-03, 0., 0.,
          9.30232555e-03, 4.65116277e-03, 0., 0., 9.30232555e-03, 0.,
          9.30232555e-03, 4.65116277e-03, 0., 4.65116277e-03, 0., 0.,
          4.65116277e-03, 0., 0., 9.30232555e-03, 9.30232555e-03,
          9.30232555e-03, 0., 0., 4.65116277e-03, 9.30232555e-03 ]
      - [ 3.13971750e-03, 4.70957626e-03, 1.56985875e-03, 3.13971750e-03,
          3.13971750e-03, 1.56985875e-03, 3.13971750e-03, 3.13971750e-03,
          3.13971750e-03, 0., 4.70957626e-03, 1.56985875e-03,
          4.70957626e-03, 9.41915251e-03, 7.84929376e-03, 6.27943501e-03,
          9.41915251e-03, 3.13971750e-03, 3.13971750e-03, 4.70957626e-03,
          7.84929376e-03, 3.13971750e-03, 6.27943501e-03, 1.56985875e-03,
          7.84929376e-03, 1.56985875e-03, 0., 0., 1.56985875e-03,
          4.70957626e-03, 4.70957626e-03, 3.13971750e-03, 4.70957626e-03,
          3.13971750e-03, 3.13971750e-03, 6.27943501e-03, 0., 0.,
          6.27943501e-03, 1.56985875e-03, 4.70957626e-03, 3.13971750e-03,
          4.70957626e-03, 6.27943501e-03, 0., 0., 1.56985875e-03,
          6.27943501e-03, 3.13971750e-03, 4.70957626e-03, 4.70957626e-03,
          1.56985875e-03, 3.13971750e-03, 6.27943501e-03, 1.56985875e-03,
          4.70957626e-03, 1.56985875e-03, 1.56985875e-03, 4.70957626e-03,
          6.27943501e-03, 7.84929376e-03, 9.41915251e-03, 6.27943501e-03,
          0., 1.56985875e-03, 1.56985875e-03, 1.56985875e-03,
          6.27943501e-03, 1.56985875e-03, 7.84929376e-03, 9.41915251e-03,
          3.13971750e-03, 3.13971750e-03, 1.56985875e-03, 6.27943501e-03,
          3.13971750e-03, 1.56985875e-03, 3.13971750e-03, 1.56985875e-03,
          7.84929376e-03, 1.56985875e-03, 6.27943501e-03, 3.13971750e-03,
          4.70957626e-03, 0., 6.27943501e-03, 3.13971750e-03,
          1.56985875e-03, 1.56985875e-03, 3.13971750e-03, 4.70957626e-03,
          4.70957626e-03, 3.13971750e-03, 3.13971750e-03, 1.56985875e-03,
          1.09890113e-02, 1.56985875e-03, 0., 1.56985875e-03,
          6.27943501e-03, 3.13971750e-03, 7.84929376e-03, 3.13971750e-03,
          1.56985875e-03, 3.13971750e-03, 4.70957626e-03, 4.70957626e-03,
          1.56985875e-03, 3.13971750e-03, 6.27943501e-03, 3.13971750e-03,
          9.41915251e-03, 9.41915251e-03, 1.56985875e-03, 6.27943501e-03,
          0., 0., 4.70957626e-03, 1.56985875e-03, 4.70957626e-03,
          3.13971750e-03, 7.84929376e-03, 1.56985875e-03, 6.27943501e-03,
          1.56985875e-03, 0., 4.70957626e-03, 0., 3.13971750e-03,
          4.70957626e-03, 1.56985875e-03, 4.70957626e-03, 4.70957626e-03,
          3.13971750e-03, 3.13971750e-03, 3.13971750e-03, 1.56985875e-03,
          6.27943501e-03, 7.84929376e-03, 1.56985875e-03, 3.13971750e-03,
          0., 4.70957626e-03, 1.56985875e-03, 3.13971750e-03, 0.,
          4.70957626e-03, 4.70957626e-03, 3.13971750e-03, 4.70957626e-03,
          3.13971750e-03, 6.27943501e-03, 9.41915251e-03, 1.09890113e-02,
          6.27943501e-03, 0., 3.13971750e-03, 0., 3.13971750e-03, 0.,
          7.84929376e-03, 9.41915251e-03, 1.56985875e-03, 6.27943501e-03,
          7.84929376e-03, 1.41287288e-02, 4.70957626e-03, 1.56985875e-03,
          4.70957626e-03, 1.09890113e-02, 1.56985875e-03, 1.56985875e-03,
          1.56985875e-03, 3.13971750e-03, 0., 4.70957626e-03, 0.,
          1.56985875e-03, 6.27943501e-03, 4.70957626e-03, 1.56985875e-03,
          0., 1.56985875e-03, 3.13971750e-03, 0., 3.13971750e-03,
          1.41287288e-02, 4.70957626e-03, 6.27943501e-03, 1.56985875e-03,
          0., 4.70957626e-03, 7.84929376e-03, 1.56985875e-03,
          1.56985875e-03, 3.13971750e-03, 3.13971750e-03, 0.,
          1.56985875e-03, 4.70957626e-03, 1.25588700e-02, 4.70957626e-03,
          0., 3.13971750e-03, 9.41915251e-03, 6.27943501e-03,
          4.70957626e-03, 0., 3.13971750e-03, 1.25588700e-02,
          1.56985875e-03, 1.56985875e-03, 4.70957626e-03, 1.56985875e-03,
          4.70957626e-03, 6.27943501e-03, 3.13971750e-03, 1.56985875e-03,
          3.13971750e-03, 4.70957626e-03, 1.09890113e-02, 4.70957626e-03,
          0., 4.70957626e-03, 4.70957626e-03, 3.13971750e-03,
          6.27943501e-03, 3.13971750e-03, 1.56985875e-03, 4.70957626e-03,
          1.56985875e-03, 0., 4.70957626e-03, 9.41915251e-03,
          4.70957626e-03, 7.84929376e-03, 3.13971750e-03, 4.70957626e-03,
          1.56985875e-03, 3.13971750e-03, 9.41915251e-03, 2.04081647e-02,
          9.41915251e-03, 4.70957626e-03, 9.41915251e-03, 3.13971750e-03,
          1.56985875e-03, 6.27943501e-03, 0., 6.27943501e-03 ]
      - [ 4.37636767e-03, 0., 4.37636767e-03, 6.56455150e-03,
          4.37636767e-03, 4.37636767e-03, 4.37636767e-03, 4.37636767e-03,
          2.18818383e-03, 0., 6.56455150e-03, 4.37636767e-03,
          6.56455150e-03, 2.18818383e-03, 4.37636767e-03, 4.37636767e-03,
          2.18818383e-03, 6.56455150e-03, 6.56455150e-03, 6.56455150e-03,
          4.37636767e-03, 6.56455150e-03, 2.18818383e-03, 2.18818383e-03,
          8.75273533e-03, 2.18818383e-03, 0., 2.18818383e-03, 0.,
          2.18818383e-03, 8.75273533e-03, 6.56455150e-03, 6.56455150e-03,
          2.18818383e-03, 6.56455150e-03, 4.37636767e-03, 2.18818383e-03,
          0., 0., 2.18818383e-03, 4.37636767e-03, 4.37636767e-03,
          4.37636767e-03, 2.18818383e-03, 4.37636767e-03, 4.37636767e-03,
          0., 4.37636767e-03, 2.18818383e-03, 6.56455150e-03,
          8.75273533e-03, 6.56455150e-03, 0., 1.09409187e-02,
          2.18818383e-03, 8.75273533e-03, 6.56455150e-03, 4.37636767e-03,
          1.75054707e-02, 6.56455150e-03, 2.18818383e-03, 4.37636767e-03,
          4.37636767e-03, 1.09409187e-02, 4.37636767e-03, 6.56455150e-03,
          4.37636767e-03, 6.56455150e-03, 6.56455150e-03, 8.75273533e-03,
          2.18818383e-03, 8.75273533e-03, 2.18818383e-03, 0.,
          2.18818383e-03, 2.18818383e-03, 4.37636767e-03, 6.56455150e-03,
          2.18818383e-03, 0., 6.56455150e-03, 2.18818383e-03,
          4.37636767e-03, 0., 2.18818383e-03, 0., 0., 2.18818383e-03,
          2.18818383e-03, 2.18818383e-03, 0., 0., 2.18818383e-03,
          4.37636767e-03, 2.18818383e-03, 2.18818383e-03, 4.37636767e-03,
          6.56455150e-03, 8.75273533e-03, 0., 4.37636767e-03,
          2.18818383e-03, 4.37636767e-03, 4.37636767e-03, 4.37636767e-03,
          8.75273533e-03, 0., 0., 8.75273533e-03, 2.18818383e-03,
          8.75273533e-03, 1.09409187e-02, 1.09409187e-02, 4.37636767e-03,
          6.56455150e-03, 4.37636767e-03, 2.18818383e-03, 2.18818383e-03,
          2.18818383e-03, 6.56455150e-03, 6.56455150e-03, 2.18818383e-03,
          0., 4.37636767e-03, 0., 2.18818383e-03, 0., 2.18818383e-03,
          4.37636767e-03, 6.56455150e-03, 8.75273533e-03, 2.18818383e-03,
          0., 2.18818383e-03, 2.18818383e-03, 1.31291030e-02,
          6.56455150e-03, 4.37636767e-03, 4.37636767e-03, 4.37636767e-03,
          4.37636767e-03, 0., 2.18818383e-03, 2.18818383e-03, 0.,
          2.18818383e-03, 6.56455150e-03, 2.18818383e-03, 6.56455150e-03,
          2.18818383e-03, 4.37636767e-03, 4.37636767e-03, 0.,
          2.18818383e-03, 0., 4.37636767e-03, 4.37636767e-03,
          4.37636767e-03, 0., 8.75273533e-03, 6.56455150e-03,
          2.18818383e-03, 4.37636767e-03, 2.18818383e-03, 2.18818383e-03,
          2.18818383e-03, 4.37636767e-03, 2.18818383e-03, 2.18818383e-03,
          0., 6.56455150e-03, 0., 8.75273533e-03, 2.18818383e-03,
          2.18818383e-03, 8.75273533e-03, 0., 6.56455150e-03,
          4.37636767e-03, 0., 2.18818383e-03, 4.37636767e-03, 0.,
          4.37636767e-03, 0., 2.18818383e-03, 4.37636767e-03,
          8.75273533e-03, 6.56455150e-03, 0., 0., 4.37636767e-03, 0.,
          4.37636767e-03, 0., 2.18818383e-03, 2.18818383e-03,
          8.75273533e-03, 8.75273533e-03, 1.09409187e-02, 6.56455150e-03,
          4.37636767e-03, 0., 2.18818383e-03, 2.18818383e-03,
          6.56455150e-03, 4.37636767e-03, 0., 4.37636767e-03,
          8.75273533e-03, 8.75273533e-03, 0., 6.56455150e-03,
          6.56455150e-03, 8.75273533e-03, 1.09409187e-02, 4.37636767e-03,
          0., 4.37636767e-03, 0., 4.37636767e-03, 8.75273533e-03,
          4.37636767e-03, 4.37636767e-03, 6.56455150e-03, 8.75273533e-03,
          0., 2.18818383e-03, 2.18818383e-03, 0., 6.56455150e-03,
          2.18818383e-03, 2.18818383e-03, 2.18818383e-03, 4.37636767e-03,
          2.18818383e-03, 4.37636767e-03, 2.18818383e-03, 2.18818383e-03,
          2.18818383e-03, 4.37636767e-03, 2.18818383e-03, 6.56455150e-03,
          8.75273533e-03, 2.18818383e-03, 4.37636767e-03, 6.56455150e-03,
          4.37636767e-03, 4.37636767e-03, 8.75273533e-03 ]
      - [ 0., 4.99999989e-03, 0., 2.49999994e-03, 2.49999994e-03,
          2.49999994e-03, 2.49999994e-03, 9.99999978e-03, 9.99999978e-03,
          2.49999994e-03, 0., 2.49999994e-03, 2.49999994e-03, 0.,
          9.99999978e-03, 7.49999983e-03, 1.24999993e-02, 0., 0.,
          2.49999994e-03, 2.49999994e-03, 2.49999994e-03, 4.99999989e-03,
          2.49999994e-03, 2.49999994e-03, 2.49999994e-03, 2.49999994e-03,
          0., 7.49999983e-03, 0., 9.99999978e-03, 2.49999994e-03,
          9.99999978e-03, 4.99999989e-03, 4.99999989e-03, 0.,
          4.99999989e-03, 0., 2.49999994e-03, 0., 9.99999978e-03,
          9.99999978e-03, 2.49999994e-03, 9.99999978e-03, 9.99999978e-03,
          7.49999983e-03, 0., 2.49999994e-03, 7.49999983e-03,
          2.49999994e-03, 4.99999989e-03, 4.99999989e-03, 0.,
          2.49999994e-03, 0., 2.49999994e-03, 2.49999994e-03,
          2.49999994e-03, 2.49999994e-03, 4.99999989e-03, 4.99999989e-03,
          9.99999978e-03, 4.99999989e-03, 0., 2.49999994e-03,
          2.49999994e-03, 0., 4.99999989e-03, 2.49999994e-03,
          2.49999994e-03, 0., 4.99999989e-03, 0., 7.49999983e-03, 0.,
          4.99999989e-03, 2.49999994e-03, 0., 9.99999978e-03, 0.,
          9.99999978e-03, 4.99999989e-03, 0., 4.99999989e-03,
          4.99999989e-03, 2.49999994e-03, 2.49999994e-03, 0.,
          4.99999989e-03, 0., 2.49999994e-03, 0., 4.99999989e-03,
          2.49999994e-03, 0., 7.49999983e-03, 9.99999978e-03,
          7.49999983e-03, 9.99999978e-03, 9.99999978e-03, 4.99999989e-03,
          9.99999978e-03, 7.49999983e-03, 2.49999994e-03, 2.49999994e-03,
          2.49999994e-03, 4.99999989e-03, 4.99999989e-03, 4.99999989e-03,
          2.49999994e-03, 2.49999994e-03, 7.49999983e-03, 1.24999993e-02,
          7.49999983e-03, 2.49999994e-03, 2.49999994e-03, 0.,
          9.99999978e-03, 0., 0., 2.49999994e-03, 2.49999994e-03, 0., 0.,
          0., 2.49999994e-03, 0., 9.99999978e-03, 2.49999994e-03,
          2.49999994e-03, 2.49999994e-03, 7.49999983e-03, 0.,
          2.49999994e-03, 2.49999994e-03, 9.99999978e-03, 7.49999983e-03,
          0., 0., 4.99999989e-03, 0., 2.49999994e-03, 0., 4.99999989e-03,
          4.99999989e-03, 7.49999983e-03, 4.99999989e-03, 9.99999978e-03,
          2.49999994e-03, 2.49999994e-03, 0., 0., 7.49999983e-03,
          7.49999983e-03, 2.49999994e-03, 2.49999994e-03, 2.49999994e-03,
          4.99999989e-03, 0., 2.49999994e-03, 2.49999994e-03,
          7.49999983e-03, 0., 9.99999978e-03, 0., 4.99999989e-03,
          2.49999994e-03, 2.49999994e-03, 2.49999994e-03, 0.,
          2.49999994e-03, 4.99999989e-03, 7.49999983e-03, 0.,
          7.49999983e-03, 0., 1.75000001e-02, 9.99999978e-03,
          2.49999994e-03, 2.49999994e-03, 4.99999989e-03, 4.99999989e-03,
          4.99999989e-03, 2.49999994e-03, 2.49999994e-03, 0.,
          2.49999994e-03, 4.99999989e-03, 2.49999994e-03, 2.49999994e-03,
          2.49999994e-03, 2.49999994e-03, 9.99999978e-03, 4.99999989e-03,
          4.99999989e-03, 1.49999997e-02, 0., 2.49999994e-03,
          4.99999989e-03, 2.49999994e-03, 4.99999989e-03, 4.99999989e-03,
          4.99999989e-03, 4.99999989e-03, 0., 9.99999978e-03,
          4.99999989e-03, 0., 2.49999994e-03, 9.99999978e-03,
          2.49999994e-03, 0., 2.49999994e-03, 4.99999989e-03,
          2.49999994e-03, 7.49999983e-03, 0., 2.49999994e-03,
          7.49999983e-03, 0., 4.99999989e-03, 7.49999983e-03,
          2.49999994e-03, 7.49999983e-03, 9.99999978e-03, 0.,
          2.49999994e-03, 4.99999989e-03, 0., 4.99999989e-03,
          9.99999978e-03, 0., 0., 2.49999994e-03, 0., 1.24999993e-02,
          2.49999994e-03, 9.99999978e-03, 2.49999994e-03, 0.,
          2.49999994e-03, 0., 7.49999983e-03, 7.49999983e-03,
          9.99999978e-03, 7.49999983e-03, 4.99999989e-03, 7.49999983e-03,
          7.49999983e-03, 2.49999994e-03 ]
      - [ 4.01606411e-03, 8.03212821e-03, 4.01606411e-03, 0., 0., 0.,
          8.03212821e-03, 1.60642564e-02, 8.03212821e-03, 0., 0., 0., 0.,
          8.03212821e-03, 4.01606411e-03, 4.01606411e-03, 0., 0.,
          1.60642564e-02, 8.03212821e-03, 4.01606411e-03, 8.03212821e-03,
          0., 0., 4.01606411e-03, 8.03212821e-03, 4.01606411e-03, 0.,
          4.01606411e-03, 4.01606411e-03, 4.01606411e-03, 8.03212821e-03,
          4.01606411e-03, 0., 4.01606411e-03, 8.03212821e-03,
          4.01606411e-03, 0., 8.03212821e-03, 8.03212821e-03,
          4.01606411e-03, 0., 8.03212821e-03, 4.01606411e-03, 0.,
          2.40963846e-02, 4.01606411e-03, 4.01606411e-03, 8.03212821e-03,
          0., 0., 0., 0., 0., 4.01606411e-03, 4.01606411e-03,
          4.01606411e-03, 4.01606411e-03, 4.01606411e-03, 4.01606411e-03,
          8.03212821e-03, 4.01606411e-03, 0., 0., 0., 1.20481923e-02,
          1.20481923e-02, 4.01606411e-03, 1.20481923e-02, 4.01606411e-03,
          0., 8.03212821e-03, 4.01606411e-03, 4.01606411e-03, 0.,
          4.01606411e-03, 0., 0., 0., 0., 0., 4.01606411e-03,
          8.03212821e-03, 0., 4.01606411e-03, 4.01606411e-03,
          4.01606411e-03, 4.01606411e-03, 0., 4.01606411e-03, 0.,
          1.20481923e-02, 8.03212821e-03, 0., 0., 0., 0., 8.03212821e-03,
          1.20481923e-02, 4.01606411e-03, 1.20481923e-02, 1.20481923e-02,
          0., 1.20481923e-02, 0., 0., 4.01606411e-03, 0., 0.,
          4.01606411e-03, 8.03212821e-03, 4.01606411e-03, 4.01606411e-03,
          0., 4.01606411e-03, 4.01606411e-03, 4.01606411e-03, 0.,
          4.01606411e-03, 1.20481923e-02, 4.01606411e-03, 0., 0.,
          4.01606411e-03, 4.01606411e-03, 4.01606411e-03, 8.03212821e-03,
          4.01606411e-03, 0., 0., 1.20481923e-02, 0., 4.01606411e-03,
          8.03212821e-03, 0., 4.01606411e-03, 4.01606411e-03, 0., 0., 0.,
          0., 4.01606411e-03, 0., 0., 4.01606411e-03, 8.03212821e-03,
          2.40963846e-02, 0., 0., 4.01606411e-03, 1.60642564e-02,
          4.01606411e-03, 4.01606411e-03, 1.20481923e-02, 0.,
          4.01606411e-03, 0., 1.20481923e-02, 0., 0., 0., 8.03212821e-03,
          1.20481923e-02, 0., 0., 0., 0., 8.03212821e-03, 0., 0.,
          4.01606411e-03, 4.01606411e-03, 4.01606411e-03, 4.01606411e-03,
          0., 4.01606411e-03, 0., 0., 4.01606411e-03, 0., 4.01606411e-03,
          4.01606411e-03, 8.03212821e-03, 0., 8.03212821e-03,
          1.60642564e-02, 0., 0., 0., 4.01606411e-03, 8.03212821e-03,
          2.00803205e-02, 0., 8.03212821e-03, 4.01606411e-03,
          4.01606411e-03, 1.20481923e-02, 8.03212821e-03, 0., 0., 0.,
          4.01606411e-03, 4.01606411e-03, 4.01606411e-03, 4.01606411e-03,
          4.01606411e-03, 4.01606411e-03, 8.03212821e-03, 0.,
          1.20481923e-02, 0., 0., 8.03212821e-03, 0., 8.03212821e-03,
          4.01606411e-03, 4.01606411e-03, 0., 4.01606411e-03, 0.,
          8.03212821e-03, 4.01606411e-03, 8.03212821e-03, 4.01606411e-03,
          4.01606411e-03, 4.01606411e-03, 8.03212821e-03, 4.01606411e-03,
          0., 4.01606411e-03, 8.03212821e-03, 4.01606411e-03,
          1.20481923e-02, 0., 4.01606411e-03, 0., 4.01606411e-03, 0., 0.,
          4.01606411e-03, 0., 0., 8.03212821e-03, 4.01606411e-03,
          4.01606411e-03, 0., 0., 8.03212821e-03, 8.03212821e-03, 0. ]
      - [ 4.92610829e-03, 0., 9.85221658e-03, 4.92610829e-03, 0.,
          9.85221658e-03, 0., 0., 0., 4.92610829e-03, 0., 0., 0., 0., 0.,
          0., 4.92610829e-03, 4.92610829e-03, 4.92610829e-03,
          4.92610829e-03, 0., 0., 9.85221658e-03, 9.85221658e-03,
          4.92610829e-03, 0., 1.47783253e-02, 4.92610829e-03, 0., 0.,
          4.92610829e-03, 0., 0., 0., 0., 4.92610829e-03, 0., 0.,
          4.92610829e-03, 4.92610829e-03, 0., 4.92610829e-03, 0.,
          9.85221658e-03, 0., 1.47783253e-02, 1.47783253e-02,
          4.92610829e-03, 0., 0., 4.92610829e-03, 4.92610829e-03,
          9.85221658e-03, 0., 0., 0., 0., 0., 4.92610829e-03, 0., 0.,
          1.47783253e-02, 4.92610829e-03, 0., 4.92610829e-03, 0., 0., 0.,
          0., 0., 4.92610829e-03, 4.92610829e-03, 1.97044332e-02, 0., 0.,
          0., 0., 4.92610829e-03, 0., 0., 4.92610829e-03, 0.,
          9.85221658e-03, 0., 4.92610829e-03, 1.47783253e-02, 0., 0.,
          1.47783253e-02, 9.85221658e-03, 0., 0., 0., 9.85221658e-03,
          9.85221658e-03, 1.47783253e-02, 0., 4.92610829e-03,
          1.47783253e-02, 1.97044332e-02, 0., 0., 4.92610829e-03,
          9.85221658e-03, 0., 0., 0., 0., 0., 0., 0., 0., 9.85221658e-03,
          4.92610829e-03, 0., 4.92610829e-03, 0., 4.92610829e-03, 0., 0.,
          4.92610829e-03, 4.92610829e-03, 4.92610829e-03, 0., 0., 0., 0.,
          0., 0., 0., 0., 0., 0., 4.92610829e-03, 0., 0., 9.85221658e-03,
          0., 0., 0., 9.85221658e-03, 0., 0., 4.92610829e-03,
          1.47783253e-02, 4.92610829e-03, 1.97044332e-02, 4.92610829e-03,
          0., 0., 4.92610829e-03, 1.47783253e-02, 1.97044332e-02, 0.,
          1.97044332e-02, 0., 0., 0., 0., 0., 0., 0., 4.92610829e-03, 0.,
          0., 0., 1.47783253e-02, 4.92610829e-03, 4.92610829e-03,
          4.92610829e-03, 1.47783253e-02, 0., 0., 4.92610829e-03, 0., 0.,
          4.92610829e-03, 9.85221658e-03, 4.92610829e-03, 3.94088663e-02,
          0., 4.92610829e-03, 0., 0., 9.85221658e-03, 4.92610829e-03,
          9.85221658e-03, 9.85221658e-03, 4.92610829e-03, 0., 0., 0.,
          4.92610829e-03, 4.92610829e-03, 0., 0., 1.47783253e-02, 0.,
          4.92610829e-03, 9.85221658e-03, 0., 4.92610829e-03, 0., 0.,
          1.97044332e-02, 4.92610829e-03, 0., 9.85221658e-03,
          4.92610829e-03, 0., 0., 4.92610829e-03, 0., 0., 0., 0.,
          9.85221658e-03, 0., 9.85221658e-03, 0., 9.85221658e-03, 0.,
          4.92610829e-03, 0., 0., 9.85221658e-03, 0., 0., 0.,
          1.47783253e-02, 0., 0., 0., 4.92610829e-03, 9.85221658e-03, 0.,
          0., 4.92610829e-03, 0., 0., 3.94088663e-02, 4.92610829e-03,
          9.85221658e-03, 0., 4.92610829e-03, 9.85221658e-03,
          1.47783253e-02, 9.85221658e-03, 9.85221658e-03, 0. ]
      - [ 3.41530051e-03, 2.39071040e-03, 1.36612018e-03, 5.80601068e-03,
          3.41530051e-03, 2.73224036e-03, 6.48907106e-03, 8.53825081e-03,
          4.43989038e-03, 1.36612018e-03, 2.04918021e-03, 2.39071040e-03,
          5.12295077e-03, 5.80601068e-03, 8.53825081e-03, 4.43989038e-03,
          6.48907106e-03, 4.09836043e-03, 2.04918021e-03, 1.16120214e-02,
          2.73224036e-03, 6.48907106e-03, 3.41530051e-03, 3.07377032e-03,
          5.80601068e-03, 2.39071040e-03, 3.41530051e-03, 2.04918021e-03,
          4.43989038e-03, 4.43989038e-03, 6.83060102e-03, 3.75683047e-03,
          3.07377032e-03, 2.04918021e-03, 9.56284162e-03, 5.12295077e-03,
          4.43989038e-03, 7.51366094e-03, 8.53825081e-03, 1.70765026e-03,
          4.09836043e-03, 2.04918021e-03, 2.04918021e-03, 3.75683047e-03,
          5.80601068e-03, 3.41530051e-03, 2.04918021e-03, 5.80601068e-03,
          5.46448072e-03, 2.73224036e-03, 4.78142081e-03, 3.41530051e-03,
          5.46448072e-03, 2.39071040e-03, 4.09836043e-03, 4.43989038e-03,
          2.73224036e-03, 6.14754064e-03, 7.51366094e-03, 4.09836043e-03,
          1.70765026e-03, 3.41530051e-03, 4.43989038e-03, 3.75683047e-03,
          2.39071040e-03, 1.02459011e-03, 4.09836043e-03, 3.07377032e-03,
          2.04918021e-03, 4.78142081e-03, 1.70765026e-03, 2.04918021e-03,
          1.36612018e-03, 5.46448072e-03, 2.39071040e-03, 1.70765026e-03,
          1.70765026e-03, 4.09836043e-03, 4.09836043e-03, 6.48907106e-03,
          3.75683047e-03, 4.09836043e-03, 3.75683047e-03, 3.07377032e-03,
          1.02459011e-03, 8.19672085e-03, 5.80601068e-03, 4.09836043e-03,
          4.78142081e-03, 3.07377032e-03, 1.70765026e-03, 3.41530045e-04,
          3.75683047e-03, 7.85519090e-03, 4.78142081e-03, 5.46448072e-03,
          2.04918021e-03, 2.73224036e-03, 1.02459015e-02, 3.07377032e-03,
          1.36612018e-03, 1.19535513e-02, 4.78142081e-03, 8.53825081e-03,
          1.36612018e-03, 1.36612018e-03, 2.04918021e-03, 6.48907106e-03,
          4.43989038e-03, 2.73224036e-03, 1.02459011e-03, 4.78142081e-03,
          1.46857919e-02, 3.75683047e-03, 3.41530045e-04, 4.43989038e-03,
          1.02459011e-03, 3.41530051e-03, 3.41530051e-03, 3.41530051e-03,
          4.09836043e-03, 4.43989038e-03, 6.48907106e-03, 1.36612018e-03,
          2.73224036e-03, 7.17213098e-03, 3.41530051e-03, 3.07377032e-03,
          7.17213098e-03, 2.39071040e-03, 6.83060091e-04, 1.36612018e-03,
          3.07377032e-03, 1.70765026e-03, 2.39071040e-03, 1.70765026e-03,
          2.39071040e-03, 1.36612018e-03, 2.73224036e-03, 9.56284162e-03,
          2.04918021e-03, 2.39071040e-03, 3.75683047e-03, 3.41530051e-03,
          2.73224036e-03, 5.12295077e-03, 2.73224036e-03, 2.73224036e-03,
          3.07377032e-03, 3.41530051e-03, 6.83060091e-04, 3.07377032e-03,
          1.63934417e-02, 2.39071040e-03, 4.09836043e-03, 3.41530051e-03,
          8.53825081e-03, 2.39071040e-03, 5.80601068e-03, 4.09836043e-03,
          3.75683047e-03, 3.41530051e-03, 3.41530051e-03, 2.73224036e-03,
          4.43989038e-03, 3.75683047e-03, 6.14754064e-03, 1.70765026e-03,
          3.07377032e-03, 6.48907106e-03, 3.75683047e-03, 1.02459011e-03,
          5.12295077e-03, 4.43989038e-03, 1.36612018e-03, 3.07377032e-03,
          2.73224036e-03, 7.51366094e-03, 5.12295077e-03, 4.78142081e-03,
          7.85519090e-03, 3.75683047e-03, 4.09836043e-03, 4.78142081e-03,
          3.41530051e-03, 5.46448072e-03, 6.14754064e-03, 3.41530051e-03,
          1.70765026e-03, 3.41530051e-03, 3.75683047e-03, 6.14754064e-03,
          4.78142081e-03, 3.75683047e-03, 4.09836043e-03, 1.36612018e-03,
          5.80601068e-03, 6.83060091e-04, 7.51366094e-03, 2.39071040e-03,
          2.04918021e-03, 7.51366094e-03, 5.46448072e-03, 5.80601068e-03,
          1.70765026e-03, 9.22131166e-03, 7.17213098e-03, 3.75683047e-03,
          3.07377032e-03, 3.75683047e-03, 3.07377032e-03, 8.53825081e-03,
          6.48907106e-03, 6.48907106e-03, 2.73224036e-03, 4.09836043e-03,
          1.02459011e-03, 1.02459011e-03, 3.75683047e-03, 3.07377032e-03,
          2.04918021e-03, 2.73224036e-03, 1.70765026e-03, 4.43989038e-03,
          1.70765026e-03, 1.02459011e-03, 3.75683047e-03, 3.07377032e-03,
          2.39071040e-03, 2.39071040e-03, 3.41530051e-03, 4.78142081e-03,
          1.70765026e-03, 3.07377032e-03, 7.85519090e-03, 3.75683047e-03,
          6.83060091e-04, 1.02459015e-02, 6.14754064e-03, 1.70765026e-03,
          3.41530051e-03, 2.73224036e-03, 4.09836043e-03, 1.70765026e-03,
          3.41530051e-03, 2.73224036e-03, 3.41530051e-03, 1.70765026e-03,
          5.12295077e-03, 2.73224036e-03 ]
      - [ 2.76667695e-03, 5.84076205e-03, 2.45926832e-03, 5.22594526e-03,
          2.76667695e-03, 5.22594526e-03, 4.91853664e-03, 1.35259759e-02,
          7.68521335e-03, 2.45926832e-03, 6.76298793e-03, 1.22963416e-03,
          2.45926832e-03, 1.53704267e-03, 4.30371938e-03, 4.91853664e-03,
          2.15185969e-03, 7.68521335e-03, 1.84445130e-03, 1.84445130e-03,
          7.07039656e-03, 2.45926832e-03, 3.68890259e-03, 6.45557931e-03,
          6.14817068e-03, 2.76667695e-03, 4.91853664e-03, 6.14817068e-03,
          2.76667695e-03, 3.07408540e-04, 2.45926832e-03, 6.14817068e-03,
          1.22963416e-03, 2.15185969e-03, 2.15185969e-03, 2.45926832e-03,
          3.38149397e-03, 1.84445130e-03, 3.07408534e-03, 1.53704267e-03,
          5.53335389e-03, 3.38149397e-03, 2.45926832e-03, 1.84445130e-03,
          1.22963416e-03, 3.07408534e-03, 2.76667695e-03, 1.84445130e-03,
          4.91853664e-03, 3.99631122e-03, 5.53335389e-03, 5.22594526e-03,
          1.53704267e-03, 3.38149397e-03, 8.91484786e-03, 9.22225649e-04,
          9.22225602e-03, 3.68890259e-03, 3.07408534e-03, 4.30371938e-03,
          6.14817068e-03, 1.22963416e-03, 2.45926832e-03, 2.15185969e-03,
          5.22594526e-03, 1.84445130e-03, 3.68890259e-03, 5.84076205e-03,
          7.37780519e-03, 2.76667695e-03, 2.45926832e-03, 3.38149397e-03,
          9.22225649e-04, 3.99631122e-03, 4.91853664e-03, 3.38149397e-03,
          2.15185969e-03, 1.53704267e-03, 7.68521335e-03, 2.15185969e-03,
          3.68890259e-03, 5.22594526e-03, 3.07408534e-03, 5.84076205e-03,
          4.91853664e-03, 1.22963416e-03, 3.99631122e-03, 3.68890259e-03,
          3.07408534e-03, 3.68890259e-03, 4.91853664e-03, 4.61112801e-03,
          1.07592987e-02, 4.61112801e-03, 5.22594526e-03, 5.84076205e-03,
          4.91853664e-03, 3.99631122e-03, 3.38149397e-03, 1.84445130e-03,
          6.45557931e-03, 9.22225602e-03, 5.22594526e-03, 3.99631122e-03,
          3.99631122e-03, 5.53335389e-03, 1.59852449e-02, 3.07408534e-03,
          7.07039656e-03, 2.76667695e-03, 3.38149397e-03, 4.61112801e-03,
          2.79741772e-02, 5.22594526e-03, 5.53335389e-03, 1.22963416e-03,
          7.99262244e-03, 5.53335389e-03, 3.38149397e-03, 3.68890259e-03,
          4.61112801e-03, 7.07039656e-03, 1.53704267e-03, 2.15185969e-03,
          5.84076205e-03, 3.68890259e-03, 5.22594526e-03, 3.38149397e-03,
          6.14817068e-03, 6.14817080e-04, 9.22225649e-04, 4.61112801e-03,
          3.68890259e-03, 9.83707327e-03, 6.76298793e-03, 5.84076205e-03,
          3.99631122e-03, 5.22594526e-03, 2.76667695e-03, 3.07408534e-03,
          2.15185969e-03, 5.53335389e-03, 4.61112801e-03, 1.22963416e-03,
          1.22963416e-03, 2.76667695e-03, 3.99631122e-03, 3.07408534e-03,
          9.22225602e-03, 2.76667695e-03, 9.22225649e-04, 1.84445130e-03,
          6.45557931e-03, 1.84445130e-03, 3.07408534e-03, 6.45557931e-03,
          5.53335389e-03, 1.22963416e-03, 4.61112801e-03, 7.07039656e-03,
          3.38149397e-03, 3.38149397e-03, 3.68890259e-03, 3.99631122e-03,
          3.68890259e-03, 3.38149397e-03, 4.30371938e-03, 1.22963416e-03,
          4.91853664e-03, 4.61112801e-03, 2.45926832e-03, 3.07408534e-03,
          3.68890259e-03, 6.45557931e-03, 9.22225649e-04, 1.84445130e-03,
          1.22963416e-03, 1.22963416e-03, 7.37780519e-03, 2.15185969e-03,
          2.45926832e-03, 9.52966511e-03, 9.22225649e-04, 3.07408534e-03,
          3.38149397e-03, 1.53704267e-03, 4.30371938e-03, 3.99631122e-03,
          1.84445130e-03, 1.84445130e-03, 2.15185969e-03, 2.45926832e-03,
          3.07408534e-03, 1.53704267e-03, 4.61112801e-03, 2.76667695e-03,
          1.84445130e-03, 3.07408534e-03, 3.99631122e-03, 8.91484786e-03,
          3.38149397e-03, 5.53335389e-03, 2.15185969e-03, 3.07408534e-03,
          3.68890259e-03, 3.68890259e-03, 5.22594526e-03, 6.45557931e-03,
          1.53704267e-03, 6.14817080e-04, 3.68890259e-03, 2.15185969e-03,
          2.15185969e-03, 4.61112801e-03, 3.99631122e-03, 3.68890259e-03,
          3.07408534e-03, 4.91853664e-03, 3.68890259e-03, 2.15185969e-03,
          3.38149397e-03, 2.76667695e-03, 2.76667695e-03, 1.53704267e-03,
          4.61112801e-03, 1.84445130e-03, 6.76298793e-03, 3.99631122e-03,
          2.45926832e-03, 3.99631122e-03, 3.38149397e-03, 1.84445130e-03,
          3.99631122e-03, 7.68521335e-03, 3.68890259e-03, 3.99631122e-03,
          4.91853664e-03, 2.15185969e-03, 1.22963416e-03, 6.45557931e-03,
          2.15185969e-03, 3.38149397e-03, 2.45926832e-03, 6.14817080e-04,
          3.68890259e-03, 6.14817068e-03, 3.99631122e-03, 4.61112801e-03,
          3.99631122e-03, 3.68890259e-03 ]
      - [ 2.12765951e-03, 1.06382975e-03, 3.19148926e-03, 6.38297852e-03,
          2.12765951e-03, 4.25531901e-03, 3.19148926e-03, 9.57446732e-03,
          4.25531901e-03, 0., 1.06382975e-03, 4.25531901e-03,
          3.19148926e-03, 5.31914877e-03, 1.06382975e-03, 0.,
          6.38297852e-03, 3.19148926e-03, 1.38297863e-02, 3.19148926e-03,
          2.12765951e-03, 0., 0., 1.06382975e-03, 2.12765951e-03,
          2.12765951e-03, 1.06382975e-03, 1.06382975e-03, 6.38297852e-03,
          4.25531901e-03, 1.06382975e-03, 5.31914877e-03, 1.06382975e-03,
          1.06382975e-03, 4.25531901e-03, 4.25531901e-03, 5.31914877e-03,
          0., 1.06382975e-03, 2.12765951e-03, 7.44680827e-03,
          5.31914877e-03, 3.19148926e-03, 4.25531901e-03, 2.12765951e-03,
          1.06382975e-03, 6.38297852e-03, 7.44680827e-03, 4.25531901e-03,
          8.51063803e-03, 4.25531901e-03, 2.12765951e-03, 7.44680827e-03,
          3.19148926e-03, 2.12765951e-03, 1.06382975e-03, 2.12765951e-03,
          3.19148926e-03, 4.25531901e-03, 3.19148926e-03, 5.31914877e-03,
          8.51063803e-03, 2.12765951e-03, 2.02127658e-02, 1.06382975e-03,
          0., 2.12765951e-03, 3.19148926e-03, 2.12765951e-03,
          1.06382975e-03, 7.02127665e-02, 7.44680827e-03, 6.38297852e-03,
          4.25531901e-03, 5.31914877e-03, 1.06382975e-03, 5.31914877e-03,
          4.25531901e-03, 1.06382975e-02, 3.19148926e-03, 6.38297852e-03,
          7.44680827e-03, 3.19148926e-03, 3.19148926e-03, 1.06382975e-03,
          3.19148926e-03, 4.25531901e-03, 1.06382975e-03, 3.19148926e-03,
          6.38297852e-03, 4.25531901e-03, 2.12765951e-03, 1.06382975e-03,
          2.12765951e-03, 2.12765951e-03, 7.44680827e-03, 4.25531901e-03,
          3.19148926e-03, 2.12765951e-03, 4.25531901e-03, 1.06382975e-03,
          8.51063803e-03, 2.12765951e-03, 2.12765951e-03, 3.19148926e-03,
          1.06382975e-03, 4.25531901e-03, 6.38297852e-03, 5.31914877e-03,
          5.31914877e-03, 2.12765951e-03, 1.06382975e-03, 7.44680827e-03,
          3.19148926e-03, 0., 9.57446732e-03, 3.19148926e-03,
          3.19148926e-03, 2.12765951e-03, 6.38297852e-03, 3.19148926e-03,
          1.06382975e-03, 6.38297852e-03, 0., 2.12765951e-03,
          3.19148926e-03, 1.59574468e-02, 1.06382975e-03, 4.25531901e-03,
          1.06382975e-03, 2.12765951e-03, 4.25531901e-03, 5.31914877e-03,
          4.25531901e-03, 5.31914877e-03, 2.12765951e-03, 0.,
          3.19148926e-03, 1.06382975e-03, 3.19148926e-03, 2.12765951e-03,
          6.38297852e-03, 7.44680827e-03, 1.06382975e-03, 8.51063803e-03,
          3.19148926e-03, 2.12765951e-03, 5.31914877e-03, 2.12765951e-03,
          0., 0., 1.06382975e-02, 2.12765951e-03, 7.44680827e-03,
          2.12765951e-03, 1.06382975e-03, 7.44680827e-03, 3.19148926e-03,
          2.12765951e-03, 3.19148926e-03, 3.19148926e-03, 1.91489346e-02,
          1.06382975e-03, 6.38297852e-03, 1.06382975e-03, 8.51063803e-03,
          5.31914877e-03, 1.06382975e-03, 5.31914877e-03, 2.12765951e-03,
          2.12765951e-03, 4.25531901e-03, 4.25531901e-03, 2.12765951e-03,
          6.38297852e-03, 1.06382975e-03, 4.25531901e-03, 1.06382975e-03,
          5.31914877e-03, 5.31914877e-03, 1.06382975e-03, 5.31914877e-03,
          2.12765951e-03, 1.06382975e-03, 1.06382975e-03, 2.12765951e-03,
          1.17021278e-02, 8.51063803e-03, 7.44680827e-03, 2.12765951e-03,
          2.12765951e-03, 1.06382975e-03, 2.12765951e-03, 1.06382975e-03,
          3.19148926e-03, 3.19148926e-03, 1.06382975e-03, 1.06382975e-03,
          4.25531901e-03, 2.12765951e-03, 3.19148926e-03, 1.06382975e-03,
          4.25531901e-03, 6.38297852e-03, 6.38297852e-03, 6.38297852e-03,
          7.44680827e-03, 0., 1.06382975e-03, 2.12765951e-03,
          2.12765951e-03, 0., 5.31914877e-03, 4.25531901e-03, 0.,
          3.19148926e-03, 0., 5.31914877e-03, 1.06382975e-03,
          5.31914877e-03, 4.25531901e-03, 1.06382975e-03, 2.12765951e-03,
          4.25531901e-03, 1.06382975e-03, 3.19148926e-03, 1.06382975e-03,
          4.25531901e-03, 0., 7.44680827e-03, 7.44680827e-03,
          3.19148926e-03, 2.12765951e-03, 4.25531901e-03, 3.19148926e-03,
          3.19148926e-03, 1.06382975e-03, 2.12765951e-03, 2.12765951e-03,
          1.06382975e-03, 6.38297852e-03, 2.12765951e-03, 2.12765951e-03,
          2.12765951e-03, 3.19148926e-03, 5.31914877e-03, 5.31914877e-03,
          2.12765951e-03, 2.02127658e-02, 7.44680827e-03 ]
      - [ 3.28185316e-03, 9.65250947e-04, 1.73745165e-03, 5.79150580e-03,
          3.08880303e-03, 1.54440152e-03, 5.01930481e-03, 4.82625468e-03,
          5.21235494e-03, 1.54440152e-03, 4.05405415e-03, 4.63320455e-03,
          5.98455593e-03, 4.82625468e-03, 5.59845567e-03, 9.07335896e-03,
          4.24710428e-03, 5.40540554e-03, 4.63320455e-03, 4.82625468e-03,
          6.37065619e-03, 2.70270277e-03, 9.65250947e-04, 5.79150580e-03,
          5.01930481e-03, 1.15830114e-03, 3.66795366e-03, 8.10810830e-03,
          6.75675645e-03, 3.28185316e-03, 4.24710428e-03, 3.66795366e-03,
          3.08880303e-03, 1.93050189e-03, 4.05405415e-03, 4.82625468e-03,
          6.17760606e-03, 3.86100379e-03, 3.66795366e-03, 2.50965240e-03,
          4.44015441e-03, 2.89575290e-03, 2.50965240e-03, 2.12355214e-03,
          3.66795366e-03, 1.35135138e-03, 5.40540554e-03, 5.01930481e-03,
          3.66795366e-03, 2.70270277e-03, 9.07335896e-03, 4.44015441e-03,
          2.12355214e-03, 3.66795366e-03, 5.21235494e-03, 5.21235494e-03,
          2.31660227e-03, 3.47490329e-03, 3.66795366e-03, 3.66795366e-03,
          3.86100379e-03, 3.47490329e-03, 4.82625468e-03, 4.63320455e-03,
          2.50965240e-03, 9.65250947e-04, 5.40540554e-03, 2.31660227e-03,
          5.01930481e-03, 3.08880303e-03, 3.86100379e-03, 3.86100379e-03,
          1.73745165e-03, 4.44015441e-03, 4.63320455e-03, 1.73745165e-03,
          2.12355214e-03, 2.31660227e-03, 5.21235494e-03, 4.44015441e-03,
          4.44015441e-03, 3.86100379e-03, 3.86100379e-03, 4.24710428e-03,
          3.47490329e-03, 5.21235494e-03, 3.66795366e-03, 5.21235494e-03,
          5.79150580e-03, 1.73745165e-03, 3.28185316e-03, 3.66795366e-03,
          5.98455593e-03, 5.79150580e-03, 3.47490329e-03, 1.58301163e-02,
          4.24710428e-03, 3.28185316e-03, 6.94980659e-03, 2.70270277e-03,
          2.89575290e-03, 9.26640909e-03, 5.21235494e-03, 7.52895745e-03,
          2.50965240e-03, 2.89575290e-03, 1.15830114e-03, 3.66795366e-03,
          7.14285718e-03, 3.47490329e-03, 1.54440152e-03, 2.50965240e-03,
          5.98455593e-03, 3.08880303e-03, 3.86100379e-03, 6.56370632e-03,
          3.66795366e-03, 5.59845567e-03, 2.89575290e-03, 2.70270277e-03,
          5.21235494e-03, 5.59845567e-03, 2.31660227e-03, 1.54440152e-03,
          3.86100379e-03, 1.10038612e-02, 5.40540554e-03, 4.82625468e-03,
          7.72200758e-03, 1.93050189e-03, 3.08880303e-03, 1.73745165e-03,
          2.31660227e-03, 4.05405415e-03, 3.86100379e-03, 3.47490329e-03,
          6.75675645e-03, 2.70270277e-03, 3.86100379e-03, 5.40540554e-03,
          3.08880303e-03, 1.15830114e-03, 2.50965240e-03, 2.50965240e-03,
          4.24710428e-03, 2.89575290e-03, 2.31660227e-03, 3.86100379e-03,
          5.59845567e-03, 1.93050189e-03, 1.35135138e-03, 2.70270277e-03,
          8.49420857e-03, 1.93050189e-03, 1.93050189e-03, 2.50965240e-03,
          6.37065619e-03, 2.31660227e-03, 6.94980659e-03, 7.91505817e-03,
          3.66795366e-03, 3.86100379e-03, 4.05405415e-03, 3.47490329e-03,
          5.98455593e-03, 4.24710428e-03, 8.88030883e-03, 3.86100379e-03,
          1.35135138e-03, 3.28185316e-03, 4.44015441e-03, 2.31660227e-03,
          4.44015441e-03, 5.40540554e-03, 1.73745165e-03, 2.70270277e-03,
          1.15830114e-03, 7.33590731e-03, 4.05405415e-03, 4.24710428e-03,
          3.47490329e-03, 5.59845567e-03, 3.47490329e-03, 4.05405415e-03,
          2.31660227e-03, 2.12355214e-03, 1.17760617e-02, 4.24710428e-03,
          2.70270277e-03, 1.54440152e-03, 3.66795366e-03, 2.50965240e-03,
          6.94980659e-03, 2.89575290e-03, 2.70270277e-03, 2.89575290e-03,
          5.40540554e-03, 3.86100379e-04, 3.86100379e-03, 6.37065619e-03,
          3.28185316e-03, 2.89575290e-03, 2.50965240e-03, 5.21235494e-03,
          3.47490329e-03, 6.56370632e-03, 6.17760606e-03, 7.33590731e-03,
          2.31660227e-03, 3.28185316e-03, 4.44015441e-03, 5.79150580e-03,
          3.08880303e-03, 6.17760606e-03, 2.70270277e-03, 4.44015441e-03,
          7.72200758e-04, 3.47490329e-03, 2.12355214e-03, 4.44015441e-03,
          3.47490329e-03, 2.12355214e-03, 2.12355214e-03, 2.70270277e-03,
          1.54440152e-03, 3.08880303e-03, 4.24710428e-03, 3.28185316e-03,
          2.50965240e-03, 2.70270277e-03, 2.50965240e-03, 3.08880303e-03,
          2.12355214e-03, 6.94980659e-03, 2.31660227e-03, 7.91505817e-03,
          3.86100379e-04, 4.05405415e-03, 3.47490329e-03, 4.05405415e-03,
          3.86100379e-03, 1.35135138e-03, 1.04247099e-02, 2.89575290e-03,
          3.08880303e-03, 7.14285718e-03, 2.70270277e-03, 1.73745165e-03,
          3.47490329e-03, 3.28185316e-03 ]
      - [ 3.00120050e-03, 6.60264073e-03, 3.60144046e-03, 2.40096031e-03,
          6.00240077e-04, 9.60384123e-03, 3.60144046e-03, 4.80192062e-03,
          1.80072023e-03, 7.20288092e-03, 2.40096031e-03, 2.28091236e-02,
          2.40096031e-03, 1.80072023e-03, 4.80192062e-03, 1.80072023e-03,
          6.60264073e-03, 1.20048015e-03, 7.80312112e-03, 3.60144046e-03,
          1.20048015e-03, 6.60264073e-03, 6.60264073e-03, 4.20168042e-03,
