%YAML:1.0
---
opencv_ml_svm:
   format: 3
   svmType: C_SVC
   kernel:
      type: RBF
      gamma: 5.0625000000000009e-01
   C: 6.2500000000000000e+01
   term_criteria: { iterations:100 }
   var_count: 75
   class_count: 2
   class_labels: !!opencv-matrix
      rows: 2
      cols: 1
      dt: i
      data: [ 0, 1 ]
   sv_total: 133
   support_vectors:
      - [ 9.09090880e-03, 1.81818176e-02, 1.36363637e-02, 1.36363637e-02,
          9.09090880e-03, 1.36363637e-02, 1.36363637e-02, 1.36363637e-02,
          0., 2.27272715e-02, 9.09090880e-03, 2.72727273e-02,
          9.09090880e-03, 1.81818176e-02, 1.36363637e-02, 9.09090880e-03,
          0., 2.27272715e-02, 1.36363637e-02, 4.54545440e-03,
          4.54545440e-03, 2.27272715e-02, 4.54545440e-03, 9.09090880e-03,
          0., 2.72727273e-02, 2.72727273e-02, 9.09090880e-03,
          4.54545440e-03, 4.09090891e-02, 1.81818176e-02, 1.81818176e-02,
          4.54545440e-03, 1.81818176e-02, 2.27272715e-02, 0.,
          1.36363637e-02, 9.09090880e-03, 1.81818176e-02, 2.72727273e-02,
          1.36363637e-02, 1.81818176e-02, 4.54545440e-03, 0.,
          3.18181813e-02, 4.54545440e-03, 4.54545440e-03, 1.36363637e-02,
          4.54545440e-03, 4.54545440e-03, 2.72727273e-02, 2.27272715e-02,
          1.81818176e-02, 3.18181813e-02, 1.36363637e-02, 4.54545440e-03,
          0., 9.09090880e-03, 1.36363637e-02, 2.27272715e-02,
          1.81818176e-02, 9.09090880e-03, 9.09090880e-03, 1.36363637e-02,
          0., 1.36363637e-02, 4.54545440e-03, 9.09090880e-03,
          1.36363637e-02, 9.09090880e-03, 3.63636352e-02, 1.36363637e-02,
          0., 2.27272715e-02, 9.09090880e-03 ]
      - [ 3.33333351e-02, 1.66666675e-02, 1.11111114e-02, 5.55555569e-03,
          5.55555569e-03, 5.55555569e-03, 0., 2.22222228e-02, 0., 0.,
          1.11111114e-02, 1.11111114e-02, 5.55555569e-03, 2.77777780e-02,
          5.55555569e-03, 1.11111114e-02, 5.55555569e-03, 3.33333351e-02,
          1.66666675e-02, 1.66666675e-02, 2.22222228e-02, 1.11111114e-02,
          2.22222228e-02, 2.22222228e-02, 0., 1.11111114e-02,
          1.11111114e-02, 0., 5.55555569e-03, 6.66666701e-02,
          1.11111114e-02, 1.66666675e-02, 5.55555569e-03, 1.66666675e-02,
          2.22222228e-02, 5.55555569e-03, 1.66666675e-02, 1.66666675e-02,
          3.88888903e-02, 1.11111114e-02, 1.11111114e-02, 1.11111114e-02,
          1.11111114e-02, 0., 2.77777780e-02, 5.55555569e-03,
          1.11111114e-02, 1.11111114e-02, 5.55555569e-03, 5.55555569e-03,
          2.77777780e-02, 5.55555569e-03, 5.55555569e-03, 2.77777780e-02,
          2.77777780e-02, 0., 1.66666675e-02, 5.55555569e-03,
          2.77777780e-02, 3.33333351e-02, 1.11111114e-02, 1.11111114e-02,
          5.55555569e-03, 1.11111114e-02, 5.55555569e-03, 5.55555569e-03,
          5.55555569e-03, 0., 5.55555569e-03, 5.55555569e-03,
          1.66666675e-02, 1.11111114e-02, 0., 3.33333351e-02,
          1.66666675e-02 ]
      - [ 3.75000015e-02, 6.25000009e-03, 6.25000009e-03, 6.25000009e-03,
          0., 6.25000009e-03, 3.12500000e-02, 1.87500007e-02,
          6.25000009e-03, 4.37499993e-02, 3.12500000e-02, 6.25000009e-03,
          0., 3.75000015e-02, 2.50000004e-02, 1.25000002e-02,
          6.25000009e-03, 1.25000002e-02, 1.87500007e-02, 1.25000002e-02,
          6.25000009e-03, 6.25000009e-03, 1.87500007e-02, 6.25000009e-03,
          6.25000009e-03, 3.75000015e-02, 1.25000002e-02, 1.25000002e-02,
          0., 3.12500000e-02, 1.25000002e-02, 1.25000002e-02,
          6.25000009e-03, 0., 3.12500000e-02, 6.25000009e-03,
          2.50000004e-02, 6.25000009e-03, 6.25000009e-03, 1.25000002e-02,
          1.25000002e-02, 1.25000002e-02, 0., 6.25000009e-03,
          5.00000007e-02, 6.25000009e-03, 0., 1.25000002e-02, 0., 0., 0.,
          6.25000009e-03, 1.87500007e-02, 1.25000002e-02, 3.12500000e-02,
          0., 0., 0., 2.50000004e-02, 6.25000000e-02, 1.87500007e-02,
          6.25000009e-03, 6.25000009e-03, 0., 1.25000002e-02, 0.,
          6.25000009e-03, 0., 0., 1.87500007e-02, 1.87500007e-02,
          1.25000002e-02, 1.87500007e-02, 3.75000015e-02, 6.25000009e-03 ]
      - [ 1.65745858e-02, 1.65745858e-02, 1.10497242e-02, 5.52486209e-03,
          1.65745858e-02, 5.52486209e-03, 2.76243109e-02, 2.76243109e-02,
          1.65745858e-02, 1.10497242e-02, 1.65745858e-02, 2.20994484e-02,
          1.10497242e-02, 2.76243109e-02, 1.65745858e-02, 5.52486209e-03,
          5.52486209e-03, 2.76243109e-02, 1.10497242e-02, 1.65745858e-02,
          5.52486209e-03, 1.10497242e-02, 5.52486209e-03, 1.65745858e-02,
          0., 0., 1.65745858e-02, 3.31491716e-02, 5.52486209e-03,
          6.07734844e-02, 1.65745858e-02, 0., 1.10497242e-02,
          1.65745858e-02, 2.20994484e-02, 5.52486209e-03, 5.52486209e-03,
          2.20994484e-02, 5.52486209e-03, 5.52486209e-03, 5.52486209e-03,
          2.76243109e-02, 1.10497242e-02, 0., 3.86740342e-02,
          5.52486209e-03, 1.10497242e-02, 2.76243109e-02, 0., 0.,
          1.10497242e-02, 5.52486209e-03, 5.52486209e-03, 2.20994484e-02,
          1.10497242e-02, 5.52486209e-03, 1.10497242e-02, 5.52486209e-03,
          1.10497242e-02, 1.65745858e-02, 2.20994484e-02, 5.52486209e-03,
          5.52486209e-03, 5.52486209e-03, 2.20994484e-02, 0.,
          1.65745858e-02, 1.10497242e-02, 5.52486209e-03, 1.10497242e-02,
          1.10497242e-02, 3.31491716e-02, 1.10497242e-02, 1.65745858e-02,
          1.10497242e-02 ]
      - [ 2.64550261e-02, 0., 0., 2.11640205e-02, 1.05820103e-02, 0.,
          1.05820103e-02, 1.58730149e-02, 1.05820103e-02, 4.76190448e-02,
          5.29100513e-03, 5.29100513e-03, 0., 4.76190448e-02,
          1.58730149e-02, 2.11640205e-02, 1.05820103e-02, 3.17460299e-02,
          1.05820103e-02, 5.29100513e-03, 5.29100513e-03, 5.29100513e-03,
          1.05820103e-02, 1.05820103e-02, 1.05820103e-02, 1.05820103e-02,
          2.11640205e-02, 2.11640205e-02, 1.05820103e-02, 3.70370373e-02,
          3.17460299e-02, 1.58730149e-02, 5.29100513e-03, 2.64550261e-02,
          2.64550261e-02, 1.05820103e-02, 1.58730149e-02, 1.05820103e-02,
          4.23280410e-02, 5.29100513e-03, 5.29100513e-03, 2.64550261e-02,
          1.05820103e-02, 5.29100513e-03, 2.11640205e-02, 0.,
          5.29100513e-03, 5.29100513e-03, 1.05820103e-02, 5.29100513e-03,
          2.64550261e-02, 1.05820103e-02, 1.05820103e-02, 5.29100513e-03,
          5.29100513e-03, 0., 5.29100513e-03, 0., 1.05820103e-02,
          1.05820103e-02, 1.05820103e-02, 1.58730149e-02, 1.05820103e-02,
          5.29100513e-03, 1.05820103e-02, 5.29100513e-03, 0.,
          5.29100513e-03, 5.29100513e-03, 2.11640205e-02, 1.05820103e-02,
          1.58730149e-02, 1.58730149e-02, 3.70370373e-02, 2.11640205e-02 ]
      - [ 1.71149150e-02, 1.71149150e-02, 1.22249397e-02, 2.44498788e-03,
          9.77995154e-03, 1.22249397e-02, 1.95599031e-02, 1.22249397e-02,
          9.77995154e-03, 2.44498788e-03, 0., 9.77995154e-03,
          9.77995154e-03, 1.71149150e-02, 9.77995154e-03, 1.95599031e-02,
          1.95599031e-02, 1.71149150e-02, 2.20048912e-02, 2.44498788e-03,
          9.77995154e-03, 4.88997577e-03, 1.71149150e-02, 9.77995154e-03,
          1.22249397e-02, 1.46699268e-02, 1.46699268e-02, 1.95599031e-02,
          0., 9.77995154e-03, 1.71149150e-02, 9.77995154e-03,
          4.88997577e-03, 7.33496342e-03, 1.22249397e-02, 1.46699268e-02,
          7.33496342e-03, 1.46699268e-02, 4.88997577e-03, 4.15647924e-02,
          1.22249397e-02, 4.88997577e-03, 1.95599031e-02, 1.46699268e-02,
          2.20048912e-02, 9.77995154e-03, 7.33496342e-03, 1.22249397e-02,
          1.46699268e-02, 1.46699268e-02, 1.22249397e-02, 9.77995154e-03,
          2.20048912e-02, 1.22249397e-02, 2.44498793e-02, 2.44498793e-02,
          1.22249397e-02, 9.77995154e-03, 9.77995154e-03, 2.44498793e-02,
          1.95599031e-02, 2.44498788e-03, 4.88997577e-03, 1.71149150e-02,
          1.71149150e-02, 9.77995154e-03, 1.46699268e-02, 4.88997577e-03,
          2.44498793e-02, 1.46699268e-02, 3.17848437e-02, 1.71149150e-02,
          4.88997577e-03, 2.20048912e-02, 1.22249397e-02 ]
      - [ 3.93700786e-03, 1.57480314e-02, 3.14960629e-02, 1.18110236e-02,
          1.18110236e-02, 1.18110236e-02, 7.87401572e-03, 0.,
          1.57480314e-02, 2.75590550e-02, 3.93700786e-03, 1.96850393e-02,
          2.36220472e-02, 1.18110236e-02, 1.57480314e-02, 2.36220472e-02,
          2.36220472e-02, 1.57480314e-02, 1.18110236e-02, 1.57480314e-02,
          1.18110236e-02, 0., 3.93700786e-03, 7.87401572e-03,
          7.87401572e-03, 1.18110236e-02, 1.57480314e-02, 7.87401572e-03,
          7.87401572e-03, 0., 0., 1.96850393e-02, 7.87401572e-03,
          7.87401572e-03, 1.96850393e-02, 1.96850393e-02, 1.18110236e-02,
          3.93700786e-03, 2.75590550e-02, 1.18110236e-02, 1.18110236e-02,
          1.18110236e-02, 1.96850393e-02, 3.54330689e-02, 7.87401572e-03,
          1.18110236e-02, 2.36220472e-02, 1.18110236e-02, 1.18110236e-02,
          5.51181100e-02, 1.57480314e-02, 1.57480314e-02, 1.57480314e-02,
          1.18110236e-02, 2.36220472e-02, 1.96850393e-02, 0.,
          7.87401572e-03, 3.93700786e-03, 3.93700786e-03, 1.18110236e-02,
          1.57480314e-02, 1.18110236e-02, 1.18110236e-02, 3.93700786e-03,
          2.36220472e-02, 1.18110236e-02, 7.87401572e-03, 7.87401572e-03,
          1.18110236e-02, 1.18110236e-02, 2.36220472e-02, 7.87401572e-03,
          1.18110236e-02, 0. ]
      - [ 1.69491526e-02, 3.81355919e-02, 3.38983051e-02, 4.23728814e-03,
          2.11864412e-02, 0., 1.90677959e-02, 6.35593198e-03,
          1.90677959e-02, 1.48305083e-02, 1.48305083e-02, 2.11864407e-03,
          6.35593198e-03, 6.35593198e-03, 6.35593198e-03, 1.27118640e-02,
          8.47457629e-03, 1.05932206e-02, 1.27118640e-02, 8.47457629e-03,
          1.05932206e-02, 1.05932206e-02, 1.48305083e-02, 1.48305083e-02,
          6.35593198e-03, 1.90677959e-02, 1.05932206e-02, 4.23728814e-03,
          1.48305083e-02, 2.75423732e-02, 4.23728814e-03, 2.11864407e-03,
          4.23728814e-03, 1.05932206e-02, 4.23728814e-03, 1.05932206e-02,
          1.90677959e-02, 1.05932206e-02, 1.69491526e-02, 4.87288125e-02,
          6.35593198e-03, 2.54237279e-02, 1.69491526e-02, 1.69491526e-02,
          8.47457629e-03, 5.93220331e-02, 4.23728814e-03, 4.23728814e-03,
          2.33050846e-02, 3.81355919e-02, 2.11864407e-03, 6.35593198e-03,
          1.48305083e-02, 1.27118640e-02, 1.05932206e-02, 1.05932206e-02,
          8.47457629e-03, 8.47457629e-03, 2.33050846e-02, 1.05932206e-02,
          4.23728814e-03, 6.35593198e-03, 8.47457629e-03, 6.35593198e-03,
          8.47457629e-03, 8.47457629e-03, 1.27118640e-02, 2.75423732e-02,
          1.05932206e-02, 8.47457629e-03, 1.90677959e-02, 1.05932206e-02,
          1.69491526e-02, 8.47457629e-03, 4.23728814e-03 ]
      - [ 4.76190494e-03, 9.52380989e-03, 0., 0., 4.76190494e-03, 0.,
          2.38095243e-02, 9.52380989e-03, 9.52380989e-03, 9.52380989e-03,
          1.42857153e-02, 1.90476198e-02, 0., 3.33333351e-02,
          9.52380989e-03, 2.85714306e-02, 9.52380989e-03, 2.38095243e-02,
          9.52380989e-03, 9.52380989e-03, 0., 2.38095243e-02,
          1.42857153e-02, 1.90476198e-02, 0., 1.42857153e-02,
          1.42857153e-02, 0., 1.90476198e-02, 4.28571440e-02,
          1.42857153e-02, 4.76190494e-03, 9.52380989e-03, 4.76190494e-03,
          1.90476198e-02, 9.52380989e-03, 1.42857153e-02, 9.52380989e-03,
          4.76190494e-03, 4.28571440e-02, 4.76190494e-03, 2.85714306e-02,
          1.42857153e-02, 9.52380989e-03, 1.90476198e-02, 0.,
          9.52380989e-03, 4.76190494e-03, 9.52380989e-03, 1.90476198e-02,
          1.90476198e-02, 2.85714306e-02, 1.42857153e-02, 9.52380989e-03,
          1.90476198e-02, 0., 2.85714306e-02, 9.52380989e-03,
          9.52380989e-03, 1.90476198e-02, 9.52380989e-03, 4.76190494e-03,
          1.42857153e-02, 1.90476198e-02, 0., 9.52380989e-03,
          1.42857153e-02, 9.52380989e-03, 1.90476198e-02, 9.52380989e-03,
          5.23809530e-02, 1.90476198e-02, 0., 1.90476198e-02,
          1.42857153e-02 ]
      - [ 2.11640205e-02, 1.05820103e-02, 5.29100513e-03, 5.29100513e-03,
          5.29100513e-03, 5.29100513e-03, 1.05820103e-02, 1.58730149e-02,
          2.11640205e-02, 5.29100522e-02, 5.29100513e-03, 1.05820103e-02,
          0., 2.11640205e-02, 1.58730149e-02, 1.58730149e-02, 0.,
          1.05820103e-02, 1.58730149e-02, 0., 2.64550261e-02,
          1.05820103e-02, 5.29100513e-03, 3.17460299e-02, 5.29100513e-03,
          1.58730149e-02, 1.58730149e-02, 1.58730149e-02, 1.05820103e-02,
          3.17460299e-02, 5.29100513e-03, 5.29100513e-03, 0.,
          1.58730149e-02, 4.76190448e-02, 1.58730149e-02, 1.05820103e-02,
          2.11640205e-02, 2.64550261e-02, 5.29100513e-03, 0.,
          1.05820103e-02, 3.17460299e-02, 1.58730149e-02, 2.11640205e-02,
          0., 1.05820103e-02, 1.05820103e-02, 0., 0., 5.29100513e-03,
          5.29100513e-03, 1.58730149e-02, 5.29100513e-03, 5.29100513e-03,
          5.29100513e-03, 0., 0., 0., 1.58730149e-02, 2.11640205e-02,
          1.58730149e-02, 1.58730149e-02, 2.64550261e-02, 3.70370373e-02,
          1.58730149e-02, 2.11640205e-02, 1.05820103e-02, 5.29100513e-03,
          5.29100513e-03, 1.05820103e-02, 1.05820103e-02, 5.29100513e-03,
          4.23280410e-02, 2.64550261e-02 ]
      - [ 1.64835174e-02, 0., 1.09890113e-02, 1.64835174e-02,
          1.09890113e-02, 1.09890113e-02, 5.49450563e-03, 2.19780225e-02,
          5.49450563e-03, 7.14285746e-02, 2.19780225e-02, 1.64835174e-02,
          1.64835174e-02, 2.19780225e-02, 2.19780225e-02, 1.09890113e-02,
          0., 2.19780225e-02, 1.09890113e-02, 0., 1.64835174e-02,
          1.09890113e-02, 1.64835174e-02, 1.09890113e-02, 5.49450563e-03,
          1.09890113e-02, 1.09890113e-02, 5.49450563e-03, 5.49450563e-03,
          4.39560451e-02, 1.64835174e-02, 1.64835174e-02, 5.49450563e-03,
          1.64835174e-02, 3.84615399e-02, 1.09890113e-02, 1.09890113e-02,
          1.09890113e-02, 2.19780225e-02, 5.49450563e-03, 5.49450563e-03,
          0., 1.09890113e-02, 1.09890113e-02, 1.64835174e-02, 0.,
          1.09890113e-02, 1.64835174e-02, 0., 0., 1.09890113e-02,
          2.19780225e-02, 0., 5.49450563e-03, 1.09890113e-02,
          1.64835174e-02, 0., 5.49450563e-03, 5.49450563e-03,
          1.64835174e-02, 1.09890113e-02, 1.64835174e-02, 0.,
          1.09890113e-02, 3.29670347e-02, 1.09890113e-02, 1.09890113e-02,
          2.19780225e-02, 1.64835174e-02, 1.09890113e-02, 1.64835174e-02,
          3.29670347e-02, 5.49450563e-03, 2.19780225e-02, 1.09890113e-02 ]
      - [ 1.97044332e-02, 9.85221658e-03, 1.47783253e-02, 1.47783253e-02,
          1.97044332e-02, 1.47783253e-02, 0., 4.43349741e-02,
          1.47783253e-02, 2.46305410e-02, 0., 9.85221658e-03,
          9.85221658e-03, 1.97044332e-02, 2.46305410e-02, 4.92610829e-03,
          4.92610829e-03, 9.85221658e-03, 9.85221658e-03, 1.47783253e-02,
          1.47783253e-02, 1.47783253e-02, 4.92610829e-03, 1.97044332e-02,
          9.85221658e-03, 0., 1.47783253e-02, 1.47783253e-02,
          1.97044332e-02, 4.92610829e-03, 9.85221658e-03, 1.47783253e-02,
          4.92610829e-03, 4.92610829e-03, 4.43349741e-02, 4.92610829e-03,
          4.92610829e-03, 1.97044332e-02, 1.47783253e-02, 1.97044332e-02,
          0., 2.46305410e-02, 2.95566507e-02, 9.85221658e-03,
          9.85221658e-03, 0., 0., 4.92610829e-03, 1.97044332e-02,
          3.44827585e-02, 2.95566507e-02, 9.85221658e-03, 4.92610829e-03,
          2.95566507e-02, 9.85221658e-03, 4.92610829e-03, 1.47783253e-02,
          2.46305410e-02, 1.47783253e-02, 2.95566507e-02, 1.47783253e-02,
          2.95566507e-02, 9.85221658e-03, 9.85221658e-03, 0., 0.,
          4.92610829e-03, 4.92610829e-03, 4.92610829e-03, 9.85221658e-03,
          9.85221658e-03, 9.85221658e-03, 1.47783253e-02, 9.85221658e-03,
          1.47783253e-02 ]
      - [ 9.96677764e-03, 1.32890362e-02, 2.32558139e-02, 1.32890362e-02,
          2.32558139e-02, 9.96677764e-03, 0., 6.64451811e-03,
          1.32890362e-02, 1.66112948e-02, 0., 9.96677764e-03,
          1.66112948e-02, 0., 0., 1.32890362e-02, 1.66112948e-02, 0.,
          1.32890362e-02, 6.64451811e-03, 1.32890362e-02, 6.64451811e-03,
          1.66112948e-02, 1.99335553e-02, 9.96677764e-03, 0.,
          6.64451811e-03, 0., 9.96677764e-03, 3.32225906e-03,
          3.32225906e-03, 3.32225906e-03, 2.32558139e-02, 6.64451811e-03,
          9.96677764e-03, 1.32890362e-02, 4.65116277e-02, 1.32890362e-02,
          9.96677764e-03, 3.32225896e-02, 1.66112948e-02, 2.65780725e-02,
          1.66112948e-02, 3.98671106e-02, 6.64451811e-03, 7.64119551e-02,
          6.64451811e-03, 1.32890362e-02, 3.32225896e-02, 6.31229207e-02,
          6.64451811e-03, 3.32225906e-03, 2.99003311e-02, 3.32225906e-03,
          9.96677764e-03, 1.99335553e-02, 1.99335553e-02, 0.,
          6.64451811e-03, 3.32225906e-03, 9.96677764e-03, 6.64451811e-03,
          1.32890362e-02, 2.99003311e-02, 1.66112948e-02, 0.,
          6.64451811e-03, 1.66112948e-02, 9.96677764e-03, 3.32225906e-03,
          6.64451811e-03, 6.64451811e-03, 6.64451811e-03, 6.64451811e-03,
          3.32225906e-03 ]
      - [ 1.96078438e-02, 1.30718956e-02, 6.53594779e-03, 1.96078438e-02,
          0., 1.30718956e-02, 6.53594779e-03, 1.30718956e-02,
          1.96078438e-02, 8.49673226e-02, 0., 3.26797403e-02,
          2.61437912e-02, 2.61437912e-02, 0., 1.30718956e-02,
          6.53594779e-03, 2.61437912e-02, 0., 1.96078438e-02, 0.,
          6.53594779e-03, 1.30718956e-02, 1.30718956e-02, 6.53594779e-03,
          1.96078438e-02, 6.53594779e-03, 1.96078438e-02, 6.53594779e-03,
          4.57516350e-02, 6.53594779e-03, 0., 1.96078438e-02,
          3.26797403e-02, 1.96078438e-02, 6.53594779e-03, 1.30718956e-02,
          0., 3.92156877e-02, 1.30718956e-02, 1.30718956e-02,
          3.26797403e-02, 0., 1.96078438e-02, 6.53594779e-03, 0.,
          2.61437912e-02, 1.30718956e-02, 0., 0., 0., 1.96078438e-02,
          6.53594779e-03, 1.30718956e-02, 0., 0., 1.30718956e-02, 0.,
          1.96078438e-02, 1.30718956e-02, 1.96078438e-02, 6.53594779e-03,
          6.53594779e-03, 6.53594779e-03, 1.96078438e-02, 1.30718956e-02,
          0., 1.30718956e-02, 1.30718956e-02, 0., 2.61437912e-02,
          6.53594779e-03, 6.53594779e-03, 1.96078438e-02, 1.30718956e-02 ]
      - [ 0., 2.97029689e-02, 0., 0., 9.90098994e-03, 9.90098994e-03, 0.,
          0., 0., 9.90098994e-03, 1.98019799e-02, 1.98019799e-02,
          2.47524753e-02, 9.90098994e-03, 4.95049497e-03, 9.90098994e-03,
          9.90098994e-03, 0., 1.98019799e-02, 4.95049497e-03,
          1.48514844e-02, 9.90098994e-03, 1.48514844e-02, 2.97029689e-02,
          4.95049497e-03, 2.47524753e-02, 1.48514844e-02, 9.90098994e-03,
          1.48514844e-02, 0., 4.95049497e-03, 0., 2.47524753e-02, 0., 0.,
          4.95049506e-02, 4.95049497e-03, 4.95049497e-03, 9.90098994e-03,
          4.45544533e-02, 1.48514844e-02, 4.95049497e-03, 0.,
          1.98019799e-02, 4.95049497e-03, 8.91089067e-02, 2.47524753e-02,
          0., 1.98019799e-02, 5.94059378e-02, 9.90098994e-03,
          1.98019799e-02, 4.45544533e-02, 1.48514844e-02, 9.90098994e-03,
          3.96039598e-02, 0., 2.97029689e-02, 1.48514844e-02,
          1.48514844e-02, 1.48514844e-02, 0., 4.95049497e-03,
          2.97029689e-02, 0., 1.98019799e-02, 4.95049497e-03,
          4.95049497e-03, 0., 9.90098994e-03, 0., 0., 4.95049497e-03,
          4.95049497e-03, 0. ]
      - [ 3.03030293e-02, 1.21212117e-02, 1.81818176e-02, 0., 0.,
          1.21212117e-02, 2.42424235e-02, 1.81818176e-02, 6.06060587e-03,
          3.63636352e-02, 0., 3.03030293e-02, 1.81818176e-02,
          3.63636352e-02, 2.42424235e-02, 2.42424235e-02, 2.42424235e-02,
          3.03030293e-02, 2.42424235e-02, 1.81818176e-02, 0.,
          6.06060587e-03, 1.21212117e-02, 6.06060587e-03, 6.06060587e-03,
          0., 6.06060587e-03, 1.21212117e-02, 0., 3.03030293e-02,
          1.81818176e-02, 1.21212117e-02, 6.06060587e-03, 3.03030293e-02,
          1.81818176e-02, 0., 0., 0., 2.42424235e-02, 6.06060587e-03,
          6.06060587e-03, 3.03030293e-02, 6.06060587e-03, 1.81818176e-02,
          2.42424235e-02, 0., 1.21212117e-02, 3.03030293e-02,
          1.21212117e-02, 0., 1.21212117e-02, 1.21212117e-02,
          2.42424235e-02, 6.06060587e-03, 1.21212117e-02, 1.21212117e-02,
          3.03030293e-02, 0., 6.06060587e-03, 6.06060587e-03,
          2.42424235e-02, 1.21212117e-02, 0., 0., 4.24242392e-02, 0.,
          6.06060587e-03, 0., 6.06060587e-03, 6.06060587e-03,
          1.81818176e-02, 1.81818176e-02, 1.81818176e-02, 6.06060587e-03,
          0. ]
      - [ 1.44230779e-02, 2.88461559e-02, 0., 0., 2.40384620e-02,
          9.61538497e-03, 0., 0., 4.80769249e-03, 0., 3.36538479e-02,
          4.80769249e-03, 3.36538479e-02, 4.80769249e-03, 1.92307699e-02,
          1.92307699e-02, 2.88461559e-02, 4.80769249e-03, 1.92307699e-02,
          9.61538497e-03, 9.61538497e-03, 1.44230779e-02, 9.61538497e-03,
          2.40384620e-02, 1.44230779e-02, 9.61538497e-03, 1.44230779e-02,
          0., 9.61538497e-03, 0., 1.92307699e-02, 9.61538497e-03, 0., 0.,
          4.80769249e-03, 3.36538479e-02, 4.80769249e-03, 9.61538497e-03,
          9.61538497e-03, 3.36538479e-02, 2.40384620e-02, 9.61538497e-03,
          2.40384620e-02, 2.40384620e-02, 1.44230779e-02, 1.34615391e-01,
          1.44230779e-02, 0., 2.40384620e-02, 3.36538479e-02,
          9.61538497e-03, 9.61538497e-03, 3.36538479e-02, 0., 0.,
          4.80769239e-02, 0., 1.44230779e-02, 9.61538497e-03,
          9.61538497e-03, 4.80769249e-03, 4.80769249e-03, 4.80769249e-03,
          4.80769249e-03, 0., 4.80769249e-03, 4.80769249e-03, 0.,
          9.61538497e-03, 1.44230779e-02, 9.61538497e-03, 0.,
          4.80769249e-03, 4.80769249e-03, 0. ]
      - [ 0., 6.53594779e-03, 6.53594779e-03, 6.53594779e-03, 0.,
          6.53594779e-03, 4.57516350e-02, 1.96078438e-02, 6.53594779e-03,
          3.92156877e-02, 1.96078438e-02, 1.30718956e-02, 6.53594779e-03,
          3.26797403e-02, 2.61437912e-02, 1.30718956e-02, 1.96078438e-02,
          6.53594779e-03, 6.53594779e-03, 1.30718956e-02, 6.53594779e-03,
          0., 1.96078438e-02, 1.96078438e-02, 0., 1.30718956e-02,
          1.96078438e-02, 6.53594779e-03, 1.30718956e-02, 3.26797403e-02,
          1.96078438e-02, 2.61437912e-02, 6.53594779e-03, 3.26797403e-02,
          3.92156877e-02, 6.53594779e-03, 0., 1.30718956e-02,
          3.26797403e-02, 0., 1.30718956e-02, 0., 1.30718956e-02, 0.,
          6.53594779e-03, 0., 0., 1.30718956e-02, 1.30718956e-02, 0.,
          1.30718956e-02, 1.30718956e-02, 6.53594779e-03, 2.61437912e-02,
          6.53594779e-03, 0., 0., 1.96078438e-02, 0., 1.30718956e-02,
          6.53594779e-03, 6.53594779e-03, 6.53594779e-03, 1.30718956e-02,
          3.26797403e-02, 1.30718956e-02, 1.30718956e-02, 2.61437912e-02,
          6.53594779e-03, 0., 1.96078438e-02, 1.30718956e-02,
          2.61437912e-02, 3.92156877e-02, 1.96078438e-02 ]
      - [ 1.96078438e-02, 6.53594779e-03, 6.53594779e-03, 6.53594779e-03,
          6.53594779e-03, 1.30718956e-02, 4.57516350e-02, 1.96078438e-02,
          6.53594779e-03, 2.61437912e-02, 0., 3.92156877e-02,
          1.30718956e-02, 1.96078438e-02, 6.53594779e-03, 1.96078438e-02,
          2.61437912e-02, 2.61437912e-02, 1.30718956e-02, 6.53594779e-03,
          6.53594779e-03, 1.30718956e-02, 1.30718956e-02, 2.61437912e-02,
          0., 0., 6.53594779e-03, 6.53594779e-03, 0., 3.26797403e-02, 0.,
          1.30718956e-02, 6.53594779e-03, 6.53594779e-03, 3.26797403e-02,
          6.53594779e-03, 0., 6.53594779e-03, 1.30718956e-02,
          1.30718956e-02, 0., 2.61437912e-02, 0., 1.30718956e-02,
          3.26797403e-02, 6.53594779e-03, 6.53594779e-03, 1.96078438e-02,
          6.53594779e-03, 0., 1.30718956e-02, 6.53594779e-03,
          6.53594779e-03, 2.61437912e-02, 0., 0., 0., 0., 1.96078438e-02,
          1.30718956e-02, 2.61437912e-02, 6.53594779e-03, 1.96078438e-02,
          1.30718956e-02, 3.26797403e-02, 6.53594779e-03, 1.96078438e-02,
          1.96078438e-02, 1.30718956e-02, 1.30718956e-02, 1.30718956e-02,
          1.30718956e-02, 5.88235296e-02, 1.30718956e-02, 6.53594779e-03 ]
      - [ 4.92610829e-03, 4.92610829e-03, 0., 4.92610829e-03,
          1.97044332e-02, 1.97044332e-02, 0., 0., 0., 0., 4.92610829e-03,
          9.85221658e-03, 1.97044332e-02, 4.92610829e-03, 1.97044332e-02,
          9.85221658e-03, 3.94088663e-02, 4.92610829e-03, 2.95566507e-02,
          9.85221658e-03, 9.85221658e-03, 1.47783253e-02, 4.92610829e-03,
          1.97044332e-02, 9.85221658e-03, 3.94088663e-02, 1.97044332e-02,
          4.92610829e-03, 4.92610829e-03, 0., 0., 1.97044332e-02,
          1.97044332e-02, 4.92610829e-03, 9.85221658e-03, 3.44827585e-02,
          4.92610829e-03, 1.47783253e-02, 4.92610829e-03, 1.97044332e-02,
          2.95566507e-02, 1.47783253e-02, 1.97044332e-02, 2.95566507e-02,
          4.92610829e-03, 1.13300487e-01, 2.46305410e-02, 0.,
          4.92610829e-03, 3.94088663e-02, 4.92610829e-03, 1.47783253e-02,
          4.92610820e-02, 0., 9.85221658e-03, 5.41871898e-02, 0.,
          1.97044332e-02, 4.92610829e-03, 9.85221658e-03, 4.92610829e-03,
          9.85221658e-03, 0., 4.92610829e-03, 0., 9.85221658e-03,
          4.92610829e-03, 0., 1.47783253e-02, 2.46305410e-02,
          4.92610829e-03, 0., 4.92610829e-03, 0., 0. ]
      - [ 5.71428565e-03, 5.71428565e-03, 1.14285713e-02, 0.,
          1.71428565e-02, 0., 0., 0., 5.71428565e-03, 5.71428565e-03,
          1.71428565e-02, 1.14285713e-02, 3.42857130e-02, 0.,
          1.14285713e-02, 5.71428565e-03, 3.99999991e-02, 5.71428565e-03,
          1.71428565e-02, 1.14285713e-02, 0., 0., 1.14285713e-02,
          1.71428565e-02, 2.85714287e-02, 2.28571426e-02, 5.71428565e-03,
          5.71428565e-03, 1.14285713e-02, 0., 0., 1.14285713e-02,
          1.71428565e-02, 0., 5.71428565e-03, 5.14285713e-02, 0.,
          1.14285713e-02, 0., 5.71428575e-02, 1.71428565e-02, 0., 0.,
          2.85714287e-02, 1.14285713e-02, 1.14285715e-01, 1.71428565e-02,
          0., 5.71428565e-03, 9.71428528e-02, 1.14285713e-02,
          1.71428565e-02, 2.85714287e-02, 0., 5.71428565e-03,
          5.14285713e-02, 0., 2.28571426e-02, 5.71428565e-03, 0., 0., 0.,
          1.14285713e-02, 3.99999991e-02, 0., 2.28571426e-02,
          1.14285713e-02, 0., 5.71428565e-03, 0., 0., 5.71428565e-03, 0.,
          5.71428565e-03, 0. ]
      - [ 1.32978717e-02, 1.32978717e-02, 2.65957434e-02, 3.19148935e-02,
          1.86170209e-02, 1.06382975e-02, 2.12765951e-02, 2.65957438e-03,
          1.06382975e-02, 2.39361692e-02, 1.86170209e-02, 7.97872338e-03,
          1.86170209e-02, 7.97872338e-03, 1.06382975e-02, 5.31914877e-03,
          1.06382975e-02, 1.59574468e-02, 2.65957438e-03, 1.32978717e-02,
          2.12765951e-02, 1.06382975e-02, 1.06382975e-02, 2.65957438e-03,
          2.65957438e-03, 2.39361692e-02, 1.86170209e-02, 1.06382975e-02,
          5.31914877e-03, 1.59574468e-02, 7.97872338e-03, 2.12765951e-02,
          1.59574468e-02, 1.06382975e-02, 1.59574468e-02, 1.06382975e-02,
          0., 1.86170209e-02, 7.97872338e-03, 1.59574468e-02,
          7.97872338e-03, 7.97872338e-03, 1.06382975e-02, 1.06382975e-02,
          7.97872338e-03, 3.45744677e-02, 2.65957434e-02, 7.97872338e-03,
          5.31914877e-03, 3.72340418e-02, 1.06382975e-02, 1.59574468e-02,
          5.31914877e-03, 1.32978717e-02, 7.97872338e-03, 7.97872338e-03,
          1.06382975e-02, 1.59574468e-02, 7.97872338e-03, 7.97872338e-03,
          7.97872338e-03, 2.65957434e-02, 2.65957438e-03, 2.92553175e-02,
          1.06382975e-02, 1.59574468e-02, 1.32978717e-02, 1.32978717e-02,
          1.59574468e-02, 2.39361692e-02, 5.31914877e-03, 5.31914877e-03,
          5.31914877e-03, 1.59574468e-02, 1.59574468e-02 ]
      - [ 4.84261522e-03, 7.26392306e-03, 1.93704609e-02, 1.45278461e-02,
          1.21065378e-02, 2.42130761e-03, 4.84261522e-03, 1.21065378e-02,
          7.26392306e-03, 1.69491526e-02, 2.42130761e-03, 9.68523044e-03,
          2.17917692e-02, 7.26392306e-03, 1.69491526e-02, 1.93704609e-02,
          1.21065378e-02, 1.21065378e-02, 9.68523044e-03, 1.21065378e-02,
          7.26392306e-03, 1.45278461e-02, 1.69491526e-02, 1.45278461e-02,
          2.90556923e-02, 1.45278461e-02, 1.45278461e-02, 9.68523044e-03,
          7.26392306e-03, 2.66343839e-02, 4.84261522e-03, 1.21065378e-02,
          1.21065378e-02, 9.68523044e-03, 1.69491526e-02, 1.69491526e-02,
          1.93704609e-02, 2.42130761e-03, 4.84261522e-03, 0.,
          1.45278461e-02, 7.26392306e-03, 7.26392306e-03, 1.69491526e-02,
          4.84261522e-03, 1.69491526e-02, 1.21065378e-02, 7.26392306e-03,
          1.69491526e-02, 1.93704609e-02, 1.21065378e-02, 1.45278461e-02,
          1.45278461e-02, 1.69491526e-02, 3.38983051e-02, 7.26392306e-03,
          1.21065378e-02, 9.68523044e-03, 2.17917692e-02, 1.93704609e-02,
          2.42130756e-02, 1.45278461e-02, 2.42130756e-02, 1.45278461e-02,
          9.68523044e-03, 1.21065378e-02, 7.26392306e-03, 7.26392306e-03,
          2.17917692e-02, 7.26392306e-03, 2.17917692e-02, 3.14770006e-02,
          1.45278461e-02, 1.69491526e-02, 7.26392306e-03 ]
      - [ 2.79069766e-02, 1.86046511e-02, 1.39534883e-02, 1.39534883e-02,
          0., 4.65116277e-03, 9.30232555e-03, 9.30232555e-03,
          1.86046511e-02, 2.79069766e-02, 4.65116277e-03, 4.65116277e-03,
          2.32558139e-02, 9.30232555e-03, 9.30232555e-03, 2.32558139e-02,
          1.39534883e-02, 0., 1.86046511e-02, 1.39534883e-02,
          9.30232555e-03, 0., 1.39534883e-02, 0., 0., 1.39534883e-02,
          3.25581394e-02, 2.32558139e-02, 1.39534883e-02, 1.86046511e-02,
          9.30232555e-03, 9.30232555e-03, 9.30232555e-03, 4.65116277e-03,
          4.65116277e-03, 4.65116277e-03, 1.39534883e-02, 9.30232555e-03,
          1.39534883e-02, 3.72093022e-02, 1.39534883e-02, 9.30232555e-03,
          2.32558139e-02, 2.32558139e-02, 1.39534883e-02, 3.25581394e-02,
          4.65116277e-03, 4.65116277e-03, 1.39534883e-02, 4.65116277e-02,
          9.30232555e-03, 4.65116277e-03, 1.86046511e-02, 1.39534883e-02,
          0., 0., 0., 4.65116277e-03, 4.65116277e-03, 9.30232555e-03,
          2.32558139e-02, 1.39534883e-02, 9.30232555e-03, 1.39534883e-02,
          4.18604650e-02, 1.39534883e-02, 4.65116277e-03, 2.79069766e-02,
          1.86046511e-02, 1.39534883e-02, 4.65116277e-03, 9.30232555e-03,
          1.86046511e-02, 2.79069766e-02, 0. ]
      - [ 7.49999983e-03, 1.24999993e-02, 2.74999999e-02, 1.49999997e-02,
          7.49999983e-03, 2.24999990e-02, 2.99999993e-02, 2.49999994e-03,
          4.99999989e-03, 2.74999999e-02, 1.49999997e-02, 7.49999983e-03,
          2.24999990e-02, 9.99999978e-03, 1.99999996e-02, 1.24999993e-02,
          7.49999983e-03, 1.49999997e-02, 1.49999997e-02, 1.75000001e-02,
          1.49999997e-02, 1.24999993e-02, 9.99999978e-03, 1.49999997e-02,
          1.24999993e-02, 4.99999989e-03, 1.75000001e-02, 9.99999978e-03,
          1.24999993e-02, 9.99999978e-03, 1.24999993e-02, 4.99999989e-03,
          4.99999989e-03, 1.24999993e-02, 1.24999993e-02, 9.99999978e-03,
          1.75000001e-02, 1.24999993e-02, 2.24999990e-02, 9.99999978e-03,
          1.99999996e-02, 1.49999997e-02, 4.99999989e-03, 1.99999996e-02,
          4.99999989e-03, 2.24999990e-02, 2.24999990e-02, 1.24999993e-02,
          2.24999990e-02, 3.50000001e-02, 9.99999978e-03, 1.99999996e-02,
          1.75000001e-02, 9.99999978e-03, 7.49999983e-03, 1.75000001e-02,
          0., 4.99999989e-03, 1.49999997e-02, 1.75000001e-02,
          4.99999989e-03, 1.49999997e-02, 4.99999989e-03, 2.49999985e-02,
          1.75000001e-02, 4.99999989e-03, 7.49999983e-03, 2.49999994e-03,
          1.99999996e-02, 9.99999978e-03, 4.99999989e-03, 4.99999989e-03,
          1.24999993e-02, 1.24999993e-02, 1.24999993e-02 ]
      - [ 9.85221658e-03, 0., 1.47783253e-02, 1.97044332e-02,
          3.44827585e-02, 0., 0., 4.92610829e-03, 4.92610829e-03, 0.,
          1.47783253e-02, 0., 3.44827585e-02, 0., 9.85221658e-03,
          1.47783253e-02, 0., 9.85221658e-03, 4.92610829e-03,
          4.92610829e-03, 4.92610829e-03, 0., 4.92610829e-03,
          2.95566507e-02, 9.85221658e-03, 2.95566507e-02, 2.95566507e-02,
          1.97044332e-02, 4.92610829e-03, 4.92610829e-03, 0.,
          1.47783253e-02, 1.97044332e-02, 0., 4.92610829e-03,
          9.85221658e-03, 0., 2.46305410e-02, 4.92610829e-03,
          1.47783253e-02, 9.85221658e-03, 4.92610829e-03, 2.46305410e-02,
          5.41871898e-02, 1.97044332e-02, 4.43349741e-02, 1.47783253e-02,
          4.92610829e-03, 2.95566507e-02, 5.41871898e-02, 4.92610829e-03,
          0., 9.85221658e-03, 4.92610829e-03, 2.46305410e-02,
          3.44827585e-02, 0., 1.97044332e-02, 9.85221658e-03,
          9.85221658e-03, 0., 1.97044332e-02, 4.92610829e-03,
          9.85221658e-03, 9.85221658e-03, 6.40394092e-02, 9.85221658e-03,
          4.92610829e-03, 0., 3.94088663e-02, 2.95566507e-02,
          4.92610829e-03, 9.85221658e-03, 0., 0. ]
      - [ 7.51366094e-03, 1.16120214e-02, 2.15163920e-02, 1.33196721e-02,
          1.26366112e-02, 9.90437157e-03, 8.87978077e-03, 5.12295077e-03,
          1.02459015e-02, 1.87841523e-02, 1.94672123e-02, 1.02459015e-02,
          1.16120214e-02, 8.53825081e-03, 9.90437157e-03, 1.19535513e-02,
          2.01502722e-02, 1.16120214e-02, 1.19535513e-02, 2.49316934e-02,
          6.48907106e-03, 9.56284162e-03, 1.09289614e-02, 1.26366112e-02,
          1.33196721e-02, 1.36612020e-02, 2.18579229e-02, 1.94672123e-02,
          1.19535513e-02, 1.33196721e-02, 8.19672085e-03, 2.80054640e-02,
          2.73224041e-02, 6.14754064e-03, 7.85519090e-03, 1.40027320e-02,
          8.53825081e-03, 1.43442620e-02, 8.53825081e-03, 7.51366094e-03,
          1.77595615e-02, 1.60519127e-02, 1.57103818e-02, 1.16120214e-02,
          9.22131166e-03, 1.57103818e-02, 2.15163920e-02, 1.87841523e-02,
          1.16120214e-02, 3.03961746e-02, 9.22131166e-03, 1.12704914e-02,
          1.87841523e-02, 2.49316934e-02, 6.14754064e-03, 1.36612020e-02,
          7.85519090e-03, 8.53825081e-03, 1.05874315e-02, 1.26366112e-02,
          1.74180325e-02, 1.46857919e-02, 1.02459015e-02, 2.11748630e-02,
          5.80601068e-03, 1.16120214e-02, 1.05874315e-02, 1.33196721e-02,
          1.67349726e-02, 2.04918031e-02, 7.85519090e-03, 6.48907106e-03,
          1.12704914e-02, 1.19535513e-02, 4.78142081e-03 ]
      - [ 1.32052815e-02, 1.38055217e-02, 2.04081628e-02, 1.32052815e-02,
          1.50060020e-02, 1.26050413e-02, 2.16086432e-02, 6.60264073e-03,
          6.60264073e-03, 3.84153649e-02, 9.00360104e-03, 8.40336084e-03,
          1.38055217e-02, 1.98079217e-02, 1.08043216e-02, 1.20048020e-02,
          1.14045618e-02, 1.56062422e-02, 1.56062422e-02, 7.20288092e-03,
          7.20288092e-03, 2.16086432e-02, 8.40336084e-03, 1.32052815e-02,
          1.26050413e-02, 1.02040814e-02, 2.10084021e-02, 1.38055217e-02,
          5.40216081e-03, 2.16086432e-02, 1.20048020e-02, 9.00360104e-03,
          7.80312112e-03, 8.40336084e-03, 1.50060020e-02, 7.80312112e-03,
          8.40336084e-03, 9.00360104e-03, 1.62064824e-02, 1.20048020e-02,
          1.50060020e-02, 3.24129649e-02, 1.26050413e-02, 7.80312112e-03,
          1.98079217e-02, 1.26050413e-02, 1.20048020e-02, 2.46098433e-02,
          1.56062422e-02, 1.08043216e-02, 1.56062422e-02, 1.44057618e-02,
          1.08043216e-02, 1.38055217e-02, 1.44057618e-02, 5.40216081e-03,
          9.60384123e-03, 6.00240100e-03, 1.38055217e-02, 2.34093629e-02,
          1.26050413e-02, 1.14045618e-02, 1.74069628e-02, 1.26050413e-02,
          7.80312112e-03, 9.00360104e-03, 1.26050413e-02, 1.74069628e-02,
          9.00360104e-03, 7.80312112e-03, 1.38055217e-02, 1.68067217e-02,
          9.60384123e-03, 1.86074432e-02, 7.20288092e-03 ]
      - [ 9.65517294e-03, 1.51724145e-02, 1.10344831e-02, 1.79310348e-02,
          9.65517294e-03, 1.65517256e-02, 2.20689662e-02, 2.62068976e-02,
          6.89655170e-03, 2.20689662e-02, 5.51724155e-03, 5.51724155e-03,
          9.65517294e-03, 1.24137932e-02, 5.51724155e-03, 1.10344831e-02,
          1.79310348e-02, 1.65517256e-02, 8.27586278e-03, 8.27586278e-03,
          1.24137932e-02, 1.51724145e-02, 5.51724155e-03, 1.10344831e-02,
          5.51724155e-03, 8.27586278e-03, 8.27586278e-03, 1.24137932e-02,
          1.37931034e-02, 3.03448290e-02, 9.65517294e-03, 9.65517294e-03,
          9.65517294e-03, 1.79310348e-02, 2.06896551e-02, 8.27586278e-03,
          2.20689662e-02, 8.27586278e-03, 1.79310348e-02, 2.48275865e-02,
          8.27586278e-03, 1.79310348e-02, 1.37931039e-03, 8.27586278e-03,
          1.10344831e-02, 3.03448290e-02, 9.65517294e-03, 1.79310348e-02,
          1.10344831e-02, 2.62068976e-02, 2.20689662e-02, 8.27586278e-03,
          1.65517256e-02, 1.51724145e-02, 1.51724145e-02, 2.75862077e-03,
          3.03448290e-02, 6.89655170e-03, 6.89655170e-03, 1.93103459e-02,
          6.89655170e-03, 1.10344831e-02, 8.27586278e-03, 1.24137932e-02,
          1.10344831e-02, 6.89655170e-03, 8.27586278e-03, 1.10344831e-02,
          1.10344831e-02, 1.10344831e-02, 2.75862068e-02, 1.24137932e-02,
          2.06896551e-02, 1.51724145e-02, 1.10344831e-02 ]
      - [ 6.30517025e-03, 1.26103405e-02, 8.07061791e-02, 1.00882724e-02,
          1.76544767e-02, 6.30517025e-03, 1.89155117e-02, 6.30517025e-03,
          1.38713745e-02, 5.54854982e-02, 1.26103405e-03, 6.30517025e-03,
          1.26103405e-02, 3.78310215e-03, 1.00882724e-02, 2.52206810e-03,
          2.39596479e-02, 5.04413620e-03, 1.13493064e-02, 7.56620429e-03,
          1.00882724e-02, 2.39596479e-02, 8.82723834e-03, 1.13493064e-02,
          1.26103405e-02, 3.78310215e-03, 1.38713745e-02, 7.56620429e-03,
          7.56620429e-03, 2.90037841e-02, 5.04413620e-03, 5.04413620e-03,
          8.82723834e-03, 7.56620429e-03, 7.56620429e-03, 1.13493064e-02,
          1.13493064e-02, 8.82723834e-03, 1.13493064e-02, 2.52206810e-02,
          1.00882724e-02, 2.39596479e-02, 1.13493064e-02, 1.38713745e-02,
          1.76544767e-02, 2.77427491e-02, 1.00882724e-02, 2.52206810e-03,
          1.00882724e-02, 7.56620467e-02, 1.51324086e-02, 1.13493064e-02,
          1.63934417e-02, 2.52206810e-03, 1.38713745e-02, 1.38713745e-02,
          6.30517025e-03, 1.13493064e-02, 1.26103405e-02, 1.38713745e-02,
          7.56620429e-03, 8.82723834e-03, 1.13493064e-02, 5.04413620e-03,
          1.51324086e-02, 5.04413620e-03, 2.52206810e-03, 1.00882724e-02,
          8.82723834e-03, 1.13493064e-02, 1.13493064e-02, 8.82723834e-03,
          1.76544767e-02, 8.82723834e-03, 3.78310215e-03 ]
      - [ 1.75746921e-02, 1.72231998e-02, 1.65202115e-02, 1.51142357e-02,
          1.86291747e-02, 1.12478035e-02, 9.49033443e-03, 4.56942013e-03,
          6.67838333e-03, 1.75746921e-02, 1.26537792e-02, 1.01933219e-02,
          1.86291747e-02, 1.68717057e-02, 1.05448160e-02, 1.37082608e-02,
          1.93321630e-02, 1.68717057e-02, 1.75746921e-02, 1.33567667e-02,
          9.13884025e-03, 1.58172231e-02, 9.84182768e-03, 2.07381379e-02,
          1.75746921e-02, 1.23022851e-02, 1.37082608e-02, 9.13884025e-03,
          9.13884025e-03, 1.08963093e-02, 4.92091384e-03, 1.51142357e-02,
          2.17926186e-02, 9.13884025e-03, 1.05448160e-02, 8.43585283e-03,
          1.05448160e-02, 8.78734607e-03, 1.47627424e-02, 1.93321630e-02,
          1.58172231e-02, 1.01933219e-02, 2.17926186e-02, 1.54657299e-02,
          1.61687173e-02, 1.86291747e-02, 1.33567667e-02, 2.70650275e-02,
          1.47627424e-02, 2.35500876e-02, 1.12478035e-02, 1.12478035e-02,
          1.68717057e-02, 1.68717057e-02, 1.72231998e-02, 5.27240802e-03,
          1.72231998e-02, 5.27240802e-03, 1.33567667e-02, 1.54657299e-02,
          1.26537792e-02, 1.05448160e-02, 1.61687173e-02, 1.51142357e-02,
          5.62390173e-03, 8.08435865e-03, 8.08435865e-03, 9.84182768e-03,
          1.40597541e-02, 8.43585283e-03, 9.13884025e-03, 1.15992976e-02,
          6.67838333e-03, 1.47627424e-02, 6.32688962e-03 ]
      - [ 4.59981570e-03, 1.19595211e-02, 2.57589687e-02, 1.01195946e-02,
          1.74793005e-02, 1.37994476e-02, 1.37994476e-02, 9.19963140e-03,
          2.11591534e-02, 2.75988951e-02, 1.93192270e-02, 1.47194108e-02,
          1.37994476e-02, 2.02391893e-02, 1.28794843e-02, 1.56393740e-02,
          5.51977893e-03, 1.74793005e-02, 8.27966817e-03, 1.74793005e-02,
          1.37994476e-02, 2.11591534e-02, 1.28794843e-02, 7.35970540e-03,
          7.35970540e-03, 5.51977893e-03, 9.19963140e-03, 7.35970540e-03,
          1.28794843e-02, 1.47194108e-02, 1.01195946e-02, 8.27966817e-03,
          7.35970540e-03, 1.93192270e-02, 1.56393740e-02, 1.10395579e-02,
          1.28794843e-02, 2.75988947e-03, 2.11591534e-02, 2.29990799e-02,
          1.74793005e-02, 1.28794843e-02, 1.37994476e-02, 1.93192270e-02,
          1.28794843e-02, 1.65593363e-02, 9.19963140e-03, 2.11591534e-02,
          1.19595211e-02, 1.10395579e-02, 1.28794843e-02, 1.65593363e-02,
          8.27966817e-03, 9.19963140e-03, 1.19595211e-02, 8.27966817e-03,
          1.56393740e-02, 8.27966817e-03, 1.19595211e-02, 2.29990799e-02,
          8.27966817e-03, 6.43974217e-03, 1.37994476e-02, 1.10395579e-02,
          1.47194108e-02, 5.51977893e-03, 1.19595211e-02, 1.47194108e-02,
          9.19963140e-03, 8.27966817e-03, 2.39190422e-02, 1.10395579e-02,
          1.65593363e-02, 1.19595211e-02, 1.56393740e-02 ]
      - [ 1.76366828e-02, 1.41093470e-02, 7.05467351e-03, 1.58730149e-02,
          8.81834142e-03, 3.52733675e-03, 1.05820103e-02, 1.05820103e-02,
          2.11640205e-02, 1.05820103e-02, 0., 5.29100513e-03,
          7.05467351e-03, 1.58730149e-02, 8.81834142e-03, 3.88007052e-02,
          2.46913582e-02, 2.46913582e-02, 1.23456791e-02, 7.05467351e-03,
          8.81834142e-03, 1.41093470e-02, 5.29100513e-03, 2.11640205e-02,
          8.81834142e-03, 1.05820103e-02, 1.41093470e-02, 1.76366838e-03,
          8.81834142e-03, 1.94003526e-02, 8.81834142e-03, 5.29100513e-03,
          7.05467351e-03, 3.35096978e-02, 8.81834142e-03, 0.,
          2.82186940e-02, 5.29100513e-03, 1.76366828e-02, 3.17460299e-02,
          8.81834142e-03, 1.05820103e-02, 1.76366838e-03, 7.05467351e-03,
          1.41093470e-02, 1.76366828e-02, 3.52733675e-03, 1.05820103e-02,
          1.41093470e-02, 1.94003526e-02, 1.05820103e-02, 1.05820103e-02,
          3.88007052e-02, 8.81834142e-03, 2.11640205e-02, 1.76366838e-03,
          4.76190448e-02, 7.05467351e-03, 7.05467351e-03, 1.41093470e-02,
          5.29100513e-03, 1.94003526e-02, 5.29100513e-03, 7.05467351e-03,
          2.29276884e-02, 5.29100513e-03, 5.29100513e-03, 1.94003526e-02,
          1.58730149e-02, 1.41093470e-02, 2.29276884e-02, 1.05820103e-02,
          1.58730149e-02, 1.76366828e-02, 1.41093470e-02 ]
      - [ 3.69685772e-03, 0., 3.88170071e-02, 5.54528646e-03,
          7.39371544e-03, 3.69685772e-03, 0., 7.39371544e-03,
          5.54528646e-03, 1.10905729e-02, 3.88170071e-02, 5.54528646e-03,
          3.51201482e-02, 1.10905729e-02, 5.54528646e-03, 1.10905729e-02,
          3.14232893e-02, 7.39371544e-03, 1.84842888e-02, 1.10905729e-02,
          7.39371544e-03, 3.69685772e-03, 7.39371544e-03, 2.21811458e-02,
          3.88170071e-02, 1.47874309e-02, 1.29390024e-02, 1.29390024e-02,
          5.54528646e-03, 0., 5.54528646e-03, 1.47874309e-02,
          1.66358594e-02, 0., 3.69685772e-03, 1.47874309e-02,
          5.54528646e-03, 1.47874309e-02, 5.54528646e-03, 1.10905729e-02,
          2.21811458e-02, 1.66358594e-02, 5.54528646e-03, 4.80591506e-02,
          3.69685772e-03, 6.65434375e-02, 2.21811458e-02, 1.29390024e-02,
          7.39371544e-03, 3.88170071e-02, 5.54528646e-03, 1.29390024e-02,
          3.51201482e-02, 1.29390024e-02, 1.29390024e-02, 1.84842888e-02,
          0., 9.24214441e-03, 3.69685772e-03, 9.24214441e-03,
          1.47874309e-02, 9.24214441e-03, 5.54528646e-03, 2.58780047e-02,
          3.69685772e-03, 2.03327183e-02, 1.10905729e-02, 5.54528646e-03,
          1.10905729e-02, 9.24214441e-03, 9.24214441e-03, 9.24214441e-03,
          5.54528646e-03, 1.47874309e-02, 3.69685772e-03 ]
      - [ 2.33576633e-02, 2.91970791e-03, 7.29926955e-03, 1.02189779e-02,
          2.62773708e-02, 1.02189779e-02, 1.89781021e-02, 2.04379559e-02,
          1.60583928e-02, 1.02189779e-02, 0., 7.29926955e-03,
          1.45985396e-03, 2.77372245e-02, 1.16788317e-02, 2.18978096e-02,
          8.75912420e-03, 2.77372245e-02, 1.45985391e-02, 4.52554710e-02,
          7.29926955e-03, 1.45985391e-02, 7.29926955e-03, 1.02189779e-02,
          7.29926955e-03, 5.83941583e-03, 5.83941583e-03, 5.83941583e-03,
          1.45985391e-02, 4.81751822e-02, 1.02189779e-02, 1.02189779e-02,
          7.29926955e-03, 2.18978096e-02, 1.16788317e-02, 0.,
          2.18978096e-02, 7.29926955e-03, 2.04379559e-02, 5.25547415e-02,
          5.83941583e-03, 1.31386854e-02, 1.45985391e-02, 2.91970791e-03,
          2.33576633e-02, 1.89781021e-02, 2.91970791e-03, 5.83941583e-03,
          0., 2.33576633e-02, 8.75912420e-03, 1.45985396e-03,
          7.29926955e-03, 7.29926955e-03, 5.83941583e-03, 1.45985396e-03,
          4.96350341e-02, 0., 1.16788317e-02, 2.18978096e-02,
          1.16788317e-02, 1.45985391e-02, 7.29926955e-03, 1.16788317e-02,
          1.02189779e-02, 0., 1.16788317e-02, 5.83941583e-03,
          1.31386854e-02, 4.37956210e-03, 1.89781021e-02, 8.75912420e-03,
          1.45985391e-02, 1.75182484e-02, 2.04379559e-02 ]
      - [ 5.29100513e-03, 1.05820103e-02, 2.64550261e-02, 5.29100513e-03,
          1.58730149e-02, 5.29100522e-02, 5.29100513e-03, 5.29100513e-03,
          5.29100513e-03, 8.46560821e-02, 5.29100522e-02, 1.05820103e-02,
          2.64550261e-02, 0., 1.58730149e-02, 0., 0., 0., 0.,
          1.05820103e-02, 4.23280410e-02, 3.17460299e-02, 0.,
          1.05820103e-02, 1.05820103e-02, 0., 0., 1.05820103e-02,
          1.05820103e-02, 1.05820103e-02, 1.58730149e-02, 0., 0.,
          2.11640205e-02, 1.05820103e-02, 1.05820103e-02, 5.29100513e-03,
          1.05820103e-02, 2.11640205e-02, 5.29100513e-03, 4.76190448e-02,
          5.29100513e-03, 0., 3.17460299e-02, 1.05820103e-02,
          2.64550261e-02, 5.29100513e-03, 0., 1.58730149e-02,
          5.29100513e-03, 3.70370373e-02, 3.70370373e-02, 0., 0.,
          1.58730149e-02, 3.70370373e-02, 1.05820103e-02, 0., 0.,
          1.05820103e-02, 0., 5.29100513e-03, 2.64550261e-02,
          1.05820103e-02, 1.05820103e-02, 5.29100513e-03, 2.11640205e-02,
          5.29100513e-03, 1.58730149e-02, 1.58730149e-02, 0.,
          5.29100513e-03, 5.29100513e-03, 5.29100513e-03, 1.05820103e-02 ]
      - [ 3.46020772e-03, 6.92041544e-03, 1.73010379e-02, 1.38408309e-02,
          1.73010379e-02, 1.03806229e-02, 3.11418697e-02, 6.92041544e-03,
          1.03806229e-02, 2.76816618e-02, 7.61245713e-02, 6.92041544e-03,
          2.76816618e-02, 1.38408309e-02, 3.46020772e-03, 0.,
          1.38408309e-02, 1.38408309e-02, 1.03806229e-02, 3.46020772e-03,
          1.03806229e-02, 2.07612459e-02, 6.92041544e-03, 1.38408309e-02,
          1.73010379e-02, 3.46020772e-03, 6.92041544e-03, 6.92041544e-03,
          1.73010379e-02, 1.03806229e-02, 0., 3.46020772e-03,
          1.73010379e-02, 1.03806229e-02, 1.03806229e-02, 3.11418697e-02,
          6.92041544e-03, 6.92041544e-03, 1.38408309e-02, 1.03806229e-02,
          1.73010379e-02, 3.46020772e-03, 6.92041544e-03, 2.07612459e-02,
          0., 3.80622856e-02, 1.38408309e-02, 0., 6.92041544e-03,
          2.42214538e-02, 1.73010379e-02, 1.38408309e-02, 1.03806229e-02,
          6.92041544e-03, 1.38408309e-02, 3.11418697e-02, 3.46020772e-03,
          3.46020758e-02, 3.46020772e-03, 3.46020772e-03, 2.42214538e-02,
          1.03806229e-02, 0., 2.42214538e-02, 3.46020772e-03,
          2.42214538e-02, 2.07612459e-02, 1.03806229e-02, 2.76816618e-02,
          1.03806229e-02, 0., 1.03806229e-02, 1.03806229e-02,
          1.03806229e-02, 3.46020772e-03 ]
      - [ 1.19760484e-02, 2.99401209e-02, 1.79640725e-02, 2.99401209e-02,
          1.19760484e-02, 2.99401209e-03, 5.98802418e-03, 5.98802418e-03,
          1.19760484e-02, 2.09580846e-02, 0., 1.19760484e-02,
          2.99401209e-03, 2.09580846e-02, 0., 2.69461088e-02,
          2.39520967e-02, 1.79640725e-02, 1.79640725e-02, 8.98203626e-03,
          5.98802418e-03, 2.99401209e-03, 8.98203626e-03, 1.19760484e-02,
          5.98802418e-03, 0., 1.79640725e-02, 2.99401209e-03,
          4.19161692e-02, 5.38922176e-02, 1.79640725e-02, 5.98802418e-03,
          5.98802418e-03, 1.49700604e-02, 2.39520967e-02, 2.99401209e-03,
          5.98802418e-03, 8.98203626e-03, 3.59281451e-02, 2.69461088e-02,
          2.99401209e-03, 1.79640725e-02, 5.98802418e-03, 2.99401209e-03,
          5.98802418e-03, 2.09580846e-02, 2.99401209e-03, 1.49700604e-02,
          2.69461088e-02, 1.49700604e-02, 5.98802418e-03, 0.,
          3.29341330e-02, 5.98802418e-03, 2.99401209e-03, 0.,
          2.99401209e-03, 0., 1.49700604e-02, 5.98802418e-03,
          1.79640725e-02, 2.99401209e-02, 5.98802418e-03, 5.98802418e-03,
          1.49700604e-02, 0., 8.98203626e-03, 2.69461088e-02,
          3.29341330e-02, 5.98802418e-03, 2.69461088e-02, 8.98203626e-03,
          1.79640725e-02, 5.98802418e-03, 1.79640725e-02 ]
      - [ 1.71673819e-02, 1.43061522e-02, 6.19933242e-03, 1.90748693e-03,
          3.09966635e-02, 1.19217932e-02, 1.19217932e-02, 2.86123040e-03,
          9.53743421e-03, 8.58369097e-03, 2.62279455e-02, 9.06056259e-03,
          1.62136387e-02, 8.58369097e-03, 1.47830239e-02, 1.43061522e-02,
          8.58369097e-03, 9.53743421e-03, 2.47973297e-02, 2.00286135e-02,
          7.62994774e-03, 8.10681935e-03, 1.81211252e-02, 3.24272774e-02,
          2.28898432e-02, 2.14592274e-02, 2.09823567e-02, 1.38292806e-02,
          1.23986648e-02, 1.00143068e-02, 9.06056259e-03, 1.52598955e-02,
          2.38435864e-02, 5.72246080e-03, 7.15307612e-03, 8.10681935e-03,
          1.28755365e-02, 1.47830239e-02, 1.09680500e-02, 1.57367680e-02,
          2.09823567e-02, 1.09680500e-02, 2.38435864e-02, 1.76442545e-02,
          7.15307612e-03, 1.43061522e-02, 1.85979977e-02, 3.09966635e-02,
          1.76442545e-02, 8.10681935e-03, 6.67620450e-03, 1.28755365e-02,
          4.29184549e-03, 1.71673819e-02, 1.43061522e-02, 1.19217932e-02,
          9.06056259e-03, 9.06056259e-03, 6.67620450e-03, 2.33667158e-02,
          1.04911784e-02, 4.76871710e-03, 1.76442545e-02, 1.95517410e-02,
          1.04911784e-02, 1.95517410e-02, 7.15307612e-03, 3.81497387e-03,
          1.04911784e-02, 1.04911784e-02, 9.53743421e-03, 9.53743421e-03,
          5.72246080e-03, 1.28755365e-02, 3.33810225e-03 ]
      - [ 7.09219836e-03, 1.77304968e-02, 4.25531901e-02, 1.06382975e-02,
          5.31914877e-03, 1.41843967e-02, 3.72340418e-02, 2.83687934e-02,
          8.86524841e-03, 3.36879417e-02, 2.48226933e-02, 1.24113467e-02,
          7.09219836e-03, 3.54609918e-03, 1.06382975e-02, 1.06382975e-02,
          1.77304959e-03, 5.31914877e-03, 7.09219836e-03, 3.54609918e-03,
          1.24113467e-02, 2.65957434e-02, 5.31914877e-03, 8.86524841e-03,
          3.54609918e-03, 7.09219836e-03, 1.95035450e-02, 8.86524841e-03,
          7.09219836e-03, 6.38297871e-02, 3.54609918e-03, 8.86524841e-03,
          1.06382975e-02, 8.86524841e-03, 1.06382975e-02, 1.06382975e-02,
          1.41843967e-02, 1.77304959e-03, 1.24113467e-02, 1.06382975e-02,
          2.12765951e-02, 1.59574468e-02, 3.54609918e-03, 1.77304968e-02,
          5.31914877e-03, 1.77304968e-02, 3.54609918e-03, 7.09219836e-03,
          1.41843967e-02, 8.86524841e-03, 3.54609918e-03, 1.41843967e-02,
          5.31914877e-03, 3.54609936e-02, 7.09219836e-03, 1.06382975e-02,
          1.41843967e-02, 1.59574468e-02, 7.09219836e-03, 2.30496451e-02,
          1.59574468e-02, 1.24113467e-02, 1.06382975e-02, 2.30496451e-02,
          1.24113467e-02, 1.24113467e-02, 8.86524841e-03, 8.86524841e-03,
          1.41843967e-02, 1.24113467e-02, 1.77304968e-02, 1.59574468e-02,
          8.86524841e-03, 1.59574468e-02, 1.06382975e-02 ]
      - [ 1.81518160e-02, 6.60066027e-03, 2.22772285e-02, 1.15511557e-02,
          1.73267331e-02, 1.40264034e-02, 4.45544571e-02, 1.48514854e-02,
          1.65016502e-02, 2.88778879e-02, 1.65016507e-03, 7.42574269e-03,
          8.25082511e-03, 8.25082511e-03, 4.12541255e-03, 5.77557785e-03,
          4.12541255e-03, 1.07260728e-02, 3.30033014e-03, 3.30033014e-03,
          9.07590799e-03, 1.15511557e-02, 7.42574269e-03, 1.15511557e-02,
          2.47524772e-03, 3.30033014e-03, 7.42574269e-03, 9.07590799e-03,
          2.97029708e-02, 6.68316856e-02, 8.25082511e-03, 8.25082511e-03,
          8.25082511e-03, 3.54785472e-02, 9.90099087e-03, 8.25082511e-03,
          1.07260728e-02, 1.07260728e-02, 3.79537977e-02, 9.90099087e-03,
          9.90099087e-03, 9.07590799e-03, 1.23762377e-02, 4.95049544e-03,
          2.14521457e-02, 8.25082534e-04, 4.95049544e-03, 1.23762377e-02,
          1.81518160e-02, 1.40264034e-02, 1.15511557e-02, 1.07260728e-02,
          7.42574269e-03, 1.07260728e-02, 1.65016502e-02, 2.47524772e-03,
          2.06270628e-02, 8.25082511e-03, 1.15511557e-02, 1.81518160e-02,
          9.90099087e-03, 1.07260728e-02, 1.32013205e-02, 6.60066027e-03,
          1.98019817e-02, 6.60066027e-03, 1.48514854e-02, 1.32013205e-02,
          1.98019817e-02, 1.23762377e-02, 1.89768989e-02, 1.89768989e-02,
          1.48514854e-02, 2.22772285e-02, 1.40264034e-02 ]
      - [ 1.47841508e-02, 2.54287384e-02, 1.59668829e-02, 8.27912427e-03,
          2.12891772e-02, 1.06445886e-02, 2.30632760e-02, 5.91366040e-03,
          5.91366040e-03, 1.47841508e-02, 1.77409817e-02, 1.12359542e-02,
          1.41927842e-02, 1.06445886e-02, 1.30100530e-02, 1.00532221e-02,
          9.46185645e-03, 1.24186864e-02, 2.01064441e-02, 8.87049083e-03,
          6.50502648e-03, 1.95150785e-02, 1.47841508e-02, 2.60201059e-02,
          1.83323473e-02, 1.41927842e-02, 1.77409817e-02, 1.12359542e-02,
          5.91366040e-03, 1.53755164e-02, 7.68775819e-03, 1.18273208e-02,
          1.06445886e-02, 7.68775819e-03, 1.12359542e-02, 7.68775819e-03,
          8.87049083e-03, 8.87049083e-03, 1.47841508e-02, 3.54819633e-02,
          1.24186864e-02, 7.09639210e-03, 1.77409817e-02, 1.12359542e-02,
          1.00532221e-02, 4.96747456e-02, 1.18273208e-02, 1.06445886e-02,
          8.27912427e-03, 2.12891772e-02, 8.87049083e-03, 1.41927842e-02,
          1.47841508e-02, 1.71496142e-02, 2.01064441e-02, 1.36014186e-02,
          1.30100530e-02, 4.73092822e-03, 8.87049083e-03, 1.71496142e-02,
          1.53755164e-02, 1.12359542e-02, 1.30100530e-02, 1.30100530e-02,
          8.27912427e-03, 5.91366040e-03, 7.68775819e-03, 2.36546411e-03,
          9.46185645e-03, 1.00532221e-02, 2.18805429e-02, 9.46185645e-03,
          1.00532221e-02, 1.36014186e-02, 7.68775819e-03 ]
      - [ 2.02634260e-02, 2.22897679e-02, 2.33029388e-02, 6.07902743e-03,
          1.51975695e-02, 2.63424534e-02, 2.73556244e-02, 5.06585650e-03,
          1.21580549e-02, 2.12765969e-02, 6.07902743e-03, 2.02634255e-03,
          4.05268511e-03, 5.97771071e-02, 1.41843976e-02, 6.07902743e-03,
          3.03951371e-03, 4.25531939e-02, 1.01317130e-02, 5.06585650e-03,
          1.21580549e-02, 5.06585650e-03, 1.01317130e-02, 1.62107404e-02,
          1.01317130e-02, 9.11854114e-03, 1.01317130e-02, 9.11854114e-03,
          7.09219882e-03, 3.54609936e-02, 4.05268511e-03, 8.10537022e-03,
          1.01317130e-02, 3.34346518e-02, 7.09219882e-03, 9.11854114e-03,
          3.03951371e-03, 5.06585650e-03, 3.64741646e-02, 1.92502551e-02,
          8.10537022e-03, 1.01317128e-03, 7.09219882e-03, 4.05268511e-03,
          1.62107404e-02, 8.10537022e-03, 9.11854114e-03, 9.11854114e-03,
          2.73556244e-02, 6.07902743e-03, 6.07902743e-03, 7.09219882e-03,
          1.01317128e-03, 1.82370823e-02, 2.93819662e-02, 5.06585650e-03,
          2.93819662e-02, 7.09219882e-03, 1.01317130e-02, 2.33029388e-02,
          6.07902743e-03, 3.03951371e-03, 2.83687953e-02, 1.01317130e-02,
          1.51975695e-02, 0., 7.09219882e-03, 1.11448839e-02,
          6.07902743e-03, 8.10537022e-03, 1.72239114e-02, 9.11854114e-03,
          2.02634260e-02, 2.63424534e-02, 6.07902743e-03 ]
      - [ 1.28755365e-02, 2.14592274e-02, 1.28755365e-02, 2.00286135e-02,
          7.15307612e-03, 2.28898432e-02, 1.14449216e-02, 1.28755365e-02,
          1.28755365e-02, 1.71673819e-02, 1.71673819e-02, 7.15307612e-03,
          1.14449216e-02, 1.14449216e-02, 7.15307612e-03, 1.57367680e-02,
          1.00143068e-02, 1.71673819e-02, 1.28755365e-02, 1.43061520e-03,
          1.28755365e-02, 2.43204590e-02, 1.28755365e-02, 1.71673819e-02,
          1.71673819e-02, 7.15307612e-03, 7.15307612e-03, 1.85979977e-02,
          1.14449216e-02, 2.28898432e-02, 1.57367680e-02, 2.00286135e-02,
          8.58369097e-03, 7.15307612e-03, 5.72246080e-03, 4.29184549e-03,
          2.43204590e-02, 5.72246080e-03, 1.28755365e-02, 1.43061522e-02,
          2.14592274e-02, 2.43204590e-02, 8.58369097e-03, 1.71673819e-02,
          1.71673819e-02, 1.28755365e-02, 5.72246080e-03, 2.71816887e-02,
          1.57367680e-02, 1.14449216e-02, 1.14449216e-02, 2.43204590e-02,
          5.72246080e-03, 1.85979977e-02, 1.14449216e-02, 5.72246080e-03,
          1.57367680e-02, 1.00143068e-02, 2.86123040e-03, 2.00286135e-02,
          8.58369097e-03, 1.00143068e-02, 1.85979977e-02, 1.57367680e-02,
          1.85979977e-02, 8.58369097e-03, 1.14449216e-02, 1.28755365e-02,
          8.58369097e-03, 5.72246080e-03, 1.71673819e-02, 2.86123040e-03,
          1.71673819e-02, 1.14449216e-02, 1.14449216e-02 ]
      - [ 1.33928573e-02, 1.41369049e-02, 1.86011903e-02, 1.19047621e-02,
          9.67261940e-03, 2.90178582e-02, 2.23214291e-02, 2.60416679e-02,
          1.33928573e-02, 3.34821418e-02, 4.46428591e-03, 1.19047621e-02,
          7.44047621e-03, 1.11607146e-02, 1.33928573e-02, 1.86011903e-02,
          8.92857183e-03, 1.41369049e-02, 1.19047621e-02, 1.33928573e-02,
          2.97619049e-02, 2.23214291e-02, 5.95238106e-03, 1.11607146e-02,
          2.97619053e-03, 7.44047621e-03, 2.97619053e-03, 1.04166670e-02,
          2.38095243e-02, 3.57142873e-02, 1.11607146e-02, 8.18452425e-03,
          1.04166670e-02, 2.67857146e-02, 2.08333340e-02, 1.19047621e-02,
          8.92857183e-03, 4.46428591e-03, 1.71130951e-02, 9.67261940e-03,
          1.19047621e-02, 2.23214291e-02, 6.69642864e-03, 8.18452425e-03,
          1.56250000e-02, 1.19047621e-02, 1.26488097e-02, 5.20833349e-03,
          1.63690485e-02, 1.41369049e-02, 1.86011903e-02, 1.11607146e-02,
          1.26488097e-02, 1.11607146e-02, 9.67261940e-03, 1.56250000e-02,
          3.72023811e-03, 1.48809524e-02, 9.67261940e-03, 1.11607146e-02,
          7.44047621e-03, 8.92857183e-03, 9.67261940e-03, 8.92857183e-03,
          2.23214296e-03, 1.19047621e-02, 5.20833349e-03, 1.19047621e-02,
          3.05059534e-02, 8.18452425e-03, 1.56250000e-02, 1.11607146e-02,
          1.33928573e-02, 8.92857183e-03, 1.33928573e-02 ]
      - [ 9.92907770e-03, 2.03309692e-02, 4.53900695e-02, 6.61938544e-03,
          2.36406620e-03, 2.03309692e-02, 5.62647730e-02, 1.08747045e-02,
          4.72813239e-03, 5.91016524e-02, 8.03782512e-03, 1.74940899e-02,
          1.65484641e-02, 8.03782512e-03, 4.72813239e-03, 5.20094577e-03,
          5.67375869e-03, 1.08747045e-02, 4.72813239e-03, 2.36406620e-03,
          1.79669037e-02, 1.37115838e-02, 3.78250587e-03, 5.20094577e-03,
          5.67375869e-03, 5.20094577e-03, 8.03782512e-03, 5.20094577e-03,
          9.45626479e-03, 4.30260040e-02, 8.03782512e-03, 6.61938544e-03,
          7.56501174e-03, 1.84397157e-02, 2.26950347e-02, 1.41843967e-02,
          6.14657206e-03, 7.56501174e-03, 1.46572106e-02, 4.01891246e-02,
          5.67375869e-03, 9.92907770e-03, 6.61938544e-03, 1.51300235e-02,
          4.72813239e-03, 3.59338075e-02, 5.67375869e-03, 6.61938544e-03,
          1.74940899e-02, 4.11347523e-02, 1.79669037e-02, 1.08747045e-02,
          9.92907770e-03, 7.09219836e-03, 8.98345187e-03, 4.25531901e-03,
          2.83687934e-02, 1.41843967e-02, 6.61938544e-03, 1.56028364e-02,
          4.25531901e-03, 8.98345187e-03, 5.20094577e-03, 8.51063803e-03,
          9.45626479e-03, 1.41843967e-02, 8.03782512e-03, 7.56501174e-03,
          3.78250587e-03, 6.61938544e-03, 3.16784866e-02, 5.67375869e-03,
          8.98345187e-03, 1.18203312e-02, 9.45626479e-03 ]
      - [ 1.08695654e-02, 1.55279506e-02, 3.41614932e-02, 1.55279506e-02,
          1.24223605e-02, 9.31677036e-03, 3.41614932e-02, 1.86335407e-02,
          9.31677036e-03, 6.21118024e-02, 1.86335407e-02, 9.31677036e-03,
          1.55279506e-03, 1.08695654e-02, 9.31677036e-03, 3.10559012e-03,
          4.65838518e-03, 1.70807466e-02, 0., 4.65838518e-03,
          1.86335407e-02, 1.39751555e-02, 6.21118024e-03, 7.76397530e-03,
          1.55279506e-03, 4.65838518e-03, 1.08695654e-02, 3.10559012e-03,
          9.31677036e-03, 1.08695656e-01, 7.76397530e-03, 7.76397530e-03,
          9.31677036e-03, 2.32919268e-02, 7.76397530e-03, 3.10559012e-03,
          3.10559012e-03, 4.65838518e-03, 1.39751555e-02, 2.63975151e-02,
          0., 6.21118024e-03, 9.31677036e-03, 6.21118024e-03,
          9.31677036e-03, 0., 3.10559012e-03, 2.63975151e-02,
          3.10559012e-02, 3.10559012e-03, 1.86335407e-02, 7.76397530e-03,
          3.10559012e-03, 9.31677036e-03, 7.76397530e-03, 7.76397530e-03,
          2.17391308e-02, 0., 1.55279506e-03, 1.39751555e-02,
          3.10559012e-03, 9.31677036e-03, 9.31677036e-03, 7.76397530e-03,
          2.63975151e-02, 3.10559012e-03, 7.76397530e-03, 1.24223605e-02,
          6.21118024e-03, 4.65838518e-03, 8.38509351e-02, 7.76397530e-03,
          1.08695654e-02, 1.08695654e-02, 1.70807466e-02 ]
      - [ 1.25577366e-02, 1.83314085e-02, 9.95958410e-03, 4.61893762e-03,
          2.02078521e-02, 8.66050832e-03, 1.12586608e-02, 6.06235582e-03,
          9.23787523e-03, 1.32794455e-02, 2.52598152e-02, 9.95958410e-03,
          1.41454963e-02, 6.92840666e-03, 1.18360277e-02, 1.29907625e-02,
          1.18360277e-02, 1.01039261e-02, 1.80427246e-02, 1.11143189e-02,
          6.63972273e-03, 8.51616636e-03, 1.35681294e-02, 1.99191682e-02,
          1.65993068e-02, 1.37124714e-02, 1.74653586e-02, 1.31351035e-02,
          6.35103928e-03, 1.61662810e-02, 8.22748244e-03, 1.14030018e-02,
          1.47228632e-02, 4.90762107e-03, 9.09353327e-03, 1.21247116e-02,
          1.06812930e-02, 1.12586608e-02, 7.65011553e-03, 2.69919168e-02,
          1.65993068e-02, 1.48672052e-02, 1.91974603e-02, 1.37124714e-02,
          1.28464205e-02, 3.11778281e-02, 1.29907625e-02, 1.24133946e-02,
          1.03926100e-02, 5.08083142e-02, 8.22748244e-03, 1.12586608e-02,
          1.60219390e-02, 1.47228632e-02, 1.67436488e-02, 1.19803697e-02,
          1.48672052e-02, 8.08314048e-03, 1.42898383e-02, 1.24133946e-02,
          1.22690527e-02, 7.79445702e-03, 2.62702070e-02, 2.25173216e-02,
          6.06235582e-03, 1.16916858e-02, 9.95958410e-03, 1.16916858e-02,
          1.14030018e-02, 1.35681294e-02, 1.05369510e-02, 1.28464205e-02,
          8.66050832e-03, 1.16916858e-02, 3.89722851e-03 ]
      - [ 1.22249387e-02, 1.22249387e-02, 1.22249387e-02, 9.77995060e-03,
          8.96495488e-03, 1.14099430e-02, 3.01548485e-02, 2.93398518e-02,
          2.03748979e-02, 3.91198024e-02, 0., 1.05949463e-02,
          1.62999181e-03, 1.22249387e-02, 1.14099430e-02, 1.54849226e-02,
          6.51996722e-03, 1.38549302e-02, 8.96495488e-03, 4.07497957e-03,
          8.96495488e-03, 4.23797853e-02, 1.87449064e-02, 1.22249387e-02,
          1.62999181e-03, 4.88997530e-03, 8.96495488e-03, 1.14099430e-02,
          1.79299098e-02, 7.25346357e-02, 1.38549302e-02, 8.14995915e-03,
          4.07497957e-03, 1.87449064e-02, 9.77995060e-03, 8.96495488e-03,
          3.25998361e-03, 1.05949463e-02, 1.54849226e-02, 2.28198860e-02,
          1.05949463e-02, 8.96495488e-03, 7.33496295e-03, 8.14995903e-04,
          1.30399344e-02, 6.51996722e-03, 9.77995060e-03, 1.05949463e-02,
          1.79299098e-02, 1.38549302e-02, 2.11898927e-02, 1.87449064e-02,
          4.88997530e-03, 8.96495488e-03, 1.22249387e-02, 1.62999181e-03,
          2.20048893e-02, 7.33496295e-03, 7.33496295e-03, 2.20048893e-02,
          4.88997530e-03, 9.77995060e-03, 5.70497150e-03, 8.96495488e-03,
          2.11898927e-02, 3.25998361e-03, 8.96495488e-03, 5.70497150e-03,
          1.22249387e-02, 1.30399344e-02, 4.15647924e-02, 5.70497150e-03,
          1.30399344e-02, 1.46699259e-02, 1.95599012e-02 ]
      - [ 9.58956685e-03, 2.87686996e-02, 3.45224398e-03, 7.28807040e-03,
          2.33985428e-02, 4.21940908e-03, 2.03298815e-02, 7.67165329e-04,
          1.26582282e-02, 2.30149599e-03, 2.41657086e-02, 4.60299198e-03,
          1.64940543e-02, 8.05523619e-03, 9.20598395e-03, 1.99462995e-02,
          1.72612201e-02, 6.13732263e-03, 2.33985428e-02, 1.80283859e-02,
          3.45224398e-03, 3.83582665e-03, 6.90448796e-03, 1.68776363e-02,
          1.87955499e-02, 2.30149589e-02, 1.38089759e-02, 9.58956685e-03,
          6.52090553e-03, 1.49597237e-02, 4.60299198e-03, 1.45761408e-02,
          1.99462995e-02, 3.83582665e-03, 4.60299198e-03, 8.05523619e-03,
          1.34253930e-02, 8.05523619e-03, 5.75373974e-03, 3.22209448e-02,
          1.03567317e-02, 1.53433066e-02, 1.64940543e-02, 2.37821247e-02,
          1.53433066e-02, 4.21940945e-02, 1.30418111e-02, 2.49328725e-02,
          9.58956685e-03, 5.48523217e-02, 3.06866132e-03, 8.43881816e-03,
          2.41657086e-02, 1.38089759e-02, 1.18910624e-02, 1.45761408e-02,
          5.75373974e-03, 3.06866132e-03, 1.45761408e-02, 1.34253930e-02,
          1.30418111e-02, 4.21940908e-03, 1.61104724e-02, 1.45761408e-02,
          1.57268886e-02, 1.38089759e-02, 1.38089759e-02, 9.20598395e-03,
          9.97314975e-03, 1.18910624e-02, 9.20598395e-03, 1.30418111e-02,
          9.97314975e-03, 1.11238975e-02, 2.68507865e-03 ]
      - [ 7.89793488e-03, 9.11300164e-03, 3.12879719e-02, 8.50546826e-03,
          1.94410700e-02, 7.89793488e-03, 1.88335367e-02, 6.68286765e-03,
          7.89793488e-03, 2.33900379e-02, 2.49088705e-02, 9.41676833e-03,
          1.39732687e-02, 4.86026751e-03, 1.06318351e-02, 9.11300164e-03,
          1.51883364e-02, 7.89793488e-03, 1.36695020e-02, 1.33657353e-02,
          9.72053502e-03, 6.37910096e-03, 1.15431352e-02, 1.57958698e-02,
          1.51883364e-02, 2.12636702e-02, 1.03280684e-02, 1.42770354e-02,
          1.42770354e-02, 3.49331722e-02, 5.16403420e-03, 1.06318351e-02,
          2.06561368e-02, 9.11300164e-03, 9.11300164e-03, 1.91373024e-02,
          4.55650082e-03, 1.24544352e-02, 9.11300164e-03, 2.03523710e-02,
          1.60996355e-02, 1.24544352e-02, 1.79222357e-02, 1.21506685e-02,
          5.46780089e-03, 4.07047421e-02, 1.91373024e-02, 1.06318351e-02,
          1.09356018e-02, 4.31348756e-02, 7.59416819e-03, 1.33657353e-02,
          1.48845697e-02, 1.64034031e-02, 8.80923495e-03, 1.76184699e-02,
          4.55650082e-03, 1.00243017e-02, 8.50546826e-03, 1.03280684e-02,
          1.21506685e-02, 8.50546826e-03, 9.72053502e-03, 2.15674378e-02,
          1.00243017e-02, 1.27582019e-02, 8.20170157e-03, 9.41676833e-03,
          1.33657353e-02, 1.70109365e-02, 9.72053502e-03, 9.41676833e-03,
          8.50546826e-03, 8.20170157e-03, 2.73390044e-03 ]
      - [ 1.94174759e-02, 3.23624606e-03, 3.23624606e-03, 0.,
          6.47249212e-03, 9.70873795e-03, 2.26537231e-02, 1.94174759e-02,
          3.23624606e-03, 6.47249212e-03, 3.23624606e-03, 1.94174759e-02,
          1.29449842e-02, 1.29449842e-02, 1.29449842e-02, 0.,
          6.47249212e-03, 9.70873795e-03, 1.94174759e-02, 6.47249212e-03,
          3.23624606e-03, 9.70873795e-03, 9.70873795e-03, 1.29449842e-02,
          9.70873795e-03, 9.70873795e-03, 2.26537231e-02, 3.23624606e-03,
          0., 6.14886768e-02, 1.29449842e-02, 1.61812305e-02,
          3.23624606e-03, 1.29449842e-02, 1.94174759e-02, 1.29449842e-02,
          2.26537231e-02, 1.29449842e-02, 2.91262139e-02, 1.29449842e-02,
          9.70873795e-03, 6.47249212e-03, 9.70873795e-03, 1.61812305e-02,
          1.29449842e-02, 1.94174759e-02, 1.29449842e-02, 9.70873795e-03,
          3.23624606e-03, 1.61812305e-02, 1.29449842e-02, 9.70873795e-03,
          1.29449842e-02, 1.61812305e-02, 2.91262139e-02, 2.58899685e-02,
          1.61812305e-02, 1.94174759e-02, 1.29449842e-02, 2.91262139e-02,
          2.58899685e-02, 0., 1.94174759e-02, 1.61812305e-02,
          2.26537231e-02, 9.70873795e-03, 3.23624606e-03, 3.23624606e-03,
          3.23624606e-03, 1.61812305e-02, 1.29449842e-02, 9.70873795e-03,
          6.47249212e-03, 4.85436916e-02, 6.47249212e-03 ]
      - [ 1.32158585e-02, 1.54185016e-02, 8.81057233e-03, 8.07635859e-03,
          1.17474301e-02, 1.98237877e-02, 9.54478700e-03, 1.10132154e-02,
          1.54185016e-02, 1.17474301e-02, 1.98237877e-02, 1.61527172e-02,
          2.42290739e-02, 7.34214392e-03, 1.02790017e-02, 1.24816447e-02,
          1.98237877e-02, 8.81057233e-03, 1.46842878e-02, 7.34214392e-03,
          1.10132154e-02, 1.17474301e-02, 9.54478700e-03, 8.81057233e-03,
          1.17474301e-02, 1.32158585e-02, 6.60792924e-03, 1.17474301e-02,
          1.17474301e-02, 1.10132154e-02, 9.54478700e-03, 8.81057233e-03,
          2.05580033e-02, 9.54478700e-03, 1.76211447e-02, 1.98237877e-02,
          1.10132154e-02, 1.61527172e-02, 1.17474301e-02, 6.60792924e-03,
          1.32158585e-02, 1.76211447e-02, 1.39500732e-02, 2.49632895e-02,
          1.46842878e-02, 3.67107205e-02, 1.24816447e-02, 9.54478700e-03,
          8.81057233e-03, 4.18502204e-02, 1.32158585e-02, 1.32158585e-02,
          1.76211447e-02, 8.81057233e-03, 1.32158585e-02, 2.20264308e-02,
          8.81057233e-03, 1.10132154e-02, 1.02790017e-02, 1.54185016e-02,
          5.13950083e-03, 8.81057233e-03, 9.54478700e-03, 1.32158585e-02,
          4.40528616e-03, 1.98237877e-02, 1.32158585e-02, 1.10132154e-02,
          1.24816447e-02, 1.39500732e-02, 4.40528616e-03, 1.39500732e-02,
          9.54478700e-03, 2.05580033e-02, 8.07635859e-03 ]
      - [ 8.60303175e-03, 4.50635003e-03, 7.68127805e-03, 4.19909880e-03,
          1.37238838e-02, 1.13682915e-02, 1.63867266e-03, 6.04260527e-03,
          9.42236744e-03, 6.65710773e-03, 4.41417433e-02, 1.09586231e-02,
          2.41704211e-02, 7.37402681e-03, 1.67963952e-02, 1.31093813e-02,
          1.29045472e-02, 8.50061420e-03, 1.93568207e-02, 1.43383862e-02,
          1.01392874e-02, 8.70544836e-03, 1.33142155e-02, 1.44408029e-02,
          1.91519875e-02, 2.17124131e-02, 1.03441216e-02, 1.78205650e-02,
          1.01392874e-02, 2.56042602e-03, 1.13682915e-02, 1.40311345e-02,
          2.64235958e-02, 2.86767725e-03, 7.06677604e-03, 3.43097076e-02,
          5.73535450e-03, 1.83326509e-02, 3.89184756e-03, 4.71118372e-03,
          2.28390004e-02, 1.11634573e-02, 1.72060635e-02, 2.30438337e-02,
          7.27160973e-03, 1.95616558e-02, 3.06226946e-02, 1.06513724e-02,
          6.96435897e-03, 2.10979097e-02, 1.01392874e-02, 1.86399017e-02,
          1.36214662e-02, 1.67963952e-02, 9.21753328e-03, 3.50266285e-02,
          1.02417043e-03, 2.09954940e-02, 1.12658748e-02, 6.75952481e-03,
          1.26997130e-02, 5.22326911e-03, 1.00368699e-02, 2.89840233e-02,
          1.84350670e-03, 3.21589522e-02, 8.91028251e-03, 8.19336344e-03,
          1.65915601e-02, 2.14051623e-02, 3.07251117e-03, 1.02417041e-02,
          9.42236744e-03, 8.39819759e-03, 6.34985650e-03 ]
      - [ 8.13609455e-03, 5.17751463e-03, 7.02662766e-02, 8.13609455e-03,
          8.13609455e-03, 2.36686394e-02, 3.84615399e-02, 1.33136101e-02,
          5.91715984e-03, 1.06508881e-01, 7.39644980e-04, 9.61538497e-03,
          5.91715984e-03, 8.13609455e-03, 5.91715984e-03, 2.95857992e-03,
          5.17751463e-03, 8.87573976e-03, 5.91715984e-03, 3.69822490e-03,
          1.62721891e-02, 5.91715984e-03, 5.91715984e-03, 5.91715984e-03,
          2.21893494e-03, 2.95857992e-03, 5.17751463e-03, 4.43786988e-03,
          1.33136101e-02, 7.91420117e-02, 8.87573976e-03, 5.17751463e-03,
          3.69822490e-03, 2.66272202e-02, 1.77514795e-02, 1.03550293e-02,
          4.43786988e-03, 1.33136101e-02, 3.99408303e-02, 5.17751463e-03,
          4.43786988e-03, 1.70118343e-02, 4.43786988e-03, 4.43786988e-03,
          1.25739649e-02, 3.69822490e-03, 5.91715984e-03, 6.65680505e-03,
          1.10946745e-02, 1.77514795e-02, 2.21893489e-02, 1.47928996e-02,
          7.39644980e-03, 2.95857992e-03, 1.70118343e-02, 5.91715984e-03,
          1.10946745e-02, 1.18343197e-02, 1.10946745e-02, 2.29289941e-02,
          4.43786988e-03, 6.65680505e-03, 5.17751463e-03, 1.55325448e-02,
          3.10650896e-02, 5.17751463e-03, 5.17751463e-03, 2.21893494e-03,
          1.10946745e-02, 8.87573976e-03, 1.62721891e-02, 1.25739649e-02,
          7.39644980e-03, 1.92307699e-02, 1.25739649e-02 ]
      - [ 8.08044523e-03, 8.97827279e-03, 1.40061053e-02, 5.74609451e-03,
          1.61608905e-02, 8.08044523e-03, 5.02783246e-03, 7.90087972e-03,
          8.97827279e-03, 1.84952412e-02, 1.93930697e-02, 1.13126235e-02,
          1.14921890e-02, 1.05943615e-02, 1.29287131e-02, 1.59813259e-02,
          1.09534925e-02, 1.05943615e-02, 2.08295919e-02, 2.31639426e-02,
          7.36218365e-03, 1.16717545e-02, 1.70587189e-02, 1.68791525e-02,
          2.15478539e-02, 2.02908963e-02, 1.34674087e-02, 2.10091583e-02,
          1.45448018e-02, 2.10091583e-02, 1.04147960e-02, 2.35230736e-02,
          2.69348174e-02, 5.92566002e-03, 1.23900166e-02, 1.58017594e-02,
          1.14921890e-02, 1.63404569e-02, 1.09534925e-02, 1.07739270e-02,
          2.01113299e-02, 8.79870728e-03, 1.65200215e-02, 1.13126235e-02,
          1.00556649e-02, 1.22104511e-02, 2.13682894e-02, 2.04704609e-02,
          7.54174916e-03, 2.24456824e-02, 8.97827279e-03, 1.41856708e-02,
          1.23900166e-02, 2.10091583e-02, 9.51696932e-03, 1.59813259e-02,
          3.23217828e-03, 1.13126235e-02, 9.69653483e-03, 1.31082777e-02,
          1.88543722e-02, 7.54174916e-03, 1.05943615e-02, 2.24456824e-02,
          5.92566002e-03, 1.25695821e-02, 5.92566002e-03, 7.54174916e-03,
          1.54426293e-02, 2.17274204e-02, 4.13000537e-03, 9.33740381e-03,
          1.02352304e-02, 1.38265397e-02, 5.56652900e-03 ]
      - [ 6.25000056e-03, 7.29166716e-03, 6.25000000e-02, 9.37500037e-03,
          7.29166716e-03, 9.37500037e-03, 5.52083366e-02, 1.56250000e-02,
          8.33333377e-03, 9.16666687e-02, 2.08333344e-03, 1.04166670e-02,
          1.04166670e-02, 1.25000011e-02, 9.37500037e-03, 6.25000056e-03,
          8.33333377e-03, 1.45833343e-02, 5.20833349e-03, 2.08333344e-03,
          2.39583347e-02, 9.37500037e-03, 6.25000056e-03, 3.12500028e-03,
          3.12500028e-03, 1.14583336e-02, 6.25000056e-03, 9.37500037e-03,
          8.33333377e-03, 5.31250015e-02, 8.33333377e-03, 9.37500037e-03,
          6.25000056e-03, 1.04166670e-02, 3.02083343e-02, 1.56250000e-02,
          1.04166670e-02, 9.37500037e-03, 2.08333340e-02, 1.77083351e-02,
          8.33333377e-03, 6.25000056e-03, 4.16666688e-03, 9.37500037e-03,
          4.16666688e-03, 1.56250000e-02, 3.12500028e-03, 1.77083351e-02,
          1.04166670e-02, 1.87500007e-02, 2.29166672e-02, 2.60416679e-02,
          5.20833349e-03, 7.29166716e-03, 1.04166670e-02, 1.04166670e-02,
          2.08333340e-02, 1.56250000e-02, 7.29166716e-03, 1.35416677e-02,
          1.04166670e-02, 6.25000056e-03, 6.25000056e-03, 6.25000056e-03,
          2.29166672e-02, 4.16666688e-03, 4.16666688e-03, 5.20833349e-03,
          7.29166716e-03, 9.37500037e-03, 1.77083351e-02, 7.29166716e-03,
          5.20833349e-03, 1.04166670e-02, 1.25000011e-02 ]
      - [ 6.85714278e-03, 1.25714280e-02, 1.14285713e-02, 5.71428565e-03,
          1.59999989e-02, 3.42857139e-03, 4.34285700e-02, 1.25714280e-02,
          1.48571432e-02, 1.02857146e-02, 2.40000002e-02, 1.14285713e-02,
          1.14285713e-02, 9.14285704e-03, 7.99999945e-03, 7.99999945e-03,
          1.71428565e-02, 1.14285713e-02, 2.17142850e-02, 1.71428565e-02,
          1.02857146e-02, 9.14285704e-03, 9.14285704e-03, 1.37142856e-02,
          9.14285704e-03, 2.05714293e-02, 2.40000002e-02, 1.48571432e-02,
          4.57142852e-03, 3.31428573e-02, 1.02857146e-02, 7.99999945e-03,
          1.48571432e-02, 9.14285704e-03, 6.85714278e-03, 1.25714280e-02,
          6.85714278e-03, 1.14285713e-02, 9.14285704e-03, 1.59999989e-02,
          1.25714280e-02, 1.37142856e-02, 1.14285713e-02, 1.25714280e-02,
          7.99999945e-03, 2.05714293e-02, 1.14285713e-02, 2.97142863e-02,
          7.99999945e-03, 3.99999991e-02, 7.99999945e-03, 1.02857146e-02,
          7.99999945e-03, 2.05714293e-02, 1.14285713e-02, 1.71428565e-02,
          1.37142856e-02, 1.02857146e-02, 7.99999945e-03, 2.74285711e-02,
          1.48571432e-02, 5.71428565e-03, 5.71428565e-03, 1.59999989e-02,
          1.37142856e-02, 1.37142856e-02, 5.71428565e-03, 5.71428565e-03,
          6.85714278e-03, 1.25714280e-02, 1.48571432e-02, 1.25714280e-02,
          6.85714278e-03, 2.40000002e-02, 7.99999945e-03 ]
      - [ 1.22950813e-02, 5.46448072e-03, 2.59562843e-02, 6.14754064e-03,
          8.87978077e-03, 1.57103818e-02, 1.16120214e-02, 1.77595615e-02,
          1.43442620e-02, 3.89344245e-02, 2.80054640e-02, 1.02459015e-02,
          1.22950813e-02, 5.46448072e-03, 1.50273219e-02, 9.56284162e-03,
          4.78142081e-03, 1.09289614e-02, 1.09289614e-02, 2.25409828e-02,
          1.50273219e-02, 3.34699452e-02, 1.02459015e-02, 8.87978077e-03,
          1.29781421e-02, 1.22950813e-02, 7.51366094e-03, 1.09289614e-02,
          6.83060102e-03, 4.37158458e-02, 1.22950813e-02, 9.56284162e-03,
          1.57103818e-02, 1.09289614e-02, 1.84426233e-02, 1.98087431e-02,
          4.78142081e-03, 5.46448072e-03, 1.16120214e-02, 1.36612020e-02,
          7.51366094e-03, 1.09289614e-02, 8.87978077e-03, 1.09289614e-02,
          1.36612020e-02, 1.29781421e-02, 6.83060102e-03, 1.91256832e-02,
          1.43442620e-02, 2.80054640e-02, 1.77595615e-02, 1.29781421e-02,
          8.19672085e-03, 1.02459015e-02, 1.50273219e-02, 6.83060102e-03,
          6.83060102e-03, 1.57103818e-02, 1.57103818e-02, 1.09289614e-02,
          8.87978077e-03, 1.29781421e-02, 8.19672085e-03, 1.09289614e-02,
          1.98087431e-02, 6.83060102e-03, 6.83060102e-03, 1.02459015e-02,
          1.22950813e-02, 1.16120214e-02, 2.04918031e-02, 9.56284162e-03,
          1.02459015e-02, 1.09289614e-02, 1.57103818e-02 ]
      - [ 9.12600942e-03, 2.45700236e-02, 4.24710400e-02, 7.37100746e-03,
          1.75500172e-03, 1.22850118e-02, 8.73990878e-02, 9.82800964e-03,
          3.86100379e-03, 6.42330647e-02, 7.02000689e-04, 1.08810104e-02,
          7.02000689e-03, 9.47700907e-03, 3.86100379e-03, 6.66900631e-03,
          3.51000344e-03, 8.42400827e-03, 3.86100379e-03, 2.45700241e-03,
          8.77500884e-03, 2.21130215e-02, 3.86100379e-03, 8.07300769e-03,
          3.86100379e-03, 2.80800276e-03, 5.61600551e-03, 5.26500493e-03,
          1.22850118e-02, 8.14320818e-02, 9.82800964e-03, 7.02000689e-03,
          5.61600551e-03, 1.64970160e-02, 1.01790102e-02, 9.12600942e-03,
          1.47420149e-02, 1.01790102e-02, 1.89540181e-02, 2.73780264e-02,
          8.42400827e-03, 6.66900631e-03, 4.56300471e-03, 3.51000344e-03,
          1.05300099e-02, 1.29870130e-02, 1.40400138e-03, 7.72200758e-03,
          2.38680243e-02, 1.64970160e-02, 1.08810104e-02, 8.42400827e-03,
          6.66900631e-03, 7.37100746e-03, 1.05300099e-02, 4.91400482e-03,
          2.59740259e-02, 8.77500884e-03, 4.91400482e-03, 1.57950148e-02,
          3.15900310e-03, 7.02000689e-03, 8.77500884e-03, 6.66900631e-03,
          4.73850481e-02, 7.72200758e-03, 4.91400482e-03, 6.66900631e-03,
          9.47700907e-03, 8.42400827e-03, 4.42260429e-02, 6.31800620e-03,
          5.61600551e-03, 1.89540181e-02, 1.08810104e-02 ]
      - [ 1.03761349e-02, 1.03761349e-02, 2.20492873e-02, 1.03761349e-02,
          1.81582365e-02, 1.42671857e-02, 2.59403363e-02, 6.48508407e-03,
          1.42671857e-02, 1.16731515e-02, 7.78210117e-03, 5.18806744e-03,
          9.07911826e-03, 1.29701681e-02, 2.07522698e-02, 1.42671857e-02,
          1.42671857e-02, 6.48508407e-03, 2.07522698e-02, 1.68612190e-02,
          1.29701681e-02, 7.78210117e-03, 9.07911826e-03, 9.07911826e-03,
          1.03761349e-02, 1.42671857e-02, 1.55642023e-02, 1.81582365e-02,
          1.42671857e-02, 1.81582365e-02, 9.07911826e-03, 3.89105058e-03,
          9.07911826e-03, 1.94552522e-02, 9.07911826e-03, 2.20492873e-02,
          9.07911826e-03, 1.42671857e-02, 2.85343714e-02, 1.68612190e-02,
          1.16731515e-02, 1.16731515e-02, 1.03761349e-02, 1.29701681e-02,
          1.42671857e-02, 1.42671857e-02, 1.55642023e-02, 7.78210117e-03,
          7.78210117e-03, 1.03761349e-02, 1.29701681e-02, 3.63164730e-02,
          1.29701681e-02, 1.55642023e-02, 1.03761349e-02, 1.16731515e-02,
          3.89105058e-03, 7.78210117e-03, 1.42671857e-02, 2.07522698e-02,
          1.42671857e-02, 1.29701681e-02, 1.55642023e-02, 1.94552522e-02,
          1.29701681e-02, 1.03761349e-02, 7.78210117e-03, 9.07911826e-03,
          1.03761349e-02, 1.55642023e-02, 1.03761349e-02, 1.55642023e-02,
          1.68612190e-02, 1.55642023e-02, 6.48508407e-03 ]
      - [ 1.51619576e-02, 1.18145123e-02, 4.52889642e-03, 4.13507922e-03,
          2.13645771e-02, 7.67943310e-03, 7.58097880e-03, 4.03662492e-03,
          1.72294974e-02, 4.23353352e-03, 1.56542286e-02, 6.20261906e-03,
          1.43743232e-02, 9.84542724e-03, 1.77217685e-02, 2.07738504e-02,
          1.35866897e-02, 1.34882350e-02, 2.35305708e-02, 2.62872912e-02,
          5.90725616e-03, 6.49798196e-03, 1.49650490e-02, 1.95924006e-02,
          2.34321170e-02, 2.03800350e-02, 1.45712318e-02, 1.72294974e-02,
          1.25036929e-02, 2.55981111e-03, 1.06330616e-02, 2.10692137e-02,
          2.26444826e-02, 7.18716159e-03, 3.54435388e-03, 8.56552180e-03,
          4.52889642e-03, 1.12237865e-02, 9.35315620e-03, 2.18568482e-02,
          2.04784889e-02, 5.90725616e-03, 2.42197514e-02, 1.40789608e-02,
          1.65403169e-02, 1.22083295e-02, 2.03800350e-02, 2.08723061e-02,
          1.00423358e-02, 1.05346069e-02, 7.38407020e-03, 1.55557748e-02,
          1.38820522e-02, 1.88047662e-02, 1.94939449e-02, 1.09284241e-02,
          1.69341341e-02, 7.67943310e-03, 1.25036929e-02, 1.53588662e-02,
          1.28975092e-02, 6.00571046e-03, 2.47120224e-02, 2.08723061e-02,
          3.74126225e-03, 1.18145123e-02, 1.02392444e-02, 8.56552180e-03,
          1.56542286e-02, 1.76233146e-02, 7.28561589e-03, 1.42758694e-02,
          1.51619576e-02, 1.42758694e-02, 5.61189326e-03 ]
      - [ 3.03490134e-03, 3.49013656e-02, 5.31107746e-02, 1.06221549e-02,
          7.58725312e-03, 1.36570558e-02, 1.21396054e-02, 1.51745062e-02,
          4.55235224e-03, 5.00758737e-02, 7.58725312e-03, 2.27617603e-02,
          1.06221549e-02, 7.58725312e-03, 6.06980268e-03, 6.06980268e-03,
          1.21396054e-02, 1.21396054e-02, 1.51745067e-03, 1.51745067e-03,
          1.21396054e-02, 2.27617603e-02, 7.58725312e-03, 7.58725312e-03,
          4.55235224e-03, 3.03490134e-03, 6.06980268e-03, 1.36570558e-02,
          1.21396054e-02, 5.15933223e-02, 1.06221549e-02, 3.03490134e-03,
          3.03490134e-03, 9.10470448e-03, 1.82094090e-02, 1.66919567e-02,
          1.21396054e-02, 3.03490134e-03, 1.82094090e-02, 7.58725312e-03,
          7.58725312e-03, 3.03490125e-02, 1.21396054e-02, 6.06980268e-03,
          6.06980268e-03, 2.57966612e-02, 2.12443098e-02, 1.51745067e-03,
          1.06221549e-02, 6.67678267e-02, 1.82094090e-02, 1.36570558e-02,
          7.58725312e-03, 1.36570558e-02, 9.10470448e-03, 1.36570558e-02,
          4.55235224e-03, 9.10470448e-03, 1.51745062e-02, 1.66919567e-02,
          7.58725312e-03, 9.10470448e-03, 4.55235224e-03, 1.51745062e-02,
          1.06221549e-02, 9.10470448e-03, 1.66919567e-02, 9.10470448e-03,
          1.36570558e-02, 1.21396054e-02, 9.10470448e-03, 9.10470448e-03,
          7.58725312e-03, 1.21396054e-02, 9.10470448e-03 ]
      - [ 1.03626940e-02, 1.33234635e-02, 4.36713547e-02, 8.14211648e-03,
          7.40192411e-03, 2.22057719e-02, 4.36713547e-02, 1.70244258e-02,
          1.03626940e-02, 2.59067342e-02, 2.81273127e-02, 1.11028859e-02,
          1.11028859e-02, 7.40192411e-03, 2.96076969e-03, 5.18134702e-03,
          2.96076969e-03, 8.14211648e-03, 2.96076969e-03, 2.22057733e-03,
          1.40636563e-02, 9.62250121e-03, 5.18134702e-03, 3.70096206e-03,
          2.96076969e-03, 4.44115466e-03, 1.48038482e-02, 2.22057733e-03,
          8.14211648e-03, 7.10584745e-02, 8.14211648e-03, 3.70096206e-03,
          2.96076969e-03, 3.77498120e-02, 1.18430788e-02, 1.55440411e-02,
          4.44115466e-03, 1.40636563e-02, 4.29311618e-02, 2.66469270e-02,
          3.70096206e-03, 5.18134702e-03, 5.18134702e-03, 8.14211648e-03,
          8.14211648e-03, 1.25832716e-02, 5.18134702e-03, 5.18134702e-03,
          1.99851952e-02, 1.03626940e-02, 1.33234635e-02, 1.55440411e-02,
          2.96076969e-03, 1.18430788e-02, 2.66469270e-02, 2.96076969e-03,
          3.25684659e-02, 1.55440411e-02, 1.33234635e-02, 1.48038482e-02,
          5.92153938e-03, 8.88230931e-03, 5.18134702e-03, 2.29459647e-02,
          1.92450024e-02, 5.18134702e-03, 6.66173175e-03, 9.62250121e-03,
          8.14211648e-03, 1.25832716e-02, 2.73871198e-02, 1.11028859e-02,
          1.18430788e-02, 1.48038482e-02, 8.88230931e-03 ]
      - [ 1.21212127e-02, 6.06060633e-03, 9.52380989e-03, 8.65800865e-03,
          1.81818195e-02, 1.38528142e-02, 2.59740259e-02, 1.03896111e-02,
          1.29870130e-02, 1.55844158e-02, 1.55844158e-02, 1.03896111e-02,
          1.47186154e-02, 2.51082256e-02, 6.92640711e-03, 1.21212127e-02,
          6.06060633e-03, 2.68398281e-02, 1.99134201e-02, 1.64502170e-02,
          7.79220788e-03, 1.29870130e-02, 6.92640711e-03, 2.16450226e-02,
          1.64502170e-02, 1.03896111e-02, 1.99134201e-02, 1.90476198e-02,
          1.03896111e-02, 1.55844158e-02, 8.65800865e-03, 1.55844158e-02,
          1.21212127e-02, 1.29870130e-02, 1.12554114e-02, 9.52380989e-03,
          9.52380989e-03, 1.29870130e-02, 1.38528142e-02, 3.46320355e-03,
          1.64502170e-02, 1.81818195e-02, 1.64502170e-02, 1.38528142e-02,
          1.12554114e-02, 9.52380989e-03, 6.06060633e-03, 3.98268402e-02,
          4.32900432e-03, 5.19480556e-03, 7.79220788e-03, 1.99134201e-02,
          4.32900432e-03, 2.16450226e-02, 1.21212127e-02, 1.12554114e-02,
          1.38528142e-02, 6.06060633e-03, 6.92640711e-03, 2.25108229e-02,
          1.55844158e-02, 1.12554114e-02, 1.38528142e-02, 1.90476198e-02,
          9.52380989e-03, 4.32900432e-03, 9.52380989e-03, 3.46320355e-03,
          1.73160173e-02, 1.03896111e-02, 1.73160173e-02, 1.64502170e-02,
          1.12554114e-02, 2.51082256e-02, 9.52380989e-03 ]
      - [ 6.74157310e-03, 2.24719103e-03, 8.98876414e-03, 2.69662924e-02,
          8.98876414e-03, 1.79775283e-02, 2.47191004e-02, 1.34831462e-02,
          6.74157310e-03, 1.79775283e-02, 1.12359552e-02, 8.98876414e-03,
          1.12359552e-02, 8.98876414e-03, 6.74157310e-03, 6.74157310e-03,
          2.24719103e-03, 4.49438207e-03, 6.74157310e-03, 6.74157310e-03,
          8.98876414e-03, 4.49438207e-03, 4.49438207e-03, 8.98876414e-03,
          2.24719103e-03, 4.49438207e-03, 2.24719103e-02, 1.79775283e-02,
          2.02247202e-02, 4.71910127e-02, 1.12359552e-02, 6.74157310e-03,
          1.12359552e-02, 2.69662924e-02, 1.57303363e-02, 1.79775283e-02,
          4.49438207e-03, 1.12359552e-02, 2.02247202e-02, 2.69662924e-02,
          4.49438207e-03, 1.57303363e-02, 1.12359552e-02, 6.74157310e-03,
          6.74157310e-03, 2.02247202e-02, 8.98876414e-03, 6.74157310e-03,
          0., 1.57303363e-02, 1.12359552e-02, 2.02247202e-02,
          1.34831462e-02, 1.79775283e-02, 1.57303363e-02, 1.12359552e-02,
          2.92134844e-02, 1.79775283e-02, 1.34831462e-02, 2.47191004e-02,
          6.74157310e-03, 1.57303363e-02, 1.34831462e-02, 2.02247202e-02,
          2.24719103e-02, 4.49438207e-03, 2.24719103e-03, 1.12359552e-02,
          8.98876414e-03, 2.24719103e-03, 2.92134844e-02, 2.24719103e-02,
          1.12359552e-02, 4.49438207e-02, 8.98876414e-03 ]
      - [ 3.61445770e-02, 3.61445770e-02, 0., 0., 0., 0., 1.20481923e-01,
          0., 0., 0., 0., 0., 6.02409616e-02, 3.61445770e-02, 0., 0.,
          1.20481923e-02, 1.20481923e-02, 1.20481923e-02, 0.,
          1.20481923e-02, 1.20481923e-02, 1.20481923e-02, 3.61445770e-02,
          2.40963846e-02, 1.20481923e-02, 1.20481923e-02, 0.,
          3.61445770e-02, 1.20481923e-02, 0., 3.61445770e-02, 0., 0., 0.,
          0., 0., 0., 0., 9.63855386e-02, 2.40963846e-02, 0.,
          2.40963846e-02, 3.61445770e-02, 1.20481923e-02, 6.02409616e-02,
          0., 2.40963846e-02, 0., 0., 0., 0., 1.20481923e-02, 0.,
          1.20481923e-02, 2.40963846e-02, 0., 0., 2.40963846e-02,
          3.61445770e-02, 0., 0., 2.40963846e-02, 1.20481923e-02, 0., 0.,
          0., 0., 1.20481923e-02, 0., 1.20481923e-02, 0., 0.,
          2.40963846e-02, 0. ]
      - [ 8.13008100e-03, 0., 1.21951215e-02, 4.06504050e-03,
          2.03252025e-02, 8.13008100e-03, 4.06504050e-03, 8.13008100e-03,
          1.21951215e-02, 4.06504050e-03, 1.62601620e-02, 2.84552835e-02,
          8.13008100e-03, 8.13008100e-03, 2.43902430e-02, 2.84552835e-02,
          1.21951215e-02, 1.21951215e-02, 1.21951215e-02, 1.62601620e-02,
          8.13008100e-03, 8.13008100e-03, 0., 1.62601620e-02,
          1.62601620e-02, 2.03252025e-02, 8.13008100e-03, 1.21951215e-02,
          2.03252025e-02, 4.06504050e-03, 1.21951215e-02, 2.84552835e-02,
          3.25203240e-02, 1.21951215e-02, 2.03252025e-02, 1.21951215e-02,
          4.06504050e-03, 2.03252025e-02, 1.21951215e-02, 4.06504050e-03,
          2.03252025e-02, 2.03252025e-02, 4.06504050e-03, 2.84552835e-02,
          1.21951215e-02, 2.03252025e-02, 4.06504050e-02, 1.21951215e-02,
          4.06504050e-03, 2.84552835e-02, 1.62601620e-02, 4.06504050e-03,
          0., 3.25203240e-02, 1.21951215e-02, 2.03252025e-02, 0.,
          8.13008100e-03, 2.03252025e-02, 2.03252025e-02, 1.62601620e-02,
          1.21951215e-02, 8.13008100e-03, 1.21951215e-02, 0.,
          1.21951215e-02, 4.06504050e-03, 1.21951215e-02, 1.21951215e-02,
          1.62601620e-02, 4.06504050e-03, 8.13008100e-03, 1.62601620e-02,
          1.21951215e-02, 8.13008100e-03 ]
      - [ 1.71919763e-02, 8.59598815e-03, 1.14613175e-02, 5.73065877e-03,
          1.43266479e-02, 1.33715374e-02, 1.91021971e-02, 1.81470867e-02,
          2.76981853e-02, 2.57879663e-02, 9.55109857e-03, 9.55109857e-03,
          1.24164280e-02, 1.24164280e-02, 2.10124161e-02, 1.62368678e-02,
          2.86532938e-03, 1.14613175e-02, 1.71919763e-02, 4.29799408e-02,
          1.52817573e-02, 1.14613175e-02, 9.55109857e-03, 1.43266479e-02,
          1.91021971e-02, 1.33715374e-02, 1.14613175e-02, 1.71919763e-02,
          7.64087867e-03, 2.86532957e-02, 1.43266479e-02, 7.64087867e-03,
          1.33715374e-02, 1.71919763e-02, 6.68576872e-03, 6.68576872e-03,
          6.68576872e-03, 8.59598815e-03, 1.05062081e-02, 0.,
          1.62368678e-02, 7.64087867e-03, 5.73065877e-03, 8.59598815e-03,
          2.67430749e-02, 4.77554929e-03, 1.71919763e-02, 4.29799408e-02,
          2.86532938e-03, 2.86532938e-03, 2.19675265e-02, 2.00573057e-02,
          3.82043933e-03, 1.43266479e-02, 2.00573057e-02, 7.64087867e-03,
          0., 8.59598815e-03, 1.52817573e-02, 1.81470867e-02,
          4.77554929e-03, 4.77554929e-03, 2.57879663e-02, 1.43266479e-02,
          7.64087867e-03, 8.59598815e-03, 6.68576872e-03, 1.33715374e-02,
          1.14613175e-02, 9.55109857e-03, 7.64087867e-03, 1.52817573e-02,
          2.10124161e-02, 1.24164280e-02, 1.43266479e-02 ]
      - [ 1.04166670e-02, 2.88461540e-02, 2.40384620e-02, 5.60897449e-03,
          1.12179490e-02, 9.61538497e-03, 3.20512839e-02, 1.36217950e-02,
          1.12179490e-02, 3.12500000e-02, 1.36217950e-02, 1.04166670e-02,
          1.12179490e-02, 6.41025649e-03, 6.41025649e-03, 1.52243590e-02,
          1.28205130e-02, 8.81410297e-03, 1.44230770e-02, 8.01282097e-03,
          4.80769249e-03, 1.12179490e-02, 9.61538497e-03, 1.20192310e-02,
          1.36217950e-02, 8.81410297e-03, 1.12179490e-02, 9.61538497e-03,
          8.01282097e-03, 4.32692319e-02, 4.80769249e-03, 1.12179490e-02,
          1.04166670e-02, 1.52243590e-02, 1.12179490e-02, 4.80769249e-03,
          1.76282059e-02, 8.81410297e-03, 1.92307699e-02, 4.16666679e-02,
          1.12179490e-02, 1.44230770e-02, 1.60256419e-02, 8.81410297e-03,
          1.60256419e-02, 3.04487180e-02, 5.60897449e-03, 1.28205130e-02,
          1.44230770e-02, 3.04487180e-02, 6.41025649e-03, 9.61538497e-03,
          1.84294879e-02, 8.81410297e-03, 1.12179490e-02, 1.04166670e-02,
          2.16346160e-02, 7.21153850e-03, 1.28205130e-02, 2.16346160e-02,
          4.80769249e-03, 4.80769249e-03, 8.81410297e-03, 1.52243590e-02,
          2.24358980e-02, 5.60897449e-03, 1.04166670e-02, 1.04166670e-02,
          6.41025649e-03, 8.81410297e-03, 1.44230770e-02, 4.00641048e-03,
          7.21153850e-03, 1.44230770e-02, 1.12179490e-02 ]
      - [ 2.20554788e-02, 1.26805883e-02, 8.25550035e-03, 2.11634650e-03,
          2.69528106e-02, 3.39315063e-03, 6.12166338e-03, 2.30874168e-03,
          1.62486434e-02, 6.17413502e-03, 1.94319095e-02, 5.08972583e-03,
          1.49893304e-02, 1.18935173e-02, 1.72106195e-02, 2.26501543e-02,
          9.40987095e-03, 1.31528312e-02, 2.73375995e-02, 3.60828340e-02,
          2.72851298e-03, 5.33459242e-03, 1.16836317e-02, 3.14828418e-02,
          2.48889346e-02, 2.23877989e-02, 1.43421832e-02, 1.43946549e-02,
          8.74523353e-03, 7.88820069e-03, 7.76576763e-03, 2.13733502e-02,
          2.36646011e-02, 4.33763582e-03, 3.48060299e-03, 4.42508841e-03,
          7.45093916e-03, 7.38097727e-03, 9.21747647e-03, 1.41497878e-02,
          1.53041584e-02, 1.13688037e-02, 2.86144037e-02, 1.50418021e-02,
          1.93794370e-02, 1.59163252e-02, 1.41322976e-02, 3.92660983e-02,
          8.85017682e-03, 1.74554866e-02, 4.11025994e-03, 9.63724777e-03,
          1.00045474e-02, 1.90995894e-02, 2.31573787e-02, 7.18858186e-03,
          5.29961148e-03, 3.69048864e-03, 1.40448455e-02, 1.25756459e-02,
          1.14912372e-02, 2.62357015e-03, 4.77664657e-02, 1.62486434e-02,
          4.68744524e-03, 7.13611068e-03, 7.29352469e-03, 8.08059610e-03,
          9.74219013e-03, 1.09490324e-02, 6.08668244e-03, 1.38699403e-02,
          1.41672781e-02, 1.23832505e-02, 2.65855109e-03 ]
      - [ 2.45398767e-02, 1.02249486e-02, 2.04498973e-03, 0.,
          2.04498973e-03, 1.22699384e-02, 2.04498973e-02, 1.84049085e-02,
          4.08997945e-03, 4.08997945e-02, 8.17995891e-03, 1.02249486e-02,
          1.22699384e-02, 1.43149281e-02, 1.84049085e-02, 6.13496918e-03,
          6.13496918e-03, 1.63599178e-02, 1.43149281e-02, 6.13496918e-03,
          1.22699384e-02, 2.45398767e-02, 1.63599178e-02, 1.02249486e-02,
          1.63599178e-02, 6.13496918e-03, 8.17995891e-03, 8.17995891e-03,
          1.02249486e-02, 7.77096078e-02, 8.17995891e-03, 4.08997945e-03,
          4.08997945e-03, 3.27198356e-02, 1.02249486e-02, 1.02249486e-02,
          1.43149281e-02, 1.43149281e-02, 3.27198356e-02, 2.04498973e-03,
          2.65848674e-02, 0., 1.02249486e-02, 1.43149281e-02,
          1.84049085e-02, 8.17995891e-03, 1.43149281e-02, 1.43149281e-02,
          1.22699384e-02, 4.08997945e-03, 1.84049085e-02, 2.04498973e-02,
          4.08997945e-03, 2.04498973e-02, 2.24948861e-02, 4.08997945e-03,
          2.04498973e-02, 6.13496918e-03, 6.13496918e-03, 2.65848674e-02,
          8.17995891e-03, 8.17995891e-03, 1.84049085e-02, 6.13496918e-03,
          1.02249486e-02, 8.17995891e-03, 8.17995891e-03, 2.04498973e-03,
          1.02249486e-02, 1.02249486e-02, 4.08997945e-03, 1.63599178e-02,
          1.22699384e-02, 2.04498973e-02, 1.43149281e-02 ]
      - [ 7.62631092e-03, 1.71591993e-02, 1.71591993e-02, 9.53288842e-03,
          1.14394668e-02, 8.57959967e-03, 3.43183987e-02, 5.71973342e-03,
          4.76644421e-03, 6.67302236e-02, 9.53288865e-04, 5.71973342e-03,
          1.33460443e-02, 2.09723543e-02, 5.71973342e-03, 1.04861772e-02,
          1.14394668e-02, 2.28789337e-02, 1.90657768e-02, 1.04861772e-02,
          8.57959967e-03, 2.28789337e-02, 1.14394668e-02, 1.42993331e-02,
          9.53288842e-03, 4.76644421e-03, 6.67302217e-03, 1.52526218e-02,
          1.90657768e-02, 4.57578674e-02, 7.62631092e-03, 1.04861772e-02,
          7.62631092e-03, 1.81124881e-02, 5.71973342e-03, 7.62631092e-03,
          1.14394668e-02, 1.90657773e-03, 2.38322224e-02, 3.14585343e-02,
          2.85986671e-03, 2.85986671e-03, 1.23927556e-02, 1.04861772e-02,
          1.42993331e-02, 3.52716893e-02, 1.23927556e-02, 1.14394668e-02,
          1.04861772e-02, 2.28789337e-02, 9.53288842e-03, 9.53288842e-03,
          7.62631092e-03, 5.71973342e-03, 2.09723543e-02, 7.62631092e-03,
          1.90657768e-02, 4.76644421e-03, 1.90657773e-03, 2.66920887e-02,
          4.76644421e-03, 8.57959967e-03, 1.04861772e-02, 1.04861772e-02,
          1.90657768e-02, 7.62631092e-03, 3.81315546e-03, 5.71973342e-03,
          1.33460443e-02, 1.14394668e-02, 2.28789337e-02, 8.57959967e-03,
          4.76644421e-03, 2.09723543e-02, 1.04861772e-02 ]
      - [ 8.95036571e-03, 1.38323838e-02, 3.33604552e-02, 7.32302666e-03,
          1.22050447e-02, 8.95036571e-03, 2.52237581e-02, 6.50935713e-03,
          8.13669618e-03, 3.01057771e-02, 1.13913752e-02, 1.30187143e-02,
          2.44100895e-02, 3.25467857e-03, 8.95036571e-03, 9.76403616e-03,
          6.50935713e-03, 6.50935713e-03, 8.95036571e-03, 6.50935713e-03,
          1.38323838e-02, 2.11554114e-02, 6.50935713e-03, 9.76403616e-03,
          1.30187143e-02, 8.13669618e-03, 1.38323838e-02, 1.05777057e-02,
          3.25467857e-03, 9.76403616e-03, 8.95036571e-03, 1.38323838e-02,
          8.95036571e-03, 7.32302666e-03, 1.70870628e-02, 3.25467847e-02,
          1.05777057e-02, 1.30187143e-02, 8.95036571e-03, 2.11554114e-02,
          2.19690800e-02, 3.66151333e-02, 1.54597228e-02, 2.35964190e-02,
          6.50935713e-03, 2.11554114e-02, 1.13913752e-02, 5.69568761e-03,
          2.92921066e-02, 2.44100895e-02, 1.22050447e-02, 1.38323838e-02,
          1.22050447e-02, 1.46460533e-02, 8.95036571e-03, 1.22050447e-02,
          1.62733924e-02, 1.70870628e-02, 1.05777057e-02, 1.13913752e-02,
          9.76403616e-03, 8.13669618e-03, 9.76403616e-03, 1.46460533e-02,
          1.30187143e-02, 1.87144019e-02, 7.32302666e-03, 9.76403616e-03,
          5.69568761e-03, 1.05777057e-02, 2.84784380e-02, 8.95036571e-03,
          9.76403616e-03, 8.95036571e-03, 4.88201808e-03 ]
      - [ 3.98803595e-03, 2.89132614e-02, 1.29611166e-02, 9.97008989e-04,
          2.19341982e-02, 8.97308066e-03, 2.29312070e-02, 1.99401798e-03,
          3.98803595e-03, 1.19641079e-02, 1.89431701e-02, 5.98205393e-03,
          3.29012983e-02, 7.97607191e-03, 7.97607191e-03, 4.98504471e-03,
          1.19641079e-02, 1.19641079e-02, 2.79162526e-02, 5.98205393e-03,
          3.98803595e-03, 4.98504471e-03, 9.97008942e-03, 1.49551351e-02,
          1.99401788e-02, 8.97308066e-03, 1.69491526e-02, 9.97008942e-03,
          1.39581263e-02, 2.29312070e-02, 6.97906315e-03, 1.09670991e-02,
          5.98205393e-03, 1.19641079e-02, 1.09670991e-02, 9.97008942e-03,
          2.09371895e-02, 1.19641079e-02, 1.49551351e-02, 2.19341982e-02,
          2.69192420e-02, 5.98205393e-03, 2.29312070e-02, 2.39282157e-02,
          1.59521438e-02, 4.68594208e-02, 1.09670991e-02, 9.97008942e-03,
          2.29312070e-02, 2.59222332e-02, 8.97308066e-03, 9.97008942e-03,
          9.97008942e-03, 8.97308066e-03, 1.79461613e-02, 1.29611166e-02,
          1.49551351e-02, 9.97008942e-03, 8.97308066e-03, 2.19341982e-02,
          5.98205393e-03, 3.98803595e-03, 8.97308066e-03, 2.49252245e-02,
          1.19641079e-02, 1.59521438e-02, 1.99401798e-03, 8.97308066e-03,
          1.49551351e-02, 6.97906315e-03, 1.09670991e-02, 9.97008942e-03,
          3.98803595e-03, 1.99401788e-02, 4.98504471e-03 ]
      - [ 3.23741026e-02, 7.19424477e-03, 3.59712238e-03, 1.07913669e-02,
          0., 1.43884895e-02, 4.31654677e-02, 1.07913669e-02,
