%YAML:1.0
---
opencv_ml_svm:
   format: 3
   svmType: C_SVC
   kernel:
      type: INTER
      gamma: 1.0000000000000001e-05
   C: 1.2500000000000000e+01
   term_criteria: { iterations:100 }
   var_count: 1000
   class_count: 2
   class_labels: !!opencv-matrix
      rows: 2
      cols: 1
      dt: i
      data: [ 0, 1 ]
   sv_total: 160
   support_vectors:
      - [ 0., 0., 0., 0., 0., 0., 0., 0., 4.54545440e-03, 0.,
          4.54545440e-03, 0., 0., 0., 4.54545440e-03, 0., 4.54545440e-03,
          4.54545440e-03, 0., 0., 0., 0., 4.54545440e-03, 0., 0., 0., 0.,
          4.54545440e-03, 0., 0., 4.54545440e-03, 0., 0., 0.,
          4.54545440e-03, 0., 0., 0., 0., 9.09090880e-03, 0., 0., 0., 0.,
          4.54545440e-03, 9.09090880e-03, 0., 0., 0., 0., 0., 0., 0., 0.,
          4.54545440e-03, 0., 0., 0., 0., 0., 0., 0., 0., 0.,
          4.54545440e-03, 0., 0., 0., 0., 0., 0., 0., 4.54545440e-03, 0.,
          4.54545440e-03, 4.54545440e-03, 9.09090880e-03, 0., 0., 0., 0.,
          4.54545440e-03, 0., 0., 4.54545440e-03, 0., 0., 0., 0., 0., 0.,
          4.54545440e-03, 0., 0., 0., 0., 0., 0., 0., 0., 0.,
          4.54545440e-03, 4.54545440e-03, 4.54545440e-03, 4.54545440e-03,
          0., 0., 0., 0., 0., 4.54545440e-03, 0., 0., 0., 0., 0.,
          4.54545440e-03, 0., 0., 0., 0., 0., 4.54545440e-03, 0., 0., 0.,
          0., 0., 0., 0., 0., 0., 0., 4.54545440e-03, 0., 9.09090880e-03,
          0., 0., 4.54545440e-03, 4.54545440e-03, 0., 0., 0., 0., 0.,
          4.54545440e-03, 0., 0., 0., 0., 0., 0., 0., 0., 0.,
          4.54545440e-03, 0., 0., 0., 0., 0., 0., 0., 0., 0., 0., 0., 0.,
          0., 0., 0., 0., 0., 4.54545440e-03, 0., 0., 4.54545440e-03, 0.,
          0., 0., 4.54545440e-03, 0., 0., 9.09090880e-03, 0., 0., 0.,
          4.54545440e-03, 4.54545440e-03, 0., 0., 0., 0., 4.54545440e-03,
          0., 0., 4.54545440e-03, 0., 0., 0., 0., 4.54545440e-03, 0., 0.,
          0., 0., 0., 4.54545440e-03, 0., 0., 0., 0., 0., 0.,
          9.09090880e-03, 4.54545440e-03, 0., 0., 0., 0., 4.54545440e-03,
          0., 0., 0., 4.54545440e-03, 0., 0., 0., 0., 0., 0., 0., 0., 0.,
          0., 0., 0., 0., 0., 0., 4.54545440e-03, 0., 0., 0., 0., 0.,
          4.54545440e-03, 0., 0., 0., 0., 0., 0., 0., 0., 4.54545440e-03,
          0., 0., 0., 0., 0., 0., 4.54545440e-03, 4.54545440e-03, 0., 0.,
          0., 9.09090880e-03, 0., 0., 0., 4.54545440e-03, 0., 0., 0., 0.,
          0., 0., 0., 4.54545440e-03, 4.54545440e-03, 0., 0., 0.,
          4.54545440e-03, 0., 4.54545440e-03, 0., 9.09090880e-03, 0., 0.,
          0., 0., 4.54545440e-03, 0., 0., 0., 0., 0., 0., 0., 0., 0.,
          9.09090880e-03, 4.54545440e-03, 0., 0., 0., 0., 0., 0., 0., 0.,
          0., 0., 0., 0., 4.54545440e-03, 0., 0., 0., 0., 4.54545440e-03,
          4.54545440e-03, 0., 4.54545440e-03, 0., 0., 0., 0., 0., 0., 0.,
          0., 0., 0., 0., 0., 0., 4.54545440e-03, 4.54545440e-03, 0., 0.,
          0., 0., 0., 0., 0., 0., 0., 4.54545440e-03, 0., 0., 0., 0., 0.,
          0., 0., 0., 0., 4.54545440e-03, 0., 0., 0., 0., 0., 0., 0., 0.,
          0., 0., 9.09090880e-03, 0., 0., 0., 0., 0., 0., 0., 0., 0., 0.,
          0., 4.54545440e-03, 0., 0., 0., 0., 0., 0., 0., 0.,
          4.54545440e-03, 0., 0., 0., 0., 0., 9.09090880e-03, 0.,
          4.54545440e-03, 0., 0., 0., 0., 0., 0., 0., 0., 1.36363637e-02,
          0., 0., 0., 0., 0., 0., 0., 4.54545440e-03, 0., 0.,
          4.54545440e-03, 0., 0., 4.54545440e-03, 0., 4.54545440e-03, 0.,
          0., 0., 0., 0., 0., 4.54545440e-03, 0., 0., 4.54545440e-03,
          4.54545440e-03, 0., 0., 0., 0., 0., 0., 4.54545440e-03, 0., 0.,
          0., 0., 0., 4.54545440e-03, 0., 0., 0., 4.54545440e-03, 0., 0.,
          0., 0., 0., 0., 0., 0., 4.54545440e-03, 0., 0., 0., 0., 0., 0.,
          0., 0., 9.09090880e-03, 0., 0., 0., 0., 0., 0., 9.09090880e-03,
          4.54545440e-03, 0., 0., 0., 0., 0., 0., 0., 0., 4.54545440e-03,
          4.54545440e-03, 0., 0., 0., 0., 4.54545440e-03, 9.09090880e-03,
          4.54545440e-03, 0., 0., 0., 0., 0., 0., 0., 0., 0., 0.,
          4.54545440e-03, 0., 0., 0., 0., 4.54545440e-03, 0., 0.,
          4.54545440e-03, 0., 0., 0., 0., 4.54545440e-03, 0., 0., 0., 0.,
          0., 0., 0., 4.54545440e-03, 0., 0., 0., 9.09090880e-03, 0., 0.,
          0., 1.36363637e-02, 0., 0., 0., 0., 0., 0., 0., 0., 0.,
          4.54545440e-03, 0., 0., 0., 0., 0., 0., 0., 0., 0., 0., 0.,
          4.54545440e-03, 0., 0., 0., 0., 0., 0., 0., 0., 0.,
          4.54545440e-03, 0., 9.09090880e-03, 0., 0., 0., 0., 0.,
          4.54545440e-03, 4.54545440e-03, 0., 0., 0., 0., 4.54545440e-03,
          0., 0., 0., 0., 0., 0., 0., 0., 4.54545440e-03, 0., 0., 0., 0.,
          0., 0., 0., 9.09090880e-03, 0., 0., 0., 0., 0., 0., 0.,
          4.54545440e-03, 0., 0., 0., 4.54545440e-03, 0., 0.,
          9.09090880e-03, 0., 0., 0., 4.54545440e-03, 0., 4.54545440e-03,
          0., 0., 0., 0., 0., 0., 0., 0., 0., 0., 0., 0., 0., 0., 0., 0.,
          4.54545440e-03, 0., 0., 0., 0., 4.54545440e-03, 0., 0.,
          4.54545440e-03, 0., 0., 0., 0., 0., 4.54545440e-03, 0.,
          4.54545440e-03, 0., 4.54545440e-03, 0., 0., 9.09090880e-03,
          4.54545440e-03, 0., 4.54545440e-03, 0., 0., 0., 0.,
          4.54545440e-03, 0., 4.54545440e-03, 0., 0., 0., 0., 0., 0., 0.,
          4.54545440e-03, 0., 0., 0., 0., 0., 4.54545440e-03, 0.,
          4.54545440e-03, 0., 0., 0., 0., 0., 0., 0., 0., 0., 0., 0., 0.,
          0., 4.54545440e-03, 0., 0., 0., 0., 0., 0., 0., 0., 0., 0., 0.,
          0., 0., 0., 0., 0., 0., 1.36363637e-02, 0., 0., 4.54545440e-03,
          0., 0., 4.54545440e-03, 0., 0., 4.54545440e-03, 0., 0.,
          4.54545440e-03, 4.54545440e-03, 0., 0., 0., 0., 9.09090880e-03,
          0., 0., 0., 0., 0., 0., 4.54545440e-03, 4.54545440e-03, 0., 0.,
          0., 4.54545440e-03, 0., 0., 4.54545440e-03, 0., 0.,
          4.54545440e-03, 0., 0., 0., 0., 0., 0., 0., 0., 0., 0.,
          9.09090880e-03, 0., 0., 0., 0., 0., 4.54545440e-03, 0., 0.,
          9.09090880e-03, 0., 0., 0., 0., 0., 0., 0., 0., 0., 0., 0., 0.,
          0., 0., 0., 0., 0., 0., 0., 0., 4.54545440e-03, 4.54545440e-03,
          0., 0., 0., 4.54545440e-03, 4.54545440e-03, 0., 0., 0., 0., 0.,
          0., 0., 4.54545440e-03, 0., 0., 0., 0., 0., 9.09090880e-03, 0.,
          0., 0., 0., 0., 0., 0., 0., 0., 0., 0., 0., 0., 0., 0., 0.,
          4.54545440e-03, 0., 0., 0., 0., 0., 0., 0., 0., 0., 0., 0., 0.,
          0., 0., 0., 0., 0., 9.09090880e-03, 4.54545440e-03, 0., 0.,
          4.54545440e-03, 0., 4.54545440e-03, 0., 0., 0., 4.54545440e-03,
          0., 0., 0., 0., 4.54545440e-03, 0., 0., 0., 0., 0.,
          4.54545440e-03, 0., 0., 0., 0., 0., 0., 0., 0., 0., 0., 0.,
          4.54545440e-03, 0., 0., 0., 0., 4.54545440e-03, 0., 0.,
          4.54545440e-03, 0., 0., 0., 0., 0., 0., 0., 0., 0., 0., 0.,
          4.54545440e-03, 0., 0., 0., 0., 0., 0., 0., 4.54545440e-03, 0.,
          0., 0., 0., 0., 0., 4.54545440e-03, 0., 0., 0., 0., 0., 0.,
          4.54545440e-03, 0., 0., 0., 0., 0., 0., 0., 0., 0.,
          4.54545440e-03, 0., 0., 0., 0., 4.54545440e-03, 0., 0., 0., 0.,
          0., 0., 0., 0., 9.09090880e-03, 0., 0., 0., 0., 0., 0.,
          4.54545440e-03, 0., 0., 4.54545440e-03, 4.54545440e-03, 0., 0.,
          4.54545440e-03, 0., 0., 0., 4.54545440e-03, 4.54545440e-03, 0.,
          4.54545440e-03, 0., 4.54545440e-03, 0., 4.54545440e-03, 0., 0.,
          0., 4.54545440e-03, 4.54545440e-03, 0., 0., 0., 0., 0.,
          9.09090880e-03, 0., 1.36363637e-02, 0., 0., 0., 0., 0., 0.,
          4.54545440e-03, 0., 4.54545440e-03, 0., 0., 0., 0., 0. ]
      - [ 0., 0., 0., 0., 0., 0., 0., 5.20833349e-03, 0., 0.,
          5.20833349e-03, 5.20833349e-03, 0., 0., 0., 0., 0.,
          5.20833349e-03, 0., 0., 0., 0., 0., 0., 0., 0., 0.,
          5.20833349e-03, 0., 0., 0., 0., 0., 0., 0., 0., 0., 0., 0., 0.,
          0., 0., 0., 0., 5.20833349e-03, 0., 0., 0., 0., 0.,
          5.20833349e-03, 5.20833349e-03, 0., 0., 0., 0., 0., 0., 0., 0.,
          0., 0., 0., 0., 0., 5.20833349e-03, 0., 0., 0., 0., 0., 0., 0.,
          0., 5.20833349e-03, 0., 0., 0., 0., 5.20833349e-03, 0., 0., 0.,
          0., 5.20833349e-03, 0., 0., 0., 5.20833349e-03, 0.,
          5.20833349e-03, 0., 0., 0., 0., 5.20833349e-03, 0., 0., 0., 0.,
          0., 0., 5.20833349e-03, 0., 0., 0., 1.04166670e-02, 0., 0., 0.,
          0., 0., 0., 0., 5.20833349e-03, 0., 5.20833349e-03, 0., 0., 0.,
          0., 0., 1.04166670e-02, 0., 5.20833349e-03, 0., 0., 0., 0., 0.,
          0., 0., 1.04166670e-02, 0., 0., 0., 0., 0., 0., 5.20833349e-03,
          0., 0., 0., 0., 0., 5.20833349e-03, 0., 0., 0., 0.,
          5.20833349e-03, 0., 0., 0., 0., 0., 0., 0., 0., 0., 0., 0., 0.,
          0., 0., 0., 5.20833349e-03, 0., 0., 0., 0., 5.20833349e-03, 0.,
          0., 0., 5.20833349e-03, 0., 0., 5.20833349e-03, 0., 0., 0., 0.,
          0., 0., 0., 1.04166670e-02, 0., 0., 0., 0., 0., 0., 0., 0.,
          5.20833349e-03, 0., 0., 0., 0., 0., 0., 0., 0., 5.20833349e-03,
          0., 0., 0., 0., 0., 5.20833349e-03, 0., 0., 0., 0., 0., 0., 0.,
          0., 0., 5.20833349e-03, 0., 5.20833349e-03, 0., 0., 0., 0., 0.,
          0., 0., 0., 0., 0., 0., 0., 5.20833349e-03, 0., 0., 0., 0., 0.,
          5.20833349e-03, 5.20833349e-03, 0., 0., 0., 0., 0., 0.,
          5.20833349e-03, 0., 0., 0., 0., 0., 0., 5.20833349e-03, 0., 0.,
          0., 0., 0., 0., 0., 5.20833349e-03, 0., 0., 5.20833349e-03, 0.,
          0., 0., 0., 0., 5.20833349e-03, 0., 0., 5.20833349e-03, 0., 0.,
          0., 0., 0., 0., 0., 1.04166670e-02, 0., 0., 0., 0., 0., 0., 0.,
          0., 0., 0., 0., 0., 0., 5.20833349e-03, 0., 0., 5.20833349e-03,
          0., 0., 1.04166670e-02, 0., 0., 0., 5.20833349e-03, 0., 0., 0.,
          5.20833349e-03, 0., 5.20833349e-03, 0., 0., 0., 0., 0., 0., 0.,
          0., 1.04166670e-02, 0., 0., 0., 0., 0., 0., 0., 0., 0., 0.,
          5.20833349e-03, 0., 5.20833349e-03, 0., 0., 5.20833349e-03,
          1.56250000e-02, 0., 0., 5.20833349e-03, 0., 0., 5.20833349e-03,
          0., 0., 0., 0., 1.04166670e-02, 0., 0., 0., 0., 0., 0., 0., 0.,
          5.20833349e-03, 0., 0., 0., 0., 5.20833349e-03, 0., 0., 0.,
          5.20833349e-03, 0., 5.20833349e-03, 0., 0., 0., 5.20833349e-03,
          0., 0., 0., 0., 0., 0., 0., 0., 0., 0., 5.20833349e-03, 0.,
          5.20833349e-03, 0., 0., 0., 0., 5.20833349e-03, 0., 0., 0., 0.,
          0., 0., 0., 0., 0., 0., 0., 0., 0., 0., 0., 0., 0.,
          5.20833349e-03, 0., 0., 5.20833349e-03, 0., 0., 5.20833349e-03,
          0., 5.20833349e-03, 0., 0., 5.20833349e-03, 0., 0., 0., 0.,
          5.20833349e-03, 0., 0., 0., 0., 5.20833349e-03, 5.20833349e-03,
          0., 0., 0., 0., 0., 0., 5.20833349e-03, 5.20833349e-03, 0., 0.,
          0., 0., 0., 0., 0., 0., 0., 0., 0., 5.20833349e-03, 0., 0.,
          5.20833349e-03, 0., 0., 0., 0., 0., 0., 0., 0., 5.20833349e-03,
          0., 0., 5.20833349e-03, 5.20833349e-03, 0., 0., 0., 0., 0., 0.,
          0., 0., 5.20833349e-03, 0., 0., 0., 0., 0., 0., 0.,
          5.20833349e-03, 0., 0., 0., 0., 0., 0., 0., 5.20833349e-03,
          5.20833349e-03, 0., 5.20833349e-03, 0., 0., 0., 0., 0., 0.,
          5.20833349e-03, 0., 0., 0., 0., 5.20833349e-03, 5.20833349e-03,
          0., 0., 0., 5.20833349e-03, 0., 5.20833349e-03, 0.,
          5.20833349e-03, 5.20833349e-03, 1.04166670e-02, 0., 0., 0., 0.,
          0., 0., 0., 0., 0., 0., 5.20833349e-03, 0., 0., 0., 0., 0., 0.,
          0., 0., 0., 0., 5.20833349e-03, 0., 0., 0., 1.04166670e-02,
          5.20833349e-03, 0., 0., 0., 5.20833349e-03, 5.20833349e-03, 0.,
          0., 0., 0., 0., 0., 0., 5.20833349e-03, 0., 0., 0., 0., 0., 0.,
          0., 0., 0., 0., 0., 0., 0., 5.20833349e-03, 0., 0., 0., 0., 0.,
          0., 0., 0., 0., 5.20833349e-03, 0., 0., 0., 0., 0., 0.,
          5.20833349e-03, 0., 5.20833349e-03, 0., 0., 0., 0., 0.,
          5.20833349e-03, 0., 0., 0., 0., 0., 0., 0., 0., 0., 0., 0., 0.,
          0., 0., 5.20833349e-03, 0., 0., 0., 5.20833349e-03, 0.,
          5.20833349e-03, 0., 0., 0., 0., 0., 0., 0., 0., 0., 0.,
          5.20833349e-03, 0., 0., 5.20833349e-03, 0., 0., 0.,
          5.20833349e-03, 0., 0., 0., 0., 5.20833349e-03, 0., 0., 0., 0.,
          0., 0., 0., 5.20833349e-03, 0., 0., 0., 0., 0., 0.,
          1.04166670e-02, 5.20833349e-03, 5.20833349e-03, 5.20833349e-03,
          0., 0., 0., 0., 1.04166670e-02, 0., 0., 0., 0., 0., 0., 0., 0.,
          0., 0., 1.04166670e-02, 0., 0., 0., 0., 0., 0., 0., 0., 0., 0.,
          0., 0., 0., 0., 0., 0., 0., 0., 0., 0., 0., 0., 0., 0.,
          5.20833349e-03, 0., 0., 0., 0., 1.04166670e-02, 0., 0.,
          5.20833349e-03, 0., 0., 0., 5.20833349e-03, 0., 0., 0.,
          5.20833349e-03, 0., 0., 0., 0., 0., 0., 0., 0., 5.20833349e-03,
          0., 0., 0., 0., 0., 0., 0., 0., 0., 0., 0., 0., 0., 0.,
          5.20833349e-03, 0., 5.20833349e-03, 0., 0., 0., 5.20833349e-03,
          0., 0., 0., 0., 0., 0., 0., 0., 5.20833349e-03, 0., 0., 0., 0.,
          0., 0., 0., 5.20833349e-03, 0., 0., 0., 0., 5.20833349e-03, 0.,
          0., 0., 5.20833349e-03, 0., 0., 5.20833349e-03, 0.,
          5.20833349e-03, 0., 0., 0., 0., 0., 0., 0., 0., 0.,
          1.04166670e-02, 0., 0., 0., 5.20833349e-03, 1.04166670e-02, 0.,
          0., 0., 0., 5.20833349e-03, 0., 0., 0., 0., 5.20833349e-03,
          1.04166670e-02, 0., 5.20833349e-03, 0., 0., 0., 0., 0., 0., 0.,
          0., 0., 0., 5.20833349e-03, 0., 0., 0., 0., 1.04166670e-02, 0.,
          0., 0., 0., 0., 0., 0., 0., 0., 5.20833349e-03, 0.,
          5.20833349e-03, 0., 0., 0., 0., 0., 0., 0., 0., 0., 0., 0., 0.,
          0., 0., 0., 0., 0., 0., 0., 0., 5.20833349e-03, 0., 0., 0., 0.,
          0., 0., 5.20833349e-03, 0., 5.20833349e-03, 0., 0., 0., 0.,
          5.20833349e-03, 0., 0., 5.20833349e-03, 0., 0., 0., 0.,
          5.20833349e-03, 0., 0., 0., 0., 0., 0., 0., 0., 0., 0., 0., 0.,
          5.20833349e-03, 0., 0., 0., 0., 0., 0., 0., 0., 0., 0., 0., 0.,
          0., 0., 0., 0., 0., 0., 0., 0., 0., 0., 0., 5.20833349e-03,
          5.20833349e-03, 5.20833349e-03, 0., 0., 0., 0., 0.,
          5.20833349e-03, 0., 0., 0., 0., 0., 0., 0., 0., 0.,
          1.04166670e-02, 0., 0., 0., 0., 0., 0., 0., 0., 0., 0., 0., 0.,
          5.20833349e-03, 1.04166670e-02, 0., 0., 0., 0., 0., 0.,
          5.20833349e-03, 0., 0., 5.20833349e-03, 0., 0., 5.20833349e-03,
          0., 0., 0., 5.20833349e-03, 0., 0., 0., 0., 0., 0., 0., 0., 0.,
          0., 5.20833349e-03, 5.20833349e-03, 5.20833349e-03, 0., 0.,
          5.20833349e-03, 0., 0., 0., 0., 0., 0., 0., 0., 0., 0.,
          5.20833349e-03, 0., 0., 0., 0., 0., 0., 0., 0. ]
      - [ 0., 0., 0., 0., 3.92156886e-03, 3.92156886e-03, 0.,
          3.92156886e-03, 0., 0., 3.92156886e-03, 0., 0., 0., 0., 0., 0.,
          3.92156886e-03, 0., 0., 0., 0., 7.84313772e-03, 0., 0., 0.,
          3.92156886e-03, 0., 0., 0., 0., 0., 0., 0., 3.92156886e-03, 0.,
          0., 0., 0., 0., 0., 0., 0., 0., 7.84313772e-03, 0., 0., 0., 0.,
          3.92156886e-03, 3.92156886e-03, 0., 0., 3.92156886e-03, 0., 0.,
          0., 0., 0., 0., 0., 0., 0., 0., 0., 0., 0., 0., 3.92156886e-03,
          0., 0., 3.92156886e-03, 0., 0., 7.84313772e-03, 7.84313772e-03,
          0., 0., 0., 0., 7.84313772e-03, 0., 0., 0., 3.92156886e-03, 0.,
          0., 0., 0., 0., 0., 0., 0., 0., 0., 0., 0., 0., 0., 0., 0., 0.,
          0., 0., 0., 0., 3.92156886e-03, 7.84313772e-03, 0.,
          3.92156886e-03, 3.92156886e-03, 0., 0., 0., 0., 0.,
          3.92156886e-03, 0., 3.92156886e-03, 0., 0., 3.92156886e-03, 0.,
          0., 0., 0., 0., 0., 3.92156886e-03, 3.92156886e-03, 0., 0., 0.,
          3.92156886e-03, 0., 0., 0., 3.92156886e-03, 0., 0.,
          3.92156886e-03, 0., 0., 0., 0., 3.92156886e-03, 0., 0.,
          1.17647070e-02, 3.92156886e-03, 0., 0., 0., 0., 0., 0., 0., 0.,
          0., 0., 0., 0., 0., 7.84313772e-03, 0., 0., 0., 0., 0.,
          3.92156886e-03, 0., 0., 0., 0., 0., 0., 0., 0., 0., 0., 0., 0.,
          0., 7.84313772e-03, 0., 0., 3.92156886e-03, 1.17647070e-02, 0.,
          0., 0., 0., 0., 0., 0., 0., 0., 0., 0., 0., 0., 0., 0., 0., 0.,
          3.92156886e-03, 0., 0., 0., 0., 0., 0., 0., 0., 0.,
          3.92156886e-03, 0., 3.92156886e-03, 0., 0., 3.92156886e-03,
          3.92156886e-03, 0., 0., 3.92156886e-03, 0., 0., 0., 0., 0.,
          3.92156886e-03, 0., 3.92156886e-03, 0., 0., 0., 0., 0., 0., 0.,
          0., 3.92156886e-03, 0., 0., 0., 0., 3.92156886e-03,
          7.84313772e-03, 0., 0., 0., 0., 0., 0., 3.92156886e-03,
          3.92156886e-03, 0., 0., 0., 0., 3.92156886e-03, 7.84313772e-03,
          7.84313772e-03, 1.56862754e-02, 0., 0., 0., 7.84313772e-03, 0.,
          0., 0., 0., 0., 0., 0., 3.92156886e-03, 0., 3.92156886e-03, 0.,
          3.92156886e-03, 0., 0., 0., 3.92156886e-03, 0., 0., 0.,
          3.92156886e-03, 0., 0., 0., 0., 0., 0., 0., 0., 0., 0., 0.,
          3.92156886e-03, 0., 0., 0., 3.92156886e-03, 3.92156886e-03, 0.,
          0., 0., 0., 0., 0., 0., 0., 0., 0., 0., 0., 0., 3.92156886e-03,
          0., 0., 0., 0., 3.92156886e-03, 0., 3.92156886e-03,
          3.92156886e-03, 0., 0., 0., 3.92156886e-03, 0., 0., 0., 0., 0.,
          0., 0., 0., 0., 7.84313772e-03, 0., 3.92156886e-03, 0.,
          7.84313772e-03, 0., 3.92156886e-03, 0., 3.92156886e-03,
          3.92156886e-03, 0., 0., 0., 0., 7.84313772e-03, 0., 0., 0., 0.,
          0., 3.92156886e-03, 7.84313772e-03, 0., 0., 0., 3.92156886e-03,
          3.92156886e-03, 3.92156886e-03, 0., 0., 0., 0., 0., 0., 0., 0.,
          0., 0., 0., 0., 0., 0., 0., 0., 0., 0., 0., 3.92156886e-03, 0.,
          0., 0., 0., 0., 3.92156886e-03, 3.92156886e-03, 0., 0., 0., 0.,
          0., 0., 0., 0., 0., 0., 0., 3.92156886e-03, 0., 0., 0., 0., 0.,
          3.92156886e-03, 0., 3.92156886e-03, 0., 0., 0., 0.,
          3.92156886e-03, 3.92156886e-03, 3.92156886e-03, 0., 0., 0.,
          3.92156886e-03, 0., 0., 0., 0., 0., 3.92156886e-03,
          3.92156886e-03, 0., 0., 0., 0., 0., 0., 3.92156886e-03, 0., 0.,
          0., 0., 0., 3.92156886e-03, 0., 3.92156886e-03, 0., 0., 0., 0.,
          0., 0., 0., 0., 3.92156886e-03, 0., 0., 3.92156886e-03,
          3.92156886e-03, 0., 0., 0., 0., 0., 0., 0., 3.92156886e-03,
          7.84313772e-03, 0., 3.92156886e-03, 0., 0., 3.92156886e-03, 0.,
          0., 0., 3.92156886e-03, 0., 0., 3.92156886e-03, 0., 0., 0., 0.,
          0., 0., 0., 0., 0., 3.92156886e-03, 0., 3.92156886e-03,
          3.92156886e-03, 0., 0., 0., 0., 7.84313772e-03, 0., 0., 0., 0.,
          3.92156886e-03, 0., 3.92156886e-03, 0., 0., 3.92156886e-03,
          3.92156886e-03, 0., 0., 0., 3.92156886e-03, 0., 0., 0., 0., 0.,
          0., 0., 0., 0., 0., 0., 0., 3.92156886e-03, 0., 0., 0.,
          1.17647070e-02, 0., 0., 7.84313772e-03, 0., 0., 0., 0., 0., 0.,
          0., 0., 3.92156886e-03, 0., 0., 0., 0., 0., 0., 0., 0., 0.,
          3.92156886e-03, 0., 0., 0., 0., 0., 0., 0., 0., 3.92156886e-03,
          0., 0., 0., 0., 0., 0., 0., 0., 0., 0., 3.92156886e-03, 0., 0.,
          3.92156886e-03, 0., 0., 0., 0., 0., 0., 0., 0., 0., 0., 0., 0.,
          0., 7.84313772e-03, 0., 0., 0., 3.92156886e-03, 0., 0., 0., 0.,
          0., 0., 3.92156886e-03, 0., 0., 0., 0., 0., 0., 3.92156886e-03,
          0., 0., 0., 0., 0., 0., 0., 0., 3.92156886e-03, 3.92156886e-03,
          7.84313772e-03, 3.92156886e-03, 0., 0., 3.92156886e-03, 0., 0.,
          0., 0., 0., 0., 0., 0., 3.92156886e-03, 0., 0., 0., 0., 0., 0.,
          0., 0., 0., 0., 0., 0., 0., 0., 0., 0., 0., 0., 0., 0., 0.,
          3.92156886e-03, 3.92156886e-03, 0., 0., 0., 0., 0., 0., 0., 0.,
          0., 0., 0., 0., 0., 0., 0., 3.92156886e-03, 0., 0., 0., 0., 0.,
          0., 0., 0., 0., 0., 0., 3.92156886e-03, 0., 0., 0., 0., 0., 0.,
          0., 0., 0., 3.92156886e-03, 0., 0., 0., 3.92156886e-03,
          3.92156886e-03, 7.84313772e-03, 0., 0., 0., 0., 0.,
          3.92156886e-03, 0., 1.17647070e-02, 3.92156886e-03,
          3.92156886e-03, 0., 0., 0., 0., 3.92156886e-03, 3.92156886e-03,
          0., 3.92156886e-03, 0., 0., 7.84313772e-03, 0., 0., 0., 0., 0.,
          0., 3.92156886e-03, 0., 0., 0., 3.92156886e-03, 0., 0., 0., 0.,
          0., 0., 0., 0., 0., 0., 0., 0., 0., 0., 0., 0., 3.92156886e-03,
          3.92156886e-03, 0., 0., 0., 0., 3.92156886e-03, 0., 0.,
          3.92156886e-03, 3.92156886e-03, 0., 0., 0., 0., 0., 0., 0., 0.,
          0., 0., 0., 0., 0., 3.92156886e-03, 3.92156886e-03, 0., 0., 0.,
          0., 0., 0., 0., 0., 0., 3.92156886e-03, 0., 3.92156886e-03, 0.,
          7.84313772e-03, 0., 3.92156886e-03, 0., 0., 0., 0.,
          7.84313772e-03, 0., 0., 0., 0., 1.17647070e-02, 0., 0., 0.,
          3.92156886e-03, 3.92156886e-03, 0., 0., 0., 0., 0., 0., 0., 0.,
          0., 0., 0., 0., 0., 0., 3.92156886e-03, 0., 0., 0., 0., 0., 0.,
          3.92156886e-03, 0., 0., 0., 0., 0., 0., 0., 0., 0.,
          3.92156886e-03, 0., 0., 3.92156886e-03, 0., 0., 0.,
          3.92156886e-03, 7.84313772e-03, 0., 0., 0., 0., 0., 0., 0.,
          3.92156886e-03, 3.92156886e-03, 0., 0., 0., 0., 0.,
          3.92156886e-03, 0., 0., 0., 1.17647070e-02, 7.84313772e-03,
          3.92156886e-03, 3.92156886e-03, 0., 0., 3.92156886e-03, 0., 0.,
          0., 0., 3.92156886e-03, 1.17647070e-02, 0., 0., 0., 0., 0., 0.,
          3.92156886e-03, 3.92156886e-03, 0., 0., 0., 0., 0., 0.,
          3.92156886e-03, 0., 0., 0., 0., 3.92156886e-03, 0., 0., 0., 0.,
          0., 0., 0., 0., 0., 0., 0., 0., 0., 0., 0., 0., 0., 0.,
          3.92156886e-03, 7.84313772e-03, 7.84313772e-03, 0., 0., 0., 0.,
          0., 0., 3.92156886e-03, 0., 0., 3.92156886e-03, 7.84313772e-03,
          0., 0., 0., 0., 0., 0., 0., 0., 7.84313772e-03, 0., 0.,
          3.92156886e-03, 0., 3.92156886e-03, 0., 3.92156886e-03, 0., 0.,
          0., 0., 0., 3.92156886e-03, 0., 3.92156886e-03, 0., 0., 0., 0.,
          3.92156886e-03, 0., 3.92156886e-03, 3.92156886e-03, 0., 0.,
          3.92156886e-03, 0., 0., 0., 0., 0., 3.92156886e-03, 0., 0., 0.,
          0., 0., 0., 3.92156886e-03, 0., 0., 0., 0., 0., 0., 0., 0., 0.,
          0., 7.84313772e-03, 0., 0., 0., 0., 0., 3.92156886e-03, 0., 0.,
          0., 0., 0., 3.92156886e-03, 0. ]
      - [ 4.67289705e-03, 0., 4.67289705e-03, 0., 0., 9.34579410e-03, 0.,
          4.67289705e-03, 0., 0., 4.67289705e-03, 0., 0., 0.,
          4.67289705e-03, 0., 0., 0., 0., 4.67289705e-03, 0., 0., 0., 0.,
          4.67289705e-03, 0., 0., 0., 0., 0., 4.67289705e-03, 0.,
          4.67289705e-03, 0., 4.67289705e-03, 4.67289705e-03, 0., 0., 0.,
          0., 4.67289705e-03, 0., 4.67289705e-03, 4.67289705e-03, 0., 0.,
          0., 0., 0., 4.67289705e-03, 9.34579410e-03, 0., 0., 0., 0., 0.,
          0., 0., 0., 0., 0., 4.67289705e-03, 9.34579410e-03,
          4.67289705e-03, 0., 0., 0., 0., 4.67289705e-03, 0.,
          4.67289705e-03, 4.67289705e-03, 4.67289705e-03, 0.,
          4.67289705e-03, 0., 0., 0., 0., 0., 0., 0., 0., 0., 0., 0., 0.,
          0., 0., 0., 0., 4.67289705e-03, 0., 0., 0., 0., 0., 0., 0., 0.,
          0., 0., 4.67289705e-03, 0., 0., 0., 0., 0., 0., 0., 0., 0.,
          4.67289705e-03, 0., 0., 0., 0., 0., 4.67289705e-03, 0., 0., 0.,
          0., 0., 0., 0., 0., 0., 0., 0., 0., 0., 9.34579410e-03,
          4.67289705e-03, 0., 0., 0., 4.67289705e-03, 0., 0., 0., 0., 0.,
          0., 0., 0., 1.40186911e-02, 0., 1.86915882e-02, 0., 0., 0., 0.,
          0., 0., 0., 0., 0., 0., 0., 0., 0., 0., 0., 0., 0., 0., 0.,
          4.67289705e-03, 0., 0., 4.67289705e-03, 0., 0., 0., 0., 0., 0.,
          0., 0., 0., 0., 0., 0., 0., 0., 0., 4.67289705e-03, 0., 0., 0.,
          0., 4.67289705e-03, 0., 0., 0., 0., 0., 0., 0., 0., 0., 0., 0.,
          0., 4.67289705e-03, 0., 0., 0., 0., 0., 0., 0., 0., 0., 0., 0.,
          0., 0., 0., 9.34579410e-03, 4.67289705e-03, 0., 4.67289705e-03,
          4.67289705e-03, 9.34579410e-03, 0., 0., 0., 0., 0., 0.,
          4.67289705e-03, 0., 0., 0., 0., 0., 0., 0., 9.34579410e-03,
          4.67289705e-03, 9.34579410e-03, 0., 4.67289705e-03, 0., 0., 0.,
          0., 0., 0., 0., 0., 0., 0., 0., 0., 0., 0., 0., 0.,
          4.67289705e-03, 0., 9.34579410e-03, 0., 0., 0., 4.67289705e-03,
          0., 0., 0., 0., 0., 0., 0., 4.67289705e-03, 0., 0., 0., 0., 0.,
          0., 0., 0., 0., 0., 4.67289705e-03, 0., 0., 0., 0., 0., 0., 0.,
          0., 0., 0., 0., 0., 0., 0., 0., 0., 4.67289705e-03,
          4.67289705e-03, 4.67289705e-03, 4.67289705e-03, 0., 0., 0., 0.,
          0., 0., 0., 0., 9.34579410e-03, 0., 4.67289705e-03, 0.,
          4.67289705e-03, 0., 0., 4.67289705e-03, 4.67289705e-03, 0., 0.,
          0., 0., 0., 0., 0., 0., 0., 4.67289705e-03, 0., 0., 0., 0., 0.,
          4.67289705e-03, 0., 0., 0., 0., 0., 0., 4.67289705e-03, 0., 0.,
          0., 0., 0., 0., 0., 0., 0., 0., 0., 0., 0., 0., 9.34579410e-03,
          0., 0., 4.67289705e-03, 0., 0., 0., 0., 0., 0., 0., 0., 0., 0.,
          0., 0., 0., 0., 0., 0., 0., 0., 0., 0., 4.67289705e-03, 0., 0.,
          0., 0., 0., 0., 0., 0., 0., 0., 0., 0., 4.67289705e-03, 0., 0.,
          0., 0., 0., 0., 0., 4.67289705e-03, 0., 0., 0., 0., 0., 0., 0.,
          0., 0., 0., 0., 0., 0., 0., 0., 0., 0., 0., 4.67289705e-03, 0.,
          0., 0., 0., 0., 0., 0., 0., 4.67289705e-03, 0., 0., 0., 0.,
          4.67289705e-03, 4.67289705e-03, 0., 0., 0., 0., 0., 0.,
          4.67289705e-03, 0., 0., 0., 4.67289705e-03, 9.34579410e-03, 0.,
          0., 0., 0., 4.67289705e-03, 0., 0., 0., 4.67289705e-03, 0.,
          4.67289705e-03, 0., 0., 0., 0., 0., 9.34579410e-03, 0.,
          9.34579410e-03, 0., 0., 4.67289705e-03, 0., 4.67289705e-03, 0.,
          4.67289705e-03, 0., 0., 0., 0., 4.67289705e-03, 0., 0., 0., 0.,
          0., 0., 0., 4.67289705e-03, 0., 0., 0., 0., 0., 0., 0., 0., 0.,
          0., 4.67289705e-03, 0., 4.67289705e-03, 0., 0., 0., 0., 0., 0.,
          0., 0., 0., 0., 0., 0., 0., 0., 0., 4.67289705e-03, 0., 0.,
          4.67289705e-03, 0., 4.67289705e-03, 0., 0., 0., 0., 0.,
          4.67289705e-03, 9.34579410e-03, 0., 0., 4.67289705e-03, 0., 0.,
          0., 0., 0., 4.67289705e-03, 0., 0., 0., 0., 0., 9.34579410e-03,
          0., 0., 0., 0., 9.34579410e-03, 0., 0., 0., 0., 0., 0., 0., 0.,
          0., 0., 0., 0., 0., 0., 0., 0., 0., 0., 0., 0., 0., 0., 0., 0.,
          0., 0., 0., 4.67289705e-03, 0., 0., 0., 4.67289705e-03, 0., 0.,
          0., 0., 4.67289705e-03, 0., 0., 0., 0., 0., 0., 0., 0., 0., 0.,
          0., 0., 0., 0., 0., 0., 0., 4.67289705e-03, 0., 0., 0., 0., 0.,
          0., 0., 0., 0., 0., 0., 4.67289705e-03, 0., 0., 0., 0., 0., 0.,
          0., 0., 0., 0., 0., 0., 0., 0., 0., 0., 0., 0., 4.67289705e-03,
          0., 0., 0., 0., 0., 0., 0., 0., 0., 9.34579410e-03, 0., 0., 0.,
          0., 0., 0., 0., 0., 0., 0., 4.67289705e-03, 0., 0., 0., 0., 0.,
          0., 0., 0., 0., 0., 4.67289705e-03, 0., 0., 0., 0., 0., 0., 0.,
          0., 0., 0., 0., 0., 0., 0., 0., 4.67289705e-03, 4.67289705e-03,
          0., 0., 0., 0., 0., 0., 0., 0., 1.40186911e-02, 0., 0., 0., 0.,
          4.67289705e-03, 0., 0., 4.67289705e-03, 0., 0., 0., 0., 0., 0.,
          0., 4.67289705e-03, 0., 9.34579410e-03, 0., 0., 4.67289705e-03,
          0., 0., 9.34579410e-03, 0., 4.67289705e-03, 0., 0.,
          4.67289705e-03, 0., 9.34579410e-03, 0., 0., 0., 0.,
          4.67289705e-03, 0., 0., 0., 4.67289705e-03, 0., 0., 0., 0., 0.,
          0., 4.67289705e-03, 0., 0., 0., 4.67289705e-03, 0., 0., 0., 0.,
          0., 0., 0., 4.67289705e-03, 0., 0., 9.34579410e-03, 0., 0.,
          4.67289705e-03, 0., 0., 4.67289705e-03, 0., 0., 0., 0., 0.,
          4.67289705e-03, 0., 4.67289705e-03, 0., 0., 0., 9.34579410e-03,
          0., 0., 4.67289705e-03, 0., 4.67289705e-03, 0., 0., 0., 0.,
          4.67289705e-03, 0., 4.67289705e-03, 4.67289705e-03, 0., 0., 0.,
          0., 0., 0., 0., 4.67289705e-03, 0., 4.67289705e-03, 0., 0., 0.,
          0., 4.67289705e-03, 0., 0., 0., 4.67289705e-03, 4.67289705e-03,
          0., 0., 0., 0., 0., 0., 0., 0., 0., 4.67289705e-03,
          4.67289705e-03, 4.67289705e-03, 4.67289705e-03, 0., 0., 0., 0.,
          0., 0., 0., 0., 0., 0., 0., 0., 4.67289705e-03, 0., 0., 0., 0.,
          0., 0., 0., 4.67289705e-03, 0., 0., 0., 0., 0., 4.67289705e-03,
          0., 0., 0., 0., 0., 0., 0., 0., 0., 0., 0., 0., 0.,
          1.40186911e-02, 1.40186911e-02, 4.67289705e-03, 0.,
          4.67289705e-03, 0., 0., 0., 0., 0., 0., 9.34579410e-03, 0., 0.,
          0., 1.40186911e-02, 0., 4.67289705e-03, 4.67289705e-03, 0., 0.,
          0., 4.67289705e-03, 4.67289705e-03, 4.67289705e-03, 0., 0., 0.,
          0., 0., 0., 0., 0., 0., 0., 0., 0., 0., 0., 4.67289705e-03, 0.,
          0., 0., 0., 0., 0., 0., 0., 0., 4.67289705e-03, 0., 0., 0.,
          4.67289705e-03, 0., 0., 0., 0., 0., 0., 0., 0., 0., 0.,
          9.34579410e-03, 0., 0., 0., 0., 0., 0., 0., 0., 0., 0., 0., 0.,
          0., 0., 0., 4.67289705e-03, 0., 0., 0., 0., 0., 0., 0., 0., 0.,
          0., 0., 4.67289705e-03, 0., 0., 0., 0., 0., 0., 0., 0., 0., 0.,
          0., 0., 0., 4.67289705e-03, 0., 0., 4.67289705e-03, 0.,
          4.67289705e-03, 0., 9.34579410e-03, 0., 0., 9.34579410e-03, 0.,
          4.67289705e-03, 0., 0., 9.34579410e-03, 0., 0., 0., 0., 0., 0.,
          0., 0., 0., 0., 4.67289705e-03, 0., 0., 0., 0. ]
      - [ 4.73933667e-03, 0., 0., 0., 0., 0., 0., 0., 0., 0., 0., 0., 0.,
          0., 9.47867334e-03, 0., 4.73933667e-03, 4.73933667e-03, 0., 0.,
          0., 0., 4.73933667e-03, 0., 0., 0., 0., 9.47867334e-03, 0.,
          4.73933667e-03, 0., 0., 0., 0., 0., 0., 0., 0., 0., 0., 0., 0.,
          0., 0., 0., 0., 0., 4.73933667e-03, 0., 0., 0., 0., 0., 0., 0.,
          0., 0., 0., 0., 0., 0., 0., 0., 4.73933667e-03, 0., 0., 0.,
          4.73933667e-03, 4.73933667e-03, 4.73933667e-03, 4.73933667e-03,
          4.73933667e-03, 0., 0., 4.73933667e-03, 4.73933667e-03,
          4.73933667e-03, 0., 0., 9.47867334e-03, 9.47867334e-03, 0., 0.,
          0., 0., 0., 4.73933667e-03, 0., 0., 0., 0., 0., 0., 0., 0., 0.,
          0., 0., 0., 0., 0., 0., 0., 0., 0., 0., 0., 4.73933667e-03, 0.,
          0., 0., 0., 0., 0., 0., 0., 4.73933667e-03, 0., 0., 0., 0., 0.,
          4.73933667e-03, 0., 0., 0., 0., 0., 0., 0., 0., 0., 0.,
          9.47867334e-03, 0., 4.73933667e-03, 0., 9.47867334e-03, 0., 0.,
          0., 4.73933667e-03, 4.73933667e-03, 0., 0., 0., 4.73933667e-03,
          0., 0., 0., 0., 0., 0., 0., 0., 0., 0., 0., 0., 4.73933667e-03,
          0., 0., 0., 0., 0., 0., 0., 1.42180100e-02, 0., 0., 0., 0., 0.,
          0., 0., 0., 4.73933667e-03, 0., 0., 0., 0., 0., 0.,
          4.73933667e-03, 0., 0., 0., 4.73933667e-03, 0., 4.73933667e-03,
          0., 4.73933667e-03, 0., 0., 0., 0., 0., 0., 0., 0., 0., 0., 0.,
          4.73933667e-03, 0., 1.42180100e-02, 0., 0., 0., 0., 0., 0., 0.,
          4.73933667e-03, 0., 0., 0., 0., 4.73933667e-03, 0.,
          4.73933667e-03, 0., 4.73933667e-03, 0., 0., 0., 0., 0., 0.,
          4.73933667e-03, 0., 0., 9.47867334e-03, 4.73933667e-03, 0., 0.,
          4.73933667e-03, 0., 4.73933667e-03, 0., 0., 1.89573467e-02, 0.,
          0., 4.73933667e-03, 0., 0., 0., 0., 0., 0., 0., 0., 0., 0., 0.,
          0., 0., 0., 0., 4.73933667e-03, 4.73933667e-03, 9.47867334e-03,
          4.73933667e-03, 4.73933667e-03, 0., 0., 4.73933667e-03, 0., 0.,
          0., 0., 0., 0., 0., 0., 0., 0., 0., 4.73933667e-03, 0.,
          4.73933667e-03, 0., 0., 0., 0., 4.73933667e-03, 0., 0., 0., 0.,
          0., 0., 0., 0., 0., 4.73933667e-03, 0., 0., 0., 0., 0., 0.,
          4.73933667e-03, 4.73933667e-03, 0., 0., 0., 0., 0., 0., 0.,
          4.73933667e-03, 0., 0., 0., 0., 0., 4.73933667e-03, 0., 0., 0.,
          0., 0., 4.73933667e-03, 9.47867334e-03, 0., 0., 0., 0., 0., 0.,
          0., 0., 0., 0., 0., 0., 0., 4.73933667e-03, 4.73933667e-03,
          4.73933667e-03, 0., 0., 0., 0., 4.73933667e-03, 0., 0., 0., 0.,
          0., 0., 0., 0., 0., 0., 0., 4.73933667e-03, 0., 0.,
          4.73933667e-03, 0., 0., 0., 0., 0., 0., 0., 4.73933667e-03, 0.,
          4.73933667e-03, 0., 9.47867334e-03, 0., 0., 0., 0.,
          4.73933667e-03, 0., 0., 0., 0., 0., 0., 9.47867334e-03, 0., 0.,
          0., 4.73933667e-03, 0., 0., 4.73933667e-03, 0., 0., 0., 0., 0.,
          0., 0., 4.73933667e-03, 0., 4.73933667e-03, 0., 0., 0., 0., 0.,
          0., 0., 0., 0., 0., 0., 0., 0., 4.73933667e-03, 0., 0., 0.,
          4.73933667e-03, 0., 0., 0., 0., 0., 0., 0., 0., 0., 0., 0., 0.,
          0., 0., 0., 0., 0., 0., 0., 0., 0., 0., 0., 0., 0., 0.,
          4.73933667e-03, 0., 0., 0., 0., 0., 4.73933667e-03, 0., 0., 0.,
          0., 0., 0., 0., 0., 0., 0., 0., 0., 0., 0., 0., 0.,
          4.73933667e-03, 0., 0., 0., 0., 0., 0., 0., 0., 0., 0., 0., 0.,
          9.47867334e-03, 0., 0., 4.73933667e-03, 0., 4.73933667e-03, 0.,
          4.73933667e-03, 0., 0., 0., 0., 0., 0., 4.73933667e-03, 0., 0.,
          0., 0., 0., 0., 0., 0., 0., 0., 0., 0., 0., 0., 4.73933667e-03,
          0., 0., 0., 0., 0., 0., 0., 0., 0., 0., 9.47867334e-03, 0., 0.,
          0., 0., 4.73933667e-03, 0., 0., 4.73933667e-03, 4.73933667e-03,
          4.73933667e-03, 0., 0., 0., 0., 0., 0., 0., 0., 0.,
          4.73933667e-03, 0., 0., 0., 9.47867334e-03, 0., 0., 0., 0., 0.,
          0., 0., 0., 0., 0., 0., 0., 0., 4.73933667e-03, 0., 0., 0., 0.,
          0., 0., 0., 0., 0., 0., 0., 0., 0., 4.73933667e-03, 0., 0.,
          9.47867334e-03, 0., 0., 0., 0., 0., 4.73933667e-03, 0., 0., 0.,
          0., 0., 4.73933667e-03, 9.47867334e-03, 0., 0., 0.,
          9.47867334e-03, 0., 0., 4.73933667e-03, 0., 0., 4.73933667e-03,
          4.73933667e-03, 0., 0., 0., 4.73933667e-03, 0., 0.,
          4.73933667e-03, 0., 4.73933667e-03, 0., 0., 0., 0., 0.,
          9.47867334e-03, 0., 0., 0., 0., 4.73933667e-03, 9.47867334e-03,
          0., 0., 0., 0., 0., 0., 0., 0., 0., 0., 0., 0., 0., 0., 0.,
          4.73933667e-03, 0., 0., 0., 0., 0., 0., 0., 0., 0., 0., 0.,
          9.47867334e-03, 0., 0., 4.73933667e-03, 4.73933667e-03, 0., 0.,
          4.73933667e-03, 4.73933667e-03, 0., 4.73933667e-03, 0., 0., 0.,
          0., 0., 0., 0., 0., 4.73933667e-03, 4.73933667e-03, 0., 0., 0.,
          0., 9.47867334e-03, 0., 0., 0., 4.73933667e-03, 0., 0., 0., 0.,
          0., 0., 4.73933667e-03, 0., 0., 0., 0., 0., 9.47867334e-03, 0.,
          0., 0., 0., 0., 4.73933667e-03, 0., 0., 0., 0., 0.,
          4.73933667e-03, 0., 0., 0., 0., 0., 0., 0., 0., 0., 0., 0., 0.,
          4.73933667e-03, 0., 0., 0., 0., 0., 0., 0., 0., 0., 0., 0., 0.,
          0., 0., 0., 0., 0., 0., 0., 0., 0., 0., 4.73933667e-03, 0., 0.,
          0., 0., 0., 4.73933667e-03, 0., 0., 0., 0., 0., 0., 0., 0., 0.,
          0., 0., 0., 0., 0., 0., 0., 0., 0., 0., 0., 0., 0., 0., 0., 0.,
          0., 0., 0., 0., 0., 0., 4.73933667e-03, 4.73933667e-03, 0., 0.,
          0., 0., 0., 0., 0., 0., 0., 0., 0., 0., 4.73933667e-03,
          4.73933667e-03, 0., 0., 9.47867334e-03, 0., 4.73933667e-03, 0.,
          0., 0., 0., 0., 0., 0., 0., 0., 0., 0., 0., 0., 0., 0., 0., 0.,
          0., 0., 0., 0., 0., 0., 0., 0., 0., 0., 0., 0., 0., 0., 0., 0.,
          0., 0., 0., 0., 0., 0., 0., 0., 0., 0., 0., 0., 0.,
          4.73933667e-03, 0., 0., 0., 0., 4.73933667e-03, 0.,
          1.89573467e-02, 0., 0., 0., 0., 4.73933667e-03, 0., 0.,
          4.73933667e-03, 0., 4.73933667e-03, 9.47867334e-03,
          4.73933667e-03, 0., 0., 0., 4.73933667e-03, 9.47867334e-03, 0.,
          0., 0., 9.47867334e-03, 0., 4.73933667e-03, 0., 0., 0., 0., 0.,
          0., 4.73933667e-03, 4.73933667e-03, 0., 0., 0., 0., 0., 0., 0.,
          0., 0., 0., 0., 0., 0., 0., 0., 4.73933667e-03, 9.47867334e-03,
          0., 0., 0., 0., 0., 0., 0., 0., 0., 0., 0., 0., 0., 0.,
          9.47867334e-03, 4.73933667e-03, 0., 0., 0., 0., 0.,
          4.73933667e-03, 0., 4.73933667e-03, 0., 4.73933667e-03, 0., 0.,
          0., 4.73933667e-03, 0., 0., 0., 9.47867334e-03, 0., 0., 0.,
          4.73933667e-03, 0., 0., 0., 0., 0., 4.73933667e-03, 0., 0., 0.,
          0., 0., 0., 0., 0., 0., 0., 0., 4.73933667e-03, 4.73933667e-03,
          4.73933667e-03, 4.73933667e-03, 0., 0., 0., 0., 0.,
          9.47867334e-03, 0., 0., 0., 0., 0., 0., 0., 0., 0.,
          4.73933667e-03, 0., 0., 4.73933667e-03, 0., 0., 0., 0., 0., 0.,
          0., 0., 0., 0., 0., 0., 0., 0., 0., 0., 0., 0., 0.,
          4.73933667e-03 ]
      - [ 9.13241971e-03, 0., 0., 0., 0., 0., 0., 4.56620986e-03, 0., 0.,
          4.56620986e-03, 0., 0., 0., 4.56620986e-03, 0., 4.56620986e-03,
          4.56620986e-03, 0., 0., 0., 0., 4.56620986e-03, 0.,
          4.56620986e-03, 0., 0., 4.56620986e-03, 0., 0., 0.,
          4.56620986e-03, 0., 0., 0., 0., 4.56620986e-03, 0., 0., 0., 0.,
          0., 4.56620986e-03, 0., 0., 0., 0., 0., 0., 0., 0., 0., 0.,
          4.56620986e-03, 0., 9.13241971e-03, 0., 0., 4.56620986e-03, 0.,
          0., 0., 0., 0., 0., 0., 0., 0., 0., 0., 0., 0., 0., 0., 0.,
          9.13241971e-03, 0., 0., 0., 4.56620986e-03, 4.56620986e-03, 0.,
          0., 0., 0., 0., 0., 0., 0., 0., 0., 0., 0., 0., 0., 0., 0., 0.,
          0., 0., 0., 4.56620986e-03, 4.56620986e-03, 4.56620986e-03, 0.,
          0., 0., 0., 0., 0., 0., 0., 0., 0., 0., 0., 0., 0., 0.,
          4.56620986e-03, 0., 0., 0., 0., 0., 0., 0., 0., 0., 0.,
          4.56620986e-03, 0., 4.56620986e-03, 0., 0., 0., 0.,
          4.56620986e-03, 4.56620986e-03, 0., 0., 0., 0., 0.,
          4.56620986e-03, 4.56620986e-03, 0., 0., 0., 0., 0., 0., 0., 0.,
          0., 4.56620986e-03, 0., 0., 0., 0., 0., 0., 0., 0., 0., 0., 0.,
          4.56620986e-03, 0., 0., 0., 9.13241971e-03, 0., 0.,
          9.13241971e-03, 0., 0., 4.56620986e-03, 4.56620986e-03, 0., 0.,
          0., 0., 0., 0., 0., 0., 9.13241971e-03, 0., 0., 0.,
          4.56620986e-03, 0., 0., 0., 0., 4.56620986e-03, 0., 0., 0., 0.,
          0., 0., 0., 0., 0., 0., 0., 0., 0., 4.56620986e-03, 0., 0., 0.,
          0., 0., 0., 0., 0., 4.56620986e-03, 9.13241971e-03, 0., 0., 0.,
          0., 0., 0., 0., 0., 0., 0., 4.56620986e-03, 0., 0., 0., 0., 0.,
          0., 0., 0., 4.56620986e-03, 4.56620986e-03, 4.56620986e-03, 0.,
          0., 0., 0., 0., 0., 0., 0., 0., 0., 0., 0., 0., 0., 0., 0., 0.,
          0., 0., 0., 0., 4.56620986e-03, 4.56620986e-03, 0.,
          4.56620986e-03, 0., 0., 0., 4.56620986e-03, 0., 4.56620986e-03,
          0., 0., 0., 0., 0., 9.13241971e-03, 4.56620986e-03, 0., 0.,
          4.56620986e-03, 0., 4.56620986e-03, 0., 0., 0., 0.,
          4.56620986e-03, 0., 0., 0., 0., 0., 4.56620986e-03, 0., 0., 0.,
          0., 0., 0., 0., 0., 4.56620986e-03, 0., 0., 0., 0., 0.,
          4.56620986e-03, 0., 0., 0., 0., 0., 9.13241971e-03, 0., 0., 0.,
          0., 0., 0., 0., 4.56620986e-03, 0., 0., 0., 0., 0.,
          4.56620986e-03, 0., 4.56620986e-03, 0., 0., 0., 0.,
          4.56620986e-03, 0., 4.56620986e-03, 0., 4.56620986e-03, 0., 0.,
          0., 4.56620986e-03, 0., 0., 0., 0., 0., 4.56620986e-03, 0.,
          9.13241971e-03, 0., 0., 0., 0., 0., 0., 0., 4.56620986e-03, 0.,
          0., 0., 4.56620986e-03, 0., 0., 4.56620986e-03, 0.,
          4.56620986e-03, 4.56620986e-03, 4.56620986e-03, 4.56620986e-03,
          0., 0., 0., 9.13241971e-03, 0., 0., 0., 0., 0., 4.56620986e-03,
          0., 0., 0., 0., 0., 0., 0., 0., 0., 0., 0., 0., 0., 0., 0., 0.,
          0., 0., 0., 0., 0., 0., 0., 0., 0., 0., 0., 4.56620986e-03, 0.,
          0., 4.56620986e-03, 0., 0., 0., 0., 0., 0., 0., 0., 0.,
          4.56620986e-03, 0., 0., 9.13241971e-03, 0., 4.56620986e-03, 0.,
          9.13241971e-03, 0., 9.13241971e-03, 0., 0., 4.56620986e-03, 0.,
          0., 0., 0., 0., 0., 4.56620986e-03, 4.56620986e-03, 0.,
          4.56620986e-03, 4.56620986e-03, 0., 4.56620986e-03,
          9.13241971e-03, 0., 0., 0., 0., 0., 4.56620986e-03, 0., 0.,
          4.56620986e-03, 4.56620986e-03, 0., 0., 0., 0., 0., 0., 0., 0.,
          0., 4.56620986e-03, 0., 0., 0., 0., 0., 0., 0., 0., 0.,
          4.56620986e-03, 0., 9.13241971e-03, 0., 0., 4.56620986e-03, 0.,
          4.56620986e-03, 0., 0., 0., 4.56620986e-03, 0., 0., 0., 0.,
          4.56620986e-03, 4.56620986e-03, 0., 0., 0., 0., 0., 0., 0., 0.,
          0., 0., 0., 1.82648394e-02, 0., 0., 0., 0., 0., 0., 0., 0., 0.,
          9.13241971e-03, 0., 0., 0., 0., 0., 0., 0., 0., 0., 0.,
          4.56620986e-03, 0., 0., 9.13241971e-03, 0., 0., 0., 0.,
          4.56620986e-03, 0., 0., 0., 0., 0., 0., 0., 9.13241971e-03, 0.,
          0., 0., 0., 9.13241971e-03, 0., 4.56620986e-03, 0., 0., 0., 0.,
          0., 0., 0., 0., 0., 4.56620986e-03, 0., 0., 0., 0., 0.,
          9.13241971e-03, 0., 0., 0., 0., 0., 0., 0., 4.56620986e-03,
          4.56620986e-03, 0., 4.56620986e-03, 0., 0., 0., 0., 0., 0., 0.,
          0., 0., 0., 0., 4.56620986e-03, 4.56620986e-03, 0., 0., 0., 0.,
          4.56620986e-03, 0., 0., 0., 0., 0., 0., 0., 4.56620986e-03, 0.,
          0., 4.56620986e-03, 0., 0., 0., 0., 0., 0., 0., 0.,
          9.13241971e-03, 4.56620986e-03, 0., 0., 4.56620986e-03, 0., 0.,
          0., 0., 0., 0., 0., 0., 0., 0., 0., 0., 0., 4.56620986e-03, 0.,
          0., 0., 0., 0., 0., 0., 0., 0., 0., 0., 0., 0., 0., 0., 0., 0.,
          0., 4.56620986e-03, 0., 0., 0., 0., 9.13241971e-03, 0., 0., 0.,
          0., 4.56620986e-03, 0., 0., 0., 0., 4.56620986e-03, 0., 0., 0.,
          4.56620986e-03, 4.56620986e-03, 0., 0., 4.56620986e-03, 0.,
          4.56620986e-03, 0., 0., 0., 0., 0., 0., 4.56620986e-03, 0.,
          4.56620986e-03, 0., 0., 0., 4.56620986e-03, 0., 0., 0.,
          1.36986300e-02, 0., 0., 0., 0., 0., 0., 0., 0., 4.56620986e-03,
          0., 4.56620986e-03, 0., 0., 0., 0., 0., 0., 0., 4.56620986e-03,
          0., 0., 0., 0., 0., 0., 4.56620986e-03, 0., 0., 0., 0., 0., 0.,
          0., 0., 0., 4.56620986e-03, 0., 0., 0., 0., 4.56620986e-03, 0.,
          0., 9.13241971e-03, 0., 0., 0., 0., 0., 0., 0., 0., 0., 0., 0.,
          4.56620986e-03, 0., 0., 0., 0., 0., 0., 0., 0., 0., 0., 0., 0.,
          0., 0., 0., 0., 0., 0., 0., 0., 0., 4.56620986e-03, 0., 0.,
          4.56620986e-03, 0., 0., 0., 0., 0., 0., 0., 0., 4.56620986e-03,
          0., 0., 4.56620986e-03, 0., 0., 0., 0., 0., 0., 0.,
          9.13241971e-03, 0., 0., 0., 4.56620986e-03, 0., 0.,
          4.56620986e-03, 0., 0., 0., 0., 0., 4.56620986e-03,
          9.13241971e-03, 0., 0., 0., 0., 4.56620986e-03, 0., 0., 0., 0.,
          0., 0., 0., 0., 0., 0., 0., 0., 0., 0., 0., 4.56620986e-03,
          4.56620986e-03, 0., 4.56620986e-03, 0., 4.56620986e-03,
          4.56620986e-03, 0., 0., 4.56620986e-03, 0., 0., 0., 0., 0., 0.,
          0., 0., 0., 0., 9.13241971e-03, 4.56620986e-03, 0.,
          4.56620986e-03, 0., 0., 0., 0., 0., 4.56620986e-03,
          4.56620986e-03, 0., 0., 0., 0., 0., 0., 0., 0., 0.,
          9.13241971e-03, 0., 0., 0., 0., 0., 0., 0., 0., 0.,
          4.56620986e-03, 0., 0., 4.56620986e-03, 0., 0., 0., 0., 0., 0.,
          0., 0., 0., 4.56620986e-03, 0., 0., 0., 0., 0., 4.56620986e-03,
          0., 0., 0., 0., 0., 0., 0., 0., 0., 0., 4.56620986e-03, 0.,
          4.56620986e-03, 4.56620986e-03, 0., 0., 0., 0., 0.,
          4.56620986e-03, 4.56620986e-03, 4.56620986e-03, 0., 0.,
          9.13241971e-03, 0., 0., 0., 0., 0., 0., 9.13241971e-03, 0., 0.,
          4.56620986e-03, 0., 0., 0., 4.56620986e-03, 0., 0., 0., 0.,
          4.56620986e-03, 0., 0., 0., 0., 0., 0., 4.56620986e-03, 0., 0.,
          0., 0., 0., 0., 0., 0., 0., 0., 0., 0., 0., 0., 0., 0., 0., 0.,
          0., 0., 0., 4.56620986e-03, 0., 0., 0., 0., 0., 0., 0., 0., 0.,
          0., 0., 0., 0., 0., 0., 0., 0., 0., 0., 0., 4.56620986e-03,
          4.56620986e-03, 0. ]
      - [ 0., 0., 0., 0., 0., 0., 0., 0., 0., 0., 6.36942685e-03, 0., 0.,
          0., 0., 0., 0., 1.27388537e-02, 0., 0., 0., 0., 0., 0., 0., 0.,
          0., 0., 6.36942685e-03, 0., 0., 0., 0., 6.36942685e-03, 0., 0.,
          0., 0., 0., 0., 6.36942685e-03, 0., 0., 6.36942685e-03, 0., 0.,
          0., 6.36942685e-03, 0., 0., 0., 0., 0., 0., 0., 0.,
          6.36942685e-03, 6.36942685e-03, 0., 0., 0., 0., 6.36942685e-03,
          0., 0., 0., 0., 0., 0., 0., 0., 6.36942685e-03, 0., 0.,
          1.27388537e-02, 0., 0., 0., 0., 0., 6.36942685e-03, 0.,
          6.36942685e-03, 6.36942685e-03, 0., 0., 0., 0., 0., 0., 0., 0.,
          0., 0., 0., 0., 0., 0., 0., 0., 0., 6.36942685e-03,
          6.36942685e-03, 0., 0., 0., 0., 6.36942685e-03, 0., 0.,
          6.36942685e-03, 0., 0., 0., 0., 0., 1.27388537e-02, 0., 0., 0.,
          0., 0., 6.36942685e-03, 0., 0., 1.27388537e-02, 0., 0., 0.,
          6.36942685e-03, 0., 0., 0., 1.91082805e-02, 0., 0., 0., 0., 0.,
          1.27388537e-02, 0., 0., 6.36942685e-03, 0., 0., 0., 0., 0., 0.,
          0., 0., 0., 0., 0., 6.36942685e-03, 0., 0., 0., 0., 0., 0., 0.,
          0., 0., 0., 0., 0., 0., 0., 0., 0., 0., 0., 0., 0., 0., 0., 0.,
          0., 0., 0., 0., 0., 0., 6.36942685e-03, 0., 0., 6.36942685e-03,
          0., 0., 0., 0., 0., 0., 0., 0., 0., 0., 0., 0., 6.36942685e-03,
          6.36942685e-03, 0., 0., 0., 0., 0., 0., 0., 0., 0., 0., 0., 0.,
          0., 0., 0., 0., 0., 0., 0., 0., 0., 0., 1.27388537e-02, 0.,
          6.36942685e-03, 0., 0., 0., 0., 0., 0., 0., 0., 0.,
          6.36942685e-03, 0., 0., 1.27388537e-02, 0., 0., 6.36942685e-03,
          0., 6.36942685e-03, 6.36942685e-03, 0., 1.27388537e-02, 0., 0.,
          0., 0., 0., 6.36942685e-03, 0., 0., 0., 0., 0., 0., 0., 0.,
          6.36942685e-03, 1.91082805e-02, 0., 0., 0., 0., 0., 0., 0., 0.,
          0., 0., 0., 0., 0., 0., 0., 0., 0., 0., 0., 0., 0., 0., 0., 0.,
          0., 0., 0., 0., 0., 6.36942685e-03, 0., 0., 0., 0., 0., 0., 0.,
          0., 6.36942685e-03, 6.36942685e-03, 0., 0., 0., 0., 0., 0., 0.,
          0., 0., 0., 0., 6.36942685e-03, 0., 0., 0., 0., 0., 0., 0.,
          6.36942685e-03, 6.36942685e-03, 0., 0., 0., 0., 0., 0., 0., 0.,
          0., 0., 0., 0., 0., 0., 0., 0., 0., 0., 0., 0., 0.,
          6.36942685e-03, 0., 6.36942685e-03, 0., 0., 6.36942685e-03, 0.,
          6.36942685e-03, 6.36942685e-03, 0., 0., 0., 0., 0.,
          6.36942685e-03, 0., 0., 0., 0., 6.36942685e-03, 0., 0., 0., 0.,
          0., 0., 0., 0., 0., 0., 0., 0., 0., 0., 0., 0., 0., 0.,
          1.27388537e-02, 0., 0., 0., 0., 0., 0., 0., 1.27388537e-02, 0.,
          0., 0., 0., 0., 6.36942685e-03, 0., 1.27388537e-02, 0., 0., 0.,
          0., 0., 0., 1.27388537e-02, 0., 6.36942685e-03, 0., 0., 0., 0.,
          0., 0., 6.36942685e-03, 0., 0., 0., 0., 0., 0., 0., 0., 0., 0.,
          6.36942685e-03, 0., 0., 0., 0., 1.91082805e-02, 0., 0.,
          1.27388537e-02, 0., 0., 0., 0., 0., 0., 0., 0., 0., 0., 0., 0.,
          0., 6.36942685e-03, 0., 0., 0., 0., 0., 0., 0., 0., 0., 0., 0.,
          0., 0., 0., 0., 0., 0., 0., 6.36942685e-03, 0., 0.,
          6.36942685e-03, 0., 0., 0., 0., 6.36942685e-03, 0., 0., 0., 0.,
          0., 0., 0., 0., 0., 6.36942685e-03, 6.36942685e-03, 0.,
          6.36942685e-03, 0., 6.36942685e-03, 0., 0., 0., 0., 0., 0., 0.,
          0., 0., 0., 0., 0., 0., 0., 0., 0., 0., 0., 0., 6.36942685e-03,
          0., 0., 6.36942685e-03, 0., 0., 0., 0., 0., 6.36942685e-03, 0.,
          0., 0., 0., 0., 0., 0., 0., 0., 0., 6.36942685e-03, 0., 0.,
          6.36942685e-03, 0., 0., 0., 0., 0., 0., 0., 0., 0., 0., 0., 0.,
          1.91082805e-02, 0., 0., 0., 0., 0., 0., 0., 0., 0., 0., 0., 0.,
          0., 0., 0., 0., 0., 0., 0., 6.36942685e-03, 6.36942685e-03, 0.,
          0., 6.36942685e-03, 0., 0., 0., 0., 0., 0., 6.36942685e-03, 0.,
          6.36942685e-03, 0., 0., 0., 0., 0., 0., 0., 0., 6.36942685e-03,
          0., 0., 0., 6.36942685e-03, 0., 0., 0., 0., 0., 6.36942685e-03,
          0., 0., 0., 0., 0., 0., 0., 0., 0., 0., 6.36942685e-03, 0.,
          6.36942685e-03, 0., 0., 0., 0., 0., 6.36942685e-03,
          6.36942685e-03, 0., 0., 0., 0., 0., 0., 0., 0., 0., 0., 0., 0.,
          0., 0., 0., 0., 0., 6.36942685e-03, 0., 6.36942685e-03, 0., 0.,
          0., 0., 0., 6.36942685e-03, 0., 0., 0., 0., 0., 1.27388537e-02,
          0., 0., 0., 0., 0., 0., 0., 0., 0., 0., 0., 0., 0., 0., 0., 0.,
          0., 0., 0., 0., 6.36942685e-03, 0., 0., 0., 6.36942685e-03, 0.,
          0., 0., 0., 0., 0., 0., 0., 1.27388537e-02, 0., 0.,
          6.36942685e-03, 0., 0., 0., 0., 0., 0., 0., 0., 0., 0., 0., 0.,
          0., 0., 0., 6.36942685e-03, 0., 0., 0., 0., 0., 0., 0.,
          6.36942685e-03, 0., 6.36942685e-03, 1.91082805e-02,
          1.27388537e-02, 0., 0., 0., 0., 0., 0., 0., 0., 0., 0., 0., 0.,
          0., 0., 0., 0., 0., 0., 6.36942685e-03, 0., 0., 0., 0., 0., 0.,
          0., 0., 0., 6.36942685e-03, 0., 0., 0., 0., 0., 0., 0., 0., 0.,
          0., 0., 0., 0., 0., 0., 0., 0., 0., 0., 0., 0., 0., 0., 0., 0.,
          0., 0., 6.36942685e-03, 0., 0., 0., 0., 0., 0., 0., 0., 0., 0.,
          0., 0., 0., 0., 6.36942685e-03, 0., 0., 0., 0., 0., 0., 0., 0.,
          0., 0., 1.27388537e-02, 0., 0., 0., 0., 0., 6.36942685e-03, 0.,
          0., 0., 6.36942685e-03, 0., 0., 0., 6.36942685e-03, 0., 0., 0.,
          0., 0., 0., 0., 0., 0., 0., 0., 0., 0., 0., 0., 0., 0., 0., 0.,
          6.36942685e-03, 0., 0., 0., 0., 0., 0., 0., 0., 0.,
          6.36942685e-03, 0., 0., 0., 0., 0., 0., 0., 0., 0., 0.,
          6.36942685e-03, 0., 0., 0., 0., 0., 0., 0., 0., 6.36942685e-03,
          0., 0., 6.36942685e-03, 6.36942685e-03, 0., 6.36942685e-03, 0.,
          0., 0., 0., 0., 0., 0., 0., 0., 0., 0., 0., 0., 0., 0., 0., 0.,
          0., 0., 0., 0., 0., 0., 0., 0., 0., 0., 0., 0., 0., 0., 0., 0.,
          0., 0., 0., 6.36942685e-03, 0., 0., 0., 0., 0., 6.36942685e-03,
          0., 0., 6.36942685e-03, 1.27388537e-02, 0., 0., 0., 0., 0., 0.,
          1.27388537e-02, 0., 0., 0., 0., 0., 0., 6.36942685e-03, 0., 0.,
          0., 0., 0., 0., 0., 0., 0., 0., 0., 0., 0., 0., 0., 0., 0., 0.,
          0., 0., 0., 0., 0., 0., 0., 6.36942685e-03, 0., 0., 0., 0., 0.,
          0., 0., 0., 0., 0., 0., 0., 0., 0., 0., 0., 0., 0., 0.,
          6.36942685e-03, 0., 0., 0., 0., 0., 0., 0., 0., 0., 0., 0., 0.,
          0., 0., 0., 0., 6.36942685e-03, 0., 0., 0., 0., 0., 0. ]
      - [ 0., 0., 0., 0., 0., 0., 0., 0., 0., 9.95024852e-03, 0., 0., 0.,
          0., 4.97512426e-03, 0., 0., 0., 0., 0., 0., 0., 0., 0., 0., 0.,
          0., 0., 0., 0., 0., 0., 0., 0., 0., 0., 0., 0., 0., 0., 0., 0.,
          4.97512426e-03, 4.97512426e-03, 0., 0., 4.97512426e-03,
          1.49253728e-02, 0., 0., 0., 0., 0., 0., 0., 0., 0., 0., 0., 0.,
          0., 0., 0., 0., 0., 0., 0., 4.97512426e-03, 0., 4.97512426e-03,
          0., 0., 0., 0., 0., 0., 0., 0., 0., 0., 4.97512426e-03,
          4.97512426e-03, 0., 0., 0., 0., 0., 0., 0., 0., 0.,
          4.97512426e-03, 0., 0., 4.97512426e-03, 4.97512426e-03, 0., 0.,
          0., 0., 0., 0., 0., 0., 0., 4.97512426e-03, 1.49253728e-02, 0.,
          0., 9.95024852e-03, 0., 4.97512426e-03, 4.97512426e-03, 0., 0.,
          0., 4.97512426e-03, 0., 0., 0., 0., 0., 4.97512426e-03, 0., 0.,
          0., 0., 0., 0., 9.95024852e-03, 0., 0., 0., 0., 0., 0., 0., 0.,
          0., 0., 0., 0., 0., 0., 4.97512426e-03, 0., 0., 0., 0., 0., 0.,
          0., 0., 0., 9.95024852e-03, 0., 0., 0., 0., 0., 4.97512426e-03,
          0., 0., 0., 0., 0., 4.97512426e-03, 0., 0., 0., 0., 0., 0., 0.,
          0., 0., 0., 4.97512426e-03, 0., 0., 4.97512426e-03, 0., 0., 0.,
          0., 0., 4.97512426e-03, 0., 0., 4.97512426e-03, 0., 0., 0., 0.,
          0., 0., 4.97512426e-03, 0., 0., 0., 0., 0., 0., 0., 0., 0., 0.,
          0., 0., 0., 0., 0., 0., 0., 0., 0., 0., 4.97512426e-03, 0., 0.,
          0., 0., 0., 0., 0., 0., 4.97512426e-03, 0., 0., 0., 0., 0., 0.,
          0., 0., 0., 0., 0., 0., 0., 0., 0., 4.97512426e-03, 0., 0., 0.,
          0., 0., 0., 0., 0., 0., 0., 0., 0., 4.97512426e-03, 0., 0.,
          9.95024852e-03, 0., 0., 0., 0., 4.97512426e-03, 0., 0., 0.,
          4.97512426e-03, 0., 0., 0., 0., 0., 0., 0., 4.97512426e-03,
          4.97512426e-03, 0., 0., 0., 0., 0., 0., 4.97512426e-03, 0., 0.,
          0., 0., 0., 0., 4.97512426e-03, 0., 0., 0., 0., 4.97512426e-03,
          4.97512426e-03, 4.97512426e-03, 0., 0., 0., 0., 0., 0.,
          9.95024852e-03, 0., 0., 0., 0., 0., 4.97512426e-03, 0.,
          4.97512426e-03, 0., 0., 0., 0., 0., 0., 0., 0., 0., 0., 0., 0.,
          0., 0., 4.97512426e-03, 0., 0., 0., 0., 0., 0., 0., 0., 0., 0.,
          0., 9.95024852e-03, 0., 0., 0., 0., 0., 0., 0., 0.,
          4.97512426e-03, 0., 0., 0., 1.99004970e-02, 0., 4.97512426e-03,
          4.97512426e-03, 0., 0., 0., 0., 0., 0., 0., 0., 0., 0., 0., 0.,
          4.97512426e-03, 0., 0., 0., 0., 0., 0., 0., 0., 0., 0., 0., 0.,
          0., 0., 0., 4.97512426e-03, 0., 0., 0., 0., 9.95024852e-03,
          1.49253728e-02, 0., 0., 0., 0., 0., 0., 0., 0., 0., 0., 0., 0.,
          4.97512426e-03, 0., 0., 0., 4.97512426e-03, 0., 4.97512426e-03,
          0., 0., 0., 4.97512426e-03, 0., 0., 0., 0., 0., 0.,
          4.97512426e-03, 0., 0., 0., 0., 0., 0., 0., 0., 0., 0., 0.,
          9.95024852e-03, 0., 0., 0., 0., 0., 0., 0., 0., 0., 0., 0., 0.,
          0., 0., 0., 0., 0., 0., 0., 0., 0., 0., 0., 0., 0., 0., 0., 0.,
          0., 0., 0., 0., 0., 0., 0., 4.97512426e-03, 0., 9.95024852e-03,
          0., 4.97512426e-03, 0., 0., 0., 0., 0., 0., 0., 4.97512426e-03,
          0., 0., 4.97512426e-03, 0., 0., 0., 0., 9.95024852e-03, 0., 0.,
          0., 4.97512426e-03, 4.97512426e-03, 0., 4.97512426e-03, 0., 0.,
          0., 0., 0., 0., 0., 0., 0., 0., 0., 0., 4.97512426e-03, 0.,
          9.95024852e-03, 9.95024852e-03, 0., 0., 0., 9.95024852e-03, 0.,
          0., 0., 0., 4.97512426e-03, 4.97512426e-03, 0., 4.97512426e-03,
          0., 0., 0., 0., 0., 0., 0., 0., 0., 0., 0., 0., 0., 0., 0., 0.,
          0., 0., 0., 0., 0., 0., 0., 4.97512426e-03, 0., 0.,
          4.97512426e-03, 4.97512426e-03, 0., 0., 0., 0., 0., 0., 0., 0.,
          0., 4.97512426e-03, 4.97512426e-03, 0., 0., 4.97512426e-03, 0.,
          0., 0., 0., 0., 0., 0., 0., 0., 0., 0., 0., 0., 0., 0., 0., 0.,
          0., 0., 0., 0., 0., 0., 0., 0., 4.97512426e-03, 0., 0., 0.,
          4.97512426e-03, 0., 0., 0., 0., 0., 0., 4.97512426e-03, 0., 0.,
          4.97512426e-03, 0., 0., 4.97512426e-03, 0., 0., 0., 0., 0., 0.,
          0., 0., 0., 0., 0., 4.97512426e-03, 0., 0., 0., 0., 0., 0., 0.,
          0., 0., 0., 0., 0., 0., 0., 9.95024852e-03, 0., 0., 0., 0., 0.,
          0., 0., 0., 0., 0., 0., 0., 0., 4.97512426e-03, 0., 0., 0.,
          4.97512426e-03, 4.97512426e-03, 0., 0., 0., 0., 0., 0.,
          4.97512426e-03, 0., 0., 0., 0., 0., 0., 0., 0., 0., 0., 0., 0.,
          0., 0., 1.99004970e-02, 0., 4.97512426e-03, 0., 0., 0., 0., 0.,
          0., 4.97512426e-03, 0., 4.97512426e-03, 0., 0., 0., 0., 0., 0.,
          0., 0., 0., 0., 9.95024852e-03, 0., 4.97512426e-03, 0., 0., 0.,
          0., 0., 0., 0., 0., 0., 0., 0., 0., 4.97512426e-03,
          9.95024852e-03, 0., 0., 0., 0., 4.97512426e-03, 0., 0., 0., 0.,
          0., 0., 0., 0., 4.97512426e-03, 0., 0., 4.97512426e-03, 0., 0.,
          0., 0., 0., 0., 0., 0., 0., 0., 9.95024852e-03, 0., 0., 0.,
          9.95024852e-03, 0., 0., 0., 0., 0., 0., 0., 0., 4.97512426e-03,
          0., 0., 0., 0., 0., 0., 0., 9.95024852e-03, 0., 0., 0., 0., 0.,
          0., 0., 0., 0., 0., 0., 0., 0., 4.97512426e-03, 0.,
          4.97512426e-03, 4.97512426e-03, 0., 0., 0., 0., 0., 0.,
          4.97512426e-03, 0., 0., 0., 0., 0., 0., 0., 0., 0., 0., 0.,
          4.97512426e-03, 0., 0., 0., 0., 0., 0., 0., 4.97512426e-03,
          4.97512426e-03, 9.95024852e-03, 0., 0., 0., 0., 0., 0., 0., 0.,
          0., 0., 4.97512426e-03, 0., 0., 0., 0., 0., 0., 0.,
          4.97512426e-03, 4.97512426e-03, 0., 0., 0., 0., 4.97512426e-03,
          0., 0., 0., 0., 4.97512426e-03, 0., 0., 4.97512426e-03, 0., 0.,
          0., 0., 0., 0., 0., 0., 0., 0., 0., 4.97512426e-03, 0.,
          4.97512426e-03, 4.97512426e-03, 0., 0., 0., 0., 0., 0., 0.,
          4.97512426e-03, 0., 0., 0., 0., 4.97512426e-03, 0., 0.,
          4.97512426e-03, 4.97512426e-03, 9.95024852e-03, 0.,
          4.97512426e-03, 0., 0., 0., 0., 4.97512426e-03, 4.97512426e-03,
          0., 4.97512426e-03, 0., 4.97512426e-03, 0., 0., 4.97512426e-03,
          4.97512426e-03, 0., 0., 0., 0., 0., 0., 0., 0., 0.,
          4.97512426e-03, 0., 0., 0., 0., 0., 0., 0., 0., 0., 0., 0.,
          4.97512426e-03, 0., 0., 4.97512426e-03, 0., 0., 0., 0., 0., 0.,
          0., 4.97512426e-03, 0., 0., 4.97512426e-03, 0., 0., 0., 0., 0.,
          0., 0., 4.97512426e-03, 0., 0., 0., 4.97512426e-03, 0., 0.,
          4.97512426e-03, 9.95024852e-03, 0., 0., 0., 0., 0., 0., 0., 0.,
          0., 0., 0., 0., 4.97512426e-03, 0., 0., 0., 0., 0., 0., 0., 0.,
          0., 0., 1.49253728e-02, 0., 0., 0., 4.97512426e-03, 0., 0., 0.,
          0., 4.97512426e-03, 4.97512426e-03, 0., 4.97512426e-03, 0., 0.,
          0., 0., 4.97512426e-03, 0., 4.97512426e-03, 0., 0.,
          4.97512426e-03, 0., 0., 4.97512426e-03, 0., 4.97512426e-03,
          4.97512426e-03, 4.97512426e-03, 0., 0., 9.95024852e-03 ]
      - [ 0., 4.76190494e-03, 0., 0., 0., 0., 0., 4.76190494e-03, 0.,
          4.76190494e-03, 0., 0., 0., 0., 0., 0., 0., 0., 0., 0., 0.,
          4.76190494e-03, 0., 0., 0., 0., 0., 0., 0., 0., 0., 0., 0., 0.,
          0., 0., 4.76190494e-03, 0., 0., 0., 0., 0., 0., 0., 0., 0., 0.,
          0., 0., 0., 0., 0., 0., 0., 0., 0., 0., 0., 0., 0., 0., 0., 0.,
          0., 0., 0., 0., 0., 0., 0., 4.76190494e-03, 0., 0., 0., 0., 0.,
          4.76190494e-03, 0., 0., 0., 4.76190494e-03, 0., 0., 0.,
          4.76190494e-03, 0., 4.76190494e-03, 0., 0., 0., 0.,
          4.76190494e-03, 4.76190494e-03, 0., 4.76190494e-03, 0., 0., 0.,
          0., 0., 0., 4.76190494e-03, 4.76190494e-03, 4.76190494e-03, 0.,
          0., 4.76190494e-03, 0., 0., 0., 0., 0., 4.76190494e-03, 0., 0.,
          0., 4.76190494e-03, 0., 0., 0., 0., 4.76190494e-03,
          4.76190494e-03, 0., 1.42857153e-02, 4.76190494e-03, 0., 0., 0.,
          0., 0., 0., 0., 0., 0., 0., 0., 0., 0., 0., 0., 0., 0., 0.,
          4.76190494e-03, 0., 1.42857153e-02, 0., 0., 0., 4.76190494e-03,
          0., 0., 0., 0., 0., 0., 0., 0., 0., 0., 0., 0., 0., 0., 0., 0.,
          4.76190494e-03, 0., 0., 0., 0., 0., 0., 4.76190494e-03, 0., 0.,
          4.76190494e-03, 0., 0., 0., 0., 0., 0., 0., 0., 0., 0., 0., 0.,
          0., 0., 4.76190494e-03, 4.76190494e-03, 0., 0., 0., 0., 0., 0.,
          0., 0., 0., 0., 9.52380989e-03, 4.76190494e-03, 0., 0., 0., 0.,
          0., 0., 0., 1.42857153e-02, 0., 0., 0., 0., 4.76190494e-03,
          4.76190494e-03, 9.52380989e-03, 0., 0., 0., 0., 4.76190494e-03,
          0., 4.76190494e-03, 0., 4.76190494e-03, 0., 0., 0., 0.,
          4.76190494e-03, 0., 0., 0., 0., 0., 0., 4.76190494e-03, 0., 0.,
          0., 4.76190494e-03, 0., 0., 0., 0., 0., 0., 0., 0., 0.,
          4.76190494e-03, 0., 0., 0., 0., 0., 0., 0., 4.76190494e-03,
          4.76190494e-03, 0., 0., 0., 0., 0., 0., 4.76190494e-03, 0., 0.,
          0., 0., 0., 0., 0., 0., 4.76190494e-03, 0., 0., 0.,
          4.76190494e-03, 0., 9.52380989e-03, 4.76190494e-03, 0., 0., 0.,
          0., 4.76190494e-03, 4.76190494e-03, 0., 0., 0., 0., 0., 0., 0.,
          0., 4.76190494e-03, 0., 4.76190494e-03, 0., 0., 0., 0.,
          4.76190494e-03, 0., 0., 4.76190494e-03, 4.76190494e-03, 0., 0.,
          0., 0., 0., 4.76190494e-03, 0., 0., 0., 4.76190494e-03,
          4.76190494e-03, 0., 0., 0., 0., 0., 0., 0., 0., 9.52380989e-03,
          0., 4.76190494e-03, 0., 0., 0., 0., 4.76190494e-03, 0., 0.,
          9.52380989e-03, 0., 0., 0., 0., 4.76190494e-03, 0.,
          4.76190494e-03, 0., 0., 0., 0., 0., 0., 0., 0., 0., 0., 0., 0.,
          0., 0., 0., 0., 0., 0., 0., 0., 0., 4.76190494e-03, 0., 0., 0.,
          0., 0., 4.76190494e-03, 0., 0., 0., 0., 4.76190494e-03, 0.,
          4.76190494e-03, 0., 0., 0., 0., 0., 0., 0., 0., 0., 0., 0., 0.,
          4.76190494e-03, 0., 0., 0., 0., 0., 0., 0., 0., 0., 0., 0., 0.,
          0., 0., 0., 0., 4.76190494e-03, 0., 0., 0., 0., 0., 0., 0., 0.,
          0., 0., 0., 0., 0., 0., 4.76190494e-03, 0., 3.80952395e-02, 0.,
          4.76190494e-03, 0., 0., 0., 0., 0., 0., 0., 0., 0., 0., 0., 0.,
          0., 0., 0., 0., 4.76190494e-03, 0., 0., 0., 0., 0., 0., 0., 0.,
          0., 0., 4.76190494e-03, 0., 0., 4.76190494e-03, 0., 0., 0.,
          4.76190494e-03, 0., 4.76190494e-03, 0., 0., 0., 0., 0., 0., 0.,
          0., 0., 0., 4.76190494e-03, 0., 0., 0., 4.76190494e-03, 0., 0.,
          0., 0., 0., 4.76190494e-03, 0., 0., 0., 0., 0., 0., 0., 0., 0.,
          4.76190494e-03, 0., 0., 0., 0., 0., 0., 0., 0., 0., 0., 0.,
          4.76190494e-03, 0., 0., 0., 0., 0., 0., 0., 0., 0., 0., 0., 0.,
          0., 0., 0., 4.76190494e-03, 0., 0., 0., 4.76190494e-03, 0., 0.,
          0., 0., 0., 0., 0., 0., 4.76190494e-03, 0., 0., 0.,
          1.42857153e-02, 9.52380989e-03, 4.76190494e-03, 0., 0.,
          4.76190494e-03, 4.76190494e-03, 4.76190494e-03, 0.,
          4.76190494e-03, 0., 0., 0., 0., 0., 0., 0., 0., 0., 0., 0.,
          9.52380989e-03, 0., 0., 0., 0., 0., 4.76190494e-03, 0., 0., 0.,
          0., 0., 0., 0., 0., 0., 0., 0., 0., 4.76190494e-03, 0.,
          4.76190494e-03, 4.76190494e-03, 0., 0., 0., 0., 4.76190494e-03,
          0., 0., 0., 9.52380989e-03, 4.76190494e-03, 4.76190494e-03, 0.,
          0., 0., 0., 0., 0., 0., 0., 0., 0., 0., 0., 0., 0.,
          4.76190494e-03, 0., 0., 0., 0., 0., 0., 0., 4.76190494e-03, 0.,
          4.76190494e-03, 0., 0., 0., 0., 0., 0., 0., 0., 0., 0., 0., 0.,
          0., 0., 0., 0., 0., 0., 0., 0., 0., 0., 0., 0., 0., 0., 0.,
          9.52380989e-03, 0., 0., 0., 0., 4.76190494e-03, 0.,
          4.76190494e-03, 0., 0., 0., 4.76190494e-03, 4.76190494e-03,
          4.76190494e-03, 4.76190494e-03, 0., 0., 0., 9.52380989e-03, 0.,
          0., 0., 4.76190494e-03, 4.76190494e-03, 4.76190494e-03, 0.,
          4.76190494e-03, 0., 0., 0., 0., 0., 0., 0., 0., 0., 0., 0., 0.,
          0., 0., 0., 4.76190494e-03, 0., 0., 4.76190494e-03, 0., 0., 0.,
          0., 0., 0., 0., 0., 0., 9.52380989e-03, 0., 9.52380989e-03, 0.,
          0., 0., 4.76190494e-03, 0., 0., 4.76190494e-03, 0.,
          4.76190494e-03, 0., 0., 0., 0., 0., 0., 0., 0., 0., 0., 0., 0.,
          0., 4.76190494e-03, 0., 0., 0., 0., 0., 0., 4.76190494e-03, 0.,
          0., 0., 4.76190494e-03, 0., 0., 0., 0., 4.76190494e-03, 0., 0.,
          0., 0., 0., 0., 0., 0., 0., 0., 0., 0., 4.76190494e-03, 0., 0.,
          0., 0., 0., 0., 0., 0., 0., 0., 0., 0., 0., 0., 0.,
          4.76190494e-03, 4.76190494e-03, 4.76190494e-03, 4.76190494e-03,
          0., 0., 4.76190494e-03, 0., 0., 0., 0., 0., 0., 0., 0.,
          4.76190494e-03, 0., 0., 0., 0., 4.76190494e-03, 0., 0., 0., 0.,
          0., 0., 0., 0., 4.76190494e-03, 4.76190494e-03, 0., 0., 0., 0.,
          4.76190494e-03, 4.76190494e-03, 0., 0., 0., 0., 0.,
          9.52380989e-03, 0., 4.76190494e-03, 4.76190494e-03, 0., 0., 0.,
          4.76190494e-03, 0., 0., 0., 0., 0., 0., 0., 4.76190494e-03, 0.,
          0., 0., 0., 0., 0., 0., 0., 0., 0., 4.76190494e-03,
          4.76190494e-03, 4.76190494e-03, 0., 0., 0., 0., 0.,
          4.76190494e-03, 9.52380989e-03, 4.76190494e-03, 0., 0., 0., 0.,
          0., 0., 4.76190494e-03, 4.76190494e-03, 0., 0., 0., 0., 0., 0.,
          0., 0., 0., 4.76190494e-03, 0., 0., 4.76190494e-03, 0., 0.,
          4.76190494e-03, 0., 0., 0., 4.76190494e-03, 0., 0., 0., 0., 0.,
          4.76190494e-03, 0., 4.76190494e-03, 0., 0., 0., 0., 0., 0., 0.,
          0., 9.52380989e-03, 4.76190494e-03, 4.76190494e-03, 0., 0., 0.,
          0., 0., 0., 0., 0., 4.76190494e-03, 0., 0., 0., 0., 0., 0., 0.,
          4.76190494e-03, 0., 0., 4.76190494e-03, 0., 0., 0., 0., 0., 0.,
          0., 0., 4.76190494e-03, 0., 0., 0., 0., 0., 0., 0., 0., 0., 0.,
          0., 4.76190494e-03, 1.90476198e-02, 0., 0., 0., 0., 0., 0., 0.,
          0., 4.76190494e-03, 0., 0., 0., 0., 0., 0., 0., 0., 0., 0., 0.,
          0., 0., 0., 0., 4.76190494e-03, 0., 0., 0., 0., 0., 0., 0., 0.,
          0., 0., 0., 0., 0., 0., 9.52380989e-03, 0., 0., 0., 0., 0., 0.,
          0., 4.76190494e-03, 0., 0., 4.76190494e-03, 0., 0. ]
      - [ 0., 0., 0., 0., 0., 0., 0., 0., 0., 0., 5.46448072e-03, 0., 0.,
          0., 0., 0., 0., 0., 5.46448072e-03, 0., 0., 0., 0., 0., 0., 0.,
          0., 0., 0., 0., 5.46448072e-03, 0., 0., 0., 0., 0.,
          5.46448072e-03, 0., 0., 5.46448072e-03, 0., 0., 0., 0., 0., 0.,
          0., 0., 0., 0., 0., 0., 0., 0., 0., 0., 0., 0., 0., 0., 0., 0.,
          0., 0., 0., 0., 0., 0., 0., 0., 5.46448072e-03, 0., 0., 0.,
          5.46448072e-03, 0., 0., 0., 0., 0., 5.46448072e-03, 0.,
          5.46448072e-03, 0., 0., 0., 0., 0., 0., 0., 0., 0., 0., 0., 0.,
          0., 1.09289614e-02, 0., 0., 0., 0., 0., 5.46448072e-03, 0., 0.,
          0., 0., 0., 0., 0., 0., 0., 0., 0., 0., 0., 1.09289614e-02, 0.,
          0., 0., 5.46448072e-03, 0., 5.46448072e-03, 0., 0., 0., 0., 0.,
          0., 0., 0., 0., 5.46448072e-03, 0., 0., 0., 0., 0., 0., 0., 0.,
          0., 0., 0., 5.46448072e-03, 1.09289614e-02, 5.46448072e-03, 0.,
          0., 0., 5.46448072e-03, 0., 0., 0., 0., 0., 0., 0., 0., 0., 0.,
          0., 0., 0., 0., 0., 5.46448072e-03, 5.46448072e-03, 0., 0., 0.,
          0., 5.46448072e-03, 0., 0., 0., 0., 0., 0., 0., 0.,
          5.46448072e-03, 0., 0., 1.09289614e-02, 5.46448072e-03, 0., 0.,
          5.46448072e-03, 0., 0., 0., 0., 0., 5.46448072e-03, 0., 0., 0.,
          0., 0., 0., 0., 5.46448072e-03, 0., 0., 0., 0., 0., 0., 0., 0.,
          5.46448072e-03, 0., 1.09289614e-02, 0., 0., 0., 5.46448072e-03,
          0., 5.46448072e-03, 0., 0., 0., 1.09289614e-02, 0., 0.,
          1.09289614e-02, 0., 0., 0., 0., 0., 0., 0., 0., 0., 0., 0., 0.,
          0., 5.46448072e-03, 0., 0., 0., 0., 0., 0., 0., 0., 0., 0.,
          5.46448072e-03, 0., 0., 1.09289614e-02, 0., 0., 0., 0., 0.,
          5.46448072e-03, 0., 0., 0., 0., 0., 0., 5.46448072e-03, 0., 0.,
          0., 1.09289614e-02, 0., 0., 0., 0., 0., 0., 5.46448072e-03, 0.,
          0., 0., 0., 5.46448072e-03, 5.46448072e-03, 0., 0., 0., 0., 0.,
          0., 0., 0., 0., 0., 0., 0., 0., 5.46448072e-03, 0., 0., 0., 0.,
          5.46448072e-03, 0., 0., 0., 0., 5.46448072e-03, 1.09289614e-02,
          0., 0., 0., 0., 0., 0., 0., 1.09289614e-02, 0., 0., 0., 0., 0.,
          5.46448072e-03, 0., 0., 0., 0., 0., 0., 5.46448072e-03, 0., 0.,
          0., 5.46448072e-03, 0., 0., 5.46448072e-03, 0., 0., 0., 0., 0.,
          5.46448072e-03, 0., 0., 0., 0., 0., 0., 0., 0., 0., 0., 0., 0.,
          0., 0., 0., 0., 0., 0., 0., 0., 0., 0., 0., 0., 0., 0.,
          5.46448072e-03, 0., 0., 5.46448072e-03, 5.46448072e-03, 0., 0.,
          0., 5.46448072e-03, 5.46448072e-03, 5.46448072e-03, 0., 0., 0.,
          5.46448072e-03, 0., 0., 0., 0., 0., 0., 0., 0., 0.,
          5.46448072e-03, 0., 0., 0., 0., 0., 0., 0., 0., 0., 0., 0., 0.,
          0., 0., 5.46448072e-03, 0., 0., 0., 0., 0., 0., 0., 0., 0., 0.,
          0., 0., 5.46448072e-03, 0., 0., 0., 0., 0., 0., 0., 0., 0.,
          2.18579229e-02, 0., 0., 0., 0., 0., 0., 0., 5.46448072e-03, 0.,
          0., 0., 0., 0., 0., 0., 5.46448072e-03, 0., 0., 5.46448072e-03,
          0., 0., 0., 0., 0., 0., 0., 0., 5.46448072e-03, 0., 0., 0., 0.,
          0., 0., 0., 0., 1.09289614e-02, 0., 0., 0., 0., 0.,
          5.46448072e-03, 0., 0., 0., 0., 0., 0., 0., 0., 0., 0., 0., 0.,
          5.46448072e-03, 0., 5.46448072e-03, 0., 0., 0., 0., 0., 0., 0.,
          0., 0., 0., 0., 0., 0., 0., 0., 0., 0., 0., 0., 0., 0., 0., 0.,
          5.46448072e-03, 0., 0., 0., 0., 0., 5.46448072e-03, 0.,
          5.46448072e-03, 0., 5.46448072e-03, 0., 0., 0., 0., 0.,
          5.46448072e-03, 1.09289614e-02, 0., 0., 5.46448072e-03, 0., 0.,
          5.46448072e-03, 0., 1.09289614e-02, 0., 0., 5.46448072e-03,
          1.09289614e-02, 0., 0., 0., 5.46448072e-03, 0., 0., 0.,
          5.46448072e-03, 0., 0., 5.46448072e-03, 0., 0., 0., 0., 0., 0.,
          0., 0., 0., 0., 0., 0., 0., 0., 0., 5.46448072e-03,
          5.46448072e-03, 0., 0., 0., 0., 0., 0., 0., 0., 0., 0., 0., 0.,
          0., 5.46448072e-03, 0., 0., 0., 0., 0., 0., 5.46448072e-03, 0.,
          0., 0., 0., 0., 0., 0., 0., 5.46448072e-03, 0., 5.46448072e-03,
          0., 5.46448072e-03, 0., 0., 0., 0., 0., 0., 0., 0.,
          5.46448072e-03, 0., 5.46448072e-03, 0., 0., 0., 0., 0., 0., 0.,
          5.46448072e-03, 0., 0., 0., 0., 0., 0., 5.46448072e-03, 0., 0.,
          0., 0., 0., 0., 5.46448072e-03, 0., 1.09289614e-02, 0., 0., 0.,
          0., 0., 5.46448072e-03, 5.46448072e-03, 0., 0., 0., 0., 0., 0.,
          0., 0., 0., 0., 5.46448072e-03, 0., 0., 5.46448072e-03, 0., 0.,
          0., 0., 5.46448072e-03, 0., 0., 0., 5.46448072e-03, 0., 0., 0.,
          0., 0., 0., 5.46448072e-03, 0., 5.46448072e-03, 0.,
          5.46448072e-03, 0., 0., 0., 0., 0., 0., 0., 0., 0., 0., 0., 0.,
          0., 0., 0., 5.46448072e-03, 0., 0., 0., 0., 0., 0., 0., 0., 0.,
          0., 5.46448072e-03, 0., 0., 0., 0., 0., 0., 0., 0., 0., 0., 0.,
          0., 0., 0., 5.46448072e-03, 0., 0., 0., 5.46448072e-03, 0., 0.,
          0., 0., 0., 0., 0., 0., 0., 0., 0., 0., 5.46448072e-03, 0., 0.,
          0., 0., 0., 0., 0., 5.46448072e-03, 0., 0., 0., 0., 0., 0., 0.,
          0., 0., 5.46448072e-03, 0., 0., 0., 0., 0., 5.46448072e-03, 0.,
          0., 0., 0., 0., 0., 0., 5.46448072e-03, 0., 5.46448072e-03, 0.,
          0., 0., 0., 0., 0., 5.46448072e-03, 0., 0., 0., 1.09289614e-02,
          0., 5.46448072e-03, 0., 1.09289614e-02, 0., 0., 0., 0., 0., 0.,
          0., 0., 0., 0., 0., 0., 0., 0., 0., 5.46448072e-03, 0.,
          5.46448072e-03, 0., 5.46448072e-03, 0., 0., 5.46448072e-03, 0.,
          0., 0., 5.46448072e-03, 0., 0., 0., 5.46448072e-03,
          5.46448072e-03, 0., 0., 0., 0., 0., 0., 0., 0., 0., 0., 0., 0.,
          0., 0., 0., 5.46448072e-03, 0., 0., 0., 0., 1.09289614e-02, 0.,
          0., 0., 5.46448072e-03, 0., 0., 5.46448072e-03, 0., 0., 0., 0.,
          0., 0., 0., 0., 0., 0., 0., 0., 0., 5.46448072e-03, 0.,
          5.46448072e-03, 0., 0., 5.46448072e-03, 0., 0., 0., 0., 0., 0.,
          0., 0., 0., 0., 0., 0., 0., 0., 0., 5.46448072e-03, 0., 0., 0.,
          0., 0., 0., 0., 0., 0., 0., 0., 0., 5.46448072e-03, 0., 0.,
          1.09289614e-02, 0., 0., 0., 5.46448072e-03, 0., 0., 0., 0., 0.,
          0., 0., 0., 0., 5.46448072e-03, 0., 0., 5.46448072e-03, 0., 0.,
          0., 0., 0., 5.46448072e-03, 1.09289614e-02, 5.46448072e-03, 0.,
          0., 0., 0., 0., 0., 0., 5.46448072e-03, 0., 0., 0.,
          5.46448072e-03, 1.09289614e-02, 0., 0., 0., 0., 0., 0., 0.,
          5.46448072e-03, 0., 0., 0., 0., 0., 5.46448072e-03, 0., 0.,
          1.09289614e-02, 0., 0., 0., 0., 0., 0., 0., 0., 0., 0., 0., 0.,
          0., 0., 0., 0., 0., 0., 0., 0., 1.09289614e-02, 5.46448072e-03,
          0., 0., 0., 0., 0., 1.09289614e-02, 0., 0., 0., 0., 0., 0., 0.,
          0., 0., 0., 0., 5.46448072e-03, 0., 0., 0., 0. ]
      - [ 0., 6.13496918e-03, 0., 0., 0., 1.22699384e-02, 0.,
          6.13496918e-03, 0., 0., 6.13496918e-03, 0., 0., 0.,
          6.13496918e-03, 0., 0., 0., 0., 0., 0., 0., 6.13496918e-03, 0.,
          0., 0., 0., 0., 0., 0., 0., 0., 0., 0., 0., 0., 0.,
          6.13496918e-03, 0., 6.13496918e-03, 0., 0., 0., 0., 0., 0., 0.,
          0., 0., 0., 0., 0., 0., 0., 0., 6.13496918e-03, 0., 0., 0.,
          6.13496918e-03, 0., 0., 0., 0., 0., 0., 0., 0., 6.13496918e-03,
          0., 0., 6.13496918e-03, 0., 0., 0., 0., 0., 0., 0.,
          6.13496918e-03, 0., 0., 0., 0., 0., 0., 0., 0., 6.13496918e-03,
          0., 0., 0., 1.22699384e-02, 1.22699384e-02, 0., 6.13496918e-03,
          6.13496918e-03, 0., 0., 0., 0., 0., 0., 6.13496918e-03, 0., 0.,
          0., 0., 0., 6.13496918e-03, 0., 0., 0., 0., 0., 0., 0., 0., 0.,
          0., 0., 0., 0., 0., 0., 0., 0., 0., 0., 0., 0., 0., 0., 0., 0.,
          0., 0., 0., 0., 6.13496918e-03, 0., 0., 0., 0., 6.13496918e-03,
          0., 0., 0., 0., 0., 0., 0., 0., 0., 0., 0., 0., 0., 0., 0., 0.,
          0., 6.13496918e-03, 0., 0., 6.13496918e-03, 6.13496918e-03,
          6.13496918e-03, 0., 0., 0., 0., 6.13496918e-03, 0., 0., 0., 0.,
          0., 0., 0., 0., 0., 0., 0., 0., 0., 0., 6.13496918e-03, 0., 0.,
          0., 0., 0., 0., 6.13496918e-03, 0., 0., 0., 0., 0., 0., 0., 0.,
          6.13496918e-03, 0., 0., 0., 0., 0., 0., 0., 0., 0., 0., 0., 0.,
          0., 0., 1.22699384e-02, 6.13496918e-03, 6.13496918e-03, 0., 0.,
          0., 0., 0., 0., 0., 0., 6.13496918e-03, 0., 0., 6.13496918e-03,
          0., 0., 0., 0., 0., 6.13496918e-03, 0., 1.22699384e-02,
          6.13496918e-03, 0., 0., 0., 0., 1.22699384e-02, 0., 0., 0., 0.,
          0., 0., 0., 0., 0., 0., 0., 0., 0., 0., 0., 6.13496918e-03, 0.,
          0., 0., 0., 6.13496918e-03, 0., 6.13496918e-03, 0., 0., 0., 0.,
          0., 0., 0., 0., 0., 0., 0., 0., 0., 6.13496918e-03, 0., 0., 0.,
          0., 0., 0., 1.22699384e-02, 0., 0., 0., 0., 0., 6.13496918e-03,
          0., 0., 0., 0., 0., 0., 6.13496918e-03, 6.13496918e-03, 0., 0.,
          0., 0., 0., 0., 0., 0., 0., 0., 0., 0., 0., 0., 0., 0., 0., 0.,
          6.13496918e-03, 0., 0., 0., 0., 0., 0., 0., 0., 0., 0., 0., 0.,
          0., 0., 6.13496918e-03, 0., 0., 0., 0., 0., 0., 0.,
          6.13496918e-03, 6.13496918e-03, 6.13496918e-03, 0., 0., 0., 0.,
          0., 0., 0., 0., 0., 0., 0., 0., 0., 0., 0., 0., 0., 0., 0., 0.,
          0., 0., 0., 0., 0., 0., 0., 0., 0., 0., 0., 0., 0., 0., 0., 0.,
          0., 0., 0., 0., 0., 0., 0., 0., 0., 0., 6.13496918e-03, 0.,
          6.13496918e-03, 0., 0., 0., 0., 0., 0., 0., 0., 0.,
          6.13496918e-03, 0., 0., 0., 0., 0., 0., 0., 0., 1.22699384e-02,
          0., 0., 0., 0., 0., 0., 0., 6.13496918e-03, 0., 1.84049085e-02,
          0., 0., 0., 0., 0., 1.22699384e-02, 0., 0., 0., 0., 0., 0., 0.,
          0., 0., 0., 0., 0., 0., 0., 0., 0., 0., 6.13496918e-03, 0., 0.,
          0., 0., 0., 6.13496918e-03, 0., 0., 0., 0., 0., 0.,
          6.13496918e-03, 0., 1.22699384e-02, 0., 0., 0., 0., 0.,
          1.22699384e-02, 0., 0., 0., 0., 6.13496918e-03, 6.13496918e-03,
          6.13496918e-03, 0., 0., 0., 0., 0., 0., 0., 0., 0.,
          1.84049085e-02, 0., 0., 0., 0., 0., 0., 0., 0., 0.,
          6.13496918e-03, 0., 0., 0., 0., 0., 0., 0., 0., 0., 0., 0.,
          6.13496918e-03, 0., 6.13496918e-03, 6.13496918e-03, 0.,
          6.13496918e-03, 0., 0., 0., 0., 6.13496918e-03, 0., 0., 0., 0.,
          0., 0., 0., 0., 0., 0., 0., 0., 0., 0., 0., 0., 0., 0., 0., 0.,
          6.13496918e-03, 0., 0., 0., 0., 0., 0., 0., 0., 0., 0.,
          1.22699384e-02, 6.13496918e-03, 0., 0., 0., 0., 0., 0., 0., 0.,
          0., 0., 6.13496918e-03, 0., 0., 0., 1.22699384e-02, 0.,
          6.13496918e-03, 0., 0., 0., 0., 0., 0., 0., 0., 0., 0., 0., 0.,
          0., 0., 0., 0., 0., 0., 0., 0., 6.13496918e-03, 0., 0., 0., 0.,
          0., 0., 0., 0., 0., 0., 0., 0., 0., 0., 0., 0., 0., 0., 0.,
          6.13496918e-03, 0., 0., 6.13496918e-03, 0., 0., 0., 0.,
          6.13496918e-03, 0., 0., 6.13496918e-03, 0., 0., 6.13496918e-03,
          0., 0., 0., 0., 0., 0., 0., 0., 6.13496918e-03, 0.,
          6.13496918e-03, 0., 0., 0., 0., 0., 0., 0., 0., 0., 0., 0., 0.,
          0., 0., 0., 0., 0., 0., 0., 6.13496918e-03, 0., 0.,
          6.13496918e-03, 0., 0., 0., 0., 6.13496918e-03, 0., 0., 0., 0.,
          0., 0., 0., 0., 0., 0., 0., 0., 6.13496918e-03, 0., 0., 0.,
          6.13496918e-03, 0., 0., 0., 0., 6.13496918e-03, 0., 0., 0., 0.,
          0., 0., 0., 0., 0., 6.13496918e-03, 0., 0., 0., 0., 0., 0., 0.,
          0., 0., 0., 0., 0., 0., 0., 1.22699384e-02, 0., 0., 0.,
          6.13496918e-03, 0., 0., 6.13496918e-03, 6.13496918e-03, 0., 0.,
          0., 0., 0., 0., 0., 0., 0., 0., 0., 0., 0., 0., 0., 0., 0., 0.,
          0., 0., 0., 6.13496918e-03, 0., 0., 0., 0., 6.13496918e-03, 0.,
          0., 0., 0., 0., 0., 0., 0., 0., 0., 0., 0., 0., 0., 0., 0.,
          6.13496918e-03, 0., 0., 0., 0., 0., 0., 6.13496918e-03, 0., 0.,
          0., 6.13496918e-03, 0., 0., 0., 0., 0., 1.22699384e-02, 0., 0.,
          0., 6.13496918e-03, 0., 0., 0., 0., 0., 0., 0., 0., 0., 0., 0.,
          0., 0., 0., 6.13496918e-03, 0., 0., 0., 0., 0., 0., 0., 0., 0.,
          0., 0., 0., 0., 0., 0., 0., 0., 0., 0., 0., 0., 0., 0., 0.,
          6.13496918e-03, 0., 0., 0., 0., 0., 0., 6.13496918e-03, 0., 0.,
          0., 0., 0., 0., 0., 0., 0., 0., 0., 6.13496918e-03, 0., 0., 0.,
          0., 1.22699384e-02, 0., 0., 0., 0., 0., 6.13496918e-03,
          6.13496918e-03, 0., 0., 6.13496918e-03, 0., 0., 6.13496918e-03,
          0., 0., 6.13496918e-03, 0., 0., 0., 0., 0., 0., 0., 0., 0., 0.,
          0., 0., 0., 0., 0., 0., 0., 6.13496918e-03, 0., 0., 0., 0., 0.,
          0., 0., 0., 0., 0., 0., 0., 0., 0., 0., 0., 0., 6.13496918e-03,
          0., 0., 0., 6.13496918e-03, 0., 0., 0., 0., 0., 0., 0.,
          5.52147217e-02, 0., 0., 0., 0., 6.13496918e-03, 0., 0., 0., 0.,
          0., 0., 0., 0., 0., 0., 0., 0., 0., 0., 0., 0., 0., 0., 0., 0.,
          1.22699384e-02, 0., 0., 0., 0., 0., 0., 0., 6.13496918e-03, 0.,
          0., 0., 0., 0., 0., 0., 0., 6.13496918e-03, 0., 0., 0.,
          1.22699384e-02, 0., 0., 0., 0., 0., 0., 0., 0., 0., 0., 0.,
          6.13496918e-03, 0., 6.13496918e-03, 0., 0., 0., 6.13496918e-03,
          0., 0., 0., 0., 0., 0., 0., 0., 0., 0., 0., 6.13496918e-03, 0.,
          6.13496918e-03, 0., 0., 0., 0., 0., 6.13496918e-03, 0.,
          1.22699384e-02 ]
      - [ 0., 0., 0., 0., 0., 5.29100513e-03, 0., 0., 0., 0., 0., 0., 0.,
          0., 5.29100513e-03, 0., 0., 5.29100513e-03, 0., 5.29100513e-03,
          0., 0., 0., 0., 0., 0., 0., 0., 0., 0., 5.29100513e-03, 0., 0.,
          0., 0., 0., 0., 0., 5.29100513e-03, 0., 0., 0., 0., 0., 0., 0.,
          5.29100513e-03, 0., 0., 0., 0., 0., 0., 0., 0., 0., 0., 0., 0.,
          0., 0., 0., 5.29100513e-03, 0., 0., 0., 0., 0., 0.,
          5.29100513e-03, 5.29100513e-03, 0., 0., 0., 1.05820103e-02, 0.,
          0., 0., 0., 0., 0., 0., 0., 0., 0., 0., 0., 0., 0., 0.,
          5.29100513e-03, 0., 0., 0., 0., 5.29100513e-03, 0., 0., 0., 0.,
          0., 5.29100513e-03, 1.05820103e-02, 0., 5.29100513e-03, 0., 0.,
          5.29100513e-03, 0., 1.05820103e-02, 0., 0., 0., 0., 0., 0., 0.,
          0., 0., 0., 0., 0., 5.29100513e-03, 0., 0., 0., 0., 0., 0.,
          5.29100513e-03, 0., 0., 0., 0., 0., 0., 0., 5.29100513e-03, 0.,
          0., 0., 0., 0., 0., 0., 0., 0., 0., 0., 5.29100513e-03, 0., 0.,
          0., 0., 0., 0., 0., 0., 0., 0., 0., 0., 0., 0., 0., 0., 0., 0.,
          0., 0., 0., 0., 0., 0., 0., 0., 0., 0., 0., 0., 0., 0.,
          5.29100513e-03, 0., 1.05820103e-02, 0., 0., 0., 0., 0.,
          5.29100513e-03, 0., 0., 0., 0., 0., 0., 0., 0., 0.,
          5.29100513e-03, 0., 0., 0., 0., 5.29100513e-03, 5.29100513e-03,
          0., 5.29100513e-03, 0., 0., 0., 0., 0., 0., 0., 0., 0., 0., 0.,
          0., 5.29100513e-03, 0., 0., 0., 0., 0., 0., 0., 0.,
          5.29100513e-03, 0., 5.29100513e-03, 0., 0., 0., 5.29100513e-03,
          0., 0., 0., 0., 0., 0., 0., 0., 0., 0., 0., 0., 0., 0., 0., 0.,
          0., 0., 0., 0., 0., 0., 0., 0., 0., 0., 0., 0., 0., 0.,
          5.29100513e-03, 0., 0., 0., 0., 0., 0., 0., 0., 0., 0., 0.,
          1.05820103e-02, 1.58730149e-02, 0., 0., 5.29100513e-03, 0., 0.,
          0., 0., 0., 5.29100513e-03, 0., 0., 0., 0., 0., 0., 0., 0.,
          5.29100513e-03, 0., 0., 5.29100513e-03, 0., 0., 5.29100513e-03,
          0., 0., 0., 0., 0., 0., 0., 0., 0., 0., 0., 0., 0., 0., 0., 0.,
          0., 0., 0., 0., 0., 0., 0., 0., 0., 0., 0., 0., 0., 0., 0., 0.,
          5.29100513e-03, 0., 5.29100513e-03, 0., 5.29100513e-03, 0., 0.,
          5.29100513e-03, 0., 0., 0., 0., 0., 0., 0., 0., 0.,
          5.29100513e-03, 0., 0., 5.29100513e-03, 0., 0., 0.,
          5.29100513e-03, 0., 0., 0., 0., 5.29100513e-03, 0., 0., 0., 0.,
          0., 1.05820103e-02, 0., 0., 0., 5.29100513e-03, 0., 0., 0., 0.,
          0., 0., 0., 0., 0., 0., 0., 0., 0., 5.29100513e-03, 0., 0.,
          5.29100513e-03, 0., 0., 0., 0., 0., 0., 0., 0., 0., 0., 0., 0.,
          0., 5.29100513e-03, 0., 0., 5.29100513e-03, 0., 0., 0.,
          1.05820103e-02, 0., 1.58730149e-02, 0., 0., 0., 0., 0., 0.,
          5.29100513e-03, 5.29100513e-03, 0., 5.29100513e-03,
          1.05820103e-02, 0., 0., 0., 0., 5.29100522e-02, 0., 0., 0., 0.,
          0., 0., 0., 5.29100513e-03, 0., 0., 0., 0., 0., 0., 0., 0., 0.,
          0., 0., 0., 0., 0., 0., 1.05820103e-02, 0., 5.29100513e-03, 0.,
          0., 0., 0., 0., 0., 0., 5.29100513e-03, 0., 0., 0., 0.,
          5.29100513e-03, 0., 0., 0., 0., 0., 0., 0., 0., 5.29100513e-03,
          0., 0., 1.05820103e-02, 5.29100513e-03, 0., 0., 0., 0., 0., 0.,
          0., 0., 0., 0., 0., 0., 0., 0., 0., 0., 0., 5.29100513e-03, 0.,
          0., 0., 5.29100513e-03, 0., 5.29100513e-03, 0., 5.29100513e-03,
          0., 0., 0., 5.29100513e-03, 5.29100513e-03, 0., 0., 0., 0., 0.,
          0., 0., 5.29100513e-03, 0., 0., 0., 0., 1.05820103e-02,
          5.29100513e-03, 0., 0., 0., 5.29100513e-03, 0., 0., 0., 0., 0.,
          0., 5.29100513e-03, 5.29100513e-03, 0., 0., 0., 0., 0.,
          1.58730149e-02, 0., 0., 5.29100513e-03, 0., 0., 0., 0., 0., 0.,
          0., 0., 0., 5.29100513e-03, 0., 0., 0., 0., 0., 5.29100513e-03,
          0., 0., 0., 0., 0., 0., 0., 0., 0., 0., 0., 0., 0., 0.,
          1.05820103e-02, 0., 0., 0., 0., 0., 0., 0., 0., 5.29100513e-03,
          0., 0., 5.29100513e-03, 0., 0., 0., 5.29100513e-03, 0.,
          5.29100513e-03, 0., 0., 0., 0., 0., 0., 0., 0., 0., 0., 0., 0.,
          0., 0., 5.29100513e-03, 0., 0., 0., 0., 0., 5.29100513e-03,
          5.29100513e-03, 5.29100513e-03, 0., 0., 5.29100513e-03, 0., 0.,
          0., 0., 0., 0., 0., 0., 0., 0., 0., 0., 5.29100513e-03,
          5.29100513e-03, 0., 0., 5.29100513e-03, 0., 0., 0., 0., 0.,
          5.29100513e-03, 5.29100513e-03, 0., 0., 0., 0., 1.05820103e-02,
          0., 0., 0., 0., 0., 0., 0., 0., 0., 5.29100513e-03, 0., 0., 0.,
          0., 0., 0., 0., 5.29100513e-03, 0., 0., 5.29100513e-03,
          5.29100513e-03, 0., 0., 0., 0., 0., 5.29100513e-03, 0.,
          5.29100513e-03, 0., 0., 0., 0., 5.29100513e-03, 5.29100513e-03,
          0., 0., 0., 0., 0., 0., 0., 0., 0., 0., 0., 0., 5.29100513e-03,
          0., 0., 0., 0., 0., 0., 0., 5.29100513e-03, 0., 0., 0., 0.,
          5.29100513e-03, 0., 0., 0., 0., 0., 0., 0., 0., 0., 0., 0., 0.,
          5.29100513e-03, 5.29100513e-03, 0., 0., 0., 0., 0.,
          5.29100513e-03, 0., 0., 0., 0., 0., 0., 0., 5.29100513e-03, 0.,
          0., 0., 0., 0., 0., 0., 0., 0., 0., 0., 0., 0., 0., 0., 0., 0.,
          0., 0., 0., 5.29100513e-03, 0., 0., 0., 0., 0., 0.,
          5.29100513e-03, 0., 0., 5.29100513e-03, 0., 0., 0., 0., 0., 0.,
          0., 0., 5.29100513e-03, 0., 0., 5.29100513e-03, 0., 0., 0., 0.,
          0., 0., 0., 0., 0., 0., 0., 5.29100513e-03, 0., 0., 0., 0., 0.,
          0., 5.29100513e-03, 0., 0., 5.29100513e-03, 0., 0., 0., 0.,
          1.05820103e-02, 0., 0., 0., 0., 0., 5.29100513e-03, 0.,
          5.29100513e-03, 0., 5.29100513e-03, 0., 0., 0., 0., 0., 0., 0.,
          0., 5.29100513e-03, 0., 0., 0., 0., 0., 0., 0., 0., 0.,
          5.29100513e-03, 0., 0., 0., 5.29100513e-03, 1.05820103e-02, 0.,
          0., 0., 0., 0., 0., 0., 0., 0., 0., 0., 0., 0., 0., 0., 0., 0.,
          0., 0., 0., 0., 0., 5.29100513e-03, 0., 0., 1.05820103e-02, 0.,
          0., 0., 0., 0., 0., 0., 5.29100513e-03, 5.29100513e-03, 0., 0.,
          0., 0., 0., 0., 0., 5.29100513e-03, 0., 0., 0., 5.29100513e-03,
          0., 5.29100513e-03, 5.29100513e-03, 0., 0., 0., 0., 0., 0., 0.,
          5.29100513e-03, 0., 0., 5.29100513e-03, 0., 0., 5.29100513e-03,
          0., 0., 5.29100513e-03, 0., 0., 5.29100513e-03, 0.,
          5.29100513e-03, 0., 0., 0., 5.29100513e-03, 0., 0., 0., 0., 0.,
          0., 0., 0., 0., 0., 5.29100513e-03, 0., 0., 0., 0., 0., 0., 0.,
          0., 0., 0., 0., 0., 0., 0., 0., 0., 0., 0., 0., 1.05820103e-02,
          0., 5.29100513e-03, 5.29100513e-03, 0., 5.29100513e-03, 0., 0.,
          0., 0., 0., 0., 0., 0., 0., 0., 0., 0., 0., 0., 0.,
          1.05820103e-02, 0., 0., 0., 0., 0., 0., 0., 0., 0.,
          5.29100513e-03, 0., 0., 0., 0., 0., 0., 0., 0., 0., 0.,
          5.29100513e-03, 0., 0. ]
      - [ 0., 0., 4.18410031e-03, 0., 0., 0., 0., 1.25523005e-02, 0.,
          4.18410031e-03, 0., 0., 0., 0., 4.18410031e-03, 0., 0., 0., 0.,
          0., 0., 0., 0., 0., 0., 0., 0., 0., 0., 0., 0., 4.18410031e-03,
          4.18410031e-03, 0., 0., 0., 0., 0., 0., 4.18410031e-03, 0., 0.,
          0., 0., 0., 0., 0., 0., 4.18410031e-03, 0., 4.18410031e-03, 0.,
          4.18410031e-03, 0., 0., 0., 0., 0., 0., 0., 0., 0., 0., 0.,
          4.18410031e-03, 0., 0., 0., 4.18410031e-03, 4.18410031e-03, 0.,
          0., 0., 0., 0., 0., 4.18410031e-03, 0., 0., 0., 0., 0., 0., 0.,
          0., 0., 0., 0., 0., 0., 0., 0., 0., 0., 0., 0., 0., 0., 0., 0.,
          0., 0., 0., 0., 4.18410031e-03, 0., 0., 0., 0., 0., 0., 0., 0.,
          0., 0., 0., 4.18410031e-03, 4.18410031e-03, 0., 4.18410031e-03,
          0., 4.18410031e-03, 0., 0., 0., 8.36820062e-03, 0., 0., 0., 0.,
          0., 0., 0., 0., 0., 0., 0., 4.18410031e-03, 0., 0., 0., 0., 0.,
          0., 0., 0., 4.18410031e-03, 0., 4.18410031e-03, 0.,
          1.25523005e-02, 0., 0., 0., 4.18410031e-03, 4.18410031e-03, 0.,
          0., 0., 0., 0., 0., 4.18410031e-03, 0., 0., 0., 4.18410031e-03,
          0., 4.18410031e-03, 0., 0., 0., 0., 0., 0., 4.18410031e-03,
          4.18410031e-03, 0., 0., 0., 0., 0., 0., 0., 0., 0., 0.,
          4.18410031e-03, 0., 4.18410031e-03, 0., 0., 0., 0., 0., 0., 0.,
          4.18410031e-03, 0., 0., 0., 0., 0., 0., 0., 0., 4.18410031e-03,
          0., 0., 4.18410031e-03, 0., 0., 4.18410031e-03, 4.18410031e-03,
          0., 0., 0., 0., 0., 0., 0., 4.18410031e-03, 0., 4.18410031e-03,
          0., 0., 0., 0., 0., 0., 4.18410031e-03, 0., 0., 0., 0., 0., 0.,
          0., 0., 0., 0., 4.18410031e-03, 0., 4.18410031e-03, 0., 0., 0.,
          0., 4.18410031e-03, 4.18410031e-03, 4.18410031e-03, 0., 0., 0.,
          0., 0., 4.18410031e-03, 0., 0., 0., 0., 0., 0., 4.18410031e-03,
          0., 0., 0., 4.18410031e-03, 0., 0., 0., 4.18410031e-03, 0., 0.,
          0., 0., 0., 0., 0., 4.18410031e-03, 0., 0., 0., 0., 0., 0., 0.,
          8.36820062e-03, 0., 0., 0., 4.18410031e-03, 0., 0., 0., 0., 0.,
          0., 0., 0., 4.18410031e-03, 4.18410031e-03, 4.18410031e-03,
          8.36820062e-03, 4.18410031e-03, 0., 4.18410031e-03, 0., 0., 0.,
          0., 0., 0., 0., 0., 0., 0., 0., 0., 4.18410031e-03, 0., 0.,
          1.25523005e-02, 4.18410031e-03, 0., 0., 0., 0., 0.,
          4.18410031e-03, 0., 0., 4.18410031e-03, 0., 8.36820062e-03, 0.,
          0., 0., 4.18410031e-03, 0., 0., 0., 0., 0., 0., 0., 0., 0.,
          4.18410031e-03, 4.18410031e-03, 0., 4.18410031e-03,
          8.36820062e-03, 0., 0., 0., 0., 0., 4.18410031e-03, 0., 0., 0.,
          0., 0., 0., 8.36820062e-03, 0., 4.18410031e-03, 0., 0., 0., 0.,
          0., 0., 0., 0., 0., 0., 0., 4.18410031e-03, 0., 0., 0., 0., 0.,
          0., 4.18410031e-03, 4.18410031e-03, 0., 0., 0., 0.,
          4.18410031e-03, 4.18410031e-03, 0., 0., 0., 0., 4.18410031e-03,
          0., 0., 0., 0., 0., 0., 0., 0., 4.18410031e-03, 0.,
          4.18410031e-03, 0., 0., 0., 4.18410031e-03, 0., 0., 0., 0., 0.,
          0., 0., 0., 0., 0., 0., 0., 0., 0., 0., 0., 8.36820062e-03, 0.,
          2.92887017e-02, 0., 0., 4.18410031e-03, 0., 0., 0.,
          4.18410031e-03, 0., 0., 0., 0., 0., 0., 4.18410031e-03,
          4.18410031e-03, 4.18410031e-03, 0., 0., 0., 0., 0., 0., 0., 0.,
          4.18410031e-03, 4.18410031e-03, 0., 0., 0., 0., 0., 0., 0., 0.,
          4.18410031e-03, 0., 0., 0., 0., 4.18410031e-03, 0., 0., 0.,
          4.18410031e-03, 0., 0., 0., 8.36820062e-03, 0., 4.18410031e-03,
          0., 0., 0., 0., 4.18410031e-03, 0., 4.18410031e-03,
          4.18410031e-03, 0., 0., 0., 0., 0., 0., 0., 0., 0., 0., 0., 0.,
          0., 0., 0., 0., 0., 4.18410031e-03, 4.18410031e-03, 0., 0.,
          4.18410031e-03, 0., 0., 0., 4.18410031e-03, 4.18410031e-03, 0.,
          0., 0., 0., 0., 0., 0., 0., 0., 0., 0., 0., 0., 0.,
          4.18410031e-03, 0., 0., 4.18410031e-03, 0., 0., 0.,
          4.18410031e-03, 0., 0., 0., 0., 0., 0., 0., 8.36820062e-03,
          4.18410031e-03, 0., 0., 0., 8.36820062e-03, 0., 0., 0., 0.,
          4.18410031e-03, 0., 0., 0., 8.36820062e-03, 0., 0., 0., 0., 0.,
          0., 0., 0., 0., 0., 0., 0., 4.18410031e-03, 0., 0., 0., 0., 0.,
          0., 0., 0., 0., 0., 0., 0., 4.18410031e-03, 0., 8.36820062e-03,
          0., 0., 0., 0., 0., 0., 0., 0., 0., 0., 0., 0., 0., 0., 0.,
          4.18410031e-03, 0., 0., 8.36820062e-03, 0., 4.18410031e-03,
          4.18410031e-03, 0., 0., 0., 0., 0., 0., 0., 0., 0., 0., 0., 0.,
          4.18410031e-03, 4.18410031e-03, 0., 4.18410031e-03, 0., 0., 0.,
          0., 0., 0., 0., 0., 0., 4.18410031e-03, 0., 0., 0., 0., 0., 0.,
          4.18410031e-03, 0., 0., 0., 0., 0., 4.18410031e-03, 0., 0., 0.,
          0., 0., 4.18410031e-03, 4.18410031e-03, 0., 0., 0.,
          4.18410031e-03, 0., 0., 0., 0., 0., 0., 0., 0., 4.18410031e-03,
          0., 0., 0., 0., 0., 0., 0., 0., 4.18410031e-03, 0., 0., 0., 0.,
          4.18410031e-03, 4.18410031e-03, 8.36820062e-03, 0.,
          4.18410031e-03, 0., 0., 0., 0., 0., 0., 0., 0., 0.,
          8.36820062e-03, 0., 0., 0., 4.18410031e-03, 0., 0., 0., 0., 0.,
          0., 0., 0., 0., 0., 0., 4.18410031e-03, 0., 0., 4.18410031e-03,
          0., 0., 4.18410031e-03, 0., 0., 0., 0., 0., 4.18410031e-03, 0.,
          0., 0., 0., 1.25523005e-02, 4.18410031e-03, 0., 0., 0., 0., 0.,
          0., 0., 0., 0., 0., 0., 0., 0., 4.18410031e-03, 0., 0., 0., 0.,
          4.18410031e-03, 0., 0., 0., 0., 0., 0., 0., 0., 4.18410031e-03,
          0., 0., 0., 4.18410031e-03, 4.18410031e-03, 0., 0., 0., 0., 0.,
          0., 0., 0., 4.18410031e-03, 0., 0., 0., 0., 0., 4.18410031e-03,
          4.18410031e-03, 0., 0., 0., 0., 0., 0., 0., 0., 0., 0., 0.,
          4.18410031e-03, 0., 4.18410031e-03, 4.18410031e-03, 0., 0.,
          4.18410031e-03, 0., 0., 0., 0., 0., 0., 0., 0., 0., 0., 0.,
          4.18410031e-03, 0., 8.36820062e-03, 0., 0., 0., 0., 0., 0., 0.,
          8.36820062e-03, 0., 0., 4.18410031e-03, 0., 0., 0., 0., 0.,
          4.18410031e-03, 4.18410031e-03, 0., 4.18410031e-03, 0., 0., 0.,
          4.18410031e-03, 0., 0., 0., 4.18410031e-03, 0., 0., 0.,
          4.18410031e-03, 4.18410031e-03, 4.18410031e-03, 0., 0., 0., 0.,
          0., 0., 8.36820062e-03, 4.18410031e-03, 0., 0., 0., 0., 0., 0.,
          0., 4.18410031e-03, 8.36820062e-03, 0., 0., 0., 0., 0., 0., 0.,
          0., 4.18410031e-03, 4.18410031e-03, 0., 0., 0., 4.18410031e-03,
          0., 4.18410031e-03, 4.18410031e-03, 0., 0., 0., 4.18410031e-03,
          0., 0., 0., 4.18410031e-03, 0., 0., 0., 0., 0., 0., 0., 0., 0.,
          0., 0., 0., 0., 0., 0., 4.18410031e-03, 0., 0., 4.18410031e-03,
          0., 0., 0., 4.18410031e-03, 4.18410031e-03, 0., 0.,
          8.36820062e-03, 4.18410031e-03, 0., 0., 0., 0., 0.,
          8.36820062e-03, 0., 0., 0., 0., 0., 0., 0., 4.18410031e-03, 0.,
          0., 0., 4.18410031e-03, 0., 0., 4.18410031e-03, 0., 0., 0., 0.,
          8.36820062e-03, 0., 0., 4.18410031e-03, 0., 0., 0., 0., 0.,
          4.18410031e-03, 0., 0., 0., 0., 0., 0., 8.36820062e-03,
          8.36820062e-03, 0., 0., 0., 0., 0., 0., 0., 0., 4.18410031e-03,
          0., 0., 0., 0., 0., 4.18410031e-03, 0., 0., 0., 0., 0.,
          4.18410031e-03, 0., 4.18410031e-03, 0., 0., 0., 8.36820062e-03,
          0., 4.18410031e-03, 4.18410031e-03, 0., 0., 0., 0.,
          4.18410031e-03, 0., 0., 0., 0. ]
      - [ 0., 0., 0., 0., 0., 0., 0., 5.52486209e-03, 0., 0., 0., 0., 0.,
          0., 1.10497242e-02, 0., 5.52486209e-03, 5.52486209e-03, 0., 0.,
          0., 0., 0., 0., 0., 0., 0., 5.52486209e-03, 0., 0.,
          5.52486209e-03, 0., 0., 5.52486209e-03, 0., 0., 0., 0., 0., 0.,
          0., 0., 0., 0., 0., 0., 0., 0., 0., 0., 5.52486209e-03,
          5.52486209e-03, 0., 0., 0., 5.52486209e-03, 0., 0., 0., 0., 0.,
          0., 0., 0., 0., 0., 0., 5.52486209e-03, 5.52486209e-03, 0., 0.,
          0., 0., 0., 5.52486209e-03, 0., 5.52486209e-03, 0., 0., 0., 0.,
          5.52486209e-03, 0., 0., 0., 0., 0., 0., 0., 0., 0., 0., 0., 0.,
          0., 0., 0., 0., 0., 1.10497242e-02, 0., 5.52486209e-03,
          5.52486209e-03, 1.65745858e-02, 5.52486209e-03, 0., 0., 0.,
          5.52486209e-03, 0., 5.52486209e-03, 0., 0., 0., 5.52486209e-03,
          0., 5.52486209e-03, 0., 0., 0., 0., 0., 5.52486209e-03, 0., 0.,
          0., 0., 0., 0., 0., 5.52486209e-03, 0., 0., 0., 0.,
          5.52486209e-03, 0., 1.10497242e-02, 0., 5.52486209e-03,
          5.52486209e-03, 0., 0., 0., 0., 0., 0., 0., 0., 0.,
          5.52486209e-03, 0., 0., 0., 1.10497242e-02, 0., 0., 0., 0., 0.,
          0., 0., 0., 0., 0., 0., 0., 0., 0., 0., 0., 0., 0., 0., 0., 0.,
          0., 0., 0., 0., 0., 0., 0., 0., 0., 0., 0., 5.52486209e-03, 0.,
          5.52486209e-03, 0., 0., 0., 0., 0., 0., 0., 0., 0., 0., 0., 0.,
          5.52486209e-03, 5.52486209e-03, 5.52486209e-03, 0.,
          5.52486209e-03, 0., 0., 0., 0., 5.52486209e-03, 0.,
          5.52486209e-03, 0., 0., 0., 0., 0., 0., 0., 0., 0., 0., 0., 0.,
          0., 5.52486209e-03, 0., 5.52486209e-03, 0., 0., 0., 0.,
          5.52486209e-03, 0., 0., 0., 0., 0., 0., 0., 0., 0.,
          5.52486209e-03, 0., 0., 0., 0., 0., 0., 0., 0., 0., 0.,
          5.52486209e-03, 0., 0., 0., 0., 0., 0., 0., 0., 0., 0., 0.,
          5.52486209e-03, 0., 0., 0., 0., 0., 5.52486209e-03, 0., 0., 0.,
          0., 0., 0., 0., 0., 5.52486209e-03, 0., 0., 0., 0.,
          5.52486209e-03, 0., 0., 0., 0., 5.52486209e-03, 5.52486209e-03,
          0., 0., 0., 0., 0., 0., 0., 0., 1.65745858e-02, 0.,
          5.52486209e-03, 0., 0., 0., 0., 0., 0., 0., 0., 0.,
          5.52486209e-03, 0., 0., 0., 0., 0., 0., 0., 5.52486209e-03, 0.,
          0., 0., 0., 0., 0., 0., 0., 0., 0., 0., 5.52486209e-03, 0., 0.,
          0., 0., 0., 0., 5.52486209e-03, 0., 0., 0., 5.52486209e-03, 0.,
          0., 0., 0., 0., 0., 0., 0., 0., 5.52486209e-03, 0.,
          5.52486209e-03, 5.52486209e-03, 0., 0., 0., 5.52486209e-03, 0.,
          0., 0., 0., 0., 0., 0., 0., 0., 0., 0., 0., 0., 0., 0., 0., 0.,
          0., 0., 0., 0., 0., 0., 0., 5.52486209e-03, 0., 0., 0., 0., 0.,
          0., 0., 0., 0., 5.52486209e-03, 0., 0., 5.52486209e-03, 0., 0.,
          0., 0., 0., 0., 0., 0., 1.65745858e-02, 0., 0., 0., 0., 0.,
          5.52486209e-03, 0., 0., 0., 0., 0., 5.52486209e-03, 0., 0., 0.,
          0., 0., 0., 0., 0., 0., 0., 3.31491716e-02, 5.52486209e-03, 0.,
          0., 0., 0., 5.52486209e-03, 5.52486209e-03, 0., 0., 0., 0., 0.,
          0., 0., 0., 5.52486209e-03, 0., 0., 0., 0., 0., 0.,
          5.52486209e-03, 1.10497242e-02, 0., 0., 0., 0., 0., 0., 0., 0.,
          0., 0., 0., 0., 0., 0., 0., 0., 0., 0., 0., 0., 0., 0., 0.,
          5.52486209e-03, 0., 0., 0., 0., 0., 0., 0., 5.52486209e-03, 0.,
          0., 0., 1.10497242e-02, 5.52486209e-03, 0., 0., 0., 0., 0., 0.,
          0., 0., 0., 0., 0., 0., 5.52486209e-03, 0., 5.52486209e-03,
          5.52486209e-03, 1.10497242e-02, 0., 5.52486209e-03, 0.,
          5.52486209e-03, 0., 0., 0., 0., 0., 0., 5.52486209e-03, 0., 0.,
          0., 0., 0., 0., 0., 0., 0., 5.52486209e-03, 0., 5.52486209e-03,
          0., 0., 0., 1.10497242e-02, 0., 0., 0., 5.52486209e-03, 0., 0.,
          0., 0., 0., 5.52486209e-03, 0., 0., 0., 0., 0., 5.52486209e-03,
          5.52486209e-03, 0., 0., 0., 0., 0., 0., 0., 0., 0., 0., 0., 0.,
          5.52486209e-03, 0., 5.52486209e-03, 0., 0., 0., 5.52486209e-03,
          0., 0., 0., 0., 5.52486209e-03, 0., 1.10497242e-02, 0., 0., 0.,
          0., 0., 0., 0., 0., 0., 0., 0., 0., 0., 0., 0., 0., 0.,
          5.52486209e-03, 0., 0., 0., 0., 0., 0., 0., 0., 0.,
          1.10497242e-02, 0., 0., 0., 0., 0., 5.52486209e-03, 0., 0., 0.,
          0., 0., 0., 0., 0., 5.52486209e-03, 0., 0., 0., 0., 0., 0., 0.,
          0., 0., 0., 0., 0., 5.52486209e-03, 0., 0., 0., 0.,
          5.52486209e-03, 0., 0., 0., 0., 0., 0., 0., 0., 0.,
          5.52486209e-03, 0., 0., 0., 0., 0., 5.52486209e-03, 0., 0., 0.,
          0., 0., 0., 0., 0., 0., 5.52486209e-03, 5.52486209e-03, 0., 0.,
          0., 0., 0., 0., 0., 0., 5.52486209e-03, 0., 0., 5.52486209e-03,
          0., 0., 5.52486209e-03, 0., 0., 5.52486209e-03, 0., 0., 0., 0.,
          0., 5.52486209e-03, 0., 0., 5.52486209e-03, 0., 1.10497242e-02,
          0., 0., 0., 0., 5.52486209e-03, 0., 0., 5.52486209e-03, 0., 0.,
          0., 0., 0., 0., 0., 0., 0., 0., 0., 5.52486209e-03, 0., 0.,
          1.10497242e-02, 0., 0., 0., 5.52486209e-03, 5.52486209e-03, 0.,
          0., 0., 0., 0., 0., 0., 0., 0., 0., 0., 0., 5.52486209e-03,
          1.65745858e-02, 5.52486209e-03, 0., 0., 0., 0., 0., 0., 0., 0.,
          0., 0., 0., 0., 0., 0., 0., 0., 0., 0., 0., 0., 0., 0., 0., 0.,
          0., 0., 0., 0., 0., 0., 0., 0., 0., 0., 0., 0., 0., 0., 0., 0.,
          0., 0., 0., 1.10497242e-02, 0., 0., 5.52486209e-03, 0., 0., 0.,
          0., 0., 0., 0., 5.52486209e-03, 0., 0., 0., 0., 0., 0.,
          5.52486209e-03, 0., 5.52486209e-03, 0., 0., 0., 0., 0., 0., 0.,
          0., 0., 5.52486209e-03, 0., 0., 0., 0., 0., 5.52486209e-03, 0.,
          0., 5.52486209e-03, 0., 0., 0., 0., 0., 0., 0., 0., 0.,
          5.52486209e-03, 0., 0., 0., 5.52486209e-03, 0., 0., 0., 0., 0.,
          5.52486209e-03, 0., 0., 0., 0., 0., 0., 0., 0., 0., 0., 0., 0.,
          0., 0., 0., 0., 0., 0., 0., 5.52486209e-03, 1.10497242e-02, 0.,
          0., 0., 0., 0., 0., 0., 0., 0., 0., 0., 0., 0., 0., 0.,
          5.52486209e-03, 0., 0., 0., 0., 0., 0., 0., 0., 0., 0., 0.,
          5.52486209e-03, 0., 0., 0., 0., 0., 0., 0., 0., 0., 0., 0., 0.,
          0., 0., 0., 0., 0., 0., 0., 5.52486209e-03, 0., 0., 0., 0., 0.,
          0., 1.10497242e-02, 0., 0., 0., 0., 0., 0., 0., 0., 0., 0., 0.,
          0., 0., 0., 0., 5.52486209e-03, 0., 0., 0., 0., 0., 0., 0., 0.,
          5.52486209e-03, 0., 5.52486209e-03, 0., 0., 0., 0., 0.,
          5.52486209e-03, 0., 0., 5.52486209e-03, 0., 0., 0.,
          5.52486209e-03, 0., 0., 0., 0., 0., 5.52486209e-03, 0., 0., 0.,
          0., 0., 0., 0., 0., 0., 0., 0., 0., 0., 0., 0., 0., 0., 0.,
          5.52486209e-03, 0., 0., 0., 0., 0., 0., 0., 0., 5.52486209e-03,
          0., 1.65745858e-02, 0., 0., 0., 0. ]
      - [ 0., 3.81679391e-03, 0., 0., 0., 0., 0., 0., 0., 3.81679391e-03,
          0., 0., 0., 3.81679391e-03, 0., 0., 3.81679391e-03,
          3.81679391e-03, 0., 0., 0., 0., 0., 0., 0., 0., 3.81679391e-03,
          3.81679391e-03, 0., 3.81679391e-03, 0., 3.81679391e-03, 0.,
          7.63358781e-03, 3.81679391e-03, 0., 0., 0., 0., 0., 0., 0., 0.,
          3.81679391e-03, 0., 7.63358781e-03, 0., 0., 3.81679391e-03, 0.,
          0., 0., 0., 3.81679391e-03, 3.81679391e-03, 0., 3.81679391e-03,
          0., 0., 0., 0., 3.81679391e-03, 3.81679391e-03, 0., 0., 0.,
          3.81679391e-03, 0., 7.63358781e-03, 0., 0., 0., 0., 0.,
          3.81679391e-03, 0., 0., 0., 0., 0., 3.81679391e-03, 0.,
          3.81679391e-03, 0., 0., 0., 3.81679391e-03, 0., 0., 0.,
          3.81679391e-03, 0., 0., 0., 0., 0., 0., 3.81679391e-03, 0., 0.,
          0., 0., 3.81679391e-03, 0., 3.81679391e-03, 0., 0.,
          3.81679391e-03, 0., 0., 0., 0., 0., 0., 0., 0., 0., 0.,
          3.81679391e-03, 0., 3.81679391e-03, 0., 3.81679391e-03,
          3.81679391e-03, 3.81679391e-03, 0., 0., 0., 0., 7.63358781e-03,
          3.81679391e-03, 0., 3.81679391e-03, 0., 0., 0., 0.,
          3.81679391e-03, 0., 0., 3.81679391e-03, 0., 0., 0., 0., 0., 0.,
          3.81679391e-03, 0., 0., 7.63358781e-03, 0., 0., 0., 0., 0., 0.,
          0., 0., 0., 0., 0., 0., 0., 0., 3.81679391e-03, 3.81679391e-03,
          7.63358781e-03, 7.63358781e-03, 0., 0., 0., 0., 7.63358781e-03,
          0., 0., 0., 0., 0., 0., 0., 0., 0., 3.81679391e-03, 0., 0., 0.,
