%YAML:1.0
---
opencv_ml_svm:
   format: 3
   svmType: C_SVC
   kernel:
      type: LINEAR
   C: 3.1250000000000000e+02
   term_criteria: { iterations:100 }
   var_count: 1000
   class_count: 2
   class_labels: !!opencv-matrix
      rows: 2
      cols: 1
      dt: i
      data: [ 0, 1 ]
   sv_total: 1
   support_vectors:
      - [ -2.33545923e+00, 1.10791874e+00, 2.73704696e+00,
          4.80831623e+00, 3.94173312e+00, -7.51774073e-01,
          -1.42196882e+00, -3.28141308e+00, -1.70167774e-01,
          1.97071338e+00, 8.85539627e+00, -3.64189553e+00,
          3.26567507e+00, -4.21602696e-01, 1.30244505e+00,
          4.88429499e+00, 8.57472062e-01, 5.38520861e+00, 3.38129354e+00,
          -9.95568466e+00, 3.99814606e+00, -3.05133080e+00,
          -1.92639899e+00, -9.25970078e-02, 1.29240799e+00,
          -5.29175818e-01, -4.52368736e+00, 2.38152885e+00,
          1.35510385e+00, 1.46731043e+00, -1.30250333e-02,
          -3.13222885e+00, -8.63449764e+00, 2.13429785e+00,
          -4.68019056e+00, -2.11214311e-02, 2.96797419e+00,
          -3.49706984e+00, 3.16601372e+00, 4.47139174e-01,
          2.28635597e+00, -1.44755924e+00, -8.94397354e+00,
          2.02600527e+00, 4.06965065e+00, 1.63916683e+00,
          -2.46939301e+00, -1.78666916e+01, 2.74143362e+00,
          -4.26921034e+00, 3.89371443e+00, -6.68730402e+00,
          -7.93248773e-01, 2.11049843e+00, 5.23649335e-01,
          8.38419724e+00, -1.98475099e+00, -5.90615094e-01,
          -4.66862917e+00, 3.41242909e+00, -3.36952758e+00,
          -1.42486548e+00, -2.71389651e+00, 1.12308550e+00,
          3.77171993e+00, 3.60239482e+00, -2.34643072e-01,
          9.64381039e-01, 3.10602450e+00, -1.75215447e+00,
          8.36752605e+00, 5.52919483e+00, 4.76827669e+00,
          -3.33907580e+00, -2.89821053e+00, 2.07702589e+00,
          3.48334283e-01, -2.72681326e-01, -2.53216672e+00,
          1.83164746e-01, 2.35303235e+00, 2.60046005e-01,
          -1.91807017e-01, -1.16396976e+00, -4.44020557e+00,
          6.77348757e+00, 3.82132500e-01, -5.87912512e+00,
          -5.18946409e+00, 2.20634675e+00, -3.53233862e+00,
          1.27059066e+00, -7.30906427e-01, 2.63827252e+00,
          -6.33009052e+00, -1.53791338e-01, 6.81216002e+00,
          8.84182835e+00, -2.52898359e+00, 1.19701123e+00,
          3.82633567e-01, -2.37311149e+00, 2.51606750e+00,
          -7.93583393e-01, -3.66461730e+00, -1.21627197e-01,
          2.47903299e+00, 6.29900837e+00, 7.28358555e+00, 3.90645242e+00,
          9.15447903e+00, -4.50694942e+00, -4.66437101e+00,
          2.16089272e+00, -1.93341506e+00, 3.55728483e+00,
          -7.34308064e-01, 1.15474534e+00, 4.81969261e+00,
          -6.11167431e+00, -5.75800848e+00, -5.07593679e+00,
          -2.89169669e+00, 1.75578997e-01, 5.80419779e+00,
          -6.88850975e+00, -4.16950512e+00, 6.73976803e+00,
          -3.71502995e+00, -1.12740946e+00, 3.01879019e-01,
          4.73561144e+00, -9.66356814e-01, -5.31240034e+00,
          -4.63114452e+00, -6.02488101e-01, -3.82900834e+00,
          9.85525310e-01, -2.30572510e+00, -3.82207799e+00,
          5.23125267e+00, 4.93376160e+00, -7.31216145e+00,
          1.85549235e+00, -6.08532715e+00, 4.64730930e+00,
          5.00843954e+00, -8.18144798e+00, 1.49244213e+00,
          1.61049044e+00, -2.49288887e-01, -6.66779566e+00,
          4.82527924e+00, -1.70700288e+00, 7.02266216e-01,
          4.68321180e+00, 1.63723722e-01, -4.62829733e+00,
          6.78293884e-01, -2.40653753e+00, 9.23585773e-01,
          -7.50831652e+00, 1.83743954e+00, 5.23883677e+00,
          2.11327791e+00, 3.80999517e+00, -2.87844706e+00,
          2.09631276e+00, 4.98537445e+00, 2.32201791e+00,
          -4.16216940e-01, -3.46953702e+00, 6.34284496e-01,
          -1.04929045e-01, 2.26921082e+00, -1.95537090e+00,
          -6.28093719e+00, -3.95618367e+00, -2.07019663e+00,
          -6.85204077e+00, 7.26380467e-01, 9.93398285e+00,
          -5.29752207e+00, -2.05919003e+00, -2.73655486e+00,
          -1.00874481e+01, 2.36459041e+00, -8.60829055e-01,
          2.60927439e+00, 1.33976173e+00, -6.01441336e+00,
          -1.36175808e-02, -5.67168570e+00, -2.36997986e+00,
          -1.33031359e+01, 1.66738427e+00, 2.64331937e+00,
          4.22063541e+00, 4.23998451e+00, 4.08863878e+00, 6.69878626e+00,
          -1.98328102e+00, -1.97620714e+00, 4.75739527e+00,
          -6.27421665e+00, 5.20547915e+00, -2.42824244e+00,
          -1.18705308e+00, -5.39788055e+00, -6.32360220e-01,
          -1.33268232e+01, -7.25578293e-02, -5.21535873e+00,
          2.80366635e+00, 5.07590353e-01, -6.59919453e+00,
          7.71988630e-02, 1.07471285e+01, 1.58518302e+00, 2.97224611e-01,
          3.64444900e+00, 2.48719811e+00, -5.02964449e+00,
          6.71896040e-01, 8.00350094e+00, -4.56966305e+00,
          3.64707184e+00, 2.25085759e+00, 6.40883744e-01, 6.71229219e+00,
          -3.70824963e-01, 1.40201366e+00, -1.63036811e+00,
          1.02331102e+00, 2.56751084e+00, -1.41633284e+00,
          -9.51736641e+00, -1.05121112e+00, 2.54187918e+00,
          -6.93490863e-01, 1.80851614e+00, 7.38282979e-01,
          -2.90184689e+00, -3.12437892e+00, 1.49463987e+00,
          -2.38889027e+00, 4.50052917e-01, 8.98832142e-01,
          -3.64701009e+00, -8.99627745e-01, 4.96368790e+00,
          2.74696970e+00, 3.50801086e+00, -9.88455534e-01,
          5.81110811e+00, -6.26348674e-01, 1.60867631e+00,
          -3.05379748e+00, -8.92437279e-01, 1.71056271e+00,
          -1.38426435e+00, -3.28534842e+00, 4.47983837e+00,
          6.45656824e+00, 3.36648554e-01, -2.47736359e+00,
          2.64431047e+00, 8.17173767e+00, 2.78514326e-01,
          -5.64237893e-01, -1.85476467e-01, 4.40622449e-01,
          -2.63264322e+00, 1.15840423e+00, 3.37445450e+00,
          -8.44986677e-01, 4.13328505e+00, -3.90477276e+00,
          -8.96641076e-01, 1.66428661e+00, 2.83733916e+00,
          5.01848841e+00, -6.77578068e+00, -1.41167271e+00,
          7.21123993e-01, 2.03163505e+00, -6.52092099e-01,
          -1.33444271e+01, -4.35102463e+00, 5.91179609e+00,
          8.48192978e+00, -3.76697278e+00, 1.35395555e+01,
          1.16428447e+00, 1.44083008e-01, -1.41071835e+01,
          -2.47272062e+00, 6.29517126e+00, -1.03168249e+01,
          3.14951986e-01, 3.12299562e+00, 1.26764584e+00,
          -5.27687120e+00, -4.56882095e+00, 4.01027679e+00,
          2.25254402e-01, 3.99491787e-01, -2.02480197e+00,
          4.20090532e+00, 1.41722023e+00, 1.36639878e-01,
          -3.87266827e+00, 5.86454511e-01, -4.45999950e-01,
          -4.67676258e+00, -2.88045168e+00, 9.92024040e+00,
          2.93549633e+00, -2.10353875e+00, 5.62816858e+00,
          -1.11049259e+00, 3.93941069e+00, -2.79114342e+00,
          4.89256763e+00, -4.41411352e+00, 4.47599173e+00,
          -1.97870648e+00, 5.06262064e+00, 1.16703820e+00,
          4.08345318e+00, 2.51263946e-01, -3.95042509e-01,
          3.29515028e+00, 7.13011837e+00, 8.59728432e+00,
          -6.44176197e+00, -8.28183937e+00, -1.50402939e+00,
          1.93690217e+00, -2.73638821e+00, -2.25096154e+00,
          4.89664650e+00, -4.93924141e+00, 4.64227676e+00,
          2.48390841e+00, -1.94255674e+00, -2.19329333e+00,
          2.39997959e+00, -2.85759854e+00, -4.04573965e+00,
          6.71061611e+00, -4.61514473e+00, -4.30912912e-01,
          -3.22707868e+00, 6.29354179e-01, 8.55454350e+00,
          5.64211369e+00, -1.85059285e+00, 7.34019709e+00,
          -1.61171989e+01, 2.64203143e+00, 3.22039843e+00,
          1.28657496e+00, -3.79373813e+00, -8.31554234e-01,
          5.16923237e+00, -4.33084249e+00, 1.04841671e+01,
          8.96909058e-01, 5.31968713e-01, -2.83910704e+00,
          8.40699732e-01, -2.39835238e+00, -2.43733811e+00,
          2.60785890e+00, 2.81906390e+00, 4.74195302e-01, 6.48497224e-01,
          7.92317295e+00, -8.61175156e+00, 2.54562116e+00,
          -4.90171146e+00, 9.15921593e+00, 3.36858892e+00,
          -4.91850328e+00, 2.17853650e-01, -9.38928890e+00,
          -3.40560675e+00, -2.28797913e+00, -3.26554942e+00,
          1.25033197e+01, 2.14662743e+00, -4.29053396e-01,
          -5.12027454e+00, 6.20051003e+00, -1.92846382e+00,
          -2.84562564e+00, 2.54538012e+00, -3.88134027e+00,
          3.06102180e+00, 9.76367891e-01, -4.78995943e+00,
          4.99993801e+00, 4.36746502e+00, -4.56568241e+00,
          -3.31427312e+00, 6.40101385e+00, 4.94407564e-01,
          -1.21899426e+00, -1.49820833e+01, -4.32192326e+00,
          2.36136174e+00, 1.52333677e+00, 4.48732233e+00, 4.13787508e+00,
          -4.79021645e+00, 2.28832960e+00, 3.66481614e+00,
          3.27664167e-01, 2.47433496e+00, -1.89810288e+00,
          -2.90436101e+00, -5.77088261e+00, -2.63826966e+00,
          -4.04168797e+00, 5.48549938e+00, -1.28582001e-01,
          8.18646431e+00, -1.97838986e+00, -2.43862772e+00,
          -2.62348580e+00, -3.95022845e+00, 3.45445323e+00,
          -3.73795867e+00, -4.49785829e-01, 3.71638322e+00,
          2.76365376e+00, 4.09783411e+00, 7.31418085e+00,
          -4.67858028e+00, 5.35353851e+00, -2.29431415e+00,
          1.80481121e-01, 1.09829450e+00, -4.22906303e+00,
          -1.00467944e+00, 1.03172565e+00, -7.99752414e-01,
          3.98234868e+00, 3.38926196e+00, -7.04935789e-01,
          -4.76975012e+00, 3.70051312e+00, 1.19697440e+00,
          1.26203096e+00, -4.13942719e+00, -1.75164497e+00,
          3.07398558e+00, 4.63169336e+00, -2.01842117e+00,
          6.21444523e-01, -1.11678848e+01, -4.77822512e-01,
          -7.54174709e+00, -7.56609917e-01, -2.56453085e+00,
          4.42969561e+00, -6.51150465e-01, -6.07533336e-01,
          4.97535419e+00, 1.87676501e+00, 3.48543620e+00, 4.36812305e+00,
          4.16387498e-01, -4.94413519e+00, 7.63109922e+00,
          6.31006193e+00, 3.00912380e+00, -4.19425201e+00,
          7.80555820e+00, -2.50547695e+00, -1.09182751e+00,
          5.57179308e+00, 3.04763842e+00, 8.53882670e-01, 4.06499767e+00,
          -5.07751751e+00, -5.14304972e+00, -3.06955886e+00,
          7.96785450e+00, 5.25742388e+00, -6.74149871e-01,
          -2.48329973e+00, -3.51763773e+00, 4.28954887e+00,
          4.20239449e+00, -3.69159985e+00, 4.58151400e-01,
          1.72791779e+00, -3.19222498e+00, 2.40125537e+00,
          2.89270282e+00, -2.46249175e+00, -3.17264986e+00,
          -3.13707161e+00, 2.01090550e+00, 3.14030337e+00,
          -8.62964749e-01, -2.29398799e+00, 1.85280359e+00,
          -3.07443351e-01, -2.49019003e+00, 4.48157120e+00,
          -2.90097857e+00, -8.96234751e-01, -2.79523301e+00,
          -2.48690748e+00, 1.22426903e+00, -1.12193711e-02,
          -9.69938859e-02, 2.14100623e+00, 1.24911394e+01,
          -1.30335331e+00, -6.44060326e+00, 2.28283334e+00,
          -3.49240839e-01, -4.18980074e+00, -1.87690914e+00,
          -5.54292917e+00, 1.27776694e+00, -6.43521166e+00,
          4.83412933e+00, 8.92724037e-01, 3.81554818e+00, 1.90603554e+00,
          -1.76414937e-01, -2.91165853e+00, -1.49624193e+00,
          3.78287601e+00, -6.64589071e+00, 6.04500234e-01,
          -7.74681234e+00, -3.58927631e+00, -2.13713551e+00,
          -1.31889496e+01, -9.36203063e-01, 1.24849367e+00,
          5.77947235e+00, 3.67583585e+00, -4.10091448e+00,
          4.20065433e-01, -2.91283345e+00, 1.13070726e+00,
          -2.06734776e+00, 2.41508102e+00, 6.19622040e+00,
          3.25412607e+00, 4.06310606e+00, -6.58248365e-01,
          1.89390624e+00, 1.43271434e+00, -4.48898363e+00,
          -2.58201838e+00, -1.73361576e+00, 4.61609125e+00,
          -2.50617909e+00, 1.15155287e-01, 3.06236148e+00,
          -2.66581297e-01, -3.44727588e+00, -4.60602665e+00,
          -8.43992424e+00, 9.53268230e-01, 3.64267087e+00,
          -3.85862970e+00, 2.79893208e+00, 9.39867973e-01,
          1.30673671e+00, 6.71853304e-01, 6.66702223e+00, 8.58168423e-01,
          -1.96368456e+00, 1.57003558e+00, 1.76907883e+01,
          -9.64387476e-01, -2.01207113e+00, -9.01923943e+00,
          -2.57880878e+00, -2.41594863e+00, -9.02871907e-01,
          2.92338133e+00, 5.47716081e-01, -7.34595537e+00,
          4.20556009e-01, -6.04156017e-01, -1.97286546e+00,
          3.07287002e+00, -8.33656490e-01, 2.92680645e+00,
          3.00567460e+00, 1.11363089e+00, 8.09861469e+00,
          -5.71761751e+00, -1.81351242e+01, 6.13348055e+00,
          1.42543209e+00, 1.22426279e-01, 2.81808913e-01,
          -4.17345524e+00, 8.35320473e+00, 3.90269232e+00,
          2.15657806e+00, 4.53322029e+00, -6.35610771e+00,
          8.17792988e+00, 1.34716463e+00, -6.72572708e+00,
          -5.47358513e-01, -8.06213379e+00, 3.82941675e+00,
          2.68268180e+00, -8.27340126e-01, -1.23072517e+00,
          2.34014988e+00, 3.97802043e+00, 2.09360170e+00, 1.42201388e+00,
          1.01729482e-01, -2.08848858e+00, -6.95085108e-01,
          -3.41848254e+00, -4.61032581e+00, 5.71955633e+00,
          1.97662163e+00, 1.15651631e+00, 2.86801982e+00,
          -3.20413637e+00, 2.88483739e+00, 3.62190819e+00,
          2.00604534e+00, -9.14866734e+00, 1.67908454e+00,
          -1.18961322e+00, 3.80871201e+00, -3.90783238e+00,
          6.50846288e-02, 4.43916655e+00, -1.95469224e+00,
          -1.23067999e+00, 2.74302930e-01, 3.15707803e+00,
          -5.45991898e-01, -1.88743343e+01, 1.79641163e+00,
          2.26785827e+00, 5.50773096e+00, -2.26013446e+00,
          1.60585618e+00, -1.21637535e+00, -5.08686304e-01,
          -7.82390118e+00, -1.54888928e+00, 4.71282434e+00,
          1.36945868e+00, 5.10467822e-03, 3.92472339e+00, 7.02434826e+00,
          -3.72036958e+00, -3.63112998e+00, -1.13742959e+00,
          2.69305515e+00, -1.69309044e+00, -2.42485136e-01,
          1.33690825e+01, -4.23175097e+00, 4.48319149e+00,
          -2.75675464e+00, 3.47639918e+00, -3.54302335e+00,
          -3.56073356e+00, 1.13540030e+00, -7.40183687e+00,
          -2.11140060e+00, -2.68623531e-01, 1.93865407e+00,
          -8.17354298e+00, -3.22828794e+00, -5.25464153e+00,
          -1.58110607e+00, -5.86661530e+00, 3.09014273e+00,
          -4.29699802e+00, -3.26682878e+00, -2.23706317e+00,
          6.02439404e+00, 1.59180498e+00, 1.10159206e+00, 1.28485060e+00,
          7.05879498e+00, 6.27963305e-01, 9.57102776e+00, 4.48013878e+00,
          -7.23210239e+00, -2.75679231e+00, -2.28412318e+00,
          4.31364346e+00, -8.18298244e+00, 5.63438082e+00,
          2.38323355e+00, -3.19570231e+00, -5.44223905e-01,
          2.30232716e+00, 5.02125645e+00, 5.37138462e-01, 4.48047733e+00,
          -1.36980784e+00, -1.03532619e+01, 6.23927116e+00,
          -5.39223814e+00, 2.80101347e+00, 5.05153799e+00,
          9.60090542e+00, 4.01018620e+00, -3.26946163e+00,
          -8.90129662e+00, 3.24460363e+00, -2.08801174e+00,
          6.53550625e+00, -9.83950233e+00, 9.68572795e-01,
          1.61008739e+00, -3.80952668e+00, 2.16360331e+00,
          2.41336536e+00, -1.03950821e-01, 1.92913711e+00,
          6.56386948e+00, -1.10718679e+01, -5.27952790e-01,
          1.78451812e+00, 2.99655169e-01, -3.52150011e+00,
          -4.17585421e+00, 3.91033983e+00, -5.45903397e+00,
          9.17449147e-02, -3.25869203e+00, -4.40770531e+00,
          1.65362799e+00, 3.47049326e-01, 6.25096941e+00,
          -5.33433056e+00, 4.00127697e+00, -2.83341837e+00,
          1.51973140e+00, -2.53495723e-01, -2.66153932e+00,
          -3.94628239e+00, -5.31214809e+00, -6.57545209e-01,
          1.85841894e+00, -6.40778303e-01, -7.85619095e-02,
          3.75438142e+00, -1.02195883e+01, 3.42867780e+00,
          -9.20610619e+00, -1.60454631e+00, 7.48022366e+00,
          5.12065220e+00, 4.37187612e-01, -7.74443150e-01,
          -8.31615734e+00, 1.19192529e+00, -4.18141222e+00,
          -1.51891470e+00, -5.75859368e-01, 2.70828128e+00,
          -1.70743573e+00, 2.31714845e-01, 6.46534538e+00,
          4.42383862e+00, 1.16974795e+00, 2.70028758e+00,
          -5.21457100e+00, -2.22290587e+00, -4.73534250e+00,
          4.41582584e+00, 2.84832764e+00, -3.65249205e+00,
          -3.72411013e+00, -1.06891990e+00, 6.45508575e+00,
          1.29906619e+00, 5.11913013e+00, 2.06790519e+00,
          -2.81932664e+00, 1.11697304e+00, -6.13097334e+00,
          -1.55723310e+00, -4.37511969e+00, -7.46681261e+00,
          1.32870543e+00, 3.19580007e+00, -9.56079423e-01,
          3.59162855e+00, 1.10999203e+00, 5.20521450e+00, 1.30454674e-01,
          8.15160942e+00, -1.46259999e+00, 7.91224301e-01,
          1.06348782e+01, 2.19503355e+00, -2.60303807e+00,
          -6.63821459e-01, -3.42929736e-02, -4.65830135e+00,
          3.55459452e+00, 7.31108904e+00, -2.12725759e+00,
          5.58898401e+00, 4.26626444e+00, 1.01559937e+00,
          -3.38274550e+00, -2.17862701e+00, -7.22185087e+00,
          -5.86854076e+00, -4.27618599e+00, -7.52229786e+00,
          3.98915958e+00, -3.21360326e+00, -8.53358364e+00,
          -2.66894650e+00, -3.70420516e-01, 2.32701373e+00,
          -1.38234031e+00, -1.22275198e+00, 8.38586867e-01,
          -3.21692824e+00, 3.87174177e+00, -1.78985286e+00,
          -4.23193455e+00, -6.24046624e-01, -1.11106243e+01,
          -1.56627226e+00, -3.29166818e+00, -1.14305878e+00,
          -5.08186936e-01, 2.20675015e+00, -6.70803642e+00,
          1.37053978e+00, 3.70822573e+00, -4.48010042e-02,
          5.49230766e+00, 2.67082286e+00, 3.74922490e+00,
          -3.04743075e+00, 2.06654739e+00, 2.77757788e+00,
          2.59212255e+00, -5.44406605e+00, -3.16429472e+00,
          3.96971703e+00, 1.19128380e+01, 2.19370389e+00,
          -1.37606411e+01, 2.59131503e+00, 1.38245046e+00,
          7.34453344e+00, -3.46277189e+00, -1.78218937e+00,
          5.19743490e+00, -6.14899683e+00, -2.61777580e-01,
          -7.01193631e-01, -5.51139212e+00, -5.40956402e+00,
          3.30339909e+00, -3.10041380e+00, 9.18274641e-01,
          -6.14096212e+00, 3.21957684e+00, 4.22524309e+00,
          9.18243790e+00, 4.50898218e+00, -3.10756058e-01,
          3.23028874e+00, 5.21424770e-01, 3.67209816e+00,
          -1.54518843e-01, -4.12731409e+00, -7.56671846e-01,
          4.92673826e+00, -4.65871048e+00, -4.70654440e+00,
          -1.33411980e+00, 5.04721403e-01, -3.61347342e+00,
          -6.98428059e+00, 1.84959412e+00, 2.75474215e+00,
          -3.16227365e+00, -4.42554188e+00, 1.60250688e+00,
          2.09995675e+00, 7.55840302e+00, -3.44643879e+00,
          1.59300137e+00, 3.85368586e-01, 1.96186948e+00,
          -9.21709538e-01, 1.01387537e+00, -6.91433191e-01,
          -2.77337408e+00, 3.69962358e+00, 5.07822514e+00,
          8.69856644e+00, -2.51399541e+00, -1.71944785e+00,
          -2.10546803e+00, 2.52673292e+00, 1.31593192e+00,
          -1.50112116e+00, 6.40511131e+00, -3.47124338e+00,
          -4.81769554e-02, -7.18421280e-01, -7.01849651e+00,
          6.55856252e-01, -7.93593302e-02, -3.21737504e+00,
          -6.30898285e+00, 3.01448774e+00, -7.75007391e+00,
          -4.79312372e+00, -2.63903666e+00, -1.18597400e+00,
          -6.72295511e-01, -1.41833723e+00, 1.61721611e+00,
          3.91980976e-01, -5.54816306e-01, 1.19991589e+00,
          -9.35625553e-01, 4.89513502e-02, -9.18478775e+00,
          5.33344316e+00, -4.31490421e+00, -4.10410118e+00,
          -5.57954645e+00, 3.34185553e+00, 1.82983124e+00,
          3.88772416e+00, 1.03572912e+01, 2.30708051e+00, 9.54686356e+00,
          1.34082663e+00, -1.02656441e+01, -1.12543964e+00,
          -5.37251377e+00, -5.01756907e-01, -1.59799647e+00,
          -3.40275526e-01, -1.28613019e+00, 4.83987331e+00,
          -1.01058888e+00, 2.27886534e+00, 2.10033727e+00,
          -2.56222963e-01, 3.70446038e+00, -1.94591671e-01,
          3.93030787e+00, -1.19687271e+00, 1.31881583e+00,
          2.88484526e+00, -2.85863638e-01, -2.90341415e-02,
          3.99436736e+00, -1.99280715e+00, 4.03970146e+00,
          -1.62158012e+00, 8.09104890e-02, 1.04755497e+01,
          9.11992431e-01, 7.77936518e-01, -1.18095949e-01,
          2.66214490e+00, -5.55449903e-01, -4.30314159e+00,
          -1.20355237e+00, -2.58270764e+00, -7.07672358e-01,
          7.30044222e+00, 2.26523590e+00, 1.85798478e+00,
          -1.21005285e+00, 1.14192677e+00, 2.38297319e+00,
          1.36688745e+00 ]
   uncompressed_sv_total: 136
   uncompressed_support_vectors:
      - [ 0., 0., 0., 0., 0., 0., 0., 0., 4.54545440e-03, 0.,
          4.54545440e-03, 0., 0., 0., 4.54545440e-03, 0., 4.54545440e-03,
          4.54545440e-03, 0., 0., 0., 0., 4.54545440e-03, 0., 0., 0., 0.,
          4.54545440e-03, 0., 0., 4.54545440e-03, 0., 0., 0.,
          4.54545440e-03, 0., 0., 0., 0., 9.09090880e-03, 0., 0., 0., 0.,
          4.54545440e-03, 9.09090880e-03, 0., 0., 0., 0., 0., 0., 0., 0.,
          4.54545440e-03, 0., 0., 0., 0., 0., 0., 0., 0., 0.,
          4.54545440e-03, 0., 0., 0., 0., 0., 0., 0., 4.54545440e-03, 0.,
          4.54545440e-03, 4.54545440e-03, 9.09090880e-03, 0., 0., 0., 0.,
          4.54545440e-03, 0., 0., 4.54545440e-03, 0., 0., 0., 0., 0., 0.,
          4.54545440e-03, 0., 0., 0., 0., 0., 0., 0., 0., 0.,
          4.54545440e-03, 4.54545440e-03, 4.54545440e-03, 4.54545440e-03,
          0., 0., 0., 0., 0., 4.54545440e-03, 0., 0., 0., 0., 0.,
          4.54545440e-03, 0., 0., 0., 0., 0., 4.54545440e-03, 0., 0., 0.,
          0., 0., 0., 0., 0., 0., 0., 4.54545440e-03, 0., 9.09090880e-03,
          0., 0., 4.54545440e-03, 4.54545440e-03, 0., 0., 0., 0., 0.,
          4.54545440e-03, 0., 0., 0., 0., 0., 0., 0., 0., 0.,
          4.54545440e-03, 0., 0., 0., 0., 0., 0., 0., 0., 0., 0., 0., 0.,
          0., 0., 0., 0., 0., 4.54545440e-03, 0., 0., 4.54545440e-03, 0.,
          0., 0., 4.54545440e-03, 0., 0., 9.09090880e-03, 0., 0., 0.,
          4.54545440e-03, 4.54545440e-03, 0., 0., 0., 0., 4.54545440e-03,
          0., 0., 4.54545440e-03, 0., 0., 0., 0., 4.54545440e-03, 0., 0.,
          0., 0., 0., 4.54545440e-03, 0., 0., 0., 0., 0., 0.,
          9.09090880e-03, 4.54545440e-03, 0., 0., 0., 0., 4.54545440e-03,
          0., 0., 0., 4.54545440e-03, 0., 0., 0., 0., 0., 0., 0., 0., 0.,
          0., 0., 0., 0., 0., 0., 4.54545440e-03, 0., 0., 0., 0., 0.,
          4.54545440e-03, 0., 0., 0., 0., 0., 0., 0., 0., 4.54545440e-03,
          0., 0., 0., 0., 0., 0., 4.54545440e-03, 4.54545440e-03, 0., 0.,
          0., 9.09090880e-03, 0., 0., 0., 4.54545440e-03, 0., 0., 0., 0.,
          0., 0., 0., 4.54545440e-03, 4.54545440e-03, 0., 0., 0.,
          4.54545440e-03, 0., 4.54545440e-03, 0., 9.09090880e-03, 0., 0.,
          0., 0., 4.54545440e-03, 0., 0., 0., 0., 0., 0., 0., 0., 0.,
          9.09090880e-03, 4.54545440e-03, 0., 0., 0., 0., 0., 0., 0., 0.,
          0., 0., 0., 0., 4.54545440e-03, 0., 0., 0., 0., 4.54545440e-03,
          4.54545440e-03, 0., 4.54545440e-03, 0., 0., 0., 0., 0., 0., 0.,
          0., 0., 0., 0., 0., 0., 4.54545440e-03, 4.54545440e-03, 0., 0.,
          0., 0., 0., 0., 0., 0., 0., 4.54545440e-03, 0., 0., 0., 0., 0.,
          0., 0., 0., 0., 4.54545440e-03, 0., 0., 0., 0., 0., 0., 0., 0.,
          0., 0., 9.09090880e-03, 0., 0., 0., 0., 0., 0., 0., 0., 0., 0.,
          0., 4.54545440e-03, 0., 0., 0., 0., 0., 0., 0., 0.,
          4.54545440e-03, 0., 0., 0., 0., 0., 9.09090880e-03, 0.,
          4.54545440e-03, 0., 0., 0., 0., 0., 0., 0., 0., 1.36363637e-02,
          0., 0., 0., 0., 0., 0., 0., 4.54545440e-03, 0., 0.,
          4.54545440e-03, 0., 0., 4.54545440e-03, 0., 4.54545440e-03, 0.,
          0., 0., 0., 0., 0., 4.54545440e-03, 0., 0., 4.54545440e-03,
          4.54545440e-03, 0., 0., 0., 0., 0., 0., 4.54545440e-03, 0., 0.,
          0., 0., 0., 4.54545440e-03, 0., 0., 0., 4.54545440e-03, 0., 0.,
          0., 0., 0., 0., 0., 0., 4.54545440e-03, 0., 0., 0., 0., 0., 0.,
          0., 0., 9.09090880e-03, 0., 0., 0., 0., 0., 0., 9.09090880e-03,
          4.54545440e-03, 0., 0., 0., 0., 0., 0., 0., 0., 4.54545440e-03,
          4.54545440e-03, 0., 0., 0., 0., 4.54545440e-03, 9.09090880e-03,
          4.54545440e-03, 0., 0., 0., 0., 0., 0., 0., 0., 0., 0.,
          4.54545440e-03, 0., 0., 0., 0., 4.54545440e-03, 0., 0.,
          4.54545440e-03, 0., 0., 0., 0., 4.54545440e-03, 0., 0., 0., 0.,
          0., 0., 0., 4.54545440e-03, 0., 0., 0., 9.09090880e-03, 0., 0.,
          0., 1.36363637e-02, 0., 0., 0., 0., 0., 0., 0., 0., 0.,
          4.54545440e-03, 0., 0., 0., 0., 0., 0., 0., 0., 0., 0., 0.,
          4.54545440e-03, 0., 0., 0., 0., 0., 0., 0., 0., 0.,
          4.54545440e-03, 0., 9.09090880e-03, 0., 0., 0., 0., 0.,
          4.54545440e-03, 4.54545440e-03, 0., 0., 0., 0., 4.54545440e-03,
          0., 0., 0., 0., 0., 0., 0., 0., 4.54545440e-03, 0., 0., 0., 0.,
          0., 0., 0., 9.09090880e-03, 0., 0., 0., 0., 0., 0., 0.,
          4.54545440e-03, 0., 0., 0., 4.54545440e-03, 0., 0.,
          9.09090880e-03, 0., 0., 0., 4.54545440e-03, 0., 4.54545440e-03,
          0., 0., 0., 0., 0., 0., 0., 0., 0., 0., 0., 0., 0., 0., 0., 0.,
          4.54545440e-03, 0., 0., 0., 0., 4.54545440e-03, 0., 0.,
          4.54545440e-03, 0., 0., 0., 0., 0., 4.54545440e-03, 0.,
          4.54545440e-03, 0., 4.54545440e-03, 0., 0., 9.09090880e-03,
          4.54545440e-03, 0., 4.54545440e-03, 0., 0., 0., 0.,
          4.54545440e-03, 0., 4.54545440e-03, 0., 0., 0., 0., 0., 0., 0.,
          4.54545440e-03, 0., 0., 0., 0., 0., 4.54545440e-03, 0.,
          4.54545440e-03, 0., 0., 0., 0., 0., 0., 0., 0., 0., 0., 0., 0.,
          0., 4.54545440e-03, 0., 0., 0., 0., 0., 0., 0., 0., 0., 0., 0.,
          0., 0., 0., 0., 0., 0., 1.36363637e-02, 0., 0., 4.54545440e-03,
          0., 0., 4.54545440e-03, 0., 0., 4.54545440e-03, 0., 0.,
          4.54545440e-03, 4.54545440e-03, 0., 0., 0., 0., 9.09090880e-03,
          0., 0., 0., 0., 0., 0., 4.54545440e-03, 4.54545440e-03, 0., 0.,
          0., 4.54545440e-03, 0., 0., 4.54545440e-03, 0., 0.,
          4.54545440e-03, 0., 0., 0., 0., 0., 0., 0., 0., 0., 0.,
          9.09090880e-03, 0., 0., 0., 0., 0., 4.54545440e-03, 0., 0.,
          9.09090880e-03, 0., 0., 0., 0., 0., 0., 0., 0., 0., 0., 0., 0.,
          0., 0., 0., 0., 0., 0., 0., 0., 4.54545440e-03, 4.54545440e-03,
          0., 0., 0., 4.54545440e-03, 4.54545440e-03, 0., 0., 0., 0., 0.,
          0., 0., 4.54545440e-03, 0., 0., 0., 0., 0., 9.09090880e-03, 0.,
          0., 0., 0., 0., 0., 0., 0., 0., 0., 0., 0., 0., 0., 0., 0.,
          4.54545440e-03, 0., 0., 0., 0., 0., 0., 0., 0., 0., 0., 0., 0.,
          0., 0., 0., 0., 0., 9.09090880e-03, 4.54545440e-03, 0., 0.,
          4.54545440e-03, 0., 4.54545440e-03, 0., 0., 0., 4.54545440e-03,
          0., 0., 0., 0., 4.54545440e-03, 0., 0., 0., 0., 0.,
          4.54545440e-03, 0., 0., 0., 0., 0., 0., 0., 0., 0., 0., 0.,
          4.54545440e-03, 0., 0., 0., 0., 4.54545440e-03, 0., 0.,
          4.54545440e-03, 0., 0., 0., 0., 0., 0., 0., 0., 0., 0., 0.,
          4.54545440e-03, 0., 0., 0., 0., 0., 0., 0., 4.54545440e-03, 0.,
          0., 0., 0., 0., 0., 4.54545440e-03, 0., 0., 0., 0., 0., 0.,
          4.54545440e-03, 0., 0., 0., 0., 0., 0., 0., 0., 0.,
          4.54545440e-03, 0., 0., 0., 0., 4.54545440e-03, 0., 0., 0., 0.,
          0., 0., 0., 0., 9.09090880e-03, 0., 0., 0., 0., 0., 0.,
          4.54545440e-03, 0., 0., 4.54545440e-03, 4.54545440e-03, 0., 0.,
          4.54545440e-03, 0., 0., 0., 4.54545440e-03, 4.54545440e-03, 0.,
          4.54545440e-03, 0., 4.54545440e-03, 0., 4.54545440e-03, 0., 0.,
          0., 4.54545440e-03, 4.54545440e-03, 0., 0., 0., 0., 0.,
          9.09090880e-03, 0., 1.36363637e-02, 0., 0., 0., 0., 0., 0.,
          4.54545440e-03, 0., 4.54545440e-03, 0., 0., 0., 0., 0. ]
      - [ 0., 0., 0., 0., 0., 0., 0., 0., 0., 0., 6.36942685e-03, 0., 0.,
          0., 0., 0., 0., 1.27388537e-02, 0., 0., 0., 0., 0., 0., 0., 0.,
          0., 0., 6.36942685e-03, 0., 0., 0., 0., 6.36942685e-03, 0., 0.,
          0., 0., 0., 0., 6.36942685e-03, 0., 0., 6.36942685e-03, 0., 0.,
          0., 6.36942685e-03, 0., 0., 0., 0., 0., 0., 0., 0.,
          6.36942685e-03, 6.36942685e-03, 0., 0., 0., 0., 6.36942685e-03,
          0., 0., 0., 0., 0., 0., 0., 0., 6.36942685e-03, 0., 0.,
          1.27388537e-02, 0., 0., 0., 0., 0., 6.36942685e-03, 0.,
          6.36942685e-03, 6.36942685e-03, 0., 0., 0., 0., 0., 0., 0., 0.,
          0., 0., 0., 0., 0., 0., 0., 0., 0., 6.36942685e-03,
          6.36942685e-03, 0., 0., 0., 0., 6.36942685e-03, 0., 0.,
          6.36942685e-03, 0., 0., 0., 0., 0., 1.27388537e-02, 0., 0., 0.,
          0., 0., 6.36942685e-03, 0., 0., 1.27388537e-02, 0., 0., 0.,
          6.36942685e-03, 0., 0., 0., 1.91082805e-02, 0., 0., 0., 0., 0.,
          1.27388537e-02, 0., 0., 6.36942685e-03, 0., 0., 0., 0., 0., 0.,
          0., 0., 0., 0., 0., 6.36942685e-03, 0., 0., 0., 0., 0., 0., 0.,
          0., 0., 0., 0., 0., 0., 0., 0., 0., 0., 0., 0., 0., 0., 0., 0.,
          0., 0., 0., 0., 0., 0., 6.36942685e-03, 0., 0., 6.36942685e-03,
          0., 0., 0., 0., 0., 0., 0., 0., 0., 0., 0., 0., 6.36942685e-03,
          6.36942685e-03, 0., 0., 0., 0., 0., 0., 0., 0., 0., 0., 0., 0.,
          0., 0., 0., 0., 0., 0., 0., 0., 0., 0., 1.27388537e-02, 0.,
          6.36942685e-03, 0., 0., 0., 0., 0., 0., 0., 0., 0.,
          6.36942685e-03, 0., 0., 1.27388537e-02, 0., 0., 6.36942685e-03,
          0., 6.36942685e-03, 6.36942685e-03, 0., 1.27388537e-02, 0., 0.,
          0., 0., 0., 6.36942685e-03, 0., 0., 0., 0., 0., 0., 0., 0.,
          6.36942685e-03, 1.91082805e-02, 0., 0., 0., 0., 0., 0., 0., 0.,
          0., 0., 0., 0., 0., 0., 0., 0., 0., 0., 0., 0., 0., 0., 0., 0.,
          0., 0., 0., 0., 0., 6.36942685e-03, 0., 0., 0., 0., 0., 0., 0.,
          0., 6.36942685e-03, 6.36942685e-03, 0., 0., 0., 0., 0., 0., 0.,
          0., 0., 0., 0., 6.36942685e-03, 0., 0., 0., 0., 0., 0., 0.,
          6.36942685e-03, 6.36942685e-03, 0., 0., 0., 0., 0., 0., 0., 0.,
          0., 0., 0., 0., 0., 0., 0., 0., 0., 0., 0., 0., 0.,
          6.36942685e-03, 0., 6.36942685e-03, 0., 0., 6.36942685e-03, 0.,
          6.36942685e-03, 6.36942685e-03, 0., 0., 0., 0., 0.,
          6.36942685e-03, 0., 0., 0., 0., 6.36942685e-03, 0., 0., 0., 0.,
          0., 0., 0., 0., 0., 0., 0., 0., 0., 0., 0., 0., 0., 0.,
          1.27388537e-02, 0., 0., 0., 0., 0., 0., 0., 1.27388537e-02, 0.,
          0., 0., 0., 0., 6.36942685e-03, 0., 1.27388537e-02, 0., 0., 0.,
          0., 0., 0., 1.27388537e-02, 0., 6.36942685e-03, 0., 0., 0., 0.,
          0., 0., 6.36942685e-03, 0., 0., 0., 0., 0., 0., 0., 0., 0., 0.,
          6.36942685e-03, 0., 0., 0., 0., 1.91082805e-02, 0., 0.,
          1.27388537e-02, 0., 0., 0., 0., 0., 0., 0., 0., 0., 0., 0., 0.,
          0., 6.36942685e-03, 0., 0., 0., 0., 0., 0., 0., 0., 0., 0., 0.,
          0., 0., 0., 0., 0., 0., 0., 6.36942685e-03, 0., 0.,
          6.36942685e-03, 0., 0., 0., 0., 6.36942685e-03, 0., 0., 0., 0.,
          0., 0., 0., 0., 0., 6.36942685e-03, 6.36942685e-03, 0.,
          6.36942685e-03, 0., 6.36942685e-03, 0., 0., 0., 0., 0., 0., 0.,
          0., 0., 0., 0., 0., 0., 0., 0., 0., 0., 0., 0., 6.36942685e-03,
          0., 0., 6.36942685e-03, 0., 0., 0., 0., 0., 6.36942685e-03, 0.,
          0., 0., 0., 0., 0., 0., 0., 0., 0., 6.36942685e-03, 0., 0.,
          6.36942685e-03, 0., 0., 0., 0., 0., 0., 0., 0., 0., 0., 0., 0.,
          1.91082805e-02, 0., 0., 0., 0., 0., 0., 0., 0., 0., 0., 0., 0.,
          0., 0., 0., 0., 0., 0., 0., 6.36942685e-03, 6.36942685e-03, 0.,
          0., 6.36942685e-03, 0., 0., 0., 0., 0., 0., 6.36942685e-03, 0.,
          6.36942685e-03, 0., 0., 0., 0., 0., 0., 0., 0., 6.36942685e-03,
          0., 0., 0., 6.36942685e-03, 0., 0., 0., 0., 0., 6.36942685e-03,
          0., 0., 0., 0., 0., 0., 0., 0., 0., 0., 6.36942685e-03, 0.,
          6.36942685e-03, 0., 0., 0., 0., 0., 6.36942685e-03,
          6.36942685e-03, 0., 0., 0., 0., 0., 0., 0., 0., 0., 0., 0., 0.,
          0., 0., 0., 0., 0., 6.36942685e-03, 0., 6.36942685e-03, 0., 0.,
          0., 0., 0., 6.36942685e-03, 0., 0., 0., 0., 0., 1.27388537e-02,
          0., 0., 0., 0., 0., 0., 0., 0., 0., 0., 0., 0., 0., 0., 0., 0.,
          0., 0., 0., 0., 6.36942685e-03, 0., 0., 0., 6.36942685e-03, 0.,
          0., 0., 0., 0., 0., 0., 0., 1.27388537e-02, 0., 0.,
          6.36942685e-03, 0., 0., 0., 0., 0., 0., 0., 0., 0., 0., 0., 0.,
          0., 0., 0., 6.36942685e-03, 0., 0., 0., 0., 0., 0., 0.,
          6.36942685e-03, 0., 6.36942685e-03, 1.91082805e-02,
          1.27388537e-02, 0., 0., 0., 0., 0., 0., 0., 0., 0., 0., 0., 0.,
          0., 0., 0., 0., 0., 0., 6.36942685e-03, 0., 0., 0., 0., 0., 0.,
          0., 0., 0., 6.36942685e-03, 0., 0., 0., 0., 0., 0., 0., 0., 0.,
          0., 0., 0., 0., 0., 0., 0., 0., 0., 0., 0., 0., 0., 0., 0., 0.,
          0., 0., 6.36942685e-03, 0., 0., 0., 0., 0., 0., 0., 0., 0., 0.,
          0., 0., 0., 0., 6.36942685e-03, 0., 0., 0., 0., 0., 0., 0., 0.,
          0., 0., 1.27388537e-02, 0., 0., 0., 0., 0., 6.36942685e-03, 0.,
          0., 0., 6.36942685e-03, 0., 0., 0., 6.36942685e-03, 0., 0., 0.,
          0., 0., 0., 0., 0., 0., 0., 0., 0., 0., 0., 0., 0., 0., 0., 0.,
          6.36942685e-03, 0., 0., 0., 0., 0., 0., 0., 0., 0.,
          6.36942685e-03, 0., 0., 0., 0., 0., 0., 0., 0., 0., 0.,
          6.36942685e-03, 0., 0., 0., 0., 0., 0., 0., 0., 6.36942685e-03,
          0., 0., 6.36942685e-03, 6.36942685e-03, 0., 6.36942685e-03, 0.,
          0., 0., 0., 0., 0., 0., 0., 0., 0., 0., 0., 0., 0., 0., 0., 0.,
          0., 0., 0., 0., 0., 0., 0., 0., 0., 0., 0., 0., 0., 0., 0., 0.,
          0., 0., 0., 6.36942685e-03, 0., 0., 0., 0., 0., 6.36942685e-03,
          0., 0., 6.36942685e-03, 1.27388537e-02, 0., 0., 0., 0., 0., 0.,
          1.27388537e-02, 0., 0., 0., 0., 0., 0., 6.36942685e-03, 0., 0.,
          0., 0., 0., 0., 0., 0., 0., 0., 0., 0., 0., 0., 0., 0., 0., 0.,
          0., 0., 0., 0., 0., 0., 0., 6.36942685e-03, 0., 0., 0., 0., 0.,
          0., 0., 0., 0., 0., 0., 0., 0., 0., 0., 0., 0., 0., 0.,
          6.36942685e-03, 0., 0., 0., 0., 0., 0., 0., 0., 0., 0., 0., 0.,
          0., 0., 0., 0., 6.36942685e-03, 0., 0., 0., 0., 0., 0. ]
      - [ 0., 0., 0., 0., 0., 0., 0., 0., 0., 0., 5.46448072e-03, 0., 0.,
          0., 0., 0., 0., 0., 5.46448072e-03, 0., 0., 0., 0., 0., 0., 0.,
          0., 0., 0., 0., 5.46448072e-03, 0., 0., 0., 0., 0.,
          5.46448072e-03, 0., 0., 5.46448072e-03, 0., 0., 0., 0., 0., 0.,
          0., 0., 0., 0., 0., 0., 0., 0., 0., 0., 0., 0., 0., 0., 0., 0.,
          0., 0., 0., 0., 0., 0., 0., 0., 5.46448072e-03, 0., 0., 0.,
          5.46448072e-03, 0., 0., 0., 0., 0., 5.46448072e-03, 0.,
          5.46448072e-03, 0., 0., 0., 0., 0., 0., 0., 0., 0., 0., 0., 0.,
          0., 1.09289614e-02, 0., 0., 0., 0., 0., 5.46448072e-03, 0., 0.,
          0., 0., 0., 0., 0., 0., 0., 0., 0., 0., 0., 1.09289614e-02, 0.,
          0., 0., 5.46448072e-03, 0., 5.46448072e-03, 0., 0., 0., 0., 0.,
          0., 0., 0., 0., 5.46448072e-03, 0., 0., 0., 0., 0., 0., 0., 0.,
          0., 0., 0., 5.46448072e-03, 1.09289614e-02, 5.46448072e-03, 0.,
          0., 0., 5.46448072e-03, 0., 0., 0., 0., 0., 0., 0., 0., 0., 0.,
          0., 0., 0., 0., 0., 5.46448072e-03, 5.46448072e-03, 0., 0., 0.,
          0., 5.46448072e-03, 0., 0., 0., 0., 0., 0., 0., 0.,
          5.46448072e-03, 0., 0., 1.09289614e-02, 5.46448072e-03, 0., 0.,
          5.46448072e-03, 0., 0., 0., 0., 0., 5.46448072e-03, 0., 0., 0.,
          0., 0., 0., 0., 5.46448072e-03, 0., 0., 0., 0., 0., 0., 0., 0.,
          5.46448072e-03, 0., 1.09289614e-02, 0., 0., 0., 5.46448072e-03,
          0., 5.46448072e-03, 0., 0., 0., 1.09289614e-02, 0., 0.,
          1.09289614e-02, 0., 0., 0., 0., 0., 0., 0., 0., 0., 0., 0., 0.,
          0., 5.46448072e-03, 0., 0., 0., 0., 0., 0., 0., 0., 0., 0.,
          5.46448072e-03, 0., 0., 1.09289614e-02, 0., 0., 0., 0., 0.,
          5.46448072e-03, 0., 0., 0., 0., 0., 0., 5.46448072e-03, 0., 0.,
          0., 1.09289614e-02, 0., 0., 0., 0., 0., 0., 5.46448072e-03, 0.,
          0., 0., 0., 5.46448072e-03, 5.46448072e-03, 0., 0., 0., 0., 0.,
          0., 0., 0., 0., 0., 0., 0., 0., 5.46448072e-03, 0., 0., 0., 0.,
          5.46448072e-03, 0., 0., 0., 0., 5.46448072e-03, 1.09289614e-02,
          0., 0., 0., 0., 0., 0., 0., 1.09289614e-02, 0., 0., 0., 0., 0.,
          5.46448072e-03, 0., 0., 0., 0., 0., 0., 5.46448072e-03, 0., 0.,
          0., 5.46448072e-03, 0., 0., 5.46448072e-03, 0., 0., 0., 0., 0.,
          5.46448072e-03, 0., 0., 0., 0., 0., 0., 0., 0., 0., 0., 0., 0.,
          0., 0., 0., 0., 0., 0., 0., 0., 0., 0., 0., 0., 0., 0.,
          5.46448072e-03, 0., 0., 5.46448072e-03, 5.46448072e-03, 0., 0.,
          0., 5.46448072e-03, 5.46448072e-03, 5.46448072e-03, 0., 0., 0.,
          5.46448072e-03, 0., 0., 0., 0., 0., 0., 0., 0., 0.,
          5.46448072e-03, 0., 0., 0., 0., 0., 0., 0., 0., 0., 0., 0., 0.,
          0., 0., 5.46448072e-03, 0., 0., 0., 0., 0., 0., 0., 0., 0., 0.,
          0., 0., 5.46448072e-03, 0., 0., 0., 0., 0., 0., 0., 0., 0.,
          2.18579229e-02, 0., 0., 0., 0., 0., 0., 0., 5.46448072e-03, 0.,
          0., 0., 0., 0., 0., 0., 5.46448072e-03, 0., 0., 5.46448072e-03,
          0., 0., 0., 0., 0., 0., 0., 0., 5.46448072e-03, 0., 0., 0., 0.,
          0., 0., 0., 0., 1.09289614e-02, 0., 0., 0., 0., 0.,
          5.46448072e-03, 0., 0., 0., 0., 0., 0., 0., 0., 0., 0., 0., 0.,
          5.46448072e-03, 0., 5.46448072e-03, 0., 0., 0., 0., 0., 0., 0.,
          0., 0., 0., 0., 0., 0., 0., 0., 0., 0., 0., 0., 0., 0., 0., 0.,
          5.46448072e-03, 0., 0., 0., 0., 0., 5.46448072e-03, 0.,
          5.46448072e-03, 0., 5.46448072e-03, 0., 0., 0., 0., 0.,
          5.46448072e-03, 1.09289614e-02, 0., 0., 5.46448072e-03, 0., 0.,
          5.46448072e-03, 0., 1.09289614e-02, 0., 0., 5.46448072e-03,
          1.09289614e-02, 0., 0., 0., 5.46448072e-03, 0., 0., 0.,
          5.46448072e-03, 0., 0., 5.46448072e-03, 0., 0., 0., 0., 0., 0.,
          0., 0., 0., 0., 0., 0., 0., 0., 0., 5.46448072e-03,
          5.46448072e-03, 0., 0., 0., 0., 0., 0., 0., 0., 0., 0., 0., 0.,
          0., 5.46448072e-03, 0., 0., 0., 0., 0., 0., 5.46448072e-03, 0.,
          0., 0., 0., 0., 0., 0., 0., 5.46448072e-03, 0., 5.46448072e-03,
          0., 5.46448072e-03, 0., 0., 0., 0., 0., 0., 0., 0.,
          5.46448072e-03, 0., 5.46448072e-03, 0., 0., 0., 0., 0., 0., 0.,
          5.46448072e-03, 0., 0., 0., 0., 0., 0., 5.46448072e-03, 0., 0.,
          0., 0., 0., 0., 5.46448072e-03, 0., 1.09289614e-02, 0., 0., 0.,
          0., 0., 5.46448072e-03, 5.46448072e-03, 0., 0., 0., 0., 0., 0.,
          0., 0., 0., 0., 5.46448072e-03, 0., 0., 5.46448072e-03, 0., 0.,
          0., 0., 5.46448072e-03, 0., 0., 0., 5.46448072e-03, 0., 0., 0.,
          0., 0., 0., 5.46448072e-03, 0., 5.46448072e-03, 0.,
          5.46448072e-03, 0., 0., 0., 0., 0., 0., 0., 0., 0., 0., 0., 0.,
          0., 0., 0., 5.46448072e-03, 0., 0., 0., 0., 0., 0., 0., 0., 0.,
          0., 5.46448072e-03, 0., 0., 0., 0., 0., 0., 0., 0., 0., 0., 0.,
          0., 0., 0., 5.46448072e-03, 0., 0., 0., 5.46448072e-03, 0., 0.,
          0., 0., 0., 0., 0., 0., 0., 0., 0., 0., 5.46448072e-03, 0., 0.,
          0., 0., 0., 0., 0., 5.46448072e-03, 0., 0., 0., 0., 0., 0., 0.,
          0., 0., 5.46448072e-03, 0., 0., 0., 0., 0., 5.46448072e-03, 0.,
          0., 0., 0., 0., 0., 0., 5.46448072e-03, 0., 5.46448072e-03, 0.,
          0., 0., 0., 0., 0., 5.46448072e-03, 0., 0., 0., 1.09289614e-02,
          0., 5.46448072e-03, 0., 1.09289614e-02, 0., 0., 0., 0., 0., 0.,
          0., 0., 0., 0., 0., 0., 0., 0., 0., 5.46448072e-03, 0.,
          5.46448072e-03, 0., 5.46448072e-03, 0., 0., 5.46448072e-03, 0.,
          0., 0., 5.46448072e-03, 0., 0., 0., 5.46448072e-03,
          5.46448072e-03, 0., 0., 0., 0., 0., 0., 0., 0., 0., 0., 0., 0.,
          0., 0., 0., 5.46448072e-03, 0., 0., 0., 0., 1.09289614e-02, 0.,
          0., 0., 5.46448072e-03, 0., 0., 5.46448072e-03, 0., 0., 0., 0.,
          0., 0., 0., 0., 0., 0., 0., 0., 0., 5.46448072e-03, 0.,
          5.46448072e-03, 0., 0., 5.46448072e-03, 0., 0., 0., 0., 0., 0.,
          0., 0., 0., 0., 0., 0., 0., 0., 0., 5.46448072e-03, 0., 0., 0.,
          0., 0., 0., 0., 0., 0., 0., 0., 0., 5.46448072e-03, 0., 0.,
          1.09289614e-02, 0., 0., 0., 5.46448072e-03, 0., 0., 0., 0., 0.,
          0., 0., 0., 0., 5.46448072e-03, 0., 0., 5.46448072e-03, 0., 0.,
          0., 0., 0., 5.46448072e-03, 1.09289614e-02, 5.46448072e-03, 0.,
          0., 0., 0., 0., 0., 0., 5.46448072e-03, 0., 0., 0.,
          5.46448072e-03, 1.09289614e-02, 0., 0., 0., 0., 0., 0., 0.,
          5.46448072e-03, 0., 0., 0., 0., 0., 5.46448072e-03, 0., 0.,
          1.09289614e-02, 0., 0., 0., 0., 0., 0., 0., 0., 0., 0., 0., 0.,
          0., 0., 0., 0., 0., 0., 0., 0., 1.09289614e-02, 5.46448072e-03,
          0., 0., 0., 0., 0., 1.09289614e-02, 0., 0., 0., 0., 0., 0., 0.,
          0., 0., 0., 0., 5.46448072e-03, 0., 0., 0., 0. ]
      - [ 0., 0., 0., 0., 0., 0., 0., 0., 0., 5.55555569e-03, 0., 0., 0.,
          0., 0., 0., 1.11111114e-02, 5.55555569e-03, 0., 0., 0., 0.,
          5.55555569e-03, 0., 0., 5.55555569e-03, 5.55555569e-03, 0., 0.,
          0., 0., 0., 0., 0., 0., 0., 0., 0., 0., 0., 0., 0., 0., 0., 0.,
          0., 5.55555569e-03, 0., 0., 0., 0., 5.55555569e-03, 0., 0., 0.,
          0., 0., 0., 5.55555569e-03, 0., 0., 0., 0., 0., 5.55555569e-03,
          0., 0., 5.55555569e-03, 0., 0., 0., 0., 0., 0., 5.55555569e-03,
          0., 0., 0., 0., 0., 0., 0., 0., 0., 0., 0., 0., 0., 0., 0., 0.,
          0., 0., 0., 0., 0., 0., 0., 0., 5.55555569e-03, 0., 0., 0.,
          5.55555569e-03, 0., 0., 0., 0., 0., 0., 0., 0., 5.55555569e-03,
          0., 0., 0., 5.55555569e-03, 5.55555569e-03, 0., 0., 0., 0.,
          1.66666675e-02, 0., 0., 0., 0., 0., 0., 0., 0., 0., 0.,
          5.55555569e-03, 0., 0., 5.55555569e-03, 0., 0., 1.11111114e-02,
          0., 0., 0., 0., 0., 0., 1.66666675e-02, 0., 5.55555569e-03,
          5.55555569e-03, 5.55555569e-03, 0., 0., 0., 1.11111114e-02, 0.,
          0., 5.55555569e-03, 0., 0., 0., 0., 5.55555569e-03, 0., 0., 0.,
          0., 0., 0., 0., 0., 0., 0., 0., 0., 0., 0., 5.55555569e-03, 0.,
          0., 5.55555569e-03, 0., 5.55555569e-03, 0., 0., 0., 0.,
          5.55555569e-03, 0., 0., 0., 0., 5.55555569e-03, 0., 0., 0., 0.,
          5.55555569e-03, 0., 0., 5.55555569e-03, 0., 0., 0.,
          5.55555569e-03, 0., 0., 0., 0., 5.55555569e-03, 0., 0., 0.,
          1.11111114e-02, 5.55555569e-03, 0., 0., 0., 5.55555569e-03, 0.,
          0., 0., 0., 0., 0., 0., 0., 0., 0., 0., 0., 0., 0., 0., 0., 0.,
          0., 0., 0., 0., 0., 0., 5.55555569e-03, 0., 0., 0., 0.,
          5.55555569e-03, 0., 0., 0., 0., 0., 0., 0., 0., 0., 0., 0., 0.,
          0., 0., 5.55555569e-03, 0., 0., 0., 0., 0., 0., 0., 0., 0., 0.,
          0., 0., 0., 0., 1.66666675e-02, 5.55555569e-03, 0., 0., 0., 0.,
          0., 0., 0., 5.55555569e-03, 0., 0., 0., 0., 0., 0., 0., 0., 0.,
          0., 0., 0., 0., 0., 0., 0., 0., 5.55555569e-03, 0., 0., 0., 0.,
          0., 0., 0., 0., 0., 0., 0., 0., 0., 0., 0., 0., 0., 0.,
          1.11111114e-02, 5.55555569e-03, 5.55555569e-03, 0., 0., 0., 0.,
          0., 0., 0., 0., 1.11111114e-02, 5.55555569e-03, 0., 0., 0., 0.,
          0., 0., 0., 0., 0., 0., 5.55555569e-03, 0., 0., 5.55555569e-03,
          0., 0., 0., 0., 5.55555569e-03, 0., 0., 0., 0., 0., 0., 0., 0.,
          0., 0., 0., 0., 0., 0., 1.11111114e-02, 0., 0., 0., 0., 0., 0.,
          0., 0., 0., 5.55555569e-03, 0., 0., 0., 5.55555569e-03,
          5.55555569e-03, 5.55555569e-03, 0., 0., 0., 0., 5.55555569e-03,
          0., 1.11111114e-02, 0., 0., 0., 5.55555569e-03, 0., 0., 0., 0.,
          0., 0., 0., 0., 0., 0., 2.22222228e-02, 0., 5.55555569e-03, 0.,
          0., 0., 0., 5.55555569e-03, 5.55555569e-03, 0., 0., 0., 0., 0.,
          0., 0., 0., 0., 0., 0., 5.55555569e-03, 5.55555569e-03, 0., 0.,
          0., 4.44444455e-02, 0., 0., 0., 0., 0., 0., 0., 5.55555569e-03,
          0., 0., 0., 0., 0., 0., 0., 0., 0., 0., 0., 0., 0.,
          5.55555569e-03, 0., 0., 5.55555569e-03, 0., 0., 0., 0., 0., 0.,
          0., 0., 0., 0., 0., 0., 0., 0., 0., 0., 0., 0., 5.55555569e-03,
          0., 0., 0., 0., 0., 0., 0., 0., 0., 5.55555569e-03,
          5.55555569e-03, 0., 5.55555569e-03, 5.55555569e-03, 0.,
          5.55555569e-03, 0., 0., 5.55555569e-03, 0., 0., 0., 0., 0., 0.,
          0., 0., 0., 0., 0., 0., 0., 0., 0., 0., 0., 0., 0., 0., 0.,
          5.55555569e-03, 0., 0., 5.55555569e-03, 0., 0., 0., 0., 0., 0.,
          0., 5.55555569e-03, 0., 0., 0., 0., 0., 0., 0., 0., 0., 0.,
          5.55555569e-03, 0., 0., 0., 0., 0., 0., 0., 3.88888903e-02, 0.,
          0., 0., 0., 5.55555569e-03, 0., 0., 0., 0., 5.55555569e-03, 0.,
          0., 0., 5.55555569e-03, 5.55555569e-03, 0., 0., 0.,
          5.55555569e-03, 0., 0., 0., 0., 0., 0., 0., 0., 0.,
          5.55555569e-03, 0., 0., 0., 0., 0., 0., 0., 0., 0., 0., 0., 0.,
          0., 0., 0., 0., 0., 0., 0., 0., 0., 0., 5.55555569e-03, 0., 0.,
          5.55555569e-03, 0., 0., 0., 0., 0., 0., 0., 0., 0., 0., 0., 0.,
          0., 0., 0., 0., 1.11111114e-02, 0., 5.55555569e-03, 0., 0., 0.,
          0., 0., 5.55555569e-03, 0., 0., 0., 0., 0., 0., 5.55555569e-03,
          0., 0., 0., 0., 0., 0., 0., 0., 0., 0., 0., 0., 0., 0., 0., 0.,
          0., 0., 0., 0., 0., 0., 0., 5.55555569e-03, 0., 0., 0., 0., 0.,
          0., 0., 0., 0., 0., 0., 0., 0., 0., 0., 0., 0., 0., 0., 0., 0.,
          0., 0., 0., 5.55555569e-03, 0., 5.55555569e-03, 0., 0., 0., 0.,
          0., 0., 0., 5.55555569e-03, 0., 0., 0., 0., 0., 5.55555569e-03,
          0., 0., 0., 0., 0., 5.55555569e-03, 0., 0., 5.55555569e-03,
          5.55555569e-03, 0., 0., 5.55555569e-03, 0., 5.55555569e-03, 0.,
          0., 0., 0., 0., 0., 0., 0., 0., 0., 0., 0., 0., 0., 0., 0.,
          5.55555569e-03, 0., 0., 0., 0., 0., 0., 0., 0., 0., 0., 0., 0.,
          0., 5.55555569e-03, 0., 0., 0., 0., 0., 0., 0., 0., 0., 0., 0.,
          5.55555569e-03, 0., 0., 0., 0., 0., 0., 5.55555569e-03, 0., 0.,
          0., 5.55555569e-03, 0., 0., 5.55555569e-03, 0., 0.,
          5.55555569e-03, 0., 0., 0., 0., 0., 0., 0., 0., 0., 0., 0., 0.,
          0., 0., 0., 0., 0., 5.55555569e-03, 5.55555569e-03, 0., 0., 0.,
          0., 0., 5.55555569e-03, 0., 0., 0., 0., 5.55555569e-03, 0., 0.,
          0., 0., 0., 0., 0., 0., 5.55555569e-03, 0., 0., 0., 0., 0., 0.,
          0., 0., 0., 0., 0., 0., 0., 0., 0., 0., 0., 0., 0.,
          5.55555569e-03, 5.55555569e-03, 5.55555569e-03, 0., 0., 0., 0.,
          0., 0., 1.11111114e-02, 0., 0., 0., 0., 0., 0., 0., 0., 0., 0.,
          0., 0., 0., 0., 0., 0., 0., 0., 0., 0., 5.55555569e-03, 0., 0.,
          0., 0., 0., 5.55555569e-03, 5.55555569e-03, 0., 0., 0., 0., 0.,
          0., 0., 0., 0., 0., 0., 0., 0., 0., 0., 0., 0., 0.,
          5.55555569e-03, 5.55555569e-03, 0., 0., 0., 5.55555569e-03, 0.,
          0., 0., 5.55555569e-03, 0., 0., 0., 0., 0., 0., 0., 0., 0., 0.,
          0., 0., 0., 0., 0., 0., 0., 5.55555569e-03, 0., 0., 0., 0., 0.,
          0., 0., 0., 5.55555569e-03, 0., 0., 1.11111114e-02, 0., 0.,
          5.55555569e-03, 0., 0., 0., 0., 0., 0., 0., 0., 0., 0., 0.,
          5.55555569e-03, 0., 0., 0., 0., 0., 0., 0., 0., 0., 0.,
          5.55555569e-03, 0., 5.55555569e-03, 0., 0., 0., 0., 0., 0., 0.,
          0., 0., 0., 5.55555569e-03, 0., 0., 0., 5.55555569e-03, 0., 0.,
          5.55555569e-03, 0., 0., 5.55555569e-03, 0., 0., 0., 0., 0., 0.,
          0., 0., 5.55555569e-03, 5.55555569e-03, 0., 0., 0., 0., 0.,
          1.11111114e-02, 0., 5.55555569e-03, 5.55555569e-03, 0., 0., 0. ]
      - [ 0., 3.81679391e-03, 0., 0., 0., 0., 0., 0., 0., 3.81679391e-03,
          0., 0., 0., 3.81679391e-03, 0., 0., 3.81679391e-03,
          3.81679391e-03, 0., 0., 0., 0., 0., 0., 0., 0., 3.81679391e-03,
          3.81679391e-03, 0., 3.81679391e-03, 0., 3.81679391e-03, 0.,
          7.63358781e-03, 3.81679391e-03, 0., 0., 0., 0., 0., 0., 0., 0.,
          3.81679391e-03, 0., 7.63358781e-03, 0., 0., 3.81679391e-03, 0.,
          0., 0., 0., 3.81679391e-03, 3.81679391e-03, 0., 3.81679391e-03,
          0., 0., 0., 0., 3.81679391e-03, 3.81679391e-03, 0., 0., 0.,
          3.81679391e-03, 0., 7.63358781e-03, 0., 0., 0., 0., 0.,
          3.81679391e-03, 0., 0., 0., 0., 0., 3.81679391e-03, 0.,
          3.81679391e-03, 0., 0., 0., 3.81679391e-03, 0., 0., 0.,
          3.81679391e-03, 0., 0., 0., 0., 0., 0., 3.81679391e-03, 0., 0.,
          0., 0., 3.81679391e-03, 0., 3.81679391e-03, 0., 0.,
          3.81679391e-03, 0., 0., 0., 0., 0., 0., 0., 0., 0., 0.,
          3.81679391e-03, 0., 3.81679391e-03, 0., 3.81679391e-03,
          3.81679391e-03, 3.81679391e-03, 0., 0., 0., 0., 7.63358781e-03,
          3.81679391e-03, 0., 3.81679391e-03, 0., 0., 0., 0.,
          3.81679391e-03, 0., 0., 3.81679391e-03, 0., 0., 0., 0., 0., 0.,
          3.81679391e-03, 0., 0., 7.63358781e-03, 0., 0., 0., 0., 0., 0.,
          0., 0., 0., 0., 0., 0., 0., 0., 3.81679391e-03, 3.81679391e-03,
          7.63358781e-03, 7.63358781e-03, 0., 0., 0., 0., 7.63358781e-03,
          0., 0., 0., 0., 0., 0., 0., 0., 0., 3.81679391e-03, 0., 0., 0.,
          0., 0., 0., 0., 1.14503819e-02, 0., 0., 0., 3.81679391e-03, 0.,
          3.81679391e-03, 0., 0., 0., 7.63358781e-03, 7.63358781e-03, 0.,
          0., 3.81679391e-03, 3.81679391e-03, 0., 0., 0., 0., 0.,
          3.81679391e-03, 0., 0., 3.81679391e-03, 0., 0., 0., 0., 0., 0.,
          0., 0., 0., 0., 0., 0., 3.81679391e-03, 3.81679391e-03, 0.,
          3.81679391e-03, 0., 0., 0., 3.81679391e-03, 0., 0.,
          3.81679391e-03, 0., 3.81679391e-03, 0., 0., 0., 0.,
          3.81679391e-03, 0., 0., 0., 7.63358781e-03, 0., 0., 0., 0., 0.,
          0., 0., 0., 0., 0., 0., 0., 0., 0., 7.63358781e-03,
          3.81679391e-03, 0., 3.81679391e-03, 0., 0., 0., 0., 0., 0., 0.,
          0., 3.81679391e-03, 3.81679391e-03, 0., 0., 0., 3.81679391e-03,
          0., 3.81679391e-03, 7.63358781e-03, 3.81679391e-03, 0., 0., 0.,
          3.81679391e-03, 0., 0., 0., 3.81679391e-03, 3.81679391e-03, 0.,
          0., 3.81679391e-03, 0., 0., 3.81679391e-03, 0., 0., 0.,
          3.81679391e-03, 0., 0., 0., 0., 0., 0., 3.81679391e-03,
          7.63358781e-03, 0., 0., 7.63358781e-03, 0., 0., 0., 0., 0., 0.,
          0., 0., 0., 7.63358781e-03, 0., 0., 3.81679391e-03, 0., 0.,
          3.81679391e-03, 0., 3.81679391e-03, 0., 0., 0., 0., 0., 0., 0.,
          0., 0., 0., 0., 0., 3.81679391e-03, 0., 0., 0., 3.81679391e-03,
          7.63358781e-03, 3.81679391e-03, 0., 3.81679391e-03, 0., 0.,
          3.81679391e-03, 0., 0., 0., 0., 7.63358781e-03, 0., 0., 0., 0.,
          0., 0., 0., 0., 0., 0., 0., 0., 0., 0., 0., 0., 0., 0., 0., 0.,
          0., 0., 0., 0., 0., 0., 3.81679391e-03, 0., 3.81679391e-03, 0.,
          0., 0., 0., 3.81679391e-03, 0., 0., 0., 0., 3.81679391e-03, 0.,
          3.81679391e-03, 0., 0., 0., 7.63358781e-03, 0., 0., 0., 0., 0.,
          0., 3.81679391e-03, 0., 3.81679391e-03, 0., 0., 0., 0., 0., 0.,
          0., 0., 0., 3.81679391e-03, 7.63358781e-03, 0., 0., 0., 0., 0.,
          0., 0., 0., 0., 0., 0., 0., 3.81679391e-03, 0., 0., 0., 0., 0.,
          0., 0., 0., 0., 0., 3.81679391e-03, 0., 0., 0., 0., 0.,
          3.81679391e-03, 0., 0., 0., 0., 0., 3.81679391e-03, 0.,
          3.81679391e-03, 0., 3.81679391e-03, 0., 0., 0., 3.81679391e-03,
          3.81679391e-03, 3.81679391e-03, 0., 0., 0., 0., 0., 0.,
          3.81679391e-03, 0., 0., 0., 0., 0., 0., 0., 0., 0., 0., 0.,
          3.81679391e-03, 0., 0., 0., 0., 3.81679391e-03, 0.,
          3.81679391e-03, 0., 0., 0., 3.81679391e-03, 0., 0., 0.,
          3.81679391e-03, 0., 3.81679391e-03, 0., 0., 0., 0.,
          3.81679391e-03, 0., 0., 3.81679391e-03, 0., 3.81679391e-03, 0.,
          0., 0., 0., 0., 3.81679391e-03, 0., 0., 0., 3.81679391e-03, 0.,
          0., 0., 0., 0., 0., 0., 0., 0., 0., 0., 0., 0., 7.63358781e-03,
          0., 0., 0., 1.14503819e-02, 0., 0., 0., 0., 7.63358781e-03, 0.,
          0., 0., 0., 0., 3.81679391e-03, 0., 0., 7.63358781e-03, 0., 0.,
          7.63358781e-03, 0., 0., 0., 0., 0., 0., 0., 0., 0., 0., 0., 0.,
          0., 0., 0., 0., 0., 0., 0., 3.81679391e-03, 0., 1.14503819e-02,
          0., 0., 0., 0., 0., 0., 0., 3.81679391e-03, 0., 0., 0., 0., 0.,
          0., 0., 0., 3.81679391e-03, 0., 0., 0., 0., 0., 0., 0., 0., 0.,
          3.81679391e-03, 0., 0., 3.81679391e-03, 3.81679391e-03, 0., 0.,
          3.81679391e-03, 3.81679391e-03, 3.81679391e-03, 0.,
          3.81679391e-03, 3.81679391e-03, 0., 0., 0., 0., 0., 0.,
          3.81679391e-03, 0., 0., 3.81679391e-03, 0., 0., 3.81679391e-03,
          0., 0., 0., 0., 0., 0., 0., 3.81679391e-03, 0., 0., 0., 0., 0.,
          0., 0., 3.81679391e-03, 0., 0., 0., 7.63358781e-03, 0., 0., 0.,
          0., 0., 0., 0., 3.81679391e-03, 0., 0., 0., 0., 3.81679391e-03,
          0., 0., 0., 0., 7.63358781e-03, 0., 0., 0., 0., 0., 0., 0.,
          3.81679391e-03, 0., 0., 3.81679391e-03, 0., 0., 7.63358781e-03,
          0., 0., 7.63358781e-03, 0., 0., 0., 7.63358781e-03,
          3.81679391e-03, 7.63358781e-03, 0., 0., 0., 0., 0., 0., 0., 0.,
          0., 0., 0., 0., 3.81679391e-03, 0., 3.81679391e-03, 0., 0.,
          3.81679391e-03, 0., 0., 0., 0., 0., 0., 0., 3.81679391e-03, 0.,
          3.81679391e-03, 0., 7.63358781e-03, 0., 0., 0., 0., 0., 0., 0.,
          3.81679391e-03, 0., 0., 0., 0., 0., 0., 0., 0., 0., 0., 0., 0.,
          0., 0., 0., 0., 0., 0., 0., 3.81679391e-03, 0., 0., 0., 0., 0.,
          0., 3.81679391e-03, 0., 0., 0., 0., 1.52671756e-02, 0.,
          3.81679391e-03, 0., 0., 0., 0., 0., 0., 0., 0., 0.,
          3.81679391e-03, 0., 3.81679391e-03, 0., 0., 0., 0.,
          3.81679391e-03, 3.81679391e-03, 0., 0., 0., 0., 0., 0., 0., 0.,
          0., 0., 0., 0., 3.81679391e-03, 3.81679391e-03, 0.,
          3.81679391e-03, 0., 3.81679391e-03, 0., 0., 0., 0., 0.,
          3.81679391e-03, 3.81679391e-03, 0., 3.81679391e-03, 0.,
          3.81679391e-03, 0., 0., 0., 0., 0., 3.81679391e-03,
          3.81679391e-03, 0., 0., 0., 0., 3.81679391e-03, 0., 0., 0.,
          3.81679391e-03, 0., 0., 0., 0., 0., 0., 3.81679391e-03, 0., 0.,
          0., 0., 0., 3.81679391e-03, 3.81679391e-03, 0., 0., 0., 0., 0.,
          0., 0., 0., 0., 0., 0., 0., 0., 3.81679391e-03, 0.,
          3.81679391e-03, 3.81679391e-03, 0., 0., 0., 3.81679391e-03, 0.,
          0., 0., 3.81679391e-03, 0., 0., 3.81679391e-03, 0., 0., 0., 0.,
          0., 0., 0., 0., 0., 0., 0., 0., 0., 0., 0., 0., 0.,
          3.81679391e-03, 0., 0., 0., 0., 0., 0., 0., 0., 3.81679391e-03,
          0., 0., 0., 0., 0., 0., 0., 0., 0., 3.81679391e-03, 0., 0., 0.,
          0., 0., 0., 0., 3.81679391e-03, 0., 0., 0., 0., 0.,
          3.81679391e-03, 0., 0., 3.81679391e-03, 0., 0., 7.63358781e-03,
          0., 0., 0., 0., 0., 0., 0., 7.63358781e-03, 0., 0., 0., 0.,
          3.81679391e-03, 0., 0., 0., 0., 0., 3.81679391e-03, 0., 0.,
          3.81679391e-03, 0., 0., 0., 3.81679391e-03, 3.81679391e-03, 0.,
          0., 0., 0., 0., 0., 0., 0., 0., 0., 0., 0., 0., 0.,
          7.63358781e-03, 0., 3.81679391e-03, 0., 0., 3.81679391e-03, 0.,
          0., 3.81679391e-03, 0., 0., 3.81679391e-03, 0., 3.81679391e-03,
          7.63358781e-03, 0., 0., 0., 3.81679391e-03, 0., 0., 0.,
          7.63358781e-03, 0., 0. ]
      - [ 2.44498788e-03, 0., 0., 4.88997577e-03, 0., 0., 0.,
          2.44498788e-03, 0., 4.88997577e-03, 7.33496342e-03,
          2.44498788e-03, 0., 2.44498788e-03, 0., 0., 2.44498788e-03,
          7.33496342e-03, 0., 0., 0., 0., 0., 0., 0., 0., 0.,
          2.44498788e-03, 2.44498788e-03, 2.44498788e-03, 0., 0., 0.,
          2.44498788e-03, 2.44498788e-03, 0., 2.44498788e-03, 0., 0., 0.,
          0., 2.44498788e-03, 0., 0., 0., 0., 0., 0., 4.88997577e-03, 0.,
          0., 0., 0., 0., 0., 0., 0., 0., 0., 0., 0., 0., 2.44498788e-03,
          0., 0., 2.44498788e-03, 9.77995154e-03, 0., 0., 2.44498788e-03,
          2.44498788e-03, 0., 0., 0., 2.44498788e-03, 2.44498788e-03, 0.,
          0., 2.44498788e-03, 2.44498788e-03, 0., 0., 2.44498788e-03,
          2.44498788e-03, 0., 2.44498788e-03, 2.44498788e-03, 0.,
          4.88997577e-03, 4.88997577e-03, 0., 0., 2.44498788e-03, 0., 0.,
          0., 2.44498788e-03, 0., 0., 0., 0., 2.44498788e-03, 0., 0., 0.,
          0., 0., 2.44498788e-03, 0., 2.44498788e-03, 7.33496342e-03, 0.,
          0., 0., 0., 0., 2.44498788e-03, 0., 0., 0., 2.44498788e-03, 0.,
          0., 0., 0., 0., 0., 0., 0., 0., 0., 0., 0., 7.33496342e-03, 0.,
          0., 0., 0., 2.44498788e-03, 0., 0., 0., 0., 0., 2.44498788e-03,
          0., 0., 0., 0., 2.44498788e-03, 2.44498788e-03, 0., 0., 0., 0.,
          2.44498788e-03, 0., 2.44498788e-03, 2.44498788e-03,
          2.44498788e-03, 0., 2.44498788e-03, 0., 0., 0., 0.,
          2.44498788e-03, 2.44498788e-03, 0., 0., 0., 0., 0.,
          4.88997577e-03, 2.44498788e-03, 0., 0., 2.44498788e-03, 0., 0.,
          0., 0., 4.88997577e-03, 0., 0., 0., 2.44498788e-03,
          2.44498788e-03, 2.44498788e-03, 0., 0., 2.44498788e-03, 0., 0.,
          2.44498788e-03, 0., 2.44498788e-03, 0., 0., 0., 2.44498788e-03,
          7.33496342e-03, 0., 4.88997577e-03, 0., 0., 0., 0.,
          4.88997577e-03, 2.44498788e-03, 2.44498788e-03, 0., 0., 0.,
          4.88997577e-03, 0., 0., 0., 7.33496342e-03, 0., 0., 0.,
          2.44498788e-03, 4.88997577e-03, 0., 0., 0., 0., 2.44498788e-03,
          4.88997577e-03, 0., 0., 2.44498788e-03, 2.44498788e-03, 0., 0.,
          4.88997577e-03, 0., 0., 0., 0., 0., 0., 0., 0., 0.,
          2.44498788e-03, 0., 0., 0., 0., 2.44498788e-03, 0., 0.,
          2.44498788e-03, 0., 0., 0., 0., 0., 0., 0., 0., 0.,
          4.88997577e-03, 0., 2.44498788e-03, 0., 0., 0., 0., 0., 0., 0.,
          2.44498788e-03, 0., 0., 2.44498788e-03, 0., 0., 0., 0., 0., 0.,
          2.44498788e-03, 0., 0., 2.44498788e-03, 0., 0., 2.44498788e-03,
          0., 0., 7.33496342e-03, 0., 4.88997577e-03, 0., 0., 0.,
          2.44498788e-03, 0., 0., 0., 0., 0., 0., 0., 0., 0., 0.,
          4.88997577e-03, 0., 0., 2.44498788e-03, 0., 0., 0., 0.,
          2.44498788e-03, 2.44498788e-03, 0., 0., 4.88997577e-03, 0., 0.,
          0., 0., 0., 4.88997577e-03, 2.44498788e-03, 0., 0., 0.,
          2.44498788e-03, 0., 2.44498788e-03, 0., 0., 2.44498788e-03, 0.,
          0., 0., 0., 2.44498788e-03, 0., 2.44498788e-03, 0., 0., 0.,
          2.44498788e-03, 0., 4.88997577e-03, 0., 2.44498788e-03, 0., 0.,
          0., 2.44498788e-03, 0., 0., 0., 2.44498788e-03, 0., 0., 0.,
          2.44498788e-03, 0., 2.44498788e-03, 0., 0., 0., 4.88997577e-03,
          0., 0., 0., 2.44498788e-03, 0., 0., 0., 0., 0., 0.,
          2.44498788e-03, 2.44498788e-03, 2.44498788e-03, 2.44498788e-03,
          0., 0., 2.44498788e-03, 2.44498788e-03, 0., 0., 4.88997577e-03,
          0., 2.44498788e-03, 0., 0., 0., 0., 2.44498788e-03,
          2.44498788e-03, 0., 0., 0., 0., 0., 2.44498788e-03, 0., 0., 0.,
          2.44498788e-03, 0., 0., 0., 0., 2.44498788e-03, 4.88997577e-03,
          0., 0., 0., 0., 0., 0., 4.88997577e-03, 0., 0., 2.44498788e-03,
          2.44498788e-03, 0., 0., 0., 2.44498788e-03, 0., 0., 0., 0.,
          2.44498788e-03, 0., 2.44498788e-03, 2.44498788e-03,
          2.44498788e-03, 0., 2.44498788e-03, 0., 0., 2.44498788e-03,
          2.44498788e-03, 0., 4.88997577e-03, 0., 2.44498788e-03, 0.,
          2.44498788e-03, 2.44498788e-03, 0., 0., 0., 2.44498788e-03, 0.,
          2.44498788e-03, 0., 0., 2.44498788e-03, 0., 0., 2.44498788e-03,
          0., 0., 4.88997577e-03, 0., 0., 0., 0., 0., 4.88997577e-03, 0.,
          2.44498788e-03, 0., 0., 2.44498788e-03, 0., 0., 4.88997577e-03,
          2.44498788e-03, 2.44498788e-03, 0., 0., 0., 0., 7.33496342e-03,
          4.88997577e-03, 0., 0., 2.44498788e-03, 0., 2.44498788e-03, 0.,
          0., 0., 2.44498788e-03, 0., 0., 0., 0., 0., 0., 0., 0.,
          2.44498788e-03, 4.88997577e-03, 0., 0., 0., 0., 0., 0., 0.,
          2.44498788e-03, 0., 0., 0., 2.44498788e-03, 2.44498788e-03, 0.,
          0., 0., 2.44498788e-03, 2.44498788e-03, 0., 0., 2.44498788e-03,
          0., 0., 0., 0., 0., 0., 0., 2.44498788e-03, 2.44498788e-03, 0.,
          2.44498788e-03, 0., 0., 2.44498788e-03, 0., 0., 0.,
          4.88997577e-03, 0., 2.44498788e-03, 0., 0., 0., 0., 0., 0.,
          2.44498788e-03, 2.44498788e-03, 0., 0., 0., 0., 0., 0.,
          2.44498788e-03, 0., 2.44498788e-03, 0., 0., 0., 2.44498788e-03,
          4.88997577e-03, 0., 0., 0., 0., 2.44498788e-03, 2.44498788e-03,
          0., 2.44498788e-03, 2.44498788e-03, 2.44498788e-03, 0., 0., 0.,
          0., 2.44498788e-03, 0., 0., 0., 0., 4.88997577e-03, 0., 0., 0.,
          0., 0., 2.44498788e-03, 0., 4.88997577e-03, 0., 0., 0.,
          2.44498788e-03, 0., 4.88997577e-03, 2.44498788e-03, 0., 0.,
          2.44498788e-03, 0., 2.44498788e-03, 0., 4.88997577e-03, 0.,
          2.44498788e-03, 0., 2.44498788e-03, 0., 0., 0., 0., 0., 0.,
          4.88997577e-03, 4.88997577e-03, 0., 0., 0., 2.44498788e-03, 0.,
          0., 2.44498788e-03, 0., 0., 0., 0., 0., 0., 0., 0., 0., 0.,
          2.44498788e-03, 0., 0., 2.44498788e-03, 2.44498788e-03,
          2.44498788e-03, 0., 2.44498788e-03, 0., 0., 2.44498788e-03,
          2.44498788e-03, 0., 0., 2.44498788e-03, 0., 2.44498788e-03,
          2.44498788e-03, 0., 0., 0., 4.88997577e-03, 0., 0., 0., 0., 0.,
          4.88997577e-03, 0., 0., 0., 4.88997577e-03, 4.88997577e-03,
          4.88997577e-03, 2.44498788e-03, 1.22249397e-02, 0., 0., 0., 0.,
          0., 2.44498788e-03, 0., 4.88997577e-03, 0., 0., 7.33496342e-03,
          0., 0., 0., 0., 0., 0., 0., 2.44498788e-03, 0., 4.88997577e-03,
          4.88997577e-03, 0., 0., 0., 0., 0., 2.44498788e-03,
          2.44498788e-03, 2.44498788e-03, 0., 0., 0., 2.44498788e-03,
          4.88997577e-03, 0., 0., 4.88997577e-03, 2.44498788e-03, 0.,
          4.88997577e-03, 0., 2.44498788e-03, 0., 0., 0., 0.,
          2.44498788e-03, 0., 0., 0., 0., 2.44498788e-03, 0.,
          4.88997577e-03, 2.44498788e-03, 0., 2.44498788e-03, 0., 0., 0.,
          2.44498788e-03, 0., 0., 0., 0., 0., 0., 0., 0., 0., 0., 0.,
          2.44498788e-03, 0., 2.44498788e-03, 0., 0., 0., 2.44498788e-03,
          0., 2.44498788e-03, 0., 2.44498788e-03, 0., 0., 0., 0.,
          2.44498788e-03, 0., 7.33496342e-03, 0., 0., 7.33496342e-03, 0.,
          0., 0., 4.88997577e-03, 2.44498788e-03, 0., 4.88997577e-03,
          4.88997577e-03, 0., 0., 0., 7.33496342e-03, 0., 2.44498788e-03,
          0., 2.44498788e-03, 0., 2.44498788e-03, 0., 2.44498788e-03,
          2.44498788e-03, 2.44498788e-03, 0., 0., 0., 2.44498788e-03,
          4.88997577e-03, 0., 0., 0., 0., 0., 0., 0., 0., 0., 0.,
          2.44498788e-03, 0., 0., 2.44498788e-03, 2.44498788e-03, 0., 0.,
          0., 2.44498788e-03, 2.44498788e-03, 2.44498788e-03,
          2.44498788e-03, 2.44498788e-03, 0., 0., 0., 0., 0.,
          2.44498788e-03, 2.44498788e-03, 2.44498788e-03, 2.44498788e-03,
          0., 0., 2.44498788e-03, 0., 0., 0., 4.88997577e-03, 0., 0., 0.,
          2.44498788e-03, 2.44498788e-03, 2.44498788e-03, 0., 0.,
          4.88997577e-03, 0., 2.44498788e-03, 0., 0., 0., 2.44498788e-03,
          2.44498788e-03, 0., 0., 2.44498788e-03, 2.44498788e-03, 0., 0.,
          0., 2.44498788e-03, 0., 0., 2.44498788e-03, 0., 2.44498788e-03,
          0., 2.44498788e-03, 0., 0., 0., 4.88997577e-03, 2.44498788e-03,
          4.88997577e-03, 0., 0., 0., 0., 2.44498788e-03, 2.44498788e-03,
          2.44498788e-03, 0., 0., 0., 2.44498788e-03, 0., 0., 0., 0., 0.,
          0., 0., 0., 0., 0., 0., 0., 0., 0., 0., 0., 4.88997577e-03, 0.,
          0., 0., 0., 0., 0., 0., 0., 2.44498788e-03, 2.44498788e-03,
          2.44498788e-03, 0., 0., 0., 0., 0., 0., 0., 0., 0.,
          2.44498788e-03, 7.33496342e-03, 0., 0., 2.44498788e-03,
          2.44498788e-03, 0., 0., 0., 0., 2.44498788e-03, 2.44498788e-03,
          0., 0., 0., 2.44498788e-03, 0., 0., 2.44498788e-03, 0., 0.,
          4.88997577e-03, 0., 0., 0., 0., 0., 0., 0., 2.44498788e-03, 0.,
          2.44498788e-03, 0., 0., 0., 2.44498788e-03, 2.44498788e-03, 0.,
          0., 4.88997577e-03, 0., 2.44498788e-03, 4.88997577e-03, 0., 0.,
          0., 0., 0., 0., 0., 0., 0., 0., 2.44498788e-03, 0., 0., 0., 0.,
          2.44498788e-03, 0., 0., 2.44498788e-03, 0., 0., 2.44498788e-03,
          0., 0., 0., 0., 0., 0., 0., 2.44498788e-03, 0., 0. ]
      - [ 0., 0., 0., 0., 0., 6.13496918e-03, 0., 0., 0., 6.13496918e-03,
          0., 0., 6.13496918e-03, 0., 0., 0., 0., 0., 6.13496918e-03, 0.,
          6.13496918e-03, 0., 0., 0., 0., 1.22699384e-02, 0., 0., 0., 0.,
          0., 0., 0., 0., 0., 6.13496918e-03, 0., 0., 0., 0., 0., 0., 0.,
          6.13496918e-03, 0., 0., 0., 0., 0., 0., 0., 0., 0., 0., 0.,
          6.13496918e-03, 0., 0., 0., 0., 0., 0., 0., 0., 1.22699384e-02,
          0., 0., 0., 0., 0., 0., 0., 6.13496918e-03, 0., 0., 0., 0., 0.,
          0., 0., 0., 6.13496918e-03, 0., 0., 0., 6.13496918e-03, 0., 0.,
          0., 0., 0., 6.13496918e-03, 0., 0., 0., 0., 0., 0., 0., 0., 0.,
          0., 0., 6.13496918e-03, 6.13496918e-03, 0., 0., 0., 0., 0., 0.,
          0., 0., 0., 0., 0., 0., 0., 0., 1.22699384e-02, 0., 0., 0.,
          6.13496918e-03, 0., 0., 0., 0., 0., 0., 6.13496918e-03, 0., 0.,
          6.13496918e-03, 0., 0., 0., 0., 0., 0., 0., 0., 0., 0., 0., 0.,
          0., 0., 0., 0., 6.13496918e-03, 0., 0., 0., 0., 0., 0., 0., 0.,
          0., 0., 0., 1.22699384e-02, 0., 0., 0., 0., 0., 0.,
          6.13496918e-03, 0., 0., 6.13496918e-03, 0., 0., 0., 0., 0., 0.,
          0., 0., 0., 0., 1.22699384e-02, 0., 0., 6.13496918e-03,
          6.13496918e-03, 0., 0., 0., 6.13496918e-03, 0., 0., 0., 0., 0.,
          6.13496918e-03, 0., 0., 0., 0., 0., 0., 0., 0., 0.,
          6.13496918e-03, 0., 0., 0., 0., 0., 0., 0., 0., 0., 0.,
          6.13496918e-03, 0., 6.13496918e-03, 0., 0., 0., 0., 0., 0., 0.,
          0., 0., 0., 0., 0., 0., 6.13496918e-03, 0., 0., 0., 0., 0., 0.,
          0., 0., 0., 0., 0., 0., 6.13496918e-03, 0., 0., 0., 0., 0., 0.,
          0., 0., 0., 0., 0., 0., 0., 0., 0., 6.13496918e-03, 0., 0., 0.,
          6.13496918e-03, 0., 0., 0., 0., 0., 0., 0., 0., 0., 0., 0.,
          6.13496918e-03, 0., 6.13496918e-03, 0., 0., 0., 0., 0., 0., 0.,
          0., 0., 0., 0., 0., 0., 0., 6.13496918e-03, 0., 0., 0., 0., 0.,
          0., 0., 6.13496918e-03, 0., 0., 0., 0., 6.13496918e-03, 0., 0.,
          0., 0., 0., 0., 0., 0., 0., 0., 0., 0., 0., 0., 0.,
          6.13496918e-03, 0., 0., 0., 6.13496918e-03, 0., 0., 0., 0., 0.,
          0., 0., 0., 6.13496918e-03, 0., 0., 0., 0., 0., 0., 0., 0., 0.,
          6.13496918e-03, 0., 0., 0., 0., 0., 6.13496918e-03, 0., 0., 0.,
          0., 0., 0., 0., 0., 0., 0., 0., 0., 0., 0., 0., 0., 0., 0., 0.,
          0., 0., 6.13496918e-03, 0., 0., 1.22699384e-02, 0., 0., 0., 0.,
          0., 0., 0., 0., 6.13496918e-03, 0., 0., 0., 0., 0.,
          6.13496918e-03, 0., 0., 0., 0., 0., 0., 0., 0., 6.13496918e-03,
          0., 0., 0., 0., 0., 6.13496918e-03, 0., 0., 6.13496918e-03, 0.,
          6.13496918e-03, 0., 0., 6.13496918e-03, 0., 0., 0., 0., 0., 0.,
          0., 0., 0., 6.13496918e-03, 6.13496918e-03, 0., 0., 0.,
          6.13496918e-03, 0., 0., 0., 0., 0., 0., 0., 0., 0., 0., 0., 0.,
          0., 0., 0., 0., 1.84049085e-02, 0., 0., 0., 0., 0., 0.,
          6.13496918e-03, 0., 0., 0., 0., 0., 0., 0., 6.13496918e-03,
          6.13496918e-03, 0., 0., 0., 0., 6.13496918e-03, 1.84049085e-02,
          0., 0., 0., 0., 6.13496918e-03, 0., 0., 0., 6.13496918e-03, 0.,
          0., 0., 0., 0., 0., 0., 0., 0., 0., 0., 0., 0., 0., 0., 0., 0.,
          0., 0., 6.13496918e-03, 0., 0., 0., 0., 0., 0., 0., 0.,
          6.13496918e-03, 0., 0., 0., 0., 0., 6.13496918e-03, 0., 0., 0.,
          6.13496918e-03, 0., 0., 0., 0., 0., 0., 0., 0., 0., 0., 0., 0.,
          6.13496918e-03, 0., 0., 0., 0., 0., 0., 6.13496918e-03, 0., 0.,
          0., 6.13496918e-03, 0., 0., 0., 1.22699384e-02, 0., 0.,
          6.13496918e-03, 0., 6.13496918e-03, 0., 0., 6.13496918e-03, 0.,
          0., 0., 0., 0., 6.13496918e-03, 0., 0., 0., 0., 0., 0.,
          6.13496918e-03, 0., 0., 0., 0., 0., 0., 0., 0., 6.13496918e-03,
          0., 0., 0., 0., 0., 0., 0., 0., 0., 0., 0., 0., 0., 0., 0.,
          6.13496918e-03, 0., 6.13496918e-03, 0., 0., 0., 0., 0., 0., 0.,
          0., 0., 0., 0., 0., 0., 0., 6.13496918e-03, 0., 6.13496918e-03,
          0., 6.13496918e-03, 0., 0., 0., 0., 6.13496918e-03,
          6.13496918e-03, 0., 0., 0., 6.13496918e-03, 0., 0., 0., 0., 0.,
          0., 0., 0., 0., 0., 0., 0., 0., 0., 0., 1.22699384e-02, 0.,
          6.13496918e-03, 0., 0., 0., 0., 0., 6.13496918e-03, 0., 0., 0.,
          0., 6.13496918e-03, 6.13496918e-03, 0., 0., 6.13496918e-03, 0.,
          2.45398767e-02, 0., 0., 0., 0., 0., 0., 6.13496918e-03, 0., 0.,
          0., 0., 0., 0., 6.13496918e-03, 0., 0., 0., 0., 0., 0., 0., 0.,
          1.22699384e-02, 0., 6.13496918e-03, 6.13496918e-03, 0., 0., 0.,
          0., 0., 0., 1.22699384e-02, 0., 0., 0., 0., 6.13496918e-03, 0.,
          0., 0., 6.13496918e-03, 0., 0., 0., 0., 0., 0., 0., 0., 0., 0.,
          0., 0., 0., 0., 0., 6.13496918e-03, 0., 0., 0., 0., 0., 0., 0.,
          0., 0., 0., 0., 0., 6.13496918e-03, 0., 0., 6.13496918e-03, 0.,
          0., 0., 0., 6.13496918e-03, 0., 0., 0., 0., 0., 0., 0., 0., 0.,
          0., 0., 0., 0., 0., 0., 0., 0., 0., 0., 0., 0., 6.13496918e-03,
          0., 6.13496918e-03, 0., 6.13496918e-03, 0., 0., 1.22699384e-02,
          0., 0., 0., 0., 0., 0., 0., 0., 0., 0., 0., 0., 6.13496918e-03,
          0., 0., 6.13496918e-03, 1.22699384e-02, 0., 0., 0., 0., 0., 0.,
          0., 6.13496918e-03, 0., 0., 0., 0., 0., 0., 6.13496918e-03, 0.,
          0., 0., 0., 0., 0., 0., 0., 0., 0., 0., 0., 0., 0.,
          2.45398767e-02, 0., 0., 0., 0., 0., 6.13496918e-03, 0., 0.,
          6.13496918e-03, 0., 0., 0., 0., 0., 0., 6.13496918e-03, 0., 0.,
          0., 0., 0., 0., 6.13496918e-03, 0., 0., 0., 0., 0., 0., 0., 0.,
          0., 0., 0., 6.13496918e-03, 0., 0., 0., 0., 0., 6.13496918e-03,
          0., 0., 0., 0., 0., 0., 0., 6.13496918e-03, 0., 0., 0., 0., 0.,
          0., 0., 0., 6.13496918e-03, 0., 0., 0., 0., 0., 0., 0., 0., 0.,
          0., 0., 0., 0., 0., 0., 0., 6.13496918e-03, 0., 0., 0., 0., 0.,
          0., 0., 6.13496918e-03, 0., 0., 0., 0., 0., 0., 0.,
          6.13496918e-03, 0., 0., 0., 0., 0., 0., 0., 0., 0., 0., 0., 0.,
          0., 0., 0., 0., 0., 1.22699384e-02, 6.13496918e-03, 0., 0., 0.,
          0., 0., 0., 0., 0., 1.22699384e-02, 0., 0., 0., 0.,
          6.13496918e-03, 0., 6.13496918e-03, 0., 0., 6.13496918e-03, 0.,
          0., 0., 0., 0., 0., 0., 0., 0., 0., 0., 1.22699384e-02, 0., 0.,
          0., 0., 0., 0., 0., 0., 0., 0., 0., 0., 0., 6.13496918e-03, 0.,
          0., 0., 0., 6.13496918e-03, 0., 0., 0., 0., 0., 0., 0., 0., 0.,
          0., 0., 0., 0., 0., 0., 6.13496918e-03, 0., 0., 0., 0., 0., 0.,
          0., 0., 0. ]
      - [ 0., 0., 3.96825420e-03, 0., 0., 3.96825420e-03, 0., 0., 0., 0.,
          3.96825420e-03, 0., 0., 3.96825420e-03, 3.96825420e-03, 0., 0.,
          0., 0., 0., 0., 3.96825420e-03, 0., 3.96825420e-03,
          3.96825420e-03, 0., 0., 0., 0., 0., 0., 3.96825420e-03, 0., 0.,
          3.96825420e-03, 0., 0., 0., 0., 0., 0., 0., 0., 0., 0., 0., 0.,
          0., 0., 3.96825420e-03, 0., 0., 0., 1.19047631e-02, 0., 0., 0.,
          0., 0., 0., 0., 3.96825420e-03, 0., 0., 0., 0., 0., 0., 0., 0.,
          3.96825420e-03, 0., 0., 3.96825420e-03, 7.93650839e-03,
          3.96825420e-03, 0., 0., 0., 3.96825420e-03, 0., 0., 0., 0., 0.,
          0., 0., 0., 0., 0., 3.96825420e-03, 3.96825420e-03,
          3.96825420e-03, 3.96825420e-03, 0., 0., 3.96825420e-03, 0., 0.,
          0., 0., 0., 3.96825420e-03, 3.96825420e-03, 0., 0., 0., 0., 0.,
          0., 0., 0., 0., 3.96825420e-03, 0., 0., 0., 3.96825420e-03,
          1.19047631e-02, 0., 3.96825420e-03, 0., 0., 3.96825420e-03, 0.,
          0., 0., 0., 0., 0., 0., 3.96825420e-03, 0., 0., 0., 0., 0., 0.,
          0., 3.96825420e-03, 0., 0., 0., 0., 0., 0., 0., 0., 0., 0.,
          3.96825420e-03, 0., 0., 3.96825420e-03, 0., 0., 0., 0., 0., 0.,
          3.96825420e-03, 0., 0., 0., 0., 3.96825420e-03, 0.,
          1.19047631e-02, 0., 0., 0., 0., 0., 0., 7.93650839e-03, 0., 0.,
          0., 0., 0., 0., 0., 0., 0., 0., 0., 0., 0., 3.96825420e-03, 0.,
          0., 3.96825420e-03, 0., 0., 0., 0., 0., 0., 0., 0., 0.,
          3.96825420e-03, 0., 0., 0., 0., 0., 0., 0., 0., 0., 0.,
          3.96825420e-03, 3.96825420e-03, 0., 0., 0., 0., 0., 0., 0., 0.,
          0., 0., 0., 0., 0., 0., 3.96825420e-03, 3.96825420e-03, 0., 0.,
          0., 3.96825420e-03, 0., 0., 3.96825420e-03, 0., 0.,
          3.96825420e-03, 0., 0., 0., 0., 0., 0., 0., 0., 0., 0., 0., 0.,
          3.96825420e-03, 0., 0., 0., 3.96825420e-03, 0., 0., 0.,
          3.96825420e-03, 3.96825420e-03, 0., 3.96825420e-03,
          3.96825420e-03, 0., 0., 0., 0., 0., 7.93650839e-03, 0., 0.,
          3.96825420e-03, 0., 0., 0., 0., 0., 0., 3.96825420e-03, 0., 0.,
          0., 0., 0., 0., 0., 0., 3.96825420e-03, 0., 3.96825420e-03, 0.,
          3.96825420e-03, 0., 0., 0., 3.96825420e-03, 3.96825420e-03,
          3.96825420e-03, 3.96825420e-03, 0., 0., 0., 3.96825420e-03, 0.,
          3.96825420e-03, 0., 0., 3.96825420e-03, 3.96825420e-03, 0., 0.,
          0., 0., 3.96825420e-03, 0., 0., 0., 0., 0., 0., 0.,
          3.96825420e-03, 0., 0., 0., 0., 0., 3.96825420e-03, 0.,
          3.96825420e-03, 3.96825420e-03, 0., 3.96825420e-03,
          3.96825420e-03, 3.96825420e-03, 0., 0., 0., 0., 0., 0., 0., 0.,
          0., 0., 1.19047631e-02, 0., 0., 0., 0., 0., 0., 0., 0., 0., 0.,
          0., 0., 0., 0., 0., 0., 0., 0., 0., 0., 0., 0., 0., 0., 0.,
          3.96825420e-03, 0., 0., 3.96825420e-03, 0., 0., 0.,
          3.96825420e-03, 0., 0., 0., 0., 0., 0., 0., 0., 3.96825420e-03,
          0., 0., 3.96825420e-03, 0., 0., 0., 0., 0., 0., 0., 0., 0.,
          3.96825420e-03, 0., 0., 0., 0., 7.93650839e-03, 0., 0., 0., 0.,
          0., 0., 3.96825420e-03, 0., 0., 0., 0., 0., 0., 0., 0.,
          3.96825420e-03, 0., 0., 0., 0., 0., 3.96825420e-03,
          3.96825420e-03, 0., 0., 0., 0., 3.96825420e-03, 3.96825420e-03,
          0., 0., 3.96825420e-03, 0., 0., 0., 0., 0., 0., 3.96825420e-03,
          0., 0., 0., 0., 0., 0., 0., 0., 0., 0., 0., 0., 0., 0., 0., 0.,
          0., 3.96825420e-03, 0., 0., 0., 0., 3.96825420e-03, 0., 0., 0.,
          0., 0., 3.96825420e-03, 0., 7.93650839e-03, 7.93650839e-03, 0.,
          0., 1.19047631e-02, 0., 0., 0., 0., 0., 0., 0., 0., 0., 0., 0.,
          3.96825420e-03, 0., 0., 3.96825420e-03, 0., 0., 0., 0., 0., 0.,
          0., 3.96825420e-03, 3.96825420e-03, 0., 0., 0., 3.96825420e-03,
          3.96825420e-03, 0., 0., 0., 0., 0., 0., 0., 3.96825420e-03, 0.,
          3.96825420e-03, 0., 3.96825420e-03, 0., 0., 0., 3.96825420e-03,
          0., 0., 0., 3.96825420e-03, 0., 0., 0., 7.93650839e-03, 0., 0.,
          0., 0., 0., 0., 0., 0., 3.96825420e-03, 0., 0., 3.96825420e-03,
          3.96825420e-03, 0., 0., 0., 3.96825420e-03, 3.96825420e-03, 0.,
          0., 3.96825420e-03, 0., 0., 0., 0., 0., 0., 0., 0., 0., 0., 0.,
          3.96825420e-03, 3.96825420e-03, 0., 0., 3.96825420e-03, 0., 0.,
          0., 0., 0., 3.96825420e-03, 0., 3.96825420e-03, 0.,
          3.96825420e-03, 0., 0., 0., 0., 0., 0., 0., 0., 3.96825420e-03,
          0., 3.96825420e-03, 0., 0., 0., 0., 0., 0., 0., 0., 0., 0., 0.,
          0., 3.96825420e-03, 3.96825420e-03, 0., 3.96825420e-03, 0.,
          3.96825420e-03, 3.96825420e-03, 0., 0., 0., 0., 7.93650839e-03,
          0., 0., 0., 3.96825420e-03, 7.93650839e-03, 0., 0., 0.,
          1.19047631e-02, 0., 3.96825420e-03, 0., 0., 0., 0., 0., 0., 0.,
          0., 0., 0., 3.96825420e-03, 0., 0., 0., 0., 0., 3.96825420e-03,
          0., 3.96825420e-03, 0., 0., 0., 0., 0., 3.96825420e-03, 0., 0.,
          0., 0., 0., 7.93650839e-03, 0., 0., 0., 0., 0., 0., 0.,
          3.96825420e-03, 0., 0., 0., 3.96825420e-03, 7.93650839e-03, 0.,
          0., 0., 0., 7.93650839e-03, 0., 0., 3.96825420e-03,
          7.93650839e-03, 0., 0., 0., 0., 0., 0., 0., 0., 0., 0., 0., 0.,
          7.93650839e-03, 0., 0., 0., 0., 7.93650839e-03, 0.,
          3.96825420e-03, 0., 0., 0., 0., 0., 0., 0., 0., 3.96825420e-03,
          3.96825420e-03, 3.96825420e-03, 0., 0., 3.96825420e-03, 0., 0.,
          0., 0., 3.96825420e-03, 0., 0., 3.96825420e-03, 0., 0.,
          3.96825420e-03, 3.96825420e-03, 3.96825420e-03, 0., 0., 0., 0.,
          3.96825420e-03, 0., 0., 0., 0., 3.96825420e-03, 0., 0., 0., 0.,
          0., 3.96825420e-03, 0., 0., 0., 0., 3.96825420e-03,
          7.93650839e-03, 3.96825420e-03, 0., 3.96825420e-03, 0., 0., 0.,
          7.93650839e-03, 3.96825420e-03, 0., 0., 0., 0., 0., 0., 0., 0.,
          0., 0., 0., 0., 0., 7.93650839e-03, 0., 0., 1.19047631e-02,
          3.96825420e-03, 3.96825420e-03, 0., 0., 3.96825420e-03, 0.,
          3.96825420e-03, 0., 0., 0., 7.93650839e-03, 3.96825420e-03,
          3.96825420e-03, 3.96825420e-03, 0., 0., 3.96825420e-03, 0.,
          3.96825420e-03, 0., 3.96825420e-03, 0., 0., 0., 3.96825420e-03,
          0., 0., 0., 0., 0., 0., 3.96825420e-03, 0., 0., 0., 0., 0., 0.,
          0., 0., 0., 0., 0., 0., 0., 3.96825420e-03, 3.96825420e-03, 0.,
          0., 0., 0., 0., 0., 0., 3.96825420e-03, 0., 0., 0., 0., 0., 0.,
          0., 3.96825420e-03, 0., 3.96825420e-03, 0., 0., 0.,
          3.96825420e-03, 0., 0., 0., 0., 0., 0., 0., 0., 0., 0., 0., 0.,
          0., 0., 0., 0., 0., 0., 0., 0., 0., 0., 0., 3.96825420e-03, 0.,
          0., 0., 0., 0., 3.96825420e-03, 0., 7.93650839e-03,
          3.96825420e-03, 0., 0., 0., 0., 0., 0., 0., 3.96825420e-03,
          3.96825420e-03, 0., 7.93650839e-03, 3.96825420e-03, 0.,
          3.96825420e-03, 0., 0., 0., 0., 0., 0., 0., 0., 0., 0., 0., 0.,
          0., 0., 0., 0., 0., 0., 0., 0., 0., 0., 3.96825420e-03,
          3.96825420e-03, 0., 0., 3.96825420e-03, 0., 0., 0., 0., 0.,
          3.96825420e-03, 0., 0., 0., 0., 0., 0., 0., 0., 0., 0., 0., 0.,
          0., 0., 0., 0., 0., 0., 0., 0., 3.96825420e-03, 3.96825420e-03,
          0., 0., 0., 0., 0., 0., 0., 0., 0., 0., 7.93650839e-03, 0., 0.,
          3.96825420e-03, 0., 3.96825420e-03, 0., 0., 0., 3.96825420e-03,
          0., 0., 3.96825420e-03, 0., 1.19047631e-02, 0., 3.96825420e-03,
          0., 0., 0., 0., 3.96825420e-03, 0., 0., 3.96825420e-03, 0., 0.,
          3.96825420e-03, 0., 0., 0., 0., 0., 0., 0., 0., 0.,
          3.96825420e-03, 0., 0., 0., 3.96825420e-03, 0., 0. ]
      - [ 0., 0., 0., 4.76190494e-03, 4.76190494e-03, 0., 0., 0., 0., 0.,
          0., 0., 0., 0., 0., 4.76190494e-03, 0., 4.76190494e-03, 0., 0.,
          1.42857153e-02, 0., 4.76190494e-03, 0., 9.52380989e-03, 0., 0.,
          0., 0., 4.76190494e-03, 0., 4.76190494e-03, 0., 0., 0., 0., 0.,
          4.76190494e-03, 0., 0., 0., 0., 0., 0., 4.76190494e-03, 0.,
          4.76190494e-03, 0., 0., 0., 0., 0., 0., 0., 0., 0., 0., 0., 0.,
          0., 0., 0., 0., 0., 0., 0., 0., 4.76190494e-03, 0., 0.,
          4.76190494e-03, 0., 0., 0., 4.76190494e-03, 0., 0., 0., 0.,
          4.76190494e-03, 0., 0., 0., 0., 0., 4.76190494e-03, 0., 0., 0.,
          0., 0., 4.76190494e-03, 0., 0., 0., 0., 9.52380989e-03, 0., 0.,
          0., 0., 0., 0., 0., 9.52380989e-03, 0., 0., 0., 0., 0., 0., 0.,
          0., 0., 4.76190494e-03, 0., 0., 0., 0., 0., 0., 0., 0., 0.,
          4.76190494e-03, 0., 0., 0., 0., 0., 0., 4.76190494e-03, 0.,
          4.76190494e-03, 0., 0., 0., 0., 9.52380989e-03, 0., 0., 0., 0.,
          0., 0., 4.76190494e-03, 0., 0., 0., 0., 0., 0., 0., 0., 0., 0.,
          9.52380989e-03, 0., 0., 0., 0., 0., 9.52380989e-03, 0., 0., 0.,
          0., 0., 0., 0., 0., 0., 0., 0., 0., 0., 0., 0., 0., 0., 0., 0.,
          0., 0., 0., 4.76190494e-03, 0., 0., 0., 0., 0., 0., 0., 0.,
          1.90476198e-02, 0., 4.76190494e-03, 0., 0., 0., 4.76190494e-03,
          0., 0., 0., 0., 0., 0., 0., 0., 0., 0., 0., 0., 0., 0.,
          4.76190494e-03, 0., 0., 4.76190494e-03, 0., 4.76190494e-03, 0.,
          0., 0., 0., 0., 0., 0., 0., 4.76190494e-03, 0., 4.76190494e-03,
          0., 0., 0., 0., 4.76190494e-03, 0., 0., 4.76190494e-03, 0., 0.,
          0., 0., 0., 4.76190494e-03, 0., 0., 0., 0., 0., 0., 0., 0., 0.,
          0., 4.76190494e-03, 0., 0., 0., 0., 0., 0., 0., 0., 0., 0.,
          4.76190494e-03, 0., 0., 0., 0., 0., 0., 0., 0., 0., 0., 0., 0.,
          0., 4.76190494e-03, 0., 4.76190494e-03, 0., 0., 0., 0., 0.,
          4.76190494e-03, 4.76190494e-03, 0., 0., 0., 0., 4.76190494e-03,
          0., 0., 0., 0., 0., 0., 0., 0., 9.52380989e-03, 4.76190494e-03,
          4.76190494e-03, 4.76190494e-03, 0., 0., 0., 0., 0., 0., 0.,
          4.76190494e-03, 4.76190494e-03, 0., 0., 0., 0., 0., 0.,
          4.76190494e-03, 0., 0., 0., 0., 0., 0., 4.76190494e-03, 0., 0.,
          0., 4.76190494e-03, 0., 0., 0., 0., 0., 0., 0., 0., 0., 0., 0.,
          0., 0., 0., 0., 4.76190494e-03, 0., 4.76190494e-03, 0., 0., 0.,
          0., 0., 4.76190494e-03, 4.76190494e-03, 0., 0., 0., 0., 0.,
          4.76190494e-03, 0., 0., 0., 0., 0., 0., 4.76190494e-03, 0., 0.,
          0., 0., 4.76190494e-03, 4.76190494e-03, 0., 0., 0., 0.,
          4.76190494e-03, 1.42857153e-02, 0., 0., 0., 0., 0., 0.,
          9.52380989e-03, 4.76190494e-03, 0., 0., 0., 4.76190494e-03, 0.,
          0., 0., 0., 4.76190494e-03, 0., 0., 4.76190494e-03, 0., 0., 0.,
          9.52380989e-03, 0., 0., 0., 9.52380989e-03, 0., 0., 0.,
          4.76190494e-03, 0., 0., 0., 0., 0., 4.76190494e-03, 0., 0., 0.,
          0., 0., 0., 0., 0., 0., 0., 0., 0., 0., 0., 0., 4.76190494e-03,
          4.76190494e-03, 0., 0., 0., 4.76190494e-03, 0., 0., 0., 0.,
          4.76190494e-03, 0., 0., 0., 4.76190494e-03, 0., 4.76190494e-03,
          0., 0., 4.76190494e-03, 0., 0., 0., 0., 0., 0., 0., 0., 0., 0.,
          4.76190494e-03, 4.76190494e-03, 0., 4.76190494e-03, 0., 0., 0.,
          0., 0., 0., 4.76190494e-03, 0., 4.76190494e-03, 4.76190494e-03,
          0., 0., 4.76190494e-03, 0., 0., 0., 0., 0., 0., 0.,
          4.76190494e-03, 0., 0., 0., 0., 0., 0., 0., 4.76190494e-03, 0.,
          0., 0., 0., 0., 0., 0., 0., 4.76190494e-03, 4.76190494e-03, 0.,
          0., 0., 4.76190494e-03, 0., 0., 0., 4.76190494e-03, 0.,
          4.76190494e-03, 4.76190494e-03, 0., 0., 0., 0., 0., 0., 0., 0.,
          0., 0., 4.76190494e-03, 0., 0., 0., 0., 4.76190494e-03, 0., 0.,
          0., 0., 0., 0., 0., 0., 0., 0., 0., 0., 0., 0., 0., 0., 0., 0.,
          0., 0., 0., 0., 0., 0., 0., 0., 4.76190494e-03, 0., 0., 0., 0.,
          0., 0., 0., 9.52380989e-03, 0., 0., 0., 4.76190494e-03, 0., 0.,
          0., 4.76190494e-03, 0., 0., 0., 0., 0., 4.76190494e-03, 0., 0.,
          0., 4.76190494e-03, 9.52380989e-03, 0., 0., 0., 4.76190494e-03,
          4.76190494e-03, 0., 0., 0., 0., 0., 0., 0., 0., 0., 0., 0., 0.,
          0., 0., 0., 0., 0., 4.76190494e-03, 0., 0., 0., 0., 0., 0., 0.,
          0., 0., 0., 0., 0., 0., 0., 0., 0., 0., 0., 0., 0., 0., 0., 0.,
          0., 4.76190494e-03, 0., 0., 0., 0., 4.76190494e-03,
          4.76190494e-03, 0., 0., 0., 4.76190494e-03, 0., 4.76190494e-03,
          0., 0., 0., 0., 0., 0., 0., 0., 0., 0., 0., 4.76190494e-03, 0.,
          0., 0., 0., 0., 0., 0., 0., 0., 0., 0., 0., 0., 0., 0., 0.,
          4.76190494e-03, 4.76190494e-03, 0., 0., 0., 0., 0., 0.,
          4.76190494e-03, 0., 0., 0., 0., 0., 0., 0., 0., 0.,
          4.76190494e-03, 1.42857153e-02, 0., 0., 0., 0., 4.76190494e-03,
          0., 0., 2.38095243e-02, 0., 4.76190494e-03, 0., 4.76190494e-03,
          4.76190494e-03, 0., 0., 0., 9.52380989e-03, 4.76190494e-03, 0.,
          0., 0., 0., 0., 0., 4.76190494e-03, 0., 0., 4.76190494e-03, 0.,
          0., 0., 0., 0., 0., 0., 0., 0., 0., 0., 0., 0., 0.,
          1.42857153e-02, 0., 0., 0., 0., 0., 0., 0., 0., 0., 0., 0., 0.,
          0., 0., 0., 0., 0., 0., 0., 0., 0., 0., 0., 0., 0., 0., 0., 0.,
          4.76190494e-03, 0., 0., 0., 0., 0., 0., 9.52380989e-03,
          4.76190494e-03, 4.76190494e-03, 0., 0., 0., 0., 4.76190494e-03,
          4.76190494e-03, 0., 4.76190494e-03, 0., 0., 0., 0., 0., 0., 0.,
          4.76190494e-03, 0., 0., 0., 0., 0., 0., 0., 0., 0., 0.,
          4.76190494e-03, 0., 0., 0., 0., 0., 0., 0., 0., 0.,
          4.76190494e-03, 0., 4.76190494e-03, 0., 1.42857153e-02, 0., 0.,
          0., 0., 0., 4.76190494e-03, 0., 0., 0., 0., 0., 4.76190494e-03,
          0., 0., 0., 0., 0., 4.76190494e-03, 0., 0., 0., 9.52380989e-03,
          0., 0., 0., 0., 0., 0., 4.76190494e-03, 0., 0., 9.52380989e-03,
          0., 4.76190494e-03, 0., 0., 0., 0., 0., 0., 0., 0.,
          4.76190494e-03, 0., 0., 0., 0., 0., 4.76190494e-03, 0., 0., 0.,
          0., 0., 0., 0., 4.76190494e-03, 0., 0., 0., 0., 0., 0., 0., 0.,
          0., 0., 0., 0., 4.76190494e-03, 0., 4.76190494e-03, 0., 0., 0.,
          0., 0., 0., 0., 0., 0., 0., 0., 0., 4.76190494e-03, 0., 0., 0.,
          0., 0., 0., 0., 0., 0., 9.52380989e-03, 9.52380989e-03, 0., 0.,
          0., 0., 0., 4.76190494e-03, 0., 4.76190494e-03, 9.52380989e-03,
          0., 0., 0., 0., 0., 0., 0., 0., 0., 0., 4.76190494e-03,
          4.76190494e-03, 0., 0., 0., 0., 0., 0., 0., 0., 0., 0., 0., 0.,
          0., 4.76190494e-03, 0., 4.76190494e-03, 4.76190494e-03, 0., 0.,
          9.52380989e-03, 0., 0., 0., 0., 4.76190494e-03, 0., 0., 0., 0.,
          0., 0., 0., 0., 4.76190494e-03, 0., 0., 4.76190494e-03, 0.,
          9.52380989e-03, 9.52380989e-03, 0., 0., 0., 0., 0., 0., 0., 0.,
          0., 0., 0., 0., 0., 0., 0., 0., 0., 0., 0., 0., 0. ]
      - [ 0., 0., 0., 5.29100513e-03, 0., 0., 0., 0., 5.29100513e-03, 0.,
          0., 0., 0., 0., 0., 0., 0., 0., 0., 0., 0., 0., 1.05820103e-02,
          5.29100513e-03, 0., 0., 0., 0., 0., 0., 0., 0., 0., 0., 0.,
          5.29100513e-03, 0., 0., 0., 0., 0., 0., 0., 0., 5.29100513e-03,
          0., 0., 1.05820103e-02, 0., 0., 0., 0., 0., 0., 0., 0., 0., 0.,
          0., 0., 0., 0., 0., 0., 0., 0., 0., 0., 5.29100513e-03, 0.,
          5.29100513e-03, 0., 0., 0., 0., 0., 5.29100513e-03, 0., 0., 0.,
          5.29100513e-03, 0., 0., 0., 5.29100513e-03, 0., 0., 0.,
          5.29100513e-03, 0., 0., 0., 0., 0., 0., 0., 0., 0., 0., 0., 0.,
          0., 5.29100513e-03, 0., 0., 0., 0., 0., 0., 0., 0., 0., 0., 0.,
          5.29100513e-03, 0., 5.29100513e-03, 0., 0., 0., 0., 0., 0., 0.,
          0., 0., 0., 0., 0., 0., 5.29100513e-03, 0., 0., 0., 0., 0., 0.,
          0., 0., 0., 0., 0., 0., 0., 0., 0., 0., 0., 0., 0., 0., 0., 0.,
          0., 0., 0., 0., 0., 0., 0., 0., 0., 5.29100513e-03, 0., 0., 0.,
          0., 0., 5.29100513e-03, 0., 0., 0., 0., 5.29100513e-03, 0., 0.,
          1.05820103e-02, 5.29100513e-03, 0., 0., 0., 0., 0., 0., 0., 0.,
          0., 0., 0., 0., 0., 0., 0., 0., 0., 0., 0., 0., 0., 0., 0., 0.,
          0., 5.29100513e-03, 0., 0., 0., 5.29100513e-03, 5.29100513e-03,
          0., 0., 0., 0., 5.29100513e-03, 0., 1.05820103e-02, 0., 0.,
          5.29100513e-03, 0., 0., 0., 0., 0., 5.29100513e-03, 0.,
          5.29100513e-03, 0., 0., 0., 0., 0., 0., 0., 0., 0., 0., 0., 0.,
          0., 5.29100513e-03, 0., 0., 0., 0., 0., 0., 5.29100513e-03, 0.,
          0., 0., 0., 1.58730149e-02, 0., 0., 0., 0., 0., 0., 0., 0., 0.,
          0., 0., 0., 0., 0., 0., 0., 0., 0., 0., 0., 0., 0., 0., 0., 0.,
          0., 0., 5.29100513e-03, 0., 0., 0., 0., 0., 0., 0., 0., 0., 0.,
          0., 5.29100513e-03, 5.29100513e-03, 0., 0., 0., 0., 0., 0., 0.,
          0., 5.29100513e-03, 0., 0., 0., 5.29100513e-03, 0., 0.,
          5.29100513e-03, 0., 0., 0., 0., 0., 5.29100513e-03,
          5.29100513e-03, 0., 5.29100513e-03, 0., 0., 5.29100513e-03, 0.,
          5.29100513e-03, 0., 0., 0., 5.29100513e-03, 0., 0., 0., 0., 0.,
          5.29100513e-03, 0., 0., 0., 0., 0., 5.29100513e-03,
          5.29100513e-03, 0., 0., 5.29100513e-03, 0., 0., 0., 0., 0., 0.,
          0., 0., 0., 0., 0., 5.29100513e-03, 0., 0., 0., 0.,
          5.29100513e-03, 0., 0., 0., 0., 0., 0., 0., 0., 0.,
          5.29100513e-03, 0., 5.29100513e-03, 5.29100513e-03, 0., 0., 0.,
          0., 0., 2.64550261e-02, 0., 5.29100513e-03, 0., 1.05820103e-02,
          1.05820103e-02, 0., 0., 5.29100513e-03, 0., 0., 0., 0., 0., 0.,
          0., 0., 0., 0., 5.29100513e-03, 0., 5.29100513e-03, 0., 0., 0.,
          0., 5.29100513e-03, 1.05820103e-02, 2.11640205e-02, 0.,
          5.29100513e-03, 0., 0., 5.29100513e-03, 0., 0., 0., 0., 0., 0.,
          0., 0., 5.29100513e-03, 5.29100513e-03, 0., 0., 0., 0., 0.,
          5.29100513e-03, 0., 0., 0., 1.05820103e-02, 0., 5.29100513e-03,
          0., 0., 0., 0., 0., 0., 0., 0., 0., 0., 0., 0., 0., 0., 0., 0.,
          5.29100513e-03, 0., 0., 0., 0., 0., 0., 0., 0., 5.29100513e-03,
          0., 0., 0., 5.29100513e-03, 0., 0., 0., 0., 0., 0., 0.,
          5.29100513e-03, 0., 0., 0., 0., 0., 0., 0., 5.29100513e-03,
          5.29100513e-03, 0., 5.29100513e-03, 0., 5.29100513e-03, 0., 0.,
          0., 5.29100513e-03, 0., 0., 0., 5.29100513e-03, 0., 0.,
          5.29100513e-03, 0., 0., 0., 0., 0., 0., 0., 0., 0., 0.,
          1.05820103e-02, 0., 0., 0., 0., 0., 0., 0., 0., 0., 0., 0., 0.,
          0., 0., 0., 0., 0., 0., 0., 0., 0., 5.29100513e-03, 0.,
          1.05820103e-02, 0., 0., 0., 0., 0., 0., 0., 0., 0., 0., 0., 0.,
          5.29100513e-03, 0., 0., 1.58730149e-02, 0., 0., 0., 0., 0., 0.,
          0., 0., 0., 0., 0., 0., 0., 5.29100513e-03, 0., 0., 0., 0., 0.,
          0., 5.29100513e-03, 0., 0., 0., 0., 0., 0., 0., 0., 0.,
          5.29100513e-03, 0., 5.29100513e-03, 0., 0., 0., 5.29100513e-03,
          0., 0., 0., 0., 0., 5.29100513e-03, 0., 0., 5.29100513e-03, 0.,
          0., 0., 0., 5.29100513e-03, 0., 0., 0., 0., 0., 0.,
          5.29100513e-03, 0., 5.29100513e-03, 0., 0., 0., 0., 0., 0., 0.,
          0., 0., 0., 5.29100513e-03, 0., 0., 0., 0., 0., 0., 0., 0.,
          5.29100513e-03, 0., 0., 0., 0., 0., 0., 0., 0., 0., 0.,
          1.05820103e-02, 0., 0., 0., 0., 0., 0., 0., 0., 0.,
          5.29100513e-03, 0., 0., 0., 0., 0., 0., 0., 0., 0.,
          5.29100513e-03, 5.29100513e-03, 0., 5.29100513e-03, 0., 0., 0.,
          0., 0., 0., 0., 0., 0., 5.29100513e-03, 0., 0., 0.,
          5.29100513e-03, 0., 0., 0., 0., 0., 5.29100513e-03, 0., 0., 0.,
          0., 0., 0., 0., 0., 0., 0., 0., 0., 0., 0., 0., 5.29100513e-03,
          0., 0., 0., 0., 0., 0., 0., 0., 5.29100513e-03, 0.,
          1.05820103e-02, 5.29100513e-03, 0., 0., 0., 0., 0.,
          5.29100513e-03, 0., 0., 0., 0., 0., 0., 5.29100513e-03, 0., 0.,
          0., 0., 0., 0., 0., 0., 0., 0., 0., 0., 0., 1.58730149e-02,
          5.29100513e-03, 0., 0., 0., 5.29100513e-03, 0., 0., 0., 0., 0.,
          0., 0., 5.29100513e-03, 0., 0., 0., 0., 0., 0., 0., 0., 0., 0.,
          0., 0., 0., 0., 5.29100513e-03, 0., 0., 0., 0., 0., 0., 0.,
          5.29100513e-03, 1.05820103e-02, 0., 0., 0., 0., 0., 0., 0., 0.,
          5.29100513e-03, 5.29100513e-03, 0., 0., 0., 0., 0., 0.,
          5.29100513e-03, 0., 0., 0., 0., 5.29100513e-03, 0., 0., 0., 0.,
          0., 0., 0., 0., 0., 0., 0., 0., 0., 5.29100513e-03, 0.,
          5.29100513e-03, 0., 0., 0., 0., 0., 0., 0., 0., 0., 0.,
          5.29100513e-03, 0., 0., 0., 0., 0., 5.29100513e-03, 0., 0., 0.,
          0., 0., 0., 0., 5.29100513e-03, 0., 0., 0., 0., 0., 0., 0., 0.,
          5.29100513e-03, 0., 0., 0., 0., 0., 0., 0., 0., 0., 0., 0., 0.,
          0., 0., 0., 0., 0., 0., 0., 0., 0., 5.29100513e-03, 0.,
          5.29100513e-03, 0., 0., 0., 0., 5.29100513e-03, 5.29100513e-03,
          0., 0., 0., 0., 5.29100513e-03, 0., 0., 5.29100513e-03, 0., 0.,
          0., 0., 0., 0., 0., 0., 0., 0., 0., 5.29100513e-03, 0., 0., 0.,
          0., 0., 0., 0., 0., 0., 5.29100513e-03, 0., 0., 5.29100513e-03,
          0., 0., 0., 0., 0., 0., 0., 0., 0., 0., 0., 0., 5.29100513e-03,
          0., 0., 0., 1.05820103e-02, 0., 0., 5.29100513e-03, 0., 0., 0.,
          0., 1.05820103e-02, 0., 0., 0., 0., 0., 5.29100513e-03,
          5.29100513e-03, 0., 0., 0., 0., 5.29100513e-03, 0., 0., 0., 0.,
          0., 0., 0., 0., 1.05820103e-02, 5.29100513e-03, 5.29100513e-03,
          0., 0., 0., 0., 0., 0., 0., 0., 0., 5.29100513e-03, 0., 0.,
          5.29100513e-03, 1.05820103e-02, 0., 0., 5.29100513e-03, 0., 0.,
          5.29100513e-03, 5.29100513e-03, 0., 0., 0., 0., 0., 0., 0.,
          5.29100513e-03, 0., 0., 0., 0., 0., 5.29100513e-03, 0.,
          1.05820103e-02, 0., 0., 0., 0., 0., 0. ]
      - [ 0., 0., 4.95049497e-03, 0., 0., 0., 0., 0., 0., 0., 0., 0.,
          4.95049497e-03, 0., 0., 0., 0., 0., 4.95049497e-03, 0., 0., 0.,
          0., 0., 0., 0., 0., 0., 0., 0., 0., 0., 0., 0., 4.95049497e-03,
          0., 4.95049497e-03, 0., 0., 0., 0., 0., 0., 0., 0., 0., 0., 0.,
          0., 0., 0., 0., 4.95049497e-03, 4.95049497e-03, 0., 0., 0., 0.,
          0., 0., 0., 0., 0., 4.95049497e-03, 0., 0., 0., 0., 0., 0., 0.,
          0., 4.95049497e-03, 0., 0., 4.95049497e-03, 0., 0., 0.,
          9.90098994e-03, 0., 0., 0., 0., 0., 0., 0., 0., 0.,
          4.95049497e-03, 0., 0., 0., 0., 0., 4.95049497e-03, 0., 0., 0.,
          0., 9.90098994e-03, 0., 0., 0., 0., 0., 0., 0., 0., 0., 0.,
          4.95049497e-03, 0., 9.90098994e-03, 0., 0., 4.95049497e-03,
          4.95049497e-03, 0., 0., 0., 0., 0., 9.90098994e-03, 0., 0., 0.,
          0., 0., 0., 0., 9.90098994e-03, 0., 0., 4.95049497e-03, 0., 0.,
          0., 0., 0., 4.95049497e-03, 0., 0., 0., 4.95049497e-03, 0., 0.,
          0., 0., 0., 4.95049497e-03, 0., 0., 4.95049497e-03, 0., 0., 0.,
          0., 0., 0., 0., 0., 0., 0., 0., 4.95049497e-03, 0., 0.,
          1.48514844e-02, 0., 0., 4.95049497e-03, 0., 0., 0., 0., 0.,
          4.95049497e-03, 0., 0., 0., 0., 0., 0., 0., 0., 4.95049497e-03,
          0., 0., 0., 0., 4.95049497e-03, 0., 0., 0., 0., 9.90098994e-03,
          0., 0., 0., 0., 0., 0., 4.95049497e-03, 0., 0., 0., 0., 0., 0.,
          4.95049497e-03, 0., 0., 0., 0., 0., 9.90098994e-03, 0., 0., 0.,
          0., 4.95049497e-03, 0., 0., 0., 0., 0., 0., 0., 0.,
          4.95049497e-03, 0., 0., 0., 0., 0., 0., 4.95049497e-03, 0., 0.,
          0., 0., 0., 0., 0., 4.95049497e-03, 0., 0., 0., 0.,
          4.95049497e-03, 0., 0., 0., 0., 0., 0., 0., 0., 0., 0.,
          9.90098994e-03, 0., 0., 0., 0., 0., 0., 0., 0., 0., 0.,
          4.95049497e-03, 4.95049497e-03, 0., 0., 0., 0., 0., 0.,
          4.95049497e-03, 4.95049497e-03, 0., 0., 0., 0., 0., 0., 0., 0.,
          9.90098994e-03, 4.95049497e-03, 0., 0., 0., 4.95049497e-03, 0.,
          0., 0., 0., 0., 0., 0., 0., 0., 0., 0., 0., 0., 4.95049497e-03,
          0., 0., 0., 0., 0., 0., 0., 0., 0., 0., 0., 0., 0.,
          4.95049497e-03, 4.95049497e-03, 0., 0., 0., 0., 0., 0., 0., 0.,
          4.95049497e-03, 0., 0., 0., 0., 0., 0., 0., 0., 0., 0., 0., 0.,
          0., 0., 0., 4.95049497e-03, 0., 0., 0., 4.95049497e-03, 0., 0.,
          4.95049497e-03, 0., 0., 0., 0., 0., 0., 5.44554442e-02,
          1.48514844e-02, 0., 0., 3.46534662e-02, 0., 0., 0.,
          4.95049497e-03, 0., 0., 0., 0., 4.95049497e-03, 4.95049497e-03,
          0., 0., 0., 0., 0., 4.95049497e-03, 0., 0., 0., 0., 0., 0., 0.,
          0., 0., 0., 0., 0., 0., 0., 0., 0., 0., 0., 0., 0., 0.,
          4.95049497e-03, 4.95049497e-03, 0., 0., 0., 0., 0., 0., 0., 0.,
          0., 4.95049497e-03, 0., 0., 4.95049497e-03, 0., 0., 0., 0., 0.,
          0., 0., 0., 0., 0., 9.90098994e-03, 0., 4.95049497e-03, 0., 0.,
          0., 0., 0., 0., 0., 0., 0., 0., 4.95049497e-03, 0., 0., 0., 0.,
          0., 0., 0., 0., 4.95049497e-03, 0., 0., 0., 0., 0.,
          4.95049497e-03, 0., 4.95049497e-03, 0., 0., 0., 0., 0., 0., 0.,
          0., 0., 0., 4.95049497e-03, 0., 0., 0., 4.95049497e-03, 0., 0.,
          0., 0., 0., 0., 2.47524753e-02, 0., 0., 0., 0., 0., 0., 0., 0.,
          4.95049497e-03, 0., 0., 4.95049497e-03, 0., 9.90098994e-03, 0.,
          0., 0., 0., 9.90098994e-03, 0., 0., 0., 0., 0., 0., 0., 0.,
          1.48514844e-02, 0., 0., 4.95049497e-03, 0., 0., 0., 0., 0., 0.,
          0., 0., 0., 0., 0., 4.95049497e-03, 0., 0., 0., 0.,
          4.95049497e-03, 0., 0., 0., 0., 0., 0., 0., 0., 0.,
          4.95049497e-03, 0., 0., 0., 4.95049497e-03, 0., 4.95049497e-03,
          0., 4.95049497e-03, 0., 0., 0., 0., 0., 0., 0., 0.,
          4.95049497e-03, 0., 0., 0., 0., 0., 0., 0., 0., 0., 0., 0., 0.,
          0., 0., 0., 0., 0., 0., 4.95049497e-03, 0., 0., 0., 0., 0., 0.,
          0., 0., 0., 0., 0., 0., 0., 0., 1.48514844e-02, 4.95049497e-03,
          0., 0., 0., 4.95049497e-03, 0., 0., 0., 0., 0., 0., 0., 0., 0.,
          0., 0., 0., 0., 0., 0., 4.95049497e-03, 0., 0., 0., 0., 0., 0.,
          0., 0., 0., 4.95049497e-03, 0., 0., 0., 4.95049497e-03, 0.,
          4.95049497e-03, 0., 0., 0., 0., 0., 0., 0., 4.95049497e-03, 0.,
          0., 0., 0., 0., 4.95049497e-03, 0., 0., 0., 9.90098994e-03, 0.,
          0., 0., 0., 4.95049497e-03, 2.97029689e-02, 4.95049497e-03, 0.,
          4.95049497e-03, 0., 0., 0., 0., 0., 0., 0., 0., 4.95049497e-03,
          0., 0., 0., 0., 9.90098994e-03, 4.95049497e-03, 0., 0., 0., 0.,
          0., 0., 0., 0., 0., 0., 0., 4.95049497e-03, 0., 0., 0., 0., 0.,
          0., 0., 0., 0., 0., 0., 0., 0., 0., 4.95049497e-03, 0., 0., 0.,
          0., 0., 0., 0., 0., 0., 0., 0., 0., 4.95049497e-03, 0., 0., 0.,
          0., 0., 0., 0., 0., 4.95049497e-03, 0., 0., 0., 0., 0., 0., 0.,
          0., 0., 9.90098994e-03, 0., 0., 0., 0., 0., 0., 4.95049497e-03,
          0., 4.95049497e-03, 0., 0., 0., 0., 4.95049497e-03, 0., 0.,
          4.95049497e-03, 0., 0., 0., 0., 0., 0., 0., 0., 0.,
          4.95049497e-03, 0., 0., 4.95049497e-03, 0., 0., 0.,
          4.95049497e-03, 0., 0., 0., 0., 0., 0., 0., 0., 0., 0., 0., 0.,
          0., 4.95049497e-03, 0., 0., 4.95049497e-03, 9.90098994e-03, 0.,
          0., 0., 0., 4.95049497e-03, 0., 0., 0., 0., 0., 0., 0.,
          9.90098994e-03, 0., 0., 0., 0., 0., 0., 0., 0., 0., 0., 0.,
          4.95049497e-03, 0., 0., 0., 0., 0., 0., 0., 0., 0., 0., 0., 0.,
          4.95049497e-03, 0., 4.95049497e-03, 9.90098994e-03, 0.,
          4.95049497e-03, 0., 0., 0., 0., 0., 0., 0., 0., 0.,
          9.90098994e-03, 0., 0., 0., 0., 0., 0., 0., 0., 0., 0., 0., 0.,
          0., 0., 0., 0., 4.95049497e-03, 0., 0., 0., 0., 0., 0., 0., 0.,
          0., 0., 0., 0., 4.95049497e-03, 0., 0., 0., 0., 0., 0., 0., 0.,
          0., 0., 0., 0., 0., 0., 0., 0., 0., 0., 0., 0., 0., 0., 0., 0.,
          0., 0., 0., 0., 4.95049497e-03, 0., 0., 4.95049497e-03, 0., 0.,
          0., 0., 0., 0., 0., 0., 0., 0., 0., 0., 0., 0., 9.90098994e-03,
          0., 4.95049497e-03, 0., 4.95049497e-03, 0., 0., 0., 0., 0., 0.,
          0., 0., 0., 0., 0., 0., 0., 0., 4.95049497e-03, 0., 0., 0., 0.,
          0., 0., 0., 0., 0., 0., 0., 0., 0., 0., 0., 0., 0., 0., 0., 0.,
          0., 0., 0., 4.95049497e-03, 0., 0., 4.95049497e-03, 0., 0., 0.,
          0., 0., 4.95049497e-03, 0., 0., 0., 0., 0., 0., 9.90098994e-03,
          0., 0., 0., 4.95049497e-03, 0., 0., 0., 0., 0., 0.,
          9.90098994e-03, 0., 0., 9.90098994e-03, 0., 0., 0., 0., 0.,
          4.95049497e-03, 0., 0., 0., 0., 0., 0., 4.95049497e-03, 0., 0. ]
      - [ 0., 0., 1.44230779e-02, 0., 0., 0., 0., 0., 0., 0., 0., 0.,
          4.80769249e-03, 0., 0., 0., 0., 0., 0., 0., 0., 0.,
          4.80769249e-03, 0., 0., 4.80769249e-03, 0., 0., 0., 0., 0., 0.,
          4.80769249e-03, 0., 0., 0., 0., 0., 0., 0., 0., 4.80769249e-03,
          0., 0., 0., 0., 0., 0., 4.80769249e-03, 0., 0., 0.,
          9.61538497e-03, 0., 4.80769249e-03, 0., 4.80769249e-03, 0., 0.,
          0., 0., 0., 0., 0., 0., 0., 9.61538497e-03, 0., 0., 0., 0., 0.,
          4.80769249e-03, 0., 0., 0., 0., 0., 0., 0., 0., 0., 0., 0.,
          4.80769249e-03, 0., 4.80769249e-03, 0., 0., 0., 0.,
          4.80769249e-03, 4.80769249e-03, 0., 0., 4.80769249e-03, 0.,
          4.80769249e-03, 0., 0., 0., 0., 0., 0., 0., 0., 0., 0., 0., 0.,
          0., 4.80769249e-03, 0., 0., 0., 0., 0., 4.80769249e-03, 0., 0.,
          0., 0., 0., 0., 4.80769249e-03, 0., 0., 9.61538497e-03, 0., 0.,
          4.80769249e-03, 0., 4.80769249e-03, 0., 0., 0., 4.80769249e-03,
