%YAML:1.0
---
opencv_ml_svm:
   format: 3
   svmType: C_SVC
   kernel:
      type: RBF
      gamma: 5.0625000000000009e-01
   C: 3.1250000000000000e+02
   term_criteria: { iterations:100 }
   var_count: 1000
   class_count: 2
   class_labels: !!opencv-matrix
      rows: 2
      cols: 1
      dt: i
      data: [ 0, 1 ]
   sv_total: 150
   support_vectors:
      - [ 0., 0., 0., 0., 0., 0., 0., 0., 4.54545440e-03, 0.,
          4.54545440e-03, 0., 0., 0., 4.54545440e-03, 0., 4.54545440e-03,
          4.54545440e-03, 0., 0., 0., 0., 4.54545440e-03, 0., 0., 0., 0.,
          4.54545440e-03, 0., 0., 4.54545440e-03, 0., 0., 0.,
          4.54545440e-03, 0., 0., 0., 0., 9.09090880e-03, 0., 0., 0., 0.,
          4.54545440e-03, 9.09090880e-03, 0., 0., 0., 0., 0., 0., 0., 0.,
          4.54545440e-03, 0., 0., 0., 0., 0., 0., 0., 0., 0.,
          4.54545440e-03, 0., 0., 0., 0., 0., 0., 0., 4.54545440e-03, 0.,
          4.54545440e-03, 4.54545440e-03, 9.09090880e-03, 0., 0., 0., 0.,
          4.54545440e-03, 0., 0., 4.54545440e-03, 0., 0., 0., 0., 0., 0.,
          4.54545440e-03, 0., 0., 0., 0., 0., 0., 0., 0., 0.,
          4.54545440e-03, 4.54545440e-03, 4.54545440e-03, 4.54545440e-03,
          0., 0., 0., 0., 0., 4.54545440e-03, 0., 0., 0., 0., 0.,
          4.54545440e-03, 0., 0., 0., 0., 0., 4.54545440e-03, 0., 0., 0.,
          0., 0., 0., 0., 0., 0., 0., 4.54545440e-03, 0., 9.09090880e-03,
          0., 0., 4.54545440e-03, 4.54545440e-03, 0., 0., 0., 0., 0.,
          4.54545440e-03, 0., 0., 0., 0., 0., 0., 0., 0., 0.,
          4.54545440e-03, 0., 0., 0., 0., 0., 0., 0., 0., 0., 0., 0., 0.,
          0., 0., 0., 0., 0., 4.54545440e-03, 0., 0., 4.54545440e-03, 0.,
          0., 0., 4.54545440e-03, 0., 0., 9.09090880e-03, 0., 0., 0.,
          4.54545440e-03, 4.54545440e-03, 0., 0., 0., 0., 4.54545440e-03,
          0., 0., 4.54545440e-03, 0., 0., 0., 0., 4.54545440e-03, 0., 0.,
          0., 0., 0., 4.54545440e-03, 0., 0., 0., 0., 0., 0.,
          9.09090880e-03, 4.54545440e-03, 0., 0., 0., 0., 4.54545440e-03,
          0., 0., 0., 4.54545440e-03, 0., 0., 0., 0., 0., 0., 0., 0., 0.,
          0., 0., 0., 0., 0., 0., 4.54545440e-03, 0., 0., 0., 0., 0.,
          4.54545440e-03, 0., 0., 0., 0., 0., 0., 0., 0., 4.54545440e-03,
          0., 0., 0., 0., 0., 0., 4.54545440e-03, 4.54545440e-03, 0., 0.,
          0., 9.09090880e-03, 0., 0., 0., 4.54545440e-03, 0., 0., 0., 0.,
          0., 0., 0., 4.54545440e-03, 4.54545440e-03, 0., 0., 0.,
          4.54545440e-03, 0., 4.54545440e-03, 0., 9.09090880e-03, 0., 0.,
          0., 0., 4.54545440e-03, 0., 0., 0., 0., 0., 0., 0., 0., 0.,
          9.09090880e-03, 4.54545440e-03, 0., 0., 0., 0., 0., 0., 0., 0.,
          0., 0., 0., 0., 4.54545440e-03, 0., 0., 0., 0., 4.54545440e-03,
          4.54545440e-03, 0., 4.54545440e-03, 0., 0., 0., 0., 0., 0., 0.,
          0., 0., 0., 0., 0., 0., 4.54545440e-03, 4.54545440e-03, 0., 0.,
          0., 0., 0., 0., 0., 0., 0., 4.54545440e-03, 0., 0., 0., 0., 0.,
          0., 0., 0., 0., 4.54545440e-03, 0., 0., 0., 0., 0., 0., 0., 0.,
          0., 0., 9.09090880e-03, 0., 0., 0., 0., 0., 0., 0., 0., 0., 0.,
          0., 4.54545440e-03, 0., 0., 0., 0., 0., 0., 0., 0.,
          4.54545440e-03, 0., 0., 0., 0., 0., 9.09090880e-03, 0.,
          4.54545440e-03, 0., 0., 0., 0., 0., 0., 0., 0., 1.36363637e-02,
          0., 0., 0., 0., 0., 0., 0., 4.54545440e-03, 0., 0.,
          4.54545440e-03, 0., 0., 4.54545440e-03, 0., 4.54545440e-03, 0.,
          0., 0., 0., 0., 0., 4.54545440e-03, 0., 0., 4.54545440e-03,
          4.54545440e-03, 0., 0., 0., 0., 0., 0., 4.54545440e-03, 0., 0.,
          0., 0., 0., 4.54545440e-03, 0., 0., 0., 4.54545440e-03, 0., 0.,
          0., 0., 0., 0., 0., 0., 4.54545440e-03, 0., 0., 0., 0., 0., 0.,
          0., 0., 9.09090880e-03, 0., 0., 0., 0., 0., 0., 9.09090880e-03,
          4.54545440e-03, 0., 0., 0., 0., 0., 0., 0., 0., 4.54545440e-03,
          4.54545440e-03, 0., 0., 0., 0., 4.54545440e-03, 9.09090880e-03,
          4.54545440e-03, 0., 0., 0., 0., 0., 0., 0., 0., 0., 0.,
          4.54545440e-03, 0., 0., 0., 0., 4.54545440e-03, 0., 0.,
          4.54545440e-03, 0., 0., 0., 0., 4.54545440e-03, 0., 0., 0., 0.,
          0., 0., 0., 4.54545440e-03, 0., 0., 0., 9.09090880e-03, 0., 0.,
          0., 1.36363637e-02, 0., 0., 0., 0., 0., 0., 0., 0., 0.,
          4.54545440e-03, 0., 0., 0., 0., 0., 0., 0., 0., 0., 0., 0.,
          4.54545440e-03, 0., 0., 0., 0., 0., 0., 0., 0., 0.,
          4.54545440e-03, 0., 9.09090880e-03, 0., 0., 0., 0., 0.,
          4.54545440e-03, 4.54545440e-03, 0., 0., 0., 0., 4.54545440e-03,
          0., 0., 0., 0., 0., 0., 0., 0., 4.54545440e-03, 0., 0., 0., 0.,
          0., 0., 0., 9.09090880e-03, 0., 0., 0., 0., 0., 0., 0.,
          4.54545440e-03, 0., 0., 0., 4.54545440e-03, 0., 0.,
          9.09090880e-03, 0., 0., 0., 4.54545440e-03, 0., 4.54545440e-03,
          0., 0., 0., 0., 0., 0., 0., 0., 0., 0., 0., 0., 0., 0., 0., 0.,
          4.54545440e-03, 0., 0., 0., 0., 4.54545440e-03, 0., 0.,
          4.54545440e-03, 0., 0., 0., 0., 0., 4.54545440e-03, 0.,
          4.54545440e-03, 0., 4.54545440e-03, 0., 0., 9.09090880e-03,
          4.54545440e-03, 0., 4.54545440e-03, 0., 0., 0., 0.,
          4.54545440e-03, 0., 4.54545440e-03, 0., 0., 0., 0., 0., 0., 0.,
          4.54545440e-03, 0., 0., 0., 0., 0., 4.54545440e-03, 0.,
          4.54545440e-03, 0., 0., 0., 0., 0., 0., 0., 0., 0., 0., 0., 0.,
          0., 4.54545440e-03, 0., 0., 0., 0., 0., 0., 0., 0., 0., 0., 0.,
          0., 0., 0., 0., 0., 0., 1.36363637e-02, 0., 0., 4.54545440e-03,
          0., 0., 4.54545440e-03, 0., 0., 4.54545440e-03, 0., 0.,
          4.54545440e-03, 4.54545440e-03, 0., 0., 0., 0., 9.09090880e-03,
          0., 0., 0., 0., 0., 0., 4.54545440e-03, 4.54545440e-03, 0., 0.,
          0., 4.54545440e-03, 0., 0., 4.54545440e-03, 0., 0.,
          4.54545440e-03, 0., 0., 0., 0., 0., 0., 0., 0., 0., 0.,
          9.09090880e-03, 0., 0., 0., 0., 0., 4.54545440e-03, 0., 0.,
          9.09090880e-03, 0., 0., 0., 0., 0., 0., 0., 0., 0., 0., 0., 0.,
          0., 0., 0., 0., 0., 0., 0., 0., 4.54545440e-03, 4.54545440e-03,
          0., 0., 0., 4.54545440e-03, 4.54545440e-03, 0., 0., 0., 0., 0.,
          0., 0., 4.54545440e-03, 0., 0., 0., 0., 0., 9.09090880e-03, 0.,
          0., 0., 0., 0., 0., 0., 0., 0., 0., 0., 0., 0., 0., 0., 0.,
          4.54545440e-03, 0., 0., 0., 0., 0., 0., 0., 0., 0., 0., 0., 0.,
          0., 0., 0., 0., 0., 9.09090880e-03, 4.54545440e-03, 0., 0.,
          4.54545440e-03, 0., 4.54545440e-03, 0., 0., 0., 4.54545440e-03,
          0., 0., 0., 0., 4.54545440e-03, 0., 0., 0., 0., 0.,
          4.54545440e-03, 0., 0., 0., 0., 0., 0., 0., 0., 0., 0., 0.,
          4.54545440e-03, 0., 0., 0., 0., 4.54545440e-03, 0., 0.,
          4.54545440e-03, 0., 0., 0., 0., 0., 0., 0., 0., 0., 0., 0.,
          4.54545440e-03, 0., 0., 0., 0., 0., 0., 0., 4.54545440e-03, 0.,
          0., 0., 0., 0., 0., 4.54545440e-03, 0., 0., 0., 0., 0., 0.,
          4.54545440e-03, 0., 0., 0., 0., 0., 0., 0., 0., 0.,
          4.54545440e-03, 0., 0., 0., 0., 4.54545440e-03, 0., 0., 0., 0.,
          0., 0., 0., 0., 9.09090880e-03, 0., 0., 0., 0., 0., 0.,
          4.54545440e-03, 0., 0., 4.54545440e-03, 4.54545440e-03, 0., 0.,
          4.54545440e-03, 0., 0., 0., 4.54545440e-03, 4.54545440e-03, 0.,
          4.54545440e-03, 0., 4.54545440e-03, 0., 4.54545440e-03, 0., 0.,
          0., 4.54545440e-03, 4.54545440e-03, 0., 0., 0., 0., 0.,
          9.09090880e-03, 0., 1.36363637e-02, 0., 0., 0., 0., 0., 0.,
          4.54545440e-03, 0., 4.54545440e-03, 0., 0., 0., 0., 0. ]
      - [ 0., 0., 0., 0., 0., 0., 0., 6.17283955e-03, 0., 6.17283955e-03,
          0., 0., 0., 0., 0., 0., 0., 0., 0., 0., 0., 0., 0., 0., 0., 0.,
          0., 0., 0., 0., 0., 0., 0., 0., 0., 0., 0., 0., 0., 0., 0., 0.,
          0., 0., 0., 0., 6.17283955e-03, 0., 0., 0., 0., 0., 0.,
          6.17283955e-03, 0., 1.23456791e-02, 6.17283955e-03, 0.,
          6.17283955e-03, 0., 0., 0., 0., 0., 0., 0., 0., 0., 0., 0.,
          6.17283955e-03, 6.17283955e-03, 0., 0., 1.23456791e-02, 0., 0.,
          0., 0., 0., 0., 0., 0., 0., 0., 0., 0., 0., 0., 0., 0., 0., 0.,
          6.17283955e-03, 0., 0., 0., 0., 0., 0., 0., 0., 0., 0.,
          6.17283955e-03, 0., 6.17283955e-03, 0., 0., 0., 0., 0., 0., 0.,
          0., 0., 0., 6.17283955e-03, 0., 0., 0., 0., 6.17283955e-03, 0.,
          0., 0., 0., 6.17283955e-03, 0., 0., 0., 0., 0., 0., 0.,
          6.17283955e-03, 0., 0., 0., 0., 0., 0., 0., 0., 6.17283955e-03,
          6.17283955e-03, 0., 0., 6.17283955e-03, 0., 6.17283955e-03, 0.,
          6.17283955e-03, 0., 0., 0., 0., 0., 0., 0., 0., 0., 0., 0., 0.,
          0., 6.17283955e-03, 0., 0., 0., 0., 0., 0., 0., 0., 0., 0., 0.,
          6.17283955e-03, 0., 0., 6.17283955e-03, 0., 0., 6.17283955e-03,
          0., 0., 6.17283955e-03, 0., 0., 0., 0., 0., 0., 0., 0., 0.,
          6.17283955e-03, 0., 0., 0., 0., 0., 0., 0., 0., 0., 0., 0., 0.,
          0., 0., 0., 1.85185187e-02, 0., 0., 0., 0., 6.17283955e-03, 0.,
          0., 0., 0., 0., 6.17283955e-03, 0., 6.17283955e-03, 0.,
          6.17283955e-03, 0., 0., 0., 0., 0., 0., 0., 0., 0., 0., 0., 0.,
          0., 0., 0., 0., 0., 6.17283955e-03, 6.17283955e-03, 0.,
          6.17283955e-03, 0., 0., 0., 0., 0., 0., 0., 0., 0., 0., 0.,
          6.17283955e-03, 0., 0., 0., 0., 0., 0., 0., 0., 6.17283955e-03,
          6.17283955e-03, 0., 0., 0., 0., 0., 0., 0., 6.17283955e-03, 0.,
          0., 0., 0., 0., 0., 6.17283955e-03, 0., 0., 0., 0., 0., 0., 0.,
          0., 0., 0., 0., 0., 0., 0., 0., 6.17283955e-03, 6.17283955e-03,
          6.17283955e-03, 0., 0., 0., 0., 0., 6.17283955e-03, 0., 0., 0.,
          0., 6.17283955e-03, 0., 6.17283955e-03, 0., 0., 0., 0., 0.,
          6.17283955e-03, 0., 0., 0., 0., 0., 0., 0., 0., 0., 0., 0., 0.,
          0., 0., 0., 6.17283955e-03, 0., 0., 0., 0., 0., 0., 0., 0., 0.,
          0., 0., 0., 0., 0., 0., 0., 0., 0., 6.17283955e-03, 0., 0., 0.,
          0., 0., 0., 0., 0., 0., 0., 0., 0., 0., 0., 0., 0., 0., 0., 0.,
          0., 0., 0., 0., 0., 0., 0., 0., 0., 0., 0., 0., 0., 0.,
          6.17283955e-03, 0., 0., 0., 0., 6.17283955e-03, 0., 0., 0., 0.,
          6.17283955e-03, 0., 0., 0., 0., 2.46913582e-02, 0., 0., 0., 0.,
          0., 6.17283955e-03, 0., 0., 0., 0., 0., 0., 6.17283955e-03, 0.,
          0., 0., 0., 0., 0., 6.17283955e-03, 6.17283955e-03, 0.,
          6.17283955e-03, 0., 3.08641978e-02, 0., 0., 0., 0., 0., 0., 0.,
          0., 0., 0., 0., 0., 0., 0., 0., 0., 0., 0., 6.17283955e-03, 0.,
          0., 0., 0., 0., 6.17283955e-03, 0., 0., 0., 0., 0., 0.,
          6.17283955e-03, 0., 0., 0., 0., 6.17283955e-03, 0., 0., 0., 0.,
          6.17283955e-03, 0., 0., 0., 0., 0., 0., 0., 0., 0., 0., 0., 0.,
          0., 0., 0., 0., 0., 0., 0., 0., 0., 0., 0., 0., 0., 0., 0., 0.,
          6.17283955e-03, 0., 0., 0., 0., 0., 0., 6.17283955e-03, 0., 0.,
          0., 0., 0., 0., 0., 0., 0., 0., 0., 0., 0., 0., 0.,
          6.17283955e-03, 6.17283955e-03, 0., 0., 0., 0., 0., 0.,
          6.17283955e-03, 0., 0., 1.23456791e-02, 6.17283955e-03, 0., 0.,
          0., 6.17283955e-03, 6.17283955e-03, 0., 0., 0., 6.79012388e-02,
          0., 0., 0., 0., 0., 0., 0., 0., 0., 0., 6.17283955e-03, 0., 0.,
          0., 0., 6.17283955e-03, 0., 0., 0., 0., 6.17283955e-03, 0., 0.,
          0., 0., 0., 0., 0., 0., 0., 0., 1.23456791e-02, 0., 0., 0., 0.,
          0., 0., 0., 0., 0., 0., 6.17283955e-03, 0., 0., 0., 0., 0., 0.,
          0., 0., 6.17283955e-03, 0., 0., 0., 0., 0., 0., 0., 0.,
          6.17283955e-03, 0., 0., 0., 0., 0., 0., 0., 0., 0., 0.,
          6.17283955e-03, 0., 0., 0., 0., 1.23456791e-02, 0., 0., 0., 0.,
          0., 0., 6.17283955e-03, 0., 0., 0., 0., 0., 0., 0., 0., 0., 0.,
          6.17283955e-03, 0., 0., 0., 0., 0., 0., 0., 0., 1.23456791e-02,
          0., 0., 0., 0., 0., 0., 0., 6.17283955e-03, 0., 0., 0., 0., 0.,
          0., 6.17283955e-03, 0., 0., 0., 6.17283955e-03, 0., 0., 0., 0.,
          0., 6.17283955e-03, 0., 0., 6.17283955e-03, 0., 0., 0., 0., 0.,
          6.17283955e-03, 0., 0., 6.17283955e-03, 0., 0., 0., 0., 0., 0.,
          0., 0., 0., 6.17283955e-03, 0., 0., 0., 0., 0., 0., 0., 0., 0.,
          6.17283955e-03, 0., 0., 0., 0., 0., 0., 0., 0., 0., 0.,
          1.23456791e-02, 0., 0., 0., 0., 0., 0., 0., 0., 0.,
          6.17283955e-03, 0., 0., 0., 0., 0., 0., 0., 0., 0., 0., 0., 0.,
          0., 0., 0., 0., 0., 0., 0., 0., 0., 0., 0., 6.17283955e-03, 0.,
          0., 0., 0., 0., 6.17283955e-03, 0., 0., 0., 0., 0., 0., 0., 0.,
          0., 0., 0., 0., 0., 0., 0., 0., 0., 0., 0., 0., 0.,
          6.17283955e-03, 0., 0., 0., 6.17283955e-03, 0., 0., 0., 0., 0.,
          0., 0., 0., 0., 6.17283955e-03, 0., 0., 0., 6.17283955e-03, 0.,
          0., 0., 0., 0., 0., 0., 0., 0., 6.17283955e-03, 0., 0., 0., 0.,
          0., 6.17283955e-03, 0., 0., 0., 0., 0., 6.17283955e-03,
          6.17283955e-03, 0., 0., 0., 0., 0., 0., 0., 6.17283955e-03, 0.,
          0., 6.17283955e-03, 0., 0., 0., 0., 0., 0., 0., 0., 0., 0., 0.,
          6.17283955e-03, 0., 0., 0., 6.17283955e-03, 0., 0., 0., 0.,
          6.17283955e-03, 6.17283955e-03, 0., 6.17283955e-03, 0., 0., 0.,
          0., 0., 0., 0., 6.17283955e-03, 0., 6.17283955e-03, 0.,
          6.17283955e-03, 0., 0., 0., 0., 0., 0., 0., 0., 0.,
          6.17283955e-03, 0., 0., 0., 0., 0., 0., 0., 6.17283955e-03, 0.,
          6.17283955e-03, 1.23456791e-02, 0., 0., 0., 6.17283955e-03, 0.,
          0., 0., 0., 0., 0., 0., 0., 0., 6.17283955e-03, 0., 0., 0., 0.,
          0., 0., 0., 0., 0., 0., 0., 6.17283955e-03, 0., 0., 0., 0., 0.,
          0., 0., 0., 6.17283955e-03, 0., 0., 0., 0., 6.17283955e-03,
          6.17283955e-03, 0., 6.17283955e-03, 0., 0., 0., 0., 0., 0., 0.,
          0., 0., 0., 0., 0., 0., 6.17283955e-03, 0., 0., 0., 0.,
          6.17283955e-03, 0., 0., 0., 0., 0., 0., 6.17283955e-03, 0., 0.,
          0., 0., 0., 0., 6.17283955e-03, 6.17283955e-03, 0., 0., 0., 0.,
          0., 0., 0., 0., 0., 0., 0., 0., 0., 0., 0., 0., 0., 0., 0., 0.,
          0., 0., 0., 0., 0., 6.17283955e-03, 0., 0., 0., 0., 0., 0. ]
      - [ 0., 0., 0., 0., 0., 0., 0., 5.52486209e-03, 0., 0., 0., 0., 0.,
          0., 1.10497242e-02, 0., 5.52486209e-03, 5.52486209e-03, 0., 0.,
          0., 0., 0., 0., 0., 0., 0., 5.52486209e-03, 0., 0.,
          5.52486209e-03, 0., 0., 5.52486209e-03, 0., 0., 0., 0., 0., 0.,
          0., 0., 0., 0., 0., 0., 0., 0., 0., 0., 5.52486209e-03,
          5.52486209e-03, 0., 0., 0., 5.52486209e-03, 0., 0., 0., 0., 0.,
          0., 0., 0., 0., 0., 0., 5.52486209e-03, 5.52486209e-03, 0., 0.,
          0., 0., 0., 5.52486209e-03, 0., 5.52486209e-03, 0., 0., 0., 0.,
          5.52486209e-03, 0., 0., 0., 0., 0., 0., 0., 0., 0., 0., 0., 0.,
          0., 0., 0., 0., 0., 1.10497242e-02, 0., 5.52486209e-03,
          5.52486209e-03, 1.65745858e-02, 5.52486209e-03, 0., 0., 0.,
          5.52486209e-03, 0., 5.52486209e-03, 0., 0., 0., 5.52486209e-03,
          0., 5.52486209e-03, 0., 0., 0., 0., 0., 5.52486209e-03, 0., 0.,
          0., 0., 0., 0., 0., 5.52486209e-03, 0., 0., 0., 0.,
          5.52486209e-03, 0., 1.10497242e-02, 0., 5.52486209e-03,
          5.52486209e-03, 0., 0., 0., 0., 0., 0., 0., 0., 0.,
          5.52486209e-03, 0., 0., 0., 1.10497242e-02, 0., 0., 0., 0., 0.,
          0., 0., 0., 0., 0., 0., 0., 0., 0., 0., 0., 0., 0., 0., 0., 0.,
          0., 0., 0., 0., 0., 0., 0., 0., 0., 0., 0., 5.52486209e-03, 0.,
          5.52486209e-03, 0., 0., 0., 0., 0., 0., 0., 0., 0., 0., 0., 0.,
          5.52486209e-03, 5.52486209e-03, 5.52486209e-03, 0.,
          5.52486209e-03, 0., 0., 0., 0., 5.52486209e-03, 0.,
          5.52486209e-03, 0., 0., 0., 0., 0., 0., 0., 0., 0., 0., 0., 0.,
          0., 5.52486209e-03, 0., 5.52486209e-03, 0., 0., 0., 0.,
          5.52486209e-03, 0., 0., 0., 0., 0., 0., 0., 0., 0.,
          5.52486209e-03, 0., 0., 0., 0., 0., 0., 0., 0., 0., 0.,
          5.52486209e-03, 0., 0., 0., 0., 0., 0., 0., 0., 0., 0., 0.,
          5.52486209e-03, 0., 0., 0., 0., 0., 5.52486209e-03, 0., 0., 0.,
          0., 0., 0., 0., 0., 5.52486209e-03, 0., 0., 0., 0.,
          5.52486209e-03, 0., 0., 0., 0., 5.52486209e-03, 5.52486209e-03,
          0., 0., 0., 0., 0., 0., 0., 0., 1.65745858e-02, 0.,
          5.52486209e-03, 0., 0., 0., 0., 0., 0., 0., 0., 0.,
          5.52486209e-03, 0., 0., 0., 0., 0., 0., 0., 5.52486209e-03, 0.,
          0., 0., 0., 0., 0., 0., 0., 0., 0., 0., 5.52486209e-03, 0., 0.,
          0., 0., 0., 0., 5.52486209e-03, 0., 0., 0., 5.52486209e-03, 0.,
          0., 0., 0., 0., 0., 0., 0., 0., 5.52486209e-03, 0.,
          5.52486209e-03, 5.52486209e-03, 0., 0., 0., 5.52486209e-03, 0.,
          0., 0., 0., 0., 0., 0., 0., 0., 0., 0., 0., 0., 0., 0., 0., 0.,
          0., 0., 0., 0., 0., 0., 0., 5.52486209e-03, 0., 0., 0., 0., 0.,
          0., 0., 0., 0., 5.52486209e-03, 0., 0., 5.52486209e-03, 0., 0.,
          0., 0., 0., 0., 0., 0., 1.65745858e-02, 0., 0., 0., 0., 0.,
          5.52486209e-03, 0., 0., 0., 0., 0., 5.52486209e-03, 0., 0., 0.,
          0., 0., 0., 0., 0., 0., 0., 3.31491716e-02, 5.52486209e-03, 0.,
          0., 0., 0., 5.52486209e-03, 5.52486209e-03, 0., 0., 0., 0., 0.,
          0., 0., 0., 5.52486209e-03, 0., 0., 0., 0., 0., 0.,
          5.52486209e-03, 1.10497242e-02, 0., 0., 0., 0., 0., 0., 0., 0.,
          0., 0., 0., 0., 0., 0., 0., 0., 0., 0., 0., 0., 0., 0., 0.,
          5.52486209e-03, 0., 0., 0., 0., 0., 0., 0., 5.52486209e-03, 0.,
          0., 0., 1.10497242e-02, 5.52486209e-03, 0., 0., 0., 0., 0., 0.,
          0., 0., 0., 0., 0., 0., 5.52486209e-03, 0., 5.52486209e-03,
          5.52486209e-03, 1.10497242e-02, 0., 5.52486209e-03, 0.,
          5.52486209e-03, 0., 0., 0., 0., 0., 0., 5.52486209e-03, 0., 0.,
          0., 0., 0., 0., 0., 0., 0., 5.52486209e-03, 0., 5.52486209e-03,
          0., 0., 0., 1.10497242e-02, 0., 0., 0., 5.52486209e-03, 0., 0.,
          0., 0., 0., 5.52486209e-03, 0., 0., 0., 0., 0., 5.52486209e-03,
          5.52486209e-03, 0., 0., 0., 0., 0., 0., 0., 0., 0., 0., 0., 0.,
          5.52486209e-03, 0., 5.52486209e-03, 0., 0., 0., 5.52486209e-03,
          0., 0., 0., 0., 5.52486209e-03, 0., 1.10497242e-02, 0., 0., 0.,
          0., 0., 0., 0., 0., 0., 0., 0., 0., 0., 0., 0., 0., 0.,
          5.52486209e-03, 0., 0., 0., 0., 0., 0., 0., 0., 0.,
          1.10497242e-02, 0., 0., 0., 0., 0., 5.52486209e-03, 0., 0., 0.,
          0., 0., 0., 0., 0., 5.52486209e-03, 0., 0., 0., 0., 0., 0., 0.,
          0., 0., 0., 0., 0., 5.52486209e-03, 0., 0., 0., 0.,
          5.52486209e-03, 0., 0., 0., 0., 0., 0., 0., 0., 0.,
          5.52486209e-03, 0., 0., 0., 0., 0., 5.52486209e-03, 0., 0., 0.,
          0., 0., 0., 0., 0., 0., 5.52486209e-03, 5.52486209e-03, 0., 0.,
          0., 0., 0., 0., 0., 0., 5.52486209e-03, 0., 0., 5.52486209e-03,
          0., 0., 5.52486209e-03, 0., 0., 5.52486209e-03, 0., 0., 0., 0.,
          0., 5.52486209e-03, 0., 0., 5.52486209e-03, 0., 1.10497242e-02,
          0., 0., 0., 0., 5.52486209e-03, 0., 0., 5.52486209e-03, 0., 0.,
          0., 0., 0., 0., 0., 0., 0., 0., 0., 5.52486209e-03, 0., 0.,
          1.10497242e-02, 0., 0., 0., 5.52486209e-03, 5.52486209e-03, 0.,
          0., 0., 0., 0., 0., 0., 0., 0., 0., 0., 0., 5.52486209e-03,
          1.65745858e-02, 5.52486209e-03, 0., 0., 0., 0., 0., 0., 0., 0.,
          0., 0., 0., 0., 0., 0., 0., 0., 0., 0., 0., 0., 0., 0., 0., 0.,
          0., 0., 0., 0., 0., 0., 0., 0., 0., 0., 0., 0., 0., 0., 0., 0.,
          0., 0., 0., 1.10497242e-02, 0., 0., 5.52486209e-03, 0., 0., 0.,
          0., 0., 0., 0., 5.52486209e-03, 0., 0., 0., 0., 0., 0.,
          5.52486209e-03, 0., 5.52486209e-03, 0., 0., 0., 0., 0., 0., 0.,
          0., 0., 5.52486209e-03, 0., 0., 0., 0., 0., 5.52486209e-03, 0.,
          0., 5.52486209e-03, 0., 0., 0., 0., 0., 0., 0., 0., 0.,
          5.52486209e-03, 0., 0., 0., 5.52486209e-03, 0., 0., 0., 0., 0.,
          5.52486209e-03, 0., 0., 0., 0., 0., 0., 0., 0., 0., 0., 0., 0.,
          0., 0., 0., 0., 0., 0., 0., 5.52486209e-03, 1.10497242e-02, 0.,
          0., 0., 0., 0., 0., 0., 0., 0., 0., 0., 0., 0., 0., 0.,
          5.52486209e-03, 0., 0., 0., 0., 0., 0., 0., 0., 0., 0., 0.,
          5.52486209e-03, 0., 0., 0., 0., 0., 0., 0., 0., 0., 0., 0., 0.,
          0., 0., 0., 0., 0., 0., 0., 5.52486209e-03, 0., 0., 0., 0., 0.,
          0., 1.10497242e-02, 0., 0., 0., 0., 0., 0., 0., 0., 0., 0., 0.,
          0., 0., 0., 0., 5.52486209e-03, 0., 0., 0., 0., 0., 0., 0., 0.,
          5.52486209e-03, 0., 5.52486209e-03, 0., 0., 0., 0., 0.,
          5.52486209e-03, 0., 0., 5.52486209e-03, 0., 0., 0.,
          5.52486209e-03, 0., 0., 0., 0., 0., 5.52486209e-03, 0., 0., 0.,
          0., 0., 0., 0., 0., 0., 0., 0., 0., 0., 0., 0., 0., 0., 0.,
          5.52486209e-03, 0., 0., 0., 0., 0., 0., 0., 0., 5.52486209e-03,
          0., 1.65745858e-02, 0., 0., 0., 0. ]
      - [ 0., 3.81679391e-03, 0., 0., 0., 0., 0., 0., 0., 3.81679391e-03,
          0., 0., 0., 3.81679391e-03, 0., 0., 3.81679391e-03,
          3.81679391e-03, 0., 0., 0., 0., 0., 0., 0., 0., 3.81679391e-03,
          3.81679391e-03, 0., 3.81679391e-03, 0., 3.81679391e-03, 0.,
          7.63358781e-03, 3.81679391e-03, 0., 0., 0., 0., 0., 0., 0., 0.,
          3.81679391e-03, 0., 7.63358781e-03, 0., 0., 3.81679391e-03, 0.,
          0., 0., 0., 3.81679391e-03, 3.81679391e-03, 0., 3.81679391e-03,
          0., 0., 0., 0., 3.81679391e-03, 3.81679391e-03, 0., 0., 0.,
          3.81679391e-03, 0., 7.63358781e-03, 0., 0., 0., 0., 0.,
          3.81679391e-03, 0., 0., 0., 0., 0., 3.81679391e-03, 0.,
          3.81679391e-03, 0., 0., 0., 3.81679391e-03, 0., 0., 0.,
          3.81679391e-03, 0., 0., 0., 0., 0., 0., 3.81679391e-03, 0., 0.,
          0., 0., 3.81679391e-03, 0., 3.81679391e-03, 0., 0.,
          3.81679391e-03, 0., 0., 0., 0., 0., 0., 0., 0., 0., 0.,
          3.81679391e-03, 0., 3.81679391e-03, 0., 3.81679391e-03,
          3.81679391e-03, 3.81679391e-03, 0., 0., 0., 0., 7.63358781e-03,
          3.81679391e-03, 0., 3.81679391e-03, 0., 0., 0., 0.,
          3.81679391e-03, 0., 0., 3.81679391e-03, 0., 0., 0., 0., 0., 0.,
          3.81679391e-03, 0., 0., 7.63358781e-03, 0., 0., 0., 0., 0., 0.,
          0., 0., 0., 0., 0., 0., 0., 0., 3.81679391e-03, 3.81679391e-03,
          7.63358781e-03, 7.63358781e-03, 0., 0., 0., 0., 7.63358781e-03,
          0., 0., 0., 0., 0., 0., 0., 0., 0., 3.81679391e-03, 0., 0., 0.,
          0., 0., 0., 0., 1.14503819e-02, 0., 0., 0., 3.81679391e-03, 0.,
          3.81679391e-03, 0., 0., 0., 7.63358781e-03, 7.63358781e-03, 0.,
          0., 3.81679391e-03, 3.81679391e-03, 0., 0., 0., 0., 0.,
          3.81679391e-03, 0., 0., 3.81679391e-03, 0., 0., 0., 0., 0., 0.,
          0., 0., 0., 0., 0., 0., 3.81679391e-03, 3.81679391e-03, 0.,
          3.81679391e-03, 0., 0., 0., 3.81679391e-03, 0., 0.,
          3.81679391e-03, 0., 3.81679391e-03, 0., 0., 0., 0.,
          3.81679391e-03, 0., 0., 0., 7.63358781e-03, 0., 0., 0., 0., 0.,
          0., 0., 0., 0., 0., 0., 0., 0., 0., 7.63358781e-03,
          3.81679391e-03, 0., 3.81679391e-03, 0., 0., 0., 0., 0., 0., 0.,
          0., 3.81679391e-03, 3.81679391e-03, 0., 0., 0., 3.81679391e-03,
          0., 3.81679391e-03, 7.63358781e-03, 3.81679391e-03, 0., 0., 0.,
          3.81679391e-03, 0., 0., 0., 3.81679391e-03, 3.81679391e-03, 0.,
          0., 3.81679391e-03, 0., 0., 3.81679391e-03, 0., 0., 0.,
          3.81679391e-03, 0., 0., 0., 0., 0., 0., 3.81679391e-03,
          7.63358781e-03, 0., 0., 7.63358781e-03, 0., 0., 0., 0., 0., 0.,
          0., 0., 0., 7.63358781e-03, 0., 0., 3.81679391e-03, 0., 0.,
          3.81679391e-03, 0., 3.81679391e-03, 0., 0., 0., 0., 0., 0., 0.,
          0., 0., 0., 0., 0., 3.81679391e-03, 0., 0., 0., 3.81679391e-03,
          7.63358781e-03, 3.81679391e-03, 0., 3.81679391e-03, 0., 0.,
          3.81679391e-03, 0., 0., 0., 0., 7.63358781e-03, 0., 0., 0., 0.,
          0., 0., 0., 0., 0., 0., 0., 0., 0., 0., 0., 0., 0., 0., 0., 0.,
          0., 0., 0., 0., 0., 0., 3.81679391e-03, 0., 3.81679391e-03, 0.,
          0., 0., 0., 3.81679391e-03, 0., 0., 0., 0., 3.81679391e-03, 0.,
          3.81679391e-03, 0., 0., 0., 7.63358781e-03, 0., 0., 0., 0., 0.,
          0., 3.81679391e-03, 0., 3.81679391e-03, 0., 0., 0., 0., 0., 0.,
          0., 0., 0., 3.81679391e-03, 7.63358781e-03, 0., 0., 0., 0., 0.,
          0., 0., 0., 0., 0., 0., 0., 3.81679391e-03, 0., 0., 0., 0., 0.,
          0., 0., 0., 0., 0., 3.81679391e-03, 0., 0., 0., 0., 0.,
          3.81679391e-03, 0., 0., 0., 0., 0., 3.81679391e-03, 0.,
          3.81679391e-03, 0., 3.81679391e-03, 0., 0., 0., 3.81679391e-03,
          3.81679391e-03, 3.81679391e-03, 0., 0., 0., 0., 0., 0.,
          3.81679391e-03, 0., 0., 0., 0., 0., 0., 0., 0., 0., 0., 0.,
          3.81679391e-03, 0., 0., 0., 0., 3.81679391e-03, 0.,
          3.81679391e-03, 0., 0., 0., 3.81679391e-03, 0., 0., 0.,
          3.81679391e-03, 0., 3.81679391e-03, 0., 0., 0., 0.,
          3.81679391e-03, 0., 0., 3.81679391e-03, 0., 3.81679391e-03, 0.,
          0., 0., 0., 0., 3.81679391e-03, 0., 0., 0., 3.81679391e-03, 0.,
          0., 0., 0., 0., 0., 0., 0., 0., 0., 0., 0., 0., 7.63358781e-03,
          0., 0., 0., 1.14503819e-02, 0., 0., 0., 0., 7.63358781e-03, 0.,
          0., 0., 0., 0., 3.81679391e-03, 0., 0., 7.63358781e-03, 0., 0.,
          7.63358781e-03, 0., 0., 0., 0., 0., 0., 0., 0., 0., 0., 0., 0.,
          0., 0., 0., 0., 0., 0., 0., 3.81679391e-03, 0., 1.14503819e-02,
          0., 0., 0., 0., 0., 0., 0., 3.81679391e-03, 0., 0., 0., 0., 0.,
          0., 0., 0., 3.81679391e-03, 0., 0., 0., 0., 0., 0., 0., 0., 0.,
          3.81679391e-03, 0., 0., 3.81679391e-03, 3.81679391e-03, 0., 0.,
          3.81679391e-03, 3.81679391e-03, 3.81679391e-03, 0.,
          3.81679391e-03, 3.81679391e-03, 0., 0., 0., 0., 0., 0.,
          3.81679391e-03, 0., 0., 3.81679391e-03, 0., 0., 3.81679391e-03,
          0., 0., 0., 0., 0., 0., 0., 3.81679391e-03, 0., 0., 0., 0., 0.,
          0., 0., 3.81679391e-03, 0., 0., 0., 7.63358781e-03, 0., 0., 0.,
          0., 0., 0., 0., 3.81679391e-03, 0., 0., 0., 0., 3.81679391e-03,
          0., 0., 0., 0., 7.63358781e-03, 0., 0., 0., 0., 0., 0., 0.,
          3.81679391e-03, 0., 0., 3.81679391e-03, 0., 0., 7.63358781e-03,
          0., 0., 7.63358781e-03, 0., 0., 0., 7.63358781e-03,
          3.81679391e-03, 7.63358781e-03, 0., 0., 0., 0., 0., 0., 0., 0.,
          0., 0., 0., 0., 3.81679391e-03, 0., 3.81679391e-03, 0., 0.,
          3.81679391e-03, 0., 0., 0., 0., 0., 0., 0., 3.81679391e-03, 0.,
          3.81679391e-03, 0., 7.63358781e-03, 0., 0., 0., 0., 0., 0., 0.,
          3.81679391e-03, 0., 0., 0., 0., 0., 0., 0., 0., 0., 0., 0., 0.,
          0., 0., 0., 0., 0., 0., 0., 3.81679391e-03, 0., 0., 0., 0., 0.,
          0., 3.81679391e-03, 0., 0., 0., 0., 1.52671756e-02, 0.,
          3.81679391e-03, 0., 0., 0., 0., 0., 0., 0., 0., 0.,
          3.81679391e-03, 0., 3.81679391e-03, 0., 0., 0., 0.,
          3.81679391e-03, 3.81679391e-03, 0., 0., 0., 0., 0., 0., 0., 0.,
          0., 0., 0., 0., 3.81679391e-03, 3.81679391e-03, 0.,
          3.81679391e-03, 0., 3.81679391e-03, 0., 0., 0., 0., 0.,
          3.81679391e-03, 3.81679391e-03, 0., 3.81679391e-03, 0.,
          3.81679391e-03, 0., 0., 0., 0., 0., 3.81679391e-03,
          3.81679391e-03, 0., 0., 0., 0., 3.81679391e-03, 0., 0., 0.,
          3.81679391e-03, 0., 0., 0., 0., 0., 0., 3.81679391e-03, 0., 0.,
          0., 0., 0., 3.81679391e-03, 3.81679391e-03, 0., 0., 0., 0., 0.,
          0., 0., 0., 0., 0., 0., 0., 0., 3.81679391e-03, 0.,
          3.81679391e-03, 3.81679391e-03, 0., 0., 0., 3.81679391e-03, 0.,
          0., 0., 3.81679391e-03, 0., 0., 3.81679391e-03, 0., 0., 0., 0.,
          0., 0., 0., 0., 0., 0., 0., 0., 0., 0., 0., 0., 0.,
          3.81679391e-03, 0., 0., 0., 0., 0., 0., 0., 0., 3.81679391e-03,
          0., 0., 0., 0., 0., 0., 0., 0., 0., 3.81679391e-03, 0., 0., 0.,
          0., 0., 0., 0., 3.81679391e-03, 0., 0., 0., 0., 0.,
          3.81679391e-03, 0., 0., 3.81679391e-03, 0., 0., 7.63358781e-03,
          0., 0., 0., 0., 0., 0., 0., 7.63358781e-03, 0., 0., 0., 0.,
          3.81679391e-03, 0., 0., 0., 0., 0., 3.81679391e-03, 0., 0.,
          3.81679391e-03, 0., 0., 0., 3.81679391e-03, 3.81679391e-03, 0.,
          0., 0., 0., 0., 0., 0., 0., 0., 0., 0., 0., 0., 0.,
          7.63358781e-03, 0., 3.81679391e-03, 0., 0., 3.81679391e-03, 0.,
          0., 3.81679391e-03, 0., 0., 3.81679391e-03, 0., 3.81679391e-03,
          7.63358781e-03, 0., 0., 0., 3.81679391e-03, 0., 0., 0.,
          7.63358781e-03, 0., 0. ]
      - [ 0., 5.81395347e-03, 0., 0., 0., 0., 0., 0., 0., 0., 0., 0., 0.,
          0., 0., 0., 0., 5.81395347e-03, 0., 0., 0., 0., 0., 0., 0., 0.,
          5.81395347e-03, 0., 0., 0., 0., 0., 5.81395347e-03, 0., 0.,
          1.16279069e-02, 0., 0., 5.81395347e-03, 0., 0., 5.81395347e-03,
          0., 5.81395347e-03, 0., 0., 0., 0., 0., 0., 0., 5.81395347e-03,
          0., 0., 0., 0., 0., 0., 0., 0., 0., 0., 0., 0., 0., 0., 0., 0.,
          0., 0., 0., 5.81395347e-03, 5.81395347e-03, 0., 5.81395347e-03,
          5.81395347e-03, 0., 0., 5.81395347e-03, 0., 0., 0., 0., 0., 0.,
          0., 0., 0., 0., 0., 0., 0., 0., 5.81395347e-03, 0., 0.,
          5.81395347e-03, 0., 0., 0., 0., 0., 0., 1.16279069e-02, 0., 0.,
          0., 5.81395347e-03, 0., 0., 0., 0., 0., 0., 0., 0.,
          5.81395347e-03, 0., 0., 0., 0., 0., 0., 0., 0., 0., 0., 0., 0.,
          0., 0., 0., 0., 0., 0., 0., 0., 5.81395347e-03, 0., 0.,
          5.81395347e-03, 0., 0., 0., 0., 0., 0., 0., 2.32558139e-02, 0.,
          0., 0., 0., 0., 0., 5.81395347e-03, 0., 0., 1.16279069e-02, 0.,
          0., 0., 5.81395347e-03, 0., 0., 0., 0., 0., 0., 0., 0., 0., 0.,
          5.81395347e-03, 0., 0., 0., 0., 0., 0., 5.81395347e-03, 0., 0.,
          0., 0., 0., 0., 0., 0., 0., 0., 0., 0., 0., 0., 0., 0., 0., 0.,
          0., 0., 0., 0., 0., 5.81395347e-03, 0., 0., 0., 0., 0., 0.,
          5.81395347e-03, 0., 0., 0., 0., 0., 0., 5.81395347e-03, 0., 0.,
          0., 0., 0., 0., 0., 0., 0., 0., 0., 0., 0., 0., 0., 0., 0., 0.,
          0., 0., 0., 0., 5.81395347e-03, 0., 0., 0., 0., 0., 0., 0., 0.,
          0., 0., 0., 0., 0., 0., 0., 0., 5.81395347e-03, 0., 0., 0.,
          1.74418613e-02, 5.81395347e-03, 0., 0., 5.81395347e-03, 0., 0.,
          0., 0., 0., 0., 5.81395347e-03, 0., 0., 0., 5.81395347e-03, 0.,
          5.81395347e-03, 0., 0., 0., 0., 0., 1.16279069e-02, 0., 0., 0.,
          5.81395347e-03, 5.81395347e-03, 0., 0., 0., 0., 0., 0., 0., 0.,
          0., 5.81395347e-03, 0., 0., 0., 5.81395347e-03, 0., 0., 0., 0.,
          0., 0., 0., 0., 0., 0., 0., 5.81395347e-03, 5.81395347e-03,
          5.81395347e-03, 0., 0., 5.81395347e-03, 0., 0., 5.81395347e-03,
          0., 5.81395347e-03, 0., 0., 5.81395347e-03, 0., 0., 0., 0.,
          5.81395347e-03, 0., 0., 0., 5.81395347e-03, 0., 0., 0., 0., 0.,
          1.16279069e-02, 0., 5.81395347e-03, 0., 5.81395347e-03,
          5.81395347e-03, 0., 0., 0., 5.81395347e-03, 5.81395347e-03, 0.,
          0., 5.81395347e-03, 0., 0., 0., 0., 0., 0., 0., 0., 0., 0., 0.,
          0., 0., 0., 5.81395347e-03, 0., 0., 0., 0., 0., 5.81395347e-03,
          0., 0., 0., 5.81395347e-03, 5.81395347e-03, 0., 0., 0., 0., 0.,
          0., 0., 0., 0., 0., 0., 0., 0., 0., 5.81395347e-03, 0., 0., 0.,
          5.81395347e-03, 0., 0., 0., 0., 0., 0., 0., 0., 0., 0., 0., 0.,
          0., 0., 5.81395347e-03, 0., 0., 0., 0., 1.16279069e-02, 0., 0.,
          0., 0., 5.81395347e-03, 0., 0., 0., 0., 1.16279069e-02,
          5.81395347e-03, 0., 5.81395347e-03, 0., 0., 0., 0.,
          5.81395347e-03, 5.81395347e-03, 0., 0., 0., 0., 0., 0., 0., 0.,
          0., 0., 5.81395347e-03, 0., 0., 0., 0., 0., 0., 0., 0., 0., 0.,
          5.81395347e-03, 0., 0., 0., 5.81395347e-03, 5.81395347e-03,
          5.81395347e-03, 0., 0., 0., 0., 5.81395347e-03, 0., 0., 0., 0.,
          0., 5.81395347e-03, 0., 5.81395347e-03, 0., 0., 0.,
          5.81395347e-03, 0., 0., 0., 0., 0., 5.81395347e-03, 0.,
          5.81395347e-03, 0., 0., 0., 5.81395347e-03, 0., 0.,
          5.81395347e-03, 0., 5.81395347e-03, 0., 0., 0., 0., 0.,
          5.81395347e-03, 0., 0., 0., 0., 5.81395347e-03, 0., 0., 0., 0.,
          0., 1.16279069e-02, 5.81395347e-03, 5.81395347e-03,
          1.16279069e-02, 0., 5.81395347e-03, 0., 5.81395347e-03, 0., 0.,
          0., 0., 0., 0., 0., 0., 5.81395347e-03, 0., 0., 0., 0., 0., 0.,
          0., 0., 0., 0., 0., 0., 0., 0., 0., 1.16279069e-02, 0., 0., 0.,
          0., 0., 0., 0., 0., 0., 0., 0., 0., 5.81395347e-03, 0., 0., 0.,
          1.16279069e-02, 0., 0., 0., 5.81395347e-03, 0., 0., 0., 0., 0.,
          5.81395347e-03, 0., 0., 0., 0., 0., 0., 0., 5.81395347e-03, 0.,
          0., 5.81395347e-03, 0., 0., 0., 0., 0., 0., 0., 0.,
          5.81395347e-03, 0., 0., 0., 0., 0., 0., 0., 0., 0., 0., 0., 0.,
          0., 0., 0., 0., 0., 0., 0., 0., 0., 0., 0., 0., 0., 0.,
          5.81395347e-03, 0., 0., 0., 0., 0., 5.81395347e-03, 0., 0., 0.,
          0., 0., 0., 0., 0., 0., 0., 0., 0., 0., 0., 0., 0., 0., 0., 0.,
          0., 5.81395347e-03, 0., 0., 0., 5.81395347e-03, 5.81395347e-03,
          5.81395347e-03, 0., 0., 0., 0., 0., 0., 0., 0., 0., 0., 0., 0.,
          5.81395347e-03, 0., 0., 0., 5.81395347e-03, 0., 0., 0., 0., 0.,
          0., 0., 0., 5.81395347e-03, 0., 0., 0., 0., 1.16279069e-02, 0.,
          0., 5.81395347e-03, 0., 0., 0., 5.81395347e-03, 0., 0., 0., 0.,
          0., 0., 0., 0., 0., 0., 5.81395347e-03, 5.81395347e-03, 0., 0.,
          0., 0., 0., 5.81395347e-03, 0., 0., 0., 0., 5.81395347e-03, 0.,
          5.81395347e-03, 0., 0., 0., 5.81395347e-03, 0., 0., 0., 0., 0.,
          0., 0., 5.81395347e-03, 0., 0., 0., 0., 0., 0., 0., 0., 0., 0.,
          0., 5.81395347e-03, 5.81395347e-03, 5.81395347e-03, 0., 0., 0.,
          0., 0., 0., 0., 0., 0., 0., 0., 0., 0., 0., 0., 0., 0., 0., 0.,
          0., 0., 0., 0., 0., 0., 0., 0., 0., 5.81395347e-03, 0., 0., 0.,
          0., 5.81395347e-03, 0., 0., 0., 0., 1.74418613e-02, 0., 0., 0.,
          0., 0., 0., 0., 0., 0., 0., 0., 0., 0., 0., 0., 0., 0., 0., 0.,
          0., 5.81395347e-03, 1.16279069e-02, 0., 0., 0., 0., 0., 0., 0.,
          0., 0., 0., 0., 5.81395347e-03, 0., 5.81395347e-03, 0., 0., 0.,
          0., 0., 0., 0., 0., 0., 0., 0., 0., 0., 0., 0., 0., 0., 0., 0.,
          5.81395347e-03, 0., 0., 0., 0., 0., 0., 0., 0., 0., 0.,
          5.81395347e-03, 5.81395347e-03, 5.81395347e-03, 0., 0., 0., 0.,
          0., 0., 0., 1.74418613e-02, 0., 0., 0., 0., 0., 0., 0., 0., 0.,
          5.81395347e-03, 0., 0., 0., 0., 0., 0., 0., 5.81395347e-03, 0.,
          0., 0., 0., 0., 0., 0., 0., 0., 0., 0., 0., 0., 0., 0., 0., 0.,
          0., 0., 0., 0., 0., 0., 0., 0., 0., 0., 0., 0., 0., 0., 0., 0.,
          0., 5.81395347e-03, 0., 0., 0., 0., 0., 0., 0., 0., 0., 0.,
          5.81395347e-03, 0., 0., 0., 5.81395347e-03, 5.81395347e-03, 0.,
          0., 0., 5.81395347e-03, 0., 0., 0., 5.81395347e-03, 0., 0., 0.,
          0., 0., 0., 0., 0., 0., 0., 0., 0., 0., 0., 0., 5.81395347e-03,
          0., 0., 0., 0., 0., 0., 0., 0., 0., 0., 0., 0., 0., 0., 0., 0.,
          5.81395347e-03, 0., 0., 0., 0., 0., 0., 0., 0., 0., 0., 0., 0.,
          0., 0., 1.16279069e-02, 0., 0., 0., 0., 0., 0., 0., 0., 0., 0. ]
      - [ 0., 0., 6.02409616e-03, 0., 0., 0., 0., 0., 0., 0., 0., 0., 0.,
          0., 6.02409616e-03, 0., 0., 1.20481923e-02, 0., 0., 0., 0., 0.,
          0., 0., 0., 0., 0., 0., 0., 0., 0., 0., 0., 0., 0.,
          6.02409616e-03, 0., 0., 0., 0., 6.02409616e-03, 0., 0., 0., 0.,
          0., 0., 0., 0., 0., 0., 0., 0., 0., 0., 0., 0., 0., 0., 0., 0.,
          0., 0., 0., 0., 0., 0., 0., 0., 0., 6.02409616e-03, 0., 0., 0.,
          6.02409616e-03, 0., 0., 0., 0., 6.02409616e-03, 0., 0., 0., 0.,
          0., 0., 0., 0., 0., 6.02409616e-03, 0., 0., 0., 0.,
          6.02409616e-03, 1.20481923e-02, 0., 0., 0., 0., 6.02409616e-03,
          0., 0., 0., 0., 0., 0., 0., 0., 6.02409616e-03, 0., 0.,
          6.02409616e-03, 0., 0., 0., 0., 0., 0., 0., 0., 0., 0., 0., 0.,
          0., 0., 0., 0., 0., 0., 0., 0., 0., 0., 0., 0., 0., 0., 0.,
          1.20481923e-02, 0., 6.02409616e-03, 0., 0., 0., 0., 0., 0., 0.,
          0., 6.02409616e-03, 0., 6.02409616e-03, 0., 0., 0., 0., 0., 0.,
          0., 0., 0., 0., 0., 0., 0., 0., 6.02409616e-03, 0., 0., 0., 0.,
          0., 0., 0., 0., 6.02409616e-03, 0., 0., 0., 0., 0.,
          1.80722885e-02, 0., 0., 0., 0., 0., 0., 0., 0., 0., 0., 0., 0.,
          0., 0., 0., 0., 0., 6.02409616e-03, 0., 0., 6.02409616e-03, 0.,
          0., 0., 6.02409616e-03, 0., 0., 0., 0., 0., 0., 0., 0., 0.,
          6.02409616e-03, 1.20481923e-02, 0., 0., 0., 0., 0., 0., 0., 0.,
          6.02409616e-03, 0., 0., 0., 0., 0., 0., 0., 0., 6.02409616e-03,
          0., 6.02409616e-03, 0., 0., 0., 0., 0., 0., 0., 0., 0., 0., 0.,
          6.02409616e-03, 0., 0., 6.02409616e-03, 0., 0., 0., 0., 0., 0.,
          0., 6.02409616e-03, 0., 0., 0., 1.20481923e-02, 0., 0., 0.,
          6.02409616e-03, 0., 0., 0., 0., 0., 0., 0., 6.02409616e-03, 0.,
          0., 1.80722885e-02, 0., 0., 0., 0., 0., 0., 0., 6.02409616e-03,
          0., 6.02409616e-03, 0., 0., 0., 0., 0., 0., 6.02409616e-03,
          6.02409616e-03, 0., 0., 0., 0., 0., 0., 0., 0., 0., 0., 0.,
          6.02409616e-03, 0., 0., 0., 0., 0., 0., 0., 0., 0., 0.,
          6.02409616e-03, 0., 0., 0., 0., 0., 6.02409616e-03, 0., 0.,
          6.02409616e-03, 0., 0., 6.02409616e-03, 0., 0., 0., 0.,
          6.02409616e-03, 0., 0., 0., 1.20481923e-02, 0., 0., 0.,
          6.02409616e-03, 0., 0., 0., 0., 0., 0., 0., 0., 0., 0., 0., 0.,
          0., 0., 0., 0., 0., 0., 0., 0., 6.02409616e-03, 6.02409616e-03,
          0., 6.02409616e-03, 0., 0., 0., 6.02409616e-03, 0., 0.,
          1.20481923e-02, 0., 0., 0., 0., 0., 6.02409616e-03, 0., 0., 0.,
          0., 0., 0., 0., 0., 6.02409616e-03, 0., 0., 0., 6.02409616e-03,
          0., 0., 0., 0., 0., 0., 1.20481923e-02, 0., 6.02409616e-03, 0.,
          0., 0., 0., 0., 0., 6.02409616e-03, 6.02409616e-03, 0., 0., 0.,
          0., 0., 0., 0., 0., 0., 0., 0., 6.02409616e-03, 0., 0., 0., 0.,
          6.02409616e-03, 0., 0., 6.02409616e-03, 0., 0., 0., 0., 0., 0.,
          0., 0., 0., 0., 0., 0., 0., 0., 0., 0., 0., 0., 0., 0., 0., 0.,
          0., 0., 6.02409616e-03, 0., 0., 6.02409616e-03, 0.,
          6.02409616e-03, 0., 0., 6.02409616e-03, 0., 0., 0., 0., 0., 0.,
          0., 0., 0., 0., 0., 0., 0., 0., 0., 0., 0., 0., 0., 0.,
          6.02409616e-03, 0., 0., 0., 0., 0., 0., 0., 0., 0., 0., 0., 0.,
          0., 0., 0., 0., 1.20481923e-02, 0., 0., 0., 0., 0., 0., 0.,
          6.02409616e-03, 0., 0., 0., 0., 0., 0., 0., 0., 0., 0.,
          6.02409616e-03, 0., 0., 0., 0., 0., 0., 0., 0., 0., 0., 0., 0.,
          0., 0., 0., 0., 0., 6.02409616e-03, 0., 0., 0., 0., 0.,
          6.02409616e-03, 6.02409616e-03, 0., 6.02409616e-03, 0., 0., 0.,
          0., 0., 6.02409616e-03, 0., 0., 0., 0., 0., 0., 0., 0., 0.,
          6.02409616e-03, 0., 0., 0., 0., 6.02409616e-03, 0., 0., 0., 0.,
          0., 0., 0., 6.02409616e-03, 0., 6.02409616e-03, 0., 0., 0.,
          6.02409616e-03, 0., 0., 0., 0., 0., 0., 0., 0., 0., 0., 0., 0.,
          0., 0., 0., 1.20481923e-02, 0., 6.02409616e-03, 6.02409616e-03,
          0., 6.02409616e-03, 0., 0., 0., 0., 0., 0., 0., 0., 0., 0.,
          6.02409616e-03, 0., 0., 0., 0., 0., 6.02409616e-03, 0., 0., 0.,
          0., 0., 0., 0., 0., 6.02409616e-03, 0., 0., 0., 6.02409616e-03,
          0., 0., 0., 0., 0., 0., 0., 0., 0., 0., 0., 0., 0., 0., 0., 0.,
          0., 0., 0., 0., 0., 0., 0., 0., 0., 0., 0., 0., 0., 0., 0., 0.,
          0., 6.02409616e-03, 0., 0., 0., 1.20481923e-02, 6.02409616e-03,
          0., 6.02409616e-03, 0., 0., 0., 0., 0., 0., 0., 0., 0., 0.,
          1.20481923e-02, 0., 0., 0., 0., 6.02409616e-03, 0.,
          6.02409616e-03, 6.02409616e-03, 0., 0., 0., 0., 0., 0.,
          1.20481923e-02, 0., 0., 0., 6.02409616e-03, 0., 0., 0.,
          6.02409616e-03, 6.02409616e-03, 0., 0., 0., 0., 0.,
          6.02409616e-03, 0., 0., 0., 0., 6.02409616e-03, 0., 0., 0., 0.,
          0., 0., 0., 0., 0., 0., 0., 0., 0., 0., 0., 0., 0., 0., 0., 0.,
          0., 0., 6.02409616e-03, 0., 0., 0., 0., 0., 0., 0., 0.,
          6.02409616e-03, 0., 0., 0., 0., 0., 0., 0., 0., 0., 0.,
          6.02409616e-03, 0., 6.02409616e-03, 0., 0., 0., 0., 0., 0., 0.,
          0., 0., 0., 0., 6.02409616e-03, 0., 6.02409616e-03,
          6.02409616e-03, 0., 0., 0., 0., 0., 0., 0., 0., 6.02409616e-03,
          6.02409616e-03, 0., 0., 0., 0., 0., 0., 0., 0., 0., 0., 0., 0.,
          0., 1.20481923e-02, 6.02409616e-03, 0., 6.02409616e-03, 0.,
          1.20481923e-02, 0., 0., 0., 0., 0., 0., 0., 6.02409616e-03, 0.,
          0., 0., 0., 0., 0., 0., 0., 6.02409616e-03, 0., 0., 0., 0., 0.,
          0., 0., 0., 0., 0., 0., 0., 0., 0., 0., 0., 0., 0., 0., 0., 0.,
          6.02409616e-03, 0., 0., 6.02409616e-03, 0., 6.02409616e-03, 0.,
          0., 0., 0., 0., 0., 6.02409616e-03, 0., 0., 0., 0., 0.,
          6.02409616e-03, 6.02409616e-03, 0., 1.80722885e-02,
          6.02409616e-03, 0., 0., 0., 0., 0., 0., 0., 0., 0., 0., 0., 0.,
          0., 0., 6.02409616e-03, 6.02409616e-03, 0., 0., 0.,
          6.02409616e-03, 0., 0., 0., 0., 0., 0., 6.02409616e-03, 0., 0.,
          0., 0., 0., 0., 6.02409616e-03, 0., 0., 0., 0., 0., 0., 0., 0.,
          0., 0., 0., 0., 0., 0., 0., 0., 0., 6.02409616e-03, 0., 0., 0.,
          0., 0., 0., 0., 0., 0., 0., 0., 0., 0., 6.02409616e-03,
          6.02409616e-03, 0., 0., 0., 0., 0., 0., 0., 6.02409616e-03, 0.,
          0., 0., 0., 0., 0., 6.02409616e-03, 0., 0., 0., 0., 0., 0., 0.,
          0., 0., 0., 0., 0., 0., 6.02409616e-03, 0., 0., 0., 0., 0.,
          1.20481923e-02, 1.20481923e-02, 0., 0., 0., 0., 0.,
          1.20481923e-02, 6.02409616e-03, 0., 0., 0., 0., 0., 0., 0.,
          6.02409616e-03, 0., 0., 0., 0., 0., 0. ]
      - [ 0., 0., 5.23560215e-03, 0., 0., 0., 0., 0., 0., 0., 0., 0., 0.,
          0., 0., 0., 0., 0., 0., 5.23560215e-03, 0., 0., 0., 0., 0.,
          1.04712043e-02, 0., 0., 5.23560215e-03, 0., 0., 0., 0., 0., 0.,
          0., 0., 0., 0., 0., 0., 0., 0., 0., 0., 0., 0., 0., 0., 0., 0.,
          0., 0., 1.04712043e-02, 0., 0., 0., 0., 5.23560215e-03, 0., 0.,
          5.23560215e-03, 0., 0., 0., 0., 1.04712043e-02, 0.,
          1.04712043e-02, 0., 0., 0., 5.23560215e-03, 5.23560215e-03, 0.,
          0., 0., 0., 1.04712043e-02, 1.04712043e-02, 0., 0., 0., 0., 0.,
          5.23560215e-03, 0., 0., 0., 5.23560215e-03, 5.23560215e-03, 0.,
          0., 5.23560215e-03, 0., 0., 0., 0., 0., 0., 1.04712043e-02, 0.,
          0., 0., 0., 0., 0., 0., 0., 0., 0., 0., 0., 1.04712043e-02, 0.,
          0., 5.23560215e-03, 0., 1.04712043e-02, 0., 0., 0., 0., 0., 0.,
          0., 5.23560215e-03, 1.04712043e-02, 5.23560215e-03, 0., 0., 0.,
          0., 0., 0., 0., 5.23560215e-03, 0., 0., 0., 0., 0., 0., 0.,
          5.23560215e-03, 0., 0., 0., 0., 0., 0., 0., 5.23560215e-03, 0.,
          5.23560215e-03, 0., 0., 0., 0., 5.23560215e-03, 0., 0., 0., 0.,
          0., 0., 0., 0., 0., 0., 5.23560215e-03, 5.23560215e-03, 0.,
          5.23560215e-03, 0., 0., 0., 0., 0., 0., 0., 0., 0., 0., 0., 0.,
          5.23560215e-03, 0., 0., 0., 0., 0., 0., 0., 0., 0., 0., 0., 0.,
          0., 0., 0., 0., 0., 5.23560215e-03, 0., 0., 0., 0., 0., 0., 0.,
          0., 5.23560215e-03, 5.23560215e-03, 0., 5.23560215e-03, 0., 0.,
          0., 0., 0., 0., 0., 5.23560215e-03, 0., 0., 0., 0., 0., 0., 0.,
          0., 0., 0., 5.23560215e-03, 0., 0., 0., 0., 0., 0., 0., 0., 0.,
          0., 0., 0., 0., 0., 5.23560215e-03, 0., 0., 5.23560215e-03, 0.,
          5.23560215e-03, 0., 0., 0., 0., 0., 5.23560215e-03, 0., 0., 0.,
          0., 0., 0., 0., 0., 0., 0., 0., 0., 0., 5.23560215e-03,
          1.04712043e-02, 0., 0., 0., 0., 0., 0., 0., 0., 0., 0.,
          5.23560215e-03, 0., 0., 0., 0., 0., 0., 0., 0., 0., 0., 0., 0.,
          0., 0., 0., 0., 0., 0., 0., 0., 0., 0., 0., 5.23560215e-03, 0.,
          0., 0., 0., 0., 0., 0., 1.04712043e-02, 0., 0., 0., 0., 0.,
          1.04712043e-02, 0., 5.23560215e-03, 5.23560215e-03, 0.,
          5.23560215e-03, 5.23560215e-03, 0., 2.61780098e-02, 0.,
          5.23560215e-03, 0., 0., 0., 0., 5.23560215e-03, 5.23560215e-03,
          0., 5.23560215e-03, 0., 0., 0., 5.23560215e-03, 0., 0., 0.,
          5.23560215e-03, 0., 0., 0., 5.23560215e-03, 0., 0., 0., 0., 0.,
          0., 0., 4.71204184e-02, 0., 0., 0., 1.04712043e-02, 0.,
          1.04712043e-02, 5.23560215e-03, 0., 0., 0., 0., 0., 0., 0., 0.,
          0., 0., 0., 0., 0., 0., 0., 0., 0., 0., 1.04712043e-02, 0.,
          5.23560215e-03, 0., 0., 0., 0., 0., 0., 0., 5.23560215e-03, 0.,
          0., 0., 0., 0., 0., 0., 0., 0., 0., 0., 0., 0., 0.,
          5.23560215e-03, 0., 0., 0., 0., 0., 0., 0., 0., 0.,
          5.23560215e-03, 0., 0., 0., 0., 0., 0., 0., 0., 0., 0., 0., 0.,
          0., 0., 5.23560215e-03, 0., 0., 0., 0., 0., 0., 0., 0., 0., 0.,
          5.23560215e-03, 0., 0., 0., 0., 0., 0., 5.23560215e-03, 0., 0.,
          0., 0., 0., 0., 0., 0., 5.23560215e-03, 0., 0., 5.23560215e-03,
          0., 0., 0., 0., 0., 0., 0., 5.23560215e-03, 0., 0., 0., 0., 0.,
          0., 0., 0., 0., 0., 0., 0., 0., 0., 0., 0., 0., 0., 0., 0., 0.,
          0., 0., 5.23560215e-03, 5.23560215e-03, 0., 5.23560215e-03, 0.,
          0., 0., 0., 0., 0., 0., 0., 0., 0., 0., 0., 0., 0., 0., 0.,
          5.23560215e-03, 5.23560215e-03, 0., 0., 0., 5.23560215e-03, 0.,
          0., 0., 0., 0., 0., 0., 0., 0., 0., 0., 0., 0., 0.,
          5.23560215e-03, 0., 0., 5.23560215e-03, 0., 0., 0., 0., 0., 0.,
          5.23560215e-03, 0., 0., 0., 5.23560215e-03, 0., 0., 0., 0.,
          5.23560215e-03, 0., 0., 0., 0., 0., 0., 0., 0., 0., 0., 0., 0.,
          0., 5.23560215e-03, 0., 1.57068074e-02, 0., 0., 0., 0., 0.,
          5.23560215e-03, 0., 0., 0., 0., 0., 0., 0., 0., 5.23560215e-03,
          1.04712043e-02, 0., 0., 0., 0., 0., 0., 0., 0., 0., 0., 0., 0.,
          0., 5.23560215e-03, 0., 0., 0., 0., 5.23560215e-03, 0., 0., 0.,
          0., 0., 0., 0., 0., 1.04712043e-02, 0., 0., 0., 0., 0., 0., 0.,
          1.04712043e-02, 0., 0., 0., 0., 0., 0., 0., 5.23560215e-03, 0.,
          0., 0., 0., 0., 0., 0., 0., 0., 0., 0., 0., 0., 0., 0.,
          5.23560215e-03, 0., 0., 0., 0., 0., 5.23560215e-03, 0., 0., 0.,
          0., 0., 0., 5.23560215e-03, 5.23560215e-03, 0., 1.04712043e-02,
          0., 0., 0., 0., 0., 0., 0., 0., 0., 0., 0., 0., 0., 0., 0., 0.,
          0., 0., 0., 0., 0., 0., 0., 0., 0., 0., 0., 0., 0., 0.,
          5.23560215e-03, 0., 0., 0., 0., 0., 0., 0., 0., 0., 0., 0., 0.,
          0., 0., 0., 0., 0., 0., 0., 0., 0., 0., 0., 0., 0., 0.,
          5.23560215e-03, 0., 0., 0., 0., 0., 0., 0., 5.23560215e-03, 0.,
          0., 0., 0., 0., 0., 0., 0., 0., 0., 0., 0., 0., 0., 0.,
          5.23560215e-03, 0., 0., 0., 0., 0., 0., 0., 5.23560215e-03,
          5.23560215e-03, 0., 5.23560215e-03, 0., 0., 0., 0., 0., 0., 0.,
          0., 5.23560215e-03, 0., 0., 0., 0., 0., 0., 5.23560215e-03, 0.,
          0., 0., 5.23560215e-03, 0., 0., 5.23560215e-03, 0., 0., 0., 0.,
          5.23560215e-03, 0., 0., 0., 0., 1.57068074e-02, 0., 0., 0., 0.,
          0., 0., 0., 5.23560215e-03, 0., 0., 0., 0., 0., 0., 0., 0., 0.,
          0., 0., 0., 0., 0., 0., 0., 0., 0., 0., 0., 0., 0., 0., 0., 0.,
          0., 0., 0., 0., 0., 0., 1.04712043e-02, 0., 5.23560215e-03, 0.,
          0., 5.23560215e-03, 5.23560215e-03, 1.04712043e-02, 0., 0., 0.,
          0., 0., 0., 0., 0., 0., 0., 0., 0., 0., 0., 0., 0.,
          5.23560215e-03, 0., 0., 0., 5.23560215e-03, 0., 0., 0., 0., 0.,
          0., 0., 0., 0., 0., 0., 5.23560215e-03, 0., 0., 0., 0., 0., 0.,
          0., 5.23560215e-03, 5.23560215e-03, 5.23560215e-03, 0., 0., 0.,
          0., 5.23560215e-03, 0., 0., 0., 5.23560215e-03, 0., 0.,
          5.23560215e-03, 0., 0., 0., 0., 0., 0., 0., 0., 0., 0., 0., 0.,
          5.23560215e-03, 1.04712043e-02, 5.23560215e-03, 0., 0., 0.,
          5.23560215e-03, 0., 0., 0., 0., 0., 5.23560215e-03, 0., 0., 0.,
          0., 0., 0., 0., 0., 1.04712043e-02, 0., 0., 5.23560215e-03, 0.,
          0., 0., 0., 0., 0., 0., 0., 0., 0., 5.23560215e-03, 0., 0., 0.,
          0., 0., 0., 0., 0., 1.04712043e-02, 0., 0., 0., 0., 0., 0.,
          5.23560215e-03, 0., 0., 0., 5.23560215e-03, 0., 5.23560215e-03,
          5.23560215e-03, 0., 0., 0., 0., 1.04712043e-02, 5.23560215e-03,
          0., 0., 0., 0., 0., 0., 0., 5.23560215e-03, 0., 0., 0., 0., 0.,
          0., 0., 5.23560215e-03, 0., 5.23560215e-03, 5.23560215e-03, 0.,
          0., 0., 0., 0., 0., 0. ]
      - [ 0., 0., 0., 0., 0., 0., 0., 0., 0., 0., 0., 0., 0., 0., 0., 0.,
          0., 0., 0., 0., 0., 0., 0., 0., 0., 0., 0., 0., 0., 0., 0., 0.,
          0., 0., 0., 0., 0., 0., 0., 0., 0., 0., 0., 0., 0., 0., 0., 0.,
          0., 0., 0., 6.75675692e-03, 0., 0., 0., 0., 0., 0., 0., 0., 0.,
          0., 1.35135138e-02, 0., 0., 0., 0., 0., 0., 0., 0., 0., 0., 0.,
          6.75675692e-03, 6.75675692e-03, 0., 0., 0., 0., 0., 0., 0., 0.,
          0., 6.75675692e-03, 0., 6.75675692e-03, 0., 0., 0., 0., 0.,
          6.75675692e-03, 0., 6.75675692e-03, 6.75675692e-03, 0., 0.,
          6.75675692e-03, 0., 0., 0., 0., 0., 0., 0., 0., 0., 0., 0., 0.,
          0., 0., 0., 0., 0., 0., 0., 0., 0., 0., 0., 0., 0., 0., 0., 0.,
          6.75675692e-03, 0., 0., 0., 0., 0., 0., 0., 0., 6.75675692e-03,
          0., 0., 6.75675692e-03, 0., 0., 0., 0., 0., 0., 0.,
          6.75675692e-03, 0., 6.75675692e-03, 0., 0., 0., 0., 0., 0.,
          6.75675692e-03, 6.75675692e-03, 6.75675692e-03, 0.,
          6.75675692e-03, 6.75675692e-03, 0., 0., 0., 1.35135138e-02, 0.,
          0., 0., 0., 0., 6.75675692e-03, 0., 0., 6.75675692e-03,
          6.75675692e-03, 0., 0., 0., 0., 0., 0., 6.75675692e-03, 0., 0.,
          6.75675692e-03, 0., 0., 6.75675692e-03, 0., 0., 0., 0., 0., 0.,
          0., 0., 0., 0., 6.75675692e-03, 0., 0., 0., 0., 0., 0., 0.,
          6.75675692e-03, 6.75675692e-03, 0., 0., 0., 0., 0., 0., 0., 0.,
          0., 0., 6.75675692e-03, 0., 0., 0., 0., 0., 6.75675692e-03, 0.,
          0., 0., 0., 0., 0., 0., 0., 0., 6.75675692e-03, 0., 0., 0.,
          6.75675692e-03, 6.75675692e-03, 0., 0., 0., 0., 0.,
          6.75675692e-03, 0., 0., 0., 6.75675692e-03, 6.75675692e-03, 0.,
          0., 0., 0., 0., 0., 0., 0., 0., 0., 0., 0., 0., 0., 0., 0., 0.,
          0., 0., 0., 0., 0., 6.75675692e-03, 0., 0., 0., 0.,
          6.75675692e-03, 0., 0., 0., 0., 0., 0., 0., 0., 0., 0., 0., 0.,
          0., 0., 0., 0., 0., 0., 6.75675692e-03, 0., 6.75675692e-03, 0.,
          0., 0., 0., 0., 0., 1.35135138e-02, 0., 0., 0., 0., 0.,
          6.75675692e-03, 6.75675692e-03, 0., 0., 0., 0., 0., 0., 0.,
          6.75675692e-03, 0., 0., 0., 0., 6.75675692e-03, 0., 0., 0., 0.,
          0., 0., 6.75675692e-03, 6.75675692e-03, 0., 0., 0., 0., 0., 0.,
          0., 0., 0., 0., 0., 6.75675692e-03, 6.75675692e-03, 0., 0., 0.,
          0., 0., 0., 0., 0., 0., 0., 0., 0., 0., 0., 0., 0., 0., 0., 0.,
          0., 0., 0., 0., 0., 6.75675692e-03, 0., 6.75675692e-03, 0., 0.,
          0., 0., 0., 0., 0., 0., 0., 0., 0., 0., 0., 0., 0., 0.,
          6.75675692e-03, 0., 0., 0., 0., 0., 0., 0., 0., 0., 0., 0., 0.,
          0., 6.75675692e-03, 0., 0., 0., 0., 0., 0., 0., 0.,
          6.75675692e-03, 0., 6.75675692e-03, 6.75675692e-03, 0., 0., 0.,
          0., 0., 0., 0., 0., 0., 0., 6.75675692e-03, 0., 2.70270277e-02,
          0., 0., 0., 0., 0., 0., 0., 0., 0., 0., 0., 0., 0., 0., 0., 0.,
          0., 0., 0., 0., 0., 0., 0., 0., 0., 0., 0., 0., 0., 0., 0., 0.,
          0., 0., 0., 0., 0., 0., 1.35135138e-02, 0., 0., 0., 0., 0., 0.,
          0., 0., 0., 6.75675692e-03, 0., 0., 0., 0., 0., 0., 0., 0., 0.,
          0., 6.75675692e-03, 0., 0., 1.35135138e-02, 0., 0., 0., 0., 0.,
          0., 0., 0., 0., 0., 0., 0., 0., 0., 0., 0., 0., 0., 0., 0., 0.,
          0., 0., 0., 0., 0., 0., 0., 0., 0., 0., 0., 0., 6.75675692e-03,
          0., 0., 0., 0., 0., 0., 0., 1.35135138e-02, 0., 0., 0., 0., 0.,
          6.75675692e-03, 0., 6.75675692e-03, 0., 6.75675692e-03, 0., 0.,
          0., 0., 6.75675692e-03, 0., 0., 0., 0., 6.75675692e-03, 0., 0.,
          0., 0., 0., 0., 0., 0., 0., 6.75675692e-03, 0., 0., 0., 0., 0.,
          0., 0., 0., 0., 6.75675692e-03, 0., 0., 0., 0., 0.,
          6.75675692e-03, 0., 0., 0., 6.75675692e-03, 0., 0., 0., 0., 0.,
          0., 0., 0., 0., 0., 0., 6.75675692e-03, 0., 0., 6.75675692e-03,
          6.75675692e-03, 0., 0., 0., 0., 0., 0., 0., 0., 0., 0., 0., 0.,
          0., 0., 0., 0., 0., 0., 0., 0., 0., 0., 0., 0., 0.,
          1.35135138e-02, 0., 0., 0., 0., 0., 0., 6.75675692e-03, 0., 0.,
          6.75675692e-03, 0., 0., 0., 0., 0., 0., 0., 0., 0., 0., 0., 0.,
          0., 0., 0., 0., 0., 0., 6.75675692e-03, 6.75675692e-03, 0., 0.,
          0., 0., 0., 0., 6.75675692e-03, 0., 0., 0., 0., 0., 0., 0., 0.,
          0., 0., 6.75675692e-03, 0., 0., 0., 0., 0., 0., 0., 0., 0., 0.,
          0., 0., 0., 0., 0., 0., 0., 0., 0., 0., 0., 0., 0., 0., 0., 0.,
          0., 0., 0., 0., 6.75675692e-03, 6.75675692e-03, 0., 0., 0., 0.,
          6.75675692e-03, 0., 0., 0., 6.75675692e-03, 0., 0., 0., 0., 0.,
          0., 0., 0., 1.35135138e-02, 0., 0., 0., 0., 0., 0., 0., 0.,
          1.35135138e-02, 0., 6.75675692e-03, 0., 0., 0., 0., 0., 0., 0.,
          0., 0., 1.35135138e-02, 0., 0., 0., 0., 0., 0., 0., 0., 0., 0.,
          0., 0., 0., 0., 0., 0., 0., 0., 0., 6.75675692e-03, 0., 0., 0.,
          6.75675692e-03, 0., 0., 0., 0., 0., 0., 0., 0., 0., 0., 0., 0.,
          0., 0., 6.75675692e-03, 0., 0., 0., 0., 0., 6.75675692e-03, 0.,
          0., 0., 6.75675692e-03, 0., 6.75675692e-03, 0., 0., 0.,
          6.75675692e-03, 0., 0., 0., 0., 0., 0., 0., 0., 0., 0.,
          6.75675692e-03, 0., 0., 0., 0., 0., 0., 0., 6.75675692e-03, 0.,
          0., 0., 0., 0., 0., 0., 6.75675692e-03, 0., 0., 0.,
          6.75675692e-03, 0., 0., 0., 0., 0., 0., 0., 0., 6.75675692e-03,
          0., 6.75675692e-03, 0., 0., 0., 0., 0., 0., 0., 0., 0.,
          6.75675692e-03, 0., 0., 0., 1.35135138e-02, 0., 0., 0., 0., 0.,
          0., 0., 0., 0., 0., 0., 0., 0., 0., 0., 0., 0., 0., 0.,
          6.75675692e-03, 0., 0., 0., 0., 0., 0., 0., 0., 0., 0., 0., 0.,
          0., 0., 6.75675692e-03, 0., 0., 6.75675692e-03, 0., 0., 0., 0.,
          0., 6.75675692e-03, 0., 0., 0., 2.02702712e-02, 6.75675692e-03,
          0., 0., 0., 0., 0., 0., 0., 0., 0., 0., 0., 6.75675692e-03,
          6.75675692e-03, 0., 0., 0., 0., 0., 6.75675692e-03,
          6.75675692e-03, 0., 0., 1.35135138e-02, 0., 0., 0., 0., 0., 0.,
          6.75675692e-03, 0., 0., 0., 0., 0., 0., 0., 0., 0.,
          6.75675692e-03, 0., 0., 6.75675692e-03, 0., 0., 0.,
          6.75675692e-03, 0., 0., 0., 0., 0., 0., 0., 0., 0., 0., 0., 0.,
          0., 0., 0., 0., 0., 6.75675692e-03, 0., 0., 0., 0., 0.,
          6.75675692e-03, 0., 0., 0., 1.35135138e-02, 0., 0., 0., 0., 0.,
          0., 6.75675692e-03, 0., 0., 6.75675692e-03, 6.75675692e-03, 0.,
          6.75675692e-03, 0., 0., 0. ]
      - [ 0., 4.65116277e-03, 0., 0., 0., 0., 0., 0., 0., 0., 0.,
          4.65116277e-03, 0., 0., 0., 0., 0., 4.65116277e-03,
          4.65116277e-03, 0., 0., 0., 0., 0., 4.65116277e-03, 0., 0., 0.,
          4.65116277e-03, 0., 0., 0., 0., 0., 0., 0., 0., 0., 0., 0., 0.,
          0., 0., 0., 0., 0., 0., 0., 0., 4.65116277e-03, 0., 0., 0., 0.,
          0., 4.65116277e-03, 0., 0., 0., 0., 0., 0., 0., 0.,
          4.65116277e-03, 0., 0., 0., 0., 0., 0., 9.30232555e-03, 0., 0.,
          0., 4.65116277e-03, 0., 0., 1.39534883e-02, 0., 0.,
          4.65116277e-03, 0., 0., 4.65116277e-03, 0., 0., 0.,
          9.30232555e-03, 0., 0., 0., 0., 0., 0., 4.65116277e-03,
          4.65116277e-03, 0., 0., 0., 0., 0., 0., 0., 0., 0., 0., 0., 0.,
          0., 4.65116277e-03, 0., 0., 4.65116277e-03, 4.65116277e-03, 0.,
          0., 4.65116277e-03, 0., 0., 0., 9.30232555e-03, 0., 0.,
          4.65116277e-03, 0., 4.65116277e-03, 0., 0., 4.65116277e-03,
          4.65116277e-03, 0., 0., 0., 0., 0., 0., 0., 0., 0.,
          4.65116277e-03, 0., 9.30232555e-03, 4.65116277e-03, 0., 0., 0.,
          0., 0., 4.65116277e-03, 0., 4.65116277e-03, 4.65116277e-03, 0.,
          4.65116277e-03, 0., 0., 0., 0., 0., 4.65116277e-03, 0., 0., 0.,
          4.65116277e-03, 4.65116277e-03, 0., 0., 0., 4.65116277e-03, 0.,
          0., 0., 0., 4.65116277e-03, 4.65116277e-03, 0., 0., 0., 0., 0.,
          4.65116277e-03, 0., 0., 0., 0., 0., 0., 4.65116277e-03, 0., 0.,
          0., 4.65116277e-03, 0., 0., 0., 4.65116277e-03, 0.,
          9.30232555e-03, 0., 0., 0., 0., 0., 4.65116277e-03, 0., 0., 0.,
          0., 4.65116277e-03, 0., 0., 0., 0., 0., 0., 0., 0., 0., 0.,
          4.65116277e-03, 0., 0., 0., 0., 0., 0., 4.65116277e-03, 0., 0.,
          0., 0., 0., 4.65116277e-03, 0., 0., 0., 0., 0., 0., 0., 0., 0.,
          4.65116277e-03, 0., 0., 0., 0., 0., 0., 0., 0., 0., 0., 0., 0.,
          0., 4.65116277e-03, 0., 0., 0., 4.65116277e-03, 0.,
          1.39534883e-02, 4.65116277e-03, 0., 0., 0., 0., 4.65116277e-03,
          0., 0., 0., 0., 0., 0., 0., 0., 9.30232555e-03, 0., 0., 0., 0.,
          0., 4.65116277e-03, 0., 0., 0., 0., 0., 0., 0., 4.65116277e-03,
          0., 4.65116277e-03, 0., 4.65116277e-03, 0., 0., 0., 0., 0., 0.,
          0., 0., 0., 0., 0., 4.65116277e-03, 4.65116277e-03, 0., 0., 0.,
          0., 0., 4.65116277e-03, 0., 4.65116277e-03, 0., 4.65116277e-03,
          0., 0., 0., 0., 0., 0., 4.65116277e-03, 0., 0., 0., 0., 0., 0.,
          9.30232555e-03, 0., 0., 0., 4.65116277e-03, 0., 0., 0.,
          4.65116277e-03, 4.65116277e-03, 0., 4.65116277e-03, 0., 0., 0.,
          0., 0., 0., 0., 0., 0., 0., 0., 0., 0., 4.65116277e-03,
          4.65116277e-03, 0., 0., 0., 0., 0., 0., 0., 0., 0., 0., 0., 0.,
          4.65116277e-03, 0., 0., 0., 0., 0., 0., 1.86046511e-02, 0.,
          4.65116277e-03, 4.65116277e-03, 0., 0., 0., 0., 0.,
          4.65116277e-03, 9.30232555e-03, 0., 4.65116277e-03, 0., 0.,
          4.65116277e-03, 0., 0., 0., 4.65116277e-03, 4.65116277e-03, 0.,
          0., 4.65116277e-03, 0., 0., 0., 4.65116277e-03, 0., 0., 0., 0.,
          0., 0., 0., 4.65116277e-03, 0., 9.30232555e-03, 0., 0., 0.,
          4.65116277e-03, 0., 0., 0., 0., 0., 0., 0., 0., 0., 0., 0., 0.,
          0., 0., 0., 0., 0., 0., 0., 0., 0., 0., 0., 0., 0., 0.,
          4.65116277e-03, 0., 4.65116277e-03, 0., 0., 0., 0.,
          4.65116277e-03, 0., 0., 0., 4.65116277e-03, 0., 4.65116277e-03,
          0., 0., 4.65116277e-03, 4.65116277e-03, 0., 4.65116277e-03, 0.,
          0., 0., 0., 0., 4.65116277e-03, 0., 0., 0., 0., 0., 0., 0., 0.,
          0., 0., 0., 0., 0., 9.30232555e-03, 0., 0., 0., 4.65116277e-03,
          0., 0., 4.65116277e-03, 0., 0., 0., 4.65116277e-03, 0., 0., 0.,
          0., 0., 0., 0., 4.65116277e-03, 0., 0., 0., 0., 9.30232555e-03,
          0., 0., 0., 0., 0., 4.65116277e-03, 0., 0., 0., 0., 0.,
          1.39534883e-02, 0., 0., 0., 0., 0., 0., 0., 0., 0.,
          4.65116277e-03, 0., 4.65116277e-03, 0., 0., 4.65116277e-03, 0.,
          0., 0., 4.65116277e-03, 0., 0., 0., 0., 4.65116277e-03, 0., 0.,
          0., 0., 9.30232555e-03, 0., 0., 0., 0., 0., 0., 0., 0., 0., 0.,
          4.65116277e-03, 0., 4.65116277e-03, 4.65116277e-03, 0., 0., 0.,
          0., 0., 0., 0., 0., 0., 0., 0., 4.65116277e-03, 0., 0., 0., 0.,
          0., 0., 4.65116277e-03, 0., 0., 0., 0., 0., 0., 4.65116277e-03,
          0., 0., 0., 0., 0., 0., 0., 0., 4.65116277e-03, 0., 0.,
          9.30232555e-03, 0., 0., 0., 0., 0., 0., 0., 0., 0., 0., 0., 0.,
          9.30232555e-03, 0., 0., 4.65116277e-03, 0., 0., 0., 0., 0., 0.,
          0., 0., 0., 0., 0., 4.65116277e-03, 0., 0., 4.65116277e-03, 0.,
          0., 0., 4.65116277e-03, 0., 0., 0., 0., 0., 0., 4.65116277e-03,
          4.65116277e-03, 0., 0., 0., 0., 0., 0., 0., 0., 4.65116277e-03,
          0., 0., 0., 0., 0., 0., 0., 0., 0., 0., 0., 0., 0.,
          4.65116277e-03, 0., 0., 4.65116277e-03, 0., 0., 4.65116277e-03,
          0., 0., 0., 4.65116277e-03, 0., 0., 0., 0., 4.65116277e-03, 0.,
          4.65116277e-03, 0., 0., 4.65116277e-03, 0., 0., 0., 0., 0., 0.,
          0., 4.65116277e-03, 0., 0., 4.65116277e-03, 0., 0., 0., 0., 0.,
          0., 0., 0., 0., 0., 0., 4.65116277e-03, 0., 0., 0., 0., 0., 0.,
          0., 0., 0., 0., 0., 0., 0., 0., 0., 0., 0., 1.39534883e-02, 0.,
          0., 0., 0., 0., 4.65116277e-03, 0., 0., 0., 0., 0., 0., 0., 0.,
          4.65116277e-03, 0., 0., 0., 0., 0., 0., 0., 0., 0., 0., 0., 0.,
          0., 0., 0., 0., 0., 0., 4.65116277e-03, 4.65116277e-03, 0., 0.,
          4.65116277e-03, 0., 4.65116277e-03, 0., 0., 0., 0., 0., 0.,
          4.65116277e-03, 0., 4.65116277e-03, 0., 0., 0., 0., 0.,
          4.65116277e-03, 0., 0., 0., 0., 0., 0., 0., 0., 4.65116277e-03,
          0., 0., 4.65116277e-03, 0., 0., 0., 0., 0., 0., 0., 0., 0., 0.,
          0., 4.65116277e-03, 0., 4.65116277e-03, 0., 0., 0.,
          4.65116277e-03, 0., 0., 0., 0., 0., 4.65116277e-03, 0., 0., 0.,
          0., 0., 0., 0., 4.65116277e-03, 4.65116277e-03, 0., 0., 0., 0.,
          0., 0., 4.65116277e-03, 0., 0., 4.65116277e-03, 0., 0., 0., 0.,
          0., 0., 9.30232555e-03, 4.65116277e-03, 4.65116277e-03, 0., 0.,
          0., 0., 4.65116277e-03, 0., 0., 0., 0., 0., 0., 0., 0., 0., 0.,
          0., 0., 9.30232555e-03, 0., 0., 0., 0., 9.30232555e-03,
          4.65116277e-03, 9.30232555e-03, 0., 4.65116277e-03, 0.,
          4.65116277e-03, 0., 0., 0., 4.65116277e-03, 0., 0., 0., 0., 0.,
          0., 0., 0., 0., 4.65116277e-03, 4.65116277e-03, 0., 0., 0., 0.,
          0., 0., 4.65116277e-03, 0., 0., 0., 0., 4.65116277e-03, 0., 0.,
          0., 4.65116277e-03, 0., 4.65116277e-03, 0., 4.65116277e-03, 0.,
          0., 0., 0., 0., 0., 0., 0., 0., 0., 0., 4.65116277e-03, 0., 0.,
          0., 0., 0., 0., 0., 0., 0., 0., 0., 0., 0., 0., 0., 0., 0., 0.,
          0., 4.65116277e-03, 0., 0., 0., 0., 0., 4.65116277e-03, 0., 0.,
          0., 9.30232555e-03, 4.65116277e-03, 0., 0., 0., 0., 0., 0.,
          4.65116277e-03, 0., 0., 4.65116277e-03, 0., 0., 0., 0., 0., 0.,
          0., 0., 0., 0., 0., 0., 0., 4.65116277e-03, 0., 0., 0.,
          9.30232555e-03, 0., 0., 0., 0., 0., 0., 0., 0., 0., 0., 0., 0.,
          0., 0., 0. ]
      - [ 0., 1.56985875e-03, 1.56985875e-03, 0., 0., 0., 0.,
          1.56985875e-03, 1.56985875e-03, 0., 0., 0., 0., 1.56985875e-03,
          0., 1.56985875e-03, 0., 1.56985875e-03, 0., 0., 7.84929376e-03,
          0., 0., 1.56985875e-03, 0., 0., 0., 1.56985875e-03,
          1.56985875e-03, 0., 0., 0., 0., 0., 3.13971750e-03,
          1.56985875e-03, 0., 1.56985875e-03, 0., 0., 3.13971750e-03,
          3.13971750e-03, 1.56985875e-03, 0., 0., 0., 0., 0.,
          4.70957626e-03, 0., 0., 0., 1.56985875e-03, 3.13971750e-03,
          1.56985875e-03, 0., 0., 0., 0., 0., 0., 0., 1.56985875e-03,
          1.56985875e-03, 0., 1.56985875e-03, 0., 1.56985875e-03, 0., 0.,
          6.27943501e-03, 0., 0., 3.13971750e-03, 1.56985875e-03, 0., 0.,
          0., 1.56985875e-03, 1.56985875e-03, 0., 1.56985875e-03, 0.,
          1.56985875e-03, 1.56985875e-03, 1.56985875e-03, 0.,
          1.56985875e-03, 0., 0., 0., 4.70957626e-03, 0., 1.56985875e-03,
          1.56985875e-03, 3.13971750e-03, 1.56985875e-03, 1.56985875e-03,
          0., 3.13971750e-03, 0., 3.13971750e-03, 0., 4.70957626e-03, 0.,
          0., 0., 0., 0., 0., 6.27943501e-03, 0., 3.13971750e-03,
          1.56985875e-03, 1.56985875e-03, 0., 0., 3.13971750e-03, 0., 0.,
          0., 0., 0., 1.56985875e-03, 0., 4.70957626e-03, 0., 0., 0., 0.,
          0., 0., 1.56985875e-03, 0., 0., 0., 0., 1.56985875e-03,
          1.56985875e-03, 0., 0., 0., 1.56985875e-03, 0., 0., 0.,
          1.56985875e-03, 0., 0., 3.13971750e-03, 0., 1.56985875e-03, 0.,
          1.56985875e-03, 4.70957626e-03, 1.56985875e-03, 0.,
          1.56985875e-03, 1.56985875e-03, 0., 1.56985875e-03, 0., 0.,
          3.13971750e-03, 0., 1.56985875e-03, 1.56985875e-03,
          1.56985875e-03, 0., 1.56985875e-03, 3.13971750e-03,
          1.56985875e-03, 4.70957626e-03, 0., 0., 0., 1.56985875e-03, 0.,
          1.56985875e-03, 3.13971750e-03, 0., 1.56985875e-03,
          1.56985875e-03, 0., 1.56985875e-03, 0., 0., 0., 3.13971750e-03,
          1.56985875e-03, 0., 0., 0., 1.56985875e-03, 1.56985875e-03, 0.,
          0., 1.56985875e-03, 1.56985875e-03, 0., 0., 0., 0., 0.,
          3.13971750e-03, 1.56985875e-03, 3.13971750e-03, 1.56985875e-03,
          0., 0., 0., 1.56985875e-03, 3.13971750e-03, 4.70957626e-03, 0.,
          0., 1.56985875e-03, 1.56985875e-03, 0., 1.56985875e-03,
          1.56985875e-03, 3.13971750e-03, 0., 1.56985875e-03, 0., 0., 0.,
          1.56985875e-03, 0., 0., 1.56985875e-03, 0., 1.56985875e-03,
          1.56985875e-03, 1.56985875e-03, 0., 1.56985875e-03,
          4.70957626e-03, 0., 1.56985875e-03, 3.13971750e-03, 0., 0.,
          1.56985875e-03, 0., 0., 0., 0., 4.70957626e-03, 0., 0.,
          1.56985875e-03, 1.56985875e-03, 0., 1.56985875e-03, 0.,
          4.70957626e-03, 7.84929376e-03, 0., 0., 1.56985875e-03,
          4.70957626e-03, 1.56985875e-03, 0., 6.27943501e-03,
          1.56985875e-03, 1.56985875e-03, 0., 0., 0., 1.56985875e-03,
          1.56985875e-03, 3.13971750e-03, 0., 1.56985875e-03,
          1.56985875e-03, 1.56985875e-03, 0., 1.56985875e-03, 0., 0., 0.,
          0., 0., 0., 3.13971750e-03, 1.56985875e-03, 0., 0.,
          4.70957626e-03, 0., 0., 1.56985875e-03, 1.56985875e-03, 0.,
          1.56985875e-03, 3.13971750e-03, 4.70957626e-03, 4.70957626e-03,
          1.56985875e-03, 0., 0., 0., 3.13971750e-03, 0., 0., 0.,
          1.56985875e-03, 0., 0., 1.56985875e-03, 0., 0., 0.,
          4.70957626e-03, 0., 0., 1.56985875e-03, 0., 1.56985875e-03,
          1.56985875e-03, 0., 0., 0., 0., 3.13971750e-03, 3.13971750e-03,
          3.13971750e-03, 1.56985875e-03, 3.13971750e-03, 1.56985875e-03,
          0., 3.13971750e-03, 0., 1.56985875e-03, 1.56985875e-03, 0.,
          4.70957626e-03, 1.56985875e-03, 0., 0., 3.13971750e-03, 0., 0.,
          0., 0., 0., 3.13971750e-03, 0., 1.56985875e-03, 0.,
          1.56985875e-03, 1.56985875e-03, 0., 1.56985875e-03,
          3.13971750e-03, 0., 1.56985875e-03, 1.56985875e-03, 0., 0., 0.,
          3.13971750e-03, 1.56985875e-03, 0., 1.56985875e-03,
          4.70957626e-03, 0., 1.56985875e-03, 1.56985875e-03, 0., 0.,
          1.56985875e-03, 1.56985875e-03, 1.56985875e-03, 1.56985875e-03,
          0., 1.56985875e-03, 3.13971750e-03, 4.70957626e-03,
          3.13971750e-03, 0., 1.56985875e-03, 0., 0., 0., 0.,
          1.56985875e-03, 0., 3.13971750e-03, 0., 1.56985875e-03,
          1.56985875e-03, 0., 3.13971750e-03, 0., 0., 1.56985875e-03, 0.,
          0., 1.56985875e-03, 0., 1.56985875e-03, 0., 0., 3.13971750e-03,
          1.56985875e-03, 1.56985875e-03, 1.56985875e-03, 0.,
          1.56985875e-03, 0., 0., 0., 1.56985875e-03, 3.13971750e-03,
          1.56985875e-03, 1.56985875e-03, 0., 0., 0., 0., 0., 0., 0., 0.,
          0., 0., 0., 3.13971750e-03, 1.56985875e-03, 1.56985875e-03, 0.,
          1.56985875e-03, 1.56985875e-03, 0., 1.56985875e-03, 0., 0.,
          1.56985875e-03, 0., 0., 0., 1.56985875e-03, 1.56985875e-03,
          1.56985875e-03, 1.56985875e-03, 0., 0., 0., 0., 0.,
          1.56985875e-03, 3.13971750e-03, 3.13971750e-03, 1.56985875e-03,
          3.13971750e-03, 1.56985875e-03, 0., 0., 0., 0., 0., 0.,
          4.70957626e-03, 0., 0., 1.56985875e-03, 0., 1.56985875e-03, 0.,
          1.56985875e-03, 1.56985875e-03, 1.56985875e-03, 0.,
          1.56985875e-03, 0., 1.56985875e-03, 0., 1.56985875e-03, 0., 0.,
          4.70957626e-03, 3.13971750e-03, 4.70957626e-03, 0.,
          3.13971750e-03, 0., 0., 0., 3.13971750e-03, 3.13971750e-03, 0.,
          1.56985875e-03, 0., 0., 0., 0., 1.56985875e-03, 0.,
          1.56985875e-03, 0., 1.56985875e-03, 0., 0., 1.56985875e-03,
          3.13971750e-03, 0., 3.13971750e-03, 0., 1.56985875e-03, 0.,
          1.56985875e-03, 0., 0., 0., 0., 0., 3.13971750e-03, 0.,
          1.56985875e-03, 1.56985875e-03, 3.13971750e-03, 0., 0.,
          4.70957626e-03, 0., 0., 0., 0., 0., 1.56985875e-03,
          3.13971750e-03, 0., 0., 0., 3.13971750e-03, 1.56985875e-03, 0.,
          4.70957626e-03, 1.56985875e-03, 0., 0., 0., 3.13971750e-03, 0.,
          0., 0., 1.56985875e-03, 0., 0., 1.56985875e-03, 1.56985875e-03,
          0., 0., 0., 0., 0., 1.56985875e-03, 0., 0., 0., 0.,
          1.56985875e-03, 0., 0., 4.70957626e-03, 0., 0., 0.,
          1.56985875e-03, 1.56985875e-03, 1.56985875e-03, 0.,
          1.56985875e-03, 3.13971750e-03, 0., 0., 0., 0., 1.56985875e-03,
          1.56985875e-03, 0., 0., 0., 0., 0., 0., 0., 0., 1.56985875e-03,
          0., 3.13971750e-03, 1.56985875e-03, 6.27943501e-03, 0., 0., 0.,
          0., 0., 1.56985875e-03, 0., 1.56985875e-03, 0., 1.56985875e-03,
          1.56985875e-03, 0., 1.56985875e-03, 1.56985875e-03, 0., 0.,
          1.56985875e-03, 0., 0., 0., 1.56985875e-03, 3.13971750e-03, 0.,
          0., 0., 3.13971750e-03, 1.56985875e-03, 0., 4.70957626e-03,
          3.13971750e-03, 0., 1.56985875e-03, 0., 7.84929376e-03, 0.,
          1.56985875e-03, 1.56985875e-03, 1.56985875e-03, 1.56985875e-03,
          7.84929376e-03, 1.56985875e-03, 0., 3.13971750e-03,
          3.13971750e-03, 1.56985875e-03, 1.56985875e-03, 1.56985875e-03,
          1.56985875e-03, 0., 1.56985875e-03, 0., 0., 0., 3.13971750e-03,
          0., 3.13971750e-03, 4.70957626e-03, 0., 0., 1.56985875e-03, 0.,
          0., 1.56985875e-03, 1.56985875e-03, 1.56985875e-03, 0.,
          1.56985875e-03, 0., 0., 1.56985875e-03, 0., 0., 0.,
          1.56985875e-03, 1.56985875e-03, 0., 1.56985875e-03, 0., 0., 0.,
          1.56985875e-03, 0., 0., 1.56985875e-03, 0., 0., 0.,
          3.13971750e-03, 0., 0., 1.56985875e-03, 0., 4.70957626e-03, 0.,
          0., 0., 0., 1.56985875e-03, 4.70957626e-03, 1.56985875e-03, 0.,
          3.13971750e-03, 1.56985875e-03, 0., 1.56985875e-03,
          1.56985875e-03, 1.56985875e-03, 1.56985875e-03, 1.56985875e-03,
          0., 0., 0., 0., 1.56985875e-03, 0., 0., 3.13971750e-03,
          3.13971750e-03, 1.56985875e-03, 1.56985875e-03, 0.,
          3.13971750e-03, 0., 0., 0., 0., 0., 0., 0., 0., 1.56985875e-03,
          0., 0., 1.56985875e-03, 0., 1.56985875e-03, 0., 1.56985875e-03,
          1.56985875e-03, 0., 3.13971750e-03, 0., 1.56985875e-03,
          1.56985875e-03, 3.13971750e-03, 1.56985875e-03, 3.13971750e-03,
          0., 6.27943501e-03, 0., 1.56985875e-03, 0., 0., 1.56985875e-03,
          0., 0., 0., 3.13971750e-03, 0., 3.13971750e-03, 0.,
          1.56985875e-03, 0., 0., 6.27943501e-03, 0., 1.56985875e-03, 0.,
          0., 0., 0., 1.56985875e-03, 0., 0., 0., 1.56985875e-03, 0.,
          1.56985875e-03, 0., 0., 0., 0., 3.13971750e-03, 0., 0.,
          3.13971750e-03, 0., 1.56985875e-03, 0., 3.13971750e-03, 0.,
          1.56985875e-03, 0., 0., 3.13971750e-03, 0., 3.13971750e-03,
          1.56985875e-03, 0., 1.56985875e-03, 0., 0., 3.13971750e-03,
          1.56985875e-03, 0., 0., 1.56985875e-03, 0., 1.56985875e-03,
          1.56985875e-03, 0., 1.56985875e-03, 0., 0., 0., 1.56985875e-03,
          0., 0., 1.56985875e-03, 3.13971750e-03, 0., 0., 0., 0.,
          3.13971750e-03, 1.56985875e-03, 3.13971750e-03, 0., 0.,
          1.56985875e-03, 0., 1.56985875e-03, 0., 0., 0., 0., 0., 0.,
          1.56985875e-03, 1.56985875e-03, 3.13971750e-03, 0., 0.,
          1.56985875e-03, 0., 0., 0., 1.56985875e-03, 0., 0., 0., 0., 0.,
          1.56985875e-03, 0., 0., 0., 3.13971750e-03, 0., 0., 0., 0.,
          1.56985875e-03, 3.13971750e-03, 1.56985875e-03, 0., 0., 0.,
          1.56985875e-03, 0., 0., 0., 0., 0., 0., 0., 1.56985875e-03, 0.,
          0., 1.56985875e-03, 0., 3.13971750e-03, 4.70957626e-03, 0., 0.,
          1.56985875e-03, 1.56985875e-03, 0., 1.56985875e-03, 0.,
          3.13971750e-03, 0., 0., 0., 0., 0., 0., 0., 1.41287288e-02, 0.,
          0., 0., 1.56985875e-03, 1.56985875e-03, 0., 0., 1.56985875e-03,
          0., 0., 0., 1.56985875e-03, 1.56985875e-03, 1.56985875e-03, 0.,
          1.56985875e-03, 0., 1.56985875e-03, 0., 3.13971750e-03,
          4.70957626e-03, 0., 0., 0., 1.56985875e-03, 1.56985875e-03,
          1.56985875e-03, 1.56985875e-03, 1.56985875e-03, 0., 0., 0.,
          1.56985875e-03, 0., 0., 1.56985875e-03, 0., 0., 1.56985875e-03,
          1.56985875e-03, 0., 0., 0., 0., 1.56985875e-03, 0., 0.,
          1.56985875e-03, 0., 0., 1.56985875e-03, 0., 0., 0., 0.,
          1.56985875e-03, 0., 0., 0., 1.56985875e-03, 1.56985875e-03,
          1.56985875e-03, 0., 0., 1.56985875e-03, 0., 0., 0., 0.,
          3.13971750e-03, 0., 0., 0., 4.70957626e-03, 1.56985875e-03,
          3.13971750e-03, 1.56985875e-03, 0., 1.56985875e-03,
          4.70957626e-03, 0., 1.56985875e-03, 0., 7.84929376e-03, 0., 0.,
          0., 0., 1.56985875e-03, 0., 0., 3.13971750e-03, 0.,
          1.56985875e-03, 1.56985875e-03, 0., 0., 1.56985875e-03,
          1.56985875e-03, 0., 0., 0., 0., 0., 1.56985875e-03,
          3.13971750e-03 ]
      - [ 0., 0., 0., 4.01606411e-03, 0., 4.01606411e-03, 4.01606411e-03,
          0., 4.01606411e-03, 0., 0., 0., 0., 0., 4.01606411e-03, 0., 0.,
          0., 0., 4.01606411e-03, 0., 0., 0., 0., 0., 4.01606411e-03, 0.,
          0., 0., 4.01606411e-03, 4.01606411e-03, 0., 0., 0., 0.,
          4.01606411e-03, 0., 0., 0., 0., 0., 0., 4.01606411e-03,
          4.01606411e-03, 0., 0., 0., 0., 0., 0., 0., 0., 0., 0., 0.,
          4.01606411e-03, 0., 4.01606411e-03, 4.01606411e-03, 0., 0., 0.,
          0., 4.01606411e-03, 0., 0., 0., 0., 0., 0., 0., 1.60642564e-02,
          8.03212821e-03, 4.01606411e-03, 0., 0., 4.01606411e-03, 0., 0.,
          0., 4.01606411e-03, 0., 0., 0., 0., 4.01606411e-03, 0., 0., 0.,
          0., 0., 0., 4.01606411e-03, 0., 0., 0., 4.01606411e-03, 0.,
          4.01606411e-03, 0., 0., 0., 0., 0., 0., 0., 4.01606411e-03, 0.,
          0., 8.03212821e-03, 0., 0., 0., 0., 0., 0., 4.01606411e-03,
          8.03212821e-03, 0., 0., 0., 0., 0., 0., 0., 0., 4.01606411e-03,
          4.01606411e-03, 0., 4.01606411e-03, 0., 0., 0., 0., 0., 0., 0.,
          0., 0., 0., 0., 0., 0., 0., 0., 0., 8.03212821e-03, 0., 0., 0.,
          8.03212821e-03, 0., 0., 0., 0., 0., 0., 0., 0., 0., 0., 0., 0.,
          0., 0., 0., 0., 0., 0., 0., 0., 0., 4.01606411e-03, 0., 0., 0.,
          0., 0., 8.03212821e-03, 0., 0., 0., 0., 0., 0., 0., 0., 0., 0.,
          0., 0., 0., 0., 0., 4.01606411e-03, 4.01606411e-03, 0.,
          4.01606411e-03, 0., 0., 0., 4.01606411e-03, 4.01606411e-03,
          8.03212821e-03, 0., 4.01606411e-03, 0., 0., 0., 0., 0., 0., 0.,
          0., 0., 0., 0., 0., 4.01606411e-03, 0., 0., 0., 0., 0., 0., 0.,
          0., 0., 4.01606411e-03, 0., 0., 0., 0., 0., 0., 0., 0., 0., 0.,
          0., 0., 0., 0., 8.03212821e-03, 0., 4.01606411e-03, 0., 0., 0.,
          0., 0., 0., 0., 0., 4.01606411e-03, 0., 0., 0., 0., 0.,
          4.01606411e-03, 0., 0., 8.03212821e-03, 4.01606411e-03, 0., 0.,
          0., 0., 0., 0., 4.01606411e-03, 0., 0., 4.01606411e-03, 0.,
          4.01606411e-03, 0., 8.03212821e-03, 0., 0., 0., 4.01606411e-03,
          0., 4.01606411e-03, 0., 0., 0., 0., 4.01606411e-03, 0., 0., 0.,
          0., 0., 0., 0., 0., 4.01606411e-03, 0., 0., 0., 0., 0., 0.,
          4.01606411e-03, 0., 0., 4.01606411e-03, 0., 0., 0., 0., 0., 0.,
          0., 0., 0., 0., 0., 0., 0., 0., 0., 0., 0., 0., 0.,
          4.01606411e-03, 0., 4.01606411e-03, 0., 0., 0., 0., 0., 0., 0.,
          0., 4.01606411e-03, 0., 4.01606411e-03, 0., 0., 0.,
          4.01606411e-03, 4.01606411e-03, 0., 4.01606411e-03, 0., 0., 0.,
          0., 0., 0., 0., 4.01606411e-03, 0., 0., 0., 0., 0., 0., 0., 0.,
          8.03212821e-03, 0., 0., 0., 4.01606411e-03, 0., 0., 0., 0., 0.,
          0., 0., 0., 0., 4.01606411e-03, 0., 0., 0., 0., 0., 0., 0., 0.,
          0., 4.01606411e-03, 0., 0., 0., 0., 4.01606411e-03, 0., 0.,
          4.01606411e-03, 8.03212821e-03, 0., 4.01606411e-03, 0.,
          4.01606411e-03, 0., 4.01606411e-03, 0., 0., 4.01606411e-03, 0.,
          0., 0., 0., 0., 0., 0., 0., 0., 0., 0., 0., 0., 0., 0., 0., 0.,
          0., 0., 0., 0., 0., 0., 0., 8.03212821e-03, 0., 0., 0.,
          8.03212821e-03, 0., 0., 0., 0., 0., 0., 0., 4.01606411e-03, 0.,
          0., 0., 0., 0., 0., 0., 0., 0., 0., 0., 0., 0., 0.,
          4.01606411e-03, 0., 0., 0., 4.01606411e-03, 0., 0., 0.,
          8.03212821e-03, 0., 0., 0., 0., 4.01606411e-03, 0., 0., 0., 0.,
          0., 0., 0., 4.01606411e-03, 0., 0., 0., 0., 4.01606411e-03, 0.,
          0., 0., 0., 4.01606411e-03, 0., 4.01606411e-03, 4.01606411e-03,
          0., 4.01606411e-03, 0., 4.01606411e-03, 8.03212821e-03, 0., 0.,
          0., 0., 0., 0., 0., 0., 0., 0., 0., 0., 0., 0., 0., 0., 0., 0.,
          0., 4.01606411e-03, 4.01606411e-03, 4.01606411e-03, 0., 0., 0.,
          0., 0., 4.01606411e-03, 8.03212821e-03, 0., 0., 0., 0., 0., 0.,
          4.01606411e-03, 0., 0., 0., 0., 0., 4.01606411e-03,
          4.01606411e-03, 0., 0., 0., 0., 0., 0., 4.01606411e-03, 0.,
          4.01606411e-03, 0., 0., 0., 0., 4.01606411e-03, 0.,
          4.01606411e-03, 4.01606411e-03, 0., 0., 0., 0., 0., 0., 0., 0.,
          0., 0., 0., 0., 0., 0., 0., 0., 0., 0., 0., 4.01606411e-03, 0.,
          0., 0., 0., 0., 0., 0., 0., 4.01606411e-03, 4.01606411e-03, 0.,
          0., 0., 0., 0., 0., 0., 4.01606411e-03, 8.03212821e-03,
          4.01606411e-03, 4.01606411e-03, 0., 4.01606411e-03, 0., 0., 0.,
          4.01606411e-03, 0., 8.03212821e-03, 0., 0., 0., 8.03212821e-03,
          0., 0., 8.03212821e-03, 0., 4.01606411e-03, 0., 4.01606411e-03,
          4.01606411e-03, 0., 0., 0., 4.01606411e-03, 4.01606411e-03, 0.,
          0., 0., 0., 0., 4.01606411e-03, 0., 0., 0., 4.01606411e-03, 0.,
          0., 0., 0., 0., 0., 0., 0., 4.01606411e-03, 0., 0., 0., 0., 0.,
          4.01606411e-03, 0., 4.01606411e-03, 4.01606411e-03, 0., 0., 0.,
          0., 0., 0., 0., 0., 4.01606411e-03, 0., 4.01606411e-03, 0., 0.,
          0., 0., 0., 0., 0., 4.01606411e-03, 0., 0., 0., 0.,
          4.01606411e-03, 0., 4.01606411e-03, 0., 0., 0., 0., 0.,
          4.01606411e-03, 4.01606411e-03, 0., 4.01606411e-03,
          4.01606411e-03, 4.01606411e-03, 8.03212821e-03, 0., 0., 0., 0.,
          0., 8.03212821e-03, 0., 4.01606411e-03, 0., 0., 0., 0., 0., 0.,
          0., 0., 0., 0., 0., 0., 0., 0., 0., 4.01606411e-03, 0., 0.,
          4.01606411e-03, 0., 0., 0., 0., 0., 0., 0., 0., 0.,
          4.01606411e-03, 0., 0., 4.01606411e-03, 0., 8.03212821e-03, 0.,
          4.01606411e-03, 0., 4.01606411e-03, 0., 4.01606411e-03, 0., 0.,
          0., 1.20481923e-02, 0., 0., 0., 0., 0., 4.01606411e-03, 0., 0.,
          0., 4.01606411e-03, 0., 0., 4.01606411e-03, 0., 0., 0.,
          4.01606411e-03, 0., 0., 4.01606411e-03, 0., 0., 4.01606411e-03,
          0., 0., 0., 8.03212821e-03, 0., 0., 0., 0., 4.01606411e-03, 0.,
          0., 4.01606411e-03, 0., 0., 0., 0., 4.01606411e-03, 0., 0., 0.,
          0., 0., 4.01606411e-03, 0., 0., 0., 0., 4.01606411e-03,
          8.03212821e-03, 0., 0., 0., 4.01606411e-03, 0., 0., 0.,
          4.01606411e-03, 0., 8.03212821e-03, 0., 0., 4.01606411e-03,
          4.01606411e-03, 0., 0., 0., 0., 0., 1.20481923e-02, 0.,
          8.03212821e-03, 0., 0., 0., 0., 0., 0., 4.01606411e-03, 0., 0.,
          0., 0., 0., 0., 0., 0., 0., 4.01606411e-03, 0., 0., 0., 0., 0.,
          0., 0., 0., 4.01606411e-03, 4.01606411e-03, 0., 0., 0.,
          4.01606411e-03, 0., 0., 0., 4.01606411e-03, 0., 0., 0., 0., 0.,
          0., 0., 4.01606411e-03, 0., 0., 0., 0., 0., 8.03212821e-03, 0.,
          0., 4.01606411e-03, 0., 0., 0., 4.01606411e-03, 0., 0.,
          4.01606411e-03, 0., 0., 0., 0., 0., 0., 8.03212821e-03, 0., 0.,
          0., 0., 0., 0., 0., 0., 4.01606411e-03, 0., 0., 0.,
          4.01606411e-03, 0., 0., 0., 0., 4.01606411e-03, 0., 0., 0., 0.,
          0., 0., 0., 4.01606411e-03, 0., 0., 0., 0., 0., 0., 0.,
          4.01606411e-03, 0., 0., 0., 0., 4.01606411e-03, 0., 0., 0., 0.,
          4.01606411e-03, 0., 0., 0., 0., 0., 0., 0., 0., 0.,
          4.01606411e-03, 0., 0., 0., 0., 0., 4.01606411e-03,
          4.01606411e-03, 0., 8.03212821e-03, 0., 0., 0., 0., 0., 0., 0.,
          0., 0., 0., 0., 0., 8.03212821e-03, 0., 0., 0., 4.01606411e-03,
          0., 4.01606411e-03, 0., 8.03212821e-03, 0., 0., 0., 0.,
          4.01606411e-03, 0., 0., 0., 0., 0., 0., 0., 0., 0., 0.,
          4.01606411e-03, 0., 4.01606411e-03, 4.01606411e-03, 0., 0., 0.,
          4.01606411e-03, 0., 0., 0., 0., 8.03212821e-03, 0.,
          4.01606411e-03, 0., 4.01606411e-03, 0. ]
      - [ 0., 3.02571850e-03, 0., 0., 0., 3.02571850e-03, 0., 0., 0., 0.,
          0., 0., 0., 0., 1.51285925e-03, 1.51285925e-03, 0., 0.,
          3.02571850e-03, 1.51285925e-03, 0., 1.51285925e-03, 0., 0., 0.,
          3.02571850e-03, 0., 0., 3.02571850e-03, 1.51285925e-03,
          3.02571850e-03, 0., 1.51285925e-03, 3.02571850e-03,
          1.51285925e-03, 0., 9.07715596e-03, 0., 1.51285925e-03,
          4.53857798e-03, 1.51285925e-03, 1.51285925e-03, 3.02571850e-03,
          6.05143700e-03, 4.53857798e-03, 0., 0., 0., 0., 0.,
          1.51285925e-03, 0., 4.53857798e-03, 3.02571850e-03, 0.,
          1.51285925e-03, 3.02571850e-03, 1.51285925e-03, 1.51285925e-03,
          6.05143700e-03, 0., 1.51285925e-03, 0., 0., 1.51285925e-03, 0.,
          0., 1.51285925e-03, 1.51285925e-03, 0., 0., 0., 0., 0., 0., 0.,
          1.51285925e-03, 0., 4.53857798e-03, 0., 0., 1.51285925e-03,
          1.51285925e-03, 0., 1.51285925e-03, 1.51285925e-03,
          3.02571850e-03, 0., 0., 0., 0., 0., 0., 0., 1.51285925e-03,
          1.51285925e-03, 0., 1.51285925e-03, 1.51285925e-03, 0.,
          1.51285925e-03, 0., 1.51285925e-03, 0., 1.51285925e-03,
          3.02571850e-03, 0., 4.53857798e-03, 0., 1.51285925e-03,
          1.51285925e-03, 0., 0., 1.51285925e-03, 0., 0., 1.51285925e-03,
          0., 1.51285925e-03, 0., 0., 0., 3.02571850e-03, 0., 0., 0., 0.,
          0., 0., 1.51285925e-03, 0., 3.02571850e-03, 0., 3.02571850e-03,
          0., 0., 0., 0., 0., 0., 3.02571850e-03, 0., 0., 1.51285925e-03,
          0., 1.51285925e-03, 3.02571850e-03, 0., 0., 0., 0.,
          1.51285925e-03, 0., 0., 0., 0., 0., 1.51285925e-03, 0., 0.,
          1.51285925e-03, 0., 0., 3.02571850e-03, 0., 0., 0., 0.,
          1.51285925e-03, 0., 0., 1.51285925e-03, 3.02571850e-03, 0., 0.,
          1.51285925e-03, 0., 0., 0., 3.02571850e-03, 0., 0., 0.,
          1.51285925e-03, 0., 0., 0., 1.51285925e-03, 0., 1.51285925e-03,
          0., 0., 0., 0., 0., 0., 1.51285925e-03, 0., 1.51285925e-03, 0.,
          1.51285925e-03, 0., 0., 1.51285925e-03, 1.51285925e-03,
          1.51285925e-03, 3.02571850e-03, 0., 0., 1.51285925e-03, 0.,
          1.51285925e-03, 0., 1.51285925e-03, 1.51285925e-03,
          1.51285925e-03, 3.02571850e-03, 1.51285925e-03, 1.51285925e-03,
          3.02571850e-03, 9.07715596e-03, 1.51285925e-03, 0., 0.,
          6.05143700e-03, 0., 3.02571850e-03, 0., 1.51285925e-03,
          1.51285925e-03, 0., 0., 0., 0., 0., 0., 1.51285925e-03, 0., 0.,
          0., 0., 0., 0., 0., 1.51285925e-03, 1.51285925e-03, 0.,
          1.51285925e-03, 1.51285925e-03, 0., 0., 0., 0., 1.51285925e-03,
          1.51285925e-03, 0., 0., 3.02571850e-03, 0., 3.02571850e-03, 0.,
          0., 0., 4.53857798e-03, 0., 0., 0., 1.51285925e-03, 0., 0., 0.,
          1.51285925e-03, 0., 0., 0., 1.51285925e-03, 1.51285925e-03,
          1.51285925e-03, 0., 0., 1.51285925e-03, 0., 0., 0.,
          1.51285925e-03, 0., 0., 0., 3.02571850e-03, 1.51285925e-03,
          1.51285925e-03, 0., 0., 0., 0., 0., 0., 3.02571850e-03,
          1.05900150e-02, 1.51285925e-03, 0., 1.51285925e-03,
          1.51285925e-03, 0., 3.02571850e-03, 0., 0., 0., 3.02571850e-03,
          0., 0., 0., 7.56429601e-03, 0., 0., 3.02571850e-03,
          1.51285925e-03, 1.51285925e-03, 3.02571850e-03, 1.51285925e-03,
          0., 1.51285925e-03, 1.51285925e-03, 0., 0., 4.53857798e-03,
          4.53857798e-03, 1.51285925e-03, 1.51285925e-03, 1.51285925e-03,
          0., 0., 3.02571850e-03, 3.02571850e-03, 0., 0., 1.51285925e-03,
          0., 1.51285925e-03, 0., 0., 1.51285925e-03, 1.51285925e-03,
          1.51285925e-03, 0., 0., 0., 0., 1.51285925e-03, 1.51285925e-03,
          1.51285925e-03, 1.51285925e-03, 0., 1.51285925e-03,
          1.51285925e-03, 1.51285925e-03, 1.51285925e-03, 0.,
          1.51285925e-03, 1.51285925e-03, 1.51285925e-03, 0., 0., 0., 0.,
          0., 0., 4.53857798e-03, 0., 0., 1.51285925e-03, 0., 0.,
          1.51285925e-03, 3.02571850e-03, 0., 0., 0., 4.53857798e-03,
          1.51285925e-03, 3.02571850e-03, 0., 3.02571850e-03, 0.,
          3.02571850e-03, 0., 1.51285925e-03, 0., 0., 0., 4.53857798e-03,
          1.51285925e-03, 1.51285925e-03, 0., 0., 1.51285925e-03,
          1.51285925e-03, 1.51285925e-03, 0., 0., 0., 0., 0.,
          7.56429601e-03, 1.51285925e-03, 0., 0., 0., 0., 0.,
          1.51285925e-03, 0., 1.51285925e-03, 0., 1.51285925e-03, 0.,
          1.51285925e-03, 0., 0., 1.51285925e-03, 0., 3.02571850e-03, 0.,
          0., 0., 0., 0., 0., 0., 0., 0., 1.51285925e-03, 0., 0.,
          3.02571850e-03, 0., 1.51285925e-03, 1.51285925e-03,
          4.53857798e-03, 1.51285925e-03, 0., 1.51285925e-03, 0.,
          1.51285925e-03, 0., 0., 0., 1.51285925e-03, 0., 0., 0., 0.,
          3.02571850e-03, 1.51285925e-03, 3.02571850e-03, 1.51285925e-03,
          0., 0., 1.51285925e-03, 0., 0., 0., 0., 1.51285925e-03, 0.,
          4.53857798e-03, 4.53857798e-03, 1.51285925e-03, 1.51285925e-03,
          0., 0., 3.02571850e-03, 0., 3.02571850e-03, 0., 0.,
          3.02571850e-03, 0., 3.02571850e-03, 0., 0., 0., 0.,
          1.51285925e-03, 0., 1.51285925e-03, 0., 0., 3.02571850e-03,
          1.51285925e-03, 0., 3.02571850e-03, 3.02571850e-03, 0., 0., 0.,
          0., 0., 0., 1.51285925e-03, 0., 0., 1.51285925e-03, 0.,
          1.51285925e-03, 0., 0., 0., 0., 0., 0., 0., 1.51285925e-03, 0.,
          0., 0., 0., 1.51285925e-03, 0., 1.51285925e-03, 0.,
          3.02571850e-03, 0., 0., 0., 0., 0., 0., 0., 0., 0.,
          1.51285925e-03, 0., 0., 0., 1.51285925e-03, 0., 6.05143700e-03,
          3.02571850e-03, 0., 0., 1.51285925e-03, 1.51285925e-03,
          1.51285925e-03, 0., 1.51285925e-03, 1.51285925e-03, 0., 0., 0.,
          0., 0., 0., 3.02571850e-03, 1.51285925e-03, 0., 0., 0.,
          3.02571850e-03, 0., 0., 1.51285925e-03, 0., 1.51285925e-03,
          3.02571850e-03, 0., 1.51285925e-03, 3.02571850e-03,
          1.51285925e-03, 0., 0., 0., 0., 3.02571850e-03, 0.,
          1.51285925e-03, 0., 0., 0., 0., 0., 0., 1.51285925e-03, 0.,
          3.02571850e-03, 3.02571850e-03, 0., 0., 1.51285925e-03, 0.,
          1.51285925e-03, 3.02571850e-03, 3.02571850e-03, 3.02571850e-03,
          1.51285925e-03, 0., 1.51285925e-03, 0., 0., 1.51285925e-03,
          1.51285925e-03, 4.53857798e-03, 0., 0., 0., 0., 0., 0.,
          1.51285925e-03, 0., 0., 1.51285925e-03, 0., 0., 0.,
          3.02571850e-03, 0., 0., 1.51285925e-03, 1.51285925e-03, 0.,
          1.51285925e-03, 1.51285925e-03, 0., 0., 4.53857798e-03, 0.,
          1.51285925e-03, 6.05143700e-03, 0., 0., 0., 0., 1.51285925e-03,
          0., 4.53857798e-03, 1.51285925e-03, 0., 4.53857798e-03, 0., 0.,
          1.51285925e-03, 1.51285925e-03, 1.51285925e-03, 0., 0.,
          1.51285925e-03, 3.02571850e-03, 1.51285925e-03, 1.51285925e-03,
          1.51285925e-03, 0., 1.51285925e-03, 0., 3.02571850e-03, 0.,
          1.51285925e-03, 0., 1.51285925e-03, 0., 0., 0., 0., 0., 0.,
          1.51285925e-03, 4.53857798e-03, 0., 0., 1.51285925e-03,
          3.02571850e-03, 0., 0., 0., 0., 3.02571850e-03, 3.02571850e-03,
          3.02571850e-03, 1.51285925e-03, 4.53857798e-03, 1.51285925e-03,
          0., 3.02571850e-03, 0., 1.51285925e-03, 3.02571850e-03, 0., 0.,
          0., 1.51285925e-03, 0., 0., 3.02571850e-03, 0., 4.53857798e-03,
          1.51285925e-03, 3.02571850e-03, 0., 0., 0., 3.02571850e-03,
          1.51285925e-03, 1.51285925e-03, 0., 3.02571850e-03, 0., 0., 0.,
          0., 1.51285925e-03, 0., 1.51285925e-03, 1.51285925e-03,
          1.51285925e-03, 0., 1.51285925e-03, 1.51285925e-03,
          3.02571850e-03, 0., 0., 0., 0., 0., 3.02571850e-03, 0.,
          3.02571850e-03, 0., 0., 0., 0., 1.51285925e-03, 1.51285925e-03,
          0., 1.51285925e-03, 0., 4.53857798e-03, 4.53857798e-03, 0., 0.,
          0., 0., 1.51285925e-03, 0., 0., 1.51285925e-03, 1.51285925e-03,
          0., 0., 0., 1.51285925e-03, 3.02571850e-03, 6.05143700e-03, 0.,
          0., 0., 3.02571850e-03, 0., 1.51285925e-03, 3.02571850e-03, 0.,
          1.51285925e-03, 0., 3.02571850e-03, 6.05143700e-03, 0.,
          1.51285925e-03, 0., 0., 1.51285925e-03, 1.51285925e-03, 0., 0.,
          0., 1.51285925e-03, 1.51285925e-03, 0., 0., 3.02571850e-03,
          3.02571850e-03, 1.51285925e-03, 0., 1.51285925e-03, 0.,
          1.51285925e-03, 1.51285925e-03, 3.02571850e-03, 0., 0.,
          3.02571850e-03, 1.51285925e-03, 0., 0., 1.51285925e-03, 0., 0.,
          0., 1.51285925e-03, 0., 1.51285925e-03, 9.07715596e-03, 0.,
          1.51285925e-03, 3.02571850e-03, 3.02571850e-03, 1.51285925e-03,
          0., 0., 3.02571850e-03, 0., 0., 0., 0., 4.53857798e-03,
          1.51285925e-03, 4.53857798e-03, 3.02571850e-03, 0., 0.,
          4.53857798e-03, 0., 1.51285925e-03, 1.51285925e-03, 0.,
          1.51285925e-03, 0., 1.51285925e-03, 0., 0., 1.51285925e-03,
          1.51285925e-03, 0., 3.02571850e-03, 0., 1.51285925e-03,
          1.51285925e-03, 0., 0., 0., 0., 6.05143700e-03, 0.,
          1.51285925e-03, 3.02571850e-03, 1.51285925e-03, 1.51285925e-03,
          0., 0., 0., 0., 0., 0., 0., 0., 0., 3.02571850e-03, 0.,
          3.02571850e-03, 3.02571850e-03, 0., 1.51285925e-03, 0., 0., 0.,
          0., 3.02571850e-03, 3.02571850e-03, 0., 1.51285925e-03, 0., 0.,
          0., 0., 0., 0., 1.51285925e-03, 4.53857798e-03, 1.51285925e-03,
          0., 0., 0., 1.51285925e-03, 1.51285925e-03, 1.51285925e-03, 0.,
          1.51285925e-03, 0., 1.51285925e-03, 0., 0., 1.51285925e-03,
          4.53857798e-03, 4.53857798e-03, 0., 0., 0., 0., 1.51285925e-03,
          1.51285925e-03, 1.51285925e-03, 0., 0., 0., 0., 0.,
          1.51285925e-03, 0., 1.51285925e-03, 0., 0., 1.51285925e-03,
          1.51285925e-03, 0., 1.51285925e-03, 1.51285925e-03, 0.,
          4.53857798e-03, 1.51285925e-03, 0., 0., 1.51285925e-03,
          1.51285925e-03, 0., 0., 4.53857798e-03, 3.02571850e-03, 0., 0.,
          0., 3.02571850e-03, 0., 1.51285925e-03, 0., 0., 0., 0.,
          3.02571850e-03, 1.51285925e-03, 0., 1.51285925e-03,
          1.51285925e-03, 3.02571850e-03, 0., 1.51285925e-03, 0.,
          1.51285925e-03, 3.02571850e-03, 0., 0., 0., 1.51285925e-03,
          1.51285925e-03, 0., 3.02571850e-03, 0., 1.51285925e-03,
          1.51285925e-03, 3.02571850e-03, 0., 0., 0., 0., 1.51285925e-03,
          0., 1.51285925e-03, 0., 1.51285925e-03, 0., 1.51285925e-03,
          1.51285925e-03, 0., 0., 0., 0., 1.51285925e-03, 0., 0.,
          1.51285925e-03, 4.53857798e-03, 3.02571850e-03, 0., 0.,
          1.51285925e-03, 0., 4.53857798e-03, 1.51285925e-03,
          1.51285925e-03, 1.51285925e-03, 3.02571850e-03, 0., 0.,
          3.02571850e-03, 0., 1.51285925e-03, 1.51285925e-03,
          1.51285925e-03, 0., 0., 1.51285925e-03, 1.51285925e-03,
          3.02571850e-03 ]
      - [ 1.22963416e-03, 2.15185969e-03, 9.22225649e-04, 1.22963416e-03,
          6.14817080e-04, 3.07408540e-04, 9.22225649e-04, 1.84445130e-03,
          6.14817080e-04, 1.53704267e-03, 1.53704267e-03, 0.,
          1.84445130e-03, 9.22225649e-04, 6.14817080e-04, 1.53704267e-03,
          6.14817080e-04, 1.53704267e-03, 1.22963416e-03, 6.14817080e-04,
          1.84445130e-03, 1.22963416e-03, 2.15185969e-03, 6.14817080e-04,
          0., 9.22225649e-04, 9.22225649e-04, 9.22225649e-04,
          3.07408540e-04, 3.07408540e-04, 3.07408540e-04, 3.07408540e-04,
          6.14817080e-04, 9.22225649e-04, 9.22225649e-04, 1.53704267e-03,
          6.14817080e-04, 9.22225649e-04, 9.22225649e-04, 6.14817080e-04,
          9.22225649e-04, 3.38149397e-03, 1.84445130e-03, 0.,
          1.53704267e-03, 6.14817080e-04, 0., 3.07408534e-03,
          6.14817080e-04, 6.14817080e-04, 0., 3.07408540e-04,
          3.07408540e-04, 1.22963416e-03, 6.14817080e-04, 1.22963416e-03,
          6.14817080e-04, 6.14817080e-04, 1.84445130e-03, 1.84445130e-03,
          1.84445130e-03, 2.45926832e-03, 9.22225649e-04, 9.22225649e-04,
          3.07408540e-04, 3.07408540e-04, 0., 9.22225649e-04,
          1.53704267e-03, 6.14817080e-04, 6.14817080e-04, 1.22963416e-03,
          1.22963416e-03, 6.14817080e-04, 6.14817080e-04, 3.07408540e-04,
          9.22225649e-04, 0., 1.53704267e-03, 6.14817080e-04,
          1.53704267e-03, 1.22963416e-03, 9.22225649e-04, 2.45926832e-03,
          3.07408540e-04, 2.45926832e-03, 6.14817080e-04, 6.14817080e-04,
          0., 9.22225649e-04, 3.07408540e-04, 2.15185969e-03,
          6.14817080e-04, 6.14817080e-04, 9.22225649e-04, 2.15185969e-03,
          1.22963416e-03, 3.07408540e-04, 0., 6.14817080e-04,
          9.22225649e-04, 9.22225649e-04, 6.14817080e-04, 1.22963416e-03,
          1.22963416e-03, 9.22225649e-04, 1.84445130e-03, 0.,
          9.22225649e-04, 1.53704267e-03, 3.68890259e-03, 9.22225649e-04,
          3.07408540e-04, 1.22963416e-03, 0., 3.07408540e-04,
          6.14817080e-04, 3.07408540e-04, 9.22225649e-04, 6.14817080e-04,
          1.22963416e-03, 6.14817080e-04, 0., 3.07408540e-04,
          1.53704267e-03, 2.45926832e-03, 1.84445130e-03, 9.22225649e-04,
          2.15185969e-03, 9.22225649e-04, 3.07408540e-04, 3.38149397e-03,
          6.14817080e-04, 6.14817080e-04, 3.07408540e-04, 3.07408540e-04,
          6.14817080e-04, 9.22225649e-04, 0., 0., 2.76667695e-03,
          1.22963416e-03, 0., 1.22963416e-03, 3.07408540e-04,
          1.84445130e-03, 6.14817080e-04, 1.53704267e-03, 1.22963416e-03,
          0., 9.22225649e-04, 9.22225649e-04, 6.14817080e-04,
          6.14817080e-04, 1.84445130e-03, 9.22225649e-04, 3.07408540e-04,
          6.14817080e-04, 6.14817080e-04, 3.07408540e-04, 0.,
          3.07408540e-04, 2.15185969e-03, 3.68890259e-03, 3.07408540e-04,
          0., 1.53704267e-03, 0., 2.15185969e-03, 1.53704267e-03,
          1.53704267e-03, 1.53704267e-03, 6.14817080e-04, 3.07408540e-04,
          0., 0., 3.07408540e-04, 1.53704267e-03, 1.53704267e-03,
          9.22225649e-04, 1.22963416e-03, 6.14817080e-04, 6.14817080e-04,
          2.15185969e-03, 1.84445130e-03, 9.22225649e-04, 6.14817080e-04,
          6.14817080e-04, 3.07408540e-04, 2.15185969e-03, 6.14817080e-04,
          9.22225649e-04, 0., 6.14817080e-04, 0., 1.22963416e-03,
          3.07408540e-04, 6.14817080e-04, 3.07408540e-04, 0.,
          1.53704267e-03, 9.22225649e-04, 9.22225649e-04, 6.14817080e-04,
          3.07408540e-04, 1.84445130e-03, 9.22225649e-04, 1.22963416e-03,
          1.53704267e-03, 3.07408540e-04, 0., 0., 6.14817080e-04, 0.,
          6.14817080e-04, 9.22225649e-04, 1.22963416e-03, 3.68890259e-03,
          1.53704267e-03, 6.14817080e-04, 1.22963416e-03, 1.22963416e-03,
          1.53704267e-03, 3.07408540e-04, 0., 1.22963416e-03,
          3.07408540e-04, 9.22225649e-04, 3.07408540e-04, 9.22225649e-04,
          2.76667695e-03, 9.22225649e-04, 6.14817080e-04, 0.,
          1.53704267e-03, 0., 3.07408540e-04, 9.22225649e-04, 0.,
          3.07408540e-04, 2.15185969e-03, 1.53704267e-03, 3.07408540e-04,
          6.14817080e-04, 2.45926832e-03, 6.14817080e-04, 6.14817080e-04,
          9.22225649e-04, 0., 6.14817080e-04, 6.14817080e-04,
          3.07408534e-03, 1.53704267e-03, 1.22963416e-03, 9.22225649e-04,
          1.84445130e-03, 6.14817080e-04, 9.22225649e-04, 1.84445130e-03,
          6.14817080e-04, 1.22963416e-03, 1.53704267e-03, 1.84445130e-03,
          1.22963416e-03, 3.07408540e-04, 6.14817080e-04, 2.45926832e-03,
          1.53704267e-03, 3.07408540e-04, 1.22963416e-03, 3.07408540e-04,
          9.22225649e-04, 1.22963416e-03, 1.22963416e-03, 1.53704267e-03,
          1.22963416e-03, 1.53704267e-03, 3.07408540e-04, 3.07408540e-04,
          2.15185969e-03, 1.53704267e-03, 0., 8.60743877e-03,
          6.14817080e-04, 1.22963416e-03, 9.22225649e-04, 9.22225649e-04,
          3.07408540e-04, 1.22963416e-03, 1.53704267e-03, 9.22225649e-04,
          0., 3.07408540e-04, 3.07408540e-04, 1.84445130e-03, 0.,
          9.22225649e-04, 6.14817080e-04, 5.84076205e-03, 3.07408540e-04,
          3.07408540e-04, 1.22963416e-03, 6.14817080e-04, 9.22225649e-04,
          6.14817080e-04, 3.07408540e-04, 3.07408540e-04, 3.07408540e-04,
          1.53704267e-03, 0., 9.22225649e-04, 6.14817080e-04,
          3.38149397e-03, 2.45926832e-03, 9.22225649e-04, 0.,
          1.53704267e-03, 9.22225649e-04, 3.07408540e-04, 6.14817080e-04,
          1.22963416e-03, 1.53704267e-03, 9.22225649e-04, 6.14817080e-04,
          1.53704267e-03, 1.84445130e-03, 9.22225649e-04, 6.14817080e-04,
          1.84445130e-03, 0., 6.14817080e-04, 1.22963416e-03,
          9.22225649e-04, 0., 1.84445130e-03, 1.84445130e-03, 0.,
          6.14817080e-04, 9.22225649e-04, 3.07408540e-04, 6.14817080e-04,
          1.84445130e-03, 0., 1.84445130e-03, 3.07408540e-04,
          6.14817080e-04, 1.22963416e-03, 6.14817080e-04, 2.45926832e-03,
          6.14817080e-04, 6.14817080e-04, 3.07408540e-04, 6.14817080e-04,
          3.07408540e-04, 1.22963416e-03, 6.14817080e-04, 0.,
          9.22225649e-04, 0., 9.22225649e-04, 1.53704267e-03,
          2.45926832e-03, 1.84445130e-03, 1.22963416e-03, 1.53704267e-03,
          6.14817080e-04, 3.07408540e-04, 1.53704267e-03, 9.22225649e-04,
          1.53704267e-03, 6.14817080e-04, 1.53704267e-03, 1.53704267e-03,
          0., 1.53704267e-03, 6.14817080e-04, 2.15185969e-03, 0.,
          6.14817080e-04, 0., 0., 0., 1.53704267e-03, 6.14817080e-04,
          1.53704267e-03, 2.15185969e-03, 3.68890259e-03, 6.14817080e-04,
          3.07408540e-04, 1.22963416e-03, 0., 1.22963416e-03,
          6.14817080e-04, 1.53704267e-03, 3.07408540e-04, 9.22225649e-04,
          0., 2.45926832e-03, 3.07408540e-04, 1.84445130e-03,
          1.22963416e-03, 9.22225649e-04, 1.22963416e-03, 3.07408540e-04,
          1.53704267e-03, 6.14817080e-04, 1.22963416e-03, 3.07408540e-04,
          9.22225649e-04, 9.22225649e-04, 6.14817080e-04, 3.07408540e-04,
          9.22225649e-04, 6.14817080e-04, 9.22225649e-04, 9.22225649e-04,
          0., 1.53704267e-03, 2.15185969e-03, 6.14817080e-04,
          1.22963416e-03, 6.14817080e-04, 0., 1.53704267e-03,
          6.14817080e-04, 1.53704267e-03, 2.15185969e-03, 2.45926832e-03,
          6.14817080e-04, 0., 1.53704267e-03, 3.07408540e-04, 0.,
          3.07408540e-04, 9.22225649e-04, 9.22225649e-04, 1.22963416e-03,
          1.53704267e-03, 9.22225649e-04, 3.07408540e-04, 6.14817080e-04,
          6.14817080e-04, 9.22225649e-04, 0., 3.07408540e-04,
          1.53704267e-03, 1.22963416e-03, 3.07408540e-04, 6.14817080e-04,
          9.22225649e-04, 9.22225649e-04, 6.14817080e-04, 0.,
          1.22963416e-03, 6.14817080e-04, 3.07408540e-04, 1.22963416e-03,
          9.22225649e-04, 3.07408540e-04, 1.53704267e-03, 3.07408540e-04,
          3.07408540e-04, 1.22963416e-03, 6.14817080e-04, 0.,
          9.22225649e-04, 0., 1.10667078e-02, 1.22963416e-03,
          2.45926832e-03, 3.07408540e-04, 9.22225649e-04, 1.53704267e-03,
          2.15185969e-03, 1.22963416e-03, 6.14817080e-04, 1.84445130e-03,
          1.22963416e-03, 1.53704267e-03, 3.07408540e-04, 2.45926832e-03,
          3.07408540e-04, 6.14817080e-04, 6.14817080e-04, 0.,
          9.22225649e-04, 3.07408540e-04, 3.07408540e-04, 9.22225649e-04,
          9.22225649e-04, 3.07408540e-04, 1.84445130e-03, 9.22225649e-04,
